1.39109271
-0.01886407
-0.42116655
-3.52126292
1.68717224
-1.03464418
0.26078423
0.09534526
-0.21053030
-1.22976302
-0.96323213
1.63650411
-0.72223349
-1.67981615
-0.07996033
-0.19457625
0.11369739
1.11317656
-0.20310464
0.42729634
-1.56440970
1.38605548
0.59668533
-0.79169675
-0.51620585
0.03490575
0.36784850
-0.03897041
-0.17066839
0.19417903
0.99443904
1.29989614
0.69180760
0.73939049
2.63914855
0.02524117
-1.42183409
0.26431249
-0.28676838
-0.02924660
1.02102919
1.83114543
-1.27897331
-1.84864780
-1.50153007
0.21892424
-0.31334825
-0.32240570
-1.65986315
1.19803135
-0.00614065
-0.92759561
-0.57173672
-0.30718253
0.05232370
0.33248616
-0.81921811
-0.37719563
0.55897565
0.63541864
0.82557463
0.56864045
-0.43971431
2.30471043
2.02850938
1.23752641
0.85135121
-0.80901617
-1.36360467
-0.22526634
-0.46901384
-1.28265188
0.64430103
-0.01731012
-1.86139708
3.54370287
0.71335900
-0.13576645
-1.21507831
1.11401344
-0.56771413
-1.85045610
-0.21314129
0.96708836
-0.88240211
-1.21862595
-0.57238919
-0.78593725
2.22113525
0.90681179
-2.81338783
-0.39045072
0.75411842
-1.15967027
0.19716628
0.28117084
-0.02960416
-0.87515789
-1.27702203
-0.92402043
1.39234017
1.48936257
-0.72491500
1.05531432
-0.71580192
0.33706634
-1.14126233
-1.64132817
-0.01793332
-0.84445853
-0.47103777
-0.79874291
