3.42540011
4.67222826
0.17568779
-0.37001008
4.42673952
-0.77027658
7.44996134
0.06028065
5.27277392
0.04774935
3.52737150
0.29201457
-0.32245698
-0.29649728
-0.42819144
2.01040497
4.77960158
13.30088273
4.48399645
-0.14416442
-0.08043416
0.82951699
-0.12245275
8.72537428
-0.39745824
0.14208223
-0.06017309
7.47935655
-4.73897745
6.70833008
-0.47241397
3.87492604
1.76912622
3.09446601
-0.77736737
2.73590656
5.38327259
3.34477129
-0.22828908
2.63802041
3.87744204
4.02237142
1.09874815
-0.35320855
4.25790491
-0.77214278
-0.55972982
-0.60944559
-0.21165834
-0.41199451
0.65347657
3.67490625
5.83590411
-0.24015114
3.34384772
3.66854448
-0.49114171
-0.49756908
-0.77805135
-0.22049816
4.49765732
0.00385972
-5.91284737
8.07071328
2.39812593
2.65385344
-0.65419666
2.63788746
3.43970483
-0.75606845
3.87921457
-0.38546151
-0.17741604
-0.25299976
16.11710184
3.49593884
-0.05277333
3.33423356
9.36407938
2.75165984
2.38414888
-1.70898877
0.05373466
1.93977775
4.03149601
2.34829795
5.74349474
-0.87829894
2.64717477
0.21893495
4.69706658
-0.29864234
8.26534266
1.62784723
3.45528066
-0.55916851
-0.53468616
-0.56953238
-2.47136489
-0.28745180
-0.60236302
-0.36378875
2.52221981
-0.04195345
0.76355712
2.48198851
1.80283998
2.60867040
-0.27632110
10.21218487
-0.57612579
2.21016462
2.88150371
5.05365356
2.40134633
1.59936143
3.59289529
0.19440368
1.64927946
4.06971476
0.95037440
3.15478238
-0.32768695
3.45331829
0.13056736
0.44180428
7.95374450
-0.25803744
1.40577115
3.17235664
10.40988503
3.89097519
-0.31706957
2.26921150
-0.01786573
5.25582369
2.98749322
-7.19335954
7.58347129
-9.63679054
-0.52656388
-0.39504581
-1.24465143
2.89978841
-0.26438995
3.75112741
-0.30745349
-0.43268104
3.06941583
4.34356192
-0.14973231
1.95104465
-0.66029429
5.02148983
4.15953849
-0.03124737
0.94628490
0.01380634
0.41648930
5.94111281
0.88093505
-0.32847594
2.93504022
-0.57060872
-0.31495995
3.38738190
-0.93548985
5.29688182
0.74517486
1.77164946
-0.19555047
2.30103271
4.31391902
2.25152827
13.19974361
-0.30268081
2.83411228
5.48571515
-0.19107073
-0.22542411
-0.30181438
3.04034568
7.03089966
2.90091245
-0.53741627
-0.33642733
-0.25645885
5.76457287
3.85492126
-5.38156466
3.80657033
-0.17621166
