-0.72431918
1.21058825
-0.48625063
-1.43584358
-0.94006666
2.58886890
0.51415774
-0.29437315
-0.43822421
2.73936137
0.26988312
-1.66670456
0.67246695
1.83945881
1.58995128
-0.40545530
1.38187192
-0.38671993
1.32146936
1.42396809
0.41779121
0.53509192
-1.48811964
1.05080708
2.03644933
-0.16914740
1.09135850
0.30322277
0.77576316
-1.34472664
-2.88592482
0.90158378
0.04247339
1.37088359
0.04194788
0.08539752
-2.10145231
0.45616746
0.60384921
1.70253601
-0.09985500
0.35428763
-0.15887109
1.34995794
5.44999104
1.05816281
1.32615468
-1.46369022
0.00167712
-1.29693110
-0.54331258
2.85285763
-0.28236346
0.53723877
1.71852218
-1.31872331
-1.21039872
1.02093943
0.95235711
-0.60301910
0.65708914
0.03766183
0.26139155
0.49007725
-1.68802073
-0.67187672
-0.92678470
1.45307244
0.58175515
0.16422346
-1.89698733
0.87249274
-0.14435152
-0.08563588
2.64353023
-0.23555786
0.98612873
1.01677940
1.21634457
0.96917567
0.55229698
-0.72377915
-0.60719656
-0.41089720
0.93921156
-1.99217827
-0.52793487
2.01029238
-1.37633268
0.17179568
1.56958263
1.04062624
0.22741377
-0.18309445
0.51485045
1.29930906
-1.65947655
0.97399578
-1.05122886
0.68460732
1.65093726
-0.64393165
1.34659895
-1.58045663
-0.52626289
0.26403227
-1.76763221
0.62170026
-1.28078457
2.08963267
-0.87371663
1.21208786
-0.21676031
0.34061748
0.95866402
-0.09112771
0.60991204
0.45545562
-1.40562689
0.67627689
-0.24943898
1.50457916
0.08895684
1.70736967
-0.69876088
-1.32839586
0.66882574
0.57950147
1.06851150
1.67568510
2.08820695
-1.24280850
0.75348060
-1.16428878
-0.30990880
-0.63489993
0.11967278
0.20070025
0.85844642
1.04002096
0.49172230
0.39374378
2.63734619
-0.14593076
-0.80477522
0.67018831
0.58895987
-0.33336574
-2.35701492
-0.29219200
-1.06865248
0.63119208
0.75633211
2.35287073
1.88642163
-0.99054711
0.82998828
0.10757252
1.41995228
0.60838218
0.53855650
-1.45929133
1.42734689
0.71919004
-0.45201380
-0.23648097
1.76292393
0.99858889
0.49334833
2.48740222
-0.17465601
0.62096180
-0.43819974
-0.75024849
-0.75720773
1.90628085
-0.28769436
0.34798975
1.54006777
-0.42135168
-0.51763996
0.81714579
0.63015615
0.65843869
0.40238618
0.40866255
-1.59304540
-0.40415036
-0.34452218
-0.92636055
-0.62571121
-0.66624179
-1.08740549
0.06726377
-0.01583481
-1.37519277
1.38121850
0.78381118
0.25646490
1.80627416
-0.91640004
2.25955355
-0.22232058
-1.31798153
-1.03748692
0.52607031
0.89067811
0.29203887
-0.28248803
0.14708896
1.02747273
1.90088877
-0.09216595
-1.81637068
1.28452784
0.86001977
-0.69768496
1.77432878
-0.36664343
2.01842621
1.13865528
-0.65920901
1.03890495
-0.23102119
1.64219226
1.37529193
0.16080169
2.09403494
0.80462800
1.27649446
-0.88739465
0.27508191
0.63637136
1.36264752
-0.95928562
0.60906154
-0.73360722
-0.08527996
1.77257776
6.96980171
0.97394421
-0.01183285
0.00322746
2.05938936
-1.34041820
-0.71753554
0.77344667
0.92210677
0.54428299
1.25953054
4.12765324
0.56183263
0.18631300
1.04281948
-1.36615423
-1.50814595
-0.78802434
-1.33792003
-0.69460874
1.29034221
-0.14787280
-0.43312504
0.70245813
0.15529057
-0.76340598
0.39353699
-0.00869332
1.83731342
2.29318417
0.18314455
1.01605981
0.16007431
0.81669234
-1.22697573
-0.66614706
-0.63946111
0.02601706
0.16805859
-0.26187054
0.15464885
-0.67384242
-0.40551169
2.45319618
-0.54784174
1.10839547
1.93974053
-0.12201842
0.40171972
-0.08658794
-0.01889349
-1.21422119
-0.67643572
0.05949163
2.01345912
1.58975530
0.49950227
-0.92054569
-0.39505718
-0.15001931
0.91634881
-1.26297909
-1.22410595
1.26172894
-0.34188734
-1.23526382
1.59067429
-0.88276850
-1.37996089
0.03559922
1.01070205
-0.49247259
-0.27244222
0.44047536
-0.63385233
1.52790875
-0.21592309
-1.93650057
-0.28503459
-1.50267124
-1.55633031
1.80820999
0.56224717
-0.48249572
1.06395577
1.33568064
-1.29463807
0.15050825
1.63871150
2.41396913
-1.28237822
-0.39358538
1.94969707
-1.63633206
-1.16204203
0.45465746
1.88177344
0.19489670
-0.06368222
0.80304309
0.76950719
-0.87218798
0.54683576
2.35982108
0.06701748
0.13057512
0.09359222
-0.41124960
-0.03743171
2.99203234
0.50725201
-1.24175947
0.21784168
1.84109184
-0.43995650
1.81075684
1.71295580
1.38089028
0.22897587
1.41611205
1.69734501
1.63132749
-0.34295473
-0.13689987
0.13692043
1.21952670
-0.13108470
-0.74651188
-0.95602073
-1.84611902
0.86497499
-0.01572776
-0.02796407
0.27745246
0.02981657
-0.19466296
-1.56871150
-0.15857992
1.17586229
2.16273050
-0.15373358
-1.07462279
0.93524876
0.06670669
-0.32920854
0.75853802
-0.02102246
-0.65615923
-0.50796632
1.98441076
0.37879764
0.24162558
0.15092986
-1.39006982
0.86276517
1.82568917
3.29029896
-1.46280300
0.29121252
-1.51897841
0.51834779
0.90452374
1.30940812
0.82497107
-0.09125819
1.07133610
-1.13822866
-0.88275469
0.98184618
1.09127331
-0.58981670
0.10246431
1.10707129
-0.33642837
-0.33381190
0.64648156
-0.46604149
0.42616390
-0.72740095
0.66388145
-1.85259815
-1.29218302
-0.28792122
-0.36085603
0.63131055
-0.89559550
1.79821612
2.06812297
0.31609637
0.45345229
0.62161768
0.97618130
-0.05612729
-0.97408997
1.23899882
0.09499863
-1.52630306
1.79202396
0.42992473
-1.27079553
-0.83694023
-0.68505564
0.99945512
-0.53329129
-0.49111842
-0.03000242
1.77806883
2.86269485
0.17912078
1.59114169
0.24128627
-0.12161495
1.77197609
-0.38592711
-1.14184538
0.75654256
1.35172735
-1.24496526
-0.73928231
0.60655368
-0.18703593
-1.45794090
1.93409305
0.42640636
0.35100750
-0.30101252
0.03456242
-0.62796518
-1.17599919
1.45545883
1.30748781
0.75569249
-1.16636448
-0.82887593
-0.36314650
0.57922565
-1.46101523
0.94203078
-0.48803440
0.10842057
1.24149081
3.98343107
0.28547858
0.04336669
-0.28853755
0.19570202
0.27496440
-0.10633177
1.03210858
-0.32602635
1.73734784
0.75774720
0.61185416
2.78279463
0.42375386
1.33363118
2.51789468
-1.93019935
-0.38846955
1.07218864
-0.57862059
-0.22063506
0.01294703
-0.80424142
0.89206071
-0.25287550
0.16863849
1.78724423
-1.04600045
0.90830579
1.44541576
1.08425889
-0.65619919
-1.31275496
-1.25591511
-0.29092731
1.13060344
0.33602412
-0.51288537
-0.30402199
-0.15673097
-1.16333943
-0.91448543
-0.54031926
-1.51159955
1.46822954
-0.27097417
2.55792237
-0.10238091
0.37941935
1.78412590
0.49366191
0.30689897
1.71173489
2.27086020
1.04314043
1.03580271
-0.81145287
0.73177820
0.54809970
-1.46461216
-1.61202809
1.50082727
-1.34139146
0.38724248
0.31451587
2.70344998
-1.54126033
-0.30168470
0.42283317
-0.72460732
1.37160177
0.00119321
1.33238453
0.50477033
-0.34099783
0.24394210
1.08187307
0.45431445
0.31578346
1.38702598
0.48820005
0.03965326
-0.47246965
0.31798619
0.05632639
1.70181054
0.14210093
0.07686670
-0.45452671
1.44140230
-0.83119435
-0.65260697
-0.08154707
2.09841241
-0.59426302
0.08652222
-0.21506594
0.04998272
-0.04546959
1.62889705
1.41997482
-0.37546377
-0.28531451
0.00593802
0.49226371
1.46316298
-1.61581639
0.58600927
1.26959034
0.83138449
-0.56384596
-0.28827522
-0.03579957
-0.74441758
-0.20764740
-0.67628399
-2.05317228
0.00232106
-0.37339918
1.08331884
1.72393045
1.01019590
0.14070864
0.16357764
-0.93228456
1.35612744
0.08324188
0.43495070
1.13252747
0.82049939
0.13009754
-0.87166783
-0.10765681
1.73505964
-1.56668523
-1.68850538
0.38124243
-1.44865347
0.95515216
0.66537937
0.38000641
2.05551203
0.98713861
-1.54160730
-1.72275507
1.41566758
1.28504041
-0.45003184
0.56993943
0.21753610
0.98898605
0.14702288
-0.63055957
-1.22712298
-1.66604861
1.89041057
-0.95146258
-1.08891603
0.46111242
0.49782298
-0.46188366
-0.70921280
1.00005735
-0.77455675
-0.45448905
2.20232461
-0.67976784
1.85729103
-0.52617077
0.46216918
-0.81470222
-0.23100515
-2.39243325
-1.40602347
1.58253758
-1.72123965
-0.03230814
0.32090612
3.71779751
0.95603257
0.57221759
1.22086915
0.10219465
-0.15235440
-0.44236223
-0.40041846
0.73720305
-0.13841454
0.11115710
0.30980649
0.60823053
-3.11919122
-1.40819991
1.62858288
-0.24770702
1.74889584
-0.58680398
0.31190899
1.27145934
-0.86700584
-0.43827138
-0.53739730
1.47937550
0.23848901
0.44187372
1.14653112
0.29303513
-1.01462340
0.79404084
0.16640153
-1.32794564
-0.13221513
-0.32538139
-0.18012076
-1.42495937
0.59087991
-0.52925575
-1.34047463
1.86662278
-1.07576366
1.09521813
-0.70462602
-0.26853519
0.00623092
-0.61455379
-0.08147744
-0.27959026
0.24177151
0.80595391
2.74550303
-0.87259675
-0.38732042
0.62326576
-1.66915169
-0.00407134
-0.26759054
-0.01348821
-0.37260247
3.69292477
0.18918312
-0.39474558
0.22136005
-1.00069625
0.54702510
1.40232393
-0.37689791
0.10944544
-0.58017786
-1.99481324
1.60864920
-0.39448677
1.71074198
0.12622529
-1.85327718
0.16904975
1.00766387
-0.03195841
0.79582932
-0.27156799
-0.23004404
0.62870808
0.08948356
-0.31113804
-1.93792236
0.70797373
-0.09501801
-0.31630641
0.78681910
0.72955403
-0.76510277
0.38866870
0.66573515
0.69960133
-0.56128296
1.45345085
-0.39664709
-0.68885783
-0.42874671
-0.45635169
0.61453990
-1.37268108
0.49856854
-0.54854569
-0.69051930
-0.16762167
0.86873031
0.32518417
0.51621795
1.71484185
-1.41624878
-0.93035462
-1.45244756
-0.60337408
0.13457698
0.46030044
-0.36879221
-0.60323321
0.92281921
-0.52340824
-0.37822092
0.27468481
0.78765461
-0.13909197
-0.44653155
-0.28188522
-1.45202344
1.42549540
-1.22709070
1.28304104
-0.17707355
2.47793640
-1.57572923
-2.61217087
1.03198995
0.61046312
0.78114166
0.92271654
-1.28597374
2.00459768
0.57895868
1.64298931
0.68576301
-1.42254562
-1.11308232
-2.02073491
-1.47686719
-0.87004543
0.14470739
-0.05952121
0.25019930
0.92522671
0.14374136
-1.40555561
1.14045293
-0.72960897
-0.56969797
1.08946552
0.06995441
-1.38883464
0.99686002
0.71823834
2.11804674
-1.37909653
0.10701993
0.96815212
-1.78316928
0.66136477
1.71342721
1.31134849
1.03200288
0.87019416
0.16357496
0.03813142
-0.14712221
1.84515381
0.95146232
-0.05560243
-0.94653966
-0.06209378
0.35409282
-0.31570558
-0.40871797
1.51032919
-0.05047764
-0.18715367
-1.34840660
1.29287139
-1.42399251
1.76572553
-1.52237831
0.75839081
1.32002311
-0.28793910
0.88960901
2.68602199
-0.00811444
2.26241802
-1.20615383
-0.58395366
1.35963690
0.78142323
0.08666418
-0.78352909
0.44860256
0.09777108
-0.54921669
-0.41835977
-2.78980978
-1.24348771
1.59527183
-0.12916381
-0.87732144
0.00679324
-0.01029787
-0.20602718
1.24564872
0.74892499
0.11664768
0.33599893
-0.50437701
1.61106508
1.66942546
0.78991693
-0.84008298
1.30388427
-1.28601493
-1.51744131
-1.03362971
1.88154802
-0.74550375
0.86233502
0.87745898
0.06524826
0.09160774
0.20626161
1.37151602
0.10150300
-0.30694618
0.26200671
-1.24861351
-1.09631692
0.82889952
0.73707084
-0.84415221
0.81016253
0.71993719
0.15123811
-0.48303069
-1.05289730
0.16885604
-0.66472604
0.28884011
0.72067658
-0.51885346
1.30559355
0.37918211
1.50820220
-0.70074091
-0.67118941
0.23774025
-0.12549994
0.85306317
0.10481344
-1.85794167
-0.08157970
-0.67775999
-1.41443185
1.15884518
0.14370307
4.33879109
1.89956240
4.07154889
0.60935603
1.10675147
-0.65565320
1.53826779
0.48490806
2.60004878
0.12858102
2.36715073
1.47553463
0.19490513
-1.03848206
1.87093248
0.35171203
-0.06013171
1.27379494
-0.73221048
1.35456411
-1.42283222
0.60837117
0.91872494
-1.51015500
0.31438723
-0.76945348
2.83359240
1.37536226
-0.52308280
1.25365728
-0.72911047
2.22895507
1.70160362
2.42474460
-1.85600857
1.63697114
0.62284002
-0.60577140
-0.60030647
-0.99997165
0.47322824
-0.64228605
0.98687032
0.12900998
0.64052700
-1.41837709
-0.38984465
-1.39156089
-0.85252163
0.73236218
-0.59498762
-1.31437700
0.86518014
-1.20686967
1.53468931
1.94492985
-0.02167160
-1.22583467
0.38324694
1.21191759
-0.84886961
-0.27944102
-0.37319011
-2.23673529
-0.66802205
-0.60704772
0.92649672
0.93809053
0.48519077
0.51576882
-0.76394802
-1.06330376
-1.37157871
-0.09455361
-0.24130821
0.18445818
-0.18434095
1.32841856
0.80043993
3.35160088
-1.44913728
1.09288674
-0.35456625
0.10178835
0.43484341
1.74624722
-0.67383666
0.65733140
0.41107489
-1.14462081
-0.64369012
-0.30016934
1.18366300
2.32335317
1.11054964
-0.28890936
1.10880227
-0.80031857
0.95845148
-0.30447093
-0.10435089
-0.36388132
2.14053358
-1.48764068
1.75021521
-0.15306979
1.58077595
0.69942894
1.10901835
-1.52595996
0.13367391
-0.28499861
-0.53647855
0.64958013
1.30922776
0.55506905
-0.25222830
-0.25533070
1.18192997
1.02428194
0.18394751
2.05114363
-0.67589357
-0.17338737
1.10598332
-0.06331719
-1.88275871
0.81501371
-1.36400939
-0.03313311
0.70208446
1.38585874
1.97373346
0.20621426
-0.67375718
-0.83172998
-1.15911970
-0.06723413
-0.88843918
0.00990075
0.89676815
5.95000737
1.32577675
1.02507414
2.55821021
1.53233068
-1.26522374
-0.26550773
0.17019418
1.52469309
1.59683151
2.48024986
3.04702966
1.08474638
-0.47869674
-0.52907173
1.10944000
-0.12169467
-0.32298359
0.05345393
-0.25391830
0.89283343
0.05652678
-0.54421081
-0.03065996
1.75592418
-1.04886143
1.34320874
1.23244336
-0.68489040
-0.51705395
1.67563987
1.48629671
0.16354797
-0.10040625
0.46869540
-0.73135842
-1.59957307
0.86528963
0.84075449
0.02429978
0.78359080
1.19407822
-1.38972555
0.37020439
1.22484575
-0.42953836
0.81691493
0.54329973
-1.50834029
-2.21010528
-0.11742157
0.46702716
0.60958056
-0.44625934
-0.86435273
1.16884430
2.36720748
1.01504489
0.28967506
-1.23278595
-1.40384526
1.77940730
0.48184178
1.64684959
-0.16500366
1.86822047
0.10882647
-1.33034895
-1.04751979
0.08735069
1.65435054
-0.16062222
0.07871830
-0.81613100
-0.15797243
-0.05222076
1.01372142
1.68089484
1.49777077
-0.19282964
0.86365228
1.44422429
