-0.75795788
-0.13385503
-0.04761696
-0.35984856
0.29579085
-0.47387666
-0.63497967
0.13414638
-0.50138676
-0.36527306
-0.15561561
-0.76394457
-0.68896455
-0.16456184
-0.07473585
0.43600047
0.18766156
-0.35308552
0.33158773
-0.62514710
-0.18590957
-0.06604653
-1.00040579
-0.05000784
-1.17591977
-0.04228799
-0.30476502
0.15093182
-0.36984646
-1.10621548
-0.10685633
-0.24595129
-0.20354745
0.16065884
-0.09954891
-0.20351259
-0.18180782
0.11826941
0.20416619
-0.08301595
-0.90071332
-0.17270070
-0.13866857
-0.35228547
-0.43015304
0.03346635
0.07884645
0.03757825
-1.15541911
-0.90123981
-0.81978679
-0.91446048
-0.12683316
-0.88173574
-0.78340995
-0.50957960
-0.81266993
0.12683018
0.31045452
-1.02151906
-0.50628495
-0.57233620
-0.09877275
-0.56107301
-0.66469443
-0.05000838
-0.32960588
-0.29311454
-0.21853484
-0.14961998
-0.02027481
-0.08652702
-0.41240883
-0.19749144
-0.08015346
0.13907500
-0.63241655
-0.13543545
0.40598327
-0.31271684
0.08487087
-1.18870890
0.52803481
-0.80509531
0.57564723
0.27449444
1.10926998
-0.10859823
-0.35117155
0.01164962
0.12737972
-0.15910804
-0.78390741
-1.05719161
-0.26654199
-0.35632744
-0.41971990
0.50769377
-0.40635076
-0.39518237
-0.67240196
-0.00365819
-0.45824778
-0.84236932
-0.96138477
0.11919297
-0.38635179
-0.38725454
-0.70311409
0.18573393
-0.66339302
0.68162090
-0.27309266
-0.50006938
-1.07554841
0.20090087
-0.25320399
-0.63331962
0.13612382
-0.12489906
-0.58915901
0.23725653
-0.43987215
-0.69343835
-0.36989009
-0.45634100
0.29654598
-1.04617989
-1.13605261
0.68129468
-0.40790978
0.04196804
-0.16115609
-0.00078322
0.10453309
-0.67795086
0.42200035
-0.00794750
-0.35064983
-0.77752495
-1.20935702
0.35374245
-0.58761317
-0.72338158
-0.41695961
0.29970834
-0.24813081
-0.77673858
-1.11923420
-0.23245817
-0.43817291
-0.48988447
0.27829015
-0.33605653
-1.32147169
0.10699106
0.05785858
-0.79048759
-0.37637877
-0.38250047
-0.33417112
-0.71699542
-0.06852407
-0.34484017
-0.22251247
-0.18833619
-0.92159998
-0.99797571
-0.35426348
-0.34654945
0.07291646
-0.93330055
-0.97709990
-0.21241254
-0.66438657
-0.26110721
0.20284347
-0.63693941
-0.22534382
0.16254964
0.13503601
-0.18707511
-0.47707900
0.07313889
-0.53065586
-0.69212383
-0.60218877
-0.80366683
-0.58265209
-0.58410448
-0.73121762
-0.34609935
-0.94702125
-0.39570674
-0.99015284
-0.25937057
-0.66716087
-1.10889184
-0.90490466
0.09265824
-0.69731879
-0.92746568
-1.01995182
-0.49969411
0.11568590
0.11731210
0.17366916
-0.13968951
-0.14598186
-0.21188803
-0.98422003
-0.66212219
0.19596455
-0.81700444
-0.71254182
-0.67561269
-0.55066758
0.38639286
-0.54236126
0.36579055
-0.44556889
0.24255581
-0.71876848
-0.64347112
-0.12830602
0.16084222
-0.81061548
-0.80717999
-0.60121256
-0.04209121
-1.10566473
-0.05722705
-1.11921966
-0.32050815
0.17957637
-0.25225523
-0.51095998
-0.42779428
-0.08832929
-0.35982341
-0.19689433
-0.54845911
0.09991851
-0.80932522
0.25344831
-0.59138465
0.21451101
0.02575424
0.80937040
-0.30325884
-0.92432517
-0.35846090
-0.13238354
-0.55700403
-0.71958899
-0.30956826
0.08743665
0.12222589
-0.49768087
-0.22865155
0.16763653
-0.16680203
-0.14710265
-0.12811722
0.14743255
-0.27366766
-0.45276082
0.40814316
-0.81016517
-0.03688009
-0.41196942
-0.23108290
0.08096936
0.17427838
-1.16628420
-0.37316495
-0.28082389
0.12424944
-0.44673520
-0.71651411
-0.10057513
-0.22134925
-0.42502692
0.00215785
-1.04844713
-0.34091777
-0.81553328
0.15090433
-0.37981185
-1.28667486
0.58056694
0.01102602
0.06188475
0.14517184
0.04981270
-0.66152579
0.11976081
-1.09590745
-0.96290845
-0.70831758
0.00745609
-0.18956845
0.08561186
-0.36951125
-0.21964943
0.14849192
-0.31399477
-0.32784945
-0.18899558
-0.54229313
-0.60953438
-1.14761758
-0.40321970
-0.90184820
-0.45771784
0.33785102
-0.59882581
-0.29688162
-0.06358176
-0.34074572
0.20350236
-0.46143320
-0.94430280
-0.35453901
0.22426301
-0.28586105
-0.52103853
-1.02574432
-0.40738320
-0.38580498
-0.15433598
-0.18856013
-0.30624205
-1.24823129
-0.02902448
-0.95435983
0.62642670
-0.65637594
0.70781672
-0.72543031
-0.12770036
-1.14613247
-0.76117593
-0.61335671
-1.58189845
0.00711503
0.00465639
-0.56639820
-0.74394661
-0.53617352
-1.10998499
-0.09590781
-0.93498814
-0.91839832
0.60103738
-0.06521523
-0.27432165
-0.57729316
0.24828735
-0.21231993
-0.86214942
-0.35137182
-0.52676314
-0.95914233
0.13127483
0.07588980
-0.58064002
-0.52148461
-0.23421757
-0.60620058
-0.68375355
-1.52520752
-0.95277083
-0.37233207
-0.35370675
-1.21918714
-0.04096893
-0.63251311
-0.70044827
-0.66486913
-0.48640493
-0.10217491
-0.20526154
-0.56345707
0.24431075
0.47925317
-0.25944492
-0.35359356
0.09004169
-1.22260380
-0.27593115
0.20857126
-0.61188716
-1.22846711
-0.33486658
-0.29809931
-0.72686803
-0.82854211
-0.05365027
-0.31191212
-0.26234224
0.11852603
-0.44860774
-0.27536768
-0.57408428
0.33156964
0.09762766
-0.10019817
0.16854796
-0.36882320
-0.00365241
-1.46205330
-0.67206299
0.12027649
-1.11498797
-0.37402818
-0.86793250
-0.11677645
-0.80368662
-0.11140649
-0.44336453
-0.11845957
0.14522411
-0.63652790
-0.97537374
-0.46204790
-0.08413090
-0.45020950
-0.29622903
-0.17576155
0.56643134
0.48735902
-0.74333966
-0.06849892
-0.18961996
0.19986051
0.54949284
-1.30748594
-0.11522226
-0.26726142
-0.47331887
-0.87660569
-0.01964881
0.43255848
-0.87662399
-1.32105172
-0.34837577
-0.22297716
-0.62307173
-0.60885835
0.09511214
0.05767133
-1.10956323
0.11637598
-0.00842384
-1.12518466
-0.27582213
-0.21572952
-0.40445828
-0.51919091
-0.21634653
-1.28862596
0.35324916
0.05386357
0.09824719
-0.87187672
-0.24478459
-0.45696679
-0.22259444
0.17815475
-0.48407280
-0.60602534
0.12570909
-1.23145199
-1.18332946
-0.41897282
0.20402384
0.05055837
-1.04577816
-1.00505185
0.12539685
-0.56341171
-0.43762279
-0.54798472
-0.16597395
-0.00152549
0.02542737
-0.46312407
0.22981100
-0.55555552
-0.67391032
-0.18479513
-0.33905184
0.02485253
-0.46427438
-0.08286292
-0.58417845
-0.43945050
0.18329698
-0.40506876
-0.10597575
-0.93477160
-0.13205115
-0.51951319
-0.34520388
-0.01557794
0.23895679
-0.40334335
-1.36104047
0.26389870
-0.12563474
-0.27476272
-0.81428522
-0.11359365
-0.46404812
0.25902018
-1.19114614
0.07382752
-0.41147125
-0.38484436
-0.24734318
-0.06272878
-0.35112724
0.41739979
0.12025268
-0.23358604
0.59033620
-0.70084536
0.13455328
-0.05953702
-0.78724563
-0.99266380
0.06230524
-0.06465133
-0.35686806
-0.00326550
-0.12285948
-0.96615386
-0.21004367
0.21904221
-0.62502587
0.17926574
0.26559344
-0.92102998
-0.56892091
-0.15069492
-0.66627377
0.23650582
0.15629260
0.10723113
-1.11878419
-0.83619195
0.25911394
-0.02574833
0.16416574
-0.37389773
-0.32854784
0.00979332
-0.94598591
-0.27453035
-0.17283164
-0.02110947
-0.31414333
0.08439334
-1.25784731
-0.33069927
-0.18844453
-0.44478339
-1.00889909
-0.10558239
-1.41775739
-0.03081630
-0.04548223
0.07036416
0.17796737
-1.14652097
-0.23449226
0.15354800
0.34589133
0.12232009
-0.62542194
-1.67529118
-0.05687409
-0.34873918
-0.42542168
0.25256941
-0.58564681
0.00096784
-0.24671805
0.07215951
-1.01629984
-1.14466977
-0.13531050
-0.97788447
-0.29715207
-0.82059717
-0.04690322
0.42014891
-0.41987500
-0.16703671
0.27251849
-0.10228885
-0.33707556
-0.21509947
-0.32512429
0.30430424
-1.15792537
0.09102035
0.18210407
0.26760724
-0.18132076
0.15558679
-0.92029351
0.24351852
-0.07439365
-0.21107332
-0.76760817
-0.99670058
-0.62400055
-0.50537616
-0.64402950
-0.07895108
0.33386150
-0.21448986
0.06237542
-0.25860944
0.01262928
-0.43802136
-1.16576886
-1.42872965
-0.46602753
-1.03646100
0.34521466
-0.12966356
-0.51274735
0.21882001
0.23005576
-0.78832716
-0.36052573
-0.20640668
-0.63517284
-0.30272150
-0.36976829
-1.12894261
0.14534788
0.11268661
-0.11770818
-0.67724335
-0.28157988
-0.29516673
0.07738923
-0.18204589
-0.09385524
0.10951076
-0.50751865
0.23796301
-0.09592545
0.31935623
-0.64319581
-0.41541386
0.11071357
-0.31886464
-0.94954789
-0.20418508
0.10356580
-0.55037063
-1.32083988
-0.68064117
-0.35972255
-0.52812177
-0.10476945
-0.47955549
-0.72206241
0.38324627
-0.04735547
-0.93998903
-0.10777082
-0.22982408
-0.89646190
-0.01571637
0.02751582
-0.49052754
0.03347132
-0.28262192
0.24853921
-1.05294192
-0.06763137
-0.61749882
-1.07474899
-0.30519226
-0.35146180
0.18584596
-0.61766666
-0.36429399
-0.26259640
-0.95594060
0.01105877
-0.28360283
0.24122809
0.29735240
-0.81158715
-0.18695493
0.32230669
0.28396094
-0.51532537
0.54849529
-0.34503064
-1.02746868
-0.13439989
-1.18902206
-0.07538469
-0.45482105
-1.29091132
-0.90367049
0.60183311
0.11649612
-0.61520511
-0.61268163
-0.63449800
-1.07264102
-0.23174335
-0.24984066
-0.13804613
-0.69819576
-0.86608177
-0.07229037
0.15625799
-1.39439106
-0.27143189
-0.19235697
-0.18514656
0.00462148
-0.57665771
0.54101324
-0.64479697
-1.61327910
-0.61061645
-0.65722978
-0.57460040
-0.51098013
-0.27678457
0.07161706
-1.01907432
0.10958274
-0.01012240
-0.76544046
0.41127527
-0.94049090
-0.21861424
-0.25863779
-0.09412029
0.05363314
0.03814879
-0.01897202
-0.41281173
-0.06225865
0.01985989
-1.27224994
-0.00272374
0.45148998
-0.04359763
-0.80433595
-0.05732223
-1.23084080
0.58801776
-0.25659853
0.12181436
-0.12644371
-0.46012843
-0.94683099
-0.44898707
-0.48207167
-0.78740096
-0.16037703
-1.09547257
-0.33030924
-1.14003623
-0.85262346
-0.91967344
-1.09943509
1.06385303
0.48386240
-0.19313997
0.54302084
-1.36503994
-0.76614386
-0.86491930
0.02645908
-0.17810926
-0.03792875
-0.32025278
0.16438532
0.43903059
-0.67252320
-0.53988260
-0.53556585
0.46893716
0.25119609
-0.48055416
-0.08965781
-0.49689230
0.02227986
-0.23413776
0.02752598
-1.88383162
0.00374186
-0.95291972
-0.58758622
-0.41374740
0.01014365
0.39643183
-0.32456851
-0.35948110
-0.37531990
-0.98038065
-0.94225150
-1.41038716
-0.33290756
-0.94777352
-0.27355731
-0.24821272
-0.30750352
-1.25614727
0.09665386
-1.14296210
-0.95588934
0.00313529
-0.29061866
-0.31614441
0.29771465
-0.21908610
-0.71559095
-0.26563007
0.31014505
-0.13253464
-0.01704231
-0.87455189
-0.76697940
-0.96816671
0.12668167
-0.72369456
-0.14853662
-0.07527739
-0.13900039
-0.90674382
-0.41751158
-0.32182437
0.19755757
-0.64354855
-0.57145107
0.23424236
-1.06654119
-0.01233532
-0.43806332
0.13189811
0.37643743
-1.31349266
0.24064614
-0.09942541
-0.47162259
-0.59189647
-0.34965003
0.20763463
0.13254313
-0.40775898
-0.42040989
-0.39946425
-0.56932414
0.43952560
-0.64183378
-0.10940032
-0.31805474
0.56108367
-0.34700257
-0.94818211
-1.06659365
-1.50313258
-0.69865102
-0.00978713
-1.14064217
-0.34953919
-0.15088241
0.07603626
-0.39789972
-0.52045381
-0.30346000
-0.76794052
0.30657539
-1.73059320
-0.13819931
0.02029742
-0.33616292
0.28807381
0.37465709
0.44156995
0.36936513
-0.40878719
-1.00309277
-0.79779851
-0.84952164
-0.32422695
-0.85138357
-0.18098329
0.07157156
0.12632830
0.12936909
-0.35037011
-0.33497328
0.02176388
-0.24630937
-0.09588031
0.14277443
0.00178862
-0.28891152
-0.19466513
0.07917643
-0.49726629
-0.43110585
0.31447783
-0.82591051
0.11246438
-0.83441317
-0.50378269
0.44999036
-0.16782540
-0.52134973
-1.13957536
-0.37532845
-0.53160739
0.64593017
-0.51628608
-0.00480972
-0.30651036
-0.41074178
0.04753570
-0.33448076
-0.71792036
-0.20622689
-0.75349593
-0.67313826
-0.16380823
-0.84352583
-1.06264365
-0.72213542
-0.13104393
-0.01990631
-0.06735659
0.07590277
-0.15722783
-1.30001009
-2.25864792
-0.01042955
-0.64433140
-0.04554457
-0.28678903
-0.11539213
-0.00165767
-0.03610599
0.17323829
-0.51568800
-0.28123975
-0.12780145
0.40129164
-0.95549786
-0.09394772
-0.74893707
-0.19639726
-0.54558468
-0.39300504
-1.45445502
-0.08463635
-0.39437601
-1.04630244
-0.53884792
-0.01969621
-0.76377785
-0.09196828
0.19762142
-0.41543674
0.15298228
0.30732536
-0.89795154
-0.52263427
-0.30417430
-0.74015898
-0.64321053
-0.69982582
-0.59628284
0.28722748
-0.61538291
-0.96724850
0.17132971
0.04702731
0.73290807
0.11430950
0.10508758
0.29281366
-0.12783419
0.11741110
0.47624889
-1.29641044
-0.22017696
-0.05123417
-0.65074378
-1.66759074
0.16437933
-0.43688235
-0.67618060
-0.29626638
-0.30208203
-0.44659176
-1.08254743
0.17121072
-0.27016613
0.10418408
-0.11699553
-0.21363604
-1.54176104
0.19562301
-0.37787282
-0.73937351
-0.69434601
-1.00985885
-1.11321688
-1.31092393
-0.61404234
-0.67937475
-0.25619265
-0.86902815
0.51027489
-0.16915898
0.15544288
-0.55385369
-0.33286586
-1.49766695
-0.97649568
-1.30107164
-0.03622343
-1.03607738
-0.74887341
-1.07705164
-0.50588298
-0.54160035
-0.53297341
0.70478791
-0.70875794
0.06627176
0.10585133
-0.93430227
-0.29129359
-0.22413279
-0.64956087
-0.13629486
-0.56020933
-0.74591619
-1.21813440
-0.51115823
-0.57882845
-1.12739801
-0.99599957
-1.15287375
-0.75815129
-0.12469029
-0.73110569
0.17590010
-0.36241508
0.25579560
-0.57906997
-0.05633348
-0.08546725
-0.53812498
-0.10719512
0.14921474
-0.39763027
-0.50142127
-0.49460399
-0.24834681
-0.14475316
-0.15223952
0.09783266
-0.50403404
0.65274602
0.05268408
-0.49267983
-0.50717813
-0.79005206
-0.19485104
-0.99474555
-0.35173845
0.05807975
-0.57173759
-0.83089912
-2.14975810
-0.02167778
-0.37946346
-0.01143249
0.08615255
-0.96730715
-0.72115129
-0.63598347
-0.72750342
-0.22409934
-0.20635852
0.25115177
-0.22183892
0.20995156
-0.61424977
0.07802439
0.17757653
-1.02219248
-1.08499515
-0.57305026
-0.23913981
-0.55236757
-0.05624128
0.57356375
-1.61014819
-0.10427856
-1.27209270
-0.30829701
-0.48297340
-0.49455115
-0.55249864
-0.49342823
0.06769665
-0.54747224
0.18593301
-0.86464351
0.24777800
-0.11857980
-1.00764942
0.19929825
-0.19364385
-0.70784611
-0.96948475
-1.20825589
-0.83339697
-0.88921726
-0.09201299
0.20283866
-0.79734671
-0.23357728
-0.31676733
-0.51056647
-0.57803762
-0.22173823
0.57116288
-0.72813296
-0.22147301
-1.69161105
-0.90115136
-0.59955233
