0.12500000
-0.12500000
0.00000000
0.00000000
0.00000000
-0.00000000
-0.12500000
-0.00000000
-0.12500000
0.00000000
-0.00000000
-0.00000000
0.00000000
0.12500000
-0.00000000
0.00000000
-0.00000000
-0.12500000
-0.00000000
0.00000000
0.12500000
0.00000000
0.00000000
0.00000000
-0.00000000
0.12500000
-0.12500000
-0.12500000
-0.12500000
0.12500000
0.00000000
0.12500000
-0.00000000
-0.00000000
0.00000000
0.00000000
0.00000000
0.00000000
0.00000000
-0.00000000
0.00000000
0.00000000
-0.00000000
-0.00000000
0.00000000
0.00000000
-0.12500000
0.00000000
-0.12500000
0.12500000
-0.12500000
0.00000000
-0.12500000
-0.00000000
-0.00000000
-0.12500000
-0.00000000
0.12500000
0.12500000
0.12500000
0.00000000
-0.12500000
0.12500000
0.12500000
0.12500000
-0.12500000
-0.12500000
0.00000000
0.00000000
-0.00000000
-0.25000000
-0.00000000
-0.12500000
-0.12500000
0.12500000
0.00000000
-0.12500000
-0.00000000
0.12500000
-0.00000000
0.00000000
0.00000000
0.12500000
-0.12500000
0.12500000
0.12500000
0.00000000
-0.12500000
0.00000000
-0.00000000
-0.00000000
-0.12500000
-0.12500000
0.00000000
-0.00000000
0.00000000
0.00000000
-0.00000000
0.12500000
-0.00000000
-0.12500000
0.12500000
0.12500000
-0.12500000
-0.12500000
0.12500000
-0.00000000
-0.12500000
0.25000000
0.12500000
-0.12500000
-0.12500000
0.00000000
0.12500000
0.00000000
0.00000000
0.00000000
-0.00000000
0.00000000
0.00000000
-0.00000000
-0.00000000
0.00000000
-0.00000000
-0.12500000
-0.00000000
-0.00000000
0.00000000
0.00000000
0.12500000
0.00000000
-0.00000000
-0.12500000
-0.00000000
-0.00000000
-0.12500000
0.00000000
0.00000000
-0.12500000
-0.00000000
-0.12500000
-0.00000000
-0.12500000
-0.00000000
-0.12500000
0.12500000
-0.12500000
0.00000000
0.25000000
-0.12500000
0.12500000
0.00000000
0.00000000
-0.00000000
0.00000000
0.25000000
-0.12500000
-0.00000000
-0.12500000
0.00000000
-0.00000000
-0.12500000
-0.00000000
0.12500000
0.12500000
0.00000000
-0.00000000
0.12500000
-0.00000000
0.00000000
-0.00000000
0.00000000
0.00000000
-0.00000000
0.12500000
0.12500000
0.12500000
-0.12500000
0.12500000
-0.00000000
-0.00000000
0.12500000
-0.12500000
-0.00000000
-0.00000000
-0.12500000
0.00000000
-0.12500000
0.00000000
0.00000000
-0.00000000
-0.00000000
-0.12500000
-0.12500000
-0.00000000
-0.12500000
-0.12500000
-0.00000000
0.00000000
0.12500000
0.00000000
-0.00000000
-0.25000000
-0.12500000
0.25000000
0.12500000
0.00000000
0.12500000
-0.12500000
0.12500000
0.00000000
-0.25000000
0.00000000
-0.12500000
-0.00000000
-0.12500000
0.12500000
-0.12500000
0.25000000
-0.12500000
-0.12500000
0.12500000
-0.00000000
0.25000000
0.00000000
0.25000000
0.12500000
-0.12500000
0.12500000
-0.12500000
-0.12500000
-0.25000000
0.25000000
-0.25000000
0.25000000
-0.12500000
-0.25000000
0.12500000
0.00000000
0.25000000
0.12500000
-0.25000000
0.12500000
-0.00000000
-0.00000000
-0.12500000
-0.00000000
0.12500000
0.12500000
-0.12500000
-0.00000000
0.00000000
0.12500000
-0.00000000
-0.12500000
0.12500000
-0.12500000
0.12500000
0.12500000
0.00000000
0.25000000
-0.00000000
0.12500000
-0.00000000
0.12500000
0.00000000
0.12500000
-0.00000000
0.00000000
0.12500000
-0.00000000
0.12500000
-0.12500000
0.25000000
-0.12500000
-0.00000000
-0.00000000
-0.12500000
0.00000000
-0.12500000
0.12500000
-0.00000000
0.12500000
0.12500000
-0.12500000
0.00000000
0.25000000
0.00000000
-0.12500000
0.12500000
0.00000000
-0.00000000
0.12500000
0.12500000
-0.12500000
0.12500000
-0.00000000
0.12500000
-0.00000000
-0.25000000
0.00000000
0.00000000
-0.00000000
0.00000000
-0.12500000
0.00000000
-0.00000000
-0.12500000
0.12500000
0.00000000
-0.00000000
-0.00000000
0.12500000
0.00000000
0.00000000
-0.12500000
-0.00000000
0.00000000
0.12500000
0.00000000
-0.12500000
-0.12500000
0.00000000
-0.12500000
0.12500000
0.12500000
0.12500000
0.00000000
-0.00000000
0.00000000
-0.12500000
-0.12500000
-0.12500000
0.12500000
0.12500000
0.12500000
0.12500000
-0.12500000
0.12500000
0.00000000
-0.12500000
-0.00000000
-0.12500000
0.00000000
-0.12500000
-0.00000000
0.25000000
-0.00000000
0.00000000
0.12500000
-0.12500000
-0.12500000
0.25000000
0.12500000
0.25000000
-0.00000000
0.12500000
0.00000000
-0.12500000
-0.12500000
0.12500000
-0.12500000
0.12500000
-0.12500000
-0.12500000
0.12500000
-0.25000000
-0.12500000
0.12500000
0.25000000
0.00000000
-0.00000000
0.37500000
-0.12500000
0.00000000
0.00000000
-0.00000000
0.00000000
-0.00000000
0.12500000
-0.12500000
0.12500000
-0.12500000
-0.00000000
0.12500000
-0.00000000
-0.00000000
-0.12500000
-0.00000000
0.12500000
0.00000000
0.00000000
0.12500000
-0.12500000
-0.00000000
-0.12500000
0.12500000
0.12500000
-0.12500000
-0.12500000
0.00000000
0.12500000
0.00000000
-0.00000000
0.12500000
0.12500000
0.00000000
-0.12500000
-0.12500000
0.00000000
-0.12500000
-0.00000000
-0.12500000
-0.00000000
0.00000000
-0.00000000
-0.12500000
-0.00000000
-0.12500000
-0.00000000
-0.00000000
0.00000000
0.12500000
-0.00000000
0.00000000
0.00000000
-0.25000000
0.12500000
-0.00000000
0.00000000
0.00000000
-0.12500000
-0.00000000
-0.00000000
-0.12500000
-0.12500000
-0.00000000
0.12500000
0.00000000
0.12500000
0.12500000
-0.00000000
-0.12500000
-0.12500000
0.12500000
0.00000000
0.00000000
-0.00000000
0.00000000
0.00000000
0.12500000
-0.12500000
0.12500000
0.00000000
-0.12500000
0.12500000
0.12500000
0.00000000
0.12500000
-0.12500000
0.25000000
-0.00000000
-0.00000000
-0.00000000
0.12500000
-0.00000000
-0.12500000
0.00000000
-0.00000000
-0.00000000
-0.00000000
0.12500000
0.00000000
-0.00000000
-0.00000000
0.00000000
-0.00000000
-0.00000000
-0.00000000
-0.12500000
0.00000000
0.00000000
-0.12500000
0.12500000
0.25000000
0.00000000
0.12500000
-0.12500000
0.25000000
0.12500000
-0.12500000
0.12500000
-0.12500000
-0.12500000
-0.00000000
0.00000000
-0.00000000
-0.12500000
-0.12500000
-0.00000000
-0.12500000
-0.12500000
0.00000000
0.12500000
0.00000000
0.12500000
-0.25000000
-0.00000000
0.12500000
-0.12500000
0.12500000
-0.12500000
-0.12500000
-0.12500000
-0.00000000
0.12500000
0.00000000
-0.00000000
-0.00000000
0.12500000
-0.12500000
0.00000000
0.00000000
-0.00000000
0.00000000
0.00000000
-0.00000000
0.00000000
0.12500000
0.25000000
0.12500000
0.12500000
0.12500000
-0.12500000
-0.12500000
-0.25000000
0.12500000
0.00000000
0.25000000
0.12500000
-0.25000000
0.12500000
-0.00000000
-0.00000000
-0.00000000
0.12500000
-0.00000000
0.00000000
-0.00000000
0.00000000
0.00000000
-0.00000000
0.00000000
0.12500000
-0.00000000
0.12500000
-0.00000000
-0.12500000
0.00000000
-0.00000000
-0.00000000
-0.25000000
0.00000000
0.00000000
-0.25000000
-0.00000000
0.12500000
-0.00000000
-0.00000000
-0.12500000
-0.12500000
-0.00000000
0.25000000
0.00000000
-0.00000000
-0.12500000
-0.12500000
0.00000000
-0.12500000
0.00000000
-0.00000000
0.12500000
0.00000000
0.12500000
0.00000000
-0.00000000
-0.12500000
-0.12500000
-0.00000000
0.00000000
0.12500000
0.00000000
0.00000000
0.00000000
-0.12500000
0.00000000
-0.12500000
-0.12500000
-0.25000000
-0.00000000
0.00000000
0.12500000
0.00000000
-0.00000000
-0.12500000
0.00000000
-0.00000000
-0.00000000
0.00000000
0.00000000
-0.00000000
-0.00000000
-0.12500000
-0.00000000
0.12500000
0.00000000
-0.00000000
0.00000000
-0.00000000
0.12500000
0.12500000
-0.12500000
-0.00000000
0.12500000
0.00000000
0.00000000
-0.00000000
0.00000000
-0.12500000
-0.00000000
-0.12500000
0.12500000
-0.00000000
-0.00000000
0.12500000
0.00000000
-0.25000000
-0.12500000
0.00000000
-0.00000000
0.00000000
-0.00000000
0.00000000
0.00000000
0.12500000
0.00000000
-0.12500000
-0.12500000
-0.12500000
0.00000000
0.25000000
-0.00000000
-0.12500000
0.00000000
-0.00000000
0.12500000
-0.12500000
0.00000000
-0.00000000
-0.12500000
0.12500000
-0.12500000
0.00000000
0.00000000
0.12500000
-0.00000000
0.00000000
0.00000000
0.12500000
0.00000000
0.12500000
0.12500000
0.12500000
0.00000000
0.12500000
-0.00000000
0.25000000
-0.00000000
-0.12500000
-0.12500000
0.00000000
-0.00000000
0.00000000
-0.12500000
-0.12500000
-0.00000000
0.12500000
0.12500000
-0.12500000
0.12500000
-0.00000000
0.12500000
0.12500000
-0.00000000
0.00000000
-0.12500000
0.00000000
0.00000000
-0.12500000
0.12500000
-0.25000000
-0.12500000
0.12500000
0.00000000
-0.25000000
-0.00000000
-0.00000000
0.12500000
-0.00000000
0.12500000
0.00000000
0.00000000
0.12500000
0.00000000
-0.12500000
0.12500000
-0.00000000
-0.12500000
0.12500000
0.00000000
0.12500000
-0.00000000
0.12500000
-0.12500000
-0.00000000
0.00000000
-0.00000000
0.00000000
0.00000000
-0.00000000
-0.00000000
-0.12500000
-0.12500000
0.12500000
-0.12500000
0.12500000
0.00000000
0.12500000
0.00000000
0.00000000
0.00000000
0.00000000
0.00000000
-0.12500000
0.00000000
-0.12500000
-0.00000000
0.12500000
-0.12500000
-0.00000000
0.12500000
0.12500000
-0.00000000
-0.00000000
-0.00000000
-0.00000000
-0.00000000
-0.00000000
0.12500000
-0.00000000
0.00000000
0.00000000
-0.00000000
0.00000000
0.12500000
0.00000000
0.25000000
-0.00000000
0.12500000
-0.12500000
0.00000000
-0.00000000
0.12500000
-0.00000000
-0.12500000
0.00000000
-0.00000000
-0.12500000
0.12500000
-0.12500000
0.25000000
0.12500000
-0.12500000
0.12500000
0.12500000
-0.00000000
0.12500000
-0.25000000
0.25000000
0.00000000
-0.00000000
0.00000000
0.00000000
-0.00000000
-0.00000000
-0.12500000
-0.00000000
0.00000000
-0.25000000
0.00000000
0.12500000
0.12500000
0.12500000
-0.25000000
0.12500000
-0.12500000
0.00000000
-0.00000000
0.12500000
0.00000000
-0.12500000
-0.25000000
-0.00000000
0.12500000
-0.12500000
0.00000000
-0.12500000
0.00000000
-0.12500000
-0.12500000
-0.25000000
-0.00000000
-0.00000000
0.00000000
-0.12500000
-0.12500000
-0.00000000
-0.12500000
0.00000000
0.00000000
-0.12500000
-0.00000000
0.00000000
-0.00000000
0.00000000
-0.12500000
0.25000000
-0.00000000
-0.25000000
-0.25000000
-0.00000000
-0.12500000
0.37500000
-0.12500000
-0.12500000
0.12500000
-0.00000000
0.12500000
-0.00000000
0.25000000
0.12500000
-0.25000000
0.37500000
-0.12500000
-0.25000000
-0.12500000
0.12500000
-0.12500000
0.25000000
-0.12500000
-0.25000000
0.25000000
-0.12500000
0.25000000
0.00000000
-0.12500000
-0.12500000
-0.00000000
-0.12500000
-0.00000000
-0.25000000
0.12500000
0.12500000
-0.12500000
-0.12500000
-0.12500000
0.00000000
-0.12500000
0.00000000
-0.12500000
-0.00000000
0.12500000
0.00000000
0.00000000
0.25000000
-0.00000000
-0.12500000
-0.12500000
-0.12500000
-0.00000000
0.12500000
-0.12500000
0.00000000
0.12500000
0.00000000
-0.00000000
-0.00000000
0.12500000
0.00000000
0.00000000
0.25000000
-0.12500000
0.12500000
-0.12500000
-0.00000000
-0.12500000
-0.00000000
-0.00000000
-0.12500000
-0.00000000
0.12500000
-0.00000000
0.12500000
0.00000000
0.12500000
-0.12500000
0.12500000
-0.00000000
-0.00000000
-0.12500000
0.12500000
-0.12500000
-0.00000000
-0.00000000
-0.12500000
-0.12500000
0.00000000
0.12500000
-0.12500000
0.00000000
0.00000000
-0.00000000
-0.12500000
0.00000000
0.25000000
-0.00000000
0.00000000
0.12500000
-0.37500000
0.12500000
0.12500000
0.00000000
0.12500000
-0.12500000
-0.12500000
-0.12500000
-0.00000000
0.12500000
-0.37500000
-0.00000000
-0.00000000
-0.00000000
-0.00000000
0.00000000
0.00000000
0.12500000
0.12500000
0.12500000
0.12500000
-0.00000000
0.25000000
-0.00000000
-0.12500000
0.12500000
0.00000000
0.00000000
0.00000000
-0.00000000
-0.12500000
-0.12500000
0.00000000
-0.12500000
-0.00000000
0.12500000
0.00000000
-0.12500000
0.12500000
0.00000000
0.00000000
-0.00000000
0.00000000
0.00000000
-0.00000000
0.00000000
0.00000000
0.00000000
0.00000000
-0.00000000
0.12500000
0.12500000
0.00000000
-0.00000000
0.12500000
-0.12500000
0.00000000
0.12500000
-0.00000000
0.12500000
0.00000000
0.00000000
-0.00000000
-0.00000000
0.12500000
-0.12500000
-0.00000000
0.12500000
-0.12500000
-0.12500000
-0.12500000
0.00000000
-0.00000000
-0.00000000
-0.00000000
-0.12500000
0.00000000
-0.12500000
-0.12500000
0.00000000
0.12500000
-0.00000000
0.00000000
0.12500000
0.00000000
0.12500000
0.00000000
0.00000000
-0.00000000
-0.00000000
-0.12500000
0.00000000
0.12500000
0.12500000
-0.00000000
-0.12500000
-0.12500000
-0.00000000
-0.00000000
-0.12500000
-0.00000000
0.00000000
0.12500000
0.00000000
0.00000000
-0.00000000
0.00000000
-0.00000000
-0.12500000
0.00000000
0.00000000
-0.00000000
0.00000000
0.00000000
-0.12500000
0.00000000
-0.00000000
-0.12500000
0.00000000
-0.25000000
0.25000000
0.00000000
-0.00000000
-0.12500000
0.12500000
0.12500000
0.12500000
-0.00000000
-0.25000000
-0.00000000
0.25000000
-0.12500000
-0.00000000
0.25000000
0.25000000
0.00000000
0.25000000
-0.12500000
0.00000000
-0.25000000
-0.25000000
0.00000000
0.25000000
-0.00000000
0.25000000
-0.00000000
-0.00000000
-0.00000000
0.00000000
0.37500000
0.25000000
0.12500000
0.12500000
-0.00000000
-0.00000000
-0.25000000
-0.25000000
-0.12500000
0.12500000
-0.12500000
0.25000000
-0.12500000
-0.12500000
0.00000000
0.00000000
0.25000000
-0.12500000
-0.12500000
-0.12500000
0.00000000
-0.00000000
-0.00000000
0.12500000
0.12500000
-0.00000000
0.12500000
0.12500000
0.12500000
-0.00000000
-0.12500000
0.12500000
-0.00000000
0.12500000
-0.12500000
0.00000000
0.12500000
-0.12500000
-0.00000000
-0.12500000
0.00000000
-0.00000000
-0.12500000
0.25000000
0.12500000
0.00000000
-0.00000000
-0.12500000
-0.12500000
0.12500000
0.12500000
-0.00000000
-0.12500000
0.25000000
0.12500000
-0.00000000
-0.12500000
-0.00000000
0.12500000
0.12500000
-0.12500000
-0.12500000
0.00000000
-0.12500000
-0.00000000
0.25000000
-0.12500000
0.12500000
-0.25000000
0.25000000
-0.12500000
-0.12500000
-0.00000000
0.12500000
-0.12500000
0.00000000
-0.12500000
0.12500000
0.00000000
-0.25000000
0.12500000
0.12500000
0.00000000
0.12500000
-0.12500000
0.12500000
-0.12500000
-0.00000000
0.00000000
0.12500000
-0.00000000
0.00000000
-0.12500000
-0.25000000
0.12500000
-0.12500000
-0.00000000
-0.00000000
0.12500000
0.12500000
-0.12500000
0.12500000
0.00000000
-0.00000000
0.00000000
0.25000000
0.00000000
-0.12500000
-0.12500000
-0.00000000
0.00000000
-0.12500000
0.00000000
-0.00000000
0.00000000
-0.00000000
0.12500000
-0.12500000
0.00000000
0.12500000
0.12500000
-0.12500000
0.00000000
0.00000000
0.12500000
0.12500000
0.12500000
-0.12500000
-0.00000000
0.12500000
0.00000000
0.00000000
-0.00000000
0.12500000
0.00000000
-0.12500000
-0.00000000
0.12500000
-0.00000000
0.12500000
-0.12500000
0.12500000
-0.00000000
-0.12500000
0.00000000
0.12500000
-0.00000000
0.12500000
-0.12500000
0.00000000
-0.12500000
-0.00000000
-0.12500000
0.00000000
0.00000000
0.12500000
0.00000000
-0.12500000
0.12500000
-0.12500000
-0.12500000
0.12500000
-0.12500000
0.00000000
0.00000000
0.12500000
0.00000000
-0.25000000
-0.00000000
-0.12500000
-0.12500000
0.12500000
-0.12500000
0.00000000
0.12500000
-0.12500000
-0.25000000
0.00000000
-0.00000000
0.00000000
-0.12500000
0.25000000
-0.00000000
-0.00000000
0.00000000
-0.12500000
-0.12500000
-0.12500000
-0.25000000
-0.12500000
0.12500000
-0.00000000
-0.25000000
-0.00000000
-0.00000000
-0.12500000
0.12500000
0.25000000
-0.00000000
0.12500000
0.00000000
-0.12500000
0.00000000
-0.12500000
-0.12500000
-0.00000000
0.12500000
-0.12500000
-0.12500000
0.12500000
-0.25000000
0.25000000
0.00000000
0.12500000
-0.00000000
0.00000000
0.12500000
-0.00000000
-0.00000000
0.00000000
-0.00000000
0.12500000
-0.12500000
-0.12500000
-0.00000000
0.25000000
-0.12500000
0.25000000
0.00000000
0.12500000
-0.12500000
0.00000000
0.00000000
-0.00000000
0.12500000
-0.12500000
-0.12500000
-0.00000000
0.00000000
-0.25000000
-0.12500000
0.00000000
0.12500000
0.12500000
-0.00000000
0.00000000
-0.12500000
0.00000000
-0.00000000
0.25000000
0.12500000
-0.00000000
-0.12500000
-0.12500000
-0.12500000
-0.12500000
-0.12500000
0.00000000
0.12500000
0.00000000
0.12500000
-0.12500000
-0.12500000
0.12500000
-0.00000000
-0.12500000
0.12500000
0.00000000
-0.12500000
0.12500000
-0.00000000
0.00000000
-0.00000000
0.00000000
0.12500000
0.12500000
0.12500000
-0.12500000
0.00000000
-0.00000000
-0.12500000
-0.00000000
0.12500000
0.00000000
-0.00000000
0.00000000
-0.00000000
0.00000000
0.12500000
-0.12500000
0.00000000
0.00000000
-0.00000000
-0.00000000
0.00000000
0.00000000
-0.00000000
-0.12500000
0.00000000
0.12500000
-0.00000000
-0.12500000
-0.00000000
-0.00000000
-0.00000000
0.12500000
-0.12500000
0.12500000
-0.12500000
0.12500000
0.00000000
-0.00000000
0.12500000
0.00000000
0.12500000
-0.00000000
-0.00000000
0.25000000
0.00000000
0.00000000
0.12500000
-0.00000000
-0.00000000
0.12500000
-0.25000000
0.12500000
-0.12500000
-0.00000000
-0.00000000
0.12500000
-0.12500000
-0.00000000
-0.00000000
0.12500000
-0.00000000
0.00000000
0.12500000
-0.00000000
0.12500000
-0.00000000
-0.12500000
-0.00000000
-0.00000000
0.00000000
-0.00000000
0.12500000
0.12500000
0.00000000
-0.00000000
-0.12500000
-0.00000000
0.00000000
-0.00000000
-0.12500000
-0.12500000
0.12500000
0.00000000
-0.12500000
-0.12500000
0.25000000
0.00000000
0.25000000
0.00000000
-0.12500000
-0.00000000
0.12500000
-0.25000000
0.00000000
0.25000000
-0.00000000
0.00000000
0.00000000
-0.12500000
-0.12500000
-0.12500000
-0.12500000
-0.12500000
0.25000000
-0.00000000
0.12500000
0.12500000
-0.00000000
-0.25000000
0.00000000
0.25000000
-0.12500000
0.12500000
0.12500000
0.00000000
-0.12500000
-0.12500000
-0.12500000
-0.12500000
0.25000000
-0.00000000
0.25000000
0.12500000
-0.12500000
-0.12500000
0.12500000
0.12500000
-0.00000000
0.00000000
-0.00000000
-0.25000000
-0.25000000
0.12500000
-0.12500000
-0.12500000
0.00000000
-0.12500000
0.12500000
-0.37500000
-0.12500000
-0.00000000
0.25000000
0.00000000
0.12500000
0.12500000
0.12500000
-0.12500000
0.00000000
0.12500000
-0.25000000
-0.25000000
-0.12500000
-0.25000000
0.25000000
-0.12500000
-0.25000000
0.00000000
0.12500000
0.12500000
0.00000000
0.25000000
0.12500000
-0.12500000
0.25000000
-0.12500000
-0.00000000
-0.00000000
0.25000000
-0.25000000
0.25000000
-0.00000000
-0.25000000
0.00000000
0.00000000
0.12500000
0.00000000
0.00000000
0.00000000
-0.00000000
-0.00000000
0.00000000
0.00000000
-0.00000000
0.00000000
-0.00000000
0.00000000
-0.00000000
0.00000000
-0.12500000
-0.00000000
-0.12500000
0.00000000
0.12500000
0.00000000
-0.12500000
0.12500000
-0.00000000
-0.12500000
-0.12500000
0.00000000
-0.12500000
0.12500000
-0.12500000
0.00000000
-0.00000000
-0.00000000
0.00000000
-0.00000000
0.00000000
0.00000000
0.00000000
0.12500000
0.12500000
-0.00000000
0.12500000
0.00000000
-0.12500000
-0.00000000
-0.00000000
-0.12500000
-0.00000000
0.00000000
-0.12500000
-0.00000000
0.00000000
0.12500000
-0.00000000
0.00000000
0.00000000
0.12500000
-0.00000000
0.12500000
0.00000000
-0.12500000
-0.00000000
0.12500000
-0.12500000
0.12500000
0.12500000
0.00000000
0.12500000
0.00000000
0.12500000
-0.00000000
-0.12500000
-0.00000000
-0.12500000
0.12500000
0.00000000
0.00000000
0.12500000
-0.12500000
-0.12500000
0.12500000
0.12500000
0.00000000
0.12500000
-0.00000000
0.12500000
-0.25000000
-0.12500000
-0.12500000
-0.00000000
0.12500000
-0.12500000
0.12500000
0.12500000
0.00000000
0.00000000
0.25000000
0.00000000
0.12500000
0.00000000
-0.00000000
0.12500000
0.37500000
0.00000000
-0.37500000
-0.12500000
-0.12500000
-0.12500000
0.25000000
0.00000000
-0.12500000
0.12500000
-0.25000000
-0.25000000
0.12500000
0.00000000
0.00000000
0.12500000
0.12500000
0.12500000
-0.00000000
0.12500000
-0.25000000
0.00000000
0.00000000
-0.12500000
-0.12500000
0.12500000
-0.12500000
-0.37500000
0.12500000
-0.00000000
-0.00000000
0.12500000
0.37500000
-0.00000000
0.12500000
0.12500000
-0.12500000
0.12500000
-0.12500000
-0.12500000
-0.12500000
0.12500000
-0.25000000
-0.25000000
0.00000000
0.00000000
-0.00000000
-0.12500000
-0.00000000
0.12500000
0.12500000
-0.00000000
-0.12500000
0.00000000
-0.00000000
0.00000000
0.12500000
0.12500000
0.12500000
0.00000000
-0.00000000
-0.00000000
0.00000000
-0.12500000
0.00000000
-0.00000000
-0.00000000
0.00000000
0.12500000
0.00000000
0.12500000
0.00000000
0.12500000
-0.00000000
-0.00000000
-0.00000000
0.12500000
-0.00000000
-0.00000000
0.12500000
-0.00000000
0.00000000
-0.12500000
-0.12500000
0.12500000
-0.00000000
-0.00000000
-0.00000000
-0.12500000
-0.00000000
-0.00000000
-0.00000000
0.00000000
-0.00000000
-0.12500000
-0.12500000
-0.25000000
0.12500000
0.12500000
0.12500000
0.00000000
0.00000000
-0.12500000
-0.12500000
0.12500000
-0.00000000
0.25000000
-0.00000000
0.00000000
-0.00000000
-0.12500000
-0.00000000
-0.12500000
0.00000000
-0.00000000
0.00000000
0.00000000
0.00000000
0.12500000
-0.12500000
0.12500000
-0.00000000
0.12500000
-0.00000000
0.00000000
-0.00000000
0.12500000
-0.12500000
-0.00000000
-0.00000000
0.00000000
0.12500000
0.12500000
-0.00000000
0.00000000
-0.12500000
0.00000000
-0.12500000
0.00000000
0.00000000
-0.12500000
-0.00000000
-0.25000000
-0.12500000
0.00000000
0.12500000
0.00000000
0.12500000
0.12500000
0.00000000
-0.12500000
0.00000000
-0.00000000
0.00000000
0.00000000
0.00000000
0.12500000
-0.12500000
-0.00000000
0.00000000
0.00000000
0.00000000
-0.12500000
0.00000000
0.12500000
-0.00000000
0.00000000
-0.12500000
0.00000000
-0.00000000
-0.00000000
0.12500000
0.00000000
0.00000000
-0.00000000
0.00000000
0.12500000
0.12500000
-0.12500000
0.12500000
0.12500000
-0.00000000
-0.00000000
-0.12500000
-0.00000000
0.12500000
-0.00000000
0.00000000
-0.12500000
0.25000000
-0.12500000
0.12500000
-0.00000000
0.12500000
0.12500000
-0.12500000
0.00000000
-0.12500000
-0.00000000
0.12500000
-0.25000000
-0.00000000
0.12500000
-0.12500000
-0.12500000
-0.12500000
-0.12500000
0.12500000
-0.25000000
0.12500000
-0.00000000
0.00000000
-0.00000000
-0.12500000
-0.00000000
-0.00000000
0.00000000
-0.12500000
0.12500000
-0.00000000
-0.12500000
-0.00000000
0.00000000
0.00000000
-0.12500000
0.00000000
-0.12500000
-0.12500000
0.00000000
-0.00000000
0.00000000
0.12500000
0.00000000
-0.25000000
0.12500000
-0.00000000
-0.00000000
0.12500000
-0.12500000
0.00000000
-0.12500000
-0.00000000
-0.00000000
0.12500000
-0.12500000
0.12500000
-0.00000000
0.12500000
0.00000000
-0.00000000
-0.00000000
-0.00000000
0.00000000
-0.00000000
0.12500000
0.00000000
0.12500000
0.00000000
-0.12500000
-0.12500000
-0.12500000
0.00000000
0.00000000
0.00000000
0.00000000
0.00000000
0.00000000
0.12500000
-0.00000000
0.12500000
-0.00000000
-0.00000000
-0.00000000
0.00000000
0.00000000
-0.12500000
0.12500000
0.00000000
-0.00000000
-0.00000000
0.12500000
0.00000000
-0.12500000
-0.00000000
0.00000000
0.00000000
-0.12500000
-0.00000000
0.12500000
-0.00000000
0.25000000
0.12500000
-0.12500000
0.12500000
-0.12500000
0.00000000
0.00000000
0.00000000
0.00000000
-0.00000000
-0.12500000
-0.12500000
-0.12500000
-0.00000000
-0.00000000
0.12500000
-0.12500000
0.25000000
0.12500000
0.12500000
-0.12500000
-0.12500000
0.25000000
-0.00000000
0.00000000
0.00000000
0.12500000
-0.12500000
-0.00000000
-0.00000000
-0.12500000
0.12500000
-0.25000000
0.12500000
-0.00000000
0.00000000
0.00000000
-0.12500000
-0.12500000
-0.00000000
-0.00000000
0.12500000
0.00000000
-0.00000000
0.12500000
0.00000000
0.12500000
0.12500000
0.12500000
0.00000000
0.00000000
0.00000000
-0.12500000
0.00000000
0.12500000
-0.00000000
-0.00000000
-0.00000000
-0.00000000
0.12500000
-0.00000000
-0.00000000
-0.12500000
-0.00000000
0.12500000
0.25000000
0.25000000
0.12500000
-0.12500000
-0.00000000
0.25000000
0.00000000
0.00000000
-0.00000000
0.00000000
-0.12500000
-0.12500000
0.12500000
-0.12500000
0.12500000
-0.12500000
-0.00000000
-0.12500000
0.12500000
-0.12500000
0.12500000
0.12500000
-0.00000000
0.00000000
-0.12500000
-0.00000000
-0.00000000
-0.00000000
-0.12500000
-0.25000000
-0.00000000
-0.12500000
0.00000000
-0.12500000
-0.00000000
0.00000000
-0.25000000
0.00000000
-0.00000000
0.00000000
-0.25000000
0.12500000
0.00000000
0.12500000
-0.12500000
0.00000000
0.00000000
-0.12500000
0.12500000
-0.12500000
-0.25000000
0.00000000
-0.12500000
-0.12500000
-0.00000000
-0.12500000
-0.00000000
0.12500000
0.25000000
0.12500000
-0.00000000
0.12500000
-0.00000000
-0.00000000
0.12500000
-0.00000000
-0.00000000
-0.00000000
-0.00000000
-0.25000000
-0.00000000
-0.12500000
-0.12500000
0.00000000
-0.00000000
-0.00000000
0.12500000
0.00000000
0.00000000
0.00000000
-0.12500000
-0.25000000
-0.12500000
0.12500000
0.12500000
0.12500000
-0.12500000
-0.12500000
0.00000000
0.00000000
-0.00000000
0.12500000
-0.00000000
-0.00000000
0.00000000
0.12500000
0.00000000
-0.00000000
-0.00000000
-0.12500000
-0.00000000
-0.12500000
-0.12500000
-0.00000000
-0.00000000
0.00000000
0.00000000
0.00000000
0.00000000
-0.00000000
-0.12500000
0.00000000
-0.12500000
0.12500000
-0.00000000
0.12500000
-0.12500000
-0.12500000
0.00000000
0.00000000
-0.00000000
-0.12500000
0.12500000
-0.25000000
-0.12500000
-0.25000000
0.00000000
0.25000000
-0.00000000
0.00000000
0.00000000
-0.12500000
-0.12500000
0.25000000
-0.00000000
0.12500000
-0.00000000
0.12500000
-0.12500000
-0.00000000
-0.12500000
-0.37500000
0.12500000
-0.12500000
0.00000000
-0.00000000
-0.00000000
0.00000000
-0.12500000
0.00000000
-0.12500000
0.12500000
-0.00000000
0.12500000
-0.00000000
0.12500000
-0.00000000
-0.00000000
-0.00000000
-0.12500000
0.00000000
0.00000000
-0.00000000
0.12500000
-0.12500000
-0.12500000
0.00000000
-0.00000000
0.12500000
0.12500000
-0.25000000
0.12500000
0.12500000
-0.25000000
0.12500000
0.12500000
0.12500000
-0.12500000
0.00000000
-0.25000000
-0.12500000
0.37500000
0.12500000
-0.12500000
-0.00000000
0.12500000
0.00000000
0.00000000
-0.00000000
0.12500000
-0.12500000
0.00000000
-0.00000000
-0.00000000
-0.12500000
-0.00000000
-0.12500000
0.12500000
0.12500000
-0.25000000
0.12500000
-0.00000000
0.12500000
0.12500000
0.00000000
0.12500000
0.00000000
-0.12500000
0.00000000
-0.00000000
0.00000000
0.00000000
0.00000000
-0.25000000
0.12500000
-0.12500000
0.00000000
0.12500000
-0.00000000
0.00000000
0.00000000
-0.12500000
0.12500000
0.12500000
-0.12500000
-0.12500000
-0.00000000
-0.00000000
0.12500000
0.00000000
-0.00000000
-0.00000000
0.00000000
0.12500000
-0.00000000
-0.00000000
0.00000000
-0.00000000
-0.00000000
-0.00000000
0.00000000
-0.00000000
0.12500000
0.00000000
-0.00000000
-0.12500000
-0.00000000
0.00000000
-0.00000000
-0.00000000
0.00000000
-0.00000000
-0.00000000
0.00000000
0.00000000
-0.00000000
0.00000000
0.12500000
0.00000000
0.12500000
-0.00000000
-0.12500000
-0.12500000
0.00000000
-0.12500000
-0.12500000
0.25000000
-0.12500000
0.00000000
0.12500000
-0.00000000
0.12500000
-0.25000000
0.12500000
-0.00000000
0.00000000
-0.00000000
-0.25000000
-0.12500000
0.25000000
0.12500000
-0.25000000
-0.12500000
-0.25000000
0.00000000
-0.12500000
-0.00000000
0.12500000
-0.12500000
0.12500000
0.00000000
-0.12500000
0.00000000
-0.12500000
-0.25000000
0.12500000
0.12500000
-0.25000000
-0.25000000
-0.12500000
0.00000000
-0.25000000
0.00000000
0.12500000
0.12500000
0.12500000
0.12500000
-0.12500000
0.00000000
0.37500000
-0.25000000
0.12500000
0.00000000
-0.12500000
-0.00000000
-0.00000000
0.00000000
-0.00000000
0.12500000
0.12500000
0.00000000
-0.00000000
-0.00000000
-0.00000000
0.00000000
-0.00000000
0.12500000
0.00000000
-0.00000000
0.00000000
0.12500000
0.12500000
-0.12500000
-0.12500000
-0.12500000
-0.12500000
-0.00000000
-0.12500000
-0.12500000
0.00000000
-0.12500000
0.00000000
0.12500000
-0.00000000
0.00000000
0.12500000
0.00000000
-0.00000000
-0.00000000
-0.00000000
-0.00000000
0.00000000
-0.12500000
0.12500000
-0.12500000
0.00000000
-0.12500000
-0.12500000
0.12500000
-0.00000000
-0.00000000
-0.12500000
0.12500000
-0.12500000
-0.00000000
0.00000000
-0.00000000
0.12500000
0.00000000
0.00000000
0.12500000
-0.00000000
0.00000000
0.00000000
0.12500000
0.12500000
-0.12500000
0.00000000
-0.12500000
-0.00000000
-0.12500000
0.12500000
-0.12500000
-0.12500000
0.12500000
0.12500000
-0.12500000
0.12500000
-0.12500000
0.00000000
-0.00000000
0.12500000
-0.00000000
0.00000000
-0.12500000
0.00000000
0.00000000
0.25000000
0.00000000
-0.00000000
0.12500000
-0.00000000
0.00000000
0.12500000
-0.00000000
-0.12500000
-0.12500000
0.00000000
-0.00000000
-0.12500000
0.00000000
-0.12500000
0.00000000
-0.00000000
0.00000000
0.12500000
-0.00000000
0.00000000
-0.00000000
-0.00000000
0.00000000
0.25000000
0.00000000
-0.00000000
-0.12500000
0.00000000
-0.12500000
0.00000000
-0.12500000
0.12500000
-0.00000000
0.00000000
0.12500000
0.12500000
0.12500000
0.12500000
-0.12500000
0.00000000
-0.00000000
0.00000000
-0.12500000
0.00000000
-0.00000000
0.00000000
-0.12500000
0.12500000
0.12500000
-0.12500000
0.00000000
-0.12500000
-0.00000000
0.00000000
-0.12500000
-0.12500000
-0.00000000
-0.12500000
-0.12500000
-0.12500000
0.12500000
-0.12500000
0.00000000
-0.12500000
-0.00000000
-0.12500000
0.12500000
-0.00000000
0.00000000
-0.00000000
-0.12500000
-0.00000000
-0.00000000
0.12500000
0.12500000
-0.00000000
-0.00000000
0.12500000
-0.00000000
0.00000000
0.00000000
-0.00000000
-0.00000000
-0.00000000
-0.00000000
0.00000000
-0.00000000
-0.00000000
-0.00000000
-0.00000000
-0.00000000
-0.00000000
-0.12500000
0.00000000
0.12500000
0.12500000
0.00000000
0.12500000
-0.00000000
0.12500000
-0.00000000
-0.12500000
-0.00000000
0.12500000
0.00000000
-0.12500000
0.12500000
0.00000000
-0.00000000
0.00000000
-0.00000000
-0.00000000
0.12500000
0.12500000
-0.00000000
0.12500000
-0.00000000
0.00000000
-0.00000000
0.25000000
-0.00000000
0.12500000
-0.00000000
0.12500000
0.12500000
0.00000000
-0.00000000
-0.00000000
-0.00000000
-0.00000000
0.25000000
-0.00000000
-0.00000000
0.00000000
-0.12500000
-0.00000000
0.00000000
-0.12500000
0.00000000
0.12500000
0.00000000
-0.00000000
0.00000000
0.00000000
0.00000000
-0.00000000
0.00000000
0.00000000
0.12500000
0.00000000
-0.12500000
-0.12500000
-0.00000000
-0.00000000
-0.00000000
-0.12500000
0.12500000
0.12500000
-0.12500000
0.12500000
-0.00000000
-0.00000000
-0.00000000
0.12500000
0.00000000
-0.00000000
-0.00000000
-0.12500000
-0.12500000
0.00000000
0.12500000
-0.25000000
0.00000000
-0.12500000
-0.00000000
0.12500000
-0.00000000
-0.12500000
-0.00000000
0.25000000
-0.12500000
0.12500000
-0.00000000
-0.12500000
-0.00000000
0.12500000
0.12500000
-0.25000000
0.12500000
-0.12500000
-0.12500000
0.12500000
-0.12500000
-0.12500000
-0.12500000
0.12500000
-0.12500000
0.12500000
-0.00000000
-0.12500000
0.00000000
0.00000000
0.12500000
-0.00000000
0.00000000
-0.00000000
0.00000000
-0.12500000
0.00000000
-0.00000000
0.00000000
0.00000000
0.00000000
0.12500000
-0.25000000
0.12500000
0.00000000
0.12500000
-0.00000000
0.12500000
0.00000000
0.00000000
-0.12500000
0.00000000
-0.00000000
-0.12500000
0.12500000
0.00000000
-0.00000000
0.12500000
-0.12500000
-0.00000000
0.00000000
-0.00000000
-0.00000000
0.00000000
0.00000000
0.12500000
0.00000000
-0.12500000
-0.12500000
0.12500000
0.12500000
-0.00000000
-0.00000000
0.12500000
-0.00000000
-0.12500000
-0.00000000
-0.12500000
-0.00000000
0.00000000
0.25000000
-0.00000000
-0.00000000
-0.12500000
0.12500000
0.12500000
-0.12500000
-0.12500000
-0.00000000
0.00000000
0.12500000
-0.25000000
0.00000000
0.12500000
-0.25000000
-0.12500000
-0.12500000
-0.12500000
0.12500000
-0.12500000
0.12500000
-0.12500000
-0.12500000
-0.25000000
-0.12500000
0.12500000
0.00000000
0.12500000
-0.12500000
-0.00000000
-0.12500000
0.12500000
-0.12500000
-0.00000000
0.12500000
0.00000000
0.00000000
-0.00000000
-0.00000000
-0.12500000
-0.12500000
0.12500000
0.00000000
0.00000000
-0.12500000
0.12500000
-0.12500000
0.00000000
0.12500000
-0.00000000
0.00000000
-0.00000000
-0.12500000
-0.00000000
-0.00000000
-0.12500000
0.00000000
0.12500000
0.12500000
0.12500000
-0.00000000
-0.00000000
-0.12500000
0.12500000
-0.12500000
0.00000000
-0.00000000
-0.12500000
0.12500000
0.00000000
0.12500000
-0.12500000
0.00000000
-0.12500000
-0.00000000
-0.12500000
-0.00000000
-0.12500000
-0.12500000
0.12500000
-0.12500000
0.00000000
-0.00000000
-0.00000000
0.12500000
0.12500000
-0.00000000
-0.12500000
0.12500000
-0.12500000
-0.12500000
0.12500000
-0.12500000
-0.00000000
-0.12500000
-0.12500000
-0.00000000
0.12500000
-0.00000000
0.12500000
-0.12500000
0.00000000
0.00000000
0.00000000
0.00000000
-0.00000000
0.12500000
0.12500000
-0.12500000
-0.00000000
0.25000000
-0.00000000
0.12500000
0.25000000
0.12500000
0.00000000
-0.12500000
0.00000000
-0.12500000
0.12500000
0.12500000
0.12500000
0.12500000
-0.25000000
0.00000000
0.12500000
0.12500000
0.00000000
0.12500000
0.12500000
0.00000000
0.00000000
-0.25000000
-0.00000000
-0.00000000
0.12500000
0.12500000
0.25000000
0.00000000
-0.12500000
0.12500000
0.12500000
0.25000000
-0.12500000
0.00000000
-0.12500000
0.00000000
-0.12500000
0.00000000
0.00000000
-0.00000000
-0.00000000
0.00000000
0.00000000
0.00000000
-0.12500000
-0.00000000
0.00000000
-0.12500000
0.00000000
-0.12500000
-0.12500000
0.00000000
-0.00000000
0.12500000
-0.12500000
0.12500000
-0.00000000
-0.12500000
0.12500000
0.00000000
0.12500000
-0.12500000
0.00000000
-0.12500000
0.12500000
-0.00000000
-0.12500000
-0.12500000
0.12500000
0.00000000
-0.12500000
-0.12500000
0.00000000
-0.12500000
0.25000000
-0.12500000
-0.12500000
0.00000000
-0.12500000
-0.00000000
0.12500000
0.00000000
0.12500000
0.00000000
0.25000000
-0.12500000
-0.25000000
-0.00000000
-0.12500000
-0.00000000
0.25000000
0.00000000
-0.25000000
0.12500000
-0.12500000
-0.12500000
-0.00000000
-0.00000000
-0.12500000
0.12500000
0.12500000
-0.12500000
0.12500000
-0.00000000
-0.12500000
0.12500000
-0.12500000
0.00000000
-0.12500000
0.12500000
-0.12500000
-0.25000000
0.12500000
-0.12500000
-0.00000000
0.12500000
-0.00000000
0.12500000
0.37500000
0.12500000
-0.12500000
0.12500000
-0.37500000
0.00000000
0.12500000
-0.00000000
-0.00000000
-0.25000000
-0.12500000
0.25000000
-0.25000000
0.12500000
-0.12500000
0.25000000
0.00000000
-0.12500000
-0.12500000
0.00000000
0.00000000
-0.12500000
-0.12500000
0.00000000
0.12500000
-0.12500000
-0.12500000
-0.12500000
-0.12500000
0.12500000
-0.12500000
0.37500000
-0.12500000
0.00000000
-0.12500000
-0.00000000
0.00000000
0.00000000
-0.00000000
0.00000000
0.12500000
-0.12500000
-0.12500000
-0.00000000
-0.12500000
0.12500000
0.12500000
0.25000000
0.12500000
0.12500000
0.00000000
-0.00000000
0.12500000
-0.00000000
0.00000000
0.00000000
0.12500000
-0.25000000
0.00000000
-0.00000000
0.00000000
-0.00000000
-0.00000000
0.12500000
-0.12500000
0.12500000
0.12500000
0.00000000
-0.12500000
-0.12500000
0.25000000
0.00000000
0.12500000
-0.12500000
0.00000000
0.12500000
0.00000000
-0.00000000
0.00000000
-0.12500000
0.00000000
0.12500000
-0.00000000
-0.00000000
0.00000000
-0.00000000
-0.00000000
-0.00000000
-0.12500000
0.00000000
-0.00000000
0.00000000
-0.00000000
0.00000000
-0.12500000
-0.00000000
-0.12500000
0.00000000
0.00000000
0.00000000
0.12500000
0.00000000
0.00000000
-0.00000000
-0.12500000
-0.12500000
-0.12500000
0.25000000
-0.12500000
0.12500000
0.12500000
0.00000000
0.00000000
-0.12500000
0.00000000
-0.00000000
0.12500000
0.12500000
-0.37500000
0.00000000
-0.00000000
-0.12500000
-0.12500000
-0.12500000
-0.12500000
0.12500000
-0.00000000
0.00000000
0.00000000
0.12500000
-0.12500000
0.12500000
-0.25000000
0.12500000
-0.00000000
-0.12500000
0.00000000
-0.00000000
0.00000000
-0.12500000
0.12500000
0.12500000
0.00000000
-0.00000000
0.12500000
0.12500000
-0.12500000
0.00000000
-0.12500000
0.12500000
0.25000000
-0.12500000
-0.00000000
-0.00000000
0.12500000
-0.12500000
-0.12500000
-0.00000000
-0.00000000
-0.00000000
0.12500000
0.12500000
0.12500000
0.12500000
-0.12500000
-0.12500000
0.12500000
0.12500000
-0.00000000
0.00000000
0.00000000
-0.12500000
0.00000000
-0.00000000
0.12500000
-0.00000000
0.00000000
0.00000000
-0.00000000
0.12500000
0.00000000
-0.00000000
0.00000000
0.12500000
-0.12500000
-0.00000000
-0.00000000
0.12500000
-0.00000000
-0.12500000
0.00000000
-0.00000000
0.00000000
-0.12500000
-0.00000000
0.00000000
-0.12500000
0.00000000
-0.00000000
0.00000000
-0.00000000
-0.12500000
-0.00000000
0.00000000
0.00000000
0.00000000
0.00000000
-0.12500000
0.12500000
0.00000000
-0.00000000
-0.00000000
-0.00000000
-0.00000000
0.00000000
-0.12500000
-0.00000000
0.00000000
0.00000000
0.00000000
-0.12500000
-0.00000000
-0.00000000
-0.00000000
0.12500000
-0.00000000
-0.00000000
-0.00000000
0.00000000
0.00000000
-0.12500000
-0.00000000
-0.00000000
-0.00000000
-0.12500000
0.00000000
0.00000000
0.00000000
-0.12500000
-0.12500000
0.00000000
0.00000000
0.12500000
-0.00000000
-0.00000000
0.00000000
-0.00000000
-0.00000000
0.12500000
-0.00000000
-0.12500000
0.00000000
-0.12500000
-0.00000000
-0.00000000
-0.12500000
-0.00000000
0.25000000
0.00000000
0.00000000
-0.12500000
0.12500000
0.12500000
-0.12500000
-0.00000000
0.00000000
-0.00000000
-0.12500000
0.00000000
0.00000000
-0.00000000
-0.00000000
-0.00000000
-0.12500000
-0.00000000
-0.12500000
-0.12500000
0.00000000
-0.00000000
-0.00000000
-0.12500000
-0.00000000
0.00000000
-0.12500000
0.12500000
-0.12500000
0.00000000
0.12500000
0.12500000
-0.12500000
-0.00000000
0.12500000
-0.00000000
-0.12500000
0.00000000
0.12500000
-0.00000000
-0.00000000
0.12500000
0.00000000
-0.00000000
0.00000000
0.00000000
0.12500000
-0.00000000
-0.00000000
-0.00000000
-0.12500000
0.00000000
-0.00000000
0.00000000
-0.12500000
0.00000000
0.00000000
0.12500000
0.00000000
0.12500000
0.00000000
0.00000000
-0.00000000
-0.00000000
0.00000000
-0.00000000
-0.00000000
0.00000000
0.00000000
-0.12500000
-0.00000000
0.00000000
0.00000000
-0.12500000
-0.12500000
0.00000000
-0.12500000
0.12500000
0.00000000
0.00000000
-0.00000000
-0.00000000
0.00000000
0.00000000
0.00000000
-0.12500000
-0.12500000
-0.00000000
0.00000000
-0.00000000
-0.12500000
-0.00000000
0.00000000
-0.00000000
-0.12500000
-0.00000000
0.12500000
0.00000000
-0.00000000
0.12500000
0.00000000
-0.12500000
-0.00000000
0.00000000
0.00000000
0.00000000
0.00000000
-0.00000000
-0.12500000
-0.00000000
0.12500000
-0.00000000
0.12500000
0.12500000
0.00000000
-0.00000000
0.00000000
0.12500000
0.00000000
-0.00000000
-0.12500000
0.00000000
0.00000000
0.00000000
-0.12500000
-0.12500000
0.00000000
-0.00000000
-0.00000000
0.12500000
-0.00000000
0.12500000
-0.00000000
-0.00000000
-0.00000000
-0.12500000
-0.12500000
-0.12500000
-0.12500000
-0.12500000
-0.12500000
-0.25000000
0.12500000
0.12500000
0.00000000
0.00000000
0.12500000
-0.25000000
-0.00000000
0.25000000
-0.25000000
0.12500000
-0.00000000
-0.12500000
0.00000000
-0.00000000
0.00000000
-0.12500000
-0.00000000
0.12500000
-0.00000000
-0.00000000
-0.00000000
0.00000000
-0.12500000
0.00000000
-0.12500000
-0.00000000
0.00000000
-0.12500000
0.25000000
0.00000000
0.12500000
-0.12500000
-0.12500000
0.12500000
-0.00000000
0.12500000
-0.00000000
0.00000000
-0.12500000
-0.25000000
-0.12500000
0.12500000
0.12500000
0.00000000
-0.25000000
-0.00000000
0.00000000
-0.12500000
-0.00000000
-0.12500000
-0.00000000
-0.12500000
-0.12500000
0.00000000
-0.00000000
0.12500000
-0.12500000
0.00000000
-0.12500000
-0.12500000
0.12500000
0.00000000
0.00000000
0.00000000
-0.12500000
0.00000000
-0.00000000
-0.00000000
0.12500000
-0.00000000
-0.00000000
-0.12500000
0.00000000
-0.00000000
-0.00000000
-0.25000000
0.12500000
-0.12500000
0.00000000
-0.00000000
-0.12500000
-0.00000000
-0.12500000
0.12500000
0.00000000
-0.12500000
0.12500000
-0.12500000
-0.12500000
0.00000000
-0.00000000
-0.00000000
0.00000000
-0.00000000
-0.12500000
-0.12500000
-0.00000000
-0.12500000
0.12500000
0.12500000
0.00000000
-0.00000000
-0.12500000
0.12500000
-0.12500000
-0.00000000
0.12500000
-0.12500000
0.12500000
0.00000000
-0.12500000
-0.00000000
0.12500000
0.12500000
-0.00000000
0.12500000
-0.00000000
-0.00000000
-0.25000000
0.12500000
-0.12500000
0.00000000
0.12500000
-0.12500000
-0.00000000
0.12500000
-0.25000000
-0.12500000
0.00000000
0.00000000
-0.00000000
0.12500000
0.00000000
-0.12500000
-0.25000000
-0.00000000
-0.12500000
0.00000000
0.12500000
0.12500000
-0.25000000
-0.00000000
0.12500000
-0.00000000
0.12500000
-0.12500000
0.00000000
0.12500000
0.00000000
-0.12500000
0.00000000
0.37500000
-0.00000000
-0.12500000
-0.12500000
0.12500000
-0.00000000
0.12500000
0.00000000
0.00000000
0.00000000
-0.00000000
-0.00000000
0.00000000
-0.12500000
-0.00000000
0.00000000
0.00000000
-0.12500000
0.00000000
-0.00000000
-0.12500000
0.25000000
-0.00000000
-0.00000000
0.25000000
-0.00000000
0.12500000
0.00000000
0.12500000
0.12500000
-0.00000000
0.12500000
-0.12500000
-0.12500000
0.12500000
0.00000000
0.00000000
-0.00000000
0.12500000
-0.00000000
0.00000000
0.00000000
-0.12500000
-0.12500000
0.00000000
-0.12500000
0.00000000
-0.12500000
0.12500000
0.12500000
0.00000000
-0.00000000
0.12500000
0.00000000
0.00000000
-0.00000000
0.12500000
-0.00000000
-0.00000000
0.00000000
-0.00000000
0.00000000
-0.00000000
-0.12500000
-0.12500000
0.00000000
0.00000000
0.12500000
-0.00000000
0.12500000
0.00000000
0.00000000
0.00000000
-0.00000000
0.12500000
0.12500000
0.00000000
0.00000000
-0.00000000
0.12500000
-0.00000000
0.00000000
0.00000000
-0.00000000
-0.00000000
-0.12500000
-0.00000000
0.00000000
0.00000000
0.12500000
0.25000000
0.00000000
0.12500000
0.12500000
0.00000000
0.00000000
0.00000000
-0.00000000
-0.00000000
-0.00000000
0.00000000
-0.00000000
0.00000000
0.00000000
0.12500000
-0.00000000
0.00000000
0.00000000
-0.12500000
-0.00000000
0.00000000
0.00000000
0.00000000
0.00000000
0.00000000
-0.00000000
0.00000000
0.00000000
-0.00000000
-0.00000000
0.12500000
-0.00000000
0.00000000
-0.00000000
-0.12500000
-0.00000000
0.00000000
0.00000000
-0.12500000
0.12500000
-0.00000000
0.00000000
0.00000000
0.12500000
0.12500000
-0.12500000
0.12500000
-0.12500000
0.12500000
-0.00000000
0.12500000
0.00000000
0.12500000
0.00000000
-0.12500000
0.12500000
-0.00000000
-0.00000000
-0.12500000
0.12500000
-0.12500000
-0.12500000
-0.00000000
-0.12500000
0.12500000
0.12500000
0.12500000
0.00000000
-0.00000000
-0.00000000
0.00000000
-0.00000000
-0.00000000
-0.00000000
0.00000000
-0.00000000
-0.00000000
-0.00000000
-0.00000000
0.12500000
-0.12500000
-0.00000000
-0.12500000
-0.12500000
0.00000000
-0.12500000
-0.12500000
0.12500000
-0.12500000
0.00000000
0.00000000
0.12500000
0.00000000
-0.00000000
0.12500000
-0.12500000
-0.12500000
-0.12500000
0.00000000
-0.00000000
0.25000000
0.00000000
-0.12500000
0.00000000
-0.12500000
0.12500000
-0.12500000
0.12500000
-0.12500000
0.12500000
0.12500000
-0.12500000
0.00000000
0.00000000
0.12500000
0.12500000
0.12500000
0.00000000
0.00000000
-0.12500000
-0.00000000
-0.00000000
0.00000000
-0.12500000
-0.12500000
0.00000000
-0.12500000
0.00000000
-0.12500000
-0.00000000
0.00000000
0.00000000
0.00000000
-0.12500000
0.12500000
0.00000000
0.00000000
0.00000000
0.12500000
0.00000000
-0.00000000
0.00000000
-0.00000000
0.12500000
-0.12500000
0.00000000
0.00000000
-0.00000000
0.12500000
-0.12500000
-0.25000000
-0.00000000
0.00000000
0.00000000
0.00000000
-0.00000000
-0.00000000
0.00000000
0.12500000
0.00000000
-0.25000000
-0.12500000
-0.12500000
0.00000000
0.00000000
-0.00000000
0.00000000
0.12500000
-0.00000000
-0.00000000
-0.00000000
0.00000000
0.00000000
-0.00000000
-0.00000000
-0.00000000
-0.00000000
0.12500000
0.00000000
-0.00000000
-0.00000000
0.00000000
0.12500000
0.00000000
0.00000000
0.12500000
-0.00000000
-0.00000000
-0.00000000
0.12500000
-0.25000000
-0.12500000
0.00000000
0.25000000
0.00000000
0.12500000
-0.25000000
0.00000000
-0.00000000
-0.12500000
-0.00000000
0.00000000
-0.00000000
-0.12500000
-0.00000000
0.12500000
-0.12500000
0.00000000
-0.12500000
-0.00000000
-0.00000000
-0.12500000
0.12500000
0.00000000
0.00000000
0.12500000
-0.00000000
0.00000000
-0.25000000
0.12500000
-0.12500000
-0.00000000
-0.12500000
0.12500000
0.25000000
0.00000000
-0.12500000
0.00000000
-0.12500000
-0.12500000
0.25000000
0.12500000
0.12500000
-0.00000000
0.00000000
-0.12500000
0.00000000
-0.12500000
-0.12500000
0.12500000
-0.12500000
-0.00000000
-0.00000000
-0.12500000
0.12500000
-0.12500000
-0.00000000
0.12500000
0.00000000
0.00000000
-0.12500000
0.12500000
-0.00000000
-0.12500000
-0.12500000
-0.00000000
0.00000000
-0.12500000
-0.00000000
0.00000000
-0.12500000
-0.12500000
-0.12500000
-0.00000000
0.00000000
-0.12500000
-0.00000000
0.00000000
-0.12500000
0.12500000
-0.12500000
-0.12500000
0.12500000
0.12500000
0.12500000
0.12500000
-0.12500000
-0.00000000
0.12500000
0.00000000
0.00000000
0.00000000
-0.00000000
-0.00000000
-0.00000000
-0.00000000
-0.25000000
0.12500000
-0.00000000
-0.00000000
-0.12500000
0.00000000
-0.00000000
-0.12500000
-0.00000000
0.12500000
-0.00000000
-0.00000000
-0.00000000
0.12500000
0.00000000
0.00000000
0.00000000
-0.00000000
0.00000000
-0.12500000
-0.12500000
0.00000000
0.00000000
-0.00000000
-0.00000000
0.00000000
0.00000000
-0.00000000
-0.25000000
0.00000000
-0.12500000
0.12500000
-0.12500000
-0.12500000
0.12500000
-0.00000000
0.00000000
-0.00000000
-0.12500000
0.12500000
-0.00000000
0.00000000
-0.00000000
0.00000000
0.12500000
-0.12500000
0.12500000
-0.12500000
-0.12500000
-0.12500000
-0.00000000
0.00000000
0.12500000
0.00000000
-0.00000000
-0.12500000
0.37500000
-0.12500000
-0.00000000
-0.00000000
0.12500000
-0.12500000
0.12500000
-0.12500000
-0.00000000
0.00000000
0.00000000
-0.00000000
0.12500000
-0.00000000
-0.25000000
-0.12500000
-0.00000000
-0.25000000
0.00000000
-0.00000000
0.00000000
0.12500000
0.12500000
-0.12500000
0.00000000
0.00000000
0.00000000
0.00000000
0.25000000
0.00000000
0.00000000
-0.25000000
-0.12500000
-0.25000000
0.12500000
0.00000000
-0.12500000
-0.00000000
-0.12500000
0.12500000
-0.25000000
0.00000000
0.25000000
0.25000000
0.00000000
0.25000000
-0.25000000
0.12500000
0.12500000
-0.12500000
-0.12500000
-0.00000000
-0.00000000
-0.25000000
0.00000000
0.12500000
-0.12500000
0.00000000
-0.12500000
0.00000000
-0.00000000
-0.00000000
-0.12500000
0.00000000
0.00000000
-0.12500000
-0.00000000
-0.00000000
0.00000000
0.12500000
0.12500000
-0.12500000
0.12500000
-0.00000000
0.12500000
-0.00000000
0.12500000
0.12500000
-0.00000000
0.00000000
-0.00000000
0.12500000
0.12500000
-0.00000000
0.12500000
0.00000000
-0.00000000
-0.12500000
-0.12500000
0.12500000
-0.12500000
0.12500000
0.12500000
0.00000000
-0.12500000
-0.12500000
0.00000000
-0.00000000
-0.00000000
-0.12500000
0.12500000
-0.12500000
0.12500000
0.00000000
0.00000000
0.12500000
-0.00000000
-0.00000000
-0.00000000
-0.00000000
0.12500000
0.00000000
-0.00000000
0.00000000
-0.12500000
0.12500000
-0.00000000
0.12500000
-0.12500000
-0.00000000
0.12500000
-0.00000000
0.12500000
0.00000000
0.00000000
0.00000000
-0.12500000
-0.00000000
-0.12500000
0.12500000
0.12500000
0.00000000
0.00000000
0.00000000
0.12500000
-0.12500000
0.12500000
-0.00000000
-0.00000000
-0.00000000
0.00000000
-0.12500000
0.12500000
-0.00000000
-0.00000000
-0.12500000
0.00000000
0.00000000
-0.00000000
0.12500000
-0.12500000
-0.00000000
-0.12500000
0.12500000
0.12500000
0.12500000
-0.00000000
0.00000000
-0.12500000
0.12500000
-0.00000000
0.00000000
0.12500000
-0.12500000
-0.12500000
0.00000000
-0.12500000
0.12500000
-0.12500000
0.00000000
-0.12500000
0.12500000
-0.00000000
0.00000000
0.12500000
0.12500000
-0.00000000
0.00000000
0.12500000
0.12500000
0.00000000
0.12500000
-0.12500000
0.12500000
-0.00000000
0.12500000
-0.00000000
-0.12500000
-0.00000000
0.00000000
-0.00000000
0.12500000
0.00000000
-0.00000000
-0.00000000
0.12500000
0.12500000
0.00000000
0.00000000
-0.00000000
-0.00000000
0.00000000
0.00000000
0.00000000
0.00000000
-0.00000000
0.00000000
0.12500000
0.12500000
-0.12500000
0.00000000
0.00000000
0.25000000
-0.00000000
-0.12500000
0.12500000
-0.12500000
0.00000000
-0.00000000
-0.12500000
0.00000000
-0.00000000
-0.12500000
0.12500000
0.00000000
-0.12500000
-0.00000000
0.12500000
-0.00000000
-0.00000000
0.00000000
-0.00000000
0.12500000
-0.12500000
-0.00000000
-0.12500000
0.12500000
-0.00000000
0.12500000
0.12500000
-0.00000000
0.12500000
-0.00000000
-0.00000000
0.00000000
0.12500000
0.00000000
0.00000000
-0.00000000
-0.12500000
0.00000000
0.00000000
0.00000000
-0.00000000
-0.12500000
0.00000000
-0.00000000
0.00000000
0.00000000
-0.00000000
0.12500000
0.00000000
0.00000000
-0.12500000
0.12500000
-0.00000000
-0.12500000
-0.12500000
-0.00000000
0.00000000
0.00000000
0.12500000
-0.12500000
-0.00000000
-0.00000000
0.00000000
-0.00000000
-0.12500000
0.00000000
-0.00000000
-0.12500000
-0.00000000
0.25000000
0.12500000
-0.00000000
0.12500000
-0.25000000
0.00000000
0.37500000
-0.12500000
0.12500000
0.12500000
0.00000000
-0.00000000
0.12500000
0.12500000
-0.12500000
-0.25000000
0.00000000
0.00000000
0.00000000
0.00000000
0.00000000
-0.00000000
0.12500000
-0.12500000
0.00000000
0.12500000
0.00000000
0.25000000
0.12500000
-0.00000000
-0.12500000
-0.12500000
-0.12500000
-0.00000000
0.12500000
0.00000000
0.12500000
0.12500000
-0.25000000
-0.00000000
0.12500000
0.12500000
-0.12500000
-0.00000000
0.00000000
0.00000000
0.12500000
0.00000000
0.12500000
0.12500000
0.12500000
0.12500000
-0.12500000
-0.00000000
0.12500000
-0.25000000
0.00000000
0.12500000
0.12500000
-0.12500000
0.00000000
0.00000000
-0.00000000
0.12500000
-0.12500000
-0.00000000
-0.00000000
-0.00000000
-0.12500000
0.00000000
0.12500000
-0.00000000
-0.00000000
0.00000000
0.12500000
-0.00000000
0.00000000
-0.00000000
-0.00000000
0.00000000
0.12500000
-0.12500000
-0.12500000
-0.00000000
-0.00000000
-0.00000000
-0.12500000
0.12500000
-0.00000000
-0.00000000
0.12500000
-0.12500000
0.25000000
-0.25000000
-0.12500000
-0.00000000
0.12500000
-0.00000000
0.00000000
0.00000000
0.00000000
-0.12500000
0.25000000
-0.00000000
-0.00000000
0.00000000
0.25000000
0.00000000
0.12500000
-0.12500000
0.00000000
-0.12500000
-0.00000000
-0.00000000
0.12500000
0.00000000
0.00000000
-0.25000000
-0.12500000
-0.12500000
0.00000000
0.12500000
0.00000000
0.25000000
0.00000000
-0.12500000
0.00000000
-0.12500000
-0.12500000
0.00000000
0.25000000
-0.00000000
0.12500000
0.00000000
-0.12500000
-0.12500000
0.12500000
0.00000000
-0.12500000
-0.00000000
-0.00000000
0.00000000
0.12500000
-0.00000000
0.12500000
-0.00000000
-0.00000000
0.00000000
0.00000000
0.12500000
0.00000000
-0.12500000
0.00000000
0.00000000
0.12500000
-0.12500000
-0.00000000
0.00000000
-0.00000000
0.00000000
-0.12500000
-0.12500000
0.00000000
0.00000000
-0.00000000
0.00000000
0.00000000
-0.12500000
-0.00000000
0.00000000
-0.00000000
-0.00000000
-0.00000000
0.00000000
0.00000000
0.00000000
-0.00000000
-0.12500000
-0.12500000
-0.00000000
0.12500000
0.00000000
-0.12500000
-0.00000000
-0.00000000
-0.00000000
0.25000000
-0.00000000
0.12500000
0.00000000
-0.12500000
-0.00000000
-0.25000000
-0.12500000
0.12500000
-0.00000000
0.25000000
-0.12500000
0.12500000
-0.12500000
-0.00000000
-0.12500000
0.12500000
-0.00000000
-0.00000000
-0.00000000
-0.12500000
-0.00000000
0.12500000
-0.12500000
0.12500000
0.12500000
-0.12500000
-0.12500000
0.12500000
0.00000000
-0.12500000
-0.12500000
0.12500000
0.12500000
0.12500000
0.00000000
-0.00000000
-0.00000000
0.37500000
0.12500000
0.12500000
0.12500000
-0.12500000
-0.12500000
-0.00000000
-0.12500000
-0.12500000
-0.12500000
0.25000000
-0.12500000
0.12500000
-0.00000000
-0.12500000
-0.12500000
0.12500000
-0.00000000
-0.00000000
-0.00000000
-0.12500000
-0.00000000
0.37500000
0.00000000
-0.25000000
-0.00000000
0.25000000
0.00000000
0.25000000
-0.00000000
0.12500000
-0.12500000
-0.12500000
0.12500000
-0.00000000
-0.12500000
-0.12500000
-0.00000000
-0.12500000
0.00000000
-0.12500000
0.00000000
0.12500000
0.37500000
0.25000000
0.00000000
-0.00000000
-0.25000000
0.00000000
0.00000000
0.25000000
0.12500000
0.12500000
-0.00000000
-0.12500000
-0.12500000
0.00000000
0.12500000
0.00000000
0.00000000
-0.00000000
-0.00000000
0.00000000
-0.00000000
-0.00000000
-0.12500000
-0.00000000
-0.12500000
-0.00000000
0.00000000
0.12500000
-0.12500000
-0.00000000
0.12500000
0.00000000
-0.00000000
-0.12500000
0.00000000
-0.12500000
0.00000000
0.00000000
0.00000000
-0.00000000
-0.00000000
-0.12500000
-0.00000000
-0.00000000
-0.00000000
0.12500000
-0.00000000
-0.00000000
-0.00000000
0.00000000
-0.00000000
-0.00000000
-0.00000000
0.00000000
0.00000000
-0.00000000
0.00000000
0.00000000
0.00000000
-0.00000000
-0.00000000
-0.12500000
0.12500000
-0.00000000
-0.12500000
-0.12500000
-0.00000000
-0.25000000
-0.12500000
0.25000000
0.00000000
0.00000000
0.00000000
-0.12500000
-0.12500000
0.25000000
-0.12500000
0.12500000
-0.00000000
-0.00000000
-0.00000000
0.12500000
-0.00000000
-0.12500000
-0.12500000
0.12500000
0.00000000
-0.00000000
0.00000000
-0.00000000
-0.12500000
0.00000000
-0.12500000
0.12500000
-0.12500000
0.00000000
0.12500000
-0.12500000
0.00000000
-0.12500000
0.00000000
-0.00000000
-0.00000000
-0.12500000
-0.00000000
0.00000000
0.12500000
-0.25000000
0.00000000
0.12500000
-0.00000000
-0.12500000
-0.12500000
0.00000000
0.00000000
-0.12500000
0.00000000
0.25000000
0.25000000
0.00000000
0.00000000
-0.25000000
-0.12500000
0.00000000
-0.12500000
0.00000000
-0.12500000
-0.12500000
-0.00000000
0.00000000
-0.00000000
-0.12500000
-0.00000000
-0.00000000
-0.12500000
-0.00000000
0.12500000
-0.12500000
0.12500000
-0.00000000
0.00000000
0.00000000
-0.00000000
-0.12500000
0.00000000
0.00000000
0.12500000
-0.00000000
-0.12500000
-0.12500000
-0.00000000
-0.12500000
0.12500000
0.00000000
0.00000000
-0.12500000
0.12500000
0.00000000
-0.12500000
-0.25000000
-0.12500000
-0.25000000
0.12500000
-0.25000000
0.00000000
0.12500000
0.00000000
-0.12500000
0.12500000
-0.25000000
-0.12500000
-0.00000000
-0.00000000
0.00000000
-0.12500000
-0.12500000
-0.12500000
-0.12500000
-0.00000000
-0.12500000
0.25000000
-0.00000000
-0.00000000
-0.25000000
-0.00000000
-0.00000000
0.12500000
-0.00000000
-0.00000000
-0.00000000
-0.12500000
-0.12500000
0.00000000
0.12500000
0.00000000
0.12500000
-0.12500000
0.25000000
0.25000000
0.00000000
0.12500000
-0.12500000
0.12500000
0.12500000
0.00000000
0.00000000
-0.00000000
-0.12500000
-0.00000000
0.00000000
0.00000000
0.00000000
0.12500000
0.12500000
-0.12500000
0.00000000
0.00000000
-0.00000000
0.00000000
0.12500000
-0.00000000
0.00000000
0.00000000
0.00000000
-0.00000000
0.00000000
0.00000000
-0.00000000
-0.00000000
0.12500000
-0.00000000
-0.00000000
-0.00000000
-0.12500000
0.00000000
-0.00000000
0.12500000
0.00000000
0.12500000
0.00000000
-0.00000000
-0.00000000
-0.00000000
0.12500000
-0.00000000
0.12500000
-0.00000000
0.00000000
-0.00000000
-0.12500000
-0.12500000
-0.00000000
-0.00000000
-0.00000000
0.12500000
0.00000000
-0.12500000
-0.00000000
-0.12500000
-0.12500000
0.12500000
0.12500000
-0.00000000
-0.00000000
-0.12500000
-0.12500000
-0.12500000
0.00000000
-0.12500000
0.12500000
-0.12500000
-0.00000000
0.00000000
-0.12500000
0.00000000
-0.00000000
0.12500000
0.12500000
0.00000000
-0.00000000
0.12500000
-0.12500000
-0.00000000
-0.00000000
0.00000000
0.00000000
-0.00000000
-0.12500000
0.00000000
-0.00000000
0.00000000
-0.12500000
0.12500000
-0.12500000
0.12500000
-0.12500000
0.12500000
-0.00000000
0.12500000
-0.12500000
0.00000000
0.00000000
-0.12500000
0.12500000
-0.00000000
0.00000000
0.00000000
-0.12500000
-0.12500000
-0.25000000
-0.00000000
0.12500000
-0.12500000
0.37500000
-0.00000000
0.00000000
-0.00000000
-0.25000000
-0.12500000
0.25000000
-0.00000000
0.12500000
0.00000000
-0.12500000
0.00000000
0.00000000
-0.00000000
0.12500000
0.00000000
-0.25000000
-0.25000000
0.12500000
-0.00000000
-0.12500000
-0.37500000
0.25000000
0.12500000
-0.00000000
0.00000000
-0.12500000
0.00000000
0.25000000
0.12500000
0.25000000
0.12500000
-0.25000000
-0.12500000
0.12500000
-0.12500000
-0.12500000
-0.12500000
0.00000000
0.12500000
-0.00000000
-0.00000000
0.00000000
-0.00000000
-0.00000000
-0.12500000
-0.00000000
0.00000000
0.00000000
0.00000000
0.12500000
0.12500000
0.12500000
-0.00000000
0.12500000
0.12500000
-0.00000000
-0.00000000
-0.00000000
-0.12500000
0.12500000
-0.00000000
0.00000000
-0.00000000
0.00000000
-0.00000000
-0.00000000
0.00000000
0.00000000
0.00000000
-0.00000000
-0.12500000
0.12500000
-0.00000000
0.12500000
-0.12500000
-0.12500000
0.00000000
-0.00000000
0.12500000
0.12500000
-0.00000000
0.00000000
-0.00000000
-0.12500000
0.12500000
-0.12500000
0.12500000
-0.00000000
-0.00000000
-0.00000000
-0.12500000
0.25000000
0.12500000
0.12500000
0.00000000
-0.12500000
-0.00000000
-0.00000000
-0.00000000
0.00000000
0.00000000
0.00000000
-0.12500000
-0.00000000
-0.00000000
-0.12500000
0.12500000
-0.00000000
-0.00000000
-0.12500000
0.00000000
-0.00000000
-0.00000000
0.00000000
0.12500000
-0.00000000
-0.12500000
0.12500000
-0.00000000
0.00000000
0.12500000
-0.00000000
-0.00000000
0.00000000
0.00000000
0.00000000
-0.12500000
0.00000000
-0.00000000
-0.12500000
0.00000000
-0.00000000
0.00000000
-0.12500000
-0.12500000
-0.12500000
-0.12500000
0.00000000
-0.00000000
0.25000000
0.00000000
0.00000000
0.12500000
-0.12500000
0.00000000
-0.00000000
0.00000000
0.12500000
-0.00000000
0.00000000
-0.00000000
-0.12500000
0.00000000
-0.12500000
-0.00000000
-0.12500000
-0.12500000
-0.00000000
0.00000000
0.00000000
0.00000000
0.00000000
0.00000000
0.00000000
-0.12500000
-0.00000000
-0.00000000
0.12500000
-0.00000000
0.00000000
0.12500000
0.12500000
0.00000000
-0.12500000
-0.00000000
0.00000000
-0.12500000
0.12500000
0.12500000
-0.12500000
-0.12500000
-0.00000000
0.25000000
-0.00000000
-0.00000000
0.12500000
0.00000000
0.12500000
-0.00000000
0.12500000
-0.00000000
0.12500000
0.12500000
-0.37500000
0.00000000
-0.00000000
-0.00000000
-0.12500000
-0.12500000
-0.00000000
-0.00000000
0.12500000
0.00000000
0.00000000
0.12500000
-0.12500000
0.12500000
-0.00000000
0.25000000
-0.12500000
0.00000000
-0.12500000
-0.00000000
-0.00000000
-0.12500000
0.00000000
0.00000000
0.12500000
0.12500000
-0.00000000
0.12500000
-0.12500000
0.12500000
0.00000000
0.00000000
0.12500000
0.12500000
-0.12500000
-0.00000000
-0.12500000
-0.00000000
0.00000000
-0.00000000
-0.00000000
0.00000000
-0.00000000
0.12500000
0.00000000
-0.00000000
-0.12500000
0.00000000
-0.00000000
-0.00000000
-0.00000000
-0.12500000
0.00000000
-0.12500000
0.12500000
0.00000000
0.00000000
-0.00000000
-0.12500000
0.00000000
0.00000000
0.00000000
-0.00000000
-0.00000000
0.00000000
0.00000000
-0.00000000
0.00000000
-0.00000000
0.00000000
-0.12500000
-0.00000000
0.00000000
-0.00000000
0.12500000
-0.12500000
-0.12500000
0.12500000
-0.12500000
0.00000000
0.12500000
0.00000000
-0.00000000
-0.00000000
-0.12500000
0.25000000
-0.00000000
0.00000000
0.37500000
0.00000000
0.12500000
0.00000000
-0.12500000
0.12500000
-0.00000000
0.12500000
-0.12500000
0.12500000
-0.12500000
0.00000000
-0.00000000
-0.00000000
0.12500000
-0.00000000
-0.00000000
0.00000000
-0.12500000
0.12500000
-0.00000000
0.12500000
0.00000000
-0.00000000
0.12500000
0.00000000
0.00000000
0.12500000
0.12500000
-0.25000000
-0.00000000
-0.12500000
0.00000000
0.12500000
-0.25000000
-0.12500000
-0.12500000
-0.00000000
0.12500000
-0.12500000
-0.12500000
0.12500000
-0.12500000
0.12500000
0.25000000
0.00000000
0.25000000
-0.12500000
0.25000000
0.12500000
0.00000000
-0.12500000
-0.00000000
-0.00000000
0.25000000
0.12500000
-0.12500000
0.12500000
-0.00000000
0.12500000
0.12500000
0.12500000
-0.00000000
0.00000000
0.12500000
-0.12500000
0.12500000
-0.00000000
0.12500000
0.00000000
0.12500000
-0.12500000
-0.00000000
0.00000000
0.00000000
0.12500000
0.12500000
-0.12500000
-0.00000000
0.00000000
0.00000000
0.12500000
-0.25000000
-0.12500000
-0.00000000
-0.12500000
0.12500000
0.12500000
-0.12500000
-0.00000000
-0.12500000
-0.12500000
0.00000000
-0.00000000
-0.00000000
0.00000000
-0.12500000
0.12500000
0.00000000
0.00000000
0.12500000
0.12500000
-0.12500000
0.00000000
0.12500000
-0.12500000
0.00000000
-0.12500000
0.12500000
-0.12500000
0.00000000
0.00000000
-0.12500000
0.12500000
-0.00000000
0.00000000
0.12500000
0.00000000
-0.00000000
-0.00000000
0.00000000
-0.00000000
0.00000000
-0.00000000
0.12500000
-0.00000000
0.00000000
-0.12500000
0.12500000
0.00000000
0.12500000
-0.00000000
0.00000000
-0.12500000
-0.00000000
-0.12500000
0.12500000
0.00000000
-0.12500000
0.12500000
0.12500000
-0.12500000
0.12500000
0.00000000
0.12500000
-0.12500000
-0.00000000
-0.00000000
-0.00000000
-0.00000000
-0.00000000
0.12500000
0.12500000
-0.00000000
-0.12500000
0.00000000
0.00000000
-0.00000000
0.12500000
0.00000000
0.00000000
-0.00000000
0.12500000
0.12500000
0.00000000
0.00000000
-0.00000000
-0.12500000
-0.12500000
-0.00000000
0.00000000
-0.00000000
-0.12500000
-0.00000000
-0.00000000
-0.12500000
0.00000000
-0.00000000
-0.12500000
-0.12500000
-0.12500000
-0.00000000
0.00000000
0.00000000
-0.00000000
-0.00000000
0.00000000
0.00000000
-0.12500000
0.25000000
-0.12500000
-0.00000000
0.12500000
0.00000000
0.12500000
-0.12500000
0.00000000
0.12500000
-0.00000000
0.12500000
-0.12500000
0.00000000
0.00000000
-0.00000000
-0.12500000
-0.25000000
-0.00000000
0.00000000
-0.12500000
-0.00000000
-0.12500000
-0.00000000
-0.12500000
-0.00000000
0.12500000
0.00000000
0.00000000
0.00000000
0.00000000
-0.00000000
0.12500000
-0.12500000
0.00000000
0.00000000
0.00000000
-0.12500000
-0.12500000
0.00000000
-0.12500000
0.00000000
0.12500000
-0.00000000
-0.00000000
0.12500000
-0.12500000
0.00000000
0.00000000
-0.12500000
-0.12500000
0.12500000
-0.12500000
0.00000000
0.12500000
0.12500000
0.00000000
0.12500000
-0.25000000
0.00000000
0.25000000
-0.12500000
-0.12500000
-0.00000000
-0.00000000
0.00000000
0.12500000
0.00000000
0.12500000
0.00000000
0.00000000
-0.12500000
-0.12500000
-0.12500000
0.00000000
0.00000000
-0.12500000
-0.12500000
0.00000000
-0.00000000
-0.00000000
0.12500000
-0.12500000
-0.00000000
0.12500000
0.00000000
-0.00000000
0.00000000
-0.12500000
0.12500000
0.12500000
0.00000000
-0.12500000
-0.00000000
0.12500000
0.00000000
0.00000000
0.00000000
-0.12500000
-0.00000000
0.12500000
0.00000000
0.00000000
0.12500000
-0.00000000
-0.00000000
0.00000000
0.12500000
-0.00000000
-0.00000000
-0.12500000
-0.12500000
0.00000000
-0.12500000
-0.00000000
0.00000000
0.12500000
0.00000000
-0.12500000
-0.00000000
0.00000000
-0.12500000
0.12500000
0.00000000
0.00000000
-0.12500000
0.00000000
0.12500000
0.00000000
-0.00000000
0.00000000
-0.12500000
-0.00000000
-0.12500000
-0.00000000
0.00000000
-0.12500000
0.12500000
-0.12500000
-0.12500000
-0.00000000
-0.12500000
-0.00000000
0.00000000
-0.12500000
0.12500000
0.00000000
-0.12500000
0.12500000
-0.00000000
-0.00000000
-0.12500000
-0.12500000
-0.12500000
0.12500000
-0.12500000
-0.25000000
0.25000000
-0.00000000
0.00000000
-0.12500000
0.00000000
0.00000000
-0.00000000
-0.00000000
0.00000000
-0.12500000
0.12500000
0.00000000
-0.00000000
-0.12500000
0.12500000
-0.12500000
0.00000000
0.00000000
-0.12500000
-0.00000000
-0.25000000
0.12500000
-0.00000000
-0.25000000
0.00000000
0.00000000
0.12500000
-0.00000000
0.00000000
0.00000000
0.12500000
0.37500000
0.25000000
0.00000000
-0.00000000
0.00000000
-0.00000000
-0.00000000
-0.00000000
0.00000000
-0.00000000
0.00000000
-0.00000000
-0.00000000
-0.00000000
-0.12500000
0.12500000
0.12500000
-0.12500000
0.00000000
0.00000000
0.00000000
-0.12500000
-0.00000000
-0.00000000
0.12500000
0.12500000
-0.12500000
-0.00000000
0.00000000
-0.00000000
0.00000000
0.00000000
-0.12500000
-0.00000000
0.00000000
-0.00000000
0.00000000
0.00000000
-0.00000000
0.00000000
0.00000000
-0.12500000
-0.00000000
-0.12500000
0.00000000
0.00000000
0.12500000
0.12500000
-0.00000000
-0.12500000
-0.12500000
0.00000000
-0.12500000
0.12500000
-0.00000000
0.00000000
-0.12500000
-0.00000000
0.12500000
-0.12500000
-0.00000000
0.12500000
0.12500000
-0.12500000
-0.00000000
0.00000000
-0.12500000
-0.12500000
0.12500000
-0.12500000
-0.00000000
-0.12500000
-0.12500000
0.00000000
0.00000000
0.00000000
-0.00000000
-0.12500000
-0.00000000
-0.25000000
0.00000000
0.12500000
0.00000000
0.00000000
0.12500000
-0.12500000
0.00000000
0.00000000
-0.12500000
-0.00000000
-0.00000000
0.12500000
-0.00000000
-0.00000000
-0.12500000
-0.25000000
0.12500000
0.00000000
-0.00000000
-0.12500000
-0.12500000
0.00000000
0.12500000
0.12500000
0.12500000
-0.00000000
0.12500000
0.00000000
-0.00000000
0.12500000
0.12500000
0.12500000
0.12500000
-0.12500000
0.00000000
0.12500000
-0.00000000
-0.12500000
-0.00000000
0.00000000
0.00000000
-0.00000000
-0.00000000
0.00000000
-0.00000000
0.00000000
0.00000000
-0.12500000
0.00000000
-0.00000000
-0.12500000
0.12500000
0.12500000
-0.00000000
0.00000000
-0.00000000
0.00000000
0.00000000
-0.00000000
-0.12500000
0.00000000
-0.00000000
0.00000000
-0.12500000
-0.12500000
0.00000000
-0.12500000
0.00000000
-0.12500000
0.12500000
-0.12500000
-0.00000000
-0.00000000
-0.12500000
0.12500000
0.00000000
0.00000000
-0.00000000
-0.00000000
0.00000000
-0.00000000
-0.00000000
-0.00000000
-0.12500000
-0.12500000
-0.12500000
0.00000000
-0.12500000
0.12500000
0.00000000
-0.00000000
-0.12500000
-0.00000000
-0.00000000
0.12500000
-0.00000000
0.00000000
0.12500000
0.00000000
0.00000000
-0.12500000
-0.00000000
-0.00000000
-0.00000000
0.00000000
-0.00000000
0.12500000
-0.00000000
0.12500000
-0.00000000
0.12500000
-0.00000000
0.00000000
0.12500000
-0.00000000
-0.00000000
-0.12500000
0.12500000
-0.00000000
0.00000000
0.12500000
0.00000000
-0.00000000
-0.12500000
-0.12500000
0.00000000
-0.00000000
0.00000000
0.12500000
-0.12500000
0.00000000
-0.00000000
-0.12500000
-0.00000000
-0.12500000
-0.12500000
0.00000000
-0.00000000
0.00000000
-0.00000000
-0.00000000
-0.12500000
-0.00000000
-0.00000000
-0.00000000
0.00000000
0.00000000
-0.00000000
-0.00000000
-0.00000000
-0.00000000
0.12500000
0.12500000
-0.12500000
-0.00000000
0.12500000
-0.00000000
-0.00000000
-0.00000000
0.00000000
-0.12500000
-0.12500000
-0.00000000
-0.12500000
-0.12500000
0.12500000
0.00000000
0.00000000
-0.12500000
-0.00000000
0.12500000
0.12500000
-0.00000000
0.00000000
-0.12500000
-0.00000000
-0.00000000
0.12500000
0.12500000
-0.12500000
-0.12500000
-0.00000000
0.00000000
-0.12500000
-0.00000000
0.00000000
-0.00000000
0.12500000
-0.12500000
0.12500000
-0.00000000
-0.00000000
-0.12500000
0.00000000
0.12500000
-0.12500000
-0.12500000
0.00000000
-0.12500000
-0.00000000
-0.12500000
-0.00000000
0.00000000
0.12500000
0.00000000
-0.00000000
-0.12500000
0.00000000
0.12500000
0.12500000
0.00000000
-0.12500000
-0.00000000
0.25000000
-0.12500000
0.12500000
0.12500000
0.00000000
0.12500000
-0.25000000
-0.00000000
-0.00000000
0.12500000
-0.00000000
-0.00000000
-0.00000000
0.12500000
-0.00000000
0.00000000
0.12500000
-0.12500000
0.00000000
-0.00000000
-0.12500000
-0.12500000
-0.12500000
0.00000000
-0.00000000
0.12500000
0.00000000
-0.12500000
-0.12500000
0.00000000
0.00000000
0.00000000
-0.12500000
0.00000000
0.00000000
0.12500000
-0.12500000
0.00000000
-0.12500000
0.00000000
-0.00000000
-0.00000000
0.12500000
-0.00000000
0.00000000
-0.00000000
0.12500000
0.00000000
0.25000000
-0.12500000
-0.00000000
0.12500000
0.00000000
0.00000000
-0.00000000
0.12500000
-0.00000000
0.12500000
0.12500000
-0.37500000
0.00000000
-0.00000000
-0.12500000
-0.12500000
-0.12500000
-0.12500000
0.12500000
-0.12500000
0.12500000
0.00000000
0.00000000
0.00000000
-0.00000000
-0.12500000
-0.00000000
-0.12500000
0.12500000
-0.00000000
-0.12500000
0.00000000
-0.12500000
0.12500000
0.00000000
0.12500000
0.12500000
0.12500000
0.12500000
-0.12500000
0.00000000
-0.12500000
0.00000000
0.12500000
0.12500000
-0.12500000
-0.12500000
0.00000000
0.00000000
-0.00000000
0.00000000
0.12500000
-0.12500000
-0.00000000
-0.12500000
-0.12500000
-0.00000000
0.12500000
0.12500000
0.00000000
-0.12500000
-0.00000000
0.00000000
0.00000000
-0.12500000
0.00000000
0.00000000
-0.00000000
0.00000000
-0.12500000
-0.12500000
0.00000000
0.00000000
0.00000000
-0.00000000
0.12500000
-0.00000000
0.00000000
0.00000000
0.25000000
-0.00000000
-0.00000000
0.00000000
0.12500000
-0.00000000
0.12500000
-0.12500000
0.00000000
-0.00000000
-0.00000000
-0.00000000
0.00000000
-0.12500000
0.12500000
0.12500000
-0.00000000
-0.12500000
0.12500000
-0.00000000
-0.12500000
-0.12500000
0.12500000
0.12500000
-0.00000000
0.00000000
-0.12500000
0.12500000
0.12500000
0.00000000
0.12500000
0.00000000
-0.00000000
0.12500000
0.12500000
0.00000000
0.12500000
-0.00000000
0.00000000
-0.00000000
0.00000000
-0.00000000
-0.12500000
0.12500000
-0.12500000
-0.12500000
0.12500000
0.12500000
-0.00000000
0.25000000
0.12500000
0.00000000
-0.00000000
-0.12500000
-0.12500000
-0.00000000
-0.00000000
0.12500000
0.00000000
0.00000000
-0.12500000
-0.00000000
0.00000000
-0.00000000
-0.00000000
0.25000000
-0.00000000
0.12500000
-0.12500000
0.12500000
0.12500000
0.12500000
0.12500000
-0.00000000
-0.00000000
0.00000000
-0.12500000
-0.00000000
0.12500000
-0.00000000
-0.00000000
-0.12500000
-0.00000000
0.12500000
-0.12500000
0.12500000
-0.12500000
0.12500000
-0.12500000
0.00000000
0.00000000
0.12500000
0.00000000
0.00000000
0.00000000
0.00000000
-0.00000000
0.00000000
0.12500000
0.00000000
-0.00000000
0.12500000
0.00000000
-0.12500000
-0.00000000
0.00000000
0.12500000
-0.12500000
0.12500000
-0.00000000
0.00000000
-0.00000000
0.25000000
-0.12500000
0.12500000
-0.12500000
-0.00000000
-0.12500000
-0.37500000
-0.12500000
-0.00000000
-0.12500000
0.25000000
-0.00000000
0.00000000
-0.12500000
0.00000000
-0.00000000
0.25000000
0.12500000
0.12500000
0.00000000
-0.00000000
-0.00000000
0.00000000
-0.00000000
0.12500000
-0.12500000
-0.00000000
-0.12500000
-0.00000000
-0.12500000
-0.00000000
-0.00000000
0.12500000
0.12500000
-0.00000000
-0.12500000
0.00000000
-0.00000000
0.12500000
-0.00000000
0.25000000
-0.12500000
-0.12500000
0.00000000
0.12500000
-0.12500000
-0.12500000
-0.12500000
-0.25000000
0.37500000
-0.12500000
0.12500000
0.12500000
0.25000000
-0.00000000
-0.12500000
0.12500000
0.00000000
-0.12500000
0.12500000
-0.37500000
0.12500000
-0.00000000
-0.12500000
-0.12500000
-0.12500000
-0.12500000
0.12500000
0.00000000
0.25000000
0.00000000
0.00000000
-0.00000000
-0.00000000
-0.12500000
0.12500000
0.12500000
0.12500000
0.00000000
-0.00000000
-0.00000000
-0.12500000
0.00000000
-0.00000000
0.12500000
0.25000000
0.12500000
0.00000000
0.00000000
0.00000000
-0.00000000
-0.00000000
0.25000000
0.12500000
-0.00000000
-0.12500000
0.12500000
0.00000000
0.00000000
-0.00000000
-0.12500000
0.12500000
-0.00000000
-0.00000000
0.00000000
0.12500000
0.00000000
-0.12500000
-0.00000000
-0.00000000
0.00000000
0.00000000
0.00000000
0.12500000
-0.00000000
-0.00000000
0.12500000
0.12500000
0.00000000
-0.00000000
-0.12500000
-0.00000000
-0.00000000
0.00000000
-0.12500000
-0.00000000
0.12500000
0.00000000
0.00000000
-0.00000000
0.00000000
0.12500000
0.12500000
-0.00000000
0.00000000
0.00000000
-0.00000000
0.00000000
-0.00000000
0.12500000
0.00000000
0.00000000
0.00000000
-0.00000000
0.12500000
0.12500000
0.12500000
-0.00000000
0.25000000
-0.00000000
-0.12500000
-0.12500000
-0.00000000
-0.12500000
0.25000000
-0.00000000
-0.25000000
0.25000000
-0.00000000
0.12500000
0.00000000
-0.00000000
0.00000000
-0.00000000
0.00000000
0.00000000
-0.12500000
0.12500000
0.00000000
-0.12500000
0.00000000
0.00000000
0.00000000
0.00000000
-0.00000000
-0.00000000
0.12500000
0.00000000
0.00000000
-0.25000000
-0.00000000
0.12500000
0.00000000
-0.12500000
0.00000000
0.00000000
-0.12500000
-0.12500000
0.00000000
0.12500000
-0.12500000
0.00000000
-0.00000000
0.12500000
0.12500000
-0.00000000
0.00000000
0.12500000
0.00000000
-0.12500000
-0.00000000
0.12500000
0.00000000
-0.00000000
0.12500000
0.00000000
0.00000000
0.00000000
-0.12500000
0.12500000
-0.00000000
-0.12500000
-0.00000000
0.00000000
-0.00000000
-0.00000000
0.00000000
-0.12500000
0.12500000
-0.00000000
-0.00000000
-0.00000000
0.00000000
-0.12500000
0.00000000
-0.12500000
0.12500000
0.00000000
-0.12500000
-0.00000000
-0.00000000
0.00000000
0.00000000
0.12500000
-0.00000000
0.00000000
-0.12500000
-0.00000000
0.00000000
0.00000000
-0.00000000
-0.00000000
-0.00000000
0.00000000
-0.00000000
-0.00000000
-0.12500000
-0.00000000
0.12500000
-0.00000000
0.12500000
0.00000000
0.00000000
0.12500000
-0.00000000
-0.12500000
0.00000000
0.00000000
0.00000000
-0.00000000
0.00000000
-0.00000000
-0.00000000
-0.00000000
-0.00000000
-0.00000000
-0.00000000
-0.12500000
-0.00000000
-0.00000000
-0.00000000
-0.00000000
0.12500000
-0.00000000
-0.00000000
-0.00000000
0.00000000
0.00000000
0.00000000
0.00000000
0.12500000
-0.00000000
-0.00000000
0.00000000
0.12500000
-0.00000000
0.00000000
-0.00000000
-0.00000000
0.12500000
-0.00000000
0.12500000
0.12500000
-0.12500000
0.00000000
0.12500000
0.25000000
-0.00000000
0.00000000
0.12500000
0.12500000
-0.00000000
0.00000000
-0.00000000
0.12500000
-0.00000000
-0.00000000
0.00000000
-0.00000000
-0.12500000
-0.12500000
-0.00000000
0.12500000
-0.00000000
-0.00000000
-0.00000000
0.00000000
-0.00000000
0.00000000
0.00000000
0.00000000
-0.00000000
0.00000000
-0.12500000
-0.12500000
0.00000000
0.25000000
-0.12500000
-0.00000000
0.00000000
-0.00000000
-0.12500000
-0.00000000
0.25000000
0.00000000
-0.12500000
-0.00000000
0.12500000
0.00000000
0.00000000
0.00000000
-0.00000000
-0.00000000
-0.00000000
0.12500000
-0.12500000
0.00000000
0.00000000
0.00000000
0.12500000
-0.00000000
0.00000000
-0.00000000
-0.12500000
-0.00000000
-0.00000000
-0.12500000
-0.00000000
0.12500000
0.12500000
0.00000000
0.00000000
-0.12500000
-0.00000000
-0.00000000
-0.12500000
0.12500000
0.00000000
-0.00000000
-0.00000000
-0.00000000
0.00000000
-0.00000000
-0.12500000
0.00000000
0.00000000
0.00000000
0.00000000
-0.12500000
0.00000000
0.12500000
0.00000000
-0.00000000
0.12500000
0.00000000
-0.12500000
0.00000000
-0.00000000
0.12500000
-0.12500000
0.12500000
0.00000000
-0.00000000
-0.00000000
0.00000000
0.00000000
0.12500000
0.00000000
-0.12500000
0.00000000
0.00000000
0.12500000
-0.00000000
0.00000000
-0.12500000
-0.00000000
0.12500000
0.00000000
0.00000000
-0.12500000
0.00000000
0.00000000
0.12500000
0.00000000
0.00000000
-0.12500000
0.00000000
0.00000000
-0.12500000
-0.12500000
-0.12500000
0.12500000
-0.00000000
-0.12500000
-0.00000000
-0.12500000
0.00000000
0.00000000
-0.12500000
0.00000000
0.00000000
-0.12500000
-0.12500000
0.12500000
-0.12500000
0.00000000
-0.00000000
0.00000000
0.00000000
0.00000000
-0.12500000
0.25000000
-0.12500000
0.12500000
-0.12500000
-0.12500000
-0.00000000
0.00000000
-0.00000000
-0.12500000
0.00000000
0.00000000
-0.12500000
0.12500000
-0.00000000
0.00000000
-0.12500000
-0.00000000
0.00000000
0.12500000
-0.00000000
0.00000000
-0.12500000
-0.12500000
-0.00000000
-0.00000000
0.00000000
0.12500000
-0.00000000
0.12500000
-0.00000000
0.00000000
-0.12500000
0.00000000
0.00000000
0.00000000
-0.00000000
0.00000000
-0.12500000
0.00000000
0.12500000
-0.37500000
0.00000000
0.00000000
-0.12500000
0.12500000
-0.12500000
-0.12500000
-0.25000000
0.00000000
-0.12500000
-0.12500000
-0.00000000
0.12500000
-0.25000000
-0.00000000
0.00000000
-0.00000000
0.00000000
0.00000000
0.00000000
0.12500000
0.00000000
0.00000000
-0.12500000
-0.00000000
0.00000000
-0.12500000
-0.12500000
0.12500000
-0.12500000
-0.12500000
-0.12500000
0.00000000
-0.12500000
0.00000000
0.00000000
0.12500000
-0.12500000
0.12500000
-0.12500000
0.00000000
-0.12500000
-0.00000000
-0.12500000
-0.12500000
-0.12500000
-0.00000000
-0.12500000
-0.12500000
0.00000000
-0.12500000
-0.00000000
0.00000000
-0.12500000
-0.00000000
-0.12500000
-0.00000000
0.12500000
-0.12500000
-0.12500000
0.12500000
0.00000000
0.12500000
-0.00000000
0.00000000
-0.12500000
-0.25000000
0.12500000
0.00000000
0.00000000
0.12500000
-0.00000000
0.00000000
0.00000000
-0.25000000
-0.00000000
0.12500000
0.12500000
0.12500000
-0.12500000
0.00000000
-0.00000000
-0.25000000
0.00000000
0.25000000
-0.00000000
-0.00000000
-0.12500000
-0.12500000
0.00000000
-0.25000000
-0.00000000
0.12500000
0.12500000
0.00000000
-0.12500000
-0.00000000
-0.12500000
0.12500000
-0.25000000
0.12500000
-0.00000000
0.00000000
0.12500000
0.12500000
-0.12500000
-0.00000000
0.12500000
-0.12500000
0.12500000
0.00000000
-0.12500000
-0.12500000
-0.12500000
-0.12500000
-0.12500000
-0.00000000
0.12500000
0.00000000
0.00000000
0.00000000
-0.00000000
0.12500000
0.12500000
-0.12500000
0.12500000
0.12500000
-0.25000000
0.00000000
-0.12500000
-0.12500000
-0.12500000
-0.00000000
0.25000000
0.12500000
-0.00000000
0.00000000
-0.25000000
-0.00000000
0.12500000
0.00000000
0.12500000
0.00000000
0.00000000
-0.12500000
-0.00000000
0.12500000
-0.12500000
0.00000000
-0.00000000
-0.12500000
-0.12500000
-0.12500000
-0.00000000
-0.12500000
0.00000000
-0.00000000
-0.00000000
-0.12500000
-0.12500000
-0.12500000
-0.00000000
0.12500000
-0.00000000
-0.00000000
-0.12500000
0.00000000
0.00000000
0.00000000
-0.12500000
0.00000000
0.00000000
-0.12500000
0.12500000
-0.12500000
-0.12500000
-0.12500000
0.00000000
0.00000000
0.00000000
-0.12500000
-0.00000000
0.12500000
0.00000000
0.00000000
0.12500000
0.12500000
0.12500000
-0.00000000
0.00000000
0.12500000
-0.00000000
0.12500000
0.12500000
0.00000000
0.12500000
-0.00000000
0.00000000
-0.12500000
0.00000000
0.00000000
0.00000000
0.00000000
-0.25000000
0.00000000
-0.00000000
0.00000000
0.00000000
-0.00000000
-0.00000000
0.00000000
0.00000000
-0.00000000
-0.12500000
-0.12500000
-0.00000000
-0.12500000
0.12500000
0.12500000
-0.00000000
-0.12500000
0.00000000
-0.00000000
-0.00000000
-0.00000000
0.00000000
-0.00000000
-0.00000000
-0.00000000
-0.12500000
-0.12500000
-0.12500000
-0.00000000
-0.12500000
0.00000000
-0.00000000
-0.00000000
-0.00000000
0.12500000
0.12500000
0.12500000
0.12500000
-0.00000000
0.12500000
0.00000000
-0.12500000
-0.12500000
0.12500000
-0.12500000
0.12500000
-0.00000000
-0.12500000
0.12500000
-0.12500000
0.12500000
-0.00000000
0.00000000
-0.00000000
-0.00000000
0.12500000
-0.00000000
-0.00000000
0.12500000
0.00000000
-0.00000000
0.12500000
-0.00000000
-0.12500000
-0.00000000
0.00000000
0.00000000
-0.00000000
0.00000000
0.12500000
-0.00000000
0.00000000
0.12500000
-0.12500000
-0.12500000
-0.00000000
-0.12500000
0.12500000
0.00000000
-0.12500000
-0.00000000
-0.00000000
-0.12500000
-0.00000000
-0.25000000
-0.00000000
-0.00000000
-0.12500000
-0.12500000
-0.00000000
0.00000000
-0.12500000
-0.00000000
0.12500000
0.12500000
0.12500000
0.00000000
-0.12500000
0.00000000
-0.00000000
0.12500000
-0.00000000
-0.12500000
-0.00000000
-0.00000000
0.12500000
0.12500000
0.12500000
0.12500000
-0.00000000
-0.12500000
0.12500000
0.12500000
0.12500000
0.00000000
-0.00000000
-0.00000000
0.00000000
-0.00000000
-0.12500000
0.12500000
-0.12500000
0.00000000
0.12500000
-0.12500000
0.12500000
-0.00000000
0.12500000
-0.12500000
-0.12500000
0.12500000
-0.00000000
0.00000000
0.00000000
-0.00000000
0.00000000
0.00000000
0.00000000
0.12500000
0.12500000
0.12500000
-0.12500000
-0.00000000
-0.00000000
-0.12500000
-0.00000000
0.12500000
-0.00000000
-0.12500000
0.00000000
-0.12500000
0.00000000
0.00000000
-0.00000000
-0.12500000
0.00000000
0.00000000
0.12500000
0.00000000
0.12500000
0.00000000
-0.00000000
0.00000000
-0.00000000
0.00000000
0.12500000
0.12500000
0.00000000
-0.12500000
-0.00000000
-0.12500000
-0.00000000
-0.00000000
-0.12500000
0.12500000
0.00000000
0.12500000
0.00000000
-0.00000000
0.00000000
-0.00000000
0.00000000
-0.00000000
-0.00000000
-0.12500000
-0.12500000
0.12500000
-0.00000000
-0.00000000
-0.12500000
0.00000000
0.12500000
-0.12500000
-0.12500000
-0.00000000
0.12500000
0.00000000
0.12500000
0.00000000
0.00000000
0.00000000
-0.12500000
-0.12500000
-0.00000000
0.00000000
0.12500000
0.00000000
0.00000000
0.00000000
-0.12500000
-0.00000000
0.12500000
0.25000000
0.00000000
-0.12500000
0.00000000
-0.00000000
0.25000000
-0.25000000
-0.00000000
0.12500000
-0.00000000
-0.12500000
0.00000000
0.12500000
0.00000000
-0.12500000
0.12500000
-0.25000000
0.12500000
0.00000000
-0.12500000
0.12500000
-0.12500000
-0.12500000
-0.37500000
-0.00000000
0.12500000
-0.25000000
0.00000000
0.12500000
-0.25000000
-0.00000000
0.12500000
-0.00000000
0.12500000
0.00000000
0.12500000
0.00000000
0.12500000
0.12500000
-0.12500000
-0.12500000
-0.00000000
-0.12500000
0.00000000
-0.00000000
-0.25000000
-0.25000000
0.12500000
-0.00000000
0.12500000
0.00000000
0.12500000
-0.00000000
0.00000000
0.12500000
0.12500000
0.00000000
-0.00000000
-0.00000000
0.12500000
-0.00000000
-0.00000000
0.12500000
0.12500000
-0.12500000
0.00000000
0.12500000
-0.00000000
0.00000000
0.12500000
-0.12500000
-0.00000000
0.00000000
-0.12500000
-0.12500000
-0.12500000
0.12500000
-0.00000000
-0.12500000
0.12500000
-0.00000000
0.12500000
0.00000000
0.12500000
0.12500000
-0.12500000
0.00000000
0.00000000
-0.00000000
0.12500000
-0.12500000
0.00000000
-0.12500000
-0.12500000
0.00000000
-0.12500000
-0.12500000
0.12500000
0.00000000
-0.00000000
-0.00000000
-0.00000000
0.12500000
0.12500000
0.12500000
0.00000000
0.12500000
0.12500000
-0.12500000
-0.00000000
0.12500000
-0.00000000
-0.00000000
0.12500000
-0.00000000
-0.00000000
0.12500000
0.00000000
-0.12500000
-0.12500000
0.25000000
-0.00000000
-0.00000000
0.00000000
0.25000000
-0.00000000
-0.00000000
-0.12500000
0.00000000
0.00000000
0.12500000
-0.12500000
0.25000000
0.12500000
-0.00000000
-0.25000000
0.12500000
-0.12500000
-0.12500000
-0.25000000
0.25000000
-0.00000000
-0.25000000
0.00000000
0.25000000
0.00000000
-0.12500000
-0.00000000
0.12500000
0.12500000
0.00000000
-0.00000000
0.00000000
0.00000000
-0.12500000
-0.00000000
0.00000000
0.12500000
-0.00000000
0.00000000
0.12500000
-0.12500000
0.12500000
0.00000000
-0.25000000
-0.00000000
0.12500000
0.25000000
0.12500000
-0.12500000
0.25000000
-0.00000000
-0.12500000
0.00000000
-0.12500000
0.00000000
-0.25000000
0.00000000
0.12500000
0.00000000
0.00000000
-0.12500000
0.00000000
0.00000000
-0.00000000
-0.12500000
0.12500000
-0.12500000
-0.12500000
-0.00000000
-0.12500000
-0.12500000
0.00000000
0.12500000
-0.12500000
0.00000000
-0.00000000
0.25000000
-0.12500000
-0.12500000
0.00000000
-0.12500000
-0.00000000
0.12500000
0.12500000
0.00000000
-0.00000000
-0.12500000
-0.00000000
0.00000000
0.12500000
-0.12500000
-0.00000000
0.00000000
-0.00000000
0.00000000
-0.00000000
-0.12500000
0.12500000
-0.00000000
-0.12500000
0.00000000
0.00000000
0.12500000
-0.12500000
-0.00000000
0.00000000
0.00000000
-0.12500000
-0.00000000
-0.00000000
-0.12500000
-0.00000000
0.00000000
0.00000000
0.00000000
0.00000000
0.00000000
0.12500000
-0.12500000
0.00000000
0.00000000
0.12500000
-0.00000000
-0.00000000
0.25000000
-0.00000000
-0.12500000
0.12500000
-0.12500000
0.00000000
0.12500000
0.12500000
0.12500000
0.00000000
0.12500000
-0.25000000
0.25000000
0.00000000
0.00000000
0.00000000
-0.12500000
-0.00000000
-0.12500000
-0.25000000
-0.00000000
-0.12500000
0.00000000
-0.00000000
-0.00000000
-0.00000000
0.12500000
0.12500000
0.00000000
-0.00000000
0.12500000
-0.00000000
0.00000000
-0.00000000
-0.00000000
0.00000000
0.00000000
-0.00000000
-0.12500000
0.00000000
-0.12500000
0.00000000
0.12500000
0.00000000
-0.00000000
0.12500000
0.00000000
-0.12500000
-0.12500000
0.00000000
0.12500000
-0.12500000
0.25000000
-0.00000000
0.00000000
0.00000000
-0.12500000
-0.00000000
-0.00000000
0.12500000
-0.12500000
0.00000000
0.00000000
-0.12500000
0.12500000
-0.00000000
0.12500000
-0.00000000
0.12500000
0.00000000
-0.12500000
-0.12500000
0.25000000
0.12500000
-0.00000000
0.12500000
-0.12500000
-0.00000000
-0.12500000
-0.00000000
0.00000000
0.00000000
0.00000000
0.12500000
0.12500000
0.00000000
0.00000000
-0.00000000
0.12500000
0.00000000
0.00000000
-0.00000000
-0.00000000
-0.00000000
-0.12500000
0.00000000
0.00000000
0.00000000
0.00000000
-0.00000000
-0.12500000
0.00000000
0.00000000
0.00000000
0.25000000
0.00000000
-0.12500000
-0.12500000
-0.12500000
-0.00000000
0.12500000
-0.00000000
-0.00000000
-0.12500000
-0.00000000
0.00000000
0.00000000
0.00000000
0.00000000
0.12500000
-0.00000000
0.00000000
-0.12500000
0.00000000
-0.12500000
0.00000000
-0.00000000
-0.00000000
-0.00000000
0.12500000
0.12500000
0.00000000
-0.12500000
0.00000000
0.12500000
-0.00000000
0.00000000
-0.12500000
-0.00000000
-0.00000000
0.00000000
0.00000000
0.12500000
-0.12500000
-0.12500000
0.12500000
0.00000000
0.12500000
-0.00000000
-0.00000000
-0.00000000
0.00000000
0.00000000
0.00000000
-0.00000000
-0.12500000
0.12500000
0.12500000
0.12500000
0.12500000
0.25000000
0.00000000
-0.12500000
0.12500000
-0.12500000
0.12500000
0.12500000
-0.00000000
-0.00000000
-0.00000000
0.00000000
0.12500000
0.12500000
0.12500000
0.12500000
0.12500000
-0.00000000
-0.00000000
-0.12500000
-0.00000000
-0.00000000
0.12500000
0.00000000
0.00000000
-0.00000000
-0.00000000
-0.12500000
0.00000000
0.12500000
0.00000000
0.00000000
0.12500000
-0.12500000
0.00000000
-0.12500000
0.00000000
-0.00000000
0.25000000
-0.12500000
0.00000000
-0.12500000
0.12500000
-0.12500000
0.25000000
0.00000000
0.00000000
0.12500000
-0.00000000
-0.00000000
0.00000000
0.12500000
0.12500000
0.00000000
0.12500000
-0.12500000
0.00000000
0.00000000
0.12500000
-0.00000000
0.00000000
0.00000000
-0.00000000
-0.00000000
-0.00000000
-0.00000000
-0.12500000
-0.12500000
-0.12500000
-0.12500000
-0.00000000
0.00000000
-0.00000000
0.00000000
-0.00000000
0.00000000
0.00000000
-0.12500000
-0.00000000
-0.00000000
0.12500000
0.12500000
-0.12500000
-0.12500000
0.00000000
-0.12500000
-0.12500000
0.00000000
0.12500000
0.12500000
-0.12500000
0.00000000
-0.12500000
0.12500000
-0.12500000
-0.12500000
0.25000000
0.00000000
0.00000000
-0.25000000
0.00000000
0.12500000
-0.00000000
0.12500000
0.12500000
0.12500000
-0.12500000
0.12500000
0.00000000
0.00000000
-0.12500000
-0.00000000
0.25000000
0.00000000
0.00000000
-0.12500000
-0.12500000
-0.00000000
0.00000000
-0.25000000
0.12500000
0.12500000
-0.12500000
0.12500000
0.12500000
0.00000000
-0.00000000
-0.00000000
0.25000000
-0.00000000
0.00000000
0.12500000
-0.12500000
0.12500000
0.00000000
-0.25000000
-0.00000000
0.12500000
-0.00000000
0.00000000
0.12500000
0.00000000
-0.00000000
0.12500000
0.00000000
0.00000000
0.12500000
0.12500000
0.00000000
-0.00000000
0.12500000
-0.12500000
-0.12500000
-0.00000000
0.12500000
-0.12500000
0.00000000
0.00000000
-0.12500000
-0.12500000
-0.00000000
-0.00000000
0.12500000
0.00000000
0.00000000
-0.12500000
-0.12500000
-0.12500000
-0.12500000
0.12500000
-0.00000000
-0.12500000
-0.00000000
-0.12500000
0.00000000
-0.00000000
0.12500000
0.00000000
0.00000000
-0.12500000
0.00000000
-0.12500000
-0.12500000
-0.00000000
-0.00000000
0.00000000
0.00000000
0.12500000
-0.00000000
0.00000000
-0.00000000
0.00000000
-0.00000000
-0.25000000
-0.12500000
0.00000000
-0.00000000
0.25000000
-0.00000000
-0.12500000
0.00000000
-0.00000000
-0.12500000
0.12500000
0.12500000
-0.12500000
0.00000000
-0.12500000
0.00000000
0.00000000
0.12500000
-0.00000000
-0.00000000
0.00000000
0.00000000
-0.12500000
-0.12500000
0.12500000
-0.00000000
-0.12500000
0.00000000
-0.00000000
-0.12500000
-0.00000000
0.00000000
0.25000000
0.12500000
0.12500000
0.00000000
-0.12500000
-0.12500000
-0.12500000
-0.25000000
-0.00000000
-0.12500000
0.12500000
-0.12500000
0.25000000
0.00000000
-0.12500000
-0.00000000
0.25000000
-0.00000000
-0.12500000
0.12500000
0.00000000
0.00000000
0.12500000
0.12500000
-0.12500000
-0.12500000
0.25000000
0.00000000
0.12500000
0.12500000
-0.12500000
0.12500000
-0.00000000
-0.00000000
-0.12500000
-0.12500000
-0.00000000
0.00000000
-0.12500000
0.12500000
-0.12500000
0.00000000
0.12500000
0.25000000
0.12500000
0.00000000
0.00000000
-0.12500000
0.00000000
-0.00000000
0.12500000
0.00000000
0.12500000
-0.00000000
-0.25000000
0.00000000
-0.12500000
0.00000000
-0.00000000
0.12500000
-0.12500000
0.00000000
0.00000000
0.00000000
-0.12500000
-0.00000000
0.12500000
-0.00000000
0.12500000
-0.12500000
-0.12500000
0.00000000
-0.00000000
-0.00000000
-0.12500000
-0.12500000
0.00000000
0.00000000
0.12500000
0.12500000
-0.00000000
0.00000000
0.12500000
-0.00000000
-0.12500000
0.00000000
-0.12500000
-0.00000000
-0.00000000
0.00000000
0.00000000
0.00000000
0.12500000
-0.12500000
0.00000000
-0.00000000
-0.00000000
0.12500000
0.12500000
0.12500000
-0.00000000
-0.00000000
-0.12500000
0.12500000
0.00000000
0.00000000
-0.00000000
0.12500000
0.12500000
-0.00000000
0.00000000
0.12500000
-0.00000000
-0.12500000
-0.12500000
0.00000000
-0.12500000
-0.00000000
0.12500000
0.12500000
-0.00000000
-0.25000000
-0.00000000
0.12500000
0.00000000
0.12500000
-0.00000000
0.25000000
-0.12500000
-0.00000000
-0.25000000
0.00000000
0.00000000
0.12500000
-0.12500000
0.12500000
-0.00000000
-0.12500000
0.00000000
-0.00000000
-0.12500000
0.12500000
0.00000000
0.12500000
0.00000000
0.12500000
-0.25000000
0.00000000
-0.00000000
0.00000000
-0.12500000
-0.00000000
-0.00000000
-0.12500000
0.00000000
-0.00000000
0.00000000
0.00000000
0.25000000
0.12500000
0.25000000
0.00000000
-0.12500000
-0.12500000
-0.12500000
0.00000000
0.00000000
0.12500000
-0.25000000
-0.12500000
-0.00000000
-0.12500000
0.12500000
0.12500000
0.25000000
0.12500000
-0.25000000
-0.12500000
-0.25000000
-0.00000000
0.12500000
-0.00000000
0.00000000
0.12500000
-0.25000000
-0.12500000
-0.00000000
0.12500000
0.12500000
-0.00000000
0.12500000
0.12500000
-0.12500000
-0.00000000
-0.25000000
-0.00000000
0.12500000
0.12500000
0.00000000
0.25000000
-0.25000000
-0.12500000
-0.12500000
0.12500000
-0.00000000
0.12500000
-0.00000000
-0.12500000
0.00000000
0.12500000
0.12500000
0.12500000
-0.12500000
0.12500000
0.00000000
-0.12500000
-0.00000000
-0.12500000
0.12500000
-0.25000000
0.00000000
0.00000000
0.00000000
-0.00000000
-0.12500000
0.00000000
-0.12500000
0.00000000
-0.12500000
0.25000000
0.00000000
-0.00000000
-0.12500000
0.00000000
-0.00000000
-0.12500000
0.25000000
0.00000000
0.12500000
-0.12500000
0.12500000
0.12500000
0.12500000
0.12500000
-0.12500000
0.00000000
0.37500000
0.12500000
-0.25000000
0.12500000
-0.12500000
0.12500000
0.00000000
0.12500000
0.12500000
-0.12500000
-0.00000000
-0.12500000
0.00000000
-0.12500000
0.12500000
0.00000000
-0.00000000
0.12500000
0.12500000
-0.00000000
0.00000000
-0.00000000
-0.00000000
0.00000000
-0.00000000
-0.00000000
-0.12500000
-0.00000000
-0.00000000
0.00000000
0.00000000
0.12500000
0.00000000
-0.00000000
-0.00000000
0.00000000
-0.12500000
-0.12500000
-0.00000000
0.00000000
0.12500000
-0.00000000
0.00000000
-0.00000000
-0.00000000
0.00000000
-0.00000000
0.00000000
-0.00000000
0.12500000
0.00000000
-0.00000000
0.12500000
-0.00000000
-0.00000000
0.00000000
0.12500000
0.12500000
0.00000000
-0.00000000
-0.25000000
-0.12500000
-0.12500000
-0.00000000
-0.00000000
0.12500000
-0.12500000
-0.12500000
-0.00000000
-0.00000000
0.12500000
0.00000000
0.12500000
-0.00000000
-0.00000000
-0.12500000
-0.25000000
-0.12500000
0.00000000
-0.00000000
0.00000000
0.12500000
-0.25000000
-0.00000000
0.00000000
0.00000000
0.12500000
-0.00000000
0.12500000
-0.00000000
-0.12500000
0.12500000
-0.00000000
0.00000000
0.00000000
0.00000000
0.00000000
0.00000000
-0.25000000
-0.12500000
0.00000000
-0.00000000
-0.00000000
-0.12500000
-0.25000000
-0.12500000
-0.25000000
-0.12500000
0.00000000
0.00000000
0.25000000
-0.12500000
0.12500000
-0.00000000
-0.00000000
-0.00000000
0.12500000
0.12500000
-0.12500000
0.12500000
-0.12500000
0.00000000
0.12500000
-0.00000000
-0.00000000
0.00000000
-0.00000000
-0.25000000
-0.00000000
-0.12500000
-0.12500000
-0.12500000
0.12500000
0.12500000
-0.00000000
-0.12500000
-0.00000000
-0.00000000
0.12500000
-0.00000000
0.12500000
0.12500000
-0.25000000
-0.25000000
-0.12500000
-0.00000000
-0.12500000
-0.12500000
-0.00000000
-0.00000000
0.00000000
0.00000000
0.12500000
-0.00000000
0.00000000
0.00000000
0.00000000
-0.12500000
-0.00000000
0.00000000
-0.12500000
0.12500000
0.12500000
-0.00000000
-0.12500000
0.00000000
-0.12500000
-0.12500000
-0.00000000
0.00000000
0.12500000
-0.00000000
0.12500000
-0.12500000
-0.12500000
-0.12500000
-0.00000000
-0.12500000
0.00000000
-0.12500000
-0.00000000
-0.00000000
0.12500000
0.12500000
-0.00000000
0.00000000
0.00000000
0.12500000
-0.00000000
-0.00000000
-0.12500000
0.12500000
0.00000000
-0.12500000
-0.12500000
0.12500000
0.00000000
0.25000000
0.12500000
0.12500000
0.25000000
-0.00000000
-0.00000000
-0.00000000
0.00000000
0.00000000
0.00000000
0.12500000
-0.25000000
-0.00000000
0.12500000
0.12500000
-0.00000000
-0.12500000
0.12500000
0.12500000
0.12500000
-0.00000000
-0.25000000
-0.12500000
-0.00000000
0.12500000
0.12500000
0.12500000
-0.12500000
-0.12500000
-0.00000000
-0.12500000
0.00000000
-0.12500000
0.12500000
0.12500000
0.12500000
-0.00000000
-0.12500000
-0.12500000
0.00000000
-0.12500000
0.00000000
0.12500000
0.00000000
0.12500000
-0.12500000
-0.00000000
-0.00000000
0.25000000
0.12500000
-0.00000000
0.00000000
-0.00000000
0.00000000
0.00000000
-0.00000000
-0.00000000
0.00000000
0.00000000
-0.12500000
-0.00000000
0.00000000
-0.00000000
0.00000000
0.12500000
0.12500000
0.00000000
0.00000000
0.00000000
-0.12500000
-0.12500000
-0.00000000
-0.12500000
0.12500000
0.00000000
0.00000000
-0.12500000
-0.00000000
0.00000000
0.12500000
0.00000000
0.00000000
0.00000000
0.00000000
-0.12500000
0.12500000
-0.25000000
-0.25000000
-0.00000000
0.12500000
0.12500000
0.00000000
0.12500000
-0.12500000
-0.00000000
0.00000000
0.12500000
0.00000000
0.00000000
0.12500000
-0.12500000
0.12500000
0.00000000
0.25000000
-0.12500000
-0.00000000
0.00000000
-0.25000000
-0.12500000
0.00000000
0.12500000
0.00000000
-0.00000000
0.12500000
0.00000000
0.12500000
-0.12500000
-0.00000000
0.12500000
0.12500000
0.00000000
-0.12500000
0.00000000
0.00000000
-0.12500000
-0.12500000
0.12500000
0.00000000
-0.00000000
0.12500000
-0.00000000
0.25000000
-0.12500000
-0.12500000
-0.12500000
0.12500000
0.12500000
0.12500000
0.12500000
0.25000000
0.12500000
0.00000000
0.12500000
-0.00000000
-0.00000000
0.00000000
-0.12500000
0.12500000
-0.00000000
0.12500000
0.12500000
0.12500000
-0.00000000
0.00000000
0.00000000
-0.00000000
0.00000000
-0.12500000
0.00000000
-0.00000000
-0.00000000
0.00000000
0.00000000
-0.00000000
-0.00000000
-0.00000000
-0.12500000
-0.00000000
-0.00000000
0.12500000
-0.00000000
-0.00000000
-0.00000000
0.00000000
-0.00000000
0.00000000
0.00000000
-0.12500000
0.00000000
-0.00000000
0.00000000
0.00000000
-0.12500000
-0.00000000
-0.00000000
0.00000000
0.00000000
-0.00000000
-0.00000000
0.00000000
-0.12500000
-0.00000000
0.37500000
0.12500000
0.00000000
0.25000000
-0.12500000
0.12500000
-0.12500000
0.25000000
-0.00000000
-0.00000000
0.12500000
-0.12500000
0.00000000
-0.12500000
0.00000000
-0.12500000
0.12500000
0.00000000
0.00000000
-0.00000000
-0.12500000
0.00000000
-0.00000000
0.12500000
-0.00000000
0.00000000
0.12500000
-0.12500000
-0.12500000
0.12500000
0.00000000
0.00000000
-0.00000000
0.00000000
0.12500000
-0.00000000
0.00000000
-0.00000000
-0.12500000
-0.12500000
-0.00000000
0.12500000
-0.12500000
-0.12500000
-0.12500000
0.00000000
0.00000000
0.00000000
-0.00000000
0.00000000
-0.00000000
-0.00000000
0.12500000
0.00000000
-0.12500000
-0.12500000
0.00000000
0.00000000
-0.12500000
-0.12500000
0.12500000
0.12500000
0.00000000
-0.00000000
0.12500000
0.00000000
-0.12500000
0.12500000
-0.00000000
0.12500000
0.00000000
0.00000000
-0.00000000
0.00000000
0.00000000
-0.00000000
0.00000000
0.12500000
0.12500000
-0.12500000
-0.12500000
-0.00000000
0.00000000
-0.12500000
0.00000000
-0.25000000
-0.12500000
-0.12500000
-0.12500000
0.12500000
-0.00000000
-0.25000000
-0.12500000
-0.12500000
-0.00000000
-0.25000000
0.12500000
-0.12500000
0.12500000
-0.00000000
-0.12500000
-0.00000000
-0.12500000
0.12500000
0.00000000
0.00000000
0.25000000
0.00000000
-0.00000000
0.25000000
0.12500000
-0.12500000
0.00000000
0.00000000
0.12500000
-0.12500000
-0.00000000
0.00000000
0.00000000
0.25000000
0.12500000
-0.00000000
0.12500000
0.12500000
-0.00000000
0.12500000
-0.00000000
-0.12500000
-0.12500000
-0.00000000
-0.00000000
-0.00000000
-0.12500000
0.25000000
0.12500000
0.00000000
0.12500000
-0.00000000
0.12500000
0.12500000
-0.00000000
0.25000000
0.00000000
0.00000000
-0.00000000
0.00000000
-0.00000000
0.12500000
0.00000000
0.12500000
-0.12500000
0.12500000
-0.12500000
-0.00000000
0.12500000
-0.00000000
0.12500000
0.00000000
-0.00000000
-0.12500000
0.00000000
-0.12500000
-0.12500000
-0.12500000
0.12500000
0.12500000
0.25000000
0.12500000
-0.00000000
-0.12500000
-0.12500000
-0.12500000
-0.12500000
0.00000000
0.00000000
0.00000000
-0.00000000
-0.00000000
-0.00000000
-0.12500000
0.00000000
-0.12500000
0.00000000
0.00000000
-0.00000000
-0.00000000
-0.12500000
-0.00000000
0.12500000
0.00000000
0.00000000
-0.12500000
0.37500000
0.12500000
-0.00000000
0.25000000
-0.00000000
0.00000000
-0.12500000
0.12500000
-0.12500000
0.12500000
0.12500000
-0.25000000
-0.00000000
0.00000000
0.00000000
-0.12500000
-0.12500000
0.12500000
-0.00000000
0.00000000
0.00000000
-0.00000000
-0.12500000
-0.00000000
-0.12500000
-0.12500000
0.12500000
-0.12500000
-0.12500000
-0.12500000
0.12500000
0.00000000
-0.12500000
0.12500000
0.00000000
0.00000000
-0.12500000
-0.00000000
-0.00000000
-0.00000000
0.12500000
-0.12500000
0.12500000
0.12500000
-0.00000000
-0.25000000
0.00000000
-0.12500000
0.00000000
0.12500000
0.00000000
0.12500000
-0.00000000
0.00000000
0.00000000
0.25000000
0.00000000
0.00000000
0.12500000
-0.12500000
-0.12500000
0.12500000
-0.00000000
-0.12500000
0.00000000
-0.00000000
-0.00000000
-0.12500000
0.12500000
0.12500000
-0.12500000
-0.00000000
0.00000000
-0.12500000
-0.00000000
-0.12500000
-0.00000000
0.12500000
0.00000000
-0.00000000
-0.12500000
-0.12500000
0.12500000
0.00000000
0.12500000
0.12500000
-0.00000000
-0.00000000
0.00000000
-0.12500000
-0.00000000
-0.00000000
-0.12500000
0.12500000
0.00000000
-0.00000000
0.12500000
0.00000000
-0.00000000
0.12500000
0.00000000
-0.00000000
0.12500000
0.00000000
-0.12500000
-0.12500000
0.12500000
0.12500000
0.12500000
0.00000000
0.00000000
-0.12500000
0.00000000
0.00000000
0.00000000
0.00000000
-0.12500000
-0.00000000
-0.00000000
-0.00000000
0.00000000
-0.12500000
0.00000000
-0.00000000
0.00000000
0.00000000
0.00000000
-0.00000000
-0.00000000
-0.12500000
-0.12500000
-0.00000000
0.00000000
0.12500000
-0.00000000
-0.00000000
0.00000000
-0.12500000
-0.12500000
-0.12500000
0.00000000
0.00000000
0.00000000
0.12500000
-0.00000000
0.25000000
-0.12500000
0.12500000
-0.00000000
0.00000000
-0.12500000
-0.25000000
-0.12500000
0.12500000
-0.25000000
0.12500000
0.12500000
-0.25000000
-0.00000000
0.25000000
-0.12500000
0.25000000
-0.12500000
0.12500000
-0.00000000
-0.12500000
0.00000000
-0.12500000
-0.00000000
0.12500000
-0.12500000
0.00000000
0.12500000
-0.25000000
0.00000000
0.25000000
0.00000000
0.25000000
0.00000000
0.12500000
-0.12500000
-0.12500000
0.00000000
0.12500000
-0.12500000
0.00000000
-0.12500000
0.12500000
0.00000000
-0.37500000
0.12500000
-0.00000000
0.00000000
-0.00000000
0.00000000
0.12500000
-0.00000000
0.00000000
-0.00000000
0.12500000
-0.00000000
-0.00000000
0.12500000
0.00000000
0.00000000
-0.00000000
-0.00000000
0.00000000
0.00000000
-0.00000000
0.00000000
-0.12500000
0.00000000
-0.00000000
-0.12500000
-0.00000000
0.00000000
-0.00000000
-0.12500000
-0.00000000
-0.00000000
-0.12500000
0.00000000
-0.12500000
-0.12500000
0.00000000
-0.00000000
-0.12500000
-0.00000000
-0.00000000
-0.12500000
-0.00000000
0.00000000
-0.12500000
-0.00000000
-0.00000000
0.12500000
-0.00000000
0.00000000
-0.12500000
0.25000000
-0.00000000
0.00000000
0.25000000
-0.12500000
-0.12500000
-0.00000000
0.12500000
-0.00000000
0.25000000
0.12500000
-0.00000000
-0.00000000
-0.00000000
-0.12500000
-0.00000000
0.00000000
0.12500000
-0.12500000
-0.12500000
-0.12500000
-0.00000000
-0.12500000
0.00000000
-0.12500000
0.00000000
0.00000000
0.12500000
-0.12500000
0.12500000
-0.12500000
0.00000000
-0.12500000
-0.00000000
0.00000000
0.00000000
-0.00000000
-0.00000000
-0.00000000
-0.12500000
0.00000000
-0.12500000
0.00000000
0.12500000
-0.00000000
-0.12500000
-0.12500000
-0.25000000
0.25000000
0.00000000
0.00000000
0.12500000
-0.12500000
-0.12500000
-0.12500000
0.00000000
-0.00000000
0.12500000
0.12500000
-0.12500000
-0.12500000
0.00000000
0.12500000
0.00000000
-0.00000000
-0.12500000
0.12500000
-0.12500000
0.00000000
-0.12500000
-0.12500000
0.00000000
-0.00000000
-0.12500000
0.12500000
0.00000000
-0.00000000
0.00000000
0.00000000
0.00000000
-0.12500000
-0.12500000
-0.12500000
-0.00000000
-0.12500000
0.00000000
0.00000000
-0.12500000
-0.00000000
-0.12500000
0.12500000
-0.12500000
0.12500000
0.00000000
0.00000000
-0.00000000
0.12500000
0.00000000
-0.00000000
-0.00000000
-0.00000000
0.12500000
0.00000000
0.00000000
-0.00000000
-0.12500000
0.12500000
-0.00000000
0.12500000
-0.12500000
-0.00000000
0.12500000
-0.00000000
0.12500000
0.00000000
0.00000000
-0.12500000
-0.00000000
0.00000000
0.00000000
0.00000000
0.12500000
0.00000000
-0.00000000
0.00000000
-0.12500000
0.00000000
-0.00000000
-0.00000000
-0.00000000
0.00000000
-0.00000000
0.00000000
0.00000000
-0.12500000
-0.00000000
-0.12500000
0.12500000
0.00000000
-0.00000000
0.00000000
-0.12500000
-0.00000000
-0.00000000
0.12500000
0.00000000
-0.12500000
0.12500000
0.00000000
0.00000000
-0.12500000
-0.00000000
0.00000000
0.00000000
0.12500000
-0.12500000
0.00000000
0.00000000
0.12500000
-0.12500000
0.00000000
0.00000000
0.00000000
0.00000000
-0.00000000
-0.12500000
-0.00000000
-0.12500000
0.00000000
-0.12500000
0.12500000
-0.12500000
-0.00000000
0.12500000
-0.00000000
0.00000000
-0.12500000
0.00000000
0.00000000
0.12500000
-0.12500000
-0.12500000
0.12500000
0.00000000
0.00000000
0.00000000
0.00000000
0.00000000
0.00000000
0.00000000
0.00000000
0.25000000
-0.00000000
0.12500000
0.12500000
