2.48632812
-0.71289062
0.24804688
0.38378906
1.25878906
1.88378906
0.99511719
0.89160156
0.54980469
0.22656250
0.78808594
2.52734375
1.75976562
0.75488281
0.79101562
2.21484375
4.01074219
3.27050781
1.85351562
1.54296875
0.87207031
0.92285156
2.41601562
2.36035156
3.26660156
3.59375000
0.84765625
0.77832031
-0.14550781
0.30761719
-2.90722656
-1.22656250
-1.95800781
-2.11621094
-1.92578125
-2.41406250
-3.78417969
-1.14648438
-1.79492188
-0.32714844
-1.78417969
0.18359375
-1.83496094
-2.19042969
-2.73828125
-1.38183594
-2.34082031
-2.28515625
-1.63378906
-1.33593750
-2.61523438
-0.03710938
-2.25683594
-2.51855469
-6.76367188
-2.13281250
1.21093750
-0.64257812
-2.43847656
-0.62109375
0.18359375
-0.99609375
-1.53222656
-6.36035156
-0.34570312
-10.36035156
8.20410156
0.00585938
0.65625000
-1.07421875
-0.24121094
-7.31445312
-6.34472656
-0.69921875
-1.06250000
-1.86718750
-3.10351562
-4.43261719
-1.74218750
5.69531250
1.44824219
-0.47167969
2.67382812
0.13964844
-0.77539062
0.71582031
-1.73730469
0.01464844
-0.82128906
-1.91503906
-0.61718750
0.16503906
-4.55566406
-10.48437500
-4.14355469
-8.96386719
-0.22070312
-0.59277344
-5.57910156
-2.54492188
-13.41796875
-5.46191406
-3.46386719
-3.04003906
-2.43261719
-8.21777344
-1.44726562
0.77246094
3.06347656
0.97753906
-1.01074219
0.47558594
0.90234375
2.95898438
-3.19433594
-2.51171875
-2.59765625
-1.67675781
-0.46484375
3.20898438
-2.09082031
6.99902344
-4.61230469
-8.68164062
1.83007812
-0.53222656
-21.57519531
-10.33593750
-7.87500000
0.82226562
-1.64843750
-2.00683594
-3.57421875
-7.54882812
-6.35644531
-5.82031250
3.28027344
6.30078125
0.46093750
0.20214844
3.20019531
3.67089844
-1.72265625
-8.49804688
-1.29589844
-3.08789062
-0.87792969
-0.65917969
-0.41113281
-3.19921875
-4.11425781
-13.46289062
-15.76757812
-14.73144531
-13.27734375
-0.73535156
-2.36914062
-6.48144531
2.53613281
-4.63281250
-2.04785156
-7.29296875
0.63281250
-8.98437500
0.00585938
10.20410156
0.07226562
-1.92187500
-6.31835938
1.66308594
-4.05957031
-1.17285156
1.78417969
-3.09570312
1.39355469
-4.73339844
1.77734375
6.42382812
-1.14062500
-2.03320312
5.97656250
4.39648438
-7.45898438
3.13574219
1.96386719
-3.52539062
-4.30371094
-4.00488281
4.18750000
-1.69433594
2.04101562
1.58203125
0.80371094
0.36035156
0.86523438
-7.78906250
-2.19628906
1.09277344
-0.40820312
-7.97558594
-11.15332031
2.62109375
2.35351562
-1.30468750
-7.66601562
-4.30761719
-6.24902344
-1.82421875
-0.37011719
3.10449219
-4.62109375
-1.36523438
-6.33886719
-2.40234375
-0.24609375
-1.82128906
-6.13964844
1.18652344
6.64550781
1.18066406
-1.98535156
3.31835938
2.39746094
-4.64453125
-0.90039062
0.44042969
0.65039062
-6.78222656
-3.38769531
2.76953125
-5.52734375
-1.94531250
-5.15136719
-0.49609375
-0.74023438
-0.22460938
4.23632812
4.46386719
-8.77929688
1.02441406
-1.41699219
-4.00000000
-1.76562500
2.00390625
-6.79296875
-2.44921875
-0.36523438
-3.70312500
-3.07031250
-2.34277344
-3.82031250
2.34179688
-1.87695312
-0.33984375
-0.03125000
-1.87695312
4.53222656
-0.46093750
1.58398438
-0.12500000
-3.56054688
-1.11425781
-0.22656250
-1.89746094
3.63671875
5.29394531
-9.24902344
-3.45605469
-4.59570312
-2.37402344
-2.80371094
-2.27343750
-5.06738281
4.57031250
-4.66796875
1.20996094
-6.91894531
-0.09472656
1.24804688
0.97558594
-1.69531250
0.09179688
-1.33300781
-0.40332031
1.73046875
-4.96679688
-3.64550781
-1.35839844
-1.30371094
-1.93164062
-0.31738281
-2.54296875
-0.01757812
5.48046875
-4.35351562
-2.47363281
-2.06445312
0.30078125
-1.19335938
-1.20800781
-0.16699219
0.50976562
-2.15625000
3.06152344
-12.07812500
-0.09179688
-8.88671875
-2.83789062
-0.81152344
-0.12500000
-3.91210938
1.79394531
4.32617188
-4.84960938
-0.62304688
1.62597656
-2.61523438
-3.60449219
0.77148438
-3.35644531
0.46484375
0.57812500
-7.14062500
0.08398438
-1.03808594
0.10839844
0.27636719
-7.08789062
0.49707031
-1.88769531
-3.86718750
0.12402344
-10.50781250
-2.97363281
-5.75292969
1.58007812
-0.54980469
-0.12500000
-1.37011719
-0.45312500
3.92285156
3.27343750
-1.49023438
2.16601562
-2.11718750
-5.09667969
-0.21289062
0.07226562
0.10449219
6.41699219
-4.80078125
-3.65332031
-0.57226562
-0.16503906
-0.33105469
-0.30273438
-1.28027344
-0.26367188
-0.58593750
0.48730469
-7.76367188
-7.10644531
2.20605469
-0.83105469
-0.43652344
-0.06445312
-0.13964844
-1.72265625
0.28417969
1.54492188
-2.91015625
2.27441406
-2.33398438
-2.35156250
-7.74804688
-4.59375000
5.35644531
3.24609375
0.13671875
-3.66894531
-0.99804688
-0.22460938
2.54589844
-1.63671875
-1.69531250
-0.07910156
-4.30273438
-1.26074219
-4.77539062
-2.78222656
8.25195312
-2.43164062
1.03710938
-0.01464844
0.67871094
-0.98339844
-0.44042969
1.74121094
0.28320312
0.40429688
-0.24707031
-0.37890625
-1.04199219
-0.49121094
-1.24218750
1.31347656
2.25976562
1.39355469
0.71191406
2.05175781
0.26464844
-1.88085938
-1.85742188
-0.35449219
0.40136719
-4.24511719
2.62304688
-1.89355469
-6.26953125
-1.69335938
2.10644531
-0.35058594
-0.15332031
0.46582031
-0.11523438
1.73046875
-2.06250000
0.43847656
-0.29785156
-0.82519531
-10.82128906
1.44042969
-0.86425781
-8.63671875
-0.08105469
-1.10449219
-6.64355469
-7.17285156
-2.48925781
-2.64160156
-1.79101562
3.52343750
-1.17578125
-9.43457031
0.20605469
-1.62500000
-1.94042969
-2.89648438
1.13183594
0.04101562
1.22753906
1.44628906
-1.96386719
-0.48925781
-1.51562500
-0.09667969
-6.09082031
-4.04296875
-8.07128906
1.12890625
4.49414062
2.35449219
1.40625000
0.91992188
-3.23046875
-2.40332031
-1.79980469
-2.38281250
2.19726562
-0.41992188
0.76269531
-4.92871094
0.39550781
2.47265625
2.99316406
-1.47460938
0.47070312
0.35546875
-3.26855469
-0.35742188
-4.66406250
-0.85449219
-4.84960938
0.11425781
0.41308594
-1.77636719
0.09472656
-4.01562500
-2.11523438
-0.60546875
0.07812500
-1.30566406
-1.64550781
3.14062500
-4.53808594
-1.41601562
0.73535156
2.54199219
4.06738281
1.84960938
-2.35449219
0.65625000
1.12792969
-2.31640625
-0.19335938
1.52636719
-4.25488281
0.76562500
-2.15625000
-0.59863281
-0.00195312
-0.79199219
-3.44628906
-0.34960938
-0.68359375
-0.54199219
-0.52832031
-0.54394531
-1.20507812
-0.70312500
-7.85839844
-13.84277344
-13.64550781
-6.19433594
-4.15722656
0.92578125
2.44824219
1.53222656
2.03808594
1.32617188
-7.06835938
-7.62988281
0.88476562
-0.80175781
-1.84277344
-1.94628906
0.59179688
-2.01464844
-1.17773438
-1.14941406
-1.94531250
-1.29980469
-2.42773438
-1.11621094
-0.78613281
-1.08691406
-2.47949219
-2.30078125
-7.82421875
-8.02148438
-10.54003906
3.91113281
3.90039062
-1.13476562
-2.23242188
-5.35156250
-10.85156250
-6.87207031
-18.67773438
-7.39648438
3.74023438
1.93945312
0.97753906
-2.51269531
0.16601562
-2.99707031
-3.26562500
0.83886719
0.89257812
-3.54199219
-4.31250000
-6.31640625
-5.84570312
-16.76855469
-12.99414062
-14.70117188
-9.46679688
1.41015625
-0.62988281
-1.66406250
-1.69140625
-2.92480469
-0.55761719
-2.74609375
-0.48144531
-2.28027344
-3.94042969
-1.39550781
-0.73046875
0.77343750
-2.00097656
-1.39648438
-0.87792969
-1.70507812
2.77050781
3.59472656
8.20703125
-1.36425781
-9.42480469
-6.61132812
-3.40429688
-6.29980469
-2.33105469
0.05957031
0.53222656
-0.99414062
-2.33984375
-2.50292969
1.68652344
-0.56640625
-0.78613281
-1.08203125
-1.68750000
1.20996094
3.40429688
-1.66992188
1.23535156
0.00000000
-1.43359375
-3.57226562
-0.70703125
0.02734375
0.56738281
-0.73144531
3.75000000
-0.68750000
-1.86425781
-1.04003906
2.28515625
1.49414062
2.34082031
2.80859375
3.28710938
4.61035156
1.55468750
-0.39746094
0.02929688
0.13378906
-3.69238281
-4.67089844
-1.47167969
1.05859375
-3.87402344
-5.56738281
1.35351562
-0.07226562
-1.11425781
-1.89550781
-0.22460938
-0.10644531
-1.08203125
2.45996094
1.08691406
-1.05078125
-4.08105469
-0.22558594
3.13964844
2.75781250
0.68457031
3.46289062
2.59179688
3.73925781
2.86132812
0.46875000
-0.49707031
-2.66308594
1.59179688
-2.58691406
-0.94140625
4.25585938
-5.38769531
-1.41210938
1.03417969
-0.81347656
1.05761719
2.30566406
0.12011719
-0.12500000
-1.04980469
-1.04882812
-0.53125000
-0.89355469
-1.30078125
-1.42871094
0.65136719
-0.28808594
0.00878906
1.95312500
1.52441406
3.21093750
4.77441406
2.13085938
-1.38378906
-1.13769531
-0.63085938
-0.38867188
5.18164062
-1.25292969
4.05859375
-1.12500000
1.66210938
-0.15527344
4.69140625
0.53027344
-0.56835938
5.41113281
3.04003906
1.05664062
0.03808594
1.74902344
2.12500000
1.95800781
0.60742188
-3.43066406
0.47167969
1.57812500
2.86230469
2.26367188
4.59765625
4.58203125
0.71679688
-1.22851562
-3.14843750
-0.26074219
-0.00097656
3.46484375
4.76171875
-3.49511719
-1.74121094
-0.16015625
-0.81054688
0.60644531
-2.55859375
2.41601562
1.62695312
1.54296875
-4.05078125
-0.67089844
-0.67968750
0.66503906
0.14160156
-0.21386719
-3.54589844
-1.90527344
-3.69921875
-1.84375000
-1.94335938
-2.29394531
-2.86425781
-1.07910156
0.26171875
0.26953125
0.14257812
-0.67773438
1.25781250
-3.48535156
0.60644531
0.15332031
1.09570312
0.91992188
0.64843750
0.99023438
0.33593750
1.51367188
2.45117188
1.85156250
1.30957031
-0.12402344
0.64843750
1.12207031
-2.27441406
-0.01171875
-0.33593750
-0.04882812
0.80761719
2.51269531
0.59960938
0.99511719
-0.12695312
0.62597656
1.97070312
1.19238281
-1.29785156
-0.06152344
0.42871094
0.78906250
-0.38574219
-0.50488281
-1.18750000
-1.59277344
-1.05371094
-0.66503906
-0.21093750
-0.52929688
-0.57128906
-1.92773438
-2.16503906
-1.72363281
-2.98144531
-3.17187500
-2.84863281
-1.41406250
-0.86230469
-0.72363281
-0.87988281
-1.29687500
-1.94726562
-1.57617188
-2.34082031
-2.29003906
-2.01855469
0.74316406
-0.34570312
-0.63574219
-0.03710938
-1.02734375
-1.26367188
-0.88574219
-1.25878906
-0.90039062
-0.35449219
-0.93261719
-0.44726562
-0.59179688
-0.47265625
-1.22656250
-1.12792969
-0.56347656
0.24414062
-1.07421875
-0.58300781
-0.23632812
-0.29394531
-0.83300781
-0.87500000
-0.87890625
0.08105469
-0.67089844
1.63671875
0.14648438
-0.58203125
-0.11035156
-1.36132812
3.88378906
1.93847656
-1.12402344
1.62597656
1.84570312
-3.40332031
-6.28613281
-6.79101562
0.87695312
-1.49609375
1.45019531
1.01855469
4.44140625
-5.88769531
1.20507812
-4.94531250
0.20996094
2.74023438
3.66796875
2.51660156
-1.46289062
1.31640625
1.13281250
-2.13671875
-1.32910156
-1.25000000
-1.77929688
-0.37988281
3.67480469
3.88378906
-1.78710938
-0.28710938
5.22851562
3.56152344
-0.78613281
0.14843750
12.33203125
7.82031250
-1.82226562
2.80957031
-0.66796875
7.82031250
5.70605469
-2.87500000
-0.14453125
3.96289062
-2.06347656
-0.10839844
1.15039062
-3.22460938
-2.71777344
-0.87011719
-1.79980469
-1.88281250
0.06445312
-0.61621094
-3.35253906
-0.37402344
-0.51464844
0.92773438
-0.64843750
1.24902344
-1.23535156
-5.43750000
4.98242188
5.54882812
2.51660156
12.14062500
8.80468750
0.36132812
-0.24707031
0.27929688
-1.63378906
-1.88671875
1.65429688
1.95117188
6.31152344
2.78710938
-7.04589844
-2.02636719
-0.85937500
2.50585938
1.87500000
2.67968750
3.00390625
4.09667969
5.70312500
0.34179688
1.21972656
4.94335938
10.27343750
-1.61035156
-3.55078125
17.65332031
22.52246094
1.93457031
7.79589844
1.79394531
-5.00488281
-1.55175781
6.63476562
-0.58007812
2.33886719
-4.30468750
3.56640625
1.85937500
-2.64941406
-2.95410156
-0.79785156
1.59960938
-0.25195312
3.00000000
0.50683594
4.64648438
9.22753906
1.10644531
-3.36621094
-1.54003906
-3.69042969
-2.84375000
6.86328125
-2.78515625
2.05078125
-6.76562500
2.47558594
-0.90625000
-1.61425781
1.93554688
8.21484375
-1.01367188
-3.86230469
0.80078125
-4.42773438
0.96875000
3.96679688
-0.68359375
2.89550781
5.04589844
0.34667969
-1.55859375
3.15332031
19.44531250
1.95507812
-4.96679688
-1.65234375
2.97753906
2.36230469
-2.89453125
-0.86328125
1.17187500
5.73144531
-4.11523438
5.27734375
1.56835938
1.91210938
-0.53320312
-0.16699219
6.34375000
-2.95507812
-2.06835938
0.04589844
3.22265625
2.08886719
0.34472656
0.37597656
0.40332031
-0.40332031
0.64062500
1.53515625
19.97265625
-1.92773438
4.92578125
-0.43261719
0.15234375
0.43945312
-2.43261719
-0.03613281
2.53808594
-2.59863281
4.04296875
-0.55664062
-0.90625000
-0.86230469
0.18554688
-8.73437500
7.33300781
3.31640625
-2.61230469
-0.65527344
-1.45507812
2.69335938
6.42675781
-3.54492188
2.91992188
0.12500000
-0.11816406
-0.13671875
4.32617188
0.13867188
-0.22167969
-0.11035156
0.38085938
0.72265625
0.35546875
-1.18164062
-1.84765625
0.51953125
1.56054688
4.61718750
0.46093750
0.88867188
1.65722656
2.77246094
7.70410156
1.24707031
-10.23632812
-1.42968750
-5.93261719
-2.90820312
-3.92187500
-0.45117188
2.06835938
-0.25097656
-1.00683594
-0.08691406
1.68847656
-2.05273438
2.07031250
3.64550781
0.20898438
-0.54785156
-0.08886719
-0.50976562
-0.44824219
1.59277344
-1.84765625
2.70996094
-0.55761719
0.03906250
-0.03320312
3.19335938
-1.40527344
-4.10351562
-1.34765625
-4.60058594
1.00683594
1.30957031
1.13183594
4.12500000
1.01269531
-0.11035156
0.89160156
-1.23437500
-0.57324219
-0.13964844
-0.51171875
-1.07812500
0.57128906
3.44726562
-0.07910156
-1.24804688
-3.81250000
3.59375000
2.16992188
-0.33691406
-0.30957031
-0.33203125
-0.71386719
2.46093750
2.44824219
-2.31933594
5.48242188
0.82226562
0.20800781
3.87011719
-0.27734375
-0.67675781
0.82617188
-0.11035156
0.34667969
-1.50195312
-1.74609375
-0.56445312
0.08203125
-2.36230469
-0.85937500
0.33496094
-0.12597656
-0.06250000
0.00878906
-6.56347656
4.50488281
5.08789062
0.70507812
0.06738281
-0.86328125
3.13671875
4.85351562
-1.05273438
-0.02148438
1.68945312
-3.80371094
8.61230469
1.42089844
0.51562500
-0.21386719
-0.19335938
-0.12207031
0.01953125
-0.38867188
1.99609375
0.99707031
-1.80175781
3.02148438
2.58593750
-2.12304688
0.44042969
3.32519531
-4.61816406
-0.56542969
1.82421875
0.72949219
-0.14550781
-1.09960938
0.92871094
1.21386719
0.39843750
-1.89843750
-3.32421875
1.65527344
3.32226562
-6.91015625
2.00781250
0.36425781
-0.21972656
-0.18261719
-0.03417969
0.42871094
1.02539062
-1.18945312
1.49414062
-0.57617188
2.82519531
-0.91015625
-3.37792969
4.45996094
-2.19726562
3.37500000
-0.80957031
-0.13281250
-1.42968750
-0.45605469
-0.27832031
0.12207031
-1.67871094
-0.28125000
-2.92968750
1.83007812
0.74121094
0.47656250
1.51855469
-0.08496094
0.20312500
-1.81835938
-1.02050781
0.16210938
0.39648438
-1.57812500
-1.47265625
-0.19433594
1.09277344
-1.70214844
2.19531250
1.50292969
1.45117188
1.68457031
-4.54589844
3.84960938
4.83593750
0.31152344
2.15527344
1.93066406
-2.87597656
-0.11523438
4.18457031
-0.57031250
-0.33398438
-1.49707031
2.16308594
-0.72363281
-0.34179688
-1.00000000
-1.53613281
0.68945312
4.05859375
0.81054688
0.49902344
1.06445312
2.57031250
-0.66503906
0.50781250
-0.26757812
-0.01953125
-0.67871094
1.76953125
1.16699219
-4.16308594
0.60156250
2.57812500
-7.92285156
-3.83691406
1.43457031
1.81835938
0.29980469
-0.42187500
-1.61425781
3.08691406
0.01953125
0.61035156
5.02832031
0.07714844
0.97265625
4.25488281
-0.72753906
-0.32617188
-0.66601562
0.67773438
0.43847656
2.56445312
0.05664062
0.55859375
0.59863281
-1.68359375
1.49609375
-3.88769531
-2.98144531
-3.64453125
0.17480469
1.06640625
-0.11035156
0.51074219
0.00976562
-0.28906250
-0.89648438
4.78906250
0.09570312
1.75195312
10.11035156
-2.41894531
3.09765625
3.10644531
-0.13964844
0.10449219
1.04882812
-0.46386719
0.37988281
0.18359375
-0.57617188
-0.43066406
0.52441406
-0.63867188
5.24609375
5.64257812
2.18847656
-3.94433594
3.45019531
-0.39453125
-2.69531250
-4.06445312
-5.77441406
-4.04199219
-0.54785156
3.27148438
1.15820312
-0.66992188
0.36132812
2.12597656
0.69726562
1.26367188
0.20507812
0.48242188
-2.28613281
-0.92382812
0.40332031
-0.50195312
-0.07226562
-0.20312500
-2.00683594
-7.07519531
-4.70996094
-5.41601562
4.21386719
-2.01171875
-5.23632812
0.19140625
3.58593750
3.45898438
6.16308594
1.56542969
4.82324219
2.77832031
1.81738281
-0.69042969
-2.08886719
-1.04394531
-0.33300781
-1.34472656
0.56054688
6.08984375
7.22558594
2.30859375
-0.38378906
6.33105469
5.29980469
10.89453125
1.75488281
1.36621094
1.51757812
-6.74707031
-1.11230469
1.78613281
1.99316406
-0.02441406
-1.14843750
1.79687500
-2.09277344
0.56250000
-3.96777344
0.57812500
0.58203125
3.90234375
0.83398438
-1.56835938
-0.01855469
-1.77246094
5.63964844
7.50781250
-1.66406250
2.27343750
3.48242188
6.12695312
5.01562500
10.78320312
1.70312500
-0.55957031
1.25488281
-0.52539062
0.32910156
0.81933594
-1.13964844
-0.08691406
-0.39746094
3.11230469
-1.52441406
-0.59277344
-3.78320312
2.01171875
-2.55468750
3.20312500
1.69042969
2.05468750
-1.38574219
-0.12402344
-0.15917969
8.15820312
2.29882812
1.25585938
-2.84960938
-1.70703125
-3.75390625
-3.01074219
-1.37597656
-0.36230469
1.98828125
-2.56054688
-0.77539062
1.85937500
0.29980469
-0.37890625
3.44726562
1.14160156
-4.53125000
-0.78808594
0.70117188
2.09667969
-2.18945312
-0.06738281
-2.20507812
5.61425781
0.59375000
-0.05175781
1.38964844
2.18066406
-4.89648438
0.73535156
-2.26757812
1.27832031
-1.09570312
-2.69042969
-1.06835938
-1.61425781
-1.11523438
-0.40234375
-0.95996094
-0.54003906
-2.25292969
2.78515625
-0.48339844
1.08398438
3.53808594
-0.26562500
-3.16015625
-0.12011719
-3.55175781
0.30957031
-2.46582031
-1.98535156
1.80468750
-0.11035156
-0.96875000
1.26855469
-7.59179688
0.32714844
0.28515625
-0.53125000
1.74804688
1.84765625
-2.08984375
-0.41601562
-0.36328125
-2.50292969
-3.18554688
0.54296875
1.57226562
-0.25195312
-0.98632812
-1.06445312
-0.58691406
-0.04101562
-3.13476562
1.76660156
-3.97363281
0.01074219
-7.44531250
-9.18261719
-10.19335938
-3.14550781
-6.15625000
-10.55273438
-9.96875000
-2.56054688
-2.93945312
-2.01953125
-7.18164062
-1.18652344
-2.38378906
-1.25195312
-2.33496094
-0.72753906
-4.29199219
-4.50390625
3.79199219
1.30957031
0.83886719
0.37597656
-2.24316406
1.80566406
-0.03808594
2.79199219
-2.25878906
-2.02246094
-2.84667969
-3.43750000
-3.15039062
-3.35253906
-1.85644531
-5.14257812
2.41601562
0.77734375
0.93652344
-1.30175781
-2.67187500
-2.50878906
-0.57910156
-1.74218750
-2.53613281
-0.77734375
-1.31835938
-0.74707031
2.54199219
-1.49218750
-2.90136719
-2.54296875
-2.41992188
-2.97558594
-3.78906250
-0.42382812
-0.35351562
-0.23828125
-1.17968750
-1.02050781
-0.54589844
-0.50585938
-0.12207031
-0.68066406
-0.77441406
-0.70605469
0.33593750
0.02343750
-1.39160156
-2.48144531
1.44335938
-0.33398438
-0.97167969
-1.09375000
-1.59472656
-1.75976562
0.63574219
-1.09570312
-1.44042969
-1.95410156
-2.82812500
-1.33886719
-1.39941406
-0.34375000
-0.92675781
2.45507812
1.46191406
1.60839844
0.83691406
0.75781250
0.90917969
1.01269531
1.62402344
1.31933594
1.70800781
0.44335938
0.38671875
0.06640625
-0.36035156
-0.39160156
-1.11816406
-1.24316406
0.38671875
-0.01464844
0.08203125
0.08300781
-0.20117188
0.37597656
0.96777344
0.94042969
1.07519531
1.74121094
0.30761719
-0.16699219
1.10546875
0.72460938
1.32031250
1.81347656
1.46972656
2.33105469
2.64160156
0.28027344
0.56542969
1.13964844
1.26074219
-0.23144531
1.03320312
0.47851562
2.27832031
0.57812500
0.81542969
0.68554688
0.73242188
0.64648438
1.37500000
0.16308594
0.57031250
1.35449219
0.54882812
-1.12597656
-0.59570312
0.50097656
0.88574219
-0.94238281
0.52539062
0.70117188
0.65136719
-4.60546875
3.82324219
3.35644531
4.21289062
1.92187500
-2.35449219
1.40234375
3.08691406
3.36816406
4.73339844
7.25488281
2.27050781
0.17089844
5.37109375
3.60742188
4.78808594
8.01855469
-1.91699219
0.96191406
0.61816406
-0.07617188
0.27832031
-0.08593750
-2.68945312
-4.09472656
-1.06152344
0.86035156
-0.02343750
1.10253906
-3.39648438
6.77539062
-0.34375000
3.04394531
2.28027344
2.89453125
-0.16308594
1.01855469
4.88964844
3.25195312
6.53613281
1.26171875
-1.96777344
3.19433594
-1.66210938
4.40234375
6.82324219
-0.16406250
0.17382812
-0.08203125
-3.68554688
-4.80273438
-0.09960938
2.54492188
4.27343750
1.43359375
0.66796875
1.62792969
-6.41894531
-5.11523438
3.27929688
4.99707031
-2.30468750
1.60449219
4.01269531
-0.92675781
3.84375000
-1.74023438
-0.18750000
2.92675781
4.39550781
4.50976562
-0.79101562
1.53125000
3.49902344
5.32910156
2.40527344
-0.54687500
0.21875000
0.44042969
-0.58789062
5.19042969
7.09863281
-0.52246094
-0.13867188
0.50195312
1.56738281
2.33398438
6.37207031
5.92187500
-2.96972656
-1.49218750
-5.82324219
-5.09863281
0.87890625
3.25585938
2.43164062
1.74121094
3.37304688
1.15820312
4.22460938
-0.68359375
-0.81542969
2.30078125
0.74902344
1.45703125
-3.18945312
-0.29101562
-1.09570312
1.11914062
5.70312500
2.54003906
3.03613281
-1.08496094
1.58300781
6.95507812
2.26171875
4.25097656
-1.01953125
-1.47949219
7.39746094
-2.96093750
-4.19824219
2.32714844
1.78808594
-0.50390625
0.36914062
-2.35742188
-0.24902344
3.87011719
-3.98144531
3.10546875
2.29687500
2.78808594
0.72753906
-0.74414062
3.27832031
-0.99023438
6.88964844
-1.18066406
2.98535156
4.33496094
0.33300781
3.30566406
0.52148438
4.97460938
2.85449219
-2.66503906
-5.44042969
2.58496094
2.87988281
0.85253906
1.81933594
3.70996094
-1.90527344
-1.80859375
-0.56933594
2.82031250
-1.72656250
-1.41406250
3.09082031
1.71386719
0.52929688
-0.23339844
2.22070312
-2.54882812
1.83886719
-0.76171875
6.48339844
1.54687500
-1.14453125
-0.00683594
-0.52734375
-0.58691406
-0.20605469
-0.29589844
2.06445312
4.17382812
3.77929688
-0.83105469
1.60253906
5.93652344
1.64355469
0.07128906
0.67480469
2.10253906
6.08789062
-0.62695312
-1.94140625
-2.26074219
-1.84472656
-0.17675781
0.09863281
0.41210938
-1.33007812
4.03613281
-3.36132812
0.12402344
-0.47558594
-0.50195312
-0.20898438
-2.29199219
-2.87304688
-0.03320312
-2.33789062
3.31933594
3.90917969
1.18457031
1.93652344
-2.74414062
1.46484375
-0.73242188
3.57128906
1.97265625
5.25195312
0.46777344
-1.97167969
-1.27441406
-0.66894531
0.03613281
2.32421875
0.61523438
-0.83007812
1.49121094
0.19335938
-1.08789062
-1.01953125
3.69726562
0.46679688
0.05761719
0.98730469
-1.54882812
-2.42089844
0.22363281
1.60449219
0.31445312
2.15625000
7.75000000
1.81250000
4.13183594
3.38671875
-0.29589844
5.31640625
0.33398438
2.16992188
0.61523438
0.41113281
0.12402344
-1.66992188
1.96484375
-4.53125000
1.47167969
-1.35253906
-0.29394531
-1.48144531
4.92285156
0.67285156
0.87597656
4.47753906
-3.53320312
-2.93261719
-0.02148438
0.77050781
-0.26562500
0.67968750
3.42968750
0.34667969
1.41992188
-1.65722656
3.35546875
3.79296875
0.10937500
-5.56054688
-3.20214844
0.24316406
0.12402344
-1.09570312
0.93847656
0.76074219
3.20703125
0.55664062
-0.11425781
-3.96289062
5.64160156
0.09570312
0.44140625
2.51660156
-1.87695312
-9.74316406
0.11621094
-1.62792969
-0.03222656
-3.09960938
5.24804688
-4.72167969
-1.27441406
-0.53515625
1.96093750
-4.00195312
-3.01464844
0.33984375
-0.25683594
0.24121094
0.17675781
0.12597656
-0.18847656
-0.73828125
-2.72753906
-1.33691406
-1.79003906
0.07421875
0.41894531
2.30957031
0.45605469
-2.18945312
4.19433594
3.77832031
2.28808594
-1.41308594
0.11230469
0.16992188
0.86523438
-0.73046875
-0.76269531
3.44628906
3.11621094
2.48632812
2.90234375
3.06835938
0.89453125
0.21777344
0.13671875
-1.13183594
-0.08105469
0.30468750
-0.33886719
1.56152344
3.46386719
2.16503906
-1.10351562
-0.09863281
3.32226562
8.53222656
-0.49121094
3.97753906
-0.57226562
-1.29687500
-1.00292969
0.39355469
1.31542969
2.94238281
0.68554688
0.29980469
0.43066406
-0.72167969
1.43164062
-3.80273438
-0.67089844
-0.57421875
0.04980469
2.71777344
2.80957031
0.86621094
0.52734375
1.06445312
0.16796875
0.38867188
1.56152344
-0.18066406
2.45996094
-0.32226562
-0.41015625
-0.28906250
3.28808594
-0.98046875
3.53417969
2.16601562
0.42480469
3.50976562
-5.09667969
0.95312500
4.66699219
0.90234375
1.39941406
-1.13281250
-1.21582031
-0.21679688
0.00683594
0.83691406
0.38574219
2.24707031
-2.33398438
-2.31738281
1.28125000
1.25976562
-1.59667969
-5.57324219
-0.91992188
0.63574219
-6.06347656
-0.62792969
-4.12304688
-0.95800781
1.51757812
-5.21386719
2.03808594
-1.86523438
2.96289062
-3.16796875
0.50585938
-0.57812500
-1.61621094
-3.84863281
-2.51757812
-1.10449219
0.90917969
-2.33691406
-0.08984375
-0.45410156
-1.63574219
0.21386719
0.32226562
0.89843750
-0.90917969
-1.42089844
3.28710938
2.13476562
1.42480469
-1.47656250
-0.78613281
-2.77343750
0.41992188
2.00488281
6.33300781
-2.94238281
-8.72363281
-5.29882812
-3.49804688
0.79589844
0.69042969
-2.04492188
-3.59472656
-0.23339844
0.82421875
-3.25781250
-0.09570312
0.18457031
-1.25195312
0.21191406
0.40136719
-0.65917969
2.29199219
-3.75683594
-2.63183594
1.47363281
-1.40527344
4.20117188
6.20214844
-2.80175781
4.25000000
-0.03417969
-4.05761719
-5.66308594
-1.91601562
-5.51269531
-2.38574219
-3.12988281
-3.24218750
3.61132812
-2.03808594
-2.46972656
-0.60937500
-1.55566406
1.75000000
2.55273438
1.79687500
-0.94238281
0.75585938
4.36132812
2.86328125
2.11230469
0.42187500
0.13378906
0.72070312
3.33496094
0.84570312
1.92187500
-2.40429688
2.78613281
-4.10937500
0.07519531
1.71972656
-0.18652344
1.64941406
1.96093750
1.96582031
5.26855469
-0.78515625
-4.12988281
-0.12207031
0.97851562
-1.13964844
0.11035156
4.19433594
-1.53417969
-2.20703125
2.02343750
4.48828125
0.46484375
-4.25683594
-2.73730469
-0.91015625
-0.00781250
2.67773438
4.43554688
1.70507812
1.95214844
0.92968750
-0.73437500
0.85742188
0.84179688
0.80468750
1.23437500
2.38574219
0.12207031
-0.09179688
-0.90625000
-2.17578125
2.86523438
0.92968750
1.09082031
2.38671875
-4.57226562
0.69140625
-3.12402344
2.29589844
-0.06835938
-0.79003906
-2.82519531
-2.43457031
-1.42578125
0.78125000
0.94628906
1.12500000
1.37988281
0.44628906
0.44824219
0.14941406
0.44531250
-1.91894531
0.39453125
1.40722656
4.53222656
-0.94335938
0.46777344
-0.54199219
0.84472656
2.03613281
0.06347656
0.01074219
3.36816406
2.64355469
-1.24804688
1.32128906
0.73144531
0.12500000
1.05273438
1.48535156
0.85839844
0.10644531
-0.55859375
-0.91796875
-0.06933594
-0.30664062
-0.32714844
0.46777344
-0.39746094
0.74511719
4.86328125
2.26171875
-0.16113281
-1.32617188
-0.43261719
0.12304688
3.43652344
-1.14160156
0.95214844
0.26660156
1.71386719
-0.07324219
9.53222656
-1.03613281
1.72753906
-0.91308594
1.96679688
1.53125000
0.33886719
-1.11718750
-0.07226562
-1.28320312
-1.25000000
0.56152344
0.58789062
1.57617188
7.10839844
6.44531250
3.36816406
-4.52734375
-0.74023438
-0.18554688
0.02832031
0.29492188
0.22851562
2.75390625
-0.92285156
0.12402344
-0.05371094
-3.84082031
10.12500000
-1.50488281
-2.08007812
0.42480469
-1.92578125
-0.15625000
1.45703125
-0.06054688
0.13867188
0.14355469
-0.20019531
-0.47851562
0.23535156
2.43847656
5.79980469
2.12207031
1.41113281
-2.31152344
0.50585938
-0.77343750
-0.11914062
-0.04882812
-0.49902344
5.93554688
3.60644531
-4.18359375
1.61230469
0.40234375
9.41992188
1.60351562
1.86230469
0.09082031
3.85351562
2.79492188
1.79492188
0.49902344
-1.09960938
-1.03613281
-2.33007812
-2.30273438
-4.82421875
-0.33398438
1.87304688
0.01171875
-0.47070312
-2.74707031
2.86035156
-4.66113281
2.00585938
0.66699219
1.88085938
0.75000000
2.18261719
-1.80859375
-1.26269531
1.89453125
4.40234375
3.98925781
2.80175781
0.97753906
1.19531250
1.24316406
3.47167969
2.90625000
2.55371094
2.51269531
2.90039062
5.63867188
4.43554688
3.31640625
1.36816406
1.37988281
1.21093750
1.36132812
0.97460938
2.69824219
0.07226562
0.04882812
0.18066406
0.29785156
0.58886719
0.47558594
0.54785156
0.86914062
0.84375000
1.54101562
1.48437500
0.47363281
-0.68750000
-0.75390625
-0.01171875
0.10839844
0.12597656
0.18164062
0.10449219
0.41113281
-0.38476562
-0.54589844
-0.41015625
-0.25585938
-1.73535156
-0.66796875
0.02343750
1.18164062
-2.66796875
-2.04882812
-1.32031250
-1.54296875
-1.14355469
-1.84863281
-2.03320312
-1.94531250
-1.83496094
-2.38769531
-1.41601562
-1.37304688
-1.39746094
-1.39843750
-0.85644531
-2.06738281
-2.94140625
-3.98632812
-2.62792969
-2.69042969
-1.92675781
-1.45703125
-2.72656250
-1.97167969
-2.67773438
-2.74707031
-5.00097656
-2.23339844
-0.72656250
0.21191406
3.59277344
3.16015625
4.95019531
5.06542969
5.15332031
4.87402344
3.84765625
0.97851562
1.62988281
4.40917969
3.36914062
2.00683594
3.90917969
2.08886719
4.69726562
4.48046875
3.40820312
2.37597656
3.86718750
2.00000000
4.09277344
2.63574219
4.34179688
4.34765625
-2.54394531
-0.95605469
-1.29492188
0.32617188
3.98339844
0.28808594
0.52050781
1.33398438
2.75781250
2.10449219
2.29687500
-3.90234375
-3.55566406
1.40722656
-1.86132812
-1.80371094
-0.23535156
1.42382812
-1.35839844
-3.30566406
0.92480469
-0.67968750
0.98632812
2.97265625
2.60742188
2.15039062
-0.70019531
-0.76757812
-4.99609375
0.78906250
0.24414062
1.72949219
1.55273438
-1.20605469
-1.07128906
3.71484375
2.03710938
-1.05078125
-2.77734375
5.07519531
0.71386719
-4.63964844
1.63867188
3.25488281
-4.02636719
-5.78222656
-6.62402344
-8.61132812
0.70800781
1.01269531
-3.83398438
-7.81640625
0.15820312
1.98925781
1.94335938
-1.85546875
-4.57128906
0.79003906
10.06054688
6.95898438
3.04394531
-3.17187500
-0.68261719
2.56835938
1.77148438
-2.62402344
-1.99707031
-2.59863281
-2.09082031
4.32714844
4.89257812
-1.75000000
-9.21679688
-4.57226562
-0.41210938
-4.53613281
-2.03417969
6.69042969
-0.41406250
-0.78808594
-3.58496094
-2.68261719
-3.45214844
-0.11132812
-1.90136719
0.05371094
6.50292969
0.06542969
-3.69726562
-1.19726562
-4.64843750
2.13769531
0.98632812
-1.58398438
-0.42968750
5.29589844
-6.47460938
-10.57421875
-14.73535156
-8.70605469
-10.02929688
-5.50097656
-5.42285156
7.13378906
0.16894531
1.00683594
1.36718750
-4.67578125
-4.32714844
-3.82226562
-2.94921875
-1.21582031
-1.99902344
0.16210938
-1.04882812
-3.45605469
-7.83300781
-1.54785156
0.71582031
10.17480469
5.95312500
1.57128906
1.57812500
-2.09960938
-3.70507812
-12.16601562
2.13671875
-2.33398438
5.33203125
1.79687500
-2.46777344
2.19921875
-1.14160156
-2.51269531
3.92578125
-1.61425781
-1.47949219
-8.64355469
0.05468750
-2.49902344
-2.30761719
-3.80371094
-1.92675781
-1.73828125
-8.13281250
0.55566406
-1.39453125
12.60839844
3.42578125
-5.62988281
-1.86035156
-0.78613281
3.23242188
1.10937500
2.04687500
-2.99414062
-0.80859375
4.18066406
1.31542969
-1.07031250
-0.81933594
2.68554688
-2.79101562
0.75878906
-3.34863281
-10.38085938
-4.15136719
-2.48144531
1.59570312
-0.62500000
1.16796875
0.94921875
-2.22265625
-1.28027344
-4.45800781
-1.15234375
-0.73437500
-1.52832031
-1.47363281
0.27050781
1.68261719
-0.35644531
-4.91992188
1.24414062
-1.87695312
1.78320312
1.09863281
-0.73730469
-0.46289062
3.47558594
0.02539062
-3.15136719
0.53320312
0.87109375
-4.58789062
-1.61523438
-7.55078125
1.66796875
-2.36718750
0.24511719
-0.01367188
-0.58300781
-1.09765625
-1.59863281
2.84765625
0.07031250
-1.33496094
-0.76953125
-0.17382812
-3.05566406
-1.45312500
0.16992188
1.43164062
1.72460938
0.12011719
1.48144531
-0.45117188
-1.48242188
0.07910156
-5.11132812
10.07421875
1.18847656
2.92773438
3.44042969
-7.54980469
-7.08886719
-0.41894531
0.00000000
0.47363281
-0.28808594
2.00390625
0.16015625
0.08691406
-4.11523438
0.16406250
-2.11132812
0.04980469
1.22949219
0.02929688
-1.93359375
2.39160156
0.25292969
-1.67968750
-0.15332031
-0.65234375
-3.15820312
-5.72265625
-2.14550781
6.38964844
-1.91210938
3.49804688
4.31835938
-0.33789062
-0.62011719
-0.49414062
0.07031250
0.70898438
-1.21191406
-4.13378906
0.88183594
0.05566406
-1.64160156
1.18750000
-0.21289062
-1.57617188
3.48925781
-0.08984375
-0.18847656
-0.29199219
0.20019531
-0.56054688
0.06933594
-1.20019531
1.67578125
-5.58300781
-0.04980469
-3.28222656
-2.55468750
1.74218750
4.22949219
-4.04687500
-1.67480469
-0.22656250
0.07031250
0.10546875
-2.14941406
-0.15527344
-2.05468750
1.32617188
-1.15429688
-2.15039062
0.70019531
0.04980469
0.18652344
-0.24902344
-2.88085938
-8.26562500
4.27246094
0.14355469
0.25292969
-1.54882812
-6.23144531
-6.86035156
-5.05468750
-0.33398438
-2.02929688
11.21289062
2.80078125
-7.41699219
-2.15917969
0.22363281
0.11718750
0.02050781
-0.52636719
0.41015625
-4.31933594
1.14941406
-2.15820312
-0.37207031
-0.55566406
1.73437500
0.40820312
-2.82128906
-3.39355469
-2.00292969
2.47949219
-1.28417969
-0.08789062
-1.12792969
-0.36816406
-3.73632812
-1.64941406
1.50488281
6.34179688
-0.42285156
-1.21679688
-12.83789062
-0.50390625
-0.49609375
0.12109375
-0.49121094
-0.47851562
-0.04003906
0.14160156
-1.83984375
-2.74511719
-0.49804688
0.74414062
-1.61132812
-0.81445312
1.89453125
-6.76562500
-1.26757812
-1.42480469
3.36425781
0.38085938
0.10449219
1.41992188
-1.52734375
1.88671875
-1.26855469
1.39160156
-4.85546875
-3.46582031
-9.39355469
-0.16015625
-1.89062500
-0.32324219
2.75097656
-0.81054688
0.57812500
-1.12402344
1.95214844
0.03515625
2.45410156
-0.48730469
0.60546875
-3.48535156
-6.75976562
0.46093750
-2.36523438
-0.89550781
0.68359375
-2.70117188
0.64160156
-1.66015625
-0.53125000
-6.55078125
-2.06347656
0.89257812
-0.17089844
-0.28320312
-2.09765625
-0.63378906
-0.25488281
0.09179688
-0.21289062
0.00878906
-2.00390625
-1.33398438
-0.39941406
-0.02148438
-1.59082031
-1.87109375
2.83496094
-1.52050781
-9.32031250
-3.96289062
0.26171875
-1.83105469
1.17968750
3.70214844
-6.75585938
-6.78710938
-2.65234375
-4.64355469
-3.73242188
1.32910156
0.06640625
-2.15039062
-3.38378906
-0.67578125
-1.49218750
-1.19824219
-3.19531250
0.14746094
-0.84863281
-0.91308594
-1.31542969
-0.14160156
-0.51074219
-0.59472656
-2.90039062
-1.04980469
-1.86523438
-1.71972656
-4.62988281
-3.49316406
-2.39160156
-3.31835938
-0.13574219
3.91699219
-2.09082031
-2.86523438
-0.76464844
-5.28613281
1.96484375
-1.61132812
-2.77929688
-3.45605469
-0.73242188
-2.88378906
-6.12109375
0.87402344
-2.62988281
-1.58203125
0.06445312
0.07128906
1.87792969
-2.33789062
-4.22753906
-1.92675781
0.43750000
-0.20019531
-2.38867188
-2.38867188
-2.71386719
-1.96093750
-3.58300781
-5.20312500
-6.19726562
-1.72460938
1.47851562
4.32617188
5.72949219
2.16992188
-3.34082031
-3.38867188
-0.00488281
-1.91406250
-2.10742188
-1.70507812
-0.74902344
2.49316406
-0.05468750
0.06640625
-0.01269531
0.78320312
-1.86132812
-2.12988281
-2.00976562
-1.88964844
0.71093750
-2.32421875
2.10644531
-0.49804688
2.90917969
-2.60546875
-1.20703125
-1.01171875
-2.90722656
0.58886719
-4.45117188
-3.47851562
-4.57519531
-3.47851562
0.92382812
0.30078125
-0.29589844
0.76367188
-0.10058594
2.63867188
0.68261719
3.17089844
-0.57128906
-1.68261719
-2.40527344
-8.51953125
-8.36621094
-15.93847656
-12.14648438
-6.35058594
-0.46093750
-2.34179688
0.71191406
-0.33789062
-3.36816406
-0.71777344
-0.55761719
0.31640625
1.16308594
-0.44335938
-1.60937500
-0.38964844
-6.37988281
-7.33398438
0.06347656
-1.66406250
0.95214844
-1.26855469
5.39746094
1.21289062
-10.10351562
-2.95605469
-6.35253906
-5.66894531
-5.36523438
-5.04296875
-4.14550781
-0.55664062
-4.29394531
-1.72949219
0.32324219
-0.69433594
0.68847656
-0.01269531
0.79785156
-0.11230469
2.04980469
-1.27636719
-2.09960938
-0.89355469
0.02734375
-4.11718750
-3.54101562
-2.83789062
0.47851562
0.13085938
0.04785156
-2.15234375
-2.89453125
-3.16406250
2.33105469
0.13183594
3.36132812
-0.52539062
-1.29980469
-0.08691406
-2.59863281
-1.13085938
0.54296875
-1.93554688
-0.18554688
0.65429688
8.36035156
0.63769531
-1.78417969
-1.56640625
-3.16503906
-1.17480469
0.07421875
-1.21289062
-1.85546875
-5.51953125
0.10937500
-0.01953125
-1.77539062
-2.28906250
0.72753906
-0.29492188
2.12597656
-3.37792969
2.43945312
4.67675781
2.78417969
0.19433594
-1.30664062
-1.86914062
-1.06835938
-0.79296875
1.47753906
1.88281250
-5.23535156
-5.35742188
-3.39257812
7.85644531
0.34277344
-3.82226562
0.61132812
-0.34082031
2.01562500
-2.62988281
-1.15722656
0.07031250
-1.61035156
-1.70605469
-0.24511719
-0.61914062
-1.58203125
-1.67187500
-3.20214844
-0.69042969
1.33105469
-1.40039062
0.12207031
0.50878906
-1.61523438
0.42480469
3.27832031
-1.25878906
-1.24902344
-1.69335938
-0.14746094
2.45605469
-3.72558594
-4.51074219
0.31640625
0.35449219
3.92968750
9.90332031
2.13476562
-13.12500000
-3.84277344
-3.05957031
4.89746094
0.50488281
0.83203125
-1.46386719
2.14843750
2.47851562
1.07031250
1.04199219
-0.36914062
-1.28808594
-1.61914062
0.19726562
-2.73632812
-4.75976562
0.29199219
0.84179688
0.35253906
-2.98828125
1.17382812
-1.77441406
0.70019531
2.47363281
1.36132812
2.07421875
2.13964844
-3.12792969
-3.74609375
3.19433594
-2.26074219
-3.22167969
-2.76660156
0.47460938
1.77343750
1.39843750
-0.61425781
0.67285156
1.69628906
0.41406250
-0.25781250
0.15332031
-0.72460938
1.31640625
1.12988281
2.04687500
1.95898438
-0.59667969
1.23730469
-2.15527344
-0.24023438
-1.51660156
-1.76660156
-2.61914062
-2.62304688
-2.44628906
-2.62597656
-2.18652344
-2.27636719
-2.38964844
-2.20410156
-3.23730469
-4.04882812
-5.07421875
-5.59082031
-2.47070312
-1.32812500
-1.57226562
-1.60449219
-1.24218750
-1.21972656
-0.00781250
-0.18066406
-1.23925781
-4.61914062
-1.75878906
0.32031250
-1.39648438
1.90625000
2.67773438
0.41015625
1.43652344
0.44824219
1.10058594
0.88476562
0.96777344
1.11621094
0.94628906
0.54687500
1.07324219
1.63378906
1.32617188
1.74609375
1.88671875
2.01953125
1.58789062
1.87109375
1.64355469
1.39453125
0.43750000
1.44238281
1.60449219
1.84863281
2.72167969
0.53906250
3.39062500
-0.99707031
-0.19140625
0.01757812
-0.23144531
-0.09277344
0.63671875
0.47070312
0.45898438
0.01660156
0.11230469
0.57226562
0.26855469
0.54687500
0.33105469
0.47851562
0.35351562
-1.89941406
-0.07617188
0.85742188
0.50585938
0.60351562
0.01855469
-0.15234375
0.91992188
1.40722656
0.24511719
-2.42089844
-1.20996094
-3.47265625
-0.56054688
-2.08593750
-0.30371094
0.05371094
-2.28906250
-1.92675781
-1.62304688
3.15136719
-4.83496094
1.72167969
3.62011719
2.14746094
0.41113281
1.44335938
0.83398438
-4.51855469
2.95800781
1.85546875
2.78808594
5.92675781
2.83007812
3.56835938
5.85058594
0.71972656
-0.54101562
5.62207031
1.33300781
-5.66503906
0.23535156
1.47949219
1.26562500
0.00976562
-2.77441406
-1.65332031
5.24414062
-1.91796875
-6.05859375
-2.56933594
-3.93359375
1.62597656
0.07812500
-0.54199219
-2.81054688
-6.31054688
-0.03320312
-1.53417969
-0.87597656
1.00878906
-1.33398438
-2.20214844
4.48730469
6.06933594
0.43554688
2.00292969
1.04199219
-4.07421875
1.29101562
-1.85937500
-0.48437500
-1.67968750
-0.13476562
-0.74707031
3.57617188
-2.40429688
4.68945312
-5.96093750
-4.53125000
1.59082031
-1.19921875
-12.78222656
-8.55273438
-4.16992188
2.04687500
-4.96484375
-3.55273438
-2.35058594
-3.76074219
0.65039062
-1.97656250
6.07617188
5.71972656
1.93359375
0.90527344
2.46777344
5.08496094
3.28613281
-6.22167969
2.00292969
-2.57519531
-0.04687500
-0.34179688
2.95214844
-0.59082031
-1.92578125
-11.26660156
-13.69140625
-9.22460938
-3.25781250
-4.98535156
-1.95898438
-7.11718750
-3.21972656
-6.68554688
-1.83300781
-3.25976562
-0.09375000
-3.30468750
2.07617188
8.65429688
-1.66601562
-1.95410156
-0.18750000
1.76562500
0.79296875
1.19042969
4.64941406
1.49121094
4.54101562
0.81054688
-0.55761719
2.79101562
-0.73242188
5.30566406
-3.49316406
-5.79394531
-1.10351562
-1.11328125
-0.39550781
-1.67773438
-4.74902344
-7.51855469
2.75976562
0.67089844
3.43359375
4.07617188
-1.53125000
1.81835938
1.24609375
-1.70703125
-0.93457031
0.87402344
9.10742188
-4.95800781
-11.24609375
2.01171875
4.76464844
2.55371094
-1.93066406
-0.87109375
-4.16210938
-1.06347656
-7.96972656
-2.85449219
-4.54394531
-1.89257812
-2.52734375
-2.40625000
0.90234375
-1.08203125
-4.60839844
-3.45703125
5.67285156
6.35253906
-0.26367188
0.36523438
5.53027344
-2.59277344
-0.26757812
0.06738281
4.45507812
-1.11816406
-2.44726562
-0.65429688
0.07128906
-0.96289062
-0.66796875
-0.33203125
-0.80566406
-1.67285156
-3.67187500
-3.93164062
-0.24316406
2.02148438
0.45507812
-1.45410156
-0.59667969
-0.62109375
-6.42285156
-1.27734375
-2.12890625
4.10742188
-3.01562500
-2.84570312
0.64843750
1.49707031
-1.02246094
-0.57910156
0.14355469
1.08300781
-2.26464844
-0.13183594
-0.50292969
-0.12011719
-0.63183594
-1.57226562
-0.88476562
0.26757812
-5.94921875
-0.15625000
-3.01757812
0.66894531
-1.52343750
-1.51269531
-0.68261719
-2.55957031
-4.28320312
-2.16113281
-2.36621094
3.08398438
-0.36425781
0.61621094
-6.90820312
0.11816406
-3.88769531
-0.01464844
-0.32519531
0.24121094
-2.79101562
-4.24902344
-3.38476562
-1.91503906
-0.51855469
-2.27832031
-0.38964844
-1.16699219
0.82617188
-1.29296875
-0.75000000
-0.46972656
-0.92871094
0.78710938
-1.01855469
-5.43945312
-4.28710938
-5.99023438
0.76269531
3.64746094
-4.37597656
-0.48242188
-11.83300781
1.89453125
-1.08007812
-0.12011719
-1.55078125
2.52148438
2.68261719
-1.55566406
0.61718750
-0.98144531
-0.46484375
-1.54785156
1.09179688
-3.15820312
0.64550781
-0.88378906
-1.59667969
0.13574219
-0.69433594
-0.10058594
-0.02832031
-9.08203125
-1.58398438
0.54882812
-5.25976562
2.60253906
-5.94824219
-2.06542969
-6.60937500
1.27539062
-0.21093750
-0.12011719
0.76855469
-0.19628906
2.36035156
5.83593750
-0.24414062
1.78320312
-3.17773438
-2.01074219
-0.17773438
-0.10351562
-0.70214844
4.05957031
-0.97265625
-2.68164062
-0.91699219
0.30957031
-1.95410156
-0.79980469
-1.80371094
2.30078125
0.35937500
-1.59765625
-9.67675781
-2.60156250
0.99804688
0.38769531
-0.22460938
-0.12402344
-0.16113281
-0.34472656
-0.62207031
-0.57324219
-0.29589844
1.55175781
-1.39843750
-0.18945312
-4.33691406
-3.83984375
1.80175781
4.94726562
1.10058594
-1.69140625
1.18750000
-0.18457031
1.58203125
0.44433594
-4.06347656
-1.91015625
-3.36621094
-4.98144531
-5.15820312
-4.91601562
-0.19824219
-1.26953125
2.47070312
-0.12988281
-0.10058594
-0.02246094
-0.30175781
-1.88769531
3.22851562
3.11718750
3.35937500
0.54296875
-2.14648438
-3.41308594
1.42382812
-0.12988281
1.68750000
1.44433594
-1.47265625
1.76367188
0.51855469
-1.36230469
-2.45703125
-1.65527344
-0.69140625
-1.77050781
3.64941406
-1.37304688
-3.65332031
-1.29687500
1.29101562
-0.08984375
1.72460938
1.89453125
-0.55175781
1.31835938
-2.40234375
1.58593750
-2.09765625
0.78613281
-5.28613281
-0.38769531
2.24609375
-4.19628906
-1.87109375
0.76855469
2.25488281
-3.11425781
-1.89941406
-1.18554688
-2.56054688
3.44824219
0.93261719
-4.16992188
-0.62304688
-5.36621094
-1.21484375
-1.22851562
-0.25585938
-0.12792969
1.63574219
1.50488281
-2.72558594
-0.01757812
0.28417969
0.29296875
-3.90820312
-3.93164062
-4.59375000
2.02636719
5.00000000
4.13867188
-0.57324219
-0.77246094
0.09472656
-0.85937500
2.14550781
-3.84765625
-0.05078125
1.54687500
-0.23828125
-0.78515625
1.22656250
0.12011719
-0.72558594
-1.88183594
1.32421875
-1.27343750
-1.80859375
0.05078125
-3.73925781
-1.42773438
-1.74804688
0.22753906
0.86621094
-0.12304688
5.40136719
4.76562500
2.37890625
2.51953125
4.07421875
3.23828125
2.34179688
1.39257812
-3.99609375
-1.61132812
2.15917969
4.25781250
1.33105469
5.51660156
3.18652344
4.55175781
3.30078125
-4.82519531
-0.51757812
2.96289062
3.50097656
-0.76660156
-1.09960938
-0.82812500
-0.09082031
-0.58496094
-0.94042969
3.87011719
3.73242188
2.35156250
-0.10449219
-0.09570312
-1.30761719
-2.29687500
1.27148438
-6.56835938
-8.29296875
3.44628906
5.65429688
5.12304688
3.49121094
1.15429688
0.22656250
-1.34082031
-3.04492188
-5.27539062
-1.05566406
-1.57617188
-1.94921875
1.71386719
1.77539062
-0.49609375
-0.16894531
-0.68457031
-1.35546875
-3.17968750
-0.84179688
-1.54687500
-1.21972656
-1.78515625
-0.82910156
0.24902344
-1.98242188
-0.03125000
-0.46972656
4.49609375
1.62988281
-4.03222656
-2.47070312
-5.07031250
-8.49609375
-6.89648438
-14.02636719
-6.62304688
3.41601562
1.50781250
1.31054688
-1.84375000
-0.10156250
1.97851562
-1.42675781
2.81640625
1.25390625
-5.97851562
-3.16503906
-1.20312500
-1.93359375
-7.96777344
-4.43457031
-3.17187500
-4.56347656
-1.68554688
-1.35644531
-2.63183594
-1.67578125
-1.91699219
-0.68750000
-0.64648438
-1.07324219
-2.84765625
-4.16894531
-0.93457031
1.44433594
5.36914062
-0.32128906
0.69042969
-0.43359375
0.26464844
2.73339844
1.27441406
1.06250000
-3.43652344
-2.56835938
-4.80761719
-3.18164062
-5.16894531
-4.68359375
-1.53222656
-3.07031250
-3.28808594
-1.15332031
-1.23242188
0.03125000
-0.69921875
-0.90234375
-0.54785156
-1.82910156
-0.23925781
2.94140625
-3.41210938
-1.71191406
0.69726562
1.28613281
-0.01757812
0.79296875
-0.06933594
1.81542969
-1.52832031
-2.57714844
0.32226562
-3.29687500
-1.72851562
0.16894531
0.56347656
-0.16210938
-0.83789062
-2.12207031
-2.04199219
0.24121094
-1.04394531
-0.52343750
-0.22753906
0.61328125
-1.72167969
-1.44042969
0.04882812
-0.26562500
-3.19921875
-1.21191406
0.38378906
2.39843750
0.92773438
0.38769531
-0.02636719
0.41992188
0.35156250
-4.41308594
-0.29980469
-4.10546875
-0.11425781
2.49023438
0.15429688
-0.79492188
-0.88085938
-0.61914062
-0.52246094
-0.06445312
-0.17187500
-1.04785156
-0.85546875
1.34472656
-0.83203125
-0.19238281
2.92089844
-5.12011719
-2.52734375
-2.35156250
-0.42675781
-0.45996094
1.05468750
0.06542969
-0.12011719
-2.26171875
0.47070312
-1.57324219
1.06152344
-0.52929688
2.03808594
-0.86425781
2.12011719
-1.23632812
-0.57324219
-0.02832031
0.51269531
-0.11914062
1.15917969
-0.49218750
-2.66015625
-0.70410156
0.11328125
1.82617188
2.01757812
3.65039062
-1.19042969
-2.10742188
-0.17089844
-1.15039062
-1.76074219
0.34570312
0.69238281
0.98632812
-3.65136719
1.94238281
0.69921875
0.26660156
0.03613281
1.44042969
-0.51171875
0.62695312
0.79101562
0.51953125
-0.54101562
-0.54492188
-0.51171875
-2.53027344
-4.59179688
-2.40039062
0.09863281
-1.02636719
0.41796875
3.77832031
-1.63476562
-0.25488281
1.94140625
0.26660156
1.31054688
-0.34179688
0.92285156
-0.30664062
3.49902344
1.67285156
4.05566406
3.05175781
1.37695312
0.66894531
0.64843750
0.45019531
0.92675781
-0.90820312
-0.01171875
-0.75878906
1.96191406
0.59375000
2.20605469
0.80761719
1.00292969
1.24218750
-0.34472656
1.04589844
0.22949219
-0.53710938
-1.77832031
-2.71972656
-2.54492188
-2.91308594
-2.69433594
-3.61621094
-1.75390625
-1.57128906
-1.53027344
-1.24218750
-3.05078125
-2.82519531
-3.00878906
-4.36132812
-3.21191406
-2.88867188
-2.50390625
-2.24023438
-0.94042969
-1.36621094
-0.72851562
-1.45703125
-1.95312500
-3.74902344
-1.92187500
-3.47949219
-2.33496094
-4.48828125
0.49023438
-1.77343750
-1.28417969
-2.02343750
-2.17285156
-2.17578125
-2.29589844
-1.58886719
-1.81835938
-1.98242188
-2.61523438
-2.09960938
-1.84375000
-2.14160156
-2.64355469
-3.18261719
-4.46484375
-3.24023438
-3.62011719
-3.41699219
-2.60449219
-2.82714844
-2.27148438
-3.46582031
-3.57910156
-3.58789062
-2.84960938
-1.23730469
-1.49121094
-0.79785156
-1.40625000
-1.35156250
-1.17871094
-1.41015625
-1.12695312
0.26269531
-0.00781250
0.33496094
-1.37792969
-2.06542969
-2.22851562
-2.21386719
-0.61621094
-2.10253906
-1.08984375
0.79101562
0.30468750
-1.69824219
-2.07128906
-2.28027344
-2.61035156
-0.93652344
-1.34375000
0.31933594
-1.54687500
-1.77929688
0.15527344
1.65527344
0.11035156
-0.05761719
0.17773438
-1.35449219
15.16699219
5.37500000
2.14746094
-5.88085938
6.86718750
0.98730469
-0.30859375
1.96289062
3.36230469
7.05566406
-2.42578125
2.89160156
-1.12402344
1.61230469
2.67089844
0.70410156
-0.07226562
-2.17773438
1.27734375
2.88769531
-1.44824219
-2.82812500
0.42675781
2.06152344
1.43457031
0.55371094
1.73828125
-1.68359375
5.46679688
-6.91503906
-1.37402344
-2.81933594
-2.75097656
-4.21679688
2.78125000
2.10839844
3.19921875
-4.10253906
-2.83300781
3.86328125
0.70605469
2.89062500
12.70214844
-1.04980469
3.28906250
1.01757812
-1.03222656
3.41601562
-2.88476562
-5.64746094
-6.68554688
1.82617188
-3.57812500
-2.92773438
1.37500000
-1.34667969
3.30761719
-5.76074219
-5.36718750
2.99609375
-2.06445312
-2.12109375
0.58007812
7.23242188
-0.44238281
-0.71093750
1.23144531
-0.19042969
4.72656250
2.18554688
3.55175781
5.03613281
4.96679688
-1.50097656
-2.16796875
-1.72070312
-2.59765625
0.90722656
-2.21875000
7.80761719
-1.24414062
-0.74218750
0.07812500
-0.14648438
0.37597656
-2.57324219
7.07910156
0.48632812
8.23144531
-1.45996094
-5.02441406
9.80761719
-7.67773438
-5.17968750
0.68457031
-1.13281250
-0.41894531
-3.05175781
2.10937500
5.47753906
14.71386719
-1.43652344
-1.04589844
-3.26269531
-1.01464844
4.68652344
-3.17578125
2.43750000
-0.00390625
4.19140625
3.85156250
8.25976562
13.56640625
6.06640625
9.54492188
-5.48925781
7.76953125
-4.85351562
-7.77343750
9.26269531
-3.56054688
-7.44824219
1.83496094
-2.71484375
-6.27539062
-2.83007812
-0.52343750
0.11523438
9.66796875
-1.70800781
2.77246094
0.75683594
-5.61230469
-2.74511719
-1.95312500
-0.97949219
-0.04394531
1.76562500
9.40820312
6.63769531
-0.58105469
1.08789062
-3.96484375
1.39355469
2.04296875
0.03027344
-4.16796875
2.98632812
1.30664062
5.07519531
1.02050781
-0.01855469
-3.45800781
0.19531250
-0.43652344
-3.74023438
7.35058594
6.36621094
-1.89160156
2.86621094
-0.78906250
0.01269531
-0.46777344
-0.59082031
-0.28222656
-1.08593750
1.17382812
-1.79785156
-1.79296875
-0.60937500
-0.03222656
1.20214844
-0.17871094
-6.65429688
-2.98632812
3.85937500
11.07324219
1.99902344
1.07519531
1.62109375
-2.23925781
-0.92480469
-3.49121094
-2.62402344
1.53906250
2.86035156
-2.03320312
-3.03515625
1.78222656
1.30664062
-0.26660156
-0.21777344
-0.48925781
-2.32812500
-1.05371094
-6.18750000
-0.12207031
-0.37207031
0.18554688
-0.79003906
0.41503906
-6.74316406
1.05761719
0.65039062
-0.10058594
-2.14550781
1.29589844
1.30078125
-0.46386719
0.40429688
-7.56835938
1.44921875
0.94335938
3.22851562
-1.59375000
-6.08007812
-3.08398438
-0.53125000
-0.24511719
-1.81738281
0.62402344
1.73632812
3.84082031
-0.78613281
-0.67187500
-0.01855469
3.87988281
-0.17089844
0.26855469
-1.45312500
-0.99511719
1.30761719
-2.34179688
-1.59863281
-0.35058594
2.66601562
8.18164062
3.52246094
1.14746094
4.23242188
0.92675781
6.86425781
-3.16796875
4.16308594
-2.52343750
0.65625000
-0.12207031
0.91699219
1.56250000
-2.22558594
-2.34960938
-0.60449219
-1.22167969
0.81152344
6.31542969
-0.64160156
0.35058594
-0.77636719
-1.06933594
0.80957031
-0.19824219
-1.13281250
-0.25781250
0.38378906
-2.87304688
-2.04492188
5.72265625
-1.63574219
0.19042969
2.75976562
0.22949219
5.25000000
-4.46289062
0.81640625
-0.12207031
0.81933594
-0.61621094
0.51953125
-2.11328125
-0.13085938
0.05175781
-5.43164062
-0.52050781
0.02734375
0.37988281
1.96191406
-3.90820312
0.54882812
-0.81445312
-1.37988281
0.25195312
-1.75878906
-1.22656250
-4.13769531
0.69140625
0.95019531
2.39648438
3.93066406
-0.20507812
0.62109375
-2.66699219
0.05371094
-0.11718750
-0.13378906
-0.17675781
-0.14355469
-4.76660156
-1.19238281
-4.86132812
-0.28808594
-4.49511719
2.83007812
1.37109375
-6.72363281
2.11132812
5.05664062
2.39257812
0.66015625
-0.18066406
0.15820312
1.55468750
-0.77148438
0.18554688
1.85937500
-1.59765625
5.63378906
-3.58593750
-0.42187500
-2.08007812
-0.51269531
-0.15039062
-1.40234375
-0.34667969
0.63281250
-0.72558594
-1.65527344
-5.06445312
1.32519531
-2.89453125
0.62109375
0.34765625
8.46777344
12.17480469
2.17578125
-4.92285156
0.11132812
-0.85937500
-0.40136719
-0.63671875
5.13867188
1.00585938
1.70507812
6.49511719
7.09277344
0.29101562
3.68652344
-2.26660156
-0.63378906
-0.09277344
1.39550781
-0.13281250
-0.61816406
-0.15917969
0.21191406
-1.64257812
-1.60839844
-1.81152344
-0.96582031
2.21777344
-0.45703125
12.45703125
-0.43164062
0.66308594
1.09082031
3.78808594
-0.05566406
1.23144531
2.00390625
0.04882812
-0.90429688
-0.86328125
0.37792969
1.68164062
1.83691406
-1.06445312
-0.49609375
-0.53222656
-0.67187500
-0.96093750
-0.58886719
-2.45019531
2.12109375
0.51367188
-1.29394531
-3.34570312
-1.24023438
1.51171875
-4.51562500
1.40527344
-1.78808594
-2.77929688
1.41015625
-0.56054688
1.37890625
3.42285156
1.76464844
-3.13574219
-2.81445312
2.43359375
1.10937500
2.97851562
1.48339844
-0.56640625
-0.28906250
-2.16699219
0.84570312
-0.18847656
0.51074219
-2.40527344
-0.04394531
-0.40429688
-0.77148438
-0.30273438
-1.94433594
2.37890625
-0.09082031
1.10449219
-0.57617188
-2.07714844
-0.13476562
1.68652344
1.66992188
2.85937500
-2.72558594
-7.39941406
-9.27343750
-4.99414062
0.03906250
-1.84277344
-2.51269531
-4.96582031
-1.00585938
0.36816406
3.23339844
-0.01855469
1.52734375
1.10156250
-0.15136719
0.67382812
0.95703125
-0.40722656
-0.53906250
0.39257812
0.58691406
-1.15722656
0.84570312
-0.59960938
-1.84667969
4.53515625
-2.37500000
-0.35937500
-4.57519531
1.45703125
-5.63671875
-1.17480469
-0.22167969
0.10546875
2.61132812
-2.15332031
-3.04980469
-1.50292969
-2.02832031
-1.53906250
1.36523438
0.48632812
-0.12500000
1.09472656
3.09863281
2.65527344
-0.69628906
1.27636719
0.55273438
1.09667969
3.06738281
4.96972656
1.73535156
3.41992188
2.72753906
0.76855469
1.66601562
5.20410156
2.98339844
2.26269531
1.20996094
3.07421875
4.55468750
-3.20117188
-2.84765625
1.09375000
1.22656250
1.45410156
-0.16015625
-0.72558594
0.58203125
-2.10742188
-1.91796875
-0.98046875
-1.40722656
-0.23339844
4.56933594
8.08300781
9.79882812
10.40722656
0.84375000
0.97070312
0.34570312
0.43750000
-0.64160156
1.18554688
-0.52539062
-0.47265625
0.23437500
3.15039062
3.83300781
2.39257812
1.79980469
1.92871094
1.96875000
1.11328125
-0.32812500
-4.66210938
-2.57226562
2.68261719
-3.56542969
-1.59375000
0.90722656
-2.50292969
-1.46191406
-1.06933594
-0.68750000
0.91796875
0.21191406
-0.70214844
1.43554688
-0.34765625
-0.35449219
-1.10058594
-0.28222656
-0.57421875
1.88769531
0.75195312
-1.47656250
-1.95117188
-0.98925781
0.04101562
2.01562500
-3.46093750
0.88867188
-0.02441406
2.29101562
2.99804688
-3.57324219
1.60546875
2.54199219
1.73730469
1.36621094
-0.80371094
-2.58691406
-3.17382812
-5.01464844
-2.46777344
-1.35937500
-2.30566406
-0.88574219
-0.20214844
7.22460938
5.50683594
1.70996094
-1.36230469
1.67675781
1.10742188
-0.05859375
-1.43847656
6.55371094
-0.10742188
-1.00292969
-0.30371094
-2.15722656
-0.95605469
6.27734375
-0.66406250
2.27734375
-1.13671875
-0.42285156
1.45507812
2.94433594
0.16796875
-1.45117188
-1.89453125
-2.00000000
-0.58007812
0.02734375
3.97460938
9.10156250
3.23925781
-6.62695312
-2.24023438
5.77050781
3.87890625
0.94921875
0.41894531
0.04882812
3.99609375
0.53222656
-0.12207031
0.74511719
-1.33300781
4.75390625
-0.53906250
-0.98339844
0.72558594
0.49316406
2.41308594
1.82617188
-0.57128906
-0.04492188
0.48730469
-0.11816406
-1.85839844
5.40136719
6.71191406
1.47558594
-1.84863281
-1.99414062
4.01074219
2.57910156
-0.67773438
0.40039062
-0.19824219
-0.46875000
5.54785156
8.55957031
-0.63281250
0.62011719
1.34472656
7.20214844
-0.86132812
1.06152344
-0.20410156
4.01757812
6.10351562
5.77832031
0.41113281
0.41796875
-0.89062500
-0.96484375
1.23925781
6.99023438
-0.99609375
-2.49414062
-0.09765625
0.10546875
2.78222656
-3.81640625
-2.48730469
-0.03125000
1.01171875
2.73242188
1.59375000
2.77539062
3.04101562
-0.56933594
3.13476562
6.25488281
7.05175781
4.50781250
1.20214844
-0.17187500
0.59765625
4.02734375
1.86621094
4.47753906
2.27246094
1.41992188
1.33007812
-1.14355469
-0.11718750
-0.87304688
-0.20703125
0.37109375
-0.58691406
-3.03710938
-0.27734375
-1.00000000
-1.20410156
-2.64355469
-3.10058594
-2.02148438
-2.83203125
-2.97070312
-3.74121094
-3.50390625
-2.82519531
-1.49121094
-1.71093750
-3.39160156
-4.10937500
-2.94726562
-2.63378906
-1.62500000
-2.30175781
-2.19335938
-2.85253906
-1.31640625
-1.09765625
-0.61328125
-1.99218750
-1.67675781
-1.38183594
0.05761719
-1.28808594
0.16308594
2.17675781
0.81054688
1.08300781
0.32812500
0.90332031
0.47753906
0.60156250
0.45605469
0.25585938
0.96484375
0.77050781
1.29980469
0.51953125
1.41113281
1.34375000
1.62402344
0.25976562
1.05078125
0.90820312
1.01757812
0.83007812
1.10937500
1.62988281
1.42675781
2.33300781
0.09960938
3.91210938
-1.00683594
-0.14746094
-0.92285156
0.06152344
0.08984375
0.60546875
0.29882812
0.11914062
-0.84570312
-1.34863281
-1.19042969
-1.43164062
-0.65722656
0.55664062
0.13964844
0.82910156
-1.30859375
-0.38769531
-0.47363281
-0.59375000
-0.50781250
-0.39843750
-0.99804688
0.17871094
0.04003906
-0.28320312
-3.44921875
-0.22753906
-3.37207031
0.17480469
0.45605469
-2.02050781
1.11816406
-1.20019531
-1.04687500
-3.39648438
8.38281250
0.76757812
2.97265625
3.57519531
3.37402344
1.56250000
8.02148438
10.06250000
6.68359375
2.77148438
6.50097656
7.14257812
9.30957031
5.20214844
4.43164062
5.19433594
-1.45117188
-0.44726562
0.67773438
3.61132812
-5.05664062
0.40917969
0.37304688
-4.17871094
-2.08203125
-2.00390625
-0.47558594
-3.21972656
-3.13769531
-3.54589844
-3.34765625
-4.90917969
3.95898438
6.29199219
8.29492188
5.50000000
-8.57128906
-5.54589844
1.29394531
0.39257812
4.11914062
4.00097656
0.05078125
7.03515625
7.19921875
-0.42089844
1.61132812
2.52929688
-3.63574219
-0.75390625
4.17480469
0.12207031
-0.70605469
1.24609375
-0.12988281
-0.39648438
-5.28222656
2.62695312
0.78125000
-1.45019531
2.34375000
0.67089844
-14.44042969
-10.61132812
-4.14160156
-1.61914062
-2.67285156
-1.69238281
-0.85937500
-3.92968750
-3.17480469
-3.07031250
5.12500000
3.50097656
2.20605469
1.83691406
4.47949219
5.16503906
1.14257812
-4.93066406
0.67480469
-3.63671875
0.17089844
-0.83007812
1.98046875
0.45312500
-0.54882812
-7.32714844
-16.82812500
-15.89648438
-10.32421875
-5.08789062
-1.16796875
-1.61816406
1.40039062
-8.07226562
-3.06054688
-2.70410156
1.65722656
-7.90722656
-1.47460938
4.55371094
-2.33984375
0.30566406
1.41992188
-0.43750000
-3.85156250
2.51855469
-1.09472656
-1.94042969
5.01367188
6.56054688
7.63574219
10.50292969
-0.17871094
1.75488281
-1.47753906
-8.99414062
-0.07421875
-2.99902344
-2.65820312
0.27832031
-7.15625000
-6.79882812
0.81152344
1.49707031
3.38867188
-1.12890625
0.43945312
3.75488281
-1.09863281
-1.79394531
0.71972656
-1.60156250
5.22851562
-9.25390625
-17.28906250
-1.84863281
10.56250000
3.89843750
-6.31738281
-2.38964844
-5.10253906
0.97460938
-3.95898438
-6.18945312
-5.58886719
-4.65527344
-2.82519531
-1.17773438
2.58398438
-3.03320312
-7.33105469
-3.15917969
1.37792969
-0.51269531
1.20214844
1.07226562
4.28320312
0.90332031
-0.85253906
0.33203125
2.53222656
-2.80566406
-11.44042969
-0.43164062
1.57519531
-1.02441406
-2.89746094
-0.16894531
1.76367188
-0.50195312
-2.99511719
-0.78222656
2.18945312
6.40917969
3.17675781
-0.82910156
0.52050781
3.18457031
-10.70312500
0.20605469
-0.75292969
3.74023438
-0.59570312
-5.39648438
-3.88281250
2.49707031
-6.52832031
-0.62011719
0.19238281
2.01464844
-6.32226562
-1.49609375
-2.97949219
0.12402344
-2.57226562
-0.42675781
-0.43750000
0.17773438
-4.23632812
0.83984375
-6.46875000
1.30468750
-1.80078125
-2.30859375
-0.70117188
-4.96093750
-9.32226562
-4.08007812
-0.61328125
3.34472656
1.55273438
-1.17382812
-6.65234375
0.68652344
-1.99902344
0.05371094
1.98828125
1.31933594
-1.40625000
-2.42480469
-5.25000000
-3.95996094
-0.38476562
0.15039062
-0.13769531
-0.20117188
-0.27148438
-1.48828125
-3.62597656
-2.77148438
-0.94042969
0.67871094
0.69531250
0.64648438
-3.01367188
-0.67871094
0.70996094
4.65234375
0.16699219
-2.04199219
-8.24609375
0.34960938
-0.56738281
0.12402344
-0.80664062
5.57519531
1.46289062
-3.70019531
-1.49414062
-0.80761719
-0.58789062
4.88378906
2.64453125
-1.93847656
2.23632812
-0.72363281
-4.32128906
0.32714844
-0.53808594
0.02343750
1.56250000
-3.26660156
-2.86132812
1.67968750
-7.25781250
2.92871094
-2.82812500
-1.81445312
-4.14062500
1.11035156
-0.05566406
0.12402344
1.40527344
2.20312500
3.89550781
4.05371094
0.16113281
0.16601562
-2.12597656
-0.09667969
0.39257812
0.46484375
1.88085938
2.83886719
-9.43652344
-2.08789062
-1.05761719
0.44628906
-0.79492188
2.77636719
-7.64453125
5.45800781
-5.15332031
0.76171875
-5.02050781
-5.45117188
-2.35058594
0.01757812
0.28906250
0.17968750
0.11914062
-0.89843750
-0.57128906
-1.45605469
0.98535156
-0.98632812
-2.03222656
-2.13183594
-1.32031250
-4.97363281
-4.43359375
6.53222656
4.15917969
0.06347656
0.41796875
0.17675781
1.34277344
1.42187500
-3.85742188
-1.41503906
-1.99511719
-1.98828125
0.53222656
-3.58789062
-2.95898438
-0.45117188
0.98144531
0.20703125
-0.66113281
-0.55078125
0.26269531
-0.69140625
4.41992188
3.74023438
4.93847656
-0.96972656
-0.02636719
-0.99609375
3.23242188
8.59667969
8.26562500
0.16406250
1.10253906
0.44824219
0.61621094
-0.04394531
2.24023438
1.05566406
0.74707031
3.43847656
4.78027344
-0.63574219
-7.91308594
-0.63183594
-0.15722656
0.05664062
2.09375000
4.45410156
-0.97363281
1.92285156
-0.91210938
1.28027344
-0.30566406
1.47949219
-8.19726562
-3.16113281
-2.87988281
5.60253906
2.11718750
1.75488281
-1.12011719
-2.01757812
-1.80761719
-1.00000000
1.58007812
2.08398438
0.54492188
-3.21386719
-0.97851562
-2.23437500
-2.83886719
0.45019531
-0.19531250
0.09082031
1.44921875
2.47363281
-6.14160156
-4.08886719
0.92480469
1.23925781
-3.88378906
-5.86328125
-7.30761719
2.72949219
1.71093750
-0.57714844
1.48925781
-3.07421875
1.00488281
0.16992188
-0.56542969
1.60644531
2.22753906
2.88476562
-2.61132812
-0.79394531
0.60156250
-1.56835938
-2.31250000
-2.05761719
0.25781250
-1.65136719
-5.44531250
0.24707031
-4.71582031
-3.39648438
0.02832031
0.65917969
1.77050781
0.04394531
2.97949219
6.57324219
3.28125000
4.06640625
3.52539062
2.82324219
1.11914062
3.58105469
2.59472656
2.36328125
1.46875000
0.22460938
-2.39453125
2.49707031
1.74707031
3.92187500
1.10156250
-3.67578125
-0.56347656
0.40917969
-0.11425781
0.65039062
0.22851562
-0.81933594
0.14160156
-0.26660156
-3.24609375
5.08007812
1.03125000
0.93066406
-0.18359375
-0.80957031
1.34082031
0.34765625
1.79199219
-0.21386719
-2.22656250
4.86914062
-3.28222656
5.72363281
2.68457031
4.94140625
4.22949219
4.59667969
0.74902344
-4.08593750
-2.20410156
-1.27636719
-2.08203125
2.84960938
3.91796875
-1.22753906
0.29980469
-0.38964844
2.73144531
-0.13964844
-1.03710938
0.16308594
1.11523438
0.83496094
1.01757812
4.71972656
5.87207031
0.29003906
-6.01367188
2.36035156
3.08007812
-3.39746094
-1.95898438
-4.14453125
-7.22460938
-3.53515625
-10.19628906
-7.52929688
-0.08105469
0.63183594
1.76757812
-0.35058594
-0.05957031
3.20410156
-0.91308594
0.10839844
1.37109375
-0.71777344
3.33984375
3.11523438
1.50097656
-4.60742188
-0.65625000
-5.82714844
-4.29589844
4.29101562
-0.11132812
-2.28808594
-1.12207031
1.18652344
1.01269531
0.29980469
2.15136719
-1.40527344
-0.58593750
0.64257812
0.20019531
-0.44042969
0.13183594
-0.60644531
0.06640625
-0.71093750
-0.63183594
2.44238281
1.72363281
-6.37988281
0.12988281
-5.07617188
-2.57226562
-6.69433594
-5.09179688
-0.05371094
-2.71191406
-1.43750000
1.84765625
1.10449219
-0.77343750
-0.52539062
0.04296875
-1.56152344
-0.44921875
0.80371094
3.72949219
-2.19140625
-0.17089844
-0.78710938
2.21289062
-3.59082031
1.33007812
0.20800781
4.32421875
-0.44726562
-6.08007812
-0.16406250
-0.55761719
-0.24511719
0.55957031
2.45019531
-1.19628906
-3.79394531
-6.47070312
-2.21093750
-0.72851562
-2.74121094
-0.47753906
0.69628906
1.77832031
2.00781250
2.97753906
1.03222656
0.45800781
-2.52539062
-0.46386719
-0.06347656
6.19824219
-6.95703125
1.27148438
0.29980469
2.37695312
-0.95117188
3.51367188
0.00292969
0.08886719
-1.02539062
0.44628906
-0.89550781
-2.91699219
-3.04589844
-0.73828125
-2.59765625
-0.49414062
0.09472656
0.23730469
0.83398438
10.31738281
4.59179688
-1.75878906
1.93261719
-0.84277344
1.18750000
-0.35937500
0.40234375
-1.41894531
-2.40136719
0.67675781
0.12402344
-0.09960938
-2.19726562
2.24511719
-0.26855469
-1.85449219
2.56933594
-2.59960938
-0.52246094
1.56347656
0.22460938
1.17187500
0.25878906
-0.65332031
1.45800781
1.24609375
3.74414062
1.49902344
0.62792969
2.42675781
3.09179688
6.08984375
-1.32226562
-0.32617188
0.29882812
0.67089844
3.18847656
7.12011719
4.56054688
4.18164062
3.97363281
7.94335938
1.67871094
3.11621094
0.48046875
3.19824219
1.89062500
1.10742188
0.62988281
0.05078125
-0.66699219
-2.98242188
-2.36425781
-6.78808594
-6.76855469
-2.42968750
-1.04101562
0.80761719
-2.39257812
3.75000000
-3.13671875
1.27246094
2.40429688
2.27246094
2.06933594
1.77050781
0.46484375
0.13183594
6.45214844
3.81933594
5.44140625
4.51074219
1.40527344
1.12500000
1.12597656
2.99414062
3.20996094
0.91601562
0.66113281
1.57128906
4.25390625
2.04296875
4.88867188
1.98339844
1.29101562
1.90332031
2.02246094
2.01757812
3.40527344
-0.05957031
-0.24804688
-0.41113281
-0.85253906
-0.12890625
0.22753906
-0.78808594
-0.29882812
0.39941406
0.16406250
0.87207031
-0.53320312
-0.99609375
-0.68945312
-1.90722656
-1.25683594
-1.37500000
-0.97949219
-0.14843750
0.69921875
0.66308594
0.17773438
-0.20019531
-0.62988281
-1.49707031
-0.29589844
-1.12597656
-1.11132812
3.11328125
4.29980469
2.76660156
4.09570312
2.04785156
3.40527344
3.20117188
4.01660156
4.32910156
3.93847656
2.94531250
2.65039062
3.68457031
3.11132812
2.87890625
3.38378906
6.88867188
7.07031250
6.82324219
6.78417969
4.40234375
2.59960938
3.05371094
3.80566406
3.66796875
3.57421875
0.09277344
4.38476562
-0.05273438
0.00390625
-0.21093750
-0.67871094
-0.94140625
-0.73242188
-0.85156250
-0.76367188
-1.36425781
-0.51660156
-0.39453125
-0.52636719
0.59960938
0.49316406
-0.13378906
1.13085938
-1.16601562
-0.10351562
-0.65625000
-0.10253906
0.58886719
0.41894531
-0.32031250
1.53906250
1.14843750
-0.25000000
-1.10351562
0.60156250
-1.10058594
-0.58105469
-2.94433594
-0.32714844
-1.07226562
-2.12304688
-1.65820312
-0.70410156
2.34765625
-4.26269531
3.57421875
0.04687500
-3.15625000
-1.01757812
3.39453125
1.87792969
-7.37402344
1.41308594
-3.16796875
2.70214844
5.41503906
3.02734375
4.11914062
2.40332031
1.45410156
0.24707031
0.67871094
2.59082031
-3.76171875
-0.31738281
0.55566406
0.81835938
-0.63085938
-3.86425781
-1.58789062
4.32519531
0.31933594
-1.08105469
1.77539062
1.70410156
4.53906250
-2.05859375
2.59472656
1.95312500
0.87207031
3.34082031
-2.78320312
-2.60449219
-2.54492188
-0.88281250
3.97460938
5.83105469
-0.70410156
-0.02441406
0.29492188
1.94726562
-4.36914062
-0.65917969
-1.66894531
1.84765625
-0.18359375
-0.81835938
-0.38574219
-1.15722656
1.69726562
2.91406250
-4.65722656
-2.58398438
7.96875000
5.20117188
1.44628906
-1.40136719
-2.06738281
3.46484375
-2.47949219
-1.96875000
0.57031250
-3.57519531
3.95996094
6.45410156
8.91601562
-0.91406250
-0.02832031
3.03417969
6.00878906
7.14355469
9.55175781
-1.11914062
3.71093750
-1.14062500
-0.38671875
0.66796875
4.64160156
2.80859375
-5.75292969
-7.82910156
-1.89550781
-1.58496094
-0.39550781
4.83496094
-0.73046875
-5.77539062
-1.05371094
-1.05468750
2.37304688
-1.33105469
0.46191406
4.49121094
7.16503906
3.16992188
1.93847656
2.80175781
1.77832031
4.80761719
4.61425781
8.52050781
5.22753906
3.16406250
0.62792969
-4.28710938
-2.01171875
3.27832031
1.30664062
0.51660156
-2.98144531
0.42285156
-5.02246094
-1.08496094
3.79492188
0.74414062
1.66015625
0.58398438
-0.53808594
-1.16113281
4.67675781
-0.17187500
4.56933594
4.90722656
-0.63964844
1.49902344
1.69335938
2.97460938
7.99804688
3.81152344
1.31152344
0.14453125
-1.35546875
4.03320312
2.49121094
0.75000000
-2.97265625
1.15429688
-5.24707031
2.11132812
-5.13769531
2.02246094
-2.50585938
-2.41015625
0.39550781
3.17089844
1.62011719
-0.85546875
6.53222656
2.84277344
4.82226562
6.92773438
-2.49511719
-0.52929688
-0.05957031
-0.43750000
3.23925781
2.25878906
4.75000000
-2.78222656
-0.03320312
-0.58691406
-0.17480469
-0.14257812
-2.59082031
-0.04101562
1.66308594
-0.70019531
-1.39550781
5.25976562
-1.73632812
-2.43847656
-0.20996094
-2.33691406
2.07421875
-1.15820312
-0.51757812
-0.83593750
-1.57031250
7.03222656
9.16113281
1.18164062
4.81933594
-0.24511719
0.05078125
1.34960938
1.90039062
-2.60058594
1.39257812
-0.10351562
0.47460938
-0.33007812
-0.21777344
1.13574219
-1.66796875
0.02246094
-0.65234375
4.58593750
-0.91210938
-1.99218750
1.03320312
2.31445312
0.92187500
1.56738281
-6.60058594
1.69238281
-4.51757812
0.89550781
0.87890625
7.09863281
0.51367188
0.01367188
0.75390625
0.81152344
2.81152344
-5.50292969
1.33496094
2.08691406
-0.88964844
-0.45312500
-0.22656250
-0.79492188
0.24804688
1.65722656
-2.83789062
1.40917969
-0.63671875
0.35937500
-0.79882812
1.22949219
-6.30566406
-2.05078125
-0.15136719
0.71582031
-1.08398438
1.13281250
-2.32324219
6.62402344
0.11816406
-0.10351562
-2.29101562
4.86621094
10.54394531
-0.32910156
1.25390625
0.19628906
-1.79394531
-0.03027344
0.31445312
-1.62207031
-1.01464844
0.78125000
-1.13867188
-0.32031250
-0.51367188
-0.24316406
1.46582031
-8.10351562
0.40332031
-4.04394531
3.06835938
3.18164062
-4.49316406
1.25195312
0.14062500
4.54003906
-0.10546875
-0.10351562
-0.60839844
0.97070312
7.80859375
4.94628906
-0.64355469
0.90625000
-2.16113281
-2.50000000
0.08300781
0.44531250
0.40820312
0.47265625
-0.30957031
-1.63867188
0.22265625
-0.02246094
-2.21093750
1.35351562
3.37402344
-1.83886719
1.89062500
-0.12695312
-7.20507812
0.65625000
0.54589844
0.23437500
-0.30957031
-0.13964844
-0.12304688
0.19531250
1.06640625
1.74511719
0.13867188
-0.29687500
-1.87304688
0.48144531
-2.50683594
1.31835938
6.00195312
-2.00097656
-3.18652344
-2.66503906
-0.80468750
-0.09179688
0.63867188
-1.03808594
-1.82617188
-1.45605469
0.69238281
-0.31738281
8.48046875
2.22363281
-0.49609375
-0.38378906
1.63964844
-0.14746094
0.28808594
0.12402344
0.56640625
0.83300781
2.06933594
-1.17968750
-0.83789062
1.02246094
0.14843750
-1.44042969
6.52343750
1.63378906
1.35253906
0.48242188
-0.17382812
1.08300781
0.58593750
-0.74804688
-3.86035156
-2.03613281
-0.91699219
-5.01855469
8.20507812
-0.20117188
-1.40625000
1.89453125
1.17968750
-0.17578125
-0.23242188
0.13964844
0.67089844
7.82617188
-1.22265625
-0.07421875
-0.57910156
0.64550781
-1.75292969
0.68066406
2.96875000
-3.06835938
-2.47851562
-1.34375000
0.33105469
-2.00878906
-0.68750000
-0.79589844
-1.63867188
0.26855469
2.69042969
-3.01367188
-0.67089844
-5.28808594
-3.32031250
0.53613281
-0.25585938
-0.41308594
-0.48632812
0.29296875
-1.52441406
2.64941406
-2.54785156
0.22167969
-1.26269531
1.58203125
-0.89355469
6.02343750
9.70214844
1.57421875
-0.41894531
1.60644531
-0.44140625
-1.34375000
-1.22460938
-2.56738281
-1.16894531
-0.23144531
-0.50292969
-3.33789062
0.28027344
-0.95214844
-1.22753906
-1.05175781
1.52246094
0.75390625
0.25097656
-0.08691406
-3.22851562
1.02734375
-2.89160156
0.06933594
0.29785156
-0.26464844
5.87500000
4.57910156
-0.07617188
0.57128906
-0.24316406
0.75195312
-0.10937500
2.96289062
-2.35058594
-3.96777344
1.80957031
4.45800781
-0.49707031
6.66503906
3.18847656
6.36035156
3.84375000
2.56347656
-0.28222656
2.75000000
1.43847656
-1.79101562
1.75195312
-0.20312500
-0.02148438
-0.19726562
0.90136719
3.19531250
-2.45312500
-2.60058594
-1.11914062
0.39355469
-2.01171875
-3.43359375
-4.72363281
-7.59960938
-9.07226562
-3.43066406
2.94042969
-1.13085938
-1.26464844
-3.15332031
-2.18750000
-3.19726562
0.93652344
4.44824219
-0.49902344
-1.06738281
-1.72363281
1.03125000
4.70996094
-1.84960938
-1.16113281
-0.10156250
-3.01660156
-1.84082031
-0.91113281
0.09472656
0.03222656
-0.17480469
-0.50683594
-1.82714844
-6.10937500
-0.01367188
-2.12500000
-0.07031250
-1.03027344
0.73144531
2.31250000
0.62304688
-1.28710938
-3.26171875
-5.33496094
2.76562500
1.33789062
0.97460938
0.18652344
-2.50097656
-0.23242188
-3.41113281
-1.95996094
4.19238281
3.51269531
-1.62597656
-3.47558594
-4.11816406
-3.00000000
-1.52050781
-5.21777344
-0.19042969
-1.31835938
-1.47753906
-0.98535156
0.02441406
0.30468750
-0.56835938
-0.70117188
-0.78222656
-0.75488281
-0.21875000
-2.07421875
0.04589844
0.13378906
5.95117188
-0.49804688
0.83984375
-0.66992188
-2.76171875
3.19921875
7.33203125
9.12500000
6.16894531
-2.00097656
-1.25097656
-1.60449219
-0.34179688
-0.93457031
-0.11035156
0.57812500
-0.79980469
-1.40820312
-0.34863281
0.38085938
-0.56640625
-1.28906250
-0.77832031
-1.91113281
-0.23535156
1.81640625
1.04003906
-0.38671875
1.53417969
-1.35449219
1.72851562
-0.31054688
-0.08984375
5.49316406
8.03808594
6.31250000
-1.57324219
-2.41992188
-0.88281250
-1.32324219
0.00390625
1.69238281
2.05761719
1.11132812
0.60937500
-0.13769531
0.74609375
0.02539062
-0.66503906
0.66894531
-2.71093750
-5.08300781
1.20019531
-1.31933594
-1.35449219
-0.82324219
1.02636719
-2.68261719
2.07519531
0.19042969
-0.02539062
1.15332031
2.20019531
0.26660156
-1.37597656
-3.20507812
-0.47558594
1.46582031
-0.58007812
0.55468750
0.58496094
-0.44531250
0.52734375
1.54199219
-0.03320312
-1.05859375
0.26269531
0.23339844
-2.18164062
1.46582031
1.73925781
-3.54199219
0.69140625
-2.29296875
-0.19531250
-1.20019531
-4.72558594
-0.23242188
-0.10351562
0.23437500
1.45800781
-0.20898438
-0.93847656
-1.72558594
-1.28710938
0.00488281
-0.21191406
-1.40234375
0.34179688
0.36425781
0.09570312
0.22070312
1.09472656
-0.17285156
-0.79492188
-2.88085938
0.64257812
0.16113281
5.61230469
2.76855469
1.28906250
-1.96289062
-0.04492188
-0.47753906
-5.33691406
-8.66406250
-1.74609375
3.92187500
-1.60058594
0.39453125
-0.08105469
-0.17773438
0.19824219
-3.03906250
-2.68750000
-0.74218750
0.80566406
0.80859375
1.63867188
2.86621094
2.99511719
6.84179688
2.85742188
-2.25000000
0.90234375
-0.10546875
5.97460938
6.04101562
2.43652344
-0.70214844
-0.38085938
-0.44335938
-0.18652344
-0.53906250
1.58886719
1.09082031
0.27636719
0.91992188
0.51074219
-0.14941406
-0.11914062
-0.19824219
-0.02539062
1.07421875
0.49414062
-0.18847656
0.57812500
0.20703125
1.85058594
2.94824219
0.20117188
-0.49707031
-0.19140625
0.13671875
-0.48144531
-0.05273438
0.49121094
0.58789062
1.66210938
2.07714844
1.50390625
1.29199219
2.15917969
1.10937500
1.00878906
1.95605469
0.50781250
1.07519531
0.69726562
1.11035156
1.07812500
0.67187500
1.09277344
0.66894531
1.12695312
1.41210938
1.88671875
3.53027344
1.66992188
0.86914062
1.03027344
2.01171875
3.24023438
0.16796875
0.43652344
-0.57617188
1.85253906
0.30761719
1.15722656
-0.05078125
-0.10937500
0.15527344
0.43652344
0.95312500
0.62695312
0.34765625
-0.52441406
0.09082031
-0.01562500
-0.80859375
-1.41406250
-1.83007812
-2.07812500
-0.25976562
-0.30859375
-0.71582031
-1.49316406
-1.41113281
-0.20800781
-0.94238281
-0.91601562
-2.98046875
1.19726562
-0.58789062
0.25878906
0.54394531
0.90429688
1.20214844
1.78320312
1.36230469
1.45703125
-0.17382812
-0.20898438
-0.42382812
0.62695312
1.56835938
1.62304688
1.17382812
2.36621094
0.41601562
-0.69531250
-0.08203125
0.48437500
1.09570312
1.06152344
1.13867188
0.96777344
1.85937500
1.19628906
1.10156250
-1.87695312
-1.42871094
-0.13085938
-1.32031250
0.96972656
-0.87695312
-1.56054688
0.24511719
-0.92968750
0.19335938
-9.59082031
3.29492188
2.29492188
-6.02929688
2.16015625
0.66796875
-2.07421875
-9.11035156
1.47851562
-1.53417969
1.18066406
3.51171875
4.36914062
3.06835938
-0.69433594
-0.80371094
0.46777344
1.66503906
2.39355469
-2.65429688
-1.10839844
0.22753906
0.38183594
-0.06054688
-3.23632812
-0.16308594
5.92871094
-4.29785156
1.49121094
-0.76562500
0.31054688
2.41601562
-0.90820312
-5.52441406
-0.20800781
-2.07226562
3.12109375
2.14160156
0.81347656
-2.04980469
-3.17675781
3.03515625
1.57031250
-4.41113281
-4.30957031
-2.07226562
2.09667969
0.36621094
2.52441406
-0.14453125
-2.41308594
1.23925781
-0.88281250
0.38671875
4.04882812
0.08007812
-1.15527344
-0.14843750
-1.57519531
4.95507812
2.35253906
7.25488281
-4.54589844
-3.30273438
-0.37500000
-2.02734375
-0.11425781
0.92089844
3.57421875
2.29882812
1.90234375
1.28710938
-6.95117188
0.10351562
1.87011719
9.34082031
3.42871094
0.93652344
4.80957031
-1.79296875
0.28613281
1.04101562
1.14648438
2.23828125
5.71777344
-5.83105469
1.73632812
2.68261719
-0.66015625
-4.06640625
-0.12792969
-1.50683594
0.77636719
-0.51367188
3.63378906
1.64550781
0.62890625
-0.12304688
1.97753906
1.87890625
-2.01464844
2.19628906
2.52148438
-1.21191406
1.13476562
-3.42675781
3.73925781
0.94140625
5.56250000
4.18359375
-6.46191406
0.58105469
6.35058594
-6.89257812
-2.83300781
0.07519531
-4.52734375
4.31347656
4.30175781
1.28515625
1.11230469
2.56738281
-1.07910156
1.68359375
-3.24316406
-1.03906250
-2.64355469
2.70898438
0.74121094
-1.18750000
-0.06250000
-0.64062500
0.66210938
0.42089844
4.73535156
5.88867188
4.97363281
-3.32910156
-1.41894531
0.84667969
0.73339844
-1.96093750
2.17480469
0.42187500
-3.17187500
-9.59667969
4.28222656
4.27050781
-1.25585938
0.76464844
5.46093750
1.38964844
-3.53515625
-0.04492188
-0.53320312
-1.41699219
1.04199219
-3.81250000
-1.57031250
2.01171875
0.30175781
0.89453125
-0.07324219
-1.37304688
-3.56835938
0.24121094
-0.03808594
-1.54687500
0.06738281
-4.29785156
0.29882812
-2.18945312
-3.57031250
-5.67187500
6.54687500
0.85253906
-6.11230469
0.91894531
-5.30175781
4.51660156
-4.09082031
-1.41503906
3.86621094
2.14843750
0.86621094
1.47656250
-4.56152344
2.43457031
-0.16406250
0.12597656
-0.85058594
-2.05468750
-1.91210938
3.00292969
0.02050781
-0.10449219
-0.95507812
-0.56738281
-2.81933594
-4.19042969
-2.08886719
0.27050781
4.04492188
0.92968750
-2.36132812
2.11425781
-4.61914062
2.26171875
-2.89355469
-6.36621094
3.58593750
4.01074219
1.43945312
2.45605469
2.58984375
0.28417969
0.04980469
-0.31542969
0.42675781
0.06933594
2.50292969
1.86328125
-0.82421875
-0.71289062
0.78613281
0.16894531
-1.05664062
-0.19921875
0.41894531
-3.08398438
0.28515625
-0.09082031
0.28320312
0.27343750
3.58105469
1.95996094
-2.88085938
3.34472656
-5.57226562
1.08105469
0.93750000
-2.51074219
2.41015625
0.30566406
0.02050781
-1.97558594
2.86914062
-0.08496094
1.88769531
0.16796875
0.34277344
-0.66503906
-1.43750000
-0.21289062
0.01367188
-0.02929688
-4.20312500
-1.74511719
-0.06152344
-0.02246094
-0.05859375
1.30957031
-0.01269531
4.01757812
-1.64941406
3.37890625
-0.07324219
-4.16308594
2.45117188
-7.99414062
-1.88281250
0.25000000
0.02050781
-0.71777344
-0.18457031
1.82128906
-0.89843750
1.24707031
0.38867188
-4.26855469
0.72167969
0.41894531
0.35937500
0.71875000
-1.30273438
-6.31835938
-0.17480469
-0.85742188
-0.08398438
-3.04003906
-1.55078125
-3.26464844
-5.47167969
-1.97363281
-1.39746094
-4.73242188
1.97851562
-1.18652344
-0.21679688
-0.20019531
0.06835938
-0.01953125
-0.01074219
-0.87597656
-2.00488281
-1.42871094
-0.31640625
-2.47265625
0.04589844
-1.49414062
0.37792969
1.35058594
-7.02246094
0.26367188
1.40429688
-1.25390625
0.01464844
-1.54492188
-1.17285156
-1.26855469
-0.40039062
1.76171875
-0.39941406
2.22070312
-0.73339844
-2.88964844
0.93457031
0.94335938
0.04492188
-0.53613281
0.19433594
0.91992188
-0.09277344
-0.16503906
-0.10839844
-0.79394531
-0.03808594
-0.99218750
-0.48925781
7.28125000
-6.73925781
-1.84960938
-0.84667969
0.11621094
0.46093750
-0.48632812
0.81640625
-4.66113281
0.56445312
-0.31640625
-10.00488281
2.76953125
-1.13085938
-3.32421875
1.28808594
0.51562500
-0.42187500
3.13867188
0.41894531
0.99804688
2.25585938
-0.58300781
0.32519531
0.40429688
0.09472656
-5.51953125
-2.24804688
-3.26367188
-7.09179688
-3.30468750
-4.77832031
-2.11718750
-4.01367188
0.66406250
-2.35937500
-2.07421875
-3.29296875
0.03906250
0.19433594
0.42285156
-1.24316406
2.38964844
-0.54492188
0.02148438
-0.13574219
0.69628906
0.58789062
-1.32910156
0.24121094
-4.75781250
-0.22656250
-1.12597656
-1.73144531
-0.66308594
1.92578125
-2.91601562
-3.82421875
0.01855469
-1.47949219
-1.74902344
-1.59863281
-7.97167969
-5.36816406
0.99902344
0.53906250
-1.66992188
-0.45410156
-0.55078125
-0.35449219
-0.20410156
-0.76171875
-0.52636719
0.18750000
-0.05859375
0.02539062
-2.96386719
-0.62500000
-1.94140625
0.09570312
0.29296875
-1.48046875
1.02539062
-2.14355469
-1.79589844
-1.12304688
-2.73632812
-1.42675781
-2.95117188
2.01660156
-1.58984375
2.35546875
-1.04101562
0.21777344
0.99804688
0.25878906
0.58691406
1.99023438
0.83593750
-0.21679688
-0.17675781
-1.70507812
-3.05371094
-0.42773438
-0.44238281
-0.20996094
0.09082031
0.26660156
1.92480469
-0.31250000
-3.09375000
-2.02929688
-0.26269531
-0.79003906
-1.28320312
0.28417969
-4.85644531
-0.56054688
-3.48632812
-2.61230469
-0.21191406
-2.09472656
-0.95898438
-1.18847656
-1.90039062
-1.84179688
1.84765625
1.62109375
-0.86328125
-1.81347656
-2.24609375
0.01562500
4.19433594
1.94628906
-1.59375000
0.72753906
0.98925781
1.87109375
-0.90527344
-1.28906250
-1.76464844
-2.31445312
-5.14648438
-4.97363281
-3.67480469
1.43164062
4.61132812
-1.89062500
-0.64453125
2.41210938
1.71386719
4.68164062
2.36621094
2.80664062
2.08593750
2.39550781
-1.20898438
-0.23242188
-2.74609375
-2.06640625
-0.10546875
1.34472656
-1.77539062
1.78710938
0.33984375
-2.32421875
-3.08789062
-6.09667969
-2.55468750
0.47460938
-0.24707031
5.89941406
2.57324219
-1.13867188
1.44726562
0.39453125
-1.88964844
-1.32421875
-0.39453125
-0.24218750
0.52441406
2.39257812
-0.18945312
-0.64160156
-3.34960938
-1.14453125
-0.20410156
-3.35058594
0.56933594
-0.57226562
-0.62109375
0.46777344
-0.12792969
3.93066406
-0.97363281
0.15820312
-2.94238281
-2.14062500
0.38867188
2.36132812
0.61132812
-0.04589844
-0.69726562
0.21972656
1.79785156
-0.84863281
-1.28710938
0.06152344
-1.16210938
-1.63671875
1.95312500
-0.03808594
0.83007812
-1.66210938
-3.15722656
2.66210938
-2.93945312
0.01269531
3.84179688
4.95019531
0.42578125
-3.28222656
-0.62695312
-0.80371094
0.39648438
-0.03222656
2.51367188
3.66406250
0.14648438
0.66796875
0.90917969
-0.69140625
-0.38281250
-0.30566406
3.49902344
-1.55664062
-6.86621094
0.65234375
-3.81835938
0.02246094
-0.79687500
0.03125000
-1.44824219
-0.10546875
0.19433594
0.03710938
-0.14257812
-0.82128906
5.39941406
-2.50976562
-3.16210938
-1.92675781
4.32226562
3.72070312
2.41992188
2.01953125
0.16015625
0.09179688
1.08398438
-0.18164062
-1.02148438
-0.00683594
0.05566406
-1.91113281
0.56640625
-0.13378906
-4.32226562
-3.77343750
-1.97363281
-0.31835938
0.55664062
-0.62207031
-1.21484375
0.02050781
-0.87597656
-1.76757812
4.93554688
-2.40234375
-3.57617188
-3.94238281
0.67773438
1.19335938
0.25683594
1.52539062
1.64160156
1.44140625
0.72167969
0.56542969
2.12597656
1.25488281
0.35058594
0.22851562
-0.13964844
0.54199219
-0.33398438
-2.65429688
-1.64843750
0.11230469
4.62597656
3.83203125
2.04785156
-3.23730469
3.63183594
4.03808594
6.35546875
2.17871094
2.20800781
1.54882812
-0.61328125
3.54589844
4.39160156
1.46093750
0.88281250
1.97363281
4.10839844
6.76660156
12.12988281
6.50976562
0.98242188
0.85156250
-0.64843750
-0.12109375
-0.14648438
-0.21386719
-0.19628906
0.91015625
1.60253906
1.80175781
1.63867188
0.24707031
-1.49218750
1.60839844
0.37988281
0.30078125
-0.83789062
0.87792969
1.59863281
1.25585938
2.24023438
1.64062500
2.53515625
2.38378906
1.62207031
3.77734375
3.95996094
1.32519531
0.60644531
1.38671875
1.65332031
-0.42675781
0.88085938
0.08789062
0.77636719
1.14550781
2.55566406
1.67382812
1.97753906
2.31054688
2.17480469
1.79882812
2.42480469
1.52246094
0.93457031
1.33300781
1.66406250
1.44335938
0.57031250
1.45898438
1.11816406
1.20996094
1.84765625
2.37304688
2.77343750
1.98046875
1.00878906
1.11425781
1.67480469
3.03808594
2.37011719
0.70312500
1.59082031
-0.77832031
-0.65917969
-0.80468750
-0.74902344
-0.09082031
-0.51855469
-0.47753906
-0.84863281
-0.71582031
-0.79785156
0.05468750
0.57128906
-0.00390625
1.03125000
1.04199219
2.75097656
2.27929688
0.99023438
1.00097656
0.51562500
0.16503906
0.10839844
0.49804688
0.25585938
0.35449219
0.21289062
1.26855469
-0.08593750
-0.20214844
-2.71093750
-2.21777344
-2.38281250
-2.86914062
-2.92578125
-2.77050781
-1.74609375
-0.87109375
-1.51464844
-2.20703125
-3.15722656
-2.68066406
-2.76953125
-1.30371094
-2.69531250
-3.80273438
-3.74121094
-2.84570312
-2.72558594
-2.08496094
-2.72460938
-3.07714844
-4.94335938
-3.82421875
-0.79296875
-1.08691406
2.31738281
-0.06054688
-0.79882812
-1.14746094
-0.93847656
-1.14257812
-1.24316406
-3.44140625
3.90527344
-5.03613281
9.75000000
0.29785156
-1.93164062
0.09960938
1.77246094
-2.69433594
1.07031250
3.36621094
-3.27929688
-5.02636719
-7.49902344
-4.74121094
-2.71582031
2.74804688
-0.59960938
-2.30078125
-4.45898438
0.34765625
1.10253906
0.79003906
-0.03515625
2.86816406
-2.60546875
-3.42578125
-0.03417969
2.53515625
-2.33789062
0.98242188
2.88964844
-5.58496094
0.39941406
-1.83789062
1.19824219
6.27441406
-3.74316406
2.55566406
4.41113281
0.24121094
-6.89160156
-5.16601562
4.41992188
-1.89843750
-1.67578125
-0.03710938
-3.07714844
0.13281250
4.53222656
4.54101562
-0.10644531
5.88476562
0.25000000
-0.08984375
0.81933594
-1.80664062
2.92871094
5.28417969
3.72851562
0.77148438
6.52539062
2.42285156
-2.89355469
-2.17968750
-3.28320312
4.89746094
2.38671875
3.74414062
1.44628906
2.12695312
3.19433594
4.21582031
3.54296875
-0.00878906
-1.44921875
-0.74218750
10.76171875
2.23828125
4.51660156
1.61816406
-3.70605469
-3.83789062
0.26074219
-0.82812500
2.06640625
3.86328125
-0.50195312
1.02050781
-0.70898438
-8.72949219
-0.41113281
4.56347656
-1.10546875
-2.86425781
8.12304688
-2.40722656
-0.01074219
1.30468750
4.74218750
8.67773438
3.59667969
1.67968750
2.36523438
0.22753906
-2.86718750
0.52441406
1.63476562
1.11132812
-6.38671875
0.91601562
1.73437500
-7.60644531
0.99609375
12.70800781
0.20214844
-4.91406250
5.31250000
1.57910156
1.11816406
7.06054688
4.08203125
2.59765625
3.14746094
1.45019531
3.78125000
3.93261719
-2.35937500
5.73535156
7.83496094
0.22167969
-1.61718750
-1.54296875
-2.64746094
0.57910156
0.26757812
5.14355469
-8.87402344
3.98046875
3.17773438
0.07324219
0.04199219
1.29589844
-1.95019531
2.26367188
2.24511719
-1.62792969
-5.96582031
5.18750000
3.36718750
-2.77929688
-1.24511719
7.57910156
1.97558594
0.71484375
1.05468750
2.15625000
2.93457031
3.50097656
-2.52441406
-2.77734375
0.26562500
0.41113281
-0.54003906
-3.60058594
-1.52343750
3.69531250
-1.13867188
-0.31835938
-1.94531250
-0.32812500
-2.05175781
1.16015625
3.98828125
-1.10644531
-6.49609375
7.58593750
1.07714844
-7.22949219
-0.59667969
-1.19042969
2.74804688
3.25683594
-0.05468750
-0.84863281
2.76464844
6.32910156
-0.09570312
-0.01367188
4.65332031
0.27441406
0.07421875
-2.66699219
-0.05957031
2.10742188
4.52734375
0.00390625
-0.78222656
-0.49707031
-0.48339844
-2.39843750
2.24609375
-1.56347656
-3.16015625
2.53808594
-0.51562500
-2.08105469
0.67968750
-0.50488281
4.02929688
-1.46386719
1.25097656
0.38183594
0.06933594
4.76464844
9.30273438
5.08691406
1.22460938
0.14453125
-1.56542969
-0.63476562
0.64355469
-0.30664062
1.20996094
1.34667969
-1.75781250
1.81054688
0.10058594
-2.96386719
2.89062500
0.41601562
-4.14453125
1.21386719
-0.37890625
0.18652344
-0.65332031
-1.06347656
-3.86425781
-3.47753906
1.92968750
3.32226562
-6.16503906
-0.12402344
-3.38574219
-0.04980469
0.21972656
0.00390625
-4.69824219
1.45898438
6.54101562
-1.24902344
1.97656250
1.43066406
-3.49609375
0.53710938
-1.26855469
1.39550781
4.54785156
-2.58203125
-4.67968750
0.15136719
-0.16308594
-0.08203125
1.00195312
-0.69433594
4.71484375
2.34082031
2.45996094
-0.16699219
-7.09960938
-2.36132812
-6.11621094
-0.85546875
-0.34179688
0.00390625
-3.30371094
-0.64160156
0.29492188
-0.66406250
-0.73437500
2.46972656
-2.46679688
-0.15429688
0.22070312
0.36816406
0.87500000
8.03613281
-3.32617188
-2.37402344
-0.34179688
-0.38769531
-1.41210938
-1.92285156
3.09375000
1.61425781
2.79003906
0.80078125
-5.69433594
-4.22851562
-2.03906250
-0.51757812
-0.17480469
0.06738281
0.00390625
-0.36035156
0.33300781
-1.48437500
-3.95800781
1.73632812
1.11523438
-0.95214844
1.70410156
4.71093750
4.40429688
0.01269531
2.19433594
-1.62402344
-2.54296875
0.03320312
0.62207031
-1.15039062
1.84472656
0.41503906
0.22656250
3.08398438
0.87890625
-2.94824219
1.60644531
-0.95605469
0.47558594
0.07519531
0.49609375
-0.08496094
0.51464844
-0.14062500
-2.46582031
-0.38281250
2.03222656
-0.54296875
1.02441406
4.86621094
4.65527344
-3.61718750
-0.51660156
1.49414062
1.51855469
1.95019531
0.24511719
-0.22851562
-0.43164062
2.29003906
-0.61718750
-8.10644531
3.96289062
-2.94628906
-5.01562500
-1.09277344
1.87988281
-0.58984375
0.73144531
-1.09960938
2.37109375
2.07421875
1.74218750
-0.81054688
3.77343750
-0.49511719
-4.90917969
0.25488281
-1.73437500
-6.01171875
2.58105469
0.03906250
0.14160156
-3.63671875
-0.57031250
0.50585938
0.41113281
5.47851562
-0.53417969
-6.13769531
0.40332031
-1.57128906
-0.67187500
-2.41210938
0.99804688
-0.04101562
1.74609375
-0.68359375
2.77539062
-1.99511719
-3.44140625
-1.03613281
0.39355469
-0.84472656
-2.03710938
2.04394531
1.52929688
-0.95312500
3.90625000
1.20019531
-3.51855469
1.83007812
-1.49804688
-6.93750000
5.49316406
-3.05468750
-0.58203125
-6.65429688
-0.94531250
-2.86425781
0.07812500
-0.83007812
0.40625000
1.29296875
0.51953125
0.14550781
-2.52832031
-2.79492188
-4.06347656
-0.30566406
-0.96191406
-0.84960938
0.55761719
-5.15820312
-3.02246094
-3.29199219
-2.91601562
-0.89355469
-0.85449219
6.38183594
3.04492188
-0.57519531
-1.65722656
3.52832031
2.22558594
-1.82324219
-1.56152344
-0.12207031
-0.16699219
2.51855469
-0.20117188
-1.20312500
-5.12304688
1.64550781
-1.60058594
-0.97656250
0.18554688
0.13085938
2.14746094
-1.78515625
-3.96289062
-3.98632812
-0.63769531
0.15625000
0.97363281
4.50976562
-5.73242188
-9.09960938
-8.83398438
-7.16992188
-6.05566406
-7.59082031
0.02929688
-1.74511719
0.33007812
-0.85937500
-0.79492188
1.24316406
1.63183594
-1.29394531
-1.23339844
-1.60839844
3.46484375
0.15625000
-1.58886719
0.28613281
2.04199219
1.65332031
-1.13671875
0.28417969
0.54003906
0.81835938
1.08105469
4.62011719
-0.46875000
-1.34277344
-2.02539062
-4.87890625
3.32421875
5.00976562
2.17285156
0.69140625
-4.58398438
-2.10253906
-2.08789062
1.43457031
5.41308594
2.31542969
1.30957031
-3.78710938
0.05664062
-0.35937500
-4.17968750
0.80273438
0.66699219
1.97167969
2.24121094
-4.16503906
-2.62207031
-5.00292969
-4.58398438
-0.62500000
0.98437500
3.78125000
3.34667969
2.76855469
1.20996094
-0.83886719
0.30664062
-2.25683594
-0.67382812
1.40625000
-1.36816406
-1.24023438
0.40625000
4.78613281
-0.84863281
1.11718750
0.06054688
-1.56347656
0.52050781
1.43066406
11.49023438
5.30273438
-4.56933594
-3.50097656
-3.47167969
-3.43847656
1.72167969
2.44921875
3.92382812
2.54785156
-1.53027344
-0.19921875
2.62988281
0.54589844
-0.99121094
-0.94238281
-1.35937500
0.83007812
-1.13281250
0.05078125
2.18554688
0.89453125
0.28125000
-0.18457031
-0.22851562
0.03125000
5.02636719
4.59570312
2.28515625
-2.32617188
-1.00976562
0.64062500
2.88085938
2.59863281
5.22363281
6.33398438
4.83300781
5.04980469
2.33593750
1.16894531
0.14648438
-0.65332031
0.10546875
-0.90820312
1.65527344
1.28906250
-3.12695312
0.46289062
0.75683594
-0.17285156
2.59375000
3.12890625
-0.22753906
0.02539062
-0.09082031
-1.63476562
5.00781250
-1.37304688
-3.01269531
0.47753906
4.06347656
4.12695312
3.34375000
4.15332031
2.24121094
2.85937500
2.89257812
1.03710938
0.10644531
1.53027344
5.75781250
0.23632812
1.38964844
2.34765625
-3.36035156
0.16699219
-0.09667969
-0.17285156
3.02441406
1.47460938
1.79296875
0.00390625
1.16601562
0.20019531
4.90722656
-1.24316406
-2.29003906
-1.03710938
3.26953125
0.40820312
0.95214844
3.92480469
2.73144531
3.42480469
5.03320312
2.47558594
0.99218750
1.73144531
1.26660156
0.87402344
1.43945312
4.00292969
0.12597656
-2.04882812
0.65332031
0.08593750
2.18847656
-0.68652344
-2.09179688
-0.11230469
6.76660156
9.73046875
2.65234375
-0.66894531
-0.45898438
-1.31738281
-0.10351562
-3.92089844
-1.89257812
-0.08300781
-0.70605469
0.27929688
3.02832031
5.82617188
8.87988281
1.85058594
-1.90429688
0.26855469
2.37402344
4.68261719
-3.26855469
-1.12792969
-0.20117188
-0.88769531
-0.24121094
0.66015625
0.56054688
7.67675781
4.20703125
0.47265625
-4.45898438
-3.47656250
-3.35644531
1.36328125
0.81738281
0.67773438
-1.29589844
-0.49902344
-0.03515625
0.07910156
0.58886719
-0.17871094
-0.26953125
-0.78710938
0.83984375
0.91992188
0.94921875
-0.10839844
-0.09667969
-3.48242188
0.41406250
-0.57812500
0.78515625
-0.24121094
-0.13671875
-0.34472656
-1.17382812
-1.46484375
-0.12597656
-1.60449219
-2.22265625
-1.91699219
-0.04687500
0.45214844
-2.61328125
0.10351562
0.58300781
0.16503906
0.97656250
1.00585938
0.82128906
1.22070312
1.45117188
1.53613281
2.08007812
3.14746094
1.99609375
0.51367188
-0.64746094
2.33398438
2.62011719
3.10937500
2.02050781
2.13085938
2.52441406
2.67089844
3.09570312
3.25976562
2.59667969
1.24023438
1.94433594
2.15820312
1.89160156
1.14355469
0.29101562
0.24707031
1.36718750
1.48730469
1.31347656
1.03515625
0.90136719
1.41894531
0.83300781
0.63574219
1.06152344
2.53906250
0.11132812
0.39355469
2.33593750
1.86621094
2.69921875
2.87500000
2.92675781
3.11425781
2.85253906
2.13671875
2.78027344
2.28320312
2.99707031
1.32812500
2.87988281
2.12304688
3.41796875
3.07324219
4.30273438
3.59375000
3.11718750
2.25781250
3.63964844
2.73144531
3.25195312
2.92675781
3.61132812
0.34179688
-0.12207031
0.24023438
-0.04492188
-1.26074219
-1.65917969
-0.94628906
0.18554688
-8.21093750
2.22460938
0.00488281
0.21875000
1.52050781
-4.68457031
2.59667969
1.19335938
3.64355469
-0.36718750
13.94238281
2.75195312
2.81738281
8.69824219
7.19238281
6.27343750
1.76757812
0.14453125
0.03613281
-1.66796875
0.66113281
0.99511719
-0.24316406
-0.10644531
1.66015625
-1.52539062
-1.92578125
-0.67285156
-3.95703125
0.88769531
8.02734375
2.28027344
7.40820312
10.42968750
0.76074219
-1.87695312
-4.68945312
5.01855469
10.79785156
3.22265625
-2.73632812
-4.14941406
-1.57714844
2.40039062
2.78515625
-2.92480469
-1.81250000
-0.61035156
1.00683594
5.16503906
2.60156250
-4.33886719
0.10742188
4.07226562
1.00781250
0.22167969
-5.75585938
-0.76660156
2.72656250
-0.15039062
6.71972656
5.03613281
3.28515625
5.38085938
-0.38574219
4.47949219
-2.07519531
-3.07031250
-1.20898438
1.44824219
1.96972656
4.99218750
2.11816406
-1.40820312
-6.12890625
2.41308594
1.57910156
8.11425781
4.41894531
1.86718750
9.02441406
2.02148438
-0.50585938
1.14550781
0.71191406
2.41015625
1.06347656
3.45214844
12.08886719
1.94335938
-1.14062500
-2.03222656
-8.10644531
1.55078125
1.81347656
-3.69726562
2.13085938
2.26171875
1.13964844
-0.88574219
3.23144531
-0.09472656
-6.11132812
4.30859375
1.20898438
-1.32226562
2.20605469
-0.80664062
2.97265625
3.73632812
2.53906250
2.57617188
-2.00292969
-1.57617188
-1.82324219
-5.67773438
-1.48242188
-4.59863281
-3.79296875
1.60742188
-5.02832031
-0.08105469
2.17675781
1.62304688
-4.31738281
0.68847656
-3.84765625
-0.90136719
0.13671875
-1.70410156
-1.96484375
0.15820312
5.21972656
-2.13476562
0.84082031
2.34960938
3.81152344
2.79492188
-3.50585938
-1.86132812
1.73925781
4.78417969
1.19238281
0.09472656
0.79101562
-3.03808594
-3.24902344
-9.24707031
3.29199219
0.62792969
0.31250000
1.33105469
1.12011719
-2.39746094
-4.19726562
-2.32714844
3.00488281
-1.68554688
-2.59472656
-2.00585938
2.76464844
0.97949219
0.18457031
1.11523438
0.72167969
-0.03320312
-10.46875000
4.99707031
2.72363281
1.85839844
-0.13378906
-3.66894531
-1.23339844
-6.47070312
-6.06445312
-1.51953125
-2.67480469
0.10546875
-4.77050781
0.88378906
-10.79882812
2.95898438
-4.76074219
-2.34960938
5.02832031
3.16601562
-2.49414062
2.61328125
-1.00585938
0.76171875
-0.49316406
-0.13183594
-2.88183594
-2.66113281
0.01464844
3.47949219
-0.06152344
2.12304688
-0.89941406
-1.22167969
-3.46484375
-6.20507812
-5.32226562
2.74023438
2.77539062
4.91894531
-1.60058594
1.39355469
-5.06542969
1.43750000
-4.35253906
-3.70312500
-0.46875000
6.35839844
0.73925781
0.93847656
5.83203125
-1.59375000
0.00292969
-2.97558594
0.76464844
-2.02246094
1.46972656
1.99804688
-1.83886719
-1.02148438
-1.99414062
0.20507812
-1.51953125
-0.55761719
-3.75878906
0.01074219
0.93457031
2.79785156
-0.23828125
0.34472656
-1.25683594
-1.82031250
-4.15722656
2.03906250
-6.35253906
1.01660156
-0.66308594
-0.64355469
1.23339844
-0.87109375
-0.06152344
-1.66796875
2.73632812
-2.78320312
4.38769531
0.64355469
-0.65429688
-1.36035156
-2.94726562
0.61328125
1.47851562
1.01269531
-2.38867188
1.03906250
-0.05761719
1.21386719
-0.41406250
0.13671875
-3.56445312
0.12890625
-4.73925781
-3.27636719
-2.73339844
0.02050781
0.70019531
-4.28222656
-1.26855469
-0.43066406
-0.06152344
-0.05175781
0.96875000
0.35937500
-2.38964844
0.38964844
-1.15917969
-3.57714844
4.66894531
-0.19042969
0.18457031
-0.30664062
1.65527344
-8.30664062
-0.11425781
0.70800781
0.11035156
-2.77929688
0.11035156
-3.57128906
-8.44335938
-4.98925781
-2.90039062
-1.73242188
4.53906250
-1.07519531
0.96289062
0.05566406
-0.07324219
-0.09960938
0.90234375
-1.08496094
-1.37207031
0.00585938
-2.01074219
-1.89941406
4.25781250
1.16308594
0.60644531
5.48242188
-1.84179688
-5.95996094
-1.48535156
-1.93457031
-0.09667969
-2.09570312
-0.52636719
-0.03515625
-2.68750000
3.73339844
1.05957031
-0.12011719
1.14746094
-3.21777344
0.44335938
-0.21875000
-0.05859375
-0.46191406
0.63476562
-0.08691406
-1.31445312
0.62304688
-3.05273438
-4.41113281
1.06933594
-1.20214844
-0.31933594
12.22265625
-7.02636719
-2.99414062
-2.00390625
-0.87207031
-0.44628906
-0.62890625
1.30078125
-2.31250000
-3.22265625
0.11523438
-5.37207031
-2.15429688
-1.07910156
2.99121094
1.90234375
-1.08984375
-0.29101562
1.10742188
1.72070312
0.47753906
-0.75488281
0.54003906
0.92382812
-0.13769531
1.29980469
0.27148438
0.46093750
2.90917969
-7.02050781
-4.95703125
-0.17089844
3.04589844
-3.13964844
1.91503906
-1.14062500
0.64160156
-4.56347656
2.79785156
5.92578125
0.57519531
-2.71386719
-1.18847656
0.64160156
-0.67285156
-0.20019531
0.23339844
0.49511719
0.17578125
0.21875000
-4.25781250
1.39648438
2.29101562
-0.20898438
0.81347656
1.99609375
-2.81933594
-4.73632812
-1.70117188
0.54296875
0.94628906
0.87304688
-4.14843750
-2.46582031
-1.79882812
3.38378906
-1.97363281
-1.17578125
0.67089844
-1.62597656
-1.98144531
0.61914062
-0.44042969
-0.14550781
-3.06640625
-0.01953125
-1.33984375
-0.26855469
0.87695312
0.30957031
0.94433594
0.04296875
1.01757812
1.10546875
-0.62011719
1.75390625
-0.26757812
-5.56640625
-0.19140625
1.73339844
-1.60937500
4.49316406
2.62109375
5.91796875
2.74511719
0.79492188
1.48828125
2.84570312
4.08398438
1.59472656
-0.03027344
-2.18164062
0.52343750
-1.50097656
-1.87011719
-1.76953125
0.00878906
-0.07226562
1.57128906
-1.88867188
-3.91015625
-3.87402344
-2.40917969
0.40332031
0.26757812
-0.21191406
-2.86132812
5.50488281
0.32910156
3.06445312
-1.78125000
-4.85546875
-1.31835938
-4.33203125
-2.66113281
-4.96093750
0.44921875
0.22167969
0.78320312
-2.30664062
-1.62597656
1.76660156
2.95214844
0.15234375
-1.42187500
0.04589844
-0.42089844
0.82714844
2.85742188
-0.77441406
-1.53906250
-0.94238281
0.11328125
3.01074219
2.89160156
5.55664062
2.59375000
-3.60839844
-0.01367188
-0.38867188
0.07812500
0.33691406
-0.08007812
-1.83300781
2.28515625
1.05273438
2.34375000
0.05175781
-1.08593750
-2.05761719
-0.16113281
1.18652344
-1.44140625
2.29199219
2.67968750
0.98144531
-0.11621094
-7.30371094
-8.25195312
-3.30371094
-4.88476562
2.47167969
2.98925781
0.21679688
-0.82617188
-1.16015625
-0.72753906
-0.79785156
-0.63476562
-0.23730469
-1.61230469
-0.41015625
1.26660156
-0.91113281
-2.38671875
-0.67285156
1.30175781
0.36718750
0.31640625
2.61035156
1.84277344
0.58886719
-3.40429688
7.14746094
1.19921875
-0.15820312
-3.75195312
-3.86230469
-1.95703125
-1.01367188
-3.85253906
-0.59570312
-0.45312500
0.12890625
0.51269531
0.31835938
-0.02539062
-0.72851562
-1.04785156
-0.69238281
1.61328125
0.98925781
0.53808594
-0.84863281
-2.65820312
2.39062500
-0.90917969
-0.26660156
0.34179688
2.93750000
3.19335938
1.74414062
-2.08496094
-1.36035156
-1.25000000
0.10449219
1.36132812
0.08789062
-1.84375000
-1.81640625
0.59082031
0.68652344
-0.39257812
-0.04589844
-0.42089844
-1.99902344
-1.93652344
-0.77050781
0.03515625
0.52636719
-1.04394531
0.84765625
-3.11328125
-4.25000000
0.81738281
0.05468750
1.61523438
-1.45117188
3.07714844
-1.62890625
-0.99121094
-1.57031250
1.59472656
-0.79199219
-0.98046875
-2.03808594
-0.62304688
-1.93750000
-0.87988281
0.11816406
1.21289062
0.27832031
0.07714844
-0.72558594
4.87695312
-0.13769531
-2.89453125
-2.72851562
-1.93457031
-0.16796875
-1.60253906
-5.13085938
-1.62792969
-0.06152344
-1.20898438
-0.02832031
4.79394531
-1.66894531
-2.32910156
-2.58789062
-1.74218750
-1.24218750
-1.76855469
-0.19238281
0.52343750
-0.43359375
-2.83203125
-0.46386719
-3.29101562
-2.40039062
0.50390625
2.11816406
1.00488281
0.96582031
0.59960938
-0.48437500
-1.62597656
0.11230469
-0.22558594
-0.66699219
-7.39257812
-5.87304688
3.20214844
1.33789062
4.39843750
0.01269531
1.04296875
-1.30664062
-2.77929688
-1.79492188
-1.11328125
-0.66015625
-1.47167969
-0.51757812
-0.89550781
-2.41406250
-6.06835938
2.04199219
5.39257812
-0.12890625
0.87207031
-4.92871094
1.20117188
0.90722656
-0.78222656
-0.62597656
-2.34472656
-1.70898438
-1.73632812
-2.27246094
-1.37402344
1.16699219
-1.78710938
-2.47949219
-1.99707031
-2.55664062
-1.35253906
-1.70312500
-1.47167969
-0.95996094
-1.75292969
-1.92871094
-2.31640625
-0.51464844
0.12402344
0.76171875
-1.39062500
-1.26464844
-1.44042969
-1.72167969
-0.08496094
0.18652344
0.78417969
1.36425781
0.63476562
0.43066406
0.27343750
0.20312500
0.24023438
-0.69628906
-1.08105469
-0.96875000
-0.24511719
-0.14941406
0.71875000
-0.08300781
-0.25195312
1.02148438
0.68847656
0.95507812
0.40917969
-0.03808594
-0.18359375
0.96777344
1.08105469
1.45898438
-0.35253906
1.09375000
0.94628906
0.11914062
2.03613281
2.42773438
2.66503906
2.82226562
1.92480469
2.35351562
2.49414062
2.91210938
3.12109375
3.04589844
2.40722656
1.66601562
1.79492188
1.34179688
0.47460938
0.67187500
0.12402344
0.77050781
1.69238281
2.05175781
1.40820312
0.46289062
1.30761719
1.56542969
1.79394531
2.11328125
2.99121094
4.52929688
1.00000000
0.64062500
0.03906250
0.50976562
0.32226562
0.96582031
0.38574219
1.56054688
0.48437500
1.00585938
1.18359375
1.07714844
2.35058594
1.47070312
1.73925781
3.73242188
0.02636719
-0.42187500
1.33398438
1.73828125
1.58984375
2.01171875
1.63281250
