0.01562500
-0.08789062
0.07128906
0.06933594
-0.07421875
0.10156250
0.12402344
0.04785156
0.05371094
-0.04296875
-0.12500000
-0.02929688
-0.11621094
-0.04101562
-0.04003906
0.04199219
-0.11425781
-0.06250000
-0.12109375
0.04394531
-0.05273438
-0.12500000
0.12402344
-0.05761719
-0.03027344
-0.04003906
-0.05859375
-0.11914062
-0.05859375
0.10644531
-0.08496094
-0.12500000
0.04882812
-0.12500000
0.01464844
0.12402344
0.04101562
-0.03125000
0.09277344
-0.12500000
-0.11816406
0.00390625
-0.03710938
-0.11035156
-0.10351562
0.01660156
0.07519531
-0.06542969
-0.03222656
-0.08398438
0.07617188
0.03417969
-0.02734375
-0.03125000
0.01171875
-0.11230469
-0.04394531
-0.12500000
0.07324219
-0.00390625
0.08886719
-0.00097656
-0.00976562
0.06445312
0.03808594
0.10058594
-0.07519531
-0.11132812
0.12402344
0.02832031
0.00683594
-0.09667969
-0.12500000
0.01953125
-0.12011719
-0.12500000
-0.03125000
0.12402344
-0.04003906
0.12402344
-0.11132812
0.04980469
-0.07421875
-0.01464844
-0.00585938
0.00878906
-0.02539062
0.03320312
-0.09765625
-0.10253906
0.12402344
-0.02246094
0.07910156
0.11914062
0.00781250
0.08789062
0.03613281
0.04980469
-0.09765625
0.00488281
-0.12500000
0.04101562
0.08007812
-0.05273438
-0.12500000
0.12402344
0.08886719
0.09375000
-0.01953125
0.03027344
-0.08593750
-0.04101562
-0.02148438
-0.01660156
-0.10839844
-0.12500000
-0.03320312
-0.08300781
-0.10449219
0.02050781
0.04589844
-0.12500000
0.10058594
0.01757812
-0.01367188
0.00097656
0.01953125
-0.04296875
