-0.08300781
-0.83886719
0.61816406
-0.07714844
-0.77734375
0.39160156
-0.97558594
0.18164062
0.55761719
-1.39941406
-0.86523438
-1.64062500
-0.49316406
-0.74804688
-0.79003906
-1.57617188
-0.34863281
-0.03808594
-1.29394531
0.29882812
-1.02929688
-0.38964844
0.07128906
-0.71386719
-0.98730469
-0.98437500
-0.10058594
-0.83593750
-1.88574219
-0.37109375
-0.99218750
-1.28417969
0.30859375
-1.12890625
0.13476562
0.40625000
-0.58203125
-0.48339844
0.28027344
-1.65820312
0.01269531
-0.36230469
0.24218750
-1.14355469
-0.05664062
0.44628906
-0.58496094
-0.34082031
-1.15527344
-0.94042969
-0.06738281
0.29882812
-1.32421875
-0.37402344
-0.69140625
-0.49902344
-0.55371094
-0.82128906
-0.22851562
-1.01757812
0.18457031
0.07519531
-0.89941406
0.26464844
0.53613281
-0.53125000
-1.22363281
-1.17382812
0.45214844
-0.28222656
-0.05273438
-1.34277344
-1.18164062
-0.24218750
-0.42480469
-1.09960938
-0.19433594
0.25878906
0.14453125
0.27734375
-2.09960938
-0.21679688
0.02539062
-0.40039062
-0.67773438
0.17675781
-1.25488281
-0.71386719
-0.42675781
-1.00292969
0.77832031
-0.68164062
-0.39062500
0.46386719
-1.15234375
0.26757812
0.28125000
-0.97558594
0.17871094
-0.25585938
0.19726562
-0.95312500
-0.61523438
-0.07031250
-1.43554688
0.34667969
-0.24316406
0.87792969
-0.85742188
-1.17968750
-0.18261719
-0.33105469
-0.27734375
-1.18164062
0.20312500
-0.98437500
-0.34765625
-0.59570312
-0.81835938
-1.04687500
-0.80078125
-0.71679688
0.10742188
-0.27050781
0.07519531
-1.38574219
0.21386719
0.07519531
