-0.00986375
-0.61120230
-0.10039692
-0.13878134
-0.24551922
-0.17767192
0.14076176
-0.17273754
-0.96511978
-0.82381052
0.07725227
0.01089523
-0.88882291
-1.05054820
-0.52075779
-0.05552437
-0.05243998
-0.02009311
0.36322919
-1.29151642
0.03134273
-0.30986321
-0.35159129
0.04885677
0.02285135
-0.35120618
-0.87924618
-0.83922619
-0.24743988
-0.46440589
-0.18281844
-1.51216137
-1.50636661
0.30458713
0.08533804
-0.78052753
-0.52576429
-0.85173815
-0.30683801
-0.04281204
-0.31817064
-0.63883638
0.07862256
-0.94560117
-0.00773077
0.04803591
-0.93265605
-0.67631394
-0.13761435
0.20714933
-1.12402785
-0.42601541
-0.04249258
0.35660797
-1.15549874
-0.61143303
-0.35127124
-1.05496025
-0.03163369
-0.20937204
0.09669835
0.34134835
-0.03372605
-0.23749875
-1.06886733
-0.15579540
0.14255328
-0.40534663
-0.21771565
-1.26212668
-0.67779660
0.15740252
0.19329795
-0.70949376
-0.71333194
-1.48870230
0.28091827
-1.04475534
-0.43273407
-0.64603758
-1.15227485
-0.06027658
-0.33406666
-1.13397348
0.16840696
-0.03876147
-0.29033092
-0.57472217
-1.01598251
-0.26762059
-0.59785360
-0.81496346
-0.07178260
0.27980044
-0.29659015
-0.34967819
-0.40574297
0.02896873
-0.44512564
0.43147099
-1.30670989
-0.38644314
-1.19526625
-0.04725683
0.19683011
-0.50667298
0.12495956
-0.49472845
-0.46019599
-0.24963525
-0.27312502
0.19717278
-0.44221804
-0.68998367
0.12409759
-0.32152247
-1.12839890
-0.42009157
0.25047025
-0.03554670
-0.07299585
-0.01236350
-0.40845883
-0.30759734
-0.19489853
-1.18688583
-0.29080927
-0.05802220
-0.05226624
-0.75846934
-0.02728208
-0.49627838
-1.32744515
-0.03772940
-0.42837319
-0.23158972
-0.70005995
0.00716788
0.42898768
-0.18886261
-0.10166676
-0.53624213
-1.07106078
-0.59915441
-0.48106340
0.24713098
0.14913385
-0.60176754
0.08849911
-0.02111623
0.01976844
-0.75332010
0.19269113
-1.46459305
0.16543755
-0.31713521
-1.22982597
-0.50091493
-0.61905956
-0.84099060
-0.09317397
-0.10076141
-0.71176904
-0.56398702
-0.85552913
-0.72124350
0.27842313
-0.81253713
-0.62229693
-0.82373959
-0.08891273
-0.33291557
-1.23797250
-0.56673235
-0.53658676
-0.05317799
-0.24227922
-0.48529309
-0.75400484
-0.02988780
-0.80551833
-0.06264046
-1.71813405
0.11428498
-0.07977754
0.41949278
0.35601878
-0.14710160
-0.56214881
0.05825494
0.43833274
-0.51157326
0.45105588
0.31309101
-0.71797931
-0.47048423
-0.54898351
0.07976744
-0.61812359
-0.08291399
0.20292372
-0.31626096
0.00633103
-0.18878150
-0.00878376
-1.08080208
-0.21975598
-1.82182145
0.28236294
-0.40139824
-0.34879726
0.08870365
-0.42643809
-0.44772807
-0.73167527
-0.41119760
-0.22135845
-0.22495133
-0.69413918
-0.42913246
0.41136378
-0.81496853
0.05274101
0.23412779
0.27556080
-0.17058016
-0.62888479
-0.38818586
-0.24519145
-0.06154502
-0.94987547
-0.11288145
-0.20607574
-0.30690393
-0.05583412
-0.55475295
0.18192308
-0.50221592
0.04235065
0.03312992
-0.62134987
0.19817968
-1.01475930
0.30251944
0.38933656
-0.10329553
-0.13946290
0.21097827
-0.45950502
0.05438599
0.27921721
0.78920078
0.16479897
-0.57070905
-0.50898170
-0.67470723
-0.84795219
-1.00829411
-0.50153202
-0.20323753
-0.03534878
-0.72459501
-0.32067052
-0.29475236
0.06104308
0.22783667
-0.68437696
0.02648605
0.39726830
-0.83665758
-0.22052760
0.11578193
0.00438898
-0.67371041
0.07108904
-0.25484508
-0.53169066
-0.47305521
0.07667781
0.40241814
-0.58552814
-0.43985990
0.00668476
-0.03158375
-0.23556530
-0.34455693
-0.43475080
-0.45491588
-1.16553581
-0.32753474
-0.22702056
-1.15228176
-1.25796533
-0.67499238
-0.91714114
-0.53597707
-0.56884849
-1.31592798
-0.10248443
0.14529422
-0.59321344
-1.08548307
0.08898750
-0.65209854
-0.02820277
-0.84457189
-0.48730105
-0.01013455
-0.71107811
-0.72159171
0.28847656
0.25097698
-0.68549186
-0.01862011
0.00155302
-0.16393110
-1.36076009
-0.32377049
-1.70128942
-0.61660713
-0.90386575
-0.73347372
-0.08919606
-0.48395833
-0.36499867
-0.36047900
-0.77896154
-0.18187392
-1.00491154
-0.43415967
-0.29499212
0.34591696
-0.89077997
-1.35849965
-0.82342577
-0.29495293
-0.73142052
0.39354268
-0.30329838
-0.51516670
-0.14847066
-1.10110581
-0.04970700
0.05602789
-0.02385831
-1.09417510
-0.04169661
0.02669752
-0.60627609
-0.09198469
-0.13326332
-0.13310620
-0.10058584
-0.56870222
-0.10946001
-0.30534598
0.30389842
-0.07657092
-1.09405172
-0.65792853
-1.68544412
-0.91898561
-0.19736378
0.00994093
0.32185316
-0.22325850
-0.89285952
-0.57185000
-1.24772680
-0.61808378
-1.03804052
-0.33543631
-0.21133313
-0.24526487
0.30536190
-0.59102690
-1.09919822
-0.48620492
-0.49931046
-0.55404919
-0.54481786
-0.87900251
-0.27883428
0.02969753
-0.64037693
-0.83518958
-0.09003811
-1.24889576
-0.14793448
0.03249550
-0.72371495
-0.63791811
-0.44161546
-0.19980505
0.03747305
-0.21264014
-0.48924449
0.48207319
-0.06878362
-0.27747571
0.52542323
-0.79585195
-0.57864255
-0.92921567
-0.05042905
-0.94380945
-0.84478951
-0.32721239
0.38448134
-0.64601141
-0.08600621
0.18218699
-0.39916864
-1.07447696
-0.08265852
-0.24805221
-0.27597538
-0.09936572
-0.37000135
0.19762681
-0.41332996
0.03203131
0.48787037
0.09411680
-0.73705667
-0.38579217
-0.07260656
-0.32090357
-0.57962704
0.25141031
-0.57054472
0.06762289
-0.22159773
-0.25806436
-0.39342237
-0.84227037
-1.14733827
-0.11793566
-0.47146380
0.22925438
-1.14068305
-0.50499684
-0.06402492
-0.60070628
-0.21195440
-1.71873605
-0.67867249
-0.60660994
0.02095930
-1.11194921
-0.24045582
-0.68935788
0.42435503
-0.37848637
0.50977993
-1.68979347
0.01638406
-0.17483442
-0.07138463
-0.28449541
-0.36692470
0.22630058
-0.02645389
-0.80076867
-0.09169389
-0.41077504
-0.93680608
-0.01048316
-0.04365965
-1.05692983
-0.38329759
-0.61760533
-0.59863126
-0.57405394
-0.92769432
-0.28952447
-0.84212261
-0.32966790
-0.14880803
-0.15971062
0.15084974
0.27604675
-0.69367331
-0.04158131
0.18388782
-0.80032343
-0.33405399
-0.46563083
-0.86115032
-0.52029777
-0.65049970
0.26871914
-0.48807773
-0.24239852
-0.30161229
-0.95882314
-1.00327635
-0.25689048
-0.30387369
-0.52083242
-0.71592414
-0.11242410
-0.26515919
-0.05817408
0.33266601
0.13998193
-1.51741958
0.09131892
-0.24137804
-0.84527951
-0.39799532
-0.41178679
-0.14096817
0.08760399
-0.19726031
-1.00065076
-1.13886094
-0.20731743
-0.86195815
-0.07999097
-0.16116399
-0.20050335
-0.55457866
-0.20421664
-0.72792286
-0.81831688
-0.17165145
-0.21651465
-0.67534751
-0.63742888
-0.69836748
-1.10080719
0.11360531
-0.14427142
0.56027424
-0.61308151
0.08934832
-0.59795791
0.15373646
-0.43009633
-0.28224209
-0.96185505
-0.57152247
-0.73052067
0.34017158
-1.13002157
-0.49743390
-0.12005503
-0.91344327
-0.52522010
-0.31967983
-0.28356850
0.05172897
-0.64568663
-0.58853328
-0.36205131
-0.39242497
0.30527705
-0.53781635
-0.26003027
-0.62311113
-0.71719712
-0.50388676
-0.27268532
-0.66911703
-0.06829389
-0.69771540
-0.16814889
-0.05032913
-0.18993516
-1.02005208
0.08975837
-1.61576807
0.47518200
0.13785830
0.20255539
0.10027465
-0.10349894
0.06934552
-0.28416508
1.02443278
-0.90625000
0.28230673
0.02568705
-0.19881707
-0.78217894
-0.45120236
-0.51486772
-0.73132646
-0.23721109
-0.55539614
0.04807902
-0.01528456
-0.63572860
-1.62018633
-0.38016221
-0.37302685
-0.57368696
0.27999425
-0.27231315
-0.10176361
-1.07452083
-1.33576310
-0.20651226
-1.07595289
-1.22809744
-0.27065110
-0.04629462
-0.60647678
-0.49670964
-0.85122031
-0.88444924
0.18043654
-1.06528091
-0.05829682
-0.54765630
-0.75783682
0.08342993
-0.96364844
-0.71913314
-0.40289810
-1.12304878
0.05336458
-0.80406058
-0.39112166
-0.06327566
-0.68013531
-0.91637158
0.61003917
-0.51975161
0.08550197
0.23591173
-0.46438068
0.26179904
-1.02147460
-1.08026743
0.18685175
-0.44986051
-0.37785593
-0.90748835
-1.14279294
0.00149879
-0.55803627
-0.17993085
-0.18669100
-0.71730447
-1.21371365
-0.64910632
-0.72731119
-0.82495576
-0.27690893
-0.25427327
-0.72229016
-0.79163945
-0.50602818
-0.89871550
0.17063825
-0.08006974
0.27487358
-0.50628155
-1.66165423
0.16252594
-0.21115993
-0.76211238
-0.56527346
-0.66273195
-0.28592202
-0.22670640
-0.13212563
0.03020442
-0.54553759
-0.05463713
-0.51883179
-0.09389977
-0.21330526
-0.71868032
-0.09648099
-0.35169199
-0.31614557
0.19231853
-0.46405837
-0.22390537
-0.95594186
-1.35561037
0.25592649
-0.80299884
-0.06032975
-0.32553422
-0.65782505
-0.98812658
0.19370697
-0.05719988
-0.12485776
-1.32241929
-0.03975869
-1.33999312
-0.59306484
-0.93612766
0.29430234
0.03780675
-0.56349188
-1.21062398
0.17885382
0.03130577
-0.17328428
-1.13780200
0.14144492
-0.12249614
0.23954947
0.15393679
-0.03764937
-0.11924518
-0.34661525
-1.17676318
-0.37436807
-1.06239271
-0.69345635
-0.05326177
0.06735446
-0.30452004
-0.31398532
0.25850278
0.36706805
-0.34425625
-0.76812905
-0.06625913
-0.77713561
0.93935597
-0.65192318
-0.09070782
-0.66964185
-0.25122190
-0.32226297
-0.16277030
-0.24280342
-0.88309020
-0.26717880
-0.41998425
-0.22077812
-0.18516003
0.26517117
-0.06832971
-0.42470020
-0.22704844
-0.08307069
-0.66130126
-0.62537104
-0.20159346
-0.13931191
-0.36295819
0.02768320
0.13691305
-0.23680925
0.24519087
0.17445888
-0.53843051
0.04616880
0.12528545
0.17739956
0.48502412
-0.02704716
-0.21334542
-0.78098923
-0.11114146
-0.39398736
-1.29285336
-0.37414145
-0.77901727
-0.80611902
-0.63075441
0.19181740
0.02019855
0.27686825
0.15367506
0.46849725
0.17693087
0.44832438
-0.26589769
0.00149682
-0.26423436
-0.24793722
0.13126889
-0.09982397
-1.28446257
0.21458581
-0.80067885
0.06372476
-0.32993284
-0.07279991
-0.13070935
-0.86356127
-0.48341972
0.10416622
-0.23118839
-0.06428310
-0.19839919
-0.46905169
-0.59730381
-1.47414804
-1.34722912
-0.44220683
-0.25343594
0.08641759
-0.99678171
-0.13959780
-0.39132807
-0.28909484
0.27465579
0.09803979
-0.49767664
-0.03513946
-0.12007082
0.31430069
-0.81420028
0.20700784
-0.27758250
-1.20460129
-0.22057337
-1.09382725
-0.27437311
-0.87665671
-0.49324638
-0.58671439
0.17324941
-0.53418839
-0.41659674
-0.05297530
-0.55595750
-0.38955933
-0.63341361
0.07810854
-2.31653500
-0.15888603
0.26619107
-0.49428347
-0.16671193
0.12077721
0.59914386
0.14950854
-0.79952157
-1.18633986
-0.08598638
-1.00108087
-0.60283619
-0.55127943
-1.20793152
-0.42670327
-0.01940267
0.20839567
-0.13809815
0.17575413
-0.76035035
0.28023124
-0.67480499
0.15760027
-0.31203786
-0.22123069
-0.18890503
-0.61079419
-1.05174267
-0.03600996
-2.12372160
-0.02613108
-0.89438641
-0.29345092
-0.52697682
-0.40195641
-1.25412667
-0.11372481
-0.41323447
-0.50856662
-1.09978247
-0.13066164
-0.06113432
-0.18029764
-0.58130246
0.29096118
-0.74766487
-0.28780535
-0.43289319
-0.76786530
0.37597218
-0.63955510
-0.75269979
-0.57172740
0.50323123
-0.83046854
0.80358124
-0.07380356
-0.76156133
-0.12616986
-0.40205771
-0.47221363
0.27257785
-0.87808430
-0.44723368
0.04518222
-1.01073694
-1.01176906
-0.33957693
-0.98206455
-1.31250620
-0.32402918
-0.57770115
0.35389388
0.44291493
-0.04730347
-0.72127587
-0.78326404
-0.70838380
-0.61614454
0.23792598
-1.01921558
-0.21606487
-0.72625524
-0.68479538
-0.86308777
-0.44044602
-0.04932198
-0.72983491
-0.88794845
-0.21760064
-0.22936548
-0.63262635
-0.25115582
-0.00776128
-0.68344265
-0.54341507
-0.36696449
-1.17669857
-0.89288968
-0.01195203
0.08252896
-0.90414762
-1.79656088
-0.76872092
-0.24105345
-1.14914846
-0.72777271
-0.93345976
-0.41120791
0.29584640
-0.24756159
-0.30628714
-0.06963350
-0.33402961
-0.55892444
-0.34762636
0.24214858
-0.70877635
-1.22818363
-0.91346484
0.06074465
-0.96874243
-0.33509344
-0.35406390
-0.88966393
-0.92434132
-0.67445856
-0.12820236
-0.32198435
-0.96283114
0.15149330
-0.18786553
0.25489029
-0.37209690
-0.66523433
-0.06485723
0.28128436
-0.73139346
0.60488069
-0.76959968
-0.73186940
0.20608166
-0.41024411
0.42231461
-0.82900977
-0.26153037
-0.54249769
-0.19196139
-0.71913517
-0.17439662
-0.58799803
0.29941416
-0.72793490
0.06435912
0.09157079
-0.05810026
-0.30721077
-0.04068684
-1.28601289
-0.97548664
-0.62350756
0.17620553
-0.69395721
-0.04809669
-0.65989947
-0.15155199
-1.10021079
-1.12042475
-0.70828921
-0.84816825
0.01377724
0.05437056
-0.73487550
0.06814238
-1.25403178
-0.31501731
-0.06928107
-0.40406251
-0.16174811
0.00593403
-0.68488216
-0.06868011
-0.17402181
-0.69590139
-0.56751567
-0.06532289
-0.14392975
-0.32439029
-0.29288703
-0.36927721
-0.64981121
0.07880162
-0.89156073
0.02887561
-0.62354457
-1.01311171
0.08997142
-0.57631695
-0.89578307
-0.31463328
0.03937233
-1.51226342
-0.19743450
-0.06527037
-0.28481272
-0.34110048
0.31195515
-0.06572850
0.11979213
-0.16743208
-0.22688934
-0.56078219
-0.64016998
-0.08456501
-0.75159568
-0.34773538
-0.03514965
0.57378787
-0.01574412
-1.15648723
-1.44122994
-0.16219236
-0.11859750
0.48072374
0.33101520
-0.48869601
0.12756455
-0.25146663
0.07669701
-0.50949699
-0.37331775
0.13792157
-0.44824234
0.23018146
0.08717096
-0.77635181
-0.68343961
-0.04698617
-1.25958669
-0.58936656
-0.34931573
-0.01776787
0.18125243
0.18460231
-0.46073952
-0.39261502
0.36740601
-0.35304859
-0.56736529
-0.41774192
0.27878189
-0.23687661
-1.21390057
-0.66221207
-0.57153016
-0.59011692
-0.00639544
-1.42219400
-2.53067517
-0.46392086
-0.23301223
-0.55330098
-0.81863737
-0.34215125
-0.20874664
-0.20265397
-0.33257860
-0.18687440
-0.01913325
-0.10271481
-0.05865347
-0.00144668
-0.49833256
-1.22356415
-0.59398282
-0.07254386
-0.18782614
-0.40165600
-0.65265584
-0.92352307
-1.22213626
-0.13969666
-1.26787734
-0.38595358
-0.75377911
0.36425358
-1.07859802
-0.00171963
-0.47499302
-0.22912426
-0.58105904
0.58540714
-0.42449006
-1.22961473
0.34271085
-0.63394755
-0.25943601
-0.92971224
-0.91395676
-0.47022739
-0.95718461
-0.54627359
-0.58070445
-0.00645408
-0.00167781
-0.62783790
-0.21985500
0.38673574
-0.16037759
-0.52513200
-0.52008110
-1.13357258
-0.30986190
-0.52146959
0.22550321
0.19756001
-0.06039003
0.24324317
-0.66375452
-0.47315732
