-0.24452001
-0.17084311
-0.94672507
-0.25551599
-0.42743543
-0.02620441
-0.63910294
-0.22605903
0.02225823
0.38581961
0.08845984
-1.62210691
-0.26231369
1.20510697
0.16615137
-1.53999221
-0.37635615
-0.21258451
0.18229932
0.43881077
0.27447104
0.76871586
-1.44255197
-0.10459804
-0.34806290
-0.07316566
0.45247641
-0.65212685
0.24732842
0.59517044
-1.23531151
-0.62483615
-0.69314271
0.58540118
0.06037857
-0.64379418
-0.14212146
-0.42274660
-0.03321302
0.25296122
-1.15372610
0.40119162
-0.01873872
0.96660441
0.77868664
0.03307554
-1.16120458
0.16350040
0.13297379
-0.19210957
-0.74496442
0.11490064
-0.23424676
-1.36231005
-0.06841948
-0.91845733
0.33861232
-0.16389899
-1.33271992
-0.77690953
-0.62701058
-0.25045776
-1.35028636
-1.25127578
-0.03718986
0.05252786
0.30833900
-0.26038957
0.52932996
-0.25789252
-0.31104839
-0.03609835
-0.44165656
-0.48815194
0.12719713
-1.20959473
-0.04276487
-0.78554112
0.45753551
-0.89851862
-2.20132565
-0.08455431
-0.93290865
-1.74339271
-0.97982454
0.28802061
0.53346938
0.36580542
-0.56821251
-0.17920449
0.13281211
-0.16874044
0.07854519
0.51680875
-0.43976232
-0.63612491
-0.68778449
-1.19801641
0.51342374
0.39381915
0.02454557
-0.29601702
-1.63650191
-0.97013128
-0.68953967
0.16750386
-1.96916401
-0.46839985
-1.05520201
-0.08637854
0.06621065
0.10369027
-1.30280173
0.64956027
-1.27673399
-0.25233155
-0.15183188
0.16303802
-1.48694944
-0.11748342
0.45588163
-1.45609462
-0.94485843
-1.30941439
-0.62596536
-0.54786563
0.07962689
-0.10989307
-0.01628867
-1.57289672
-0.07928055
0.75484616
-0.82219869
-0.09279204
-1.26572204
-0.37248415
-0.97702581
-0.24865098
0.12509422
-1.76189423
-0.84279865
-0.64965785
-0.79018950
-0.17872113
-1.20430160
0.45273930
0.31337959
-0.24921134
0.55345142
-0.96207505
-1.62136149
-0.20058748
0.37782288
-0.48838520
-1.43623245
-0.25073081
0.00057041
-0.10626026
-0.65425700
-0.04842564
-0.74738246
-0.27453020
0.12428289
-0.10379519
0.35122532
-1.02359521
0.37573454
-0.76523185
-0.41525766
-0.26303208
-0.61689991
-0.68207610
-1.52401912
-0.38079953
-0.76577181
0.11932049
0.06841704
-1.06516457
-2.26477814
0.11594378
-0.84433264
-0.55755061
-0.63707155
-1.75335622
-0.33573478
-0.38665369
0.23377730
-0.46595564
0.49927539
-1.42240798
-1.03158057
-0.63837647
-0.29865569
-0.25138018
0.37041312
0.27703026
0.62640953
0.10616446
-0.93486822
0.20871773
0.23968546
-0.00837912
-1.16564822
0.47351307
-0.51156622
-0.30407086
-0.18258324
0.44651461
-0.86451107
-0.13737677
0.81312293
-0.34641168
0.53832078
-0.21216394
-1.18095648
0.06672708
-0.05185017
-0.52650392
-0.52364546
-0.02749237
0.02512877
-0.64251035
-1.78637922
0.14437440
0.28526121
-0.40544641
0.09073018
-1.28951466
-1.25235212
-0.97597259
-0.37469622
-0.00251987
-1.56116176
-0.13975343
0.22262150
0.40102911
-0.11068892
-0.31438664
-0.05719757
-0.52384186
-1.34583676
0.27392104
-2.06267214
-1.58397388
0.04586928
0.00736893
-0.23919445
0.15402274
-0.15918861
-0.19325799
-0.59141856
-0.32070619
-0.12558937
-0.34456325
-1.37192810
-0.10185762
-1.57347035
-0.31379607
0.26366097
-0.21114945
0.37780356
-0.02813426
0.01666873
0.29032850
-0.70377880
0.15522756
-0.01318210
0.02930782
-0.34300333
0.00264159
0.01241363
-0.18609396
-0.18817428
-0.11580483
0.43276235
-0.45688152
-1.04365599
0.44099927
-0.49417952
-0.42155823
-1.58262873
-0.51302254
0.28974611
-1.22379231
0.09395587
-0.10608725
-0.48751956
0.25512943
0.25221327
0.44987050
-1.07331872
-0.50542283
-0.05706534
0.02612477
-0.30364445
0.03684330
0.33753332
0.26114386
-0.29830045
0.48708937
-0.54237378
-0.31247774
-2.03964639
-0.36430123
-0.33533877
-2.11457062
-0.13865034
-0.24427918
-0.18905687
-0.21065649
-0.93277901
-0.28090915
-0.13351992
-0.99138045
-1.31925797
-1.95172155
-1.59116793
-0.15139611
-0.43600988
-0.96902943
-0.31226912
-1.53734255
-0.71112674
-0.14740074
0.19829522
-0.05606836
-0.52240980
-0.51688790
-1.69472265
-0.18313503
0.21105565
0.38580322
-0.15894276
-1.03158712
-0.24814816
-0.76807952
-2.08721566
0.17129786
-0.13920262
-0.06541818
-0.44103464
-0.50916618
-0.92547446
0.04251062
-1.92473674
0.19176967
0.23413539
-0.93419367
-0.68390179
0.23392017
-0.13101730
0.34862596
-1.05024099
-0.39989716
0.58589107
-0.96954530
-0.88045704
0.23388118
0.44311804
0.46837774
-2.06441998
-1.62060273
-0.58056200
-0.73973089
-0.28435114
-0.03860648
0.00601251
-1.78666568
0.33003354
0.86675090
-0.14122900
-1.13146150
-0.98418593
-1.34829795
0.45067427
-0.29207307
0.59031713
0.45143884
0.08688630
0.26294002
-0.97000295
-0.30894041
-0.22299045
-0.24951573
-1.77864802
-1.42797756
-0.59163415
-0.73873097
-0.40950164
-0.17187150
0.23879571
-1.91113400
-1.41890025
0.27293468
-0.56867534
-0.56214899
0.38413700
0.04789569
-0.86756724
0.80811936
-1.06946814
0.41666168
0.28891805
-1.99121594
-0.40427789
-1.99867940
-1.90213752
-0.89478064
-0.70500517
-0.33247611
-0.66437614
-0.21994223
-0.11655615
0.16351517
0.11896937
0.01564657
-0.09745818
-0.28907940
-0.77404386
0.35396358
0.57857692
-0.77642214
0.95508790
0.08238535
-0.00349502
-0.63734829
-0.36896738
-0.36632624
0.14645037
0.23026171
0.90721369
0.91161716
-0.10032516
-1.09750628
0.19333012
-0.32977518
-0.16128965
-0.90208048
0.56789893
0.06596556
0.13721134
-0.47188538
-1.29590952
-0.32358256
0.91612208
-1.12110341
0.10197126
-0.22864830
-0.29510337
-0.66891843
-1.61541808
0.30050027
-0.35037282
-0.02886675
0.17974620
-0.25391531
-0.13460207
-0.61739665
0.28008217
0.41030788
-0.12854487
0.11913137
-0.09160948
-0.85553408
0.41320425
-0.84204471
0.59934682
-0.02976728
-0.42688939
0.30404815
-0.30710703
0.19797185
-1.01168489
-0.28064293
-0.82881975
-0.16650385
0.18305467
-0.47058299
-0.27412832
0.19179538
-0.40163845
0.62641978
-0.50369841
-0.10430170
-0.47321966
-0.98068315
1.09542024
-0.38986254
0.10211621
-0.06517161
-1.00714040
0.61242366
-0.14391245
-1.81722033
-0.37368488
-1.07195377
0.61944681
-1.38157403
0.17932269
-0.52537000
-1.24978757
0.94087529
-1.28867304
0.47130996
-0.82683891
0.33388191
0.67489684
0.13664366
-0.23196043
0.11665170
-1.62465489
0.00950200
-0.91751307
0.06703213
0.07437029
-2.88639975
-0.45390216
-0.19216859
-0.94922519
0.29084367
-0.43539667
0.10335288
-0.06367844
-0.78412104
0.44078058
0.38719457
0.73742366
0.84629542
0.51174700
0.64452022
-0.36897156
-0.52677006
-0.41966420
-1.09205866
-1.44111180
-1.33717692
-0.16011895
-0.28086931
-0.50279212
0.10823554
-0.91705948
1.09697056
-0.14439487
-0.99511057
0.37414545
0.49291050
-1.51124179
0.31936416
0.10968194
-0.73294443
0.69610178
0.60868758
-2.16995978
0.01765362
-0.10821768
-1.44149983
-0.57947850
-0.82050097
-1.49550259
0.64602512
0.09416908
0.28892136
-0.49003920
-0.15761918
-1.04690576
-2.08128667
-0.01772573
-0.66161215
0.19651017
-0.55088258
-0.47309253
0.37788922
-0.47299051
-1.29198134
0.24101327
-1.38261330
0.02646430
0.03185089
-0.49807355
-0.01923643
0.48829252
0.20494808
0.28446406
0.51703310
-0.36323884
0.65686172
0.47314838
0.08743455
0.12041080
-0.59968895
-1.34997511
-0.94223082
0.19928224
0.24698709
-0.56146049
-1.09825218
-1.56369877
-0.65223169
0.29519892
0.40296024
-0.62773138
-0.02483591
0.45739278
-0.29353240
-1.78617251
-0.43446901
0.66746044
-0.14765495
0.35289884
-1.16403759
-0.59879905
0.27109969
-0.22830781
-0.19614941
-0.90387899
-0.76279932
0.34872445
0.20871963
-0.52233195
-1.00063276
-1.51820624
-0.62425220
0.00074516
0.59033728
0.31271839
-1.00610816
-0.26411957
0.11583631
-1.51658058
-0.48779199
-1.40119469
0.52486032
-0.90231407
-0.39912805
-0.20650932
0.47672826
-0.81434125
-0.75800407
0.08691037
-0.39736730
-0.81451052
0.24211268
-0.79968268
-0.54549074
-0.02048141
-0.19579013
-0.26031819
-0.13549282
0.07199736
0.57749110
-0.24339198
0.08139163
0.69932514
-0.90520346
-0.11759745
-0.66334581
-1.51930118
-0.22309262
-1.68128407
0.00186666
-1.66650259
-0.56302136
0.57587266
-0.25531441
0.07555589
-1.80886209
-0.57290715
-0.96691531
-0.77931130
-0.53062147
-0.24203613
-1.67009950
