0.57288915
0.97458524
0.77582681
-1.67350352
-0.30207279
0.83208227
-0.66330636
0.86011553
0.82741624
1.11205089
-0.89872670
-2.21525478
0.45587319
-0.19642287
-0.63313991
-0.06568398
0.48779437
-0.28235760
-0.20550504
-0.26999164
0.59539807
1.23738575
-1.29252803
-0.15689620
-1.86398566
-0.83048934
1.20471990
1.11851561
-3.06273174
-1.34134579
-1.21878445
-1.08865106
-0.14951466
0.20034468
0.78808594
-2.37600660
0.84823459
0.38526675
-2.66656375
0.72934163
0.68330717
-1.98432994
1.12523973
0.75592107
0.62597018
-1.92807245
0.73527509
0.95599270
-2.47133589
0.16394682
-0.04855434
-0.96708816
0.33867928
-0.25812680
0.29310516
-1.22932053
0.46595466
0.95580047
-0.77399272
1.14686489
0.49429163
-0.89463764
-1.73984647
-0.01304607
-1.06926417
-1.48026502
0.24987391
-1.81805789
0.01236389
0.28778479
-1.11284864
-1.42976856
-1.34248006
0.74472815
0.69172412
-1.03329933
1.07100725
-0.75568300
-1.21872139
0.88610262
0.35364264
-0.51108545
0.08863374
0.44086185
-1.58906090
-1.12563050
1.18306386
-2.85378623
-0.49297288
0.63773805
0.79504901
0.70701355
1.10207033
-1.29612339
0.70265925
-0.34361306
0.71084458
0.88703352
-0.77714443
0.83467472
0.67314470
0.72961187
-0.71033907
0.31553864
0.98126882
0.86748642
0.53353196
0.85785967
-1.34298623
-1.32847703
-0.85203135
-1.03083491
-0.82497847
0.66068673
1.65981650
0.53631938
-0.22360493
-0.41367739
-0.35878420
-1.72842288
1.05078459
0.76980484
-0.54178202
-1.00510538
-0.42996368
-0.60289425
0.52228969
0.16191404
-0.21818696
-2.00908828
0.81229430
-0.01092999
1.00952065
-2.57737827
-0.29789019
-0.84672832
-0.23886099
0.38035017
-1.52168965
-1.34701812
0.36886153
0.92361802
-1.08832550
-1.57679796
0.34159604
-0.56065500
-1.12013531
-1.25372767
0.90146160
0.61040819
-1.22495615
0.59221596
0.40817690
0.48036170
0.70287359
0.46015790
-1.23362327
0.56043035
0.67870402
-2.24197483
0.29708171
0.80686945
0.66371357
1.54275191
0.52437097
0.43449071
-0.73137689
0.37464926
-0.49325368
-1.05451083
0.03402126
0.73200327
-0.10472954
-1.10213470
0.35825998
-0.13633929
0.37259856
-1.11569476
-2.55581164
0.65281093
-0.34403017
0.06135499
-0.29437992
0.73566800
1.34902263
-0.36298990
-1.37004793
-0.78418225
1.04608035
0.39813569
-1.03009987
0.49012303
0.89560449
-1.44497192
-0.73955429
-2.25860882
0.76062441
0.40062797
0.65189219
0.30828753
0.18677796
-1.68306792
-0.24711736
-1.25378931
-0.04742513
1.35923111
-0.80515486
-0.73765737
-0.58398426
-1.22752190
0.89440477
0.98260456
1.34127140
0.12677358
-0.49285895
0.57362235
1.17700922
-0.24761607
0.76254123
0.31194192
-0.17775488
-0.96693939
0.95369601
0.73542356
0.60025501
0.88148320
-0.94703418
-1.32248783
0.44125301
0.90393758
1.32168365
-0.24232385
0.37765557
-1.37618220
-0.33862764
0.83502769
-0.72123754
-0.89407438
-1.20606124
1.10206604
-0.30031565
0.75455278
-1.06035244
-0.74768960
-2.23859906
0.94826466
-0.12168396
1.20651937
-0.06982414
-0.85479939
-1.15710783
-1.33754587
0.98077261
0.40829572
-0.71999097
0.45463488
0.06147462
0.35308915
-2.13066649
0.93913484
-1.03295326
-1.48949611
0.56299651
-0.12762770
0.11808114
-0.74399996
-0.11155712
0.81558853
0.92516261
1.10877109
-0.48896158
-0.20362443
-0.96768105
-1.17973518
-0.27196169
-1.08266699
-0.54947335
0.96693510
0.39504212
-1.66973186
0.69605953
0.65554148
1.07899380
0.96264589
-0.51609385
-0.10245832
0.05695436
-0.61000830
-1.25063300
-2.27896452
0.29270050
1.22764075
-1.79576743
0.59610111
-1.48767841
-1.42072034
-0.01400606
0.19628987
-1.18280518
-0.26467872
0.77360189
-0.10399491
0.34437418
0.81955373
1.11374593
-0.70202112
-0.34676224
0.93957663
-2.02551174
0.41175953
0.80560100
1.18553638
1.13521993
-0.47120684
1.06526899
-0.28114408
-0.94995409
-1.25323212
1.01905775
0.72025979
0.99751240
-0.82543588
1.33793199
-0.96584874
0.82884896
-1.10832489
0.32845891
0.54296792
0.40123573
-1.31478226
-0.58538711
0.45785680
-0.51537657
-0.48091644
0.06477961
0.48275214
-0.10933440
0.25626025
-0.33535153
0.11191431
-1.54962766
0.92013085
-1.54863691
1.08128011
-0.85508883
1.07402313
0.68013793
0.63824934
0.83913296
0.93906832
-2.35346413
-2.32879591
-0.32423165
-1.42651784
0.16213323
0.34819743
-0.29190740
1.20779872
-0.03549767
-2.08270478
0.56302232
0.70379418
-0.69398785
0.16153696
0.57710838
0.54089659
0.86296785
0.58916020
-1.25367415
-0.54911768
0.82202142
0.36404258
-0.75398177
0.24363782
0.19311725
0.76272690
-1.17104447
-0.94181001
0.45889732
0.28140625
0.23256706
-1.13804817
0.68593323
-1.04611683
