-1.01411486
-0.19115299
-0.04933112
0.10251753
-0.72421855
-1.83426231
0.19848043
-1.06275985
-1.52122600
-0.18362943
3.54237973
3.21763515
-1.08564179
-0.59828745
0.79147526
-1.37091638
-4.06364752
2.36393184
-2.01189511
-1.29830624
1.87912931
-0.53291783
-1.06041442
-1.17259621
-4.41535234
1.02240395
-1.62677371
-3.13678915
-3.19921495
0.29205165
1.22824914
0.92370745
-1.47947186
-2.03485957
-0.41674331
-2.55736215
-1.40997911
1.12049946
-1.81684832
-1.28742398
1.90956194
3.33218877
6.37844035
-4.56724338
-1.42834184
0.15486026
-3.17018859
-1.40267015
-5.23109552
-1.82213737
0.35957265
0.20443292
-0.55613241
-5.00251141
-0.91152712
-3.58595845
-1.10570358
-3.11483210
0.98091179
1.55594916
-0.09546142
-0.36640149
-1.90489206
-0.77926502
-1.77026865
-0.50636212
-3.08098947
-0.37193133
-1.92351214
0.21989543
-0.98780564
1.53136748
-2.64851921
1.14809445
-1.37633794
-1.84725962
-0.67874123
-0.57457200
-0.62434812
-5.86901075
-6.18606261
0.19542026
-4.86046850
-0.67873381
-1.71649266
0.18028602
-2.78827719
0.22479312
0.27182083
-0.96791555
-1.90500916
-4.12220866
-2.65483939
4.71903023
2.41955168
-1.84115297
2.90007208
-1.22198827
-1.59512212
-0.93190595
2.30179831
-0.57008077
1.12196395
-1.41058177
7.16358670
-0.38970308
-4.24770855
-0.56836587
-3.97842269
-0.89585188
-0.43991807
-2.18579606
-0.50804742
-3.53901139
5.38193746
-1.42349206
-0.48699977
-0.32525110
-2.91925659
3.48887331
0.46603344
2.14647527
-0.86546209
-1.14289071
-1.25425529
0.06683157
1.07096803
-1.96391404
