0.57178783
-1.74888635
-1.36089730
0.15147969
-0.27069813
0.08694432
0.16143432
0.02479063
0.61094409
0.24537303
-0.47366405
-0.13670519
0.09062205
0.98356539
0.63310677
-0.22309026
0.70797616
-0.42446810
0.01150857
0.44507384
-0.34750426
0.27549785
-0.54636770
0.14875120
0.44333696
-1.01225281
-1.54091549
0.21018627
0.31690568
-0.72864324
0.98258740
-2.00459909
-1.05194807
0.29521695
0.22929841
-0.44492781
-0.84385490
-0.96122080
-1.42427838
0.42083248
0.39013088
-0.00376656
0.15091351
-1.58666348
-0.94040316
-0.32995960
1.32328391
0.35187966
-1.16957664
0.35532585
0.25789535
-0.16518854
-0.02076606
0.59589332
0.00919832
0.30042914
0.04176472
0.39820161
0.45554122
-0.05397155
-0.69735235
-0.36524659
1.21771502
0.32669091
0.92105550
-0.28643396
-0.64596635
-1.32094228
-0.36286318
-1.30043590
0.27985501
0.84224904
-0.50123245
-0.82511270
0.13294132
0.94581676
-0.94463676
-0.49981394
-1.28583789
-1.50826836
-0.20744409
-0.87755859
0.16350836
-0.51277560
0.44980145
-0.64355874
0.34657520
0.08921382
0.07136807
-0.47316256
-1.41340101
-0.10224575
0.13672952
-0.22462985
0.39384007
-0.45078486
-0.08720154
-1.47377598
0.22917858
0.72030866
0.70986134
-1.56699288
-1.27491736
0.13964157
0.04047345
0.58646870
0.87214696
0.67829376
-0.76932800
-0.17916714
-1.18767536
0.09042142
-0.54322857
-0.99419439
0.22030905
-0.74492335
0.04296965
-0.66087413
0.45404285
-1.30800354
0.23942252
0.29152066
-1.56752455
-1.59314656
0.06338427
0.38666666
-0.36680984
-0.43898642
-0.43655172
0.26452819
0.06213754
-1.35915804
0.53334659
-0.64897174
0.15699528
-1.55177116
0.43298006
0.21523605
0.04506252
-0.14323549
-0.29914415
-0.01318353
-1.53173769
0.73636281
0.07312238
-0.07282012
-0.58568382
-0.84526938
-1.28815889
0.56302059
0.16441761
-0.43754077
0.19082010
-0.89017230
0.61455232
0.06720248
-0.97312963
0.07998455
0.27640137
0.97413194
0.43626571
0.09256905
0.31975472
0.65268296
-0.05432163
0.02683010
0.69663304
0.52639169
-0.81442791
0.47745982
-1.60659957
0.52269816
1.10324645
0.31383011
-0.93422896
0.22939555
-0.03739505
0.09671026
-1.29702330
0.22894096
-0.89034641
-0.42112184
-1.27663147
0.46522793
-0.96583384
0.27322438
-0.47078955
-0.04812557
-0.31453094
0.09480815
-0.02327779
-0.88562059
-1.39300251
-0.30980083
-0.82057834
-0.24494003
0.13198569
0.26729092
-0.22967002
0.60852355
0.30791742
-0.71270996
0.43341234
-0.47911137
-0.47149205
-0.10339132
-0.32152751
-1.65020132
-1.49090004
0.44507349
-1.00797558
-0.05835924
-1.10161304
1.14985454
0.01449121
-1.60002196
-1.03399479
-0.84339434
-0.88098317
-0.51534420
0.15613635
-0.22019069
0.21828552
0.21466587
-0.18982264
-0.03146689
0.56516492
-0.02073046
-0.31305414
0.57670176
0.02373973
0.80182624
-0.75218147
0.24557836
0.46181154
-1.06350625
0.03797310
-0.46137220
0.65987432
0.02567622
-0.23953317
0.29083112
-0.18785568
-0.95663989
0.57163197
0.21218453
0.57500541
-1.51888168
-1.46671367
0.26264882
0.75117403
0.39534599
0.02108429
-0.19564982
-1.16924429
-1.61980903
-1.39269197
-1.17567515
0.11479566
-1.03841043
-1.65237939
-0.84877545
-0.81797004
-1.06218362
-0.30616003
0.42054552
-0.33651263
0.15507801
-1.04267478
0.38640168
0.86563003
0.63944614
-0.14525858
-0.00896360
0.50282782
0.22085933
-0.36642998
-0.63594389
-0.62458718
-0.02491796
0.24893929
0.32927296
-0.28644711
-1.15770972
0.66692609
-1.16326332
0.30884996
0.20621969
-0.86119056
-0.75561589
0.43263716
-0.04265789
0.43378079
0.74904180
0.08567190
0.28553182
-0.26837683
-0.09296454
0.54409051
0.52647179
-0.28678235
0.22922395
0.47498727
-0.18234871
-0.46910289
-1.27558541
0.18264607
-1.52226663
0.62987453
-1.37072694
-0.94168717
0.19876039
0.37532884
0.14438006
-0.78116304
0.82482797
0.32092214
-0.26441354
-0.68324614
0.31549987
-0.34491289
-0.07142691
-0.31461203
0.19171402
-0.31654891
0.91596532
0.24749589
0.58667451
0.21405807
0.04224098
0.12339911
-0.84369463
0.29484516
0.15663938
-0.35450721
-0.48072958
0.88284004
-0.45856577
-1.29892254
0.48188135
-0.23835298
0.22235949
-1.28905213
-2.01076245
0.45348379
-0.02984319
0.65408015
0.16737613
-0.54553837
-0.47888499
0.61180353
-0.52168095
0.67402655
1.10986292
-0.05367848
-0.02408727
-1.66778803
-0.21208309
0.49834880
0.44722867
-0.77694613
0.02168195
-0.20442423
-1.09363925
0.52639109
0.61039090
-0.05721425
0.28787887
0.05798649
-1.31648922
-1.36067808
-0.22568320
-1.49190927
0.50569242
-0.32347685
0.01096354
0.23547025
0.58399934
0.35594046
-1.11513460
-0.76355284
0.99621201
0.04511154
-0.06566378
0.13415080
-1.39611530
0.64077240
0.66158956
-1.87969708
-0.41676417
-0.18822075
0.37144923
-0.94032711
0.28220442
0.09236003
-1.23921859
-0.94789225
-0.00822637
-0.60343289
-0.70481050
-1.53023601
0.24129982
1.21042633
0.59358728
0.41222978
-0.63190168
-1.01204813
-0.19372825
0.68974406
-0.44505784
0.41812393
-1.50360990
-1.13985229
0.17362165
-0.25835669
0.15157974
0.47120386
0.03706928
0.51804876
-1.62694490
0.09127172
0.03871001
-1.29319894
0.29967910
0.44208723
-1.53600729
0.12697205
-0.05455012
0.47724074
-0.82204235
1.28462005
-1.29679310
-0.36446959
-0.13215873
-1.30611110
0.00149240
-1.48194063
-1.00279760
0.20365471
0.64134634
0.32740197
0.08669014
-0.18192805
0.12860671
0.32833135
-0.15242021
-0.03276153
0.33587798
-0.07056940
0.38448057
-0.62146115
0.31070253
-0.68147212
-0.49506515
0.19533357
0.77110064
-0.12102105
0.04910805
0.06753203
0.18054511
-0.72926968
0.32916161
-0.12663683
-0.53643048
-0.68463564
-0.09667123
0.19498725
0.25667256
-0.75847715
0.71044105
-0.42431742
0.89971066
0.00654495
0.70080668
0.49583465
1.26626718
-0.77913499
-0.36957803
-1.15792835
-1.72789872
0.41409785
0.13254717
-0.21114321
-0.40548459
-0.89389992
-1.06698847
0.32871681
-0.88874984
0.93052828
0.24884316
-0.11448447
0.27357435
0.08161201
-0.77044362
0.77267206
-0.70354015
-2.03265405
-0.16806102
0.58302814
-0.02114573
-0.53043067
-0.33309454
-1.37072492
-0.60391033
-0.85212713
0.30467173
-0.56861562
0.07684693
0.36430189
-0.31014669
-0.67588878
-0.46607608
-1.12595665
-0.94707310
0.02923487
0.33870012
0.08631070
-0.65853733
-0.85297996
-1.14490175
-0.24439391
0.19915800
0.03435931
-0.51491112
-0.06978536
0.18793163
0.14878099
-0.49198860
-1.16316891
0.45426416
0.19621886
0.55365109
0.32976452
0.10144587
-0.25197729
-1.17335451
0.17423551
0.37412894
0.88881737
0.10801569
-1.19460833
-2.04280901
-0.22991964
-0.87301934
-0.30215561
0.34676707
-0.23320900
-1.30716336
0.59393322
-0.08879390
0.60211128
-0.12764804
-0.06666022
-0.59835351
-1.88192332
-0.37702978
0.33185247
0.56596434
-0.33142912
0.20688203
0.83201361
0.03998072
-0.13073811
0.15524742
-0.68732780
0.23909000
-0.04492475
-0.16544449
-1.52385700
0.21495856
-1.60708261
0.19029967
-0.39858556
-0.10955213
-0.68869078
0.04902833
0.07366084
-0.54090214
-0.08525778
0.67859268
-0.02116532
-0.07948343
-2.15809035
-0.65501601
-1.34932542
1.26707590
0.00084791
0.12728585
0.59608853
-1.15411794
0.35976115
-0.19451644
-0.07897749
-1.02729177
-0.53372365
-0.47226188
0.48403978
0.27221763
-2.40828490
-0.10837978
-0.75660020
-1.43134999
0.04034347
-0.35395080
0.28545576
0.97399914
-0.66148871
-0.61962378
0.66331619
-0.39634308
0.33786079
-1.06942844
-0.02844234
1.36517298
1.12419224
0.42911467
-0.71399802
0.47582722
-0.69492155
0.29170740
0.57740122
0.11252900
-0.15695627
0.03599333
-0.99643248
0.23152964
0.09420798
-0.41363552
-0.94714439
0.16053107
0.52117580
-0.34261620
-0.80026275
-0.91161019
-1.52091408
0.60472494
-0.22941123
0.64545804
0.01384419
-0.24242297
-0.18298191
-0.87276012
-0.53693736
-1.15709436
-0.70242381
-1.05345309
-0.14247155
-1.01435208
0.46301058
-0.21594879
0.00629945
-1.49358034
1.26225722
0.35090598
-0.37893289
-0.78360337
-0.80168378
-0.69192642
0.43130624
0.09454385
-1.05616701
0.73958027
-0.36603546
0.02921825
0.45257899
-0.45592901
-0.37634772
0.07452478
-0.17409207
-0.50798815
-1.31335175
-0.65433294
