0.19232319
-0.55345937
1.36580262
1.77912248
2.40310444
-0.08981121
1.22709971
0.77330844
2.08908860
0.80297704
0.41786375
0.38743071
1.59489448
-1.07323870
0.27780201
6.64251224
1.87488546
1.98333292
0.88505974
-0.65046269
1.13874790
0.38740490
1.49660749
-0.41820657
1.66530695
0.31936986
0.74521883
0.80132154
-0.73451485
-0.81136617
-0.93947676
1.62035255
-0.37596895
1.91311657
0.20586247
2.98259524
0.63483419
1.09378347
0.03786084
-1.47682101
0.26319680
1.14110780
2.12993276
0.63367392
-0.21582364
0.79673627
-0.46698009
2.42682385
1.21545087
-0.14709011
0.14289498
0.32966571
1.90268327
1.34154093
0.11375256
1.40505914
1.73092908
1.32880335
-0.08659941
1.63327219
1.18771184
2.59301552
2.08874732
1.00010145
0.91478637
2.43671094
0.06506245
-0.76216536
-0.41157763
1.03470535
0.29613811
0.30100788
1.83402148
0.25273163
0.69128736
1.27894061
0.79509709
2.05059391
2.70804087
0.98337425
1.34690410
2.08524917
1.36300753
4.93431614
1.96038690
-0.89874263
1.48799886
1.17648715
0.42588978
0.95837094
0.81026566
2.29667348
-1.18648568
1.26367518
1.37073551
0.52498635
0.69072735
1.27790040
-0.67217896
-0.26152425
-0.15019442
-1.38535479
0.91706101
-0.36408786
0.31287003
-1.41887443
0.98031906
0.84556965
1.99734435
0.22179952
-0.27558290
1.24248989
1.76490686
0.69793936
1.60523991
0.38778860
-0.02992482
0.01526618
1.81654325
0.73087090
1.15907868
0.44573852
1.09900961
1.84310023
-0.70257776
-0.02419917
-0.03092107
1.45837611
2.08742221
-0.56490052
1.32351852
1.72196268
1.30861813
0.73830149
1.50593073
1.76807866
0.16967800
-0.32937119
0.13091092
-1.18281441
0.79723843
1.50168988
0.69790651
2.32656280
0.71541183
-0.39621984
1.83899126
2.11706128
2.05310980
2.32912683
0.65949738
0.46111069
1.77548405
0.60409066
-1.38147893
0.86720007
0.62321038
0.27650428
0.24580363
1.68352456
1.61294026
-1.09960907
2.12358774
0.80614061
0.89525255
0.92703545
1.58270716
-2.05035715
0.71315215
0.88461296
1.17435508
-0.42732538
-0.11022562
-1.85151803
1.86681106
2.33908779
0.56130842
0.16066812
-1.71393224
0.98417989
0.03907414
-0.86379565
-0.09848652
1.79835974
0.00511398
1.18630912
0.72417439
0.81204354
1.79373892
0.51699182
1.85973678
0.32831276
0.80807620
1.65889657
2.00561234
1.84667869
0.09680737
1.01893238
-0.30846482
1.12109979
0.93497773
1.04731127
0.12843109
1.68829872
-0.63159104
1.56313107
1.44757683
1.48692933
3.55218927
0.48540189
0.96462560
1.16293808
1.09156253
-1.04273143
-0.68282479
2.96901044
-1.51578003
1.33325652
-0.80132562
-0.16010266
1.63078592
1.01469622
1.55206193
-1.41070990
0.68040940
-0.73127498
-1.10513732
0.23369167
0.44277746
-0.53894056
0.90147506
-0.44431251
0.65752288
0.44429392
1.13684572
1.16004330
1.15330304
-1.47556210
0.16922464
1.17336251
-0.63390530
1.80904756
0.89135311
0.77161937
-1.31478964
-1.43224734
0.00117144
-1.11513099
-2.13344534
1.21189397
0.06511441
0.69917072
1.43922116
1.67213860
1.91195272
-1.49214771
1.55539110
0.28228607
0.24291548
1.56611282
2.37325246
1.36805285
1.17510065
1.66579700
-1.32373786
0.77621527
1.38196370
0.84935614
1.65442050
1.33615217
-0.76174755
-0.91774289
-0.18463018
1.29795525
0.71797247
0.03295871
-0.34007814
-0.04033048
1.90173007
0.02164519
1.01293772
1.49742240
-1.36522256
0.74918745
1.48019412
-0.72660409
0.57903529
0.21320715
-1.18126233
2.57103708
0.51182444
1.15850370
1.63302696
2.11957053
0.43745344
0.30723072
-0.10849664
-0.70494921
-0.67891633
1.31105741
2.07276768
0.72919468
1.87192292
2.18875828
0.10811744
0.82011479
0.90913056
-1.30948044
-0.65912144
0.41739075
0.82164603
0.91244108
0.95433544
0.35482548
0.98791044
-0.32304840
3.39683453
0.72919023
1.45774528
-0.05554580
0.12870668
0.88601882
0.99370497
-1.43028478
2.84464247
0.88742238
-0.04111457
0.97874850
0.60357728
1.83802223
-0.57307236
1.64080731
1.13082303
2.37513929
0.18356853
0.45400005
1.61269850
-1.21321966
1.47867796
-1.30058114
-0.45801994
0.31144336
0.41220043
-1.25344237
0.95912533
0.28510361
1.33186750
0.02115927
-0.24428221
0.31249028
1.17631985
2.16214927
-1.71169590
3.17311528
1.10559713
-0.96256896
1.49510378
0.28533976
1.40377070
-0.52093255
2.38977376
-1.74945990
1.48191226
1.84942681
4.79949824
1.43720757
-2.52277014
2.26150345
-1.19752787
1.20692064
0.30504805
1.19028662
-0.44492263
0.50009952
0.64107669
-0.89686339
2.03792495
0.39418182
2.71465350
1.06375913
0.05605572
0.94014804
1.72258801
1.41377856
2.09417324
0.70636673
5.22230770
1.88374921
-0.38477605
0.19956558
1.64424427
-0.40379988
-0.15954027
0.01649067
-0.18319801
-0.10298114
-1.65329171
-2.79071673
1.31798649
0.29362331
-0.70230963
0.75735949
1.71644576
0.96693273
-0.51109343
0.38215099
2.69608283
-2.46146998
0.84655338
0.15691102
0.34391839
1.41406059
-1.05900065
0.53468828
0.18588839
-0.16676776
0.80276416
0.59401846
0.34489062
0.39474471
1.50670133
2.24279367
0.81455618
1.39675664
0.84303078
-0.43443984
1.66171836
-0.49678866
0.96505873
-1.73515866
0.27810529
1.75641269
0.51373977
-0.10331842
1.36165997
-1.17539504
-1.20575908
1.12431956
0.66765160
-0.70460706
-0.19709559
0.97927527
1.87015665
-0.82276156
0.32757476
1.07360743
0.05583200
-0.99922900
-0.54000028
1.52322364
0.01791670
-0.15058508
0.58718188
0.73696637
1.42458230
1.38532453
0.02919368
1.45659181
0.66025332
-0.03735095
0.14323760
0.40342811
0.71690357
1.83897705
-0.27150398
-1.16348732
0.18662368
1.43146044
0.17289095
1.35096662
2.00793301
-0.28786455
0.12003132
1.06393920
0.07106997
1.56608194
1.31925734
0.13596936
0.72258579
0.62218744
0.05991558
0.32659358
0.83884567
0.34267626
0.13586159
1.59892721
-0.14419975
1.94167373
1.06662818
-0.04808659
-1.22742948
0.62254274
-0.39795868
2.34219096
-2.63571981
-1.22526991
-1.55796867
2.39115937
1.30590846
1.51157801
1.72213409
0.95789393
0.24499857
-0.42662116
-0.01847974
0.79709907
0.96323604
0.01288892
1.51955380
0.40694706
1.97924317
0.04723032
0.71839277
1.36403497
0.49698483
0.54137254
0.97291078
1.36893142
1.62249250
0.63332290
0.13887025
0.43384160
0.40549910
0.87549962
0.22338374
-0.02905532
1.53518312
0.07865139
1.72205680
0.88433920
2.12650741
-0.03185291
1.04351693
1.98578094
0.28219668
1.18020029
-1.22610586
1.80513228
-1.31567022
2.18070980
-0.27048286
1.09034384
-0.10367801
0.60595799
1.04743495
1.96152436
0.44605089
0.56880791
1.18288912
0.75633642
-1.44335484
1.50201424
0.43530146
0.37578605
-1.47275521
-1.40634297
1.49248188
1.17913890
-1.21490881
2.27614903
1.97495759
-0.84847661
2.71063120
-1.06303911
-0.37902675
0.20238526
-0.34661122
-0.29444358
-0.03086752
0.91917859
-0.19402590
1.89444585
0.18679817
-1.07689278
-1.95427462
0.04882265
1.99157930
-0.60020049
0.37423312
-0.02810227
0.82599426
-0.59241895
1.13577982
1.34519589
-1.12911486
0.15602087
0.60504584
0.12331339
-0.86569405
-0.12053553
1.94076529
0.04689930
1.69242442
0.58870022
1.05064800
-1.21815433
0.62104199
-1.44807591
1.22892943
0.99720781
2.12338555
1.72778184
-1.47268052
1.11699926
-0.54091663
-1.44186543
0.02456786
0.07941852
0.91838598
1.12225592
0.10686899
1.88459342
0.64278089
-0.60845458
1.76449771
0.28960840
1.94936872
0.15442547
0.23429767
1.74418636
1.77057570
0.96089481
1.41081567
2.08521394
0.73941189
0.65557348
-0.13193953
0.46605714
0.76707407
0.14892870
-3.63292841
-1.25754818
1.27588310
0.69490942
1.49080311
1.00267079
0.83967803
0.27045877
-0.31396953
1.85256073
0.45365293
1.90804729
-0.05052211
1.53364865
-0.88382593
0.13950322
2.00632743
-0.89136504
1.63863544
0.65636771
-0.59797386
1.24290799
0.00532040
-2.28070123
1.33212125
0.59159987
4.22631114
0.53513022
-1.15148534
-0.30467874
1.78474300
1.22271685
1.20064216
0.66767895
0.75224051
-0.66029589
1.45146779
-1.35057154
0.88481319
-0.81407876
1.49357783
1.23810486
0.60841060
1.15097803
1.35235291
-0.29961800
0.99949318
1.80082682
0.14225441
0.66376819
1.33915668
2.58294383
0.17130375
-0.34956621
2.33352669
2.28902250
1.60417896
-0.05248008
1.28538609
1.16473065
1.50849673
-1.40297506
2.83217842
0.48637954
1.54648504
-0.73059876
0.04159232
0.40274678
2.45367076
-0.31929624
0.50579686
-0.22976785
0.95714386
1.85839687
-5.99288890
0.69271188
0.90431335
2.91915341
2.69069942
1.88453789
0.83172516
0.03472261
0.35726670
0.92469580
-0.35580556
1.65666970
1.63117587
2.02711842
0.98283730
0.69990732
-1.26715157
1.51279907
0.40085409
-0.64395101
2.17996044
-1.65902220
0.45006767
1.52800015
4.62715657
1.88569949
1.19032207
0.41400357
-0.32731202
-0.89360469
-0.33607593
1.14767944
-0.17435538
-0.00882656
0.31852241
-0.31663690
-0.21646423
0.38284359
-0.82023127
1.57551651
0.83686645
-0.03100554
0.04078590
-0.19227281
-1.02562012
1.25212910
0.04666941
0.50451421
-0.18194735
1.08038827
0.56462151
-0.03483074
0.03119959
-0.13032729
1.50590541
2.86420527
0.52522942
1.07182243
0.10417209
0.01165756
1.70484245
0.88259366
1.58135741
0.99552554
0.09650241
-1.50012903
-0.00780089
0.33876277
-1.60395066
0.09917748
1.25058014
-1.22386163
0.13419350
-0.00073178
2.40998479
0.80514717
-0.30439813
1.51389871
0.62360868
1.23230846
1.82088638
1.74596672
1.73216516
-0.85450740
-1.33922768
1.62332923
-0.65767791
0.23087821
0.71150112
0.37607650
-0.20333495
-1.40974604
2.75034777
0.64013093
1.88800449
-0.11797017
1.90433604
0.50460231
-0.29593763
1.30647884
3.59761999
1.45803613
0.88470452
0.81950774
0.33542750
-0.11329857
-0.46503052
1.19269932
-2.62592043
0.86942694
0.72473109
3.49208631
1.19814274
-1.17283994
0.00377979
1.36532799
0.52281647
-0.11923088
1.47088320
0.33306858
0.78165293
-0.23611748
2.80352065
2.68861247
-0.15757780
-0.56016020
2.08871800
0.70253543
1.50072986
0.99945805
0.83089621
-0.57246853
1.08831295
1.05664501
1.43844649
3.29059664
-0.65839874
-1.36051307
1.29845396
1.85856791
-0.02450327
-0.13243957
0.01526092
0.68509935
-1.43526149
-0.22856609
0.88410991
0.85265164
1.19152816
2.38977280
-0.21936673
1.51527147
1.30922118
2.56449888
0.67052105
0.55606455
0.99600099
-0.47575851
1.54875526
-0.70408992
1.51581488
0.41231931
1.14225518
-1.23934129
2.39753164
0.29330572
0.88441311
1.82904291
1.12673263
-0.09057237
0.27046452
1.66068884
-0.36946667
0.02475631
-0.21155250
1.16157920
0.58090508
0.66067458
0.93731292
1.61582940
0.81502590
0.75439704
0.04770927
1.79499546
2.24674773
0.80399297
0.11251035
0.00179661
0.43488137
0.25336302
1.47940902
1.26971735
-0.49959879
1.00654050
-0.23917342
-0.14706045
2.18379081
2.61454706
2.61437555
2.16595303
-1.36819879
1.62544200
2.95142374
-1.44381091
-1.29089735
0.79705744
1.44177944
0.07753697
1.26500997
0.91891295
1.29915524
2.10371472
-1.49429941
0.33862059
0.01285312
-0.27293082
0.45785094
1.54210100
-1.15725735
0.95293265
1.38594492
1.83217469
-0.22385886
-0.39562969
1.00389688
0.13278362
-0.96295877
1.60017664
1.41515551
-0.83777589
1.12963888
1.09157011
0.55024963
1.76512837
-0.00742602
2.00833495
0.23778002
0.80325215
1.36795280
-1.09683351
-1.52748351
1.94360816
-0.66110691
-0.15310020
2.11118070
0.30748203
0.79339500
1.36356588
0.62974700
3.18345521
3.21920103
1.61554251
1.85774356
0.80825192
2.49106525
0.72109867
0.68486983
-0.43931647
-0.40191602
0.30579656
0.37805289
0.78332680
-0.86009334
0.77687012
0.90385496
5.06626619
-0.82787177
-0.60134860
-0.40294004
0.53572538
-0.19780886
1.22104470
0.85757483
-0.48025274
0.47065085
1.01363968
1.01696323
-0.57273287
2.49861061
0.60880321
2.40386194
0.47140999
-0.17698344
-1.65527869
1.12419584
-0.22548192
-1.52506480
1.57379210
-1.35053785
0.20760523
0.54198476
1.89897212
1.76561932
1.17937821
1.29091910
1.56190902
1.02001009
0.47828893
-0.03943206
1.12506071
1.12877017
2.40911299
1.46600444
-0.08324069
-1.12435336
-0.69053105
-0.84521119
0.56985391
-0.81670280
-0.77884306
0.19430080
0.24949488
-0.95347149
-1.90390192
0.01010856
2.54522875
2.56926843
1.61870135
0.09725832
0.70325281
-0.07530041
-1.11952455
0.33449038
0.16914263
0.16198846
2.56743020
1.05713420
0.13705763
1.66329199
1.27340198
1.16511889
0.46283777
1.46020347
-1.16173170
0.37854322
0.79166252
-1.56664399
1.86946283
0.18018177
1.35854786
0.47690620
0.19608936
1.38007284
1.40118300
2.26565280
-1.38932664
0.01439721
4.04947224
0.40500612
1.59955613
1.96347106
2.14912639
1.24984589
2.30275281
4.85571432
1.08405551
2.31596377
0.71973705
1.47907533
1.08792062
0.94797462
1.64869407
0.94344804
1.54015105
-0.17549999
1.34452586
-0.11186773
0.70015589
1.26967861
1.81323305
0.08826920
0.47613926
0.79695515
1.69907968
-0.03627198
0.67567580
1.20865004
0.00189918
1.77042721
0.11682874
0.75612982
1.69055100
-1.02687573
2.47467525
0.60594773
1.19212646
1.70302214
2.90745912
1.75871059
1.30253718
2.25804886
-1.34036811
0.90253511
-1.36599953
1.42079507
-0.01086387
1.21192358
1.42129539
0.16811835
1.07988768
1.66690458
1.29755210
-1.18736002
1.12510553
-0.37842121
1.14167548
9.83859223
0.62843778
1.74989856
-0.76010840
1.54508324
1.42414688
1.62006037
0.25651454
1.90180288
0.01236967
1.07538246
-0.38992191
1.13188299
2.08763276
1.06254059
2.86637889
-0.29479659
0.77649499
1.17172162
2.60901503
-1.43427486
0.20162459
1.75492391
1.56008934
-0.12721709
2.31713156
1.99048470
0.45842609
0.14880194
0.97409728
1.27261609
0.37586406
1.66615063
0.38468736
0.81742843
2.43332460
1.91239682
1.08167700
0.50242799
2.12393657
0.09816398
1.04251818
