-1.97433817
-1.71310258
0.26730472
-0.95952332
-1.93381226
-0.38042447
-0.26625565
-0.04655075
-0.90300596
0.54812455
-0.61489278
-0.97566110
-1.06663060
0.16607083
0.37745926
-1.05446148
-0.48123786
0.59287637
-1.78856933
-1.79983056
0.31491533
0.02931975
-0.68982416
0.27354205
0.11009675
-1.32139862
-0.58897096
-0.54941636
-1.82682812
0.31213307
-0.54106611
0.25416085
-0.98921221
0.46920964
-0.59378272
-0.77170211
-1.49246573
-0.39859951
0.68705964
0.00414916
0.47867587
-2.10536671
-0.43927494
-1.01751828
-1.50091910
-0.99564308
-0.33928579
-0.00244245
-1.97800720
-1.10131264
-0.36207706
-1.52127755
0.40965188
0.21093659
-1.04384100
-0.79363269
-0.31433877
-0.12182807
-0.33068570
-0.08581129
-1.17722070
-0.30296209
-1.06705236
-1.51275456
-1.03160310
0.34372181
0.23029287
-1.22753572
-2.07356787
-0.91250664
-1.45508933
-1.11756146
-0.27107382
-0.58571053
-0.56477344
0.97955704
0.30489925
-0.28671306
-1.02376211
0.35585421
0.16944060
0.28577727
-2.59906983
-1.62769878
-0.17732412
0.31044507
-0.00586846
-1.43591964
-0.08273907
-0.52962434
-0.89018464
0.23980232
-1.11200213
-0.39263153
-0.13552229
-0.25820094
-1.36447227
-0.99637210
0.17561117
-0.60839194
0.92155904
0.53849554
0.22860646
-1.71868789
0.18893419
-2.09522867
-0.35887530
-0.94994521
-0.14171305
0.86057234
-0.99958056
-2.14102459
0.19705017
0.30740169
-1.13346481
-0.25541806
-0.01016252
-0.90027094
0.18780716
0.27084661
0.05525369
-1.54212070
-1.27064943
-1.65135074
0.75881088
-1.25956571
-1.62850201
0.22547193
-0.97946048
-0.27392846
0.97137475
-0.25142515
0.50864947
0.17264666
-0.13212945
1.15628839
-1.94820154
0.26028049
-1.04645705
-0.10250521
-1.22936642
0.16058367
-0.96016783
-0.36682647
-1.67128038
0.58969766
-2.14815021
-0.16041169
-0.51070058
0.51423222
-1.08878124
-0.75957239
0.00346536
0.38508272
0.00838568
0.26922736
-1.27170646
-0.01360574
-1.34535217
0.48948371
-1.92555332
-0.80193973
-1.40635669
-1.62666488
0.40008789
0.31812701
0.33698216
-0.01107368
-0.63304728
-0.27631137
-0.81994015
-0.58391827
-0.87135845
-0.59651524
0.11116177
0.74723500
0.27615356
-1.53218341
0.66004938
0.06148907
0.05876776
0.24511333
0.63065892
0.08957998
0.00062020
0.15331903
-0.74633819
-1.92196321
-0.19222368
-0.07437173
0.40313709
-0.12439371
0.32423043
-0.93432605
-1.29255843
-1.26231909
-0.20225574
-2.64959788
0.41697064
0.44172317
0.50996125
-0.96903157
-0.92109203
0.53790033
0.06661572
0.19760978
-1.55091405
-1.80092883
0.13740301
-2.03888822
-0.04243699
0.11600517
-1.81878924
-0.16655642
-0.31946290
0.12992938
-0.11768629
0.02984245
-0.12609321
0.04550705
0.03825064
0.38201964
-0.32914108
-1.80210757
-1.43998349
-0.19914633
-1.50245535
-0.14511356
-1.21014845
0.64296883
1.29024041
0.60449719
0.20265013
0.30079558
0.21511972
0.02152880
-2.73623109
-0.14987071
-1.10337937
0.13820592
-1.86710787
-1.46255016
-0.40252352
-0.03456844
-0.77067220
0.07332154
0.25472260
-1.65079129
0.57774216
0.16238153
-1.74898458
-0.27260408
-0.52522177
0.68347389
-1.14555836
0.06421120
0.23301043
0.34034103
-1.53478014
-2.37454939
0.02820840
-0.02193121
-0.91231346
0.25242487
-0.23106106
-1.76346362
-2.04025412
-0.46488991
-0.54039073
-1.47984445
0.22498132
0.12642923
-0.30809650
0.47021785
-0.27833170
-0.81689346
0.13072066
-1.48406971
-0.38587683
0.28923336
0.10494941
-0.18459034
0.07813456
0.16564503
-1.52991092
-0.10970145
0.55965072
-1.34229791
-2.15407634
-0.34894004
-0.23948988
-1.38446546
-1.97478175
0.35295609
-1.32507825
-0.55583656
-1.00126910
0.48427635
-1.65664089
-1.56245089
-0.07026190
0.29004663
-1.70904553
-2.90974259
-0.03577387
0.07377297
-0.09797510
-1.79563344
-0.54248774
-0.49495590
0.56079155
0.10402715
0.08184907
-1.31884980
-0.58353227
-0.19998731
-0.32322124
0.30564955
-1.56350267
-0.18923931
0.28728837
-1.69299960
0.08971720
0.02498462
-1.82948101
-2.08259678
-0.16882633
-0.44956082
-1.97048199
0.37622079
-1.39291453
0.15338169
0.60141975
0.00324962
0.33936349
-0.28344366
0.26933113
-0.25884017
-0.83682209
-0.61340994
0.49584395
0.18545459
0.45366645
0.20058988
0.02495010
0.41912991
-1.44256246
0.41158652
-2.67873287
-2.46511436
-1.21221244
-1.66560578
-0.21693331
-0.48652479
-0.80272675
-0.00349586
-1.27850783
-1.47150338
-1.67616010
1.02659535
-0.31009185
-0.69654673
0.02803892
-0.29099515
-0.57797468
-2.01338911
-0.79157525
0.58963686
-0.45582673
-1.95943618
-0.57950372
0.18226604
-1.71496916
0.09124132
-0.75423688
-1.19499516
0.24381103
-0.03253341
-0.08564681
-0.99364561
-0.90574551
0.06942477
0.14059585
0.20296073
