-0.71262449
-1.61448775
-1.19702920
-1.65535588
-3.44538257
1.69233913
0.78014459
0.11218480
0.45707897
-1.26951878
-0.80984823
-0.66788299
0.42411188
-0.62001321
0.47330452
0.85180405
0.55284395
0.26623973
-0.33200437
-0.96953646
-0.47495577
0.76860150
-1.47337811
-0.29868974
-1.70500020
-1.07651558
-1.28444024
0.16049803
-0.13971352
-0.40046783
-1.32952777
-1.48769173
-0.12169220
0.06970443
-0.77049857
0.90075082
0.11464304
-0.01328319
0.15583109
1.73974999
-0.84246428
-1.10090177
-1.26553271
-1.07945603
-3.09474008
0.00671959
-1.40638996
-0.04065454
-0.02708569
-0.52175802
0.95117130
-0.18520993
-0.43413751
0.43209637
-0.57156836
1.49672523
0.50322056
-1.24996349
-0.43998448
-0.14900655
1.54707760
0.51006724
-0.99824111
-1.22186054
-0.26545475
-1.36394005
-0.78007161
0.63666402
-0.37688681
-0.36454373
0.18961530
-0.45093924
-2.54986296
-1.30039247
-1.29312936
-1.24038819
1.21814645
-0.72722448
0.25043700
-0.50655851
-1.21424434
-0.59850230
-0.93817608
-0.56461703
0.06565338
-1.37006344
-0.22098193
-0.87886178
0.53405391
-0.91468079
-0.63575468
-1.11587421
-0.50062867
-0.37251877
1.10302703
-1.37380267
-0.17533585
0.56632627
0.87931566
1.55384263
-0.02657545
-0.20099935
-0.18118005
-0.38672127
0.06782883
-0.62333045
-0.86507712
1.30115751
0.44991562
-1.40332684
0.97391113
0.61726106
-1.29548070
1.06950530
-1.63114377
-1.19273925
-0.48723351
-0.62183191
-0.45948053
-1.50709502
-1.01397279
0.48482076
0.96459454
0.67759910
-0.53762809
1.30019803
-0.73663730
-0.92265973
0.16076327
-0.17459090
-1.29292511
-0.32696974
1.23149222
-1.87415743
-0.38773300
-1.87816823
1.06909937
-1.42476697
-3.33178147
0.10265562
0.48708661
-1.22930665
1.31100077
-0.46935020
0.19754324
-1.31140196
-0.29558344
1.31685882
1.07587553
-0.28425450
-2.27664584
0.08068866
-1.37937191
-2.83804450
-0.80680211
-1.25575918
1.02464690
1.11016174
-0.94209391
-0.69017664
0.33628397
1.65035607
-2.84561889
0.34294372
-1.63767289
0.96073204
-0.19397730
-0.54202593
-1.40840312
-0.30638075
-1.21013340
0.81352186
-0.07753463
0.92734648
0.95975899
-0.42913420
-0.24724714
-0.52592948
-0.84790609
-0.12516249
-0.35734182
0.17014435
-0.90394735
0.66283524
-0.31947537
-0.45303759
-3.58753119
-1.39056234
1.55037421
0.29746748
-1.08194161
-1.78971155
1.06678024
-0.53681483
-0.18824433
-0.49061186
-2.23969704
-0.61960145
-0.23090026
0.33756197
-1.91983562
-1.72090562
0.13111762
-3.60185440
-0.96576535
-1.22620241
-1.44362985
-0.15449263
-0.95960442
-1.65518582
1.03510562
0.89393383
0.31016635
-0.32256632
-0.43191118
-2.16361051
1.12935873
-1.35637625
-0.63188366
-3.04357158
-0.47300203
0.86002178
-3.44648710
-1.02836537
-1.51563417
0.53904623
0.93802258
-1.18456459
0.38161659
-0.62715324
1.52054334
-0.18555206
-1.63756168
-0.64234060
2.16128146
-0.73292836
-1.31587038
-0.82107737
-0.79225846
-0.62678207
-1.06137401
0.28354280
-0.11025552
-0.24999940
-1.71922304
-0.96360565
-0.03505946
1.08317550
0.75229957
-1.13705543
-1.33571778
-1.17166537
-0.81064829
-0.82320999
-1.40612884
-0.91341417
0.42009398
-0.65807932
-0.02807370
-1.05902595
-3.14662341
-0.66639993
-0.79999553
-1.25573076
-0.08058950
-0.20634517
-0.34951456
-0.04985271
-1.63883597
1.06955324
-1.60858350
-1.40937841
-1.33965475
-0.15327453
1.15704542
-0.39447956
1.85134846
-0.33632074
0.43496246
-0.39691388
-0.12022842
0.61105409
0.25437937
-1.31058426
0.10825158
0.74923885
-3.80798286
0.60876630
-2.33097324
-0.77542152
-2.06187382
-0.31914646
-1.35947195
-2.66332778
-1.20944954
-0.39444212
0.16892331
-0.05674974
-0.70726564
0.67807101
-2.28603651
-0.77992823
-0.61380938
1.57309092
0.17147866
-0.70594700
-0.72982205
-0.52342864
-1.10786114
0.63618989
-1.00267206
-0.22404756
-1.31586404
0.87844962
-0.51052317
-3.10864480
0.06870405
1.53323156
0.23242820
-0.46145938
-1.27150938
-1.21705140
1.47668779
-1.55993726
-1.24180318
-1.01473170
-1.35212677
-0.45626391
0.50347697
-0.52611791
1.64480628
1.60695350
-0.86492052
0.30442946
1.71180368
-1.23889059
0.38157959
1.28955707
-1.21798528
-0.39782471
-1.26260065
-1.58904677
0.73482343
-1.18741138
1.43015739
-0.24238382
-1.08571790
0.16791099
1.68784020
-1.38124923
0.57302815
-1.34935047
-1.02805298
-1.59261104
-1.20432429
0.88019903
-1.71988742
-0.50056090
-0.40334402
-0.20517499
-0.51604950
0.81633710
-0.48906423
-2.39136460
0.21694219
-0.54656012
0.05526093
2.38517419
-0.94010693
-1.42076210
2.22352135
-0.71548928
-0.47396118
-0.48185900
1.14265219
-1.17439179
-0.87870946
0.49838778
-0.60280220
-1.45665525
1.65556750
-0.63020295
-1.23026472
-1.99034442
-0.85561135
-1.97901015
-3.41147784
-0.97226584
-0.28344472
1.13715953
-0.01498151
0.99269019
-1.20646104
-0.88352244
-0.05496374
0.21911804
-0.67613394
0.35651070
-0.77062665
-1.47591013
-0.37546727
0.82314700
2.70754333
-0.35125173
-0.03934290
-1.42897720
-1.25833613
-2.27655575
-1.37727598
-0.16578667
-1.15848886
0.26058886
-0.05740527
-0.82976189
-1.65389489
0.16254516
-0.20675832
-0.95248990
-0.97720313
-1.28366115
-1.08216463
-0.01654040
-0.95841726
-0.23900852
0.88422304
-0.07453539
-0.26970925
1.83990325
0.03225343
-0.98669655
0.09082508
-1.44019622
0.49909411
-1.29983205
1.48873865
-0.52745102
-0.05226406
-0.64090461
-1.02449403
-0.60542399
-0.11396893
0.65498364
-0.58608894
0.30345786
-1.52991466
-0.77355245
-0.60801934
-1.19764575
0.24430338
1.50368692
-1.40707918
0.08324352
-0.06829741
-0.66352443
-0.79584736
-1.23942038
-0.70346095
-0.71771379
-0.70365091
-0.33233241
-0.83152071
1.74109311
-1.19122715
-1.19651568
-0.17628371
0.51054751
0.04927991
1.60536840
-0.83535206
-0.69358130
1.62289897
0.08332289
-0.72087616
1.45301019
-1.01610528
1.43801822
-0.30386965
1.32696526
-2.08603449
-0.11298701
-2.72891068
-0.49010925
-0.92890610
-0.24503437
-0.50733702
-0.47686049
0.32666811
1.92049761
0.33641925
-0.01780651
0.49771916
-0.35523991
-4.78543841
-0.44205110
0.87767785
-0.55987664
0.58579200
1.84634224
-0.10108330
-0.36100578
-0.74734940
0.75974250
-0.83130978
-0.59950578
-0.08596026
-0.42924319
-0.84039381
2.31535174
-0.45962983
-0.19491800
-0.28508695
-0.22045045
-0.56729892
-1.27301395
0.76995139
-0.93373593
0.63900175
1.24177825
-0.28351388
-1.10024998
0.46127239
-0.95345968
-0.64731933
-1.78000558
-0.78151779
0.16562550
-2.74507332
0.29921947
0.36452320
-0.31958760
-0.73560621
-0.28442893
-1.19981084
-0.37291400
-0.94210283
0.73531358
-0.98028933
-0.06161538
-0.33039927
-1.31899221
-0.64896909
-1.31261590
-1.30319388
1.16738181
-5.59330431
-2.86484071
-0.39392163
0.33814719
-0.93346920
-0.06864635
1.64499891
-1.66186047
-1.19683538
-0.14950096
-0.81165728
0.09635602
-0.37254949
-0.18427548
1.72325406
-1.12927274
-1.36687012
-1.35171969
0.13672946
-0.04492018
-0.14181761
-0.75388246
0.80770705
1.30598413
-1.44263829
-0.54302094
0.56719448
0.79311692
-1.32667536
0.93943655
0.81191823
-1.53823785
-0.05721577
0.98011288
-1.24964791
-0.89931001
-0.97189124
-0.85087171
-1.26935264
0.35821461
0.03233024
-1.15123788
-1.14768563
-1.22222846
0.36134237
-1.13851335
-1.06107852
-0.59285169
-1.39047725
0.32556240
-1.84825182
-0.08426664
-1.21785632
0.13927443
1.38484764
-0.87487934
0.17191770
-1.48322726
-2.55865174
-1.23520600
1.06071472
-2.24715223
-1.00752334
-1.63876661
-1.40626753
0.53353318
-0.67410043
-1.49208941
-1.18113476
-1.08973770
-1.47369244
1.06446583
1.86819610
-0.67091807
0.39410249
-0.41843807
-0.64601834
-0.82660114
-1.70370413
0.23261148
-0.43223811
-0.32998125
1.50789904
-1.44701221
0.56598197
-0.01104534
0.77609384
0.58855347
0.03328676
-0.24419107
-0.04520322
-0.63232718
-0.99940969
-0.38722589
-0.95567517
-0.67076636
0.66545831
-0.08232286
-0.18005489
-0.93646883
-0.87893575
-0.02802148
1.65846826
-1.59524290
-1.09696479
-0.14593336
0.07505692
1.61200947
-0.49484056
-1.12969805
-1.92831628
-1.20577323
-0.65627371
-1.41836024
1.45532419
-0.32184614
-1.35811546
-0.40179562
-1.22624823
-0.24296615
-1.66715543
-0.53414245
-1.44809861
2.01145896
0.12556663
-0.01784724
-0.69649994
-2.40360438
0.98358953
0.18155374
-0.30107593
-0.36600111
-2.90709934
-1.21497063
0.44954828
0.11713162
-0.61386265
1.04296926
0.13023053
-0.53597981
0.64617244
-0.15236130
-2.34060202
1.04897308
-0.09475395
-0.52708721
-1.73066808
-1.34083896
-1.11589071
-0.85193627
-1.69783526
-2.19264862
-1.37909770
-0.27159733
2.13471021
-0.15599716
-1.30811242
-0.52848929
-2.85932635
0.02204886
-0.77972046
0.43677988
-0.81382217
0.26578512
-1.45972964
2.15292872
0.31007133
0.52229889
-0.96797718
-0.38957035
-3.24574441
0.55325362
-1.45553921
-1.41860264
-0.60994757
-0.14247577
-0.04789863
0.94060868
-1.15462850
-0.96572482
1.08664471
-0.69747025
-1.36921710
-1.23931303
1.91151563
0.41883809
-1.15299142
-0.64241342
0.19999034
-0.24069668
-0.77059071
1.32974204
-0.13368324
-0.63085201
0.91902253
-1.21986635
-0.18488585
-0.73691128
-0.94443836
-0.27508706
-0.34800332
-0.80428764
-0.37832829
-2.05913459
-0.07704563
-1.67698680
-0.17293738
-0.21322455
-0.91799242
-1.64143923
-0.95606312
-1.03267305
-1.24101406
2.52501074
-2.56863290
-0.48356144
0.14413205
0.43215468
-0.53973589
1.50924690
-1.11605088
0.15101435
-1.12771640
-0.07265799
-0.67419644
-0.37773510
0.91421836
-0.17675695
-0.71771741
-1.46938223
-0.80680060
-0.64250315
-0.57937801
1.54404261
0.48261197
-1.97184851
0.91593868
-1.74797190
1.04689202
-2.01201906
-2.39944717
-0.25996407
-1.60432150
0.33414458
-0.68594744
-1.16987462
-0.08353098
-1.27619414
-0.68840652
-0.89185911
-2.33334256
-0.55749693
0.32351593
-0.19895402
1.31782211
-1.42746804
-1.83048615
0.35960161
0.91546853
-1.46490125
-3.30444185
-0.33493827
-0.27210704
-0.72585632
-0.54796054
-1.12321413
-1.21443786
-0.57549259
1.02052130
1.26861769
-0.57422219
0.03405241
-0.82961126
0.88349114
-1.11062142
-2.53660918
0.88615848
-0.54218943
-1.80312603
0.65332228
-1.85474608
0.86204458
-1.20228699
-1.48557124
-0.25434614
0.02122296
-1.08785101
1.62991942
-1.40184032
-2.50452043
0.52314864
-0.55783300
-2.30948501
2.17061199
-0.96147172
0.50234649
0.09250008
-0.25665475
-1.15500522
-0.97135032
0.79545175
-0.62433997
-0.15244939
0.62092295
-0.74061012
0.73961025
-2.00143363
-1.10961648
1.31722665
-0.45047401
-0.46408897
0.32816271
-0.15735496
-1.44862461
-0.29614533
0.06182464
-0.29164235
-0.76449645
-1.46461583
-0.29706987
0.76985804
-0.01018329
-1.55403188
1.31039286
0.20353503
-1.85791941
-1.36204083
-1.41586821
-2.11882641
-0.05695214
-1.05130388
1.22073563
0.01572852
-1.23403405
-0.25955267
-0.85860224
-0.69449764
-1.20840544
1.57950848
-0.24664031
-0.90432847
-0.52278811
1.62039797
-0.30354565
-0.34135678
0.86310376
-2.23057859
-0.70182485
-1.48263169
0.12098691
-1.37689484
-1.51918516
-2.89171532
1.28323544
1.08647214
0.23499242
1.05455560
-1.41560271
-0.87624653
-1.25630426
1.53712109
-0.14678284
0.99945998
0.04029115
-1.28496406
-2.68346795
-1.19788944
0.13384425
-1.04551442
-0.32793752
-1.05956062
-0.07162670
2.00784296
-0.15712265
-1.23044372
-2.38900406
-0.04213466
-0.77757981
-1.44831273
-0.22186574
-1.65524681
1.48510208
-0.61978761
0.86395656
-0.74433633
0.92502232
-1.53093957
-0.80106993
1.28990820
-0.79868290
-0.01969870
-1.67222121
-0.64960104
-1.15055074
-0.74521548
0.24574906
-0.02462808
-0.89629950
-1.35223147
1.42876255
-1.22419399
-1.10127977
0.98679996
1.16478574
-0.94409230
-0.93562040
2.95607449
-0.89664983
-0.88267477
0.03931563
-0.83683380
-1.31434176
-1.20778130
0.03795015
-0.86140033
-0.18148733
-1.59403643
-0.57655747
-0.04930251
-1.26341402
-1.12644668
-0.69975808
1.74755876
0.96110587
-0.92037356
-0.74252812
0.35149500
-1.07121480
2.39446204
-0.44955132
-0.63614086
0.18690577
0.62807165
-4.09931400
-0.33547217
-1.50648810
-1.36326601
2.57598185
0.18276226
-1.65953842
-1.31055742
-0.04220457
-1.06042389
-1.01153533
-0.26604697
-0.35953795
0.40722860
-1.33435240
0.74002510
-0.64486780
-0.08171195
-1.26602824
1.22596139
-0.46185483
-1.13947225
-1.12583696
-1.11723275
-0.78916506
-1.87379320
-0.07977582
3.66934187
-0.59997379
-0.17762708
-2.08571072
-0.18970161
-2.50497126
-1.04835389
1.07487248
-0.03736015
-0.06781749
-1.24885449
1.91568041
-0.19225030
-0.48541948
-1.52463030
-0.01612107
1.12210796
-0.86615088
-0.98386106
-0.91204317
-0.23601567
-3.75941934
-0.73069795
0.35318301
-2.18244026
0.88952063
-0.50014983
-0.09633933
-0.61008880
0.14056418
-0.93908916
0.64166743
-1.22918217
0.32381349
-0.35394386
-0.57053842
-0.93182598
-1.42180765
-0.58357685
-0.87357637
0.18374900
1.41839146
-1.26223950
-1.28026622
1.99931341
-0.70739611
1.50215030
-0.25800395
-1.27762860
-0.90455436
-0.26152424
0.53300918
0.11194849
-0.82005971
1.14683489
0.49230764
-0.92744063
2.06952283
0.76927164
-0.26091080
-1.28947235
0.19930041
-1.12945444
-0.00184647
-0.85067139
-1.29728035
-0.76188613
-1.22988480
-1.00709395
-0.01569305
-0.28862439
-0.62571620
-0.23098556
2.44720764
-1.17127872
-1.27092664
-0.32403803
-0.28129784
-0.05146295
1.05935013
0.40722846
-1.39603674
-0.41597641
-0.81581316
-0.52360293
-0.94245106
0.85884955
0.45966617
-0.13838266
-2.13911605
-2.30990043
-2.20664537
-1.13440040
-0.24496456
1.13485083
-1.06263032
-0.76472836
-0.96297798
0.52132869
-1.22008834
-1.10650950
0.20102188
-1.72000177
-0.35742923
-0.07852642
0.89236564
0.96563778
-1.01024303
0.10543876
-1.67431577
-1.11557393
-2.06168655
-1.85617152
-1.17486353
-0.70131610
-0.86832667
0.02849094
-1.36436564
-0.15532767
-1.34766616
-1.11745898
1.25831989
-0.69551727
0.57579903
2.05052619
-0.50164967
-1.38039503
-0.96841998
-1.26521672
-0.29019426
0.58080388
-0.28579630
-0.80353429
0.35920617
-0.48726986
-0.35929919
0.45975010
-0.85562238
-0.13786521
0.09965242
0.78763628
-0.15168704
0.13257603
-0.36400685
-0.30673461
0.32056062
-1.99054576
-1.96325243
