-0.52210365
-0.31385166
0.91259253
-0.50304824
-0.13844164
-0.15728210
-0.05215308
-0.19902777
0.30834980
0.62413008
0.05745813
0.23974991
-0.37899392
0.26802530
0.01004418
-0.21140492
-0.52682213
-0.00059386
1.20392666
0.31068670
0.54610704
-0.10194279
0.41951433
0.16635743
0.84169899
0.24473657
0.02552774
0.63014085
-0.12007822
-0.64599750
-0.06541845
0.21052628
-0.26282435
-0.07327973
0.09486057
1.23667289
-0.80593813
-0.73320178
-0.52951758
-0.01575185
0.80501657
0.74295703
-0.28876269
-1.07694467
-0.08852309
1.26612070
-0.17835009
-0.10040958
-0.11006071
0.38506503
0.00606624
-0.56383336
0.46540075
-0.72606724
-0.09036848
0.32624847
0.25686393
0.30436787
-0.48880315
-0.69283288
0.48227395
0.40646458
0.16183400
1.33220354
-0.44147147
-0.21965860
0.60669544
-0.25530912
-0.68284753
-0.26941418
0.09128703
0.66237589
-0.57585985
-0.28876106
0.12913931
-0.07917112
-0.34424561
-0.75521762
-0.45002226
0.11739018
-0.65200274
0.19170346
-0.02151828
0.54265726
0.73221514
0.55919085
0.16216703
0.05047038
-0.37206005
-0.63033827
0.06748769
-0.15423023
0.06030988
-0.54066370
0.82771760
-0.86834094
-0.00434244
-0.45154079
-0.09231774
0.24899946
0.07739076
0.35828326
0.06373058
0.27398307
0.14879076
0.56020945
0.24595135
0.20140279
0.05750816
0.12170093
1.03631984
0.11597911
-0.38930591
0.97770522
-0.41206603
0.03233622
-0.34857654
-0.21343622
-0.36442676
0.52934122
0.31674405
-0.01273831
-0.38429320
-0.51209247
-0.16725937
1.06204347
-0.72298508
-0.60534903
-0.07373182
-0.06601582
-0.55157816
-0.26999998
-0.43432655
0.75724027
0.88820847
-0.29066458
0.24106949
0.45243832
-0.44195266
-0.51380191
-0.55926606
0.06608218
-0.18778856
0.07776764
-0.45655882
0.13263386
0.06235984
-0.37381217
1.27262876
-0.02169375
0.25045006
0.14918588
-0.05207332
0.43882399
-0.92696300
-1.17048166
-0.48289373
0.06515242
-0.13282125
-0.63222942
-0.11523483
-0.74328823
-0.25739638
-0.13048886
-0.11546686
-0.08766071
-0.04121700
-0.10555466
0.38487403
-0.56139133
0.86957417
0.18287442
1.04230179
-0.15827147
0.37658811
0.54009651
0.26736880
0.09473300
-0.60948186
-1.18990325
0.23054477
-0.56765894
0.45287505
-0.43177146
-0.14998230
-0.23240609
0.20484401
-0.63423514
-0.35785698
0.02273010
-0.61484493
0.02058775
