-0.48239392
-1.95976503
-2.99470962
-0.32892456
-0.83002278
-0.01788262
-0.89537190
1.01478549
-1.05685378
-0.59364683
-0.32433653
1.49998584
-1.09630320
-0.41571939
0.07151925
0.79651400
-0.77737779
-0.75323031
0.09729617
-0.91095005
1.08195378
0.75360573
-1.86014665
0.17582465
-0.67838088
-1.46218062
0.67226148
1.30617696
-0.52715157
-1.61237266
1.70812855
2.02016700
-1.14955715
-0.50537403
0.25529097
2.13963567
-0.22223448
0.96492471
1.69450055
-0.29976225
0.26926895
0.40689537
1.25303449
-1.12185632
-0.53129520
2.45658205
-1.86996401
-0.70464146
-0.83371283
1.01889881
0.39872990
-1.22441722
-0.72232299
1.69865529
-0.03659012
-0.93557761
1.43832162
-2.18467559
0.43462081
-2.07955545
-0.94413188
0.26925732
0.80251499
0.03014507
1.34669989
3.53690989
-0.81846769
-1.48106411
1.69614732
-0.94898341
-1.01776771
2.16156107
-0.93129295
0.91898244
0.58527039
1.10963821
0.07181261
-0.06846965
-1.64928403
-0.23400177
-0.92203659
0.91312485
-0.83880362
0.57700308
0.42086763
0.73914772
-0.65044652
3.16360334
-1.07313244
-1.05402500
-0.03991376
-0.84194616
1.18011871
1.27232745
0.08931839
-1.50280392
-3.01588423
-0.66416825
0.35473652
-1.49574698
0.82211617
1.27325998
-0.00478801
1.17092819
-2.41349814
-3.04317809
-0.81395660
-0.87876564
-0.47150768
-0.10427125
-0.18622599
6.94313663
-1.46517454
-1.68971355
0.39373468
0.46640471
-0.27796910
0.75997795
-0.09383462
1.67838768
0.73750254
-1.19642044
-0.95551735
0.24056496
-0.85103038
1.36886633
1.03268954
3.62018806
-0.37205026
-1.99993307
0.46276593
-1.16484336
0.71763106
0.28400144
0.52767024
1.32003857
-0.93621933
0.83978083
1.10712965
0.02377199
-2.62412512
-0.99237856
0.77019315
1.12786030
0.47285628
-0.37477502
-0.83021496
-0.83826060
0.74961854
3.19951841
-0.74072593
-1.35464492
1.55366590
-0.45872518
1.79270965
0.94694233
-0.90678786
-0.81141392
-0.33495220
1.27045493
1.02132753
0.33151302
0.26045201
0.78723896
-0.78499991
1.08139129
1.75750792
-1.23801856
-0.20702206
-0.68305524
0.35301228
-0.54560390
-0.74077657
0.22454960
1.26592160
0.87571077
1.18421374
-1.57535089
-0.91592036
0.24058237
0.69198725
0.46371920
-0.27106634
4.26398366
1.96693189
0.06660318
-2.78194691
-0.67531123
1.08566870
-0.78489923
-0.68158330
-0.78934636
-1.22143331
-0.90168841
0.24679672
0.83542967
-0.95561575
-0.33494150
-1.11182372
1.72896966
0.29168887
-0.44080519
0.18208863
0.38496915
-1.30887590
1.96527383
0.09119822
-0.76844530
-0.01616661
0.66473833
-1.13124313
-1.18371261
1.39955306
-0.69699567
-0.17312090
0.33217547
-1.15621764
0.77616958
-0.30252318
-0.73129290
-0.83881227
1.15561135
-1.93041557
-0.37981347
-0.16671618
-1.22477422
0.67625392
-1.56773455
0.25951524
1.61431487
-2.40103302
0.26167807
-0.00304194
-1.41352421
-2.84217242
-0.26318516
-1.31520727
-1.05959595
2.15848931
-0.44236365
-1.13304422
-0.43070630
-0.94093843
0.19072887
1.48349521
0.50339064
-2.70984794
-2.26915165
0.74306465
-1.42340026
0.22763948
-1.83676136
-0.37140842
-1.28389023
0.02375228
-1.42128927
0.91656479
-0.18004651
-0.59266142
0.10748310
1.13242431
0.75679392
-0.97838340
1.26910971
-0.13205538
-0.90655736
3.18674348
-0.74065530
-0.12499776
-1.41683516
0.71229938
0.95339665
0.99118843
1.09811149
-0.54438152
-1.32184167
0.81869253
-0.81322971
0.67782007
1.14509650
0.98704361
-0.35925382
-1.58615293
-2.78374221
-0.51540514
-1.13586481
0.95882048
0.25570304
-2.97152226
1.63859812
-0.83632433
-1.92194112
-0.39298126
2.03864201
0.13884612
-1.14077090
3.02463457
-0.98221821
-0.47727184
0.75774696
1.02095575
1.01985108
-1.07676624
-1.53614324
-3.61596658
0.94740831
-0.60500087
-0.50212490
0.20109947
1.52415833
1.01105216
0.19498544
-2.89094871
-0.37631503
-3.05434923
-1.42629887
1.41712700
1.16126488
0.76027240
0.00586594
0.77047339
-0.95014288
-2.91736592
1.46665839
-0.72236752
-0.34849569
-0.65908337
-0.94127710
-4.65029756
-0.98034674
1.99422756
0.54292917
1.29610054
-0.89361664
-1.15671918
2.50431678
-0.62313362
-0.61216347
1.09140338
-0.78825774
0.77029749
0.66921263
1.53254282
-1.58806032
1.37215628
1.37463526
-0.95460660
-1.21296578
-0.82323664
-1.39378017
-0.42729230
0.49665654
0.94250056
-0.62710586
-0.18868113
-2.13118349
1.71074335
0.79467651
0.26772383
2.72191954
-0.63470849
-0.07820234
0.05896653
-2.85239307
-2.45546014
-1.55176082
-0.99527758
-0.38871200
-1.29182908
1.09632698
0.06898139
1.69254392
-0.00983848
0.54657367
1.17634050
0.03265954
1.45448464
-2.01417904
0.92060998
-1.12643325
-0.91856231
-0.63464951
0.79548155
0.57762300
