-0.58030823
-0.39174803
1.71739974
0.77818948
1.50484756
-2.99355338
-0.25861429
-6.28281347
0.81902174
-1.07258360
0.53880656
-1.49742889
-2.05995319
0.87708867
-1.06549378
2.00734577
2.13513413
-4.59030816
-0.12520383
-1.43811538
-3.14487630
-2.03236600
4.27255955
0.43529427
0.71298924
-1.03384576
-0.00315484
-0.23372181
-2.28001386
3.15231423
1.51137999
-0.78174642
0.11631362
-4.52955658
1.63796567
0.99464126
0.84020104
3.14233787
2.35179354
0.47857365
-1.29880078
-0.48679699
-1.19811571
1.36630058
-1.70256901
0.82181538
-0.05682163
-1.14066675
1.86282529
-1.99827470
-2.28297676
0.92796828
-0.93244650
3.11561329
1.10344559
-2.73752335
-1.80526536
1.54217165
-5.85484429
-0.36911950
-0.18475832
-0.82370001
-0.58173404
-0.74674291
1.66054774
3.62498647
0.25290335
0.05327879
-2.81700700
-1.26943740
0.35028426
3.66010516
0.97264777
-0.36469445
1.34509438
-0.55422273
1.38087521
-1.27561727
-1.44405003
0.25293402
5.46509043
-8.96274121
1.91898462
-0.69489786
-0.41389780
0.59194435
-0.03866650
-0.83408492
0.03181333
2.15668000
0.40614550
2.24429939
-0.53331714
0.86983824
1.44622869
-0.52161129
