1.27777912
-2.60106763
-2.20316292
-0.99572373
0.06115438
0.97363143
-1.06851897
2.98462121
-0.40866430
0.35080575
-1.81911189
-0.85331006
-1.23151152
-1.01155093
0.20827080
-0.01662341
0.57392518
-1.14246927
-2.94715298
-0.03077784
0.64218466
-1.18179530
-0.48907513
2.34916356
0.37023939
0.76081127
-0.43417299
0.66561702
-1.17675931
-0.71282943
-0.31980119
1.00642240
0.25968591
0.96200049
0.35067562
-0.91582124
0.56551054
-3.37995776
-0.52546001
0.07797705
-1.06997330
0.80359511
0.10690196
-0.34313840
0.32316973
-3.92159296
-0.78798321
0.17143926
0.24866097
-0.86215165
1.05161731
-1.11219594
-1.53451061
0.29575118
2.27973270
1.76642009
-1.33878714
-1.28112300
0.93879032
0.30704864
-0.35464444
-0.37391827
-2.16622689
-1.00897621
-1.54139504
0.33545188
-1.23295964
0.66529239
-1.17805072
-0.70902319
-0.34710652
0.39594991
-1.96325202
-1.97043508
-0.23513604
-4.08677292
-0.91137846
-0.44986134
-0.17780830
-3.76754119
-2.49306876
0.46875522
0.08117331
-2.83919851
1.84376123
-0.71688242
0.55496422
-0.17033139
-0.26556184
-0.49686300
-1.26120456
1.43894550
0.77055550
-1.66880121
0.40026086
-2.55966557
-0.10987618
-0.10786541
-0.19710064
0.20143303
-0.63647138
-0.17370714
0.12796192
1.02790247
0.44422052
-1.24538068
-0.99427311
0.86902279
-0.96478531
-1.84188438
-0.82063774
0.76653118
-0.97866972
0.62232540
-1.01189778
-0.85689931
-0.87540469
1.04503301
0.51596067
0.99340899
-1.51309951
1.05580363
-1.25744439
0.38029945
-0.76202520
0.89063444
-0.15709851
-0.34022818
-0.80685352
0.68781697
0.22853179
-0.37011216
0.70576070
-0.48550447
0.63664794
-0.25144709
0.19413025
-0.45324722
-1.47802503
0.55061131
-0.20598760
-0.09938749
0.55740402
-1.62480057
-0.86958552
0.53525584
-0.58649090
-3.60174125
-1.09577849
-1.41098029
-0.22797492
-0.34926442
-0.60118342
0.25183194
-0.21466383
-0.81398107
1.37334998
-1.61329098
-0.91855983
-2.12179559
-1.90681930
-1.07974604
0.64721951
-1.13091296
-0.98288017
-0.59760087
0.21928332
0.62706908
-0.76508997
0.20191385
-3.11855739
0.14942601
4.80889917
-3.55254959
0.12522252
-0.90979453
1.07303457
-0.72790947
0.53938679
0.01195088
-0.32679637
0.52704504
0.60556289
-8.07949411
-1.14837863
-0.92302308
-0.13865355
0.19444915
0.34206202
-0.11428569
-1.84581160
-0.65101293
-0.61947250
-0.09655226
0.84493158
-0.53268433
-0.99708392
1.17117579
-0.96827128
-0.99599497
1.10631402
-2.07346660
-2.06957777
0.32775753
-2.27046712
0.48775101
-2.80805530
3.47573397
-0.40315879
-4.09861278
-1.73612313
1.74146528
-2.69543523
-0.92749488
1.16801686
-1.40333135
-0.60920173
-1.34122398
1.01475664
-0.44159246
-0.81077914
3.43272557
0.53672108
-0.68224020
-0.09332675
0.52517270
-0.90531345
-0.06319922
0.68610534
-0.98314085
0.28648673
0.21969920
-3.87800332
-1.24008208
0.56942312
-0.74451254
-0.91835604
-2.43315666
1.56963663
-0.34362253
-2.73615213
-1.16601637
-0.61158491
-0.69438562
-0.24037978
-1.35491985
0.15302580
1.58858799
-3.85848777
0.81940110
-0.96030564
-0.67876355
-0.88165457
-3.81618162
-1.03766902
6.87497567
-0.19792782
-0.96436103
-0.49020298
-1.11358687
-1.23526716
-0.75928837
-0.31034334
-2.60747901
-3.36611655
0.85655207
1.68518295
-1.09918283
-0.86688602
0.66522922
-0.05170655
-0.65536697
-1.30684619
-3.77202247
-0.84138445
-0.27433035
0.61374214
0.22946202
0.33407332
-0.26446369
0.16531150
0.67918212
-0.13204180
-0.23021007
1.59348819
-0.64628367
-2.38274169
-1.07734051
-1.52165769
-0.86133890
-0.45133800
-0.85713135
-1.12948528
1.56346727
-0.40408858
1.26229569
0.71774117
0.86218159
1.14328804
0.30810371
-1.19556739
-2.74704033
-1.23436146
-2.16040777
0.20499279
0.38487855
-0.67503457
-3.84013486
0.90935757
1.28378851
0.41912525
-0.46504330
1.72243231
0.70883408
2.02393928
0.10299923
0.42144137
1.95309103
-0.56093718
1.26225434
-0.76321212
5.26506313
-0.75528930
-0.85403688
-0.67128754
-1.62647582
-1.01960111
-0.81480775
0.17500656
-1.25855198
-0.10010740
-0.48343197
-0.67978275
1.80673300
0.23276719
-0.05111165
0.50271196
-1.35352632
-3.14240443
-0.16902260
-0.53163752
0.35552127
-0.86778069
1.53283653
2.22820296
-1.11981726
1.83934872
-2.17851922
-0.42785364
-1.65921081
0.07175852
-0.29131605
-0.00981496
-0.31073310
-0.53065546
-2.00629291
-0.51070146
-0.60462757
-1.52154725
-1.50211673
1.23224147
0.09444713
0.07149946
-3.27918189
-4.50225074
-0.85136344
-0.06884478
0.09505840
-0.42207163
0.53317354
1.11139439
-1.51996507
-0.02625024
-1.12528944
1.19347907
0.20885381
-0.44973177
0.93312809
-1.02248586
-0.80562563
-0.24143521
-0.79990692
0.56021631
-1.02809334
-1.10877708
-3.28992993
-0.74096552
2.13170312
-0.25735982
-1.12476846
0.05914257
1.77779703
-0.93836721
1.56726034
-0.73768263
-0.96727842
0.62637414
2.38850319
0.10153783
-0.66840756
0.81266942
0.80552621
-0.99203026
-2.27821640
-0.08343945
0.30726995
2.19272701
-1.09466234
-0.27958499
0.21933020
-0.84192524
-3.04983302
-1.12337552
1.77884093
-0.83346362
-0.07942210
0.23623750
0.39313065
-0.64889935
-1.87390101
-1.13248157
-1.56367578
-3.55360404
3.61702806
-2.64394706
-0.76447869
-1.24059381
1.26503495
-0.74661672
0.24097389
0.58885370
-1.52695577
0.22921286
-1.35895513
0.24572084
-1.01341077
-1.17890988
0.48890070
-2.83268172
0.12556403
-0.96183660
0.49962916
-1.02567921
0.38197490
0.88510854
-1.71751588
1.41592429
-1.90989139
-1.61997378
-0.45665459
-0.77523018
0.36614903
-0.76399543
-0.90836109
-0.79177183
-0.75339474
0.45841128
-1.64804861
-0.00791621
-0.07561164
-0.49462828
-0.93171929
-2.50766872
0.18111631
-1.48589414
0.02626460
-0.18215208
-0.81114363
-1.19868554
-0.96495046
-0.58362484
0.47702794
-3.11197723
-0.16577417
-0.93471296
0.91573628
-0.94505100
-0.75369947
-0.77787385
0.91256931
-0.44782884
-0.84801730
-0.82618099
1.36797761
-0.72204539
-0.92114347
-1.06283328
-0.51271784
-0.58338771
-3.22530965
-0.63474543
-0.02993574
-1.19327939
-3.53914082
-0.77732710
-0.91068394
-0.19365884
-0.76660915
-0.67897382
1.63918151
0.97105291
-1.49604667
-1.44941784
0.05777225
0.35439852
0.68252460
0.06228195
-1.10543393
-1.04056048
-0.67364638
-3.56089484
-3.19260004
3.40937738
-0.18410620
1.15295954
-0.67109890
-1.00717197
-1.01702161
-1.28348654
-3.63387167
2.59188859
-1.78134538
-1.62427823
-2.08295457
-1.28602937
-0.57995222
0.96866946
-0.61161529
0.74657086
-2.06301032
-1.93451467
0.27391258
-1.33192821
-1.23342200
0.07181689
-0.54559057
0.11717627
-0.29051357
0.33869609
-1.15901760
-1.24026194
1.60786536
-0.22451914
-0.68823282
1.03197550
-0.38819626
-0.35785670
0.66543143
-0.30126575
0.96586918
-1.59638573
-0.96429619
0.18918928
-0.90179485
-0.66296477
-0.80580268
0.81147972
-1.21471677
-3.74009156
0.50915293
-0.90068373
0.66906189
0.07515793
-0.83278400
-0.75648836
-0.85721343
-1.16256709
-0.63976401
2.29127715
1.65130019
-1.02825204
0.51437997
-0.09528604
-0.69782452
-1.00811085
0.12304446
-0.68206433
-0.83524394
1.71725204
1.53730260
-0.71545804
1.30836384
-2.12175850
-1.45158890
-1.68165972
0.01712525
-0.21608495
-0.20479433
-3.15851826
-1.38896480
1.06980106
0.74640718
-0.80577057
-0.39239769
-0.21255448
-0.23076787
0.81380687
0.43965842
-0.18270817
-0.06527691
0.36325232
-1.01365334
-1.38822902
0.65059900
-1.48565957
-1.11367192
-1.32757608
-1.82076455
1.01198025
-0.20840086
1.35376901
0.83352855
-0.52261451
-0.00262061
0.62772845
3.46177140
1.17456241
0.31076409
0.69766388
-0.76020076
-1.35201484
-1.02654082
-1.97770243
-0.27271379
-0.92811965
-0.40794999
0.55985542
-0.11373184
-1.02812364
-1.24600007
-0.12542536
-1.38852775
1.31730361
-1.22904068
0.52866937
-1.13818860
-1.16415312
-0.80742981
-0.46584635
-0.61871587
-0.51988948
-0.93871660
0.04850731
-0.04658844
-0.56148780
-0.31944117
-0.21965986
-0.88321917
-0.64964224
-1.65274066
-0.64273840
-0.70590953
0.47873850
-0.11103596
-0.60206894
-2.96198102
-0.11481016
-1.51980353
-0.68605851
0.06583030
0.55701964
-0.38642156
2.93569269
0.38851439
-3.48284621
-0.77206172
-1.14917862
0.67630001
-0.15028777
-0.28859912
1.67514089
-0.48818399
