0.49216525
1.96878953
-0.09153359
-0.23015092
-0.49696904
0.95068312
2.34880927
-0.02456177
1.66601841
0.18294379
-0.46807366
2.06189745
0.10319825
1.17684338
1.07277720
-0.00278121
1.36069916
0.92478564
1.56697963
0.32686178
0.95700541
0.06043291
0.93961039
-0.96276828
1.76472736
-0.01857030
0.31263452
2.29680353
0.29300873
1.12387794
0.43476492
1.41116613
1.03398859
-0.28111542
2.05625220
-0.53490193
-0.04594110
2.13860544
0.77599703
1.12300521
1.70144373
1.34519448
-0.24003954
-0.04399502
-1.60714301
-1.06653757
2.83367137
1.96432403
1.64162958
1.75537803
2.28795740
0.85413014
0.69281643
0.51346223
1.29020444
-1.04253302
2.16745004
1.60425015
0.61280373
-0.89796248
1.67456570
1.95753501
0.21856508
1.06999469
-0.67916298
0.47479372
-0.63058164
1.70925033
-0.12383482
0.95850100
1.60989776
0.97688624
0.32560314
1.18745255
0.12818960
-0.12850909
3.37996480
-0.98745386
1.56492346
0.44726844
0.15531650
-1.14550379
1.90904428
-0.03464892
1.23427025
2.66565222
1.48105844
0.50866618
1.64032744
0.97515788
2.83627350
0.25637800
0.11129922
-1.27908116
1.76271699
-0.77640833
-1.14994239
1.30743846
2.37550429
-0.05948788
-0.55890613
1.29001664
2.71804513
-0.62771932
1.93758705
2.64337533
1.69314209
1.50789887
0.09964183
0.85439848
2.55292942
1.75570270
1.55926994
1.84539381
1.10214046
0.78944899
-0.20988646
-0.69530962
2.33428082
0.45639924
2.05737505
-0.41101027
0.23337175
1.40072146
1.81633308
-0.05470109
0.06199287
3.02175094
0.17360973
0.41107319
1.68409080
1.78561491
1.80071382
-1.14860323
0.19001958
-1.37499189
0.10206663
-0.39108712
-0.62532432
0.11360619
0.64659401
1.94341843
0.36260965
2.12104535
0.73527421
0.35470521
-0.26069000
-0.47901399
2.97422268
0.89027029
-0.08004679
2.51168842
0.44832381
0.13223408
3.17916502
2.60506770
0.38889047
-0.14764671
-0.37973356
1.34267446
-0.55552551
0.75723134
1.19492352
2.18643273
0.36740636
-0.83935629
0.63591252
-0.81648158
1.39272051
0.69062661
1.30180383
2.16812948
2.30418700
-0.18167298
0.56738093
1.44916530
1.84746904
-0.89139947
2.25359678
-1.00086878
1.14060056
0.28841864
-0.48633607
1.73853570
-0.20639164
0.32984510
-0.86162358
-0.24522139
1.69678991
2.18764203
1.61407759
2.10978798
0.65705361
0.22646389
2.15160823
0.80975104
-0.11393397
0.73094196
1.89705421
-0.46976040
0.70131682
0.31076506
0.95217187
0.86268682
1.47058520
-0.08400183
1.99940445
0.05637418
2.24632058
-0.01662284
0.84793814
-1.11655350
1.51093412
1.07787921
0.62439713
-0.21442370
2.44258977
0.90533638
1.19571794
1.36207175
2.04224818
1.95205363
0.07116943
2.13146537
2.24748244
1.67142150
0.17319523
-0.49293840
1.25622430
-0.17580848
1.68505676
-1.63509626
2.24614373
-0.99375402
0.34580649
1.54994965
0.11184848
1.96079235
1.76500779
2.11059009
-0.47491473
0.02620829
-0.85176664
1.52318802
-0.23418961
0.54502056
-0.10876958
1.67722641
0.56825246
0.20433480
1.48686649
1.41077536
-0.23555203
0.51085917
2.13927654
1.58322475
1.61205722
-0.14640425
-0.30598063
1.01926067
1.88693437
0.77755049
0.81915202
0.39878124
-0.74792038
0.66002340
1.19931335
0.68523875
-0.09407465
1.98314100
0.90038563
-0.29283938
-0.62293661
1.42147706
-0.01456632
0.27839015
-0.36083460
2.54200059
0.19699894
0.06489697
6.83230460
-1.24165220
-1.22781001
1.91034957
-0.55035883
0.79593224
0.03011510
-1.74867150
-0.72042252
-0.19374145
2.09417895
-0.52004332
0.59824416
-0.22198032
0.29739437
1.74570124
1.44787783
0.61640590
-1.30890461
0.54153465
0.40520350
2.18720865
2.23121877
-0.47927639
2.48417162
-0.58771861
-0.61556015
1.66754404
-0.06197964
0.09067860
-0.30153796
-0.02165077
0.06977664
0.16705290
0.89491557
-0.01195608
0.14381526
0.72819761
-0.78506571
1.59277447
1.73865249
1.02748817
-0.43851747
2.31155598
-1.35959242
-1.40234724
0.00120871
-0.38268963
0.14550477
1.40763439
0.96102589
1.08714710
1.26520026
3.05990194
-0.15442539
1.59424052
-0.42508235
0.19447029
-0.33933155
0.06834688
-1.17810062
0.33700194
0.05891532
3.03233970
-0.18582296
-0.35328922
0.87643579
0.47932634
1.08436419
2.55714265
2.34613078
1.07796275
-1.64257382
0.23640954
-0.60796013
1.91252944
0.74805049
0.61819963
0.54150895
1.51234809
1.42734941
2.32939794
2.16999125
0.81782462
-0.51015991
1.33381847
1.19547942
0.98766802
0.66325393
-0.22102239
1.06378328
-0.47792598
2.45346028
-1.01637689
1.01694397
0.30712675
0.67486314
0.60365282
2.55411099
-0.23676470
0.56719217
0.51545231
-0.73225033
0.41105175
-1.27182053
2.63068201
-0.48479134
1.60401911
-0.30860654
-0.09861578
-1.78496126
-0.12401352
0.45653220
1.51309712
0.15464322
-1.12913634
0.87246259
2.97528898
-0.24061529
-0.51712679
-0.14225119
1.39741708
0.52722930
0.25081513
0.49636732
0.03586043
0.26405271
-1.71141847
0.19619980
0.77063064
0.25888041
1.67963682
0.89778162
1.13013804
1.60419229
0.92549624
-0.71033889
3.95189486
1.36178601
0.37963596
0.55501008
2.37211124
0.15278123
0.95539824
0.24391725
-0.40506188
-1.47362714
1.69800620
3.80385324
1.86606066
-0.66784269
-0.31815815
0.40418692
1.57585259
0.71506478
2.05292945
2.63440142
2.27763675
0.21013950
2.53038259
0.80938117
-0.20583400
0.99355639
1.08569807
1.72805469
0.57262781
-0.86652510
0.68476716
0.28203420
2.45561679
2.27187146
0.47770403
0.24108454
-0.12838437
-0.65884464
-0.79781266
1.50948559
-1.32308853
0.97234374
1.82077712
0.47502738
2.65907967
1.99027572
0.89552627
-0.63334447
-0.14750298
1.33579985
1.38461938
-0.14510950
1.19488468
2.06748975
1.80824884
0.09431477
0.39323177
2.86748826
1.85888338
-0.53544998
0.05335637
1.74530075
-0.58495867
2.68922925
0.27186052
3.23643972
2.09175300
-0.36685220
1.87959563
-0.82418686
-0.30298977
-0.80927510
0.97436805
1.89009414
-0.17901448
-0.77036610
2.33555701
2.15969466
1.99866632
2.12112509
1.27232112
2.02050670
1.03591612
1.07482866
1.47932250
1.89221120
1.33051596
0.81945918
0.18917174
1.99646471
0.75342341
2.01043258
-0.03585929
2.52053007
-0.47340666
2.23278393
-0.47804508
-0.40540697
2.66002190
0.55804649
0.21313559
-0.07521697
1.02758349
-0.84968048
-1.61997768
0.36307933
2.45388001
-0.56493422
0.33569619
1.06974473
0.26307419
1.28862991
-0.06236090
1.20033484
-0.16263189
-0.34867210
-0.32320752
-0.16328281
2.27001465
-0.10402936
1.41179599
0.57958642
0.02485835
1.10821259
0.18827778
1.39998783
2.00043806
-1.24456069
0.32495161
1.55292022
1.95088602
0.63231577
0.33815669
2.01275673
-0.04700386
2.00303169
2.39890525
1.27655927
1.30515840
0.64978696
2.68355322
2.12022455
1.05907997
-0.32995852
0.08328833
-1.16137442
-2.84312446
0.24240364
-0.10482987
-0.46032626
1.52442079
0.81362214
1.93802733
-0.05710677
-2.43721579
-1.51265018
-0.72260918
1.10487304
-0.37721516
2.23974171
-0.33554291
-1.41015974
1.84082751
0.48655377
2.00472663
1.91288546
0.27961509
-2.76164104
1.43168888
-0.41196864
0.14103515
-0.81147386
0.05897266
2.46854084
-0.31213389
0.54312546
0.37109895
2.67291802
0.54514546
-0.01511683
-0.41752755
1.61829075
0.26087317
2.06491471
0.07046433
1.12012895
1.91905643
-1.35147563
0.52344510
0.06115037
0.35576371
0.76467037
2.26517716
1.11921429
1.82472473
-0.19440432
-0.27211698
1.45051389
0.05216805
1.88478256
-0.35801974
0.49053422
2.53318944
1.48410678
2.37335682
1.02617477
0.08148812
-0.22849641
0.76728013
1.23164792
1.45769465
-3.40571671
1.26214593
0.73086049
1.90594436
1.98654466
-1.24642368
1.19180526
-0.37708554
0.04828270
0.40655510
1.27361236
1.95280652
2.39670588
-0.98356219
-0.20825206
1.66759685
0.34613951
1.89051573
-0.47516259
1.51373583
2.06813542
0.67628167
0.16630685
-0.21597368
0.59040666
-0.26033433
0.83047923
0.89779813
1.83161509
0.91844563
-0.16080103
-0.98146365
1.16166053
-0.54124484
2.47523604
2.09511985
-0.28410062
3.16818063
-0.50372447
-0.65519949
-0.14075700
0.26221986
-0.78558170
2.40952327
1.77634730
2.04732415
1.30268560
2.15318810
0.79452364
1.94341142
2.88778521
0.67983381
2.31076104
1.59208208
0.16441296
0.99838698
0.49791176
1.39324673
1.68294082
-1.80965196
1.54112850
2.12984922
-1.41263042
1.08916897
0.09949374
-1.34773052
1.48638563
-0.00743126
0.53435805
0.68563151
-0.22709300
1.99665534
1.44030546
-0.22266577
2.80949536
2.26201762
1.72249486
1.60134765
-0.60646564
-1.86972953
0.29505815
-0.79532476
-1.03756553
-1.12969172
1.81189169
-0.80325949
1.57630547
1.41135131
1.28022801
-0.29681044
2.73803216
1.87647919
1.53784106
0.84700116
1.65197716
2.67608736
1.68376400
1.96807396
0.15742297
-1.12179827
-0.10176094
-0.94396580
1.58578140
-0.39508364
-0.66602401
-0.38681774
2.00340026
1.22278110
-0.54487043
-0.31560658
2.37071756
0.40400525
0.47260146
1.25880998
1.54305657
0.55381842
-0.05839285
-0.91590439
2.31423492
0.60154591
1.40760742
-1.02771630
-0.31282310
0.62235272
0.10888011
-0.23683982
1.60318401
2.59292934
1.77517021
-0.29708779
0.03971648
2.03111189
1.63651718
1.37422864
1.60358521
0.77801175
1.34607600
-0.11708450
-0.34257037
-0.89268978
2.32060129
0.04785922
1.59250232
1.25452198
1.82105262
2.26972455
-0.72006314
-0.01577177
0.13322515
-0.26620033
2.84653257
1.57999052
2.61881625
1.77905800
-0.98551021
2.21697790
1.17090333
1.34838011
-1.15240577
-0.58981731
-0.28778098
2.31573926
0.53152908
-1.11318591
0.96608821
1.39084749
1.93912671
0.33071346
0.66011326
-0.57543473
-0.47512884
0.26025986
0.70305731
-0.98180402
2.28190452
0.55887932
2.10054400
-0.31907658
0.34218956
0.31525471
1.35620930
-0.43134334
1.86652666
0.77306973
0.16772955
1.30282152
-0.77174038
0.03277303
0.42025724
0.55149695
-0.22589024
-0.81653262
0.69024633
-0.79835679
1.87057566
-1.23171092
0.02073989
0.41597465
-1.12878456
-1.16276147
-0.36005559
0.33484151
2.06846839
0.29682561
0.00602848
0.27731676
0.71475098
1.94887114
1.59949089
1.43319895
-0.77802469
0.06784790
1.09316783
1.33801574
0.28178670
-0.08630586
-1.29767015
1.06231608
0.21516392
1.31941395
0.26910841
1.66947229
0.43429912
-0.75087930
0.73587863
-0.88957248
1.43221911
-0.31104494
0.47612643
1.27433681
-0.69943952
1.59071890
0.94057889
-0.21488807
2.37622968
1.16557726
-0.63821228
0.63547738
-0.51466537
-0.69128229
-0.33660540
2.07662423
2.01966825
-0.49788336
-0.23345033
-0.41841217
1.52938687
1.87516022
1.33756129
0.95806578
-0.76841420
1.96387030
0.30499924
1.57328340
-0.40825257
-0.67250139
0.45577323
0.40791195
1.17696706
-1.46337232
1.83131967
2.09842514
0.69372325
-0.15172608
1.34044967
0.95911492
2.07148436
1.72261217
-1.09464324
1.25521091
1.44121793
-1.29170051
0.81054726
0.78700638
1.17123588
-0.72973205
-0.77473508
-1.13729469
2.80881871
0.16596928
0.54361864
1.33855599
1.44685136
-0.39088195
0.66409180
-0.80824054
0.14214672
0.92915314
1.03584309
1.86741371
-1.56711381
0.94882708
2.02279007
0.96749963
1.60927907
0.22754881
1.84944133
-0.98497269
0.51910763
2.38219562
2.27458011
0.62963905
-0.41900631
0.66816202
1.49278687
0.38122890
-0.78437734
1.75908823
-1.07614722
-0.45932442
0.73012792
1.39665106
0.50152886
0.49403192
0.40121607
1.41386369
1.94367550
-0.04101845
1.26997305
1.46489864
-1.04542261
-0.76396198
1.35585522
1.27953567
-0.56357734
1.45996366
-0.09371921
0.66514647
1.43730065
-1.20717374
1.58289557
2.43046696
0.96136621
-1.49907881
-0.54724957
2.10472273
-0.34184133
0.02760608
2.59021486
0.41672729
0.18836657
0.96754910
0.65774917
2.60275523
0.86893588
2.24623286
0.45873127
-1.83967045
1.51392984
1.65826232
1.83461518
1.55395704
1.34204228
2.08041865
0.27023388
1.19050421
1.46589989
0.50788140
0.53648712
1.05974817
0.49283674
-0.35881376
-0.87479798
0.54666587
2.25345506
2.24507121
-0.25398665
2.11605309
1.69962981
1.73413312
1.11940248
0.05496017
-0.32839132
1.33528206
1.89652075
0.91415905
1.43845921
1.47688399
-0.29933822
1.37233342
-0.52212530
-0.11040219
1.83209635
1.44737293
0.87766470
-0.16108276
2.45491035
-0.30140890
2.01040860
1.45191338
-0.47089806
-0.66209001
0.60335610
1.33277580
0.93135830
-0.20149481
0.09501413
2.26220552
-1.54474647
-0.65267407
0.08011728
-0.19733074
-0.16826669
1.19606625
-0.27832425
0.17954345
1.79043224
1.31155124
0.26660225
1.91426490
0.71813167
0.26046544
2.55909342
1.73295777
-0.64341209
-0.18035591
1.97692820
-2.31935819
1.93006515
1.54356834
1.69597310
1.66515053
-0.22397740
0.84328485
2.28433326
1.58741824
1.09263575
1.76836986
-0.60413497
0.80683002
2.41517001
2.00182255
2.46300099
2.44610835
0.13131108
-0.20483833
-0.56704975
1.05351473
0.10680504
1.05748077
1.12406346
0.89782739
0.89431527
1.26895235
1.42858681
2.31334659
0.53687716
1.69914783
1.30891081
-0.06811053
0.95326332
-0.82892705
-0.21999532
-1.19308475
1.43199295
-0.45680518
1.37684352
1.68900176
1.80272541
2.36407937
2.22716438
2.45416153
0.14378264
-0.11092272
0.32939096
-0.24740233
0.25192989
-1.86123237
1.51776681
0.09627335
1.80149494
-0.61134106
2.06050166
1.96517021
0.19359742
-1.80830569
0.01566649
2.80916836
0.75545477
2.22052721
1.24126023
1.96581168
-0.67040891
-0.23948643
0.22374529
2.07587998
1.20151709
-0.62953525
2.53771778
1.69279217
2.16682207
-0.03525793
1.77421164
1.19495888
0.32098749
0.99401474
-1.13369948
1.67376420
-0.46232825
2.16904482
1.19057651
2.14854965
0.16160357
0.82549800
2.44766159
2.08680054
-0.37344188
-0.06007446
1.39222558
2.48415193
2.72768267
-1.74122852
1.93682327
1.91624833
0.23788301
1.80590076
1.72507527
1.23278894
1.61776610
-1.55267295
2.11239391
2.22025642
-1.07043685
0.89447916
