-0.41404325
-1.68098275
-0.47056286
-0.00628654
-1.60758771
0.77171599
1.50355784
-0.93484238
-1.19602982
-0.08829135
-0.35916473
0.58163394
-1.26519550
-0.59483186
-0.22886170
1.53391079
0.08095998
-0.69221332
0.16602307
1.26399294
-0.61013292
0.10435790
-0.11752983
2.07624728
-0.24537505
-0.81596683
1.25101921
-1.04689077
-0.01404875
-0.38397077
-0.63077086
-1.15564333
-1.31709896
0.02933610
0.36096834
-0.93109184
-1.75377512
-0.06120140
0.91811604
0.12342955
1.16802212
-1.33206538
0.05414275
-0.18161800
0.36847697
-1.43780089
-1.34184793
0.27179387
-0.20421518
-1.46994445
-0.36606678
-1.19534586
-1.08776955
0.84570763
-1.80869348
0.45531517
-0.10571963
0.23181632
-1.02103533
-1.84163312
-1.75718423
-0.17004015
-1.70976907
0.73540534
0.38008334
-0.49749710
-0.37348535
0.67781588
0.13592896
-1.30557249
0.03089730
-0.93484073
0.68708934
-0.61464472
0.02172489
-0.64768029
-0.23091289
-0.13019260
-1.63055658
0.90885919
-2.26675039
0.17886529
-1.01375199
-1.56654926
0.29684355
-2.08626485
-0.00983213
0.10161097
-0.04640689
-0.34695853
-0.63922511
0.70980432
1.22922843
0.45084636
0.06223362
0.12708167
-0.10775477
0.90963379
-0.52772978
-0.35830019
0.13661594
-1.27330513
-1.22348003
0.19882965
0.68345077
0.33181637
0.81856797
-1.32318721
-2.35786052
0.72459652
-0.46788877
0.41991866
0.68571123
-1.23764405
-1.90702802
-1.65732145
0.66348402
0.42649420
0.13434521
0.06829228
-0.89195640
0.07338801
-2.13675739
-0.42099803
-0.48883461
-1.55469870
-1.61731594
-1.56833307
-1.23312790
-0.70438789
0.31704171
-1.60635419
0.01010315
-0.82820048
0.40635366
-0.25754579
-0.34286308
-1.14691712
-1.65393752
0.17436941
-0.92966532
-0.20450628
-1.30233300
0.13060557
-0.54945256
-1.12953930
0.54739271
-1.31307433
-1.02581566
0.73308095
-0.10257806
-1.55050470
1.08294601
-0.01559586
-1.68191890
0.02032319
0.09132088
0.90027620
-0.48847168
1.75198864
-1.60863441
-2.24572585
0.71326816
-0.47667586
-0.99253673
-1.04008520
1.47938816
0.97111197
0.35863455
-1.36262859
-1.09471507
0.03344832
-0.89804843
0.22570863
-0.13047686
0.14361631
-1.76308117
-0.59595753
-0.70717452
0.04338539
-0.48166529
-1.53671133
-0.11720658
-0.57086277
0.25999665
-0.10641029
-0.18030331
0.53461038
0.69760427
-0.22591353
0.62210693
-0.73968614
-0.98038858
0.05636996
-0.54695343
-0.36582768
-1.64812183
0.20182678
-0.21754455
0.17497454
-0.54739993
1.68183399
-0.02179940
-0.92671710
1.39923085
-0.62431679
-2.10800986
-0.65184148
-0.37983308
-1.74041628
-0.68166710
0.35709727
0.18991192
2.08854267
-0.54518056
-1.44176050
-1.74067616
-1.00588165
-1.33241062
0.60295774
-0.20836208
-1.60542202
-1.73202602
0.80600066
0.27098388
0.87455145
-0.50657357
0.51471302
-0.41767694
0.48771198
-0.29385105
1.52760689
-0.16386153
-0.26413541
-0.33914680
-1.55454600
-0.08524759
0.02139419
-1.97508123
0.29001301
-0.06061157
0.53855720
0.66093469
-1.18726265
0.37750275
-1.71602325
0.13240603
-1.48644278
-0.23896602
0.00211805
-0.64335183
0.42677707
1.54823818
1.16900978
0.78716344
-0.94625591
-1.64673100
0.01543214
0.10190325
-0.31277033
0.11816566
0.24033778
-0.01385125
-0.90141003
0.04892520
-0.81796235
-0.80547503
-0.17893240
-0.56622122
-1.67677557
0.28478473
-1.38869456
-0.10163646
0.40585567
-1.64006084
0.11923071
-0.00992933
-0.04712995
-0.92703605
-1.09032576
-0.22407646
1.51529739
-0.41022749
-1.76650062
-0.83389157
-1.50123116
0.00107730
0.76350385
1.38649658
-0.69685685
0.50095002
-0.19709646
-1.04916249
-1.01106050
0.58857631
-0.37791280
-0.75855037
-1.26292218
0.10108732
-0.00072487
-0.60994376
-1.20928713
-0.48198591
-1.02984467
0.32696069
-0.25070249
-0.05377761
-1.37226209
-0.11842921
0.20875319
0.53990765
1.60671843
-1.21024924
-1.36550367
0.30536314
0.18752369
1.46644372
0.11174215
-1.67054166
-0.72018805
0.08644608
-0.35646720
0.24051251
-1.47515750
-0.01991364
0.07953749
-0.01258694
-0.91455680
-1.42223683
0.30626676
-1.50497277
-1.14965573
0.02468906
0.81000622
0.36661856
-0.41810753
0.66574184
0.54763792
-1.50060925
-1.47524547
0.29596241
0.53988662
-1.61992920
-1.09923529
-0.30901241
0.20892275
-0.02862756
-0.53854617
0.70549160
-0.53078291
-0.22803785
0.25043035
0.36389838
1.77265500
0.16457228
-0.09932051
-1.42488496
-0.47136947
-1.29415156
-0.28458261
-0.01210920
-0.01401247
-0.25046594
1.00941219
0.26856487
0.33105739
0.12304455
-1.18859862
0.05690550
-1.76367508
-0.50688193
-0.74658491
-1.64079476
0.18226233
-0.13993558
-1.20226167
-0.18672969
0.29201852
0.00617892
-0.48819800
-0.57215503
1.33528243
0.32209243
0.14453672
0.57483111
-1.37660446
-0.51018755
0.32880818
-1.42014987
-0.18122296
0.21708853
-0.04680164
0.50839825
1.19989124
0.06863706
-0.48124883
-0.06108646
-1.27703207
-0.55334266
-0.40908376
-1.60242765
0.29751604
-0.46371337
-0.96172663
0.71624903
1.02247505
-0.08344074
1.68103647
-0.12790414
0.05107633
-1.46800962
-0.95260780
-1.45732969
-1.14056920
-1.16040762
-0.12313416
-0.92981572
-0.55760370
0.27909731
0.30929340
-1.31799095
-0.46722279
-0.04910499
-0.26549108
-1.43325548
-1.78043118
-0.37019368
0.68083938
-0.19368087
1.02564754
1.64265742
-0.19572042
-1.21974823
-0.64957651
0.66766360
0.82750762
-0.60295468
-1.34604916
0.33345740
-0.08688426
-1.46595250
0.10447220
-0.21689747
-0.39006807
-0.00645285
-1.44900291
-0.40522616
-2.86932872
-0.00231900
-0.89610694
-1.94285799
-1.55413435
-0.44112864
-0.56562126
0.08945186
-0.08709437
-0.51127230
-0.42407031
1.20719342
-0.55439759
-0.51729336
-0.58269216
-0.16230754
-1.60316159
1.18398017
-0.96602156
-0.04065931
0.25423058
0.16781064
0.05685218
-0.89261388
1.72316612
-2.07095624
0.98996062
-1.12138035
-1.16104261
-2.15551392
-0.25142328
-1.56698891
0.25515167
0.24474288
-0.03350569
-0.22489812
-0.44544113
-0.53794984
-1.28334064
-0.84740665
-1.46582543
-1.75518837
-0.20953293
1.42198506
0.31766768
-1.12707973
0.39221446
1.95978871
-0.29021558
-1.11397345
0.25571866
-0.81337508
0.32902576
-0.03783950
0.02901963
-1.52103162
-0.01760914
0.51350786
-0.68602275
0.12918566
0.14646970
1.27567086
-0.11305004
1.00184977
-0.68043179
-0.68459624
-2.08409260
0.53787683
0.99776445
-1.25707854
-1.83084511
-0.52724991
-2.13380245
-0.30918818
-0.35167448
0.21999924
0.91056683
-0.94021213
-0.37177791
0.89851507
-0.37644751
-0.33378033
-1.36786233
-1.26331756
0.70312026
0.64041872
-1.24233377
-1.30073992
-1.23183995
-0.21284558
0.10636983
-0.43474758
-1.31965208
-0.13389062
-1.20767092
-0.90959330
-1.86392482
0.48702465
1.20310187
0.36722915
-1.28706909
0.19903442
0.61416134
-1.10540996
0.04528458
0.12778665
0.15476825
0.79992119
1.07274068
1.96633731
1.07360460
0.66809643
0.13025676
-0.28067772
-0.00266827
0.18034932
-1.30924223
-0.41327723
-2.01826770
-1.33924001
-1.13965630
-1.43130057
0.63394130
-1.68526383
-1.17412343
0.21563387
-1.57261420
0.10734876
-1.47081220
-0.79176349
0.91025434
-0.38020686
0.16546595
0.10973853
0.48907974
0.04581424
-0.79751894
-1.22180041
1.72006653
-0.16548637
-0.03225720
0.22295026
-1.16591721
0.00741616
0.14876517
-0.70632529
-0.93272449
-1.70350110
-2.06137243
-1.25105814
0.30985506
-0.15841381
-0.07068416
-0.32813712
-0.01558326
0.02322462
-0.15560063
1.41721324
1.13835591
0.62039601
-1.54293526
-0.86929638
-0.05589317
-0.82676333
0.88142872
0.76182382
-1.26767752
1.96128513
0.39580432
0.85958416
0.98775297
-1.25654403
-0.01000030
0.18563515
0.01741788
-1.01922451
-0.07484593
-0.52370101
-0.26158321
-0.69904167
-0.79524221
-0.31875323
-1.63388617
0.08516597
-0.13720892
0.16758082
-0.02823028
-1.02566358
-0.91624350
-1.02908932
-1.47699557
1.25061305
-0.96982062
-0.25975230
-0.11629758
-0.12378123
-0.96086323
0.14734118
-0.59437060
-0.80272321
-0.42845036
-1.17913700
1.45325495
-0.72848842
0.14053096
1.94323798
0.70783544
0.87004909
-0.02488488
0.70624051
-0.90253549
-1.10525004
-0.39268184
1.08659243
0.43662359
-0.59977013
0.87148184
-0.09016600
-0.90816552
0.41782032
0.16142189
0.19798883
-0.11522671
-1.11770653
-0.41299024
