-0.47933531
0.08465884
0.42761643
0.33926107
-0.33856969
-0.80113021
-0.41748369
-0.91105472
0.01661269
0.20934635
0.30112017
-0.52915874
-0.80158109
0.83937551
0.58618925
0.49701128
0.70028863
1.43466846
1.87841794
-0.07813827
0.25797312
-0.22494500
0.25254875
0.89794077
-0.96075875
0.29644523
0.57331414
-1.80670215
0.03426056
-0.21955165
0.08266099
-0.26077953
-0.13549224
-0.23850966
-0.62606685
1.05640144
-0.18672300
-0.88649359
-0.51805502
0.26437506
1.00271865
0.02411159
0.61309771
0.03506522
-0.57583413
0.34042321
-0.22877712
-0.78426660
0.57443666
1.03142724
0.13906814
-0.83483147
-0.32117923
0.83151996
0.25180491
0.20130236
0.21089823
-0.51226002
0.95732531
-1.08640627
0.68283878
-0.23029154
-0.12193993
3.66338095
-0.55300020
0.24481592
0.34389966
-0.38607477
-0.61647240
-0.22993699
2.13672716
1.20773703
-1.62069601
-0.34695778
-1.28897550
-0.05129268
0.10557804
-2.44094272
-0.02766080
-0.16719624
-1.37679366
0.17883446
-0.74277840
0.34945715
0.29982298
0.16131967
-0.69345690
0.68722246
-1.03191452
0.08072963
0.70796063
-0.01846369
0.49998978
-0.21516695
0.57651100
-0.72222859
0.15776165
0.02351063
0.30782750
0.02623655
0.46183470
0.56013381
-0.21424352
-0.31925842
-1.02452918
-0.04032714
0.02577439
1.55619790
-0.77325472
-0.41213045
1.03855458
0.20705645
-0.53107151
0.86117598
-1.56089419
-0.21238781
-0.00921259
-0.47659777
-0.04921586
0.73576583
-0.04998099
0.98947577
0.57779024
0.21394954
0.08706428
1.65449056
-2.55034345
-0.82892306
0.43642381
-0.06157548
0.77774747
-0.32514743
-0.20286251
0.06323346
1.10820926
-0.05074396
0.85074308
1.22835434
-0.65688621
0.00536134
-0.38581254
-0.29384399
-1.13261133
-0.08675328
0.02409307
0.77433607
0.00305757
-0.45694523
1.14637710
-0.08002410
0.44537023
0.52370071
-0.69837710
-0.04387049
-1.26393583
-1.32350792
-1.15102102
-0.44869775
-1.48341291
-1.32819539
0.06941933
-1.17164497
0.03632855
0.18943500
0.44217373
0.24383101
-0.62627009
-0.14495316
1.06793663
-0.03656848
0.31516074
-0.35307845
1.73990293
-0.96817905
0.92950588
-0.97107136
-0.27783213
0.44185114
-0.27707895
-1.53214529
0.77614982
0.46361817
0.33092421
-1.72701475
-0.34521626
0.06773232
-0.79970991
-1.29427771
-0.34017806
2.10506563
-0.04666227
0.14447102
