0.38547088
0.52159779
0.40276204
-1.19432442
1.01468192
-0.21531890
-0.67208780
-0.09173424
-1.05768030
0.36352827
-1.12329611
-0.71082894
1.22065509
0.77391351
0.63674732
0.38574701
0.63631635
-0.50195161
0.42265243
-3.24750830
0.31712732
-3.56436501
2.68219237
-1.22462310
-0.91043056
-0.00444043
0.96455274
-1.95293246
0.20282430
0.61431092
1.59891328
-0.29022240
-0.49660419
0.20185574
0.52364708
0.44539722
-2.01448803
0.42916867
0.14561461
-0.59636515
1.55622141
0.47160888
0.48748436
0.57914618
0.36015462
-0.61761963
-1.25078596
-0.57858632
0.25823082
-0.92511557
0.84138114
0.50946839
-0.09362762
2.32022672
-0.17049114
0.01832640
-4.38008254
-2.28852954
-0.51234029
1.24927705
-1.15148498
0.03305300
-0.61040537
-0.14216722
0.17773730
-1.92037487
-0.23952616
-2.16555578
0.41509724
0.59416636
-0.69844819
-0.57041875
-1.17357386
0.05626707
0.29007579
0.92682417
-2.08973857
1.89978775
0.34770681
-0.42960164
-1.32315624
0.71866628
0.34064641
-0.09929956
-2.49588217
-2.24933635
0.24513452
0.37533511
-0.76372501
-2.59090036
-1.12466930
0.32886398
0.36577735
0.53587167
0.01487835
-1.50753716
-2.02283291
-0.14349187
-2.13248611
-1.94108763
-1.45778779
0.50548479
1.62933073
-0.83969179
-0.40739018
-0.22353954
3.22337171
0.68480547
-0.53523269
0.10281375
-2.79031747
-1.95852461
-1.21355096
0.56815354
-0.16929841
-4.17460553
0.22444821
0.23528284
-0.76516900
0.18801507
0.64609031
1.09941827
1.55997351
-0.76193487
0.11592839
0.07229671
-0.85475289
-5.05361770
-1.17351593
1.52529583
0.18481392
0.55574464
-0.90626224
0.48145499
-0.32112913
-2.26082276
0.06278422
-1.21152725
-0.97511355
2.19281041
-0.25377202
-1.23527328
0.03727270
-0.20910419
5.46370354
0.45394581
0.24245073
-1.09826353
0.77110351
-0.94533043
0.29865455
0.14527673
0.03485483
-0.45018464
-0.71118009
0.87474023
0.41905349
-1.01263067
0.36011259
-4.01900774
-1.30078613
0.97274027
0.33138896
-0.22929846
0.78620653
0.03174372
0.92265197
-0.52717345
-0.62193382
-0.48806980
-0.92956968
-0.04683111
-0.48490155
-0.34591954
-1.01346541
0.71402569
-0.19575362
0.92762166
-0.55948692
0.95975165
-1.47083683
1.79104430
-0.83309213
2.76891755
-3.00891181
1.44047582
0.49528525
-0.94063252
0.67221865
0.18648545
-0.54107709
0.78977717
0.64882888
-1.12170871
-1.93160683
-1.66770551
0.51676323
0.70025994
1.58274185
0.62732119
-0.01661442
0.44340233
0.66842278
0.10170829
-1.27203675
-1.49661484
-1.08147686
0.21097617
-0.02137657
0.19359901
0.51613115
2.05754459
-2.66097588
1.25723523
0.92521405
-0.03435517
0.11177610
1.89215258
-1.16562387
0.07653601
0.17936618
-2.18679100
2.08041344
-0.76324770
0.54576550
2.45644871
0.04910999
1.34384526
-0.98436074
-2.23513781
-1.36557102
1.12929995
0.09498315
-0.50912181
0.65919463
-0.47169236
0.47802073
-1.43989305
-0.14644194
-1.41766723
-0.08039256
-2.09067216
-1.24130293
-0.70085704
0.31173444
-1.32325356
0.37688063
0.29831570
-0.51935449
-1.27505159
-0.64214721
-0.36710774
0.22324080
-0.77345458
0.30716638
-0.11225418
0.28318869
-0.61103658
0.52988647
-1.06719762
0.41224375
0.26908378
-1.98661040
0.08735239
-0.29466714
0.61650477
0.97909852
-0.54429570
-0.15253915
0.40965418
-0.05210276
-0.85912465
-1.14928499
-2.87441765
0.69891793
0.41981197
-0.76070905
-1.21801052
0.00597317
1.71278751
-3.33229063
0.60073194
0.45538933
-0.31918888
0.30055020
-1.18330064
-1.03318925
0.42615896
-1.86632093
-1.38006531
-0.05280709
0.21892270
-0.54855283
-1.35607085
0.38501886
-1.24415510
0.77845806
0.39472737
-0.07450023
-1.13498578
1.55940446
-0.37789236
-1.11424373
-0.98094769
2.33214829
2.04201341
-1.63266205
-1.19062238
0.15111529
-0.47293354
-0.80780306
1.39232224
-1.01547420
0.06090480
1.66588457
2.07211221
0.50003359
0.58204714
0.28891475
0.23507169
-1.06630637
1.47429584
-1.52414916
0.97684228
0.28827835
-3.25316282
0.03103279
-0.13761502
-1.39292387
-0.52139727
-1.33517961
0.64456331
0.11640594
-0.56387889
-1.29539783
-0.19378766
2.31233544
-0.84820168
-1.18389634
0.55808803
0.36769070
-0.36745527
0.53746067
-0.91085405
0.00122185
-1.99358623
0.43470451
-0.80150028
-1.09615243
0.65847721
-0.18622411
0.29220432
-1.31207024
-0.06681065
0.53067868
0.92118716
1.21921321
2.60370788
0.44130404
0.98281372
1.57377989
0.82724634
-0.38543619
-0.50603333
-2.72966462
0.99775798
0.36885900
1.17715095
-0.36174923
-0.10150076
-1.09959097
0.99152323
1.51820875
-0.38794429
-0.01653092
-1.09690950
0.38650211
0.01339932
-0.89312159
-0.54407066
3.08531941
0.05975694
-0.05151556
-0.51271062
2.37725560
1.29576870
0.42029062
0.02460257
-1.25154241
-1.10018529
-3.42860027
-1.34926302
4.30488120
-2.52604121
-2.14345687
0.73116965
0.34838444
0.55837090
0.53665278
-0.84376546
0.79511183
-1.91024629
0.71926843
2.52940056
-0.12112202
-0.20979465
2.92405002
-0.16391064
-1.42854311
0.32768388
-1.13011661
-1.49345747
0.43797775
-2.80289525
-2.95400519
-0.44168006
-2.71949215
-1.36104141
-1.28978112
0.79490389
-1.18938792
1.42467652
0.64967868
-1.32100262
-1.40973463
-1.24338508
-1.68344460
-0.91877064
-0.99620258
-1.15646480
0.70376588
0.59657900
-1.46882493
6.06780835
-2.39233760
0.00027180
-1.19678177
0.35468623
0.58204638
-1.24556734
-2.66151448
-0.63003110
1.77305390
-1.25728372
0.52246396
2.68531828
0.48429527
-2.32762444
-0.00931413
-0.26002101
-0.69446240
0.87401484
-1.37997137
0.59005658
0.43683822
-0.20841901
0.58136716
-2.27579951
-3.83211098
-1.49453129
-1.10041561
0.16818400
1.08654405
0.78882757
-1.11731684
-0.92233666
0.96873078
-0.87898925
-1.00077825
0.92629059
-0.48443345
-1.89039591
-0.76293018
-0.08142756
-1.04070789
-0.13843119
0.99415656
-0.36966057
-1.53075968
0.34013728
-0.55037137
0.91579898
-0.36764584
0.39126962
0.03845491
-0.81708705
0.59761856
0.59209725
0.94298573
-0.88365937
-4.73190754
0.32832281
-0.17301711
1.42441390
1.13059343
-0.59945748
0.38110571
-0.43255260
-1.09239607
-1.34804918
0.58702922
0.84197727
-0.51239999
0.42368840
0.55152863
-0.74068800
0.66600148
0.38552819
0.09637200
0.56557046
0.62874223
0.31995093
-2.51633986
0.32736745
-0.32855363
1.85273661
-0.07936821
0.84798834
1.50282689
0.42995058
-0.47576898
-2.50484845
-3.12947012
0.49844817
0.52260953
0.42326410
0.50187501
0.66766409
0.43021173
0.56962513
-0.51761782
0.95550296
-0.28552403
0.83565826
-1.13390434
2.35932264
-0.96569598
-1.83176154
-2.89514271
-0.11314774
2.49600178
0.64552202
-0.11194275
0.77251286
0.54085334
0.36837078
-1.77641177
0.46965072
-0.84985496
-0.84558609
0.67815793
0.24028496
1.57445976
-1.20018533
0.19243714
2.45736284
-0.20658728
0.19266704
0.32534952
-4.08146777
0.23759694
1.37258841
-1.41480031
0.28146720
1.60724453
2.21950692
-1.34531783
-0.81736735
-1.41904273
0.13379247
-0.08862564
-1.37715161
0.33225399
1.13321013
-0.01803164
4.03911253
-1.18303009
-0.62714214
-0.89022270
0.39124998
0.29662135
-1.23053869
-1.07515821
0.35814717
-0.13816774
0.74099770
0.59608525
-3.16001445
0.42932135
-2.15923523
2.44906080
4.62489130
0.50198726
-3.05678466
0.56007843
-0.65469766
1.42069502
1.10532431
0.85181473
-0.10510550
-0.16519551
-0.04728559
0.11617472
0.51938293
2.09611947
0.49736319
0.67413208
-0.87543411
-0.98658595
1.19481130
-1.74066548
-0.06500191
-0.17440591
-0.31649693
-0.96658805
-0.68085684
-2.69337873
0.56882228
0.03229324
-0.94313569
2.43926938
1.37729023
0.20753130
0.38472612
0.95522777
-0.46185499
-1.72790620
-2.51216975
1.94490003
0.76986656
-1.27928611
0.47750226
2.80823043
0.40083564
0.33199812
0.49497743
0.56437310
0.15429572
-2.58811745
-0.22942255
0.84334745
0.77883195
1.36308171
-0.73723404
-1.44191619
0.15819908
-0.57279865
0.26140654
1.23705156
0.55936195
-1.85630325
0.45083247
0.45479878
0.88357439
-2.15599985
0.26196600
0.93586464
-1.47415055
2.00608233
-3.99327807
-0.59102746
-0.53016626
0.36450042
-0.80353694
0.56364013
-0.39409993
-1.44692178
1.42190001
-0.05730401
-1.76447583
-2.23596405
1.10110063
