-0.04023795
-1.60531594
0.97463355
-0.06494883
-0.35422183
-1.16170787
-0.25856399
-0.49732792
-1.49424453
-1.06999559
-0.24411566
-0.11115301
-1.31025805
-1.89502978
-0.18972695
-0.07035783
-0.99601457
-1.37110709
-0.28034882
-1.23869140
-0.77245046
-0.04060030
0.05540494
-0.03946181
0.09085835
-0.17032949
-0.16460285
-0.65635980
-0.25716298
-0.28932343
-2.03336785
-0.23424382
-1.34447696
-1.08199196
-0.04013953
-2.05943852
-0.79469749
-0.32936432
0.13014343
-0.89738069
-0.32431629
-0.92436829
-0.07066230
-0.40979199
-0.07013555
0.21130296
-1.44278076
-0.50857256
-0.05096524
0.12983620
-0.61928602
-0.00980631
-0.18554017
-2.02126685
-1.03781952
-1.38811001
-0.10035070
0.28966155
-0.32363358
-2.07133302
0.08727539
-0.60453039
-0.03728983
0.08066900
-1.58269442
-0.73108809
-1.65833674
-2.05000038
-0.08452256
-0.02498601
-0.54791940
0.13677791
-0.20244226
-0.81255781
-0.49643498
-1.14219989
-0.03175387
-2.04810868
-0.39674802
-0.69619653
0.24797684
-0.13825442
-1.40581362
-0.33525308
-0.04428875
-2.17109742
-1.83937662
-0.44508047
-0.69117662
-0.98458402
-0.80943836
-0.43876497
-0.02045963
0.15592068
-0.75467812
0.04271608
-1.81845802
0.08470462
-1.39800419
-0.39826181
0.08020342
-1.11488872
-0.92191514
0.78873577
-0.04644184
-1.67242732
-0.25517478
-1.19831649
-1.30775414
-0.10424503
-1.22684065
-0.07061398
0.01913493
-1.50727681
-0.32596826
-1.05204644
-0.13292383
-1.56595633
-0.01888349
0.50181738
-0.64395417
-0.03152364
-0.69824160
0.35657617
0.36555704
-0.74332366
-0.66584882
-0.26654008
0.10455827
-0.52807984
0.92840624
-0.10649871
-0.28665629
-0.44420849
-0.51508853
0.10304649
-1.42790866
-0.50382096
-1.76028020
0.35269613
0.74544182
-1.31890935
0.10528581
-0.58435433
-0.45609365
0.13655953
0.01868568
-0.72556249
-1.72082590
-0.19348985
1.04410580
-2.06019571
0.03004868
-0.27152972
0.04395657
0.29588556
-0.67112313
-1.32880300
-1.05560551
-0.88247112
-0.05727968
0.22284824
-0.79082371
-0.79482645
-0.79597247
-0.65706756
-0.01488074
-0.11946824
-0.33953606
0.97158370
-0.02181865
-0.93315334
-1.48789889
-0.82040410
-1.15160031
-1.19242392
-0.99617058
-0.19651461
-0.99986135
-1.47450425
-0.62608923
-0.36596530
-0.83118208
0.16337369
-0.71039145
-0.07350641
0.05268769
0.53704337
0.11116716
-0.25981461
0.20940692
-1.18693103
-0.13410914
-0.05362511
-1.34344609
0.52500378
-0.31906907
0.04667594
-0.66209445
-0.49253311
-0.18586519
-0.74848255
-0.06431720
-0.04391425
0.09725614
-0.83432889
-0.01410623
-0.90272996
-1.77277952
-0.30297837
-0.12766501
-0.44760992
-1.48766393
-1.33402711
-0.99572291
-0.11367754
-1.92904022
-0.19948582
-0.84834136
-1.19735659
0.06335307
0.08014065
0.00885227
0.29639093
0.00949148
-1.26245690
-0.92431427
0.58558953
0.02767488
-0.11145695
0.24137618
-1.57029119
1.09564299
0.04497454
-2.02410462
-1.61640411
0.05920923
0.11720197
0.06074969
-2.19869682
-1.14485816
-0.66388511
-0.41308091
0.08145477
0.07558843
-1.93292078
0.03201413
-0.07614946
-0.68612717
-0.11403998
0.16319112
-0.16413830
0.24727700
-0.53490240
-1.76350177
-0.85091453
-0.73630587
-0.74569443
-0.54191386
-0.56734150
0.05598389
-0.61106020
-0.74943123
-0.82961392
0.92810163
-0.35578105
-0.34041044
-0.13952283
-0.17659058
-1.56861280
-1.37997902
0.06174150
-1.25756525
-0.93800720
0.26528164
1.31130861
-0.25741536
-0.27288501
0.06329738
0.10925391
-1.49941856
-0.18631473
-0.03499095
1.38584863
-0.18311938
0.10270260
-0.00903454
-1.28341106
-0.52719442
-0.60346968
-1.24758008
-0.56268378
-0.28642914
-0.26871115
-0.95860123
-1.20898454
-0.49770087
-0.85328066
-0.90620987
0.01647706
0.82816956
-1.36906469
0.13420866
-1.62479428
0.09783038
0.56418306
-1.45045173
-0.03612257
-1.54289205
-1.15468328
0.75847939
-1.32935053
-1.68809242
-1.94205516
0.30308285
-0.76325531
0.02317114
-0.11149549
-0.81196324
-1.40779649
-2.00690367
0.93591519
0.15060265
-2.15089448
-0.35085825
-1.66280924
-1.60235444
0.20644960
0.52940773
0.20913485
0.07875198
-0.34505531
-1.64692863
-1.28029812
-1.18464370
0.31119859
0.32500105
-0.40363705
-0.25717853
-0.57994211
-0.08517839
-0.99952749
0.13992279
0.04367673
-0.01118050
0.46497883
0.35667974
-0.06040212
-0.26749154
-0.13271119
-0.00056019
-1.62191844
-1.10743369
-0.75038353
0.09774041
0.46244413
0.02232925
0.01109828
-0.50603590
0.25730084
-0.03945359
1.34166524
-1.17678329
0.10936144
-1.29116872
-0.87993728
-2.00227348
-1.43004180
0.79930551
-0.59734690
0.11076366
-0.76798026
-0.46060102
-1.15023989
0.41792324
-1.84178823
-0.39551858
-0.99820298
0.42149560
-0.03155271
0.82432472
-0.69805624
-0.60513340
0.12357185
-1.25485477
-0.54355408
-0.33262776
-1.41084718
0.02986305
0.04028696
-0.95366597
-0.93022383
-0.78745493
-0.28501409
-1.25530674
-1.96806268
-0.70786282
-0.28992933
-1.06035281
1.10220586
-0.11148852
1.12889798
-2.41631823
-1.00433041
-1.40918427
-1.29394224
0.81509394
0.12433489
0.11363322
-0.55513347
-0.04132441
-1.05398124
-1.49944824
-0.90907600
0.05184562
-0.06284477
-1.09457962
0.61516351
1.02557637
0.03205875
-0.11850441
0.14733661
1.41662013
-1.52254822
-0.51789667
-1.03808853
-0.69477842
-0.31475016
-0.16700188
0.00126349
-1.67550278
-0.12758252
-1.72043566
0.02199765
-2.13651745
0.72935409
-0.32328295
0.06975757
-0.45949221
-0.04274290
-0.65520991
-0.47054746
-1.16092663
-0.71361635
-1.08840553
-0.81455473
1.54532742
-0.02845460
0.20797717
-0.83435309
-0.33904217
-0.55387879
0.36513122
-0.07347719
-0.07521133
-1.62436386
-0.14703112
-0.06772820
-0.56741633
-0.17623308
-0.50169695
-0.01066548
0.19177618
-0.11089265
-1.20776404
-1.00962484
-0.16071312
-0.43223560
-0.53099213
-2.01793075
0.29588102
0.63478743
-1.94997853
-1.13607272
-1.89799571
-1.37960628
-0.57307083
-0.39432178
-0.20580743
-1.36768532
0.67909563
-0.75198510
-1.10799895
0.10014969
0.00561569
0.47522171
-1.48999876
-0.66027281
-1.49700584
-1.48303020
0.17470894
-0.85032619
-0.40632336
-2.33730097
-1.81827248
1.53975448
-0.49982986
0.02670971
-1.92722034
-0.15638662
-0.93336886
0.00391288
-0.04956737
-0.05066694
0.07164527
-0.29334286
-0.38306046
-0.63954960
-0.15591865
-1.11836580
-0.42849381
-0.92268392
-0.22888579
-0.04512170
-2.24573581
0.23479771
-2.59683319
-0.25739775
-1.06057164
-1.09037066
-1.23422275
-1.14911648
-1.23888109
-0.84523211
-1.33868091
-1.26790071
0.83585728
0.81155369
-0.86751677
-1.11703133
0.18270766
-1.26507398
0.02149212
1.29375562
-0.12158777
-1.56199586
-0.10312121
-1.47550058
0.03328791
-1.33443468
0.28018584
-1.68892246
-1.88954885
0.05728385
-0.50994176
-1.64348902
-0.72539279
0.56751147
-1.31494334
-1.35930766
-0.49343309
0.20583297
-0.00625935
-1.08226675
-0.95518101
-0.39589496
-1.60647763
0.03427463
-1.48814650
-0.18050378
-1.28106897
-1.29359533
0.08296743
-1.65608192
-0.55867092
0.03679009
-0.25711914
-0.22405521
0.86601163
-0.17345926
-1.10465723
-0.60192649
-1.33222544
-0.08253360
0.01305713
0.08105909
0.44080471
-1.36932150
0.10623656
0.00741764
-0.98953109
-2.16233207
-0.91705946
0.01772705
-0.01760526
-1.79898840
0.30796963
-0.35146049
-0.98516515
-1.86805831
-0.32477630
-0.20222142
0.12953343
-2.14326365
0.40167459
0.19879378
-0.74023090
-1.00485542
-0.55014914
-1.19519238
0.33973140
0.22647714
-0.91304389
-0.25521700
-0.61570998
-1.37940883
-0.42205258
-0.15941383
-0.58187698
-2.03914154
-1.29130783
-0.11966066
0.01993864
0.99753081
-1.71388740
-0.08871328
-1.42121002
-0.00654135
-0.50504549
-1.18881828
0.13944812
-2.02086125
-0.05228495
-1.61650015
-1.30394029
-0.55923311
-0.24610671
-0.16856303
0.71091209
-1.39109375
-0.16700050
0.04428667
-1.21932645
0.03477038
-0.69307807
-0.91046835
0.01085336
-0.22759473
0.09377094
-0.95599216
-1.00275989
-0.34818442
0.33803385
-1.97528577
-0.15671453
-0.25786913
-0.39868507
-1.82286621
-2.51033787
-1.94733270
0.91645269
-0.63978246
-0.60848408
-0.99164400
-1.30600289
-0.84908651
0.15640700
-1.09467633
0.40085075
-0.16385759
-0.61898255
-0.08865633
0.32822651
-0.29502052
-0.69075820
-2.07945391
-0.02196927
0.02372523
-1.09424990
-0.34521693
-2.42386524
-0.00096446
-0.03845404
-0.44607338
-0.82998789
-0.85357298
0.23348119
-2.23440640
-0.05325452
0.08421391
0.42144508
-1.68364627
-0.24353494
-0.38901407
-0.00872775
-0.68811705
1.66060223
-0.25075486
-0.61516372
-0.81593430
0.07130149
-0.46136619
-1.77521391
-0.55681886
-0.05436395
-0.31226248
0.03716768
-1.48848771
0.34356410
-0.00034714
-0.61131617
-0.41088439
0.08073532
0.07508180
-0.64438871
-1.72134711
-1.89693711
0.01338834
0.33224182
-0.19469883
-1.74480754
-0.49930050
-0.50794364
-0.63892455
1.04144597
-0.95378100
-0.25007946
0.62605191
0.28394877
0.06066488
-1.08453212
0.10518054
-0.00942571
-0.45065282
-0.26462775
-0.34280630
-0.37611975
-1.83679392
-0.42753472
0.02687100
0.05748093
-0.23470677
-0.71058525
1.41551027
-0.92715406
-0.71893474
-0.69375691
-1.67063477
0.03242719
-1.83722297
0.70450227
-0.73805621
-0.03371292
-1.73314031
-0.81548368
-0.91301248
-1.19825971
0.35162833
0.25304299
-0.37640861
-0.15071020
-0.00596436
-1.54548120
-0.12046618
0.03436351
-0.53074628
0.02568994
-0.00537355
-0.15862673
0.00417428
-0.28286382
-0.67365651
-1.09275034
0.53115258
-0.04162688
-1.53821075
-1.49054457
-0.38087202
-0.63992627
-0.28413947
1.28849543
-0.14168037
-0.06693204
0.01523748
-0.12918584
0.14232639
0.20474335
-1.28783250
-0.35875956
-1.03949545
0.17881828
-1.27265463
-0.99559900
-0.09762696
-0.20399134
-1.29822657
0.80080175
-0.21397851
0.17338066
-0.22847609
-1.34594581
-0.02561597
-2.43844720
-0.50401258
-0.58795341
-0.27033660
-1.44787545
-0.20589250
-0.74907671
-0.36850723
0.03281719
0.27174122
-1.31619555
-0.14688894
-0.36443240
-0.43228831
-0.91344600
0.22274764
-0.15283234
-0.07661063
-0.34669634
-1.71676857
0.00761360
-0.30361588
-0.09527732
0.21305031
-1.62647967
-0.97498711
-0.22883627
-0.37744643
-0.85318180
-0.32875517
-1.85633587
0.03216301
-0.83498879
0.03845883
0.04756851
-0.69351912
-1.43310617
-0.80589759
-0.14069131
-0.11056402
-0.04919496
-0.02600944
-0.13215605
-0.09412925
-0.83119119
-0.10253069
0.02240543
-0.42342953
-0.41688063
-0.05214659
-1.22531707
-1.04746780
-1.27512375
-1.32497461
-1.22727805
0.21510542
0.01488720
0.67884954
-0.04773885
-0.19393717
-0.05715295
-1.83111293
0.69956519
-1.63638980
0.55514986
-0.40634709
-0.97539210
-0.68475427
-0.95784904
-1.01914959
-0.24481013
-1.10575486
-0.01270176
-0.51640872
-0.63222886
0.09820196
-1.26243468
0.03597308
-2.30262926
-1.28278422
-0.00314556
-0.15081965
-0.15980786
-0.78907967
-0.03952825
-0.17640087
-0.64082794
-1.61937755
-2.16209800
-0.01638973
-2.08404212
-1.62015639
0.29023313
-0.32927978
-1.76716786
-0.16451845
-0.06546577
-0.21683419
-2.55127363
-1.16863308
-0.30922473
-0.15367523
-1.66933553
-0.04095022
0.69408496
-1.05908461
-1.50351904
-0.93957008
0.43977167
-1.41011237
-0.74686889
-0.29414754
0.01421257
0.06210710
-0.10149159
-0.52498632
-0.70286347
-0.94669643
0.91503931
-0.98127446
-0.96519238
-0.58834601
-1.29457330
-0.35816358
-1.31395839
0.33587471
0.02933028
-0.52180708
0.82854303
0.05038115
-0.68564158
-1.33038494
-2.11572562
-1.60677930
-1.03463861
0.85253186
-1.53107326
0.57303945
-0.94338041
0.08015600
-1.10682097
-0.21921409
-0.87902042
-1.40663862
-0.77094887
-1.61541557
-0.08465887
-0.77905354
-0.45802475
0.03272660
0.85757407
-0.91209644
-0.52576253
-0.85865302
-0.39750775
-0.35986897
-1.29627892
0.15371277
-1.09900991
-0.63991322
-2.25666559
-0.94515641
-1.65720258
-1.64613854
-1.00602133
-1.01487965
-0.48510896
-0.02527211
-1.81116683
-1.51846056
-0.14253421
-0.19284531
-2.01374168
-0.87796905
-0.39244029
-0.74515915
-0.31387574
-0.26190863
1.27019040
-2.20174556
-0.25847049
-0.16684894
1.16649559
0.09376080
-0.49989287
-1.34339365
-0.78099965
-0.00912664
-1.23960991
-0.21825421
-0.74201032
-1.53575278
-0.67049071
-0.98284107
0.01732925
-1.24822999
0.13689360
-1.34472192
-1.12303431
-1.51966600
-1.41572686
0.09814844
-0.89208419
-2.14049061
0.33610460
-0.45766251
-0.19619552
-0.33664956
-0.77971603
0.54725846
-0.31803809
0.15104125
0.05331308
0.01119348
-0.60596862
-0.52539202
-0.99074273
-1.60562907
0.40315263
-0.40937287
-0.14657090
0.05998914
-0.81885659
-1.48659722
0.71490683
-1.78043444
0.34357750
-0.75991246
-0.04035862
-1.16543583
-1.30631882
-0.01139619
-0.52169166
-0.71548308
-1.18641083
0.25276808
0.07459020
-0.83191258
0.26546824
-1.53716198
0.09873671
-0.84890731
-1.93565039
-0.08949802
-0.85879156
-0.80744311
-0.15733711
-0.12743561
-0.09402519
0.08526281
-1.56901624
-1.39072380
-0.92675177
0.06117765
-0.84894821
0.64369185
-0.06965562
0.06787606
1.54037900
-1.53481873
-0.05419371
-1.06017569
-0.21861471
0.04001650
-0.49346601
-1.41215901
1.15356954
-0.78941285
-0.71713593
-1.15163178
-0.50826365
0.31934388
0.00250953
-0.03460208
0.07768549
-1.23227308
-1.12865219
-1.75901320
-0.40829766
-0.39401448
-1.62283609
-0.09805430
0.08211312
0.08239375
0.42823247
-0.47244082
0.41703807
0.25368972
-0.81730465
-2.12837928
0.12850501
0.12818607
1.65416611
-0.83641413
-1.28581151
-0.32761945
-0.15459619
-0.29648845
0.04313107
-2.05396018
0.00265953
-0.28956090
-1.04298343
0.20121193
-0.98392216
-0.72486723
-0.16303581
-1.03168265
-0.43668123
-0.34414799
0.14151467
-1.65491055
0.53783181
-0.61595467
-1.14067785
-0.40897845
0.70437713
-1.22541490
-0.80295812
-0.67841233
-0.16653284
-0.31205730
-1.11498048
-0.72020829
-0.42205881
-1.99215565
-0.75031953
-0.05750022
-1.40615325
-1.02910197
-0.58254147
0.72459136
-1.25897247
-0.16981224
-0.08753931
-0.86029637
-0.98184779
-1.10545997
-0.54018957
0.61386162
-0.92245303
-0.67946015
-0.68280874
-0.63078806
0.18115136
0.10511229
-1.23132267
0.46582212
0.47644328
-0.64833547
0.44282998
1.13412549
-1.15498719
-0.82610853
-0.22640456
-0.23573221
-0.10355480
-0.06361229
-1.37109026
-0.12209993
