0.56968279
0.92038677
-0.63958851
-0.13944634
0.72311131
-2.91820974
0.69783479
-1.07347331
0.14131529
0.39828535
0.03992643
-1.30565042
-1.91596306
0.95048745
-0.49409426
-0.06916200
2.08543256
1.83222231
2.92595062
1.40222063
1.09221965
-1.23087608
-0.04071341
2.15876504
1.27276246
0.54467597
1.92829271
-3.05062501
-0.42523054
-0.87592528
-0.51223174
0.02125551
-0.21002637
-1.64544763
-1.44340694
1.76403718
0.88551889
-1.01023198
-0.28032764
-1.45359267
2.93017801
1.51875313
-0.38812761
-1.52954037
-1.61222246
1.28408936
0.64770731
-1.91660497
0.22489161
1.50674399
0.46979377
-2.75923038
-0.75706981
1.41147950
-1.25090328
0.29377614
0.06983842
-0.93223732
1.08414474
-1.65478497
1.57349918
-0.22670865
1.25394099
8.08070427
-0.28463117
-0.59226106
-0.53049389
-0.85566210
-2.04281580
-1.23134727
6.42880884
2.46651752
-4.67895975
-1.24591754
-3.84454043
-0.58918243
-0.33923248
-3.13881638
-0.86335983
-0.38930442
-2.27725462
2.25172027
-0.13514369
0.36852824
1.36412779
1.15487142
0.17398916
0.99909374
-1.52852963
-2.30703402
-0.44234774
0.22471590
-0.55956603
-2.67055512
2.37684378
-2.44848839
-0.96935414
-0.30792127
1.46165142
0.55922329
-0.73297443
1.58844589
-0.23901470
1.67772152
-1.06538493
-0.33070439
0.95833186
0.95123164
-0.91279731
1.10971491
1.17215462
-0.74609756
-0.01825538
0.88904452
-3.24183581
-1.17470253
-0.22782852
-0.15494616
-0.02353502
-0.68953062
0.59162664
1.38299914
-0.81446360
0.20114690
0.04183906
4.03513192
-5.88003125
0.45577039
2.31251999
0.00411134
0.37181644
-2.28513437
-0.05707775
0.83674923
2.85276678
-1.63920662
1.71275317
-0.58979068
-0.28967016
-0.70577130
-0.42182319
0.35221351
-1.93185420
0.24848198
-0.51943253
1.66388769
-0.55087512
-0.97005427
2.53230322
0.67441376
1.23487276
-0.45298069
-0.18261837
-0.00017595
-3.17049462
-1.34770905
-1.72224934
-0.64007876
-3.33389317
-1.89841721
-1.21317511
-1.04657608
0.84168377
0.91684899
0.28839943
0.08134831
-2.32455997
0.00013782
0.81019156
0.17228215
1.89724688
-0.03092896
2.02672308
-0.68622044
1.01757664
0.08500599
-0.23787575
-0.98231257
-0.91621842
-3.87282822
0.38514947
0.09120237
1.75654613
-2.23571295
-1.14759026
-0.00247210
-1.76807574
-2.38343871
1.52438056
2.79475947
0.68438685
0.49502730
