1.01518688
-0.30981504
0.12710494
-0.46758701
-0.10178067
-1.00030848
-0.27669466
-0.14554771
-0.08312620
0.33886663
-0.31978909
0.11256139
0.04185212
1.77716491
-0.44906349
-0.34815718
0.02600052
0.63163918
0.66675680
0.16686232
-0.39665880
0.44836880
0.25703064
0.87922901
-0.26751282
0.48508996
0.98965158
-0.01951963
0.04578597
-0.36746148
0.18403975
-0.92790442
0.21584047
-0.68340216
-0.62160018
-0.07739402
0.00382865
0.09624265
-0.59166295
-0.20930997
0.56003539
0.25495247
0.75721690
-0.67274652
0.13230077
0.05079241
-0.01671831
-0.45182924
0.09125139
1.13585152
-0.17667105
-1.23103948
-0.04567154
0.08445029
-0.25271345
0.11007441
0.49621218
-0.12562649
0.57630931
-0.71111801
0.03996369
-0.58273940
0.06885259
2.39300550
-0.72420008
-0.49938170
0.06330861
-0.68012818
-0.56817077
0.46550701
2.33819960
0.45658022
-1.10731204
0.13313781
0.09007253
-0.05532539
-0.36713288
-0.92459166
0.24759171
0.05970709
-1.05182039
0.20626060
0.05874959
0.02792502
0.18187832
-0.31643431
-0.22750150
-0.76894522
-0.27573473
-0.04485488
-0.08075629
0.11136186
-0.50000206
0.06251096
1.35508746
-0.64830084
0.19615821
-0.45372742
0.73205717
-0.05978852
-0.48339385
0.66016036
-0.51598269
0.13401184
-0.45673943
0.53245858
-0.81224598
-0.58462948
-0.18678866
0.22976240
0.81738397
0.00675646
-0.02972915
0.27867222
-0.26110374
-0.24433726
0.37220107
-0.56595911
0.19466988
-0.31047702
0.37045812
-0.39976651
-0.48018483
0.08708717
0.56653384
1.11257634
-1.91903805
-0.01418816
0.26078765
0.53573657
0.05781966
-2.02162032
-0.66595169
0.69598177
0.81659430
-0.10409922
-0.20861293
-0.11544044
-0.25693434
-0.20502135
0.21751003
0.33632335
0.07096681
0.57118894
-0.06360670
-0.44275342
-0.81611885
-0.07851584
0.28890738
0.22676768
-0.58304751
-0.62409764
0.28734095
-0.32351001
-0.38053543
0.03593125
-1.21114748
-0.10298707
-1.09958424
-0.46849719
-1.55804128
-1.03936971
0.12697541
0.16001913
0.44446131
-0.55258086
-0.00577553
0.61098107
0.20588420
-0.44931881
0.18344613
-0.03915043
0.49672117
-0.24708538
0.52014202
-0.45419275
-0.16904945
-0.15220700
-0.49212818
-2.62912414
0.57432022
-0.21056972
-0.15397351
-0.44538418
0.17397301
0.31754789
0.53683642
-0.81691176
0.15383980
0.39836363
0.75555353
-0.04596811
