-0.51805905
1.79502713
-0.03679098
-1.69022178
0.33309840
1.82714793
2.33285947
0.74336923
-0.53518232
1.05434722
-0.53033180
2.02708258
-0.25514332
-0.07554630
-0.43061220
0.41428360
1.26506035
-0.41515250
-0.07649364
-0.29458371
0.20904885
-0.48326546
-0.42673224
-0.24152061
-0.16824742
-0.15865680
-1.53505252
2.47948649
1.28217737
0.10709676
-0.71520848
-0.35744647
-0.55793366
1.80658443
1.05856072
-0.37035029
0.42318644
0.32893327
-0.50740669
1.42781299
1.35638959
0.90657409
1.18323453
0.05800671
-0.13304848
1.58720017
-1.04555624
-0.53940686
4.07328542
0.91893807
-0.12092491
0.53026655
1.39961853
0.91101900
-2.10302182
-1.01653756
0.14789886
-0.02537737
0.36590882
-0.15237002
0.10312963
0.58239070
0.43655292
-1.33419874
-0.02667721
1.70191242
-0.04779689
0.54677479
0.69870314
0.00558342
-0.40870955
0.36314802
0.48159392
-0.33749151
1.94361222
0.82830619
-0.85975426
0.50824483
-1.08536418
-1.47208068
-0.35877482
-0.68435546
0.11491401
1.20653648
-1.45299222
0.09207132
1.00424265
-0.26740964
0.69182921
1.27854664
-4.06905883
1.31529461
0.03547223
-0.39068342
-1.11149670
-0.95187903
-1.23190570
-0.44678046
-0.71978154
-1.18503985
-0.09421101
-0.33552921
-0.05984508
1.03541961
0.14638100
-0.20914176
0.03664281
0.09874104
1.02276241
0.75770270
0.54316645
-1.93722229
1.93312944
0.75649268
0.42597837
0.55650530
0.11582943
0.53643590
0.38010978
0.63121736
-0.01949355
-0.67551507
0.00675190
2.18800396
-1.01954062
-0.42914963
-0.22236595
1.41180915
-0.38012500
-1.39353837
-0.62171959
0.44375134
0.46363444
-3.66486424
0.72360599
0.88371729
-1.23238773
0.74418165
-0.74933466
-0.79121827
-0.29641433
-0.98612792
3.02607971
1.31049433
0.13830008
1.41303005
-0.51418776
0.40094176
1.66919487
1.91099052
0.92430784
-0.18628475
-0.56200332
-0.03685719
0.64920787
-1.43656600
-0.84134674
0.85812899
-0.12218581
-0.81344875
-1.51198722
0.45137295
-0.59510246
0.42658726
0.13200435
-0.62020289
0.29834048
1.80027414
1.42787592
2.21168314
0.62047117
0.55112550
-0.44776406
-0.47254727
0.46421280
0.16606677
-0.80563093
1.19208989
0.03408909
0.09396220
-0.37633898
0.23898481
0.57503369
1.22958684
-2.37968738
-1.45062315
-0.47785921
2.46049038
-0.54134050
-0.37615323
-0.36013139
-1.05035093
0.10980869
-1.00376694
-0.83898042
0.96822381
1.30099824
-0.36416310
-0.63741792
1.59148980
0.45865130
1.10971319
0.04009716
0.49206546
-0.39183370
0.23104375
3.03024914
0.10728649
1.53973131
1.39091373
-0.52787480
0.88620832
3.06400437
0.71439725
-0.12118465
-1.57685380
-0.06977157
-1.89492896
0.67953145
0.51857208
0.63375517
-0.54433052
0.48582566
-0.73957106
1.54987322
-2.46381264
-0.10047136
-0.71752758
-0.18511533
-0.50544098
-0.15748954
1.46328228
1.09472955
2.94866952
-2.07838724
0.48612301
-0.25004390
-0.52013689
0.28240411
2.28132094
-1.76361737
-0.01654362
0.66007251
-1.23025021
0.45801896
2.69367923
-0.61319715
-0.50968936
0.85986902
-1.76022094
0.45588334
0.80601885
0.60809169
-1.23392324
-0.57267903
1.08950591
1.55666797
0.53884320
0.95660722
-0.80117332
1.81653189
-0.82445341
-0.13064066
-0.87337389
-0.32353924
1.09103758
0.79721824
-0.68744437
1.13932375
-0.01086544
-1.83229299
-0.80211340
0.49698473
-0.44576719
1.05417080
2.74217668
0.52317747
-0.24201904
2.02408805
0.31827016
-0.64268394
-1.04770877
0.78984041
0.24170374
1.01943883
0.51528100
-0.49807853
-0.67212538
-3.84827024
1.00395170
-0.45374624
-0.77754407
0.15626449
-1.02102563
-0.01743052
0.18713305
0.95259751
-0.10247367
2.33198306
-0.34304083
-0.37945970
0.00686601
-0.95882039
-1.27294837
-0.14540613
-0.40295366
-0.29653652
0.82171090
-0.53372788
-0.64153509
0.61502439
-1.80517281
-1.47742621
1.06333933
-0.49234017
1.34739442
-0.48135149
-0.50069413
-1.52765482
-1.47623162
0.02080071
0.57884141
-0.44600700
-0.48981395
0.69772566
-0.66908791
0.20180538
-0.23479907
-0.29919805
-0.19057411
1.68731581
2.23684902
-0.59064146
-0.22836412
-1.41888286
-1.71040527
-0.92075010
-0.93453903
0.77864726
1.96975376
0.72001142
0.42873483
0.23415011
-0.31888537
0.60371560
1.82767127
-0.11148936
-0.97784032
-0.52170286
-1.05142653
-0.99534974
-1.54554566
-0.29801944
-2.39636808
-0.42658096
-1.15394674
-0.43366284
0.70619865
-0.02780532
0.36809056
0.31391349
-0.70307044
2.54047533
0.43558783
-1.42221210
-1.02781128
-0.50807724
0.85410614
-0.73070366
-0.49835339
2.95629824
0.76157609
0.49680144
-0.41025570
0.94360489
-0.38137521
0.80639711
-0.40323202
2.11188019
-1.08204942
2.58562408
-0.77004309
0.95491637
1.21300240
-0.19162474
-3.88764682
-0.23804964
0.77673020
0.79172218
0.20546185
-0.44056969
-0.33244901
-0.63791009
0.11383869
-0.64570921
1.91385147
-2.14932275
-2.91310816
-0.12694173
2.50135108
1.09778438
-0.84393479
-0.35673155
-3.52102864
0.59010415
0.72721770
-1.73479840
-0.09568713
-0.20153159
1.88759562
1.48478084
-0.28828303
1.78911934
-0.56873821
-2.24331880
0.20823269
1.12997400
-0.41328778
-2.65387191
0.09790485
1.32406043
0.28096504
0.07913637
2.43652315
-0.22911194
0.57530318
2.27502359
0.16581081
1.35931322
0.61045605
-0.29569891
-0.27842338
1.15708121
-0.98275019
1.34312115
1.93995002
0.60806838
1.30515437
-0.34405845
-0.11764780
-0.92898453
-1.06539120
1.46431897
1.26026386
-0.75330634
-0.27888551
-0.49743838
4.62166844
-0.04079682
-0.57180519
-1.26252436
-0.50735193
-1.32209676
-0.02182008
0.28108042
0.53408964
0.26429408
-2.02314024
1.53291276
2.07902844
-0.09683762
-0.76103521
0.25235927
2.39488600
-0.16972524
-0.35889610
0.80366821
0.84494478
-0.31212440
0.81512514
-0.07668941
-1.43996875
-1.86390642
1.47823419
-1.03393240
0.91353929
-0.63797604
0.05825106
1.04262541
0.05675832
-0.23621584
-0.28182632
0.98863424
2.90550068
-0.54284644
-2.06252826
3.28714808
0.08515901
-1.21974592
0.08900503
0.18821457
-0.27019742
2.43689615
0.64077183
0.34302927
-0.38422110
3.46888020
0.01538348
0.36183387
0.15738803
3.63441874
0.09912397
-0.46666132
-0.84910163
-0.70705704
-0.03606723
-0.29444278
-2.67848922
-0.48088606
-0.77627906
0.87046868
0.11225514
0.82238776
-3.65935430
-0.23832936
1.54546037
0.82648845
2.44867765
-0.56277100
0.48060375
0.08057441
0.27027514
-0.62806611
0.00757875
-0.82873706
-1.21755485
0.33765835
-0.49963449
-0.76024470
0.99855587
2.67220547
-0.01380238
-0.44560456
-0.31173616
-1.94235762
1.13491195
0.12477984
0.28388945
0.52067888
-3.76871919
-0.48569512
1.36879945
3.79129631
0.99366201
0.55419424
0.12828452
0.72760247
-0.30051036
2.08239550
0.00185992
-0.28138895
2.45117940
-0.75885364
0.63202591
-1.86865233
0.16851700
-0.44910344
0.62266467
-0.27283934
-0.58054806
2.05917300
0.41187636
1.02410495
-0.33640546
-0.36403294
0.18482871
0.23750127
-0.12048810
1.10112544
0.75995970
1.65002226
-1.27830616
0.88967066
-0.57274828
-0.02258752
-0.46629568
