0.23264104
-1.44199929
0.85345409
-1.32620963
3.99664149
0.39813835
0.70060517
-0.13931595
2.08138831
-1.81736395
0.29460378
-0.37985918
-0.38291863
-0.34180334
0.22013931
-0.10727205
-0.99614189
-0.77731683
0.42592921
-0.79899614
-0.89692109
1.85915330
1.47200234
0.23178500
-0.04745927
0.08377746
0.09374353
-0.34763309
-0.49333745
-0.02568361
-0.19391855
-0.43321647
0.99468079
0.55501869
1.06642434
0.52819736
0.50088408
-0.02579766
0.25994063
1.59603078
1.14846715
1.88045504
-0.30063488
-1.90011091
-1.05844871
-0.38930888
0.05174783
1.79012150
0.09475159
-1.25343890
0.28572904
-1.61574544
-0.37295028
0.17738387
0.54482771
-0.42339923
0.31324088
-0.81207400
-0.06363148
0.88885996
2.47260355
-0.28395306
1.49916188
1.57368624
-0.03207174
0.80994984
-0.43437030
-1.85971931
1.77561497
-0.09041387
-0.78594585
-1.07407874
-0.05518378
0.12545004
2.91339668
0.38127326
-0.30365307
-1.01864346
0.13096624
0.05475097
1.05989366
-0.20268880
0.36276121
-0.58353669
0.03112348
-1.74205944
-0.17098975
-0.11688015
-1.25019398
1.71380388
3.11353767
0.88164060
0.19546295
-1.17843938
1.49349414
0.71931459
0.73027580
0.19413372
0.39155225
-0.52691392
2.20709909
0.87234290
-1.00972001
0.90885631
0.73667796
0.59809356
-1.56886555
-0.69851231
0.11554003
-1.27273492
-0.78663124
-0.44869741
