0.16800837
-0.86337657
1.57084203
0.11725348
-0.76921967
-0.57398470
-1.66748220
-2.23919969
-1.15196706
0.86543642
0.47632032
-2.23187517
-2.13289457
3.06485170
1.95582032
-0.58209323
0.37940571
1.69713912
3.48328856
-0.58375239
0.47115022
-1.92656134
0.27697130
1.77779110
-2.42953242
2.27072809
2.24074050
-4.78168334
0.40630653
-1.98492118
-1.41438540
-0.28266951
2.23987183
0.25251984
0.14273733
1.48619199
1.42557159
-1.70752724
0.35157022
-1.85106760
5.32338164
1.19928829
-0.09575569
0.02489252
-1.18876491
1.03616357
0.79212138
0.00213015
-0.23840021
2.09865970
-0.63180577
-1.79960255
0.37397165
1.38040605
-0.89814898
-0.33625651
0.34658063
0.38427270
1.52794753
-0.53911598
2.81060973
-0.20739848
1.09476329
7.43361338
-1.18428217
0.39608878
1.48788874
-1.37362147
-1.56032030
-1.99612112
2.61912419
4.57374854
-2.35940611
-1.35586666
-5.55131189
-1.55181382
-3.47116436
-3.89037745
-1.02332676
2.12207515
-0.58794281
0.70934196
-0.68125881
1.95316776
3.09111002
2.66733817
-0.32722425
1.95192963
-2.12284135
-2.92724054
1.05003213
-0.77645656
1.15608327
-2.86401237
0.58114161
-0.02532892
1.26258472
-0.82927694
0.49741549
-0.57750999
0.24874550
-1.27375660
-0.22101300
0.40018466
-0.56026963
-1.78584628
0.43644480
3.20910162
-2.47188586
1.64355883
-0.45637340
-0.80023242
1.19593682
3.65756095
-2.99184138
-0.53588680
-0.83338565
-0.61280953
-0.17648829
0.89956465
1.79369524
-0.00040468
-0.37538658
0.63966315
-0.55273842
5.71288705
-3.24601387
-2.48036583
2.76778423
-1.42688669
2.28138260
-0.60214433
0.35993176
1.81133439
2.37532630
-0.58985761
1.08512243
2.35440110
0.50443793
0.79576350
-2.62383603
0.54058717
-0.11215587
0.66034541
1.18335497
1.08143174
2.42512358
-1.32720146
2.66369485
0.05507285
1.09458226
2.24201326
-0.50650322
0.17772461
-3.62668450
-2.94527857
-3.14525868
-2.69248605
-0.52555885
0.21356577
-1.38464741
-2.63180846
-0.80454519
-0.91919864
-0.77988389
0.17399005
-1.03099994
-0.40294394
0.12644474
0.57487527
2.63984520
0.24338768
3.02368203
-0.92715153
2.15619611
0.81823436
2.08196890
0.74200087
-1.32908619
-0.94348833
3.50610280
0.59000346
1.54823920
-1.90471429
-1.07763290
0.43827092
-1.78670629
-1.27489998
0.67565145
1.82661994
-1.65292073
0.93647782
