-0.19857712
-0.82620454
1.01060482
-0.03027827
1.99345285
-0.68666095
0.76289792
0.16202300
0.23211186
0.05555678
1.01659116
0.00635644
-0.00849273
1.49732932
0.09303511
0.02341695
-1.11994992
0.48652143
-0.26014050
-1.83021536
-0.73019737
0.21809595
-0.94517854
0.13315638
0.42580249
-0.93050182
0.29986750
0.26446524
0.32864230
0.18748080
0.61744755
0.13777651
0.52110614
0.43294307
-2.42592173
-0.20465053
-0.09253172
0.61468158
-0.65264400
-0.78325627
0.11066612
-0.12514182
-1.32578610
-0.58905344
0.93009247
-1.28055353
0.82807360
-0.36927818
0.17272316
-0.90513455
0.05680833
-1.62828481
-0.45061511
1.07298659
-0.05577533
-0.00208391
-0.44480145
-0.18083284
-0.35242901
-0.30843116
-0.42220315
2.10591706
0.11756381
2.08817002
-0.60552054
-0.00089730
0.01801788
0.86164592
0.54404035
-1.77683423
0.28919788
-2.90446514
1.56332542
-0.75563028
0.90746497
-1.04658013
-1.28107211
0.07952616
-0.63938397
0.07753486
-0.88892700
-1.36379146
-0.95379894
-0.71189423
-0.37628897
-1.31428754
-0.19322682
-0.73693700
-0.01926948
1.04515465
3.25041687
1.31100916
-0.08305529
-1.80703993
-0.58556981
-0.99514586
1.05586051
0.58573808
-1.34136477
-0.23600129
0.99837218
-0.07360930
-0.67649581
1.33310206
-0.98353477
-0.63773005
0.38750064
-0.16431875
-0.66409588
-0.79293211
0.65307777
-0.28650882
