0.06778822
-0.52898696
-0.02167594
-0.55602134
-0.14461806
0.27048728
0.45502884
-0.74759077
-1.47512885
-0.00631624
0.00702970
-0.21421851
-1.30219412
0.09467801
-1.81640650
0.70780959
0.25616828
-1.15762801
-0.16288514
0.65299262
0.55454688
1.12555735
1.20734791
0.07769694
-0.47082631
-0.00072191
0.03534876
-0.01815585
-0.05365330
-0.52265538
0.25661389
0.01578640
-0.98985057
-1.52853963
-0.14649378
1.11474424
0.37859377
0.69065550
0.10711747
0.75111401
-0.55384676
0.02459310
0.06606924
-0.77931322
0.32541019
0.01920315
-0.04309836
-0.18491456
-0.68217303
-0.50144077
-1.18696852
-1.66441873
0.10743618
-0.93330583
0.00540074
-2.07391993
-1.34480042
-0.03758905
-0.80780260
-0.62120400
-1.33365378
-1.65996724
1.31626006
0.67508793
0.01696711
0.06102579
-0.19296597
-1.29144977
-0.18973994
-0.16147206
-1.38549440
-0.58987359
-0.03428214
0.05769052
-0.18868155
-0.02114422
-1.54493322
-0.19146214
-0.05818986
-0.34070790
0.00819816
-0.16533341
0.07725765
-0.41419174
-0.46802774
-0.05908465
0.14379844
-0.05674688
-0.94033023
-0.03030644
-0.03982784
-0.02711210
-0.52127699
-1.62785085
-0.06399361
0.02277655
-0.12149124
0.69022983
-1.19315473
0.61092002
-0.84219951
0.57658979
0.67662832
-0.58011288
-1.05203643
1.07640474
1.13170994
0.21785074
1.81189663
-0.07598564
-1.78346169
-0.16461281
-0.05056068
-0.84415634
-0.34862331
-0.04194927
0.01052222
0.89572683
0.20576224
-0.22970450
-0.22629474
0.58469463
-1.76204082
-0.52383300
-0.05493061
-1.78021879
0.06046831
-0.55937603
-1.51358942
0.14558154
0.42880108
-0.08100630
0.85606455
-0.27937502
0.14389082
-0.10240804
0.44879485
-0.17012106
0.52133247
-0.74817558
-1.28741334
-0.49951510
-1.48654924
-0.86021181
1.12214712
-0.59462947
0.60943741
-2.51398552
-1.37509261
-0.95645942
-0.08038618
-0.79881733
-0.15441620
0.25309703
-0.31058142
0.02152521
2.61617822
-1.69648558
-0.47979663
0.23129432
-1.43934526
-2.10175100
-0.12339941
-1.10225616
-0.37121484
0.22414655
-1.36290139
-0.87694618
-0.13548439
-0.07629623
0.04057832
-0.76821052
0.32787976
-0.16772381
-0.87107501
-0.19758923
0.29169703
-0.66216373
-0.34601532
0.65784991
0.12192827
0.54134324
0.07235171
1.19708159
-0.51078471
-0.65979898
0.25257720
0.09773817
-1.60235507
-1.35469006
0.23327699
-0.13456475
-2.13573153
-1.51775287
-0.96396802
1.07200654
0.13657353
-0.45287043
-0.59510599
-0.33474416
-0.06946429
-0.05007398
-0.95613531
0.69531018
0.01470437
-0.06985621
-0.07156709
0.47057162
0.20041678
-0.34081181
-1.15981734
-0.56969571
-1.63345509
-0.96079434
-0.17857948
1.12125319
0.23031461
-0.11413962
-0.79102247
-0.15038893
-0.86105443
-1.85534398
0.19996686
-0.72043914
0.05909669
0.24993323
-0.05471588
-1.04366174
-0.91173300
0.08374410
-1.17834613
0.30523455
-0.23820000
0.13690664
0.71833160
-0.55009514
-0.44530298
-1.38126754
-0.12383171
-0.10979607
-0.24318223
-0.50650292
0.30324069
-0.30222516
-0.23871892
0.27704749
-0.18016527
-2.20302616
-0.46652510
-0.11272700
-0.32139424
-0.64179250
-0.08081830
-0.66786455
-0.11000597
0.02104109
-0.77293169
0.56253174
-0.65723866
-0.17581858
0.37107583
-0.16020215
0.42908194
1.02302176
-0.27243295
-0.85126780
-0.82148994
-0.26687338
-0.45949896
-0.24408843
-0.35510550
-0.03422571
0.03442714
0.94049933
-1.58790634
0.09081916
0.81045686
0.68703191
-1.54191880
-1.12272510
-0.32456428
-0.92349387
-1.08129274
-0.05089935
-0.74977920
-1.65353295
0.25354429
-0.10833972
-0.15606399
-0.56273161
-0.12040098
-0.07506837
0.00665465
-0.02296184
-0.03674779
-1.06349384
1.12954885
-1.03643053
-0.43939559
-0.63581079
0.11897408
-0.15769132
0.00643845
0.59878257
0.05551264
0.01328216
-0.47992003
-0.11317158
-0.21383333
0.03000170
-0.05445218
-0.82738406
-0.40149224
0.25239639
-0.20460057
0.10396940
-0.10266017
-2.12028243
-0.89937817
-0.05226828
-0.03353707
-0.37665319
0.76559472
-0.50646674
-0.64940059
-0.25317513
1.31766315
-0.45305292
-1.57384872
1.02762509
0.98242445
-2.96169093
0.00155537
-0.83494787
-2.51223975
-0.11708486
-1.47868397
-1.55013572
-0.18205374
-1.14074833
-0.03214328
0.86100999
0.10880714
-0.16608525
0.43770915
-0.15497939
0.09439624
-0.99648540
0.28133284
1.07645733
-0.66465699
-0.21828474
-0.04181470
-0.52868206
0.04158780
-1.76447106
-0.18589205
-0.12689461
-0.91172877
-1.27397824
-0.44871458
-1.18366199
-0.12824232
-0.13236321
-0.15210209
0.12542742
-0.36406304
0.76345586
0.18665490
-0.37973191
-1.81071453
-0.47645389
-0.53330303
0.30376334
-0.00085796
-0.37238415
0.02773717
-1.24138967
-0.62659135
-0.23111787
-1.70472948
-0.07776160
-0.00466780
-0.41615586
0.06770826
-0.12624604
0.34399883
-0.12246735
1.25516736
-1.78354801
-0.05916412
-0.12209519
-0.48463149
-0.14454384
-0.77263226
-1.33377665
0.12813568
-0.77436507
-0.05185560
-0.03965873
-1.49131947
1.16284869
0.59576058
-0.25233640
-0.20001968
-0.04930051
-0.00575204
-0.08201834
-0.07949707
0.12284950
0.10297854
-0.78558516
1.77222608
-0.22038982
0.09663305
-0.90893512
-1.08566203
0.05617893
-0.86187707
-0.09046684
0.00265098
-0.40587596
-0.12474422
2.00608294
-1.22798271
-0.22721709
-0.57951781
0.72253649
-0.58572829
0.06883189
-0.95948126
-0.07107282
-0.70788826
-0.04386429
-1.89113936
0.09246979
0.24606792
-0.17560004
-0.05597723
-0.76827960
-0.32206123
-1.40156488
0.81854016
-0.70330499
-0.24342369
-0.13565903
0.02994457
0.05972906
0.12279467
-1.31020442
0.03403595
0.02435828
-0.97768506
-0.06259837
0.80236242
-0.28340010
-0.00546495
0.01437403
0.17621579
-0.97902469
-0.03589952
-0.85705776
0.06867579
-0.09758265
-0.64966085
-0.87943705
-0.44121566
-1.39421737
0.25943192
-0.50164389
-1.46277496
-0.89758389
0.36333597
-1.26900243
0.81228956
-1.45807521
-0.37369054
0.95553704
-0.06693151
-0.68445921
-0.02539388
0.10150253
-0.02227248
-0.86576090
-0.15237051
1.33935825
-0.02763404
-1.76042332
0.63241696
-0.93563289
-1.96948432
-1.31153537
0.84621112
0.88175557
0.23165657
-0.22681445
-1.62639710
0.71403884
-0.16046709
-0.37461759
-0.04858017
-0.65587414
-0.47353664
1.30065194
-0.91533041
-0.34003949
-0.07259604
-1.65044853
-0.10524592
-0.28523713
0.12845238
-0.39067888
0.50709467
0.01312289
-1.14467779
0.46609220
-1.13559042
-1.91713848
0.39212495
-0.41903591
-1.96327320
-0.08287400
-0.03688459
-0.69194067
0.18371730
0.33140115
0.15010505
-1.73082097
0.16274504
-0.14705904
0.14612236
-0.56058488
0.00855851
-0.84745761
-0.06397836
-0.29458558
-0.00179595
-1.46277242
-0.47499062
-0.00313996
-0.06728027
-0.01324915
0.06658037
-1.19687801
1.65086675
-0.24527456
-0.05494290
0.49102197
0.02610183
-0.50102758
-1.78092255
-0.47790991
0.03369629
0.59650609
0.12440755
0.41366460
-0.92276899
0.01556118
-1.76106825
0.50969563
-0.06190411
-0.02449925
-0.94414639
0.13999929
-1.19261390
-0.00330748
-1.46768478
0.51898619
-0.11569243
-0.58608345
-1.77551986
-2.03736289
-0.00126512
-1.42143598
-1.87371313
-0.14897724
0.18745631
-2.01284663
0.03109374
0.23207497
-0.08549434
-0.54354417
0.00267915
-0.02150876
-0.03084454
0.03820958
-0.36227912
-0.00912766
0.85960151
0.18874303
-0.25921636
0.54259012
-0.10356289
1.00329586
0.01602125
-1.20630518
0.01522302
0.89570462
-1.38358277
-0.21258660
-0.39977967
-0.28920984
-0.10721660
0.03679069
-1.43285063
0.06391639
-0.08050638
-0.27804767
-0.07730991
-2.06956459
-0.00263174
-0.27666056
-0.17407538
0.04139827
0.02915787
-1.90488423
0.22658834
-0.42489311
0.07508487
0.04340700
-0.16133739
-0.03736974
-0.34289009
-1.25576902
-0.55908000
0.00395606
-2.11947349
-0.41061472
-1.25114870
-0.65450688
-0.99965337
-0.93043326
-0.04920253
0.59447207
-0.10891370
0.08104255
-1.32783704
-0.81512093
1.15860987
-0.28203019
-1.23316461
0.15989447
-0.15471313
-0.44825481
-0.58180673
0.96986337
-1.36234446
-0.15855727
0.04526762
-0.86657203
-0.02315824
-1.85777677
-0.04797073
0.06995820
-0.12344353
0.04769981
-0.24920657
0.09412913
-1.33199319
-0.71075776
0.02355129
0.34099372
-1.17919057
-0.68810705
-0.81504897
0.66721703
0.52663255
0.72193000
-1.42803480
1.78068363
0.82211344
0.08801307
0.00786233
0.39708151
0.54836333
-0.90824836
0.04498727
-0.04554013
-1.65977218
-1.34293005
1.49551251
-2.48118984
-0.67094141
-0.09109893
0.45549119
-0.40987619
-0.00879292
-1.10518939
-0.67094750
0.00927380
0.68678849
-0.07954791
-0.09308626
-0.52394260
0.01062059
-0.25876449
-0.03929332
-0.05916543
1.12727265
0.90092101
0.24784217
0.29643096
-0.22495968
0.14471771
-0.01892025
-1.66629056
-0.29980242
-1.39697062
-0.09178910
1.04929306
-0.98512836
1.39783548
0.76036070
-0.07806125
0.19371678
0.46973902
-0.10260076
-0.40493583
-0.18000903
-0.27676379
0.13048857
-0.41930105
0.21293945
-0.42660328
-0.51875928
-0.39769814
-0.07059658
-0.34525101
0.87779885
-1.25569173
-0.56204117
-0.34752711
-1.57105813
0.16071021
-0.77207626
-1.00487802
-0.95997181
-0.63343370
-0.77004373
-0.24729466
0.07268821
-0.07185181
-0.31428827
-0.03537398
-1.27817401
-0.20424044
0.11980912
-0.17056708
1.19402797
-0.30209729
0.09762226
-0.46829580
-0.58261694
-0.26789228
0.44238336
-0.47171996
0.09688787
-1.47853771
-0.08218418
0.11179948
0.89040594
-0.87103763
0.08829106
-0.99762010
0.12530054
-0.64402449
0.09244631
-0.26189055
0.07070033
-0.89618874
-1.62903678
0.12758185
-0.61669763
-0.07051134
-1.30295222
-0.07360013
-0.23623044
-2.08856383
-0.78674070
0.83898315
0.56409949
-0.32788816
0.09552163
-0.30820579
0.76797396
-0.63498450
-0.62392520
-0.52410719
0.00190686
-0.00196817
-1.25383511
-0.07859840
0.07667431
-0.73800002
0.00549368
-0.36045347
-0.97458206
0.72355026
-1.90676114
-0.00336849
-0.02045844
0.18083019
-1.62244583
-0.48014637
0.07598459
0.97410875
-1.09419418
-0.56981896
-0.08762590
0.05354880
0.04765146
-0.11540882
-1.73363703
-2.02697147
-0.34701352
-0.92606675
-0.00228748
-1.25954387
-0.36359724
-0.33314001
0.40032236
-0.52070248
-0.24497109
0.51356072
0.03224851
-1.42419909
-0.01824007
-0.00846568
-0.21221590
1.41883479
0.09007452
-1.53369717
0.06052489
-0.47123265
-1.18232205
0.00792016
-0.03734662
-1.80905582
-0.08088697
-2.14018380
-1.06175313
0.12461742
0.04209721
-0.51674824
-1.60315794
-0.89801727
-0.45870586
-0.13817497
-0.43504200
-1.07535227
-0.09160179
-0.13523113
0.25712875
-0.91731185
-0.11712593
0.25781300
-0.01786640
-0.05538673
-1.32211915
-2.21247901
1.23734779
-0.34209399
-0.00448281
0.01819356
-2.02618523
1.34124851
-0.04249065
-1.81442108
0.25310770
-0.33715864
-0.01698918
0.07776451
-0.08389355
1.11648598
-0.11204738
0.25503478
-1.27901445
-0.51042197
-0.60339335
-0.04160159
-0.13272144
-0.05120394
-2.43327968
-0.58953203
-0.33150947
-0.68609771
0.48495482
-0.13172574
-1.45825928
-0.35169764
-0.14161764
0.11418268
1.05942136
-0.12377089
-0.11228337
-0.00094470
0.12742918
0.28706598
-1.80847155
-0.93814344
-1.97412620
-0.18453755
1.19242361
-0.05214582
-2.22745003
1.33493423
-1.83650751
-0.73648654
-0.05622831
0.24751340
0.10496373
-1.12484309
0.05063927
0.72429715
-0.37068730
0.36113381
-1.47410193
-0.77283505
0.01601042
0.42877403
-0.27288782
-0.16287189
0.96198487
-0.07287077
-0.25422937
0.17280505
0.11808604
-0.49816591
-0.21903822
-1.85623563
0.73067107
-0.03023550
-1.67311176
-0.20143917
-1.37290032
1.04663075
-0.66526437
-0.78741217
0.91269908
-1.22327278
0.47068641
-0.25005950
-0.35346824
0.13451385
0.12264344
0.01302971
0.05222076
-0.35751613
-0.36676641
-1.60345880
1.02541630
-0.02438438
-0.74964250
0.04691944
-0.03412239
-0.11794152
-0.05337429
1.48306505
-0.94064582
-0.01238770
-0.37377172
0.19949027
0.19868420
-0.39643370
-0.00495422
-0.75082160
-1.75333429
-2.26254238
-0.33370414
0.19366113
0.01216230
-0.20414349
-2.34658358
-1.12266662
-0.32487007
-1.04532368
-1.20264350
0.47695743
0.03867971
-0.04113099
-0.07978406
0.41945770
-0.18680746
-0.07672181
0.09437962
-0.20967816
-0.48737073
-0.75108267
0.52793547
0.25594855
-0.59882138
-0.03917299
-0.44807165
0.66778259
0.36106611
0.09940091
2.47438553
0.01530999
0.05710298
-0.66273527
-0.33430106
0.88257218
0.70845699
-0.16535460
1.57989563
-0.81346417
-1.27182931
0.83831871
-0.68786444
1.13615326
0.51947228
-1.59791820
1.50493616
-0.08882573
-0.05105406
1.69412041
0.27860383
-0.40230470
-0.01391886
-0.63023897
0.23050010
-0.01187707
-0.07214693
0.28555133
-0.49363996
1.09229042
-0.60101145
-1.12817928
1.30800317
0.32416201
0.08447971
0.71031782
0.67041695
-0.94241045
-0.56160121
-1.18737478
0.28822430
-0.14088223
-1.12904571
-1.18294023
-0.15725356
-0.85192967
1.26091219
-0.60770525
0.28232515
-1.40311249
0.03705645
0.02148040
-1.73248356
-0.29877535
-1.43733623
-1.01626023
-0.01264985
-0.34656265
-0.17539477
-0.45611818
-0.76059571
0.98971767
-1.25060041
-1.01367776
-0.46283703
-2.06101704
-0.72141810
-0.99089562
-0.06969692
0.03133680
-0.12941410
-0.83200665
-0.04637156
-0.05004065
-0.39224094
0.06631658
-0.06462266
-0.11527917
1.22388693
-0.56967880
1.53279437
-1.90558489
-0.02104746
-0.09883199
-0.04611722
0.14855707
0.55573487
-1.41284754
0.02883404
-0.09414692
-0.02971135
0.08011563
-0.41090342
-0.02841420
-0.07762825
-1.05265465
-0.39591185
-0.08492536
-0.29400768
0.04866909
0.10177508
-0.58940011
0.01978214
0.03428189
0.12428615
0.28757627
-1.24033214
0.04995109
-0.39878201
-1.36873083
-0.15265180
0.32439931
0.46240393
-1.16976631
1.38295985
-0.00267753
0.20967060
-0.31862771
0.06309010
-0.27359443
0.29514930
0.02638611
-0.31675873
-0.09942175
-0.72567924
0.11498688
0.01107535
-0.17363848
-0.11037930
0.28416442
0.01836868
-0.71821110
0.45532598
-0.16221104
0.54830683
-0.95144062
-0.83157829
-0.50659981
-0.00317235
-0.69800207
-0.11301491
-0.67101287
0.02089750
0.09453678
-1.50267548
-0.03292494
-1.13566857
-0.83346615
-0.88845345
1.17442869
0.39015481
-0.80547480
-0.03241059
-0.94180853
0.07425677
-0.11178822
