-0.47267309
-0.13604492
0.09037151
-1.99108541
-0.04194079
0.01938365
0.24908836
-0.64406252
-0.70598048
0.04632252
0.06314545
0.09941851
-1.88890636
-0.28904414
0.53875279
0.43260029
0.18162753
-0.41387931
0.15855616
-0.51439285
0.79678637
-1.24577224
0.33460912
-0.70288557
0.39280459
1.15361190
-0.67850190
0.94415349
-0.05857644
0.09609051
0.21590674
0.59242463
0.13440229
0.22802888
-1.60637033
-0.03657613
0.46372721
0.48739895
-0.10587625
0.18255968
0.23355751
0.31811285
0.35940567
-0.09824178
-0.12615810
-1.90179241
0.21201301
-0.05042192
1.05348229
0.17141870
-1.23924172
-0.16801189
0.00411810
-0.08487710
-1.42509842
-1.45253646
0.05744710
0.04750115
0.09704378
0.46846250
-0.67704821
0.14125849
0.53121543
0.10720311
0.78546232
0.42402565
-0.00329087
-0.16040866
0.16840811
-1.01161385
-0.97195911
0.37409282
-0.11563223
0.33661079
-0.56443000
0.85070717
0.07518342
-0.15875107
0.27855048
0.56818438
0.19884291
0.34993845
-0.40914527
0.74377358
-0.69475597
0.34714341
-0.94862670
-0.22870339
-1.29725957
0.00076778
0.21994279
0.68266243
0.02052028
-1.28418231
-0.81783444
0.51007599
-0.63206625
0.31254843
-0.28219149
0.16473842
0.23550653
-0.01572805
0.49897483
-1.72881091
0.58279735
-0.13497728
0.66149926
0.57707709
-1.21934628
-0.17896613
0.07388398
0.73763520
0.33007392
0.11965159
0.14153400
-0.81405109
-0.10490419
-0.47030899
0.25782999
-1.76899064
-0.42160395
-0.12016606
0.28366297
0.83203620
-0.10136689
0.08048008
-0.17668764
0.24615102
0.03937814
0.53668463
0.51838112
0.07891724
0.00092333
-0.34746081
0.24000205
-0.25635660
-1.59146321
-0.24790865
0.97915787
0.56097025
0.34134269
0.26335415
-0.92109179
0.12218267
0.00772995
0.04596882
0.15526932
0.22396441
-0.50472707
-1.15307117
0.04100337
0.49775773
-0.30083057
-0.19284455
-0.01005749
-0.13319467
0.41586557
-0.03180688
-0.89126480
-0.46847612
0.36377043
-1.42295122
0.66314995
0.47997919
-0.05714738
0.44561404
0.34267825
-0.30250344
0.36571535
0.19978267
0.53513074
-0.34327903
-0.86648285
0.92749351
0.81066871
0.17953032
0.58125931
-2.60531282
0.08663938
0.15027191
0.00971993
0.12309702
-0.82739437
0.39660177
0.23184846
-1.14706099
-0.22856396
-0.03498505
-1.06787395
0.22066523
-0.35350388
0.83338749
-0.71617317
-0.40544489
-0.16277307
-0.12679675
-0.45982158
-1.24219978
0.43112385
-0.30545434
-0.41528547
-1.04280889
-0.65654308
0.04788670
0.16620173
0.07146104
-0.06846281
-0.82546002
0.08217470
0.36737904
-0.05937933
-1.02792192
-0.30644494
-0.11468885
1.81508672
0.12131549
-0.03163661
-0.24066727
0.83039159
-0.35290730
-1.40423453
-0.92990631
0.15075718
0.11418836
0.25736287
-0.75130039
-0.86649507
0.08077521
-1.48116231
0.12045244
-0.09366959
-0.21860939
0.30472887
0.22908118
0.22121087
0.38223869
0.03292818
0.30519888
-1.41534793
-0.21911733
1.02068961
0.27277932
0.32233465
0.01222213
0.39211398
0.14766283
-0.01425622
-2.47112513
0.16264321
-0.91009444
0.14628394
0.05638150
-0.80030942
0.99714792
-0.10719148
-0.33973640
0.23553328
0.27145520
-0.24021244
0.00296867
-0.30177167
-0.46365008
-0.94510120
0.21484730
-0.00517928
1.67190182
-2.29776406
0.09587140
0.04130677
0.28166378
0.31697023
-0.10803875
-0.18992506
0.69417477
-0.54222077
-0.01098871
-0.74826938
0.59860629
-2.62860394
-0.21125197
0.28899050
0.07622135
0.25659561
0.51208425
0.13814643
-0.31498158
0.22427845
-0.49262309
0.43877620
-0.22528189
-0.24968296
-0.10045131
-0.19934706
-0.94883400
-1.16342628
-0.75982279
0.78730106
-0.06009571
-0.38165343
0.05923984
0.36519623
0.14474796
0.03511266
0.76441437
-0.61328334
0.18144393
-0.64043593
0.73666286
-0.30969974
-0.33570895
-1.61069655
-0.50211048
-0.88775182
0.09305067
-1.51508856
-1.26503742
0.15222758
-0.68858182
0.08888911
1.19838297
-0.00547386
-0.83405387
-0.06067584
0.18056904
-0.31508514
-0.08172746
-0.53400797
0.15830444
0.33434319
-0.24560399
-0.39536327
-0.09509497
0.26496327
0.06891841
-0.00062102
-0.33888534
0.88098145
-0.22896287
0.09676744
-1.89329302
-0.19208521
0.07429208
0.09896430
-0.15938446
-1.52753866
-0.00416716
0.70782983
0.12425674
-0.02686653
0.60408974
0.19792649
0.44120061
0.23726793
-0.32379922
-0.81376523
-0.57558715
-0.04985466
-1.68268418
0.27361581
-1.10718405
0.18702593
-0.39151224
-0.15980788
0.20664702
0.29803044
0.22163649
0.11793210
-0.02779006
0.06875804
0.66139549
0.26413032
0.17970514
0.14476208
0.10699464
0.99710965
0.61649257
-0.62732905
0.02737322
-0.77485794
0.19856496
-0.38892010
-0.05623827
0.91228592
0.09306547
0.29144460
-0.34840220
-0.14440884
-0.06564096
-3.06684899
0.26848996
-1.63068700
-1.08003521
-0.57450932
-0.01170940
0.33744976
-0.24814723
0.68370092
-0.95972240
-0.95161474
0.46879852
0.95159012
0.07184909
0.19652882
0.30304575
-0.04429555
0.30106398
-1.45012903
0.47058037
0.19126968
-1.48034453
-0.28178820
0.64880806
-0.35601765
-1.38800287
-0.70169985
0.04917160
0.29194120
0.40000695
0.07143890
0.66088611
-0.35320416
-0.00220341
-0.53206319
-0.00232405
0.41988271
0.12953638
-0.07388974
-0.49913618
-1.88941920
1.25124133
-0.34848413
-0.56037241
0.09927238
-0.02110839
0.10515894
0.38078967
-0.22427320
0.05219622
-0.87009799
-0.51816523
0.31536809
0.58195066
-0.56866109
0.47463408
0.04896642
-0.21547312
0.11824548
0.41920853
0.36996192
-1.45877016
0.08996922
0.56700259
-0.31992367
0.10727004
-0.97001350
-1.65184283
-1.24044418
-1.00429785
0.29308084
-0.00900324
-0.56190711
0.20614880
0.32489705
-1.38473594
0.00808203
0.11104301
-0.44346765
-0.03260569
0.16043580
-0.05794153
0.25792444
0.67082900
0.44439930
-0.38265371
0.04179072
0.24380557
-0.08064887
0.00624756
-0.59639037
0.15795256
-1.22984123
0.53790343
0.11877823
-1.40418136
-0.64798981
0.02700840
-0.46613580
-0.35704058
-0.84315884
0.33412388
0.04974665
-0.60091257
0.10565710
-0.06865592
0.58231276
0.49270830
-0.67797202
-0.09782651
0.13400011
0.07433347
-0.10948362
-0.35374644
-0.05581766
0.65924585
0.38132468
0.47192869
-0.11165864
-0.64540428
-1.74508202
0.03972104
0.16383207
0.72144634
-1.58671701
-0.56415653
-0.48041692
0.33041793
-0.11318136
0.25509334
-0.19553164
-0.47322389
0.17086200
0.68104684
-0.34897211
0.25126195
0.61186790
-0.04147745
-0.24313863
-0.13904960
-0.31193966
0.43087789
-0.14638667
0.13476449
-0.67017692
0.43150565
-0.87853020
-0.26776761
-0.61056006
-1.16366076
0.64429808
0.03834592
-0.01356370
0.85124803
-0.09235495
-0.56807762
-1.55905700
-0.27942663
1.04950976
-0.07382742
0.15669411
0.64445812
0.15103553
0.28291097
-0.02313327
0.20772646
-0.07497539
-0.55502969
0.53280139
0.08667760
-0.03026104
0.05196759
0.30207708
-1.08883083
-0.61426395
0.39488173
0.09049966
0.01191230
0.25219941
-0.75149488
-0.59652084
-0.01457240
-0.05079819
-0.80192846
0.22908400
0.27289778
-0.04177030
-0.21831782
0.07933472
0.32285985
0.21430977
0.06122138
0.00946926
-0.86808783
0.74144042
0.32750082
-0.20197271
-1.45251298
-0.30709529
0.43123385
-2.64436173
-0.09845240
-2.23155522
-0.52736282
0.10148992
-0.63045645
0.13010570
-0.29593471
0.38387215
0.00513133
0.05303309
-0.13242821
0.84555662
-0.00923945
0.03986607
0.87610501
-1.05679595
0.13883148
0.07328524
-0.20055576
-0.59636182
-0.84070677
-2.11328864
0.26445210
-0.28855634
-0.04168869
0.16005933
-0.85435647
-0.61856389
-1.68874681
0.39204979
-2.11954331
-0.11417238
0.06727074
-0.41176945
-1.81821120
-0.86379761
0.18180016
0.12807429
-0.09362067
-0.80882961
-0.46201959
-1.48680949
-2.36512399
-0.07626639
-1.11900890
-0.67684817
0.80223143
-0.16576180
0.00712557
0.11578110
-0.68980432
-0.00762067
0.08576743
-0.88388211
0.20773299
-0.69036251
-0.07592012
-1.16693616
-0.05760696
0.32572910
-0.78282535
-0.48744091
-0.30472043
-1.45797265
-0.83671623
-0.89236867
-0.07876784
0.06345949
-0.45600536
-0.84660834
-0.21484716
1.51586580
-0.18084155
-1.46774065
-0.48110953
-0.47092226
0.33690372
-0.34412616
-1.77334774
0.03427487
-0.18190038
0.25043508
-0.53864795
