0.06614657
-0.03593422
-0.07835369
-0.02108510
0.07216702
0.02361158
-0.13870648
0.09623965
-0.05447830
0.03450891
0.10518102
-0.10250690
0.14703569
0.10417926
0.11666777
-0.16951814
-0.10247864
-0.04682259
-0.03135495
0.03021855
0.24905209
-0.04787742
0.01908823
0.16437730
-0.09665932
0.09141311
0.02353001
-0.06736403
0.09156661
0.01127377
-0.06131349
-0.08900477
0.06044324
0.07024597
0.02986641
-0.05498160
0.20632216
0.03664756
-0.07314558
-0.02504383
-0.12875427
0.01212262
-0.04000881
0.04357845
0.09046639
0.14344046
0.01061934
-0.11529279
0.01481481
0.03180767
-0.13477552
0.08871192
0.14583172
0.15915126
-0.00998570
0.16865918
-0.04677135
-0.04139941
-0.12423670
-0.13615406
-0.00411902
-0.07892560
0.03984023
0.04074343
-0.09694921
0.00105306
-0.11055726
0.08754095
0.15978700
-0.08648150
-0.05698051
-0.06528319
0.00279225
-0.10034293
-0.07567782
0.08686180
0.06039838
0.07979725
-0.12614110
-0.04983192
0.03120990
-0.05537172
-0.02298916
0.03103048
0.08484845
-0.00971056
0.05713322
0.11441876
0.06529549
-0.04597613
-0.06069711
-0.10153924
-0.04141122
0.00368146
-0.01392258
-0.01634260
-0.08732468
-0.04042513
0.00720357
0.11265124
0.01827318
-0.05011630
-0.12751950
0.23683605
-0.17683369
0.26708293
0.03856129
-0.30546758
-0.00874207
-0.00166195
0.28695762
-0.17051491
-0.28495395
-0.07208543
0.09588348
0.04309518
0.28150564
0.04303348
0.13161497
0.12201355
-0.14837278
-0.02171896
0.05481474
-0.06287214
0.30695921
-0.09914835
-0.01671457
-0.06452904
-0.13433214
0.06592176
0.03592988
0.10404509
0.14157841
-0.12274874
-0.10461307
0.25728148
-0.15132985
0.27270755
-0.19490403
-0.24750257
-0.00138742
0.05852816
0.08701157
-0.09371234
-0.28227195
0.17435031
0.08236410
-0.04461176
0.22999425
0.11230494
0.01789963
0.06957810
-0.17528778
-0.21991204
-0.14440981
-0.11358858
0.26201075
-0.23639399
0.18959923
0.04073052
-0.06338554
-0.08393899
-0.05809090
0.05197798
0.24789256
-0.06617598
-0.12700421
0.15949821
-0.12110200
0.22076897
-0.19198944
-0.14136527
0.02178294
0.14571129
0.01719672
-0.09928609
-0.08767746
0.06353047
-0.00383641
-0.15532814
0.13822497
0.15476675
0.00954778
0.04443815
-0.18818673
-0.13908392
0.01180891
0.03895620
0.19104169
-0.07854325
0.04014187
-0.11981883
-0.22386806
0.00820137
0.12466771
0.12252131
0.06502442
0.07617021
-0.07530599
0.05013321
0.04414311
-0.01908412
-0.10879827
0.07470961
-0.28589395
-0.05797173
-0.10553739
-0.02334519
-0.07727800
0.06718801
0.00329630
0.05629179
-0.09851573
0.06694648
-0.05387653
0.05039402
0.00808785
0.04596847
0.01907621
-0.16374868
-0.09879195
-0.15309249
-0.00063413
0.01650212
-0.05503194
0.00614406
-0.03046735
0.11026947
0.05859137
0.03776021
-0.03471883
0.13219385
0.10248807
0.02900770
0.03814002
-0.01481432
-0.37118077
-0.17870468
0.01572363
0.04933844
-0.12007403
0.06209068
0.10332045
-0.01126882
-0.02820223
-0.07198700
-0.07836462
0.03630019
-0.05454300
-0.04060564
0.14466769
-0.04507138
0.11459799
-0.04346854
-0.09853975
-0.18464518
0.11636243
-0.00133686
0.00982242
-0.08990121
-0.05715824
0.06935803
0.01507502
0.04799403
0.14944786
0.10808796
0.06827636
-0.01918161
-0.27743620
-0.16548969
0.09488796
0.03197128
-0.00860214
-0.04363121
0.04077347
0.12702988
-0.11738405
-0.02076708
-0.09427776
-0.01484930
-0.15750884
0.11417984
0.04238299
-0.00938591
0.12435313
-0.02856319
-0.15141240
-0.01778892
-0.02885347
-0.00928854
-0.05495282
-0.17599620
-0.07222798
-0.06348547
0.15044786
-0.03884783
0.12724534
0.02380759
0.17062692
0.11358108
-0.26106226
-0.19359338
0.01154853
0.02358116
-0.08268666
-0.14525653
-0.14387296
0.06697884
-0.02964512
0.02489650
-0.17478475
0.04547496
-0.03891191
-0.09402429
-0.00260534
0.02568827
-0.03960592
-0.08819030
-0.06903129
0.00814268
-0.02965959
-0.02506729
-0.03089691
-0.07005330
-0.02642913
-0.06094550
0.03482831
-0.11249384
-0.08751445
-0.08177637
0.01179622
0.08406790
0.03602950
0.04751283
-0.08790603
0.01076054
0.04180367
-0.00327738
-0.14723556
-0.01482190
0.07293233
0.12801200
0.00053629
0.03304607
-0.00518862
-0.11031564
0.01384081
-0.17843087
-0.04784902
-0.15394264
-0.05582620
0.09153710
-0.09048548
0.01702855
0.03804813
-0.03538046
0.18119770
-0.10807479
-0.00970246
-0.14248952
-0.14469533
-0.10628720
-0.05388738
0.02098947
0.23051605
0.15788433
-0.02229252
-0.09195113
-0.05192220
0.07286817
-0.10308091
-0.11798520
0.21136227
0.18659490
0.14913774
0.08807847
0.08457382
-0.08711580
0.01207334
-0.10825480
-0.04876130
-0.28185037
0.18172047
-0.03416740
0.06190901
-0.00417236
-0.11817186
0.06000989
-0.03483503
0.11039940
-0.02129249
0.04210087
0.09799501
0.01469759
-0.00342809
0.00105044
0.07031667
-0.05001202
0.09355558
-0.05899281
0.04408227
-0.05751963
0.04322319
-0.03844637
-0.07863923
0.01307230
-0.05060700
0.00041664
-0.16266046
-0.02623186
0.05968506
0.16713502
0.07691742
0.00827517
-0.00841104
0.08811894
0.15878780
-0.00016424
-0.06112192
-0.02405918
0.04104911
-0.02774760
-0.07690664
0.01967168
-0.03106364
0.01376986
0.04325676
-0.02926857
0.17983389
0.09471004
0.00880031
-0.11801320
0.04790648
0.03333957
-0.02067089
-0.11116964
0.02286732
0.12969780
0.14611630
-0.01006878
-0.06522463
-0.01339215
-0.03232926
0.06353214
0.08745854
0.00924066
0.01773935
0.08459321
0.09218038
-0.02822562
0.03325040
-0.03819468
0.03416560
-0.01585184
-0.17064072
-0.12195424
-0.11880042
-0.03538336
0.08654246
-0.04374282
0.39354411
0.21774328
0.02293985
-0.10658660
-0.01461276
0.12152727
0.04796188
-0.00137154
0.11627998
0.20024630
0.20536235
-0.03444573
0.04112903
0.13118446
0.01511098
-0.01555199
0.01947964
-0.13535956
0.02197850
0.11220438
-0.12751791
0.05064118
-0.08408634
0.09842901
0.21425770
0.05761937
-0.15245324
-0.22825457
-0.09312680
-0.18831347
-0.06741557
0.08769057
0.07164475
0.17500590
0.02091941
-0.17668247
-0.11633584
0.08848631
0.13576797
-0.17055026
0.14135975
-0.20433493
0.25459355
0.15999250
0.23324974
0.18461746
-0.01889634
0.05182571
-0.14282830
0.00043714
-0.14637980
-0.15943964
-0.20680238
-0.05840647
-0.18112077
0.00802542
0.03152906
-0.03245047
0.06513646
-0.21906817
-0.10903242
-0.12906864
0.03407187
0.12833907
0.10678927
0.25389704
-0.04048001
-0.02843906
0.00512901
0.01264617
-0.00625985
0.02043920
0.03857987
-0.14597039
0.19047417
0.14100364
0.22122422
0.17087904
0.05003984
-0.03195531
-0.22730646
0.14061509
-0.13541755
-0.01347432
-0.16271402
0.02101261
0.00726807
-0.13818775
-0.12783997
0.04527621
0.09003508
-0.20065296
-0.06686954
-0.18741374
0.07752713
0.18691275
0.07459839
0.09928435
-0.10472437
0.07393575
-0.03084591
-0.03086836
0.16859335
0.06316459
-0.05708507
-0.04481818
0.07419428
0.11944146
0.33030200
0.28708848
0.02116903
0.03965695
-0.26896220
-0.02729267
-0.17068467
-0.05658166
0.29216385
-0.06765247
-0.16427232
-0.07489641
-0.03486732
0.05785326
-0.04094668
0.02661663
-0.03144909
0.06660227
0.04496035
-0.06355326
0.33593091
0.01225784
0.06047853
0.02987457
0.07566535
0.00770350
-0.08268327
0.01444887
-0.06541978
0.02625316
-0.02773949
-0.02973547
-0.21036348
0.08748556
-0.03149576
0.09866127
0.12224150
0.13244252
-0.05656512
0.14169200
0.17296457
0.05378915
-0.01242981
0.09437174
-0.02487791
0.03500348
-0.13127254
0.06075969
-0.00466739
0.08298367
0.01075894
-0.06489946
0.28602758
-0.03752697
0.11753950
-0.17329803
0.05798406
0.08153570
0.06431157
0.00166585
-0.07098473
0.03185930
0.04579505
0.00621994
-0.26908275
0.00283935
-0.09154268
0.04807966
0.24045432
0.01629069
-0.03564986
-0.03997603
0.23530065
-0.04473691
-0.05275012
0.14586461
0.04339121
-0.00001440
-0.15661232
0.14338765
0.00737234
0.09250342
-0.04345473
-0.10963561
0.21215460
-0.09962501
0.27045521
-0.17749563
0.07331727
0.06758972
0.11085317
-0.05745832
-0.04077362
-0.03891319
0.05228921
-0.00688524
-0.43116856
0.01664835
-0.03913739
-0.02611041
0.26533294
-0.02190692
0.01936284
-0.00202430
0.01431245
-0.08906996
-0.01802567
-0.03786854
-0.12261464
-0.09081193
-0.05226839
-0.12617402
-0.06959534
-0.12743300
0.08663061
0.09498271
0.07428546
0.05973872
0.01081254
0.03127935
-0.05403763
0.02408536
0.04862254
-0.15475371
-0.00784593
-0.05813380
0.05495144
0.07918295
0.02543203
0.20977409
0.25057858
0.00525613
-0.06150827
-0.06480777
-0.13555039
-0.16581771
-0.01602899
0.01208143
0.05061525
-0.08152794
-0.01377375
-0.00774583
0.09735169
0.05175720
0.12146004
-0.07699630
0.04542408
0.14098452
-0.16886616
-0.05642329
-0.18159401
-0.01480899
0.14682637
0.00300623
-0.08940399
0.12600663
-0.06781769
0.21798247
-0.16644812
-0.05247955
0.00972411
-0.15153682
0.03517159
-0.10351337
-0.13382189
-0.13684753
0.11630593
0.15933283
-0.10224650
0.00510510
-0.08745257
0.10981209
0.02268375
0.01773020
0.06123170
0.03256042
0.11816496
-0.01431925
-0.18125476
-0.01048178
-0.39165336
-0.06703889
-0.09194426
0.11469163
-0.01026978
-0.00182224
-0.06315207
0.03877719
-0.14547473
-0.01359048
-0.07551489
0.11503220
0.02965391
-0.14856325
0.00728540
-0.11573091
-0.13554767
0.15164886
-0.01792092
0.04141410
0.14960830
0.00436413
-0.08378085
0.20588797
-0.02068112
0.01706301
-0.21416281
0.06430471
0.02537488
0.11593329
0.15361120
-0.10379774
0.06069344
-0.13933255
0.13635193
-0.16348520
0.04326035
-0.01846118
0.07250375
-0.06247354
0.04497331
-0.15311670
-0.09700157
-0.08053483
-0.31890059
0.06907249
0.01838714
0.09375010
0.22228117
0.06598948
-0.04190863
-0.14604084
0.10311917
0.01792267
0.02594034
0.15263134
0.13228835
0.11886095
0.01271959
0.06516229
0.02270491
0.01824592
-0.07073045
-0.04201927
0.05901843
0.07850243
-0.06808426
-0.17497686
0.11122599
0.12487132
0.03721706
0.06935191
0.14343302
0.05898991
-0.02991824
0.03298268
-0.07133307
-0.04231131
-0.16350983
-0.02645671
0.04290411
-0.04522618
0.02752393
0.03005706
-0.04910529
0.00790658
0.08821920
0.01183208
-0.08119031
0.00717485
0.06673200
-0.03412469
0.03110772
-0.10795971
-0.12656182
0.05276024
0.00711195
0.02173595
-0.12969251
0.05896260
-0.11355600
0.12699151
0.15769586
-0.10506654
0.07289036
0.03013814
0.04112118
0.07641834
0.18895780
0.17368814
-0.06900626
0.05067582
-0.00388607
-0.12391200
0.05577850
-0.09536301
0.04406728
0.08942583
-0.00636389
-0.04551529
0.06368224
0.02716287
0.09041668
0.07832094
0.07653338
0.04933053
-0.11582472
0.03515977
-0.08822654
0.07273417
-0.06679652
-0.01919942
0.16920640
-0.05151993
-0.21129295
0.32274294
0.06534865
0.12716514
-0.03490245
-0.17094861
-0.04569663
-0.19365227
-0.33799171
0.09951293
-0.11413718
0.04111238
0.13025844
0.17058018
0.07094338
-0.05357697
-0.04018518
0.09175179
-0.04317198
0.06876269
-0.00639725
-0.05347187
0.08008032
0.08242565
-0.01382549
-0.06709759
-0.08046647
-0.01807180
0.09957337
0.00755542
-0.02687552
0.01480193
0.00939357
0.09892939
-0.03588637
-0.09794459
0.02047595
-0.17212106
-0.08326661
0.07030900
-0.23118430
0.14793809
-0.04383372
-0.07098504
-0.14017464
-0.11878987
-0.07087902
-0.03603931
-0.02866751
0.04789627
0.13459155
0.04305302
-0.06370418
-0.01315113
-0.01964528
0.08815277
0.08295223
-0.01623203
0.02638324
0.03099757
0.01637458
-0.04664342
-0.02842279
-0.18362033
0.00043698
0.06220206
0.01761111
-0.03129633
0.05592022
-0.10175522
-0.07565150
-0.11438308
0.01472997
0.07228872
-0.01619310
-0.02812034
-0.09775001
-0.11014964
0.07542428
0.11050583
-0.11633474
0.14408907
0.10111853
-0.04970517
-0.09982481
0.06207401
0.15565410
0.04013670
-0.09237731
-0.06890810
-0.12670042
-0.20751631
-0.04925184
0.02136531
0.09104228
-0.05945824
-0.13034634
0.08447689
-0.16127285
-0.03735637
-0.16957885
-0.19306491
-0.10582797
-0.21204877
-0.04968859
0.02831816
-0.01842798
0.10430270
-0.04125254
0.12075051
0.07893276
0.03588889
-0.21768515
0.11977165
0.11567433
-0.14825138
-0.07428081
0.01965433
0.03750813
-0.04244458
-0.01724449
0.04930326
0.13300855
-0.02303685
0.00089960
-0.01897235
0.04529528
-0.01596659
-0.05673158
0.03200463
-0.03227506
-0.14700295
0.03055600
-0.10289896
-0.00697316
-0.01009586
-0.04927320
0.11301924
-0.04903864
0.02356522
-0.09498356
-0.00385769
-0.07458016
0.08560476
-0.01073821
-0.13652018
0.03701991
-0.13325562
-0.18649772
-0.14502418
-0.16030905
-0.10582522
0.08123835
-0.03411471
0.31582409
0.14500311
0.00093850
-0.09381122
-0.07154146
-0.00379523
0.02429241
0.00879208
0.17608319
0.08041376
0.17708629
-0.13533406
0.10880340
0.12122249
0.05677237
0.14860126
0.03553686
-0.25818214
0.14754614
-0.05560034
-0.16687565
0.11823870
0.04381036
0.12251462
0.05959672
0.12622626
-0.01514187
0.19521248
-0.03421931
0.16137111
-0.00832942
-0.15590046
-0.26146835
0.03987109
0.03472408
-0.13222717
-0.08300178
0.01643540
0.05758353
0.06574452
0.05293531
0.02482608
0.01418578
-0.07675747
-0.05081220
-0.04728809
-0.06374185
0.04115374
0.14046304
-0.06504724
0.01550050
0.21825621
-0.14846832
0.05174505
-0.06469649
0.07329196
0.05133978
0.04048229
-0.04447837
0.19038874
-0.07577889
0.29276350
-0.01681879
-0.24711810
-0.29170263
0.02436094
0.11931776
-0.05080065
-0.18851022
0.11435489
-0.03991675
-0.04752388
0.22153923
0.09115808
0.10673238
0.06687700
-0.09852064
-0.11725871
-0.00512943
0.06407274
0.18978955
-0.02754210
0.04083729
0.02057281
-0.04056669
-0.00516355
-0.09254548
0.03551593
0.04768450
-0.04483404
-0.04953400
0.29801658
-0.02932944
0.21674547
0.05354818
-0.14232276
-0.21334700
-0.01914212
0.25555566
-0.03183877
-0.08883961
0.05867696
-0.02654427
-0.05042880
0.16091765
-0.00370422
0.07735238
-0.06581762
-0.13903849
-0.00551977
0.11190295
0.02974015
0.27819291
-0.00795832
-0.12012640
-0.01900095
-0.12357605
0.07811935
0.00577056
-0.07918700
0.04132772
0.02473085
0.00228918
0.21799794
-0.03564030
0.13600250
0.15740427
-0.19387800
-0.15163860
0.15235060
0.11981583
-0.23339558
-0.13017787
-0.07817557
0.02372370
0.26013389
0.30878463
0.09926745
0.04886200
-0.03171321
-0.07186057
0.01413594
-0.11887183
0.03669472
0.15237005
0.01386405
0.00888176
0.15790299
-0.18531711
0.00409663
0.14038281
0.04933492
0.10727846
-0.01019754
-0.08202839
0.15803887
-0.11281939
0.21893431
-0.03461976
-0.27607736
-0.10317546
0.13105537
0.08267485
-0.14483498
-0.17843007
0.09643643
0.07158832
-0.08681470
0.28911617
0.04688553
0.16295978
0.11237504
-0.12649639
-0.03451712
0.01147209
0.00714409
0.18225208
-0.03507985
0.09228607
-0.04552384
-0.11530438
-0.04103652
-0.00035327
0.07222197
0.23324284
-0.13602653
-0.10242743
0.06751131
-0.14541578
0.08021535
-0.02559647
-0.24654430
0.00496909
0.18695040
0.10808095
-0.10295586
-0.04455074
0.10411993
0.01265480
-0.13623102
0.17624252
0.01585626
0.06337775
0.13037531
-0.06007671
-0.00876646
0.04495466
-0.04232667
0.19288389
0.01475511
0.08555087
-0.07289244
0.14362337
-0.06150037
0.13761787
-0.22355787
-0.12362270
0.01399269
0.19510128
-0.19212908
0.24862929
-0.24377857
0.11726237
0.23348914
-0.05117136
-0.14468120
-0.14482608
0.21729824
0.15921818
-0.15705998
0.04067661
-0.09484898
-0.26039612
-0.11002099
-0.19131531
-0.08506767
0.12422187
0.22776093
0.14582203
0.05683672
-0.22948042
0.11729723
-0.10749526
-0.18623748
0.29502425
-0.15410779
0.11477407
-0.24902573
-0.23784533
0.05003326
0.21146615
-0.28645816
0.19792557
-0.34719682
0.19237757
0.41001171
-0.00796694
-0.20411678
-0.31726873
0.24012719
0.29656610
-0.17527963
0.03658505
0.06546934
-0.41621137
-0.02442762
-0.32553831
0.02945406
0.20883884
0.16774541
0.04908050
-0.00457262
-0.31864056
0.02731851
-0.00425753
-0.05345368
0.27071035
-0.14999640
0.09589116
-0.09595536
-0.00028728
-0.00005446
0.02640040
-0.21706240
0.27909473
-0.29097229
0.09154066
0.32097310
0.06589223
-0.05631729
-0.21910052
0.06480958
0.22554822
-0.06306686
-0.06431057
0.00218953
-0.33601299
0.02903812
-0.20641054
-0.01850389
0.18612728
-0.01948207
-0.02042405
-0.10754979
-0.23461212
0.08958909
0.00557789
-0.03249624
-0.05253373
0.17259905
0.00499058
0.09932497
0.23763496
0.01079810
-0.05560147
0.02249012
-0.00697338
-0.04099689
-0.24076818
0.02881588
-0.06314022
-0.02594285
-0.04218401
-0.16883673
0.01823439
0.06063098
-0.03821507
-0.09555586
0.01263439
0.12671548
-0.06925464
-0.01589778
0.05286082
-0.10663689
-0.09810837
-0.14332232
0.04518246
-0.19923353
0.19029285
-0.08622884
-0.02844374
0.01780347
-0.07583937
0.06425059
0.05319791
0.01170465
-0.00206702
-0.04916209
0.02443115
-0.02700872
0.13363788
0.03054035
-0.05871815
-0.16513157
0.05656962
-0.05612132
0.07084900
-0.18386871
0.01252156
-0.16906665
-0.07914899
-0.13318770
-0.01411483
-0.00288695
0.00486252
0.03944915
0.14415969
-0.02738639
-0.03150301
0.15499489
-0.03301404
-0.09799635
-0.05181154
0.08228272
0.02232454
-0.03692886
-0.05123578
0.04082616
-0.05912857
-0.07834047
0.02396539
-0.09387912
0.04829407
0.06278561
-0.09768411
-0.17700008
0.02568652
-0.04105483
0.01521164
-0.08979946
0.16871689
-0.08473309
-0.15560110
-0.11969664
-0.08298597
-0.15835953
0.08954091
0.07539918
0.04321502
-0.00900942
0.04372780
0.01844561
0.04502564
-0.09274044
-0.07969597
0.04595530
0.04796981
0.11198209
0.01319191
-0.00889199
0.03000681
-0.00978354
0.07618818
0.00255265
-0.03261791
-0.00756048
-0.16977675
-0.13325538
-0.01330994
-0.13460249
-0.06269015
-0.05270908
0.09866850
-0.14489876
-0.08567169
0.04613234
0.02151096
0.07738148
-0.07134423
0.06592182
0.09533102
-0.16520387
-0.00398893
-0.20262580
0.02813349
-0.03705868
-0.06432296
-0.02201455
0.02636971
0.01482905
-0.01001577
-0.03896857
0.12992476
0.00722538
0.07929306
-0.06716448
-0.04813056
-0.05904337
-0.14667393
-0.06149846
-0.16081755
0.00542517
-0.06009482
-0.03233115
-0.02924012
-0.01887993
0.00204747
0.20102702
-0.04136581
-0.00002039
-0.02766424
-0.02221965
-0.01291032
-0.03594729
-0.07987059
-0.09563107
0.00909750
0.08845394
-0.09595607
-0.14092535
0.08489960
-0.08826067
0.05743604
-0.05317089
0.09813885
-0.01717566
-0.14378633
-0.02197231
-0.03006696
-0.01349739
-0.05496434
0.12286694
-0.12244979
-0.03180247
-0.06564792
0.02499430
-0.09048288
-0.09779912
-0.01509216
0.11751697
-0.04344683
0.05717180
0.10520615
0.01127516
-0.03850693
-0.08747703
-0.09519840
-0.03410067
0.07348615
0.00161048
-0.16830263
0.06039917
-0.01749739
0.02731665
0.05158310
0.00649277
-0.00391007
0.15523241
-0.00080833
0.07261010
-0.06538837
-0.04118991
-0.11974511
0.09999385
-0.03441688
-0.14864451
-0.10596725
0.11586140
0.09271682
0.09660456
0.15973051
0.13700260
0.02657831
-0.03934958
-0.01094412
-0.09482689
-0.13529891
-0.05655488
0.02758031
-0.08089212
0.07525305
0.11025635
-0.20199163
0.02910268
-0.08237781
0.13688876
0.16006400
0.04649300
-0.14148767
0.21801357
-0.06580126
0.24906808
0.05321522
-0.23514821
-0.27751759
-0.06593465
0.18495874
-0.18713002
-0.15964596
-0.03858363
0.08062666
-0.09838086
0.23673187
-0.03020493
0.05687803
0.02524946
-0.04201672
-0.02071989
0.11463634
0.01538470
0.13651454
0.05167124
-0.08004890
-0.14104901
-0.07361922
-0.03366257
-0.11316735
-0.02226420
-0.09247805
0.10755542
-0.02507114
0.14563985
0.01568775
0.16231418
0.19968913
-0.05883221
-0.29217908
-0.10248545
0.23389094
-0.06453927
-0.15826693
-0.09592339
0.14436018
-0.02186901
0.05074826
-0.10686276
-0.04436519
-0.06429897
-0.08892474
0.20065606
0.13355592
0.11416218
0.14087398
0.11999965
-0.22689474
-0.10259553
-0.15005004
0.05984086
0.04035499
0.02582479
0.03979443
0.02489958
-0.17581700
0.08748683
-0.20213553
0.13532217
0.17803165
-0.23842061
0.04449855
0.02008404
0.18704756
-0.20387127
-0.22265390
-0.03591079
0.16081855
-0.03424233
0.24416375
-0.13632040
0.07678726
0.08807027
-0.04378117
0.10065941
0.14528877
0.04248166
0.11458428
-0.05296713
-0.05322014
-0.17524402
-0.06788292
0.10674737
0.06995317
-0.02368693
0.17764750
0.00622949
0.04501316
-0.06138445
-0.00843820
-0.05537524
-0.14466484
0.03772432
0.10469577
0.09008620
-0.21079168
-0.12864812
0.00250636
0.09394842
0.04734223
0.10134435
0.05498871
0.16055077
-0.00478759
-0.00011413
0.07683399
-0.02642207
-0.01503097
-0.05136528
-0.05670740
-0.25420177
0.13620967
0.11771264
0.07926887
0.04872842
-0.06206996
-0.04634763
0.09072397
-0.00526758
0.19626813
-0.18984358
0.20698220
-0.29719448
-0.17517871
0.20352608
0.11374024
-0.12964867
-0.42647937
0.04094741
0.18600252
0.06004612
0.02449546
-0.02871558
-0.16548122
0.03109532
-0.18084608
-0.03765440
0.12060499
-0.11232789
-0.08222825
-0.01532873
-0.28094688
-0.06029622
0.08305834
0.10918814
0.23225729
-0.11177188
0.06185474
-0.16305922
0.11953887
0.07492185
0.10519946
-0.05191689
0.00101770
-0.13232948
-0.06884906
0.14946768
0.15837011
-0.08623166
-0.13209347
0.05655914
0.11687341
-0.03037773
-0.00151966
-0.08183054
-0.20060903
-0.01985925
-0.04737910
0.01258603
0.01250377
-0.03539361
0.02659636
-0.02372772
-0.01659852
-0.01475360
0.14535308
-0.01992648
0.23869742
-0.06843007
0.12417829
-0.18505204
-0.05032023
0.05286786
-0.03345344
-0.15048745
0.08565193
-0.23814519
0.08197724
0.25580579
0.19224107
-0.06896106
-0.11374059
0.07831854
0.23195443
-0.06821189
0.09175361
0.00519159
-0.29129961
-0.06566814
-0.06221934
0.03558337
0.05425379
0.03633777
0.01870264
-0.00899348
-0.05774888
-0.04814843
0.05392958
0.01424056
0.14990121
-0.05045468
0.14811237
0.03066011
0.03987332
0.06780646
-0.09104172
-0.10447998
0.08754567
-0.22329888
-0.04173144
0.10268282
0.10616527
-0.04602351
-0.16423486
0.04494285
0.12649874
0.02298260
0.15331416
-0.03068077
-0.25357383
-0.04469692
-0.10315438
-0.04793011
0.05832391
0.00844507
0.07256078
-0.05374043
-0.06586856
0.00404004
0.09745675
-0.11567878
0.07985765
-0.05012408
0.02435405
0.00299473
0.10531553
0.00687928
-0.07137819
-0.13099910
-0.12023918
-0.10178012
-0.08866574
0.12018659
0.12710778
0.08857828
0.00197804
-0.06608366
0.01057894
-0.18759049
0.06435025
-0.12609331
-0.04150440
0.02998026
-0.00498665
0.02729238
0.08666712
0.06688881
0.04935199
0.10432302
-0.01558514
0.02199947
0.02258850
-0.04133979
0.08000292
-0.00287979
0.11183201
-0.02768830
0.07399004
0.08307677
0.06870602
-0.20387493
-0.10970384
-0.13951486
-0.21911219
0.22265027
0.18366089
0.17686418
-0.10392820
-0.05622274
0.09091260
0.02067200
-0.04409792
-0.06262460
-0.00233568
0.07246393
0.09525188
-0.04659823
0.11470602
0.02871434
-0.11564445
0.00571749
-0.20277889
-0.08341137
0.16693841
0.17132585
-0.05076627
0.08873247
0.01073869
0.14196342
0.24594644
-0.00398693
-0.01936118
-0.19830643
-0.00275803
-0.19150271
-0.26634073
0.18651849
0.11863881
0.09670095
-0.17142983
-0.05782976
0.08307027
0.11316908
0.05249196
-0.10208552
-0.00051390
-0.03851646
0.08224595
0.01186312
0.12195445
-0.06894523
-0.22857949
0.04170130
-0.21682385
-0.07294035
0.11880279
0.15113720
-0.20507792
0.04408211
0.03064796
0.02688554
0.05489932
-0.04053697
-0.24077456
0.02358645
-0.22745100
0.15605646
0.24729706
-0.25402418
0.02635192
0.23423873
0.14370683
-0.15014021
-0.24512999
-0.02239034
0.11242419
0.08568995
0.27991024
-0.01578642
0.16594604
0.08570968
-0.00808101
0.15158230
0.09562042
0.09732351
0.08666547
0.00841986
-0.02933016
-0.01942775
-0.14663786
0.01639067
0.06308799
0.04177013
0.13137269
-0.12772021
-0.04679716
-0.02421088
-0.12162409
-0.04637511
-0.11174079
-0.08618686
0.10815477
0.22607397
-0.13086346
-0.14019123
-0.08534657
0.09561867
-0.04031726
0.04028413
0.25696349
0.13762499
0.11899657
0.07698027
-0.01410945
0.05714626
-0.04241484
-0.06222088
-0.02864456
-0.19521254
0.08967793
0.08531886
0.02033787
-0.02501141
0.04526072
-0.09543344
0.22860524
-0.19112568
0.07703985
-0.20270270
-0.03630185
-0.13193911
-0.07828806
0.03250186
0.29004464
0.17090988
-0.28892836
-0.09209688
0.03446060
0.10101151
-0.13579811
-0.08582173
0.10633246
0.16944365
0.02644314
0.14454848
0.08960239
0.03505364
0.05825591
-0.05637674
-0.10049396
-0.17703417
0.15099373
0.01427954
-0.12066310
0.16688451
0.11291203
0.09779107
0.19590697
-0.04041273
0.05993222
0.02473390
0.04676587
-0.01996055
-0.19498885
-0.08959434
-0.01562458
0.11188895
-0.03885067
-0.13459730
0.00823902
0.11795124
0.05510326
-0.02590529
0.12738764
0.16985206
0.07628918
0.01056439
0.00518075
-0.01507227
-0.19975317
-0.11086661
-0.11121417
-0.24699126
0.16778669
0.03802306
-0.19718230
0.02953430
-0.12720849
0.04164208
0.10032044
-0.10458162
0.02923352
0.04258397
0.09329044
0.12249027
0.07423337
-0.11472968
-0.29706061
0.00632286
0.07560252
-0.10427132
-0.15254301
-0.01102657
0.09368086
-0.10716993
0.04325273
-0.10254013
0.09267325
0.00085936
-0.03232665
0.00485966
0.02382562
0.07519845
0.04445579
0.07566537
-0.06994307
-0.07973967
-0.06703745
-0.01406611
-0.12716682
-0.04724098
-0.21046971
0.01054113
0.08023500
0.07455666
0.13968666
0.13005656
0.18328705
-0.00747563
-0.51075637
-0.21255665
0.22565436
0.04306106
-0.01090488
-0.15226805
0.11432347
-0.00353265
-0.05523673
-0.13054673
-0.03612732
-0.09454701
-0.06734342
0.11234092
0.07112819
0.15420824
0.05556918
0.22010224
-0.26964355
-0.07772010
0.26698494
-0.05844620
0.06595244
-0.09951625
-0.02025746
0.02110042
0.08161584
-0.07864613
0.22611526
-0.13660809
0.03634471
0.19290955
-0.16059189
-0.28610641
-0.05166287
0.09767550
0.14307706
-0.08973379
-0.04636477
-0.02708722
-0.33308026
-0.00480655
-0.26830289
0.01577047
0.06194575
-0.07349844
-0.03435558
0.05317961
-0.13584162
0.08154323
-0.05272784
0.05043128
0.28755194
-0.03207836
0.02558536
-0.15369551
-0.08222014
0.10795453
0.03587905
-0.15758978
0.16184020
-0.13561916
0.04771327
0.21543598
0.03203126
-0.20406321
-0.17664899
0.09579885
0.29639530
-0.05463467
0.00926558
0.01016653
-0.27958837
0.07277489
-0.21551877
0.04209834
-0.00117612
0.00453060
-0.04731035
0.11464410
-0.13554010
-0.03718305
-0.00114829
-0.03099183
0.17263676
0.05860555
-0.00220475
-0.05155433
0.13520449
0.01073687
-0.10065230
-0.12737706
0.15384789
-0.13390203
0.00379758
0.18888804
0.17216302
-0.06887528
-0.07388015
-0.04748532
0.17578794
-0.01314577
0.03189331
-0.10092669
-0.16579235
0.03162151
-0.17588592
0.00878727
0.06830484
-0.09562793
-0.01470016
0.03230149
-0.10027256
-0.05992519
0.04096802
0.02117339
-0.04456559
0.03078617
0.00379874
0.12587345
-0.06682157
0.03914009
0.08831365
0.17020650
0.16271919
0.15819581
0.01536029
0.02459482
-0.30424741
-0.19789161
0.16551286
0.04810023
0.04157246
-0.11126319
-0.04774697
0.15420486
-0.12892798
-0.15285359
-0.10329918
-0.20035172
-0.21113627
-0.08354469
-0.06307331
0.05486327
0.01863402
0.09888905
-0.13484719
0.03799223
0.07800401
0.12541272
-0.07249419
0.13306123
0.02831141
-0.05197423
0.02723571
0.19611876
0.04504273
0.15100452
-0.12838840
-0.03631060
-0.24270815
-0.10348153
0.06139100
-0.03544561
-0.00161368
0.09750581
0.00028132
0.14916630
-0.01120600
-0.04557931
-0.05100514
-0.07878341
-0.16560557
-0.08917084
-0.18795125
0.04362064
0.15127277
-0.06577100
0.00277875
0.05820832
0.00974470
-0.08360595
-0.07877891
0.07365002
0.08023510
-0.04502590
0.08301978
0.15087911
-0.10572039
0.16446202
-0.14916749
-0.09458914
-0.10638346
0.09309324
0.17663372
-0.12572089
0.04023061
-0.01824516
-0.01773236
0.03197203
0.10056286
-0.05109867
0.05084444
-0.12017509
-0.25249258
-0.08366585
-0.17953980
0.09902375
0.17871469
0.00327318
-0.02880874
-0.00332800
-0.14111026
0.08020233
0.09524249
0.09360093
0.20029546
-0.03379013
-0.01768420
-0.06624154
-0.08863524
-0.08160958
-0.22664957
-0.06046235
0.17350052
0.25146952
-0.04385191
-0.10179214
0.05919190
0.00811497
0.13776509
0.00910543
0.09299975
-0.09486685
0.22940373
-0.08239225
0.27733156
0.01389448
-0.06995770
-0.00287636
-0.08078364
-0.05399182
0.17021108
-0.04855879
-0.16089527
0.06113635
-0.02838866
-0.08792746
0.02538840
0.03145690
-0.05804407
-0.14384030
0.07305768
0.00384433
-0.05812273
-0.05633043
-0.11852246
0.08514754
-0.00200852
-0.06260996
0.08508747
-0.12529129
0.09648021
0.08432580
-0.00357805
-0.14210054
0.10232300
-0.15213495
0.13037767
0.04373150
-0.06467520
0.13551499
-0.07081404
0.15543526
-0.09702937
0.00988768
-0.04764837
0.04715374
-0.09045397
-0.10871357
-0.04052776
0.05183769
0.09375596
-0.06177473
0.09001645
-0.06488298
0.07273056
-0.00428369
-0.24931741
0.01231242
-0.04438531
-0.00940691
0.02460972
-0.11666711
0.02836904
0.15063739
-0.14292771
-0.15337791
0.04551500
-0.02538802
0.11503933
0.11430563
-0.03179501
0.10366686
-0.07811670
0.22430897
-0.23026533
-0.02520317
0.16384518
-0.01805669
-0.15484713
-0.14898545
-0.01210046
0.14383972
-0.02949835
-0.03110302
0.07763798
-0.01802672
-0.04431500
0.04904013
0.06342444
-0.07293200
-0.02701049
-0.02973793
0.10420859
-0.05471158
-0.13289142
0.03776933
0.01893780
0.04121212
-0.04568090
-0.10137708
-0.12906149
-0.08738172
-0.26735193
0.20303470
0.03700086
0.07454232
-0.04495522
0.07731966
0.07735208
-0.03949428
0.06140884
-0.07533771
-0.00711751
0.07595993
-0.07560012
-0.00424362
-0.02781498
-0.09882323
0.05964909
0.10845442
0.15544631
0.02306591
-0.00670854
-0.12000484
0.02010307
0.04616468
-0.02799384
0.04519788
0.04072735
0.00052496
0.10993665
0.04959036
-0.07688653
0.05594084
-0.18812507
0.07760323
0.03602761
-0.04716911
0.05208695
-0.00547368
-0.08660024
-0.02347047
0.06345908
0.10451510
0.20499453
0.00227772
-0.15957722
-0.06255772
0.02262115
-0.08429962
-0.09549431
0.01166046
0.15552491
0.15759580
-0.09729229
-0.04390262
0.03136550
0.00823999
0.01590456
-0.05258751
0.02723503
-0.01864595
0.15221900
0.05863341
0.06907814
-0.11839504
0.00639641
0.09401878
-0.14240791
0.02429937
0.01735265
0.09164499
0.02503304
0.14000238
0.05344439
0.09065849
-0.13780785
-0.06084152
-0.19066785
0.09519085
-0.08523729
0.14579457
-0.01918007
-0.13627534
0.25578240
0.02754445
0.18487279
0.12113544
0.07577626
0.07217753
0.06201663
0.13069791
0.05286040
-0.12278995
0.18223119
-0.22414947
-0.26174220
0.15218759
0.11424959
-0.04266926
0.18406734
0.12045866
0.05160498
0.15910353
0.20493957
0.01479737
0.09906995
0.09588325
-0.09476187
-0.05325361
-0.05598353
0.11635838
-0.06320191
0.12508151
0.06007108
-0.11369599
0.22690593
-0.08438026
0.17278904
0.11914090
0.14035347
-0.02575264
-0.00447818
0.12153815
0.00362452
-0.09171623
0.11220144
-0.12838857
-0.30801812
0.09896468
0.14739992
-0.06036130
0.13923705
0.16629560
-0.04076482
0.06558035
0.19566281
-0.12665550
0.04415923
0.03819445
0.00524812
-0.12707989
-0.08202090
0.12282026
-0.02189432
0.07572653
0.12555064
-0.13818365
0.21727499
-0.15368932
0.17975767
0.04868621
0.18940967
-0.07408590
-0.08598486
0.18108568
-0.07151651
-0.01117389
0.09316598
-0.05905866
-0.38802230
0.01509369
0.25709715
-0.02235094
0.23836286
0.07747930
-0.12059766
-0.07296117
-0.00345644
-0.02841889
0.10096898
0.07987145
0.19671690
0.05994772
-0.15586706
0.06738731
0.00435147
-0.01442607
-0.14453290
-0.02496536
0.02790680
0.03277062
-0.03470328
0.05603714
-0.05393746
0.08144464
0.08694819
-0.09279246
-0.07683454
-0.05185800
-0.03820950
0.02659642
0.01216858
0.06429082
0.06104239
0.01062018
0.04746782
-0.02723254
0.15569666
-0.09132741
0.09232286
-0.12856051
0.00549678
-0.02062736
-0.00321282
0.07511722
-0.04185341
-0.05699255
0.10663415
-0.09119754
0.00184525
0.14261666
0.01405238
-0.09694603
-0.16330023
0.10188352
0.20812394
-0.12227760
0.08559869
0.09452012
-0.14322181
-0.04788852
-0.12162224
-0.08954059
0.05938433
0.05834647
0.03697080
0.05052352
-0.14090399
0.06503877
0.04592946
0.07259878
0.00454680
-0.01063251
0.05688190
-0.01847484
0.07202276
0.11750709
-0.09883936
-0.06395708
0.14293958
-0.10130634
-0.09193124
0.18759814
-0.13897629
-0.16536045
-0.16653334
0.09365994
0.11063974
-0.06223639
0.06377763
0.02643942
-0.21334314
-0.12744541
-0.12262454
-0.15006244
0.16375712
0.04078478
0.07257418
0.05061175
-0.20067395
0.16035143
0.04170836
-0.00054179
0.09679395
0.02289211
0.04008501
-0.01736786
-0.06203360
-0.07660422
0.12909588
0.02193932
0.22671115
-0.03814963
-0.00009538
0.18541969
-0.17666049
-0.21705410
-0.17987756
0.05261256
0.09890077
-0.02851433
-0.04541260
-0.00850611
-0.25773260
0.07905666
-0.27748770
0.00376341
-0.15453692
-0.04171028
0.00908327
-0.14288755
0.00714679
-0.03284935
-0.03306227
0.06918437
0.27338096
0.06207515
0.11475343
-0.14736092
-0.13100581
-0.10106146
0.09848082
0.01242768
0.32826337
-0.10196951
0.05734025
0.24035254
-0.26711750
-0.30753458
-0.16613774
0.10854217
0.19478396
-0.01072036
-0.02580099
0.07369598
-0.28820208
0.13697384
-0.39158383
0.04716912
-0.11701927
0.05088840
0.07426730
0.02567960
-0.01732476
-0.03526123
0.05458508
-0.04447099
0.11688277
-0.03296653
0.07428190
0.14792269
0.18012542
-0.08150838
0.04115981
0.07398287
0.29955813
-0.06655543
-0.03405069
0.13436146
-0.30379626
-0.22804192
-0.12918934
0.00392447
0.22604567
0.05084132
-0.05130730
-0.06352352
-0.28292122
0.06390487
-0.31058431
-0.01830300
-0.16907477
-0.24677837
0.11313306
-0.10005874
-0.06646274
0.08430261
0.02862624
0.00352854
-0.15750535
0.07100504
-0.02738269
0.00382808
0.03234697
0.04183865
-0.23260948
0.26897329
-0.21089593
0.25325498
0.18014096
-0.24592663
0.03652306
0.10961385
0.28271702
-0.24708411
-0.29384297
-0.08278718
0.11078776
0.06254732
0.39194372
0.16706684
0.19671114
0.09828010
-0.23237644
0.00951073
-0.06724012
0.00976388
0.33213651
-0.12142549
0.11724716
-0.03170727
-0.15800425
-0.01164313
0.07010788
0.12728336
0.21242480
-0.00145014
-0.18394344
0.15804470
-0.15153044
0.20005460
-0.17622405
-0.23488495
0.08149759
0.22306502
0.11042120
-0.20946747
-0.25712204
0.11037361
0.06031621
0.00634611
0.34161767
0.24151233
0.24703532
0.12634052
-0.16790259
-0.10019877
-0.09300064
-0.18285124
0.23570462
-0.28835964
0.16209681
-0.00057806
0.05158785
-0.04392021
-0.06905020
0.14587823
0.09559640
-0.12793380
-0.06877053
0.03207482
-0.18082580
0.04028599
-0.16758268
-0.08908840
0.15888657
0.16247278
-0.02026240
-0.10413138
-0.06094189
0.09235726
0.10053252
-0.10804024
0.12906584
0.06527252
0.10897823
0.04554549
-0.11025792
-0.12611796
-0.04069596
-0.13236867
0.05514702
-0.17851123
0.18977566
-0.13597324
-0.09378200
0.12881172
0.02844601
0.00675816
-0.17278968
0.08038609
0.00963016
0.04262091
0.09741177
-0.03798486
0.14306889
-0.00837532
-0.26159218
0.03730505
0.01033690
-0.02559436
0.05541616
-0.10907230
0.06164471
0.18383062
-0.00294195
-0.16344860
0.03810062
-0.12642550
0.10602894
-0.01392549
-0.06213337
0.08446389
-0.07472940
0.05757038
-0.07694907
0.05936148
-0.07238505
0.04729107
0.04252423
0.00595418
-0.06703798
-0.04372660
0.08434953
-0.02946873
0.08425282
-0.04453562
-0.02581860
-0.03805512
-0.13178886
0.05881300
-0.11019578
-0.05458076
-0.05122168
0.03477920
-0.06632930
0.09675679
0.02161791
-0.06974040
-0.03085008
-0.04170656
0.02577315
0.10740124
-0.05226587
0.01180255
-0.06370398
-0.04697594
-0.05777710
0.12302370
-0.17394590
-0.07188386
0.07575817
-0.09180660
0.08394646
-0.04286112
0.07549314
-0.01132255
-0.01160282
-0.06130825
0.08585646
-0.03149277
-0.04557597
0.13542290
-0.10949406
-0.02682311
-0.08722156
0.00750359
-0.17018215
-0.05931069
0.12894563
-0.04766881
-0.01366338
0.09314034
0.06437872
-0.12129796
0.07343435
0.02237625
-0.12240737
-0.06972940
0.00811839
0.07074963
0.12195300
-0.06012342
-0.15248153
-0.04285409
0.04217141
0.04606212
-0.10254576
-0.03203346
0.00543893
0.01703344
-0.14673102
-0.01862439
0.20002952
0.14578222
-0.00384473
0.07830167
0.07193946
0.15846522
-0.07881133
-0.01902955
0.10427633
0.14798281
0.04001037
0.01291101
-0.00139459
-0.08116778
-0.10367744
0.01650740
-0.03257118
0.09957618
0.02104955
0.08855052
0.03039513
-0.07738965
-0.04329827
0.01738361
-0.01505245
0.02272527
-0.06437328
-0.04142747
-0.09060812
-0.06377558
0.14453354
-0.07402786
0.13011077
0.04802251
0.05074199
0.05654737
0.03173804
-0.06671434
0.14398451
-0.05851009
0.11795672
-0.06632864
0.14170219
-0.00287746
0.03720164
0.14793856
0.09306587
0.05323844
-0.00332992
0.16003585
-0.17769584
-0.02540825
-0.11001049
-0.01057099
0.02783003
0.05124360
0.00723854
0.14608918
-0.12307874
-0.06571944
0.11333703
-0.09449284
0.07394113
0.08073764
-0.08324736
-0.03229006
-0.02727595
-0.09264992
0.05555553
-0.02044372
0.32243058
0.00434727
0.06992741
-0.08076852
0.05429117
-0.01740313
0.12469748
0.13101970
0.09700578
0.04762083
-0.09208167
0.04953723
-0.04565284
-0.09603973
0.06006022
-0.00356655
-0.00804708
-0.08416909
-0.08129688
0.00246936
0.16692756
0.04309735
-0.03489151
0.00941171
0.06509324
-0.00382242
-0.01077735
0.04210705
-0.00512291
0.07425120
0.03904167
0.10175239
-0.04205605
0.06123269
-0.03008045
-0.04451614
0.10511728
-0.00834595
-0.07189617
0.03498319
0.05451429
-0.01779992
-0.05985720
-0.02701804
-0.09702333
0.13142338
-0.01357638
-0.00280015
0.09219290
-0.10147039
-0.06141534
0.02715190
0.10352175
-0.00232351
-0.09836797
0.03749869
-0.00603286
0.05751500
-0.05127702
-0.06120466
0.05028773
0.06038601
-0.05510830
0.12409092
0.03523746
0.02207440
0.01460595
0.01739842
0.02136308
0.00669844
-0.01345477
0.08781609
0.10474190
-0.00367934
0.07295426
-0.00126280
-0.03199205
0.02378957
0.01366514
0.06723944
0.09696337
0.09869073
-0.01463568
0.09900492
0.00331683
0.04086404
0.07206412
-0.04482805
-0.08700888
-0.00918832
-0.02319393
-0.09312639
-0.00482892
-0.01094063
0.01918986
0.07259706
0.04879287
0.10241051
-0.08792357
-0.06716790
-0.01753141
0.07960354
-0.12224544
-0.00575211
0.12999539
-0.02323213
-0.01787008
0.07734983
-0.07513520
0.00351125
0.08179386
0.03035879
0.06257346
0.02356253
-0.02405233
-0.05376965
0.18806092
-0.04376201
0.19190288
-0.06615525
-0.01134015
0.16509567
-0.03175485
-0.23270160
-0.13520218
0.08751653
0.18342422
-0.05096567
0.07160830
-0.00648600
-0.23983067
-0.06357096
-0.18397848
0.02012680
0.08095963
0.05236025
0.05851829
-0.04038144
-0.09627002
-0.03515100
-0.00086223
-0.05091871
0.26357812
-0.01161411
0.00205161
-0.10516635
-0.17575479
0.03424236
0.11007584
-0.12155727
0.27279845
-0.20529298
0.11097671
0.25887799
-0.04383684
-0.28441635
-0.07591286
0.16541381
0.12561190
-0.02987586
-0.04080024
0.02055745
-0.36625615
-0.05549287
-0.22353037
0.02547457
0.05032345
0.02704583
-0.00008176
-0.04371667
-0.16734502
0.03271228
-0.04567349
0.08943287
0.13286799
0.01560139
0.04552019
-0.02138270
0.00499267
0.01514941
-0.00787386
0.05223978
0.16529755
-0.02220286
-0.02097442
0.15491357
-0.11554708
-0.19733857
-0.02672433
0.08020912
0.11934630
-0.04865124
-0.01130162
-0.01018606
-0.27792665
0.07568759
-0.19197559
-0.10632230
0.00630689
-0.00162132
0.05987467
-0.16228916
-0.02825183
-0.03326038
0.07116337
0.01242928
-0.02161910
-0.15416242
0.04081742
-0.02356790
0.00047828
-0.02816259
0.00248220
0.00848080
0.05232744
-0.07786529
-0.16558625
0.20156418
-0.11225344
-0.12703662
0.10111343
-0.03848532
-0.14690219
0.01828220
0.03716980
-0.21661559
-0.06078360
0.12539159
-0.01151002
0.12045835
0.08279877
0.07477307
0.07150536
-0.17446484
-0.07366699
-0.14206710
0.06599907
-0.26380795
-0.02302031
-0.12128196
-0.07627326
-0.02947418
0.01274155
0.05933860
0.04768870
-0.14313997
-0.02096117
-0.19371878
-0.04765065
0.25316060
0.00675772
0.06386919
-0.05345314
0.01296326
-0.00319398
-0.11828449
-0.07728987
-0.11993252
-0.08167599
0.10496803
-0.12661476
0.06897567
0.14877149
-0.03173218
-0.05001963
-0.08283523
-0.21980643
-0.01640655
0.00321601
0.00360725
-0.01903744
-0.05350810
-0.12118281
-0.17398566
-0.17566185
0.07700890
0.01528862
-0.16757734
-0.06387418
-0.10081711
-0.03150042
0.14186305
0.06143361
-0.07030091
0.03645699
0.10124163
-0.09141096
-0.02219672
0.00096105
-0.09986965
-0.13206393
0.13208015
-0.01452122
0.03226427
0.17220859
0.04234618
-0.03474929
0.04727641
-0.16159502
-0.11533422
0.04315969
0.04789072
-0.11368483
0.04640480
-0.12115546
0.00472258
0.08043338
-0.08708096
-0.05727141
0.21960771
-0.01656301
0.21785900
0.03454217
-0.21665356
-0.17462616
0.00379446
0.15154234
-0.25373849
-0.18033160
0.04959422
0.09013310
0.06988242
0.24750765
-0.04244906
0.06458163
0.03850434
-0.14985569
0.06277373
-0.05114148
0.03561545
0.21702482
-0.09640711
-0.20067553
-0.05833725
-0.02904687
0.00294710
-0.06142902
0.03691056
-0.00943777
-0.00951290
0.10328441
0.15721789
0.13436161
0.06578869
-0.17204145
0.11719473
-0.18163869
-0.18765508
0.01079074
0.01897428
-0.04560740
0.06712720
0.12232347
0.01113711
-0.03681774
0.13037425
-0.15209524
-0.06146335
-0.06976172
-0.00459937
-0.14563181
0.00177601
0.01969686
-0.14398040
-0.09983309
0.01775005
0.07597529
-0.11219721
-0.15442215
0.06889667
0.25269726
0.04737704
0.19144741
-0.03473594
0.27956855
-0.10469902
-0.39432457
0.17878167
-0.18178742
-0.13429251
-0.28643522
0.02535801
0.27986878
0.05337521
-0.06609102
-0.03805462
-0.19986750
0.02998357
-0.27995306
-0.01571132
-0.01142328
-0.32157496
-0.15613312
-0.01850820
-0.13109687
0.06115938
0.10906084
0.13155979
0.06545645
-0.00808849
-0.15053707
-0.07809277
0.00075478
0.00485085
-0.00267142
-0.05435685
0.05460205
-0.05095495
0.06692651
0.14168404
0.04327010
-0.08827511
0.00023877
0.02123890
-0.00746954
-0.13152659
0.05095464
-0.09828486
-0.06472219
-0.02305141
0.02111959
0.10137526
0.09375694
0.10684600
0.11353246
0.06415484
0.03853431
0.06058993
-0.09703898
-0.06066146
0.12739308
-0.05038462
-0.05181215
0.00397041
0.04378348
0.08184521
0.09620279
-0.20669974
0.08645932
-0.14592865
-0.11653385
0.19479187
0.11962886
0.11570495
-0.27254555
-0.05238947
0.23724259
-0.03112762
-0.10737233
-0.05014038
0.01075673
0.19051701
-0.11820210
0.00944100
0.08289517
-0.14885131
-0.06666566
-0.14817978
-0.19124337
0.00114088
0.16294713
0.13385174
0.03633646
0.06582857
-0.01676045
0.10240877
0.05573159
-0.03399761
0.10728194
-0.27883235
0.01665526
-0.33403516
-0.19859162
0.23309463
0.21592081
-0.01317604
-0.37877882
-0.07746527
0.17774062
0.14826342
-0.00489165
-0.07646326
-0.15421180
0.11542802
-0.03091872
-0.02211587
0.23211844
0.06352796
-0.04775476
-0.04798275
-0.31748736
-0.08893529
0.14663687
0.06552804
-0.14183351
0.10859916
-0.06898387
-0.10255998
-0.22683896
-0.05820068
0.10021460
0.08269052
0.05000994
0.07772963
0.23747103
0.03962007
-0.22759464
-0.16619463
0.02430314
-0.01789613
-0.03959863
-0.15363799
-0.06241005
0.24422367
-0.02398881
0.02637619
-0.11401822
-0.08340078
-0.00108448
-0.01268422
0.06942826
-0.01446786
-0.08885209
0.06779518
-0.11694571
0.11492757
-0.10199666
-0.04647778
-0.04380235
0.07094076
-0.04974004
-0.05103236
0.04242163
0.13449158
-0.04607838
0.08641097
0.05831855
-0.11116417
-0.08819611
0.02202444
0.05837796
-0.07407219
-0.09460306
-0.04754605
0.01327151
0.01401499
0.06965166
0.11751631
-0.01580917
0.05576061
-0.12331119
-0.04182554
-0.00190123
-0.11116298
0.07457500
-0.14550687
-0.10916875
0.03606311
-0.00014097
-0.04125918
0.02982910
0.00398421
-0.02686984
0.00909440
0.04515798
-0.00215229
-0.09474498
0.10324163
0.02471137
-0.05676487
0.08158275
0.09579945
-0.00243622
0.00602060
-0.06542662
-0.00081410
0.07158534
0.00401175
0.11820970
0.11989921
0.05350881
-0.04938738
-0.10078797
0.08103549
0.02622594
-0.08138468
0.11912523
-0.11347453
-0.05903975
-0.03544233
-0.05749570
-0.07783382
0.18110153
-0.02903640
0.18701248
-0.03843110
0.01065783
-0.06815422
0.04453171
-0.04771431
-0.08448561
-0.00969726
-0.05229563
0.03523581
-0.07155465
0.00640639
-0.09058654
-0.04093040
0.14100227
-0.07025464
0.02391670
-0.03320460
0.04651347
0.08924498
0.14903507
0.01539048
0.05753364
0.05217466
-0.10714778
-0.02250879
-0.00015161
-0.10179469
-0.08696242
-0.00607759
0.03163395
0.08984916
0.10059071
-0.07919862
0.01996801
0.10375451
0.02017161
-0.03480307
-0.13162723
0.06742851
-0.07766803
0.00983305
-0.00907472
-0.07920120
0.05415550
-0.01709286
-0.05073343
0.04621560
-0.05100138
-0.01907922
-0.05938247
-0.01031840
-0.00797413
-0.19209179
-0.14427276
0.06777373
-0.01351507
0.02771148
0.06560673
0.05670747
0.05999145
-0.06374539
-0.11674600
-0.20236549
-0.02988461
-0.09668443
0.14757532
0.10584877
0.02884274
0.04576987
0.07652559
0.07266267
-0.02237133
-0.01372505
0.11372372
0.05812617
0.01278378
-0.04955528
-0.11540534
0.07831035
0.02883571
0.01936286
-0.05808049
0.04260138
-0.08978432
-0.00444357
-0.00615957
0.14666447
0.11474011
0.07766155
-0.02902661
0.13077989
-0.11923960
-0.04364306
-0.14426313
0.01417096
0.11032704
-0.02211416
-0.17978433
-0.04947762
-0.16468011
0.03643937
0.03221778
-0.04896078
0.09901490
0.18892400
0.15991414
-0.29118192
-0.15669344
0.07655256
0.16168794
-0.09345602
0.20531000
0.04149143
0.10392570
0.10221922
0.03540392
0.17792676
-0.03779355
0.02580791
0.14241186
-0.14628398
-0.07188700
-0.16294290
-0.18152811
-0.06083935
-0.11130691
-0.03370146
0.30184117
-0.13840228
-0.18437716
-0.09026642
-0.23638734
-0.04711793
-0.10233379
-0.21610604
0.20392869
0.30157730
0.05139061
-0.23562607
-0.15706916
0.07498294
0.09239343
-0.08498953
0.37088558
0.05930835
0.28724134
0.10392173
0.10791962
0.07060897
-0.00739231
-0.16453177
0.00751226
-0.13227591
0.11943128
-0.13521074
-0.17291786
0.05655517
-0.11282934
-0.02517330
0.07664378
-0.13239279
-0.11666530
-0.18619169
-0.16664346
-0.10796525
0.07448933
-0.08724458
0.19157836
0.22318003
0.07938174
-0.23799165
-0.11025680
0.10696704
0.10830585
-0.08246343
0.29344577
-0.00129071
0.30338058
0.02959726
0.16258836
0.25691184
0.01042695
-0.03490306
0.03482049
-0.07956155
-0.01235532
-0.18075924
-0.03899594
-0.12589230
-0.02609524
-0.03817230
-0.05427307
-0.05926881
0.05252746
-0.00217626
-0.00781737
-0.10201832
-0.02475553
0.06063600
-0.02893034
0.09384074
-0.03427590
0.05736152
0.06129465
-0.06541703
-0.04728494
0.06684736
-0.00922394
0.02973845
0.02461770
-0.08201803
0.12814848
-0.05777982
-0.03194223
0.07262808
-0.10707726
0.03307118
0.00776079
0.03114160
-0.09823474
-0.12870382
-0.04980889
0.03213921
-0.03075790
-0.02875904
-0.02097985
0.03204336
0.03570812
0.02701790
0.02444184
0.04534089
-0.09424776
0.04451825
0.00964929
-0.06640392
0.02057888
-0.03756518
-0.00729460
0.00729837
0.01513468
-0.10978361
0.09404424
0.00613788
0.11105423
0.00044621
-0.06301218
0.07891065
0.01009181
0.00346896
-0.04333153
-0.01949670
-0.11067434
-0.01550583
-0.07801377
-0.04733685
-0.00838909
-0.07323445
0.02122534
-0.04391645
0.09307721
-0.00772743
0.09228065
0.03579937
-0.09088396
0.03925750
0.00645570
0.00056556
-0.07871268
-0.10860745
-0.04398981
0.02605950
-0.02085919
-0.10976724
-0.05297913
-0.00775747
0.02797576
-0.03102943
0.03503975
0.13267206
0.06251460
-0.05064410
-0.04871396
0.01819925
-0.05705055
-0.01618812
-0.06983253
-0.09367885
-0.14313805
-0.08786210
0.21143448
-0.04758618
0.13141817
-0.13301191
0.11364095
0.03126992
-0.25795969
-0.05972955
-0.11801486
-0.04069450
0.04149055
-0.24850751
0.05280258
0.13873285
-0.02663845
0.07244435
-0.15961096
-0.04214163
0.07143044
0.04183585
0.00033796
0.05021041
-0.07983039
0.04763447
-0.12074632
0.01943496
-0.08684698
0.00636539
-0.07884990
0.01499759
0.02596954
-0.05586634
0.10476946
-0.00087962
0.11236628
-0.03363141
-0.11273575
-0.05721198
-0.17899384
-0.01111312
-0.05974192
-0.08567569
-0.02650201
0.03964620
-0.02045592
0.10900426
0.13367288
0.14900453
-0.04446993
-0.07867713
0.04156987
-0.04960370
-0.18531102
0.01923677
-0.09033815
-0.10337923
-0.08203031
-0.00520271
-0.12606309
-0.08334700
-0.24161522
0.01135106
0.24263093
-0.11041259
0.05568840
0.07438428
-0.14240082
0.02511889
-0.03103594
-0.10480852
0.00700913
0.12293252
-0.07246853
-0.11101553
-0.10471138
-0.03647116
-0.18887159
-0.07853010
0.22626565
0.00005187
0.02290787
0.08791828
-0.00195291
-0.19348422
0.04437369
-0.02478809
0.02436053
-0.05942749
-0.06295899
-0.01026511
-0.03492668
-0.09683284
-0.04556209
-0.00516546
-0.14423496
0.04352466
-0.00760140
-0.04122946
0.04804574
-0.00138742
0.21431345
0.02844989
-0.16538832
-0.14715180
0.09995293
0.09626942
-0.15005678
-0.08215959
0.01253366
0.07560844
0.02692800
-0.01011025
-0.04017215
0.01826065
-0.12544015
0.02395312
0.22020659
0.04870534
0.09143239
-0.00763710
-0.18799265
-0.05425445
0.14082350
-0.00891184
0.05902263
-0.01460003
0.18200645
-0.06066916
0.03096763
-0.00145865
-0.01752444
-0.05861634
-0.11511254
-0.02258145
0.12453228
0.26188290
-0.10782523
-0.03565990
0.12948389
0.16920495
-0.09452575
0.18852451
0.11767211
0.35612729
0.04965284
0.11164098
-0.11373984
-0.17324549
-0.09875744
-0.21435928
-0.04980635
-0.16503316
0.21374179
0.22537540
0.03225758
-0.11477716
0.15115625
-0.05107879
0.14569482
-0.11133431
-0.06641597
-0.12624855
-0.19315721
-0.18942279
-0.09785522
0.03699885
0.43223476
0.37814540
-0.14094870
-0.07208280
-0.05838511
0.29393220
-0.02562698
0.02215030
0.10061517
0.28104997
0.33168542
0.01794983
0.09760420
0.02354536
-0.07206302
-0.12184957
-0.13446289
-0.28418788
0.16794389
0.01753877
0.03376285
0.00122369
-0.01098617
0.03016652
-0.07277689
-0.00995880
0.10385468
-0.12087420
0.20060775
-0.17623003
-0.09208499
0.11291869
-0.04701896
-0.09483337
-0.24529020
0.11340475
0.06046059
-0.02564466
0.03919668
-0.09963991
-0.27145156
-0.02716870
-0.12125130
-0.05062604
0.14893572
0.07388533
0.01183422
-0.04479511
-0.24742649
0.00085760
0.01331958
-0.05164330
0.16252081
-0.06744836
-0.07061395
-0.12307636
-0.09749697
0.00943673
0.28713423
-0.14248611
0.26864290
-0.21973923
-0.05875147
0.31365693
-0.12451468
-0.19771238
-0.22963803
0.07701138
0.21254794
-0.00615906
0.03030561
0.02136210
-0.31936398
0.06804121
-0.28384298
-0.08097571
0.16996963
0.01325298
-0.09416547
0.01674515
-0.28518671
0.00318721
-0.00172850
0.10530668
0.01859282
-0.10355220
-0.03416711
0.01904302
0.06007412
-0.00258203
0.15079828
-0.18205899
0.18217036
-0.19073910
-0.12551598
0.17607434
0.01144086
-0.03446908
-0.18050906
0.07599283
0.16661917
0.00163332
-0.05476921
0.03369375
-0.24796602
0.01560232
-0.09812029
-0.06354998
0.12317888
-0.03579733
-0.12873784
-0.03266191
-0.19522387
0.14362259
0.01139951
0.12108659
-0.14754218
-0.00762786
-0.08475126
0.06520997
-0.03218984
0.00036201
0.00821417
-0.06785967
0.07485480
-0.07316822
0.09497447
0.10222067
-0.11837185
-0.06569088
-0.01694556
-0.14174108
-0.10657490
-0.10961542
0.22635350
-0.04322553
0.02827362
-0.12888402
0.08247950
0.17735118
0.19410650
0.21653800
0.24525462
-0.05528795
-0.16283482
-0.08709560
-0.13556316
-0.25218019
-0.13384090
-0.00432730
0.00536395
-0.07721514
0.01042463
-0.07006810
0.14423501
-0.14020287
0.02117494
-0.16376673
-0.06298763
0.12849681
-0.11910990
0.08001712
-0.21797654
-0.00102024
0.00781629
0.07624758
-0.03020867
-0.00669696
0.00868008
0.16960457
-0.01859677
0.06707034
0.23160926
-0.09713215
-0.03632496
-0.13986491
-0.26172519
-0.04579672
0.01062900
0.14830168
-0.10686698
0.07067117
-0.03575233
-0.03816467
0.11643203
-0.01935338
0.03459631
-0.18756451
-0.09495115
-0.10173984
-0.11072247
0.04977920
-0.02361696
0.05614744
-0.17673807
-0.02544744
-0.06696865
0.13201441
-0.11812746
-0.07926545
0.07522967
0.13469373
0.08095308
0.15913947
0.14834905
-0.02678768
-0.05935017
-0.08093625
-0.12207340
-0.07790621
0.08627630
0.04634056
-0.11543623
0.03872216
0.02840166
0.08572073
0.24546690
0.03135123
-0.03828737
-0.04288305
0.05932213
-0.11095913
-0.30203766
0.00564997
-0.15633883
0.00759406
-0.11845046
-0.11260074
-0.01245545
0.03883444
0.08572984
-0.03690073
0.06283252
0.01304026
-0.01048188
-0.08646058
0.22747786
-0.12558399
-0.04865119
-0.04357649
-0.13818210
-0.16442221
0.12560143
-0.00733210
-0.10348283
-0.05179995
-0.19804497
0.07399078
0.16152295
-0.03765285
-0.02959143
-0.06095288
0.03948947
-0.06029449
0.01005296
-0.07307003
-0.10423684
-0.00956341
-0.03227207
-0.16819613
-0.01940066
-0.07216876
0.03112544
-0.08415684
-0.03071891
-0.16677944
0.04341198
-0.06811215
0.13263446
0.02585277
-0.17190506
0.12346371
-0.07321445
0.10755740
-0.02564023
-0.06277093
-0.02130934
-0.10771722
-0.10079761
-0.18556421
-0.07458018
0.09650359
0.08555241
-0.05570232
-0.00221657
-0.03510820
0.10211591
-0.02415479
-0.12391587
-0.05675283
0.00586944
-0.04042089
-0.05956231
-0.18982476
0.03951286
0.14887485
0.06242249
-0.16315965
-0.01233194
-0.17116477
0.03134146
0.03274012
-0.07217968
0.27916250
0.01654277
0.04946434
-0.20665982
0.08542775
0.11256269
-0.12399609
-0.22084664
-0.01179452
0.15185079
0.08348712
-0.14825484
-0.14951107
-0.15365437
-0.06602471
0.01963740
0.05495529
0.14927059
0.24041453
-0.02296696
-0.04710136
0.07349540
-0.07075423
-0.00319084
-0.08895582
0.09175050
-0.05139552
0.18212985
0.01940626
0.02916127
0.00122564
-0.04371373
0.10956997
-0.01722580
0.07237959
-0.14797151
0.01758696
-0.03100989
0.00798689
-0.00828735
0.04688452
0.17878774
0.00564236
-0.08852185
-0.15031666
-0.14374623
-0.08674636
-0.05388877
0.04745652
0.25874388
0.28372994
-0.04504180
-0.16246638
-0.06764556
0.05704981
0.09424555
-0.02294880
0.12767743
0.03230786
0.26888707
-0.01523183
0.12490186
0.05530544
-0.09764265
-0.00274762
-0.00574970
-0.08012144
0.06076588
0.04192385
-0.04981244
0.06071239
-0.15384312
0.02161395
0.18691634
-0.09543718
-0.10841233
-0.09099494
-0.23985237
-0.11784818
-0.04978997
0.05492709
0.28635284
0.31980318
-0.01079054
-0.10943308
-0.11288398
0.12586053
-0.00526298
-0.04858422
0.24643663
0.09502899
0.19933559
0.02604918
0.08995046
0.07923287
-0.09408348
-0.10230638
-0.04426158
-0.16433811
-0.00316892
0.00547955
-0.26069635
0.03546143
0.01565128
0.01246932
0.10331897
-0.01757815
0.03930900
-0.05064017
0.03079407
-0.12349528
-0.11404617
0.11046781
-0.13654916
0.04677387
-0.05871666
-0.01991068
-0.11357287
-0.01939006
0.15642130
-0.13571306
0.01232657
-0.12681283
0.01970696
0.08449424
0.22762538
0.02964787
0.01087476
0.04673421
-0.16536099
-0.12093248
-0.06266484
-0.07706990
-0.05559791
0.01738572
-0.13868935
-0.08257768
0.11565877
-0.04487158
-0.00386806
-0.11378993
-0.01449280
-0.03501050
0.02584210
-0.02878751
-0.09093764
0.13311052
-0.02668243
-0.07341146
-0.02461289
-0.08007958
-0.02238193
-0.03895079
0.06739064
0.01000550
0.01945878
0.10445645
0.09712174
-0.07991606
-0.17570385
0.09366263
-0.10350253
-0.00063731
-0.07481522
0.01325856
0.07557277
-0.02039678
-0.12136728
-0.19783017
0.05954259
-0.00941823
-0.00771820
-0.01374661
-0.05435947
-0.08354949
0.20146230
-0.01483012
0.09960624
0.19332755
-0.04055026
-0.04543995
-0.06171749
-0.10030708
-0.07382526
0.01097931
0.15984465
0.04786076
0.06342504
0.11144496
-0.03438195
-0.08557537
-0.04741512
0.09289090
0.03607119
0.00041061
-0.13544255
0.08895879
-0.00915899
-0.11460899
-0.03039821
-0.05981606
0.01468081
0.07985914
0.13362703
-0.36966756
-0.03847393
-0.27206782
-0.09606028
0.22168194
0.06733974
0.11874736
-0.20092693
0.16253722
0.21689731
-0.11093354
0.25651228
-0.12145865
-0.18103792
-0.16154467
0.07385030
0.02627281
0.34363002
0.29105151
0.07833771
-0.02736094
-0.35512266
0.19970809
-0.02627050
-0.08015557
0.08536757
0.01191751
-0.09325573
-0.08496558
-0.23319387
0.11813199
0.13301817
-0.40273425
0.09869626
-0.33970043
0.04982847
0.31360310
0.19853167
0.09624892
-0.15216936
0.15277858
0.30451098
-0.08616373
0.20930010
0.02502859
-0.21362221
-0.18094775
0.11991632
-0.12632278
0.32248688
0.20899028
-0.10311098
0.12848108
-0.29686961
0.22076093
-0.10546413
0.07281404
0.03877010
0.05619777
-0.10655422
-0.08387262
-0.17302285
0.21268174
0.01437811
-0.30360696
0.03120825
-0.30388659
-0.02654273
0.23235002
0.11534153
0.12154070
-0.20537780
0.11122665
0.21944626
-0.13478333
0.23302741
0.16134638
-0.09042864
-0.14909817
0.05082162
-0.17164148
0.25836578
0.20915383
-0.17999493
0.06697046
-0.27099699
0.20339282
-0.03231442
0.11887059
-0.08183360
0.00449794
-0.02731507
-0.15156524
-0.01251008
0.07890719
0.14601147
0.08285037
0.15539697
-0.08894248
-0.01164872
0.13173024
-0.26891568
0.04637687
-0.19537640
-0.04351836
-0.01802115
-0.06673204
0.03976062
0.12781747
-0.00317265
0.13365254
-0.05782834
-0.14836301
0.04127838
-0.17685056
-0.14285645
0.01326547
-0.15222257
-0.11468948
-0.05693140
0.13273929
-0.13331932
-0.04827212
-0.03189767
-0.01204951
0.14294328
-0.03306804
0.12735997
0.00799074
-0.10689119
0.03245264
-0.14245383
0.04713699
-0.10953585
0.05889400
-0.04294585
-0.08373958
-0.08976731
0.02172802
0.00323059
-0.03506574
0.10615453
0.13409781
0.11069358
-0.03727236
0.07328022
-0.02848237
-0.29032534
0.06762651
-0.05264646
-0.18563071
-0.01874493
-0.07094037
-0.03310939
-0.15803453
-0.07124081
-0.02901712
0.15699959
-0.07775492
0.06605172
-0.02602122
-0.11625952
-0.06634413
-0.06700269
-0.04738360
0.11492182
0.23467107
-0.00611458
-0.01983805
-0.07874873
-0.07999748
-0.01746181
-0.11225668
0.24312001
0.06660497
0.07786096
0.05352968
-0.02541020
-0.10993282
-0.00189209
0.03386485
-0.11643208
-0.01893321
-0.07124493
0.01756360
-0.21281768
0.01264265
0.14928165
0.03998214
-0.01222341
-0.06033379
0.06926564
-0.01001544
0.09920843
0.07352936
-0.02311165
-0.09105543
-0.24953416
-0.12553377
-0.03010798
0.06748476
-0.01037092
0.02790689
0.12275019
0.01225527
-0.10786057
-0.10321464
-0.02714142
-0.14963642
0.11666319
0.12795067
0.09698573
-0.09458667
-0.07499394
-0.02760935
0.02258206
-0.02014008
-0.05125232
-0.07200249
0.05135892
0.02476122
0.02443818
-0.05175974
0.13425401
0.06346663
0.16386998
0.04301734
-0.00292531
0.05069629
-0.17493352
-0.08846255
-0.08525810
0.07868125
0.08092336
0.06186284
-0.08499829
0.03388967
-0.20385061
-0.04734505
-0.15237443
-0.11818201
0.00231664
-0.04345582
0.05893188
0.02230448
-0.04599573
-0.03958797
0.03144184
0.17702222
0.01329708
-0.05342728
0.05421865
0.03198494
0.02876687
-0.02939397
0.11356921
0.09973858
-0.00260739
0.11277702
0.00469111
-0.04444280
-0.16462640
-0.09652528
0.05386114
0.07807963
-0.00575130
-0.00192021
-0.15186109
-0.01201110
-0.12201115
0.02830141
-0.11775257
-0.10617241
-0.13029389
0.03372561
0.07660202
0.01830309
0.11812603
0.10883079
-0.05899738
0.00712507
0.01346403
-0.04422567
0.02484805
0.18392305
0.23308550
-0.10154764
0.00643804
0.03475098
-0.17223993
-0.02260764
-0.28997862
-0.06767975
0.19462495
0.22044206
0.04978271
-0.03490586
-0.17089814
0.24226913
0.08087865
-0.14599966
0.09471095
0.03630450
0.20457907
0.22051764
0.03721196
0.05299786
0.09748604
-0.26803640
0.13545017
-0.19439477
0.02531522
-0.22111008
0.03663504
0.02860427
-0.10991354
0.07496449
0.03937485
0.01514315
0.07016488
0.08011105
0.06001001
0.00515416
0.02574508
-0.02536941
0.02029201
0.01764846
-0.02799653
0.02627343
0.03660108
0.03364325
-0.03198834
0.09777171
-0.03485110
0.03200066
0.01947974
0.03474971
0.00984637
-0.01120451
0.03117046
0.00002245
-0.08665989
0.04105797
-0.06097373
-0.00023345
0.00286746
-0.01525186
-0.12681474
0.02901752
-0.15762645
0.12621856
0.01970981
0.07009642
0.22501345
-0.07806870
0.02161679
0.01198403
-0.24563773
-0.23245251
0.01327589
0.11809062
0.05050477
-0.08126789
0.14291906
0.19913703
-0.07855291
-0.08809258
-0.07022959
-0.01807362
0.00833965
0.19312118
-0.01222400
0.15076450
-0.02070191
0.22100967
-0.20531800
-0.13591984
0.15658820
0.00841466
0.00036698
-0.03094280
-0.19532833
0.06421462
0.06615526
0.01462100
-0.03555467
-0.02044121
0.16984953
0.02419636
0.23383069
0.14103216
0.05333703
0.04935722
0.00973818
-0.04188023
0.03526652
0.02169229
0.05091057
0.13220601
0.10224941
0.09037778
0.03657017
0.04518792
0.01559513
0.00465834
-0.03973262
-0.04075782
0.04583122
-0.04484200
0.01398799
0.05910600
0.16159733
-0.02796641
-0.07368783
0.03536977
0.07366331
0.06146717
0.00150148
0.05128516
0.01350340
-0.03594780
-0.00491593
0.01124125
-0.04705286
0.03377308
-0.03468509
0.03908938
-0.02383108
0.10488496
-0.09119350
0.16974184
-0.07608864
-0.03297285
0.05074276
0.08767625
0.10682071
-0.12433434
0.02619753
-0.15023345
0.16431059
0.02557817
-0.06119276
0.00614668
-0.04902591
0.23675369
0.04422272
-0.10827914
0.04875026
0.02164989
-0.00396994
0.05039525
-0.25766945
-0.04558209
-0.25068226
-0.05167311
-0.05011366
0.07749283
0.05778134
0.13220537
-0.04677864
-0.05849991
-0.08678180
-0.00877358
0.00346331
0.04468767
0.05757079
0.02559796
0.12086606
-0.11101512
-0.02665584
0.04838323
0.03332793
-0.04199913
-0.04143643
0.02828440
0.06378608
-0.05338460
-0.00908306
0.03126384
-0.15133688
0.37655741
-0.08588286
0.29221103
0.23283349
-0.24859922
-0.24956848
-0.12717636
0.46388978
-0.24357025
-0.19857545
-0.06939137
-0.01411618
0.08612790
0.14320314
0.03867056
-0.04319581
0.04901396
-0.29873762
0.01923983
0.13571222
-0.03423106
0.33549151
-0.06055570
-0.12896003
-0.12610537
-0.05998822
-0.01361369
0.10266259
0.04852333
0.14895715
0.06123135
-0.11750431
0.19866367
0.03153668
0.16229928
-0.18646830
-0.13285804
-0.19050063
-0.09431949
0.19777530
-0.07423314
-0.15011880
0.17034262
0.04648977
-0.04797375
0.16110721
0.23508552
-0.11434218
0.04388965
-0.18372832
-0.08229257
-0.06568690
-0.01698914
0.16478194
-0.21004605
0.12294521
-0.00611396
0.05336490
-0.02445276
-0.00713481
0.15495797
0.09237162
0.08371537
-0.02442597
0.01001768
0.10028719
0.00599626
-0.31029809
0.03178252
-0.06077499
-0.13287812
-0.10248403
-0.03820637
0.03634119
0.08950426
-0.00382557
-0.18149063
-0.06295031
0.11875033
-0.08801065
0.02166280
-0.06396413
-0.14665945
-0.04504295
-0.06333294
-0.07356808
-0.04259156
0.09082133
-0.00935692
-0.06321790
-0.12783033
-0.05424003
-0.07121316
0.01658473
-0.03824238
0.11003677
-0.04266142
-0.06010576
0.01423374
-0.06811741
-0.06143379
-0.02894467
0.04955156
-0.03342128
0.02495147
-0.13650471
0.07351442
-0.01551964
-0.11316945
0.07159123
0.05803087
0.03855475
0.16064297
0.06118516
-0.06807441
0.05524486
-0.10633217
0.00056544
-0.01221650
-0.07416121
0.01209717
-0.07023654
-0.10463122
-0.04786954
-0.07293206
-0.06159204
-0.01295604
0.04303550
0.03409771
-0.06342655
-0.04313155
0.06990527
0.04467195
0.01871619
0.09179027
-0.01735165
-0.05162644
-0.03093943
-0.04125101
0.04003711
0.02587066
0.10182350
0.12282095
-0.02919308
0.12942523
-0.05861287
-0.06517750
0.05444710
0.00142544
0.01387143
0.05238365
-0.12400284
-0.04888176
-0.06378333
-0.16903028
0.00071673
-0.01277516
-0.09123015
0.15320040
0.04501218
-0.04067057
0.04270008
-0.06901111
0.03770154
-0.02118165
-0.04401210
0.02748317
0.06359750
0.03745158
-0.01530210
0.02608364
0.09851620
-0.05085688
-0.01640068
-0.08876657
0.03401143
0.01342372
0.07167471
0.04798635
-0.05203576
0.07861246
-0.03991920
0.09374245
-0.08180944
-0.00593860
-0.27036163
-0.04294337
0.09337157
0.13468108
0.28592190
-0.08133990
0.08460080
-0.11403817
0.13978729
-0.14290208
-0.34947672
0.13761397
-0.32767245
0.07715564
-0.24639946
-0.08526479
0.01100548
0.10420458
0.09891549
-0.02647969
-0.01071893
-0.12431344
-0.06460506
-0.18802476
0.32730004
-0.13484567
-0.10206848
-0.00144610
-0.26566377
-0.18127951
0.14823131
0.02739846
-0.13092573
-0.06873847
-0.13720398
0.07916158
0.13121678
-0.12781464
0.08990411
-0.04460755
-0.02838629
-0.10753205
-0.07809258
0.01605205
-0.18642074
0.12022879
-0.08275320
-0.09461097
-0.04450539
0.00739375
0.04823153
-0.11389033
0.00127304
-0.13794190
0.13506871
-0.06584653
0.27187413
0.03513520
-0.17258453
0.18018858
-0.13863584
0.01785362
-0.10241313
0.02598319
-0.07863230
-0.11537753
-0.00145964
-0.22382106
-0.03222387
-0.03980117
0.05619638
-0.03178754
-0.18284009
-0.00311740
0.13153431
-0.08001899
-0.07022535
0.09983640
0.17564400
-0.01523957
-0.06318739
-0.06034916
0.03386639
0.01681978
0.08334403
-0.12165567
0.09843822
-0.15206502
0.11552704
0.07331363
-0.09268706
0.19130406
0.05996314
0.01092481
-0.04505241
0.04807378
0.00945736
-0.03003621
0.00301515
0.12347708
-0.01300356
0.02333168
-0.20647220
-0.18301889
-0.23680024
-0.04604375
0.02908838
0.01108291
0.36612436
0.12422123
0.09544379
0.00988293
-0.03337857
0.02191304
0.22203882
-0.11210620
0.12085317
-0.18533888
0.17849027
0.10301552
0.12715876
0.33674395
0.12575710
0.07077324
0.08194693
0.08429569
0.02815919
-0.21329944
0.06758951
0.04690428
0.01698367
-0.04164222
-0.03010316
0.04062072
-0.19252150
-0.12034971
0.00905807
-0.12853730
0.06669000
0.12627979
0.23121016
0.04807439
0.06333744
0.02940096
0.10635688
-0.01457496
0.07503054
0.11445212
-0.00303617
-0.03479554
0.00217501
-0.07229169
-0.00873927
0.11122762
0.11890956
-0.03381784
-0.02298586
0.08534267
0.05146010
0.02013272
0.06740506
0.16944523
-0.09773836
0.05033758
-0.14296326
0.09157637
-0.08094413
-0.00409613
0.12232507
-0.05820635
0.07102553
0.13627528
-0.11326716
-0.12369120
0.03416732
-0.04292078
0.09506934
-0.04537006
0.07625310
0.16143276
-0.11726211
-0.02870215
-0.07887930
0.03985545
-0.11915219
0.13456595
-0.06571014
0.06494594
0.06106516
0.09355191
-0.04512258
0.01951315
-0.04649139
-0.03318200
0.16083694
-0.07394895
-0.05757823
-0.11572547
0.24808507
0.01732194
0.19514523
0.09369153
0.05932533
0.04482873
-0.22216888
-0.13271959
-0.00768516
0.08360303
0.04941223
-0.14110227
-0.02187920
0.09902012
-0.17190279
-0.11213213
-0.21412641
-0.15391581
-0.09326022
-0.11445725
0.03123961
0.08488400
-0.06942607
0.00454140
-0.08019564
0.09252157
0.11600496
-0.03412016
0.09868605
-0.00271492
-0.02613679
-0.07394605
0.14278710
0.08821512
0.13184872
0.11952338
-0.12494011
0.02047326
0.01051134
-0.08345830
-0.04828272
-0.01895850
0.14896293
0.14260341
-0.02312758
0.00041643
-0.06861513
0.11109281
-0.09365442
-0.13255101
-0.18989977
-0.10115109
-0.17384377
-0.07150314
0.09345813
-0.22220145
0.05274297
0.11027978
0.12386958
-0.13037148
0.05620803
-0.00304393
0.08276395
-0.21641573
-0.01070997
0.11954303
-0.08620276
0.16525002
0.02515810
-0.15809262
0.18843685
0.02878201
0.05571805
-0.08575588
-0.00519517
-0.02694219
-0.16169012
-0.06303146
0.04492636
0.06925364
0.00424602
-0.03714235
-0.34104145
-0.19103697
0.00235410
0.00669324
0.16748515
-0.09484352
0.15758315
-0.06611311
-0.15730284
0.15232188
-0.03846769
0.06980883
0.03203157
0.00101369
0.06478509
0.06692652
0.22987799
0.00658050
-0.05005040
0.09550291
-0.41769797
-0.09439152
-0.06475274
-0.06286232
0.01215854
0.02840315
0.03663703
0.15751007
-0.11208457
0.02998666
-0.10297256
-0.08241694
0.02940514
0.08694078
0.01457140
-0.13526438
-0.07578626
-0.04449140
-0.02712754
0.12268750
-0.04609009
0.00141291
-0.05096695
-0.01773519
-0.08337789
-0.05367520
0.03299378
0.07671437
0.21494165
-0.04238432
0.01311324
0.06881171
-0.43816835
-0.23864472
-0.00287250
-0.05269169
0.07791756
-0.04007553
-0.02247964
0.10054816
-0.22536020
0.01097447
-0.22233394
-0.07124593
-0.07185841
0.10603402
-0.02148545
0.04871554
-0.05623074
0.03620280
-0.25959280
-0.00035935
-0.02060588
-0.01366275
-0.02713516
-0.03204811
-0.03102105
0.00066395
0.01932438
0.05449979
0.12854132
0.01314865
-0.05659091
0.04358048
-0.33949378
-0.13758278
-0.07770040
0.05820902
0.13271788
-0.08136816
-0.11935987
-0.05496335
-0.24115366
0.00385296
-0.22167091
-0.09353593
-0.06261712
-0.00884152
0.07447309
-0.02397390
0.01302156
0.12396590
-0.15498139
0.01425196
0.18203761
0.00002149
-0.12470669
-0.01137033
0.03660053
0.07545614
-0.09578558
-0.03669553
-0.03090527
0.01193141
-0.05735306
-0.02355536
0.17654777
-0.02836481
0.00732419
0.00828650
0.06609860
0.02437005
0.03641605
-0.05136649
-0.04307575
-0.11898110
-0.04038785
-0.06971344
-0.17265621
-0.12419912
0.02644579
-0.10491075
0.08885373
0.07237632
0.03628653
-0.05785603
-0.06661624
0.09072948
-0.02657337
0.02815909
0.00388450
0.13893391
-0.00867298
0.03168676
0.01531253
-0.04043900
-0.06359271
0.07774989
0.02653834
-0.03145121
0.03504770
0.01225134
-0.00346167
0.05236286
0.02875823
0.01624183
0.07318176
-0.07482129
0.08811193
-0.13624360
-0.00775231
0.04458026
-0.10505932
0.01418848
-0.07131592
-0.01453101
0.07037842
-0.00777886
-0.16629367
-0.02684565
-0.02549076
0.11631796
0.08957760
0.05132986
0.01963612
-0.09585070
0.00568120
0.00398977
-0.14348970
-0.03189722
-0.21475953
0.03773538
-0.03107825
-0.03294284
-0.04199142
0.02063944
0.06511143
-0.05236414
0.03857410
-0.17796375
0.10806173
-0.02325547
0.15106153
0.01916287
-0.07543218
-0.01836226
-0.17096591
0.06533406
-0.02793407
-0.03050319
-0.04401997
-0.05520134
-0.07441588
0.05473905
0.24291566
-0.10752204
-0.08972703
-0.13395812
-0.14960186
-0.18609154
-0.15160972
0.03137860
0.19886446
0.27464199
-0.10169285
-0.06616507
0.08415546
0.03338390
0.06491593
-0.13913047
0.04410787
0.01888099
0.25642473
-0.02044374
0.21426588
0.13151820
0.03212531
0.01857913
-0.17888032
-0.00250553
0.04108575
-0.01186905
-0.14972824
-0.07542949
-0.04245437
-0.00658896
0.06099292
0.07166980
-0.04416201
-0.25784656
-0.03254187
-0.15826619
0.09129204
0.10640258
0.13381365
0.23626301
-0.10669669
-0.09921262
0.05971115
-0.10991144
0.04808654
-0.00877484
-0.02481376
-0.03902905
0.13788363
0.00829001
0.30497649
0.07138079
0.13927600
-0.05426626
-0.20223777
0.00735396
-0.03306883
0.03527624
-0.13881531
0.03594959
0.02673868
0.06738880
-0.17614880
0.03707762
0.05684591
-0.29281062
0.13616146
-0.30115089
0.05262106
0.22732888
-0.15185529
-0.02964556
-0.15094526
0.03991006
0.08461687
-0.00857978
0.22288084
-0.04301161
-0.10334878
-0.09379753
0.04029404
-0.07673142
0.39812443
0.40591314
0.03754893
0.08683491
-0.22363245
0.04133613
-0.11961093
-0.00149036
-0.02041886
-0.01434018
-0.03064464
0.12968190
-0.07665946
0.00001025
-0.02179897
-0.05925016
0.06177940
0.01790620
0.02246070
-0.01744641
-0.03928968
0.04886905
0.15367895
-0.09077368
-0.01092057
0.03987839
0.04496218
0.04398050
0.06051024
-0.06149841
0.08556525
-0.00392522
0.05083956
0.02965177
-0.07859971
0.00549727
-0.01652890
0.03913214
-0.11670046
0.00381801
0.01169832
0.02119152
0.06748795
-0.08343668
-0.00923854
0.10644508
0.02019274
0.05534588
0.06196259
0.10974090
-0.04937761
0.00612282
-0.17132775
0.00773214
0.08353388
-0.03625765
-0.05365331
0.09440503
-0.07339860
0.13389893
-0.01039514
0.06165579
0.06957905
0.07384400
-0.05815271
-0.03520643
-0.19845667
0.01804323
0.01174075
-0.07841926
-0.01186341
0.00087502
0.04411665
-0.13556318
0.07132861
-0.05016294
-0.14359629
0.02920584
0.16802897
-0.00540835
-0.04094682
0.15526056
-0.07703679
-0.06858563
-0.23699206
-0.00374784
0.14555088
0.07902794
-0.05461201
-0.04665882
-0.14182086
0.02689843
-0.07296536
-0.07609688
-0.03152567
0.08455536
-0.03934259
-0.03164153
0.04268106
0.05347517
0.03766185
0.11706082
-0.08848178
-0.05998586
-0.07062939
-0.04698795
0.11655885
-0.00048306
0.15688205
0.04704756
-0.13025402
0.07898112
-0.04465657
0.06911086
-0.10266814
-0.10615376
0.06501154
0.03904345
0.04004692
0.05718058
-0.16791554
0.06101019
0.09328068
-0.15591590
0.11667987
-0.01356405
0.05719731
0.15563811
0.08389556
0.09529609
0.03866708
0.01138651
0.09121501
0.07666212
-0.03264739
-0.10896884
0.06050012
-0.06188322
-0.03924398
0.03764704
0.00060959
-0.03032069
-0.09024984
0.02324687
0.01850099
-0.01745497
0.10907606
0.03205132
0.12105571
0.09167502
0.02863672
0.06732723
0.04903748
-0.12854478
-0.03726105
-0.05497482
0.02710880
0.01154653
-0.06290302
0.13619548
-0.03635231
0.04016766
0.21001789
-0.00807303
0.01274468
0.09353964
-0.04614029
-0.08935735
0.23161823
0.08151633
0.11782422
-0.03817310
-0.13710031
0.03336467
0.00710269
0.02601780
0.04099943
-0.09514667
0.11349066
0.15857750
0.17361744
-0.08386599
0.06598677
0.00574759
0.12719820
-0.02125310
-0.02580590
0.18721831
-0.17267154
0.06844571
-0.05093572
0.05561723
-0.11103542
0.01602609
-0.13082553
0.03489811
0.10524521
-0.03644511
0.12866899
0.08220271
-0.05516407
0.01261360
0.11949919
0.08358365
0.11854967
0.01418354
0.03257888
0.11363798
-0.00217868
0.04514556
-0.11074185
-0.09918038
0.09620854
0.17980283
-0.01981143
-0.04089063
-0.00871888
0.20231019
-0.06604990
0.08570088
0.02478461
0.06268453
0.05726677
0.02337135
-0.10606731
-0.07132900
-0.05889349
-0.13540046
0.09562751
-0.01634084
0.04388072
0.15786225
0.07779420
-0.02482636
-0.07250915
-0.02050836
-0.01007548
-0.04766321
0.04732449
0.21400581
-0.02712399
0.15793931
0.05689245
-0.12429594
0.03744003
-0.04634949
0.07007677
-0.03269289
-0.01821356
0.05935346
-0.07869197
0.08264624
-0.01075707
-0.04876360
-0.04017963
0.06447610
-0.21357037
-0.07476064
-0.02062442
-0.02053209
0.13772322
0.03527243
-0.11174486
0.02477094
0.15372664
-0.02318025
-0.01664112
-0.07765139
-0.15637547
-0.03999663
0.00752226
0.15841009
0.02357959
0.11605763
0.14112467
-0.10574374
-0.09888778
-0.10682134
0.16762128
0.11482263
0.06069083
-0.02894421
-0.10575936
0.12025433
-0.13289906
-0.13120988
-0.05038167
0.05476521
-0.27409670
0.02862508
0.10610932
-0.01164345
0.20097220
0.09933545
-0.09023051
-0.10359157
-0.09115599
0.03945541
0.06112283
0.12385371
0.23996674
-0.00987868
0.05901330
-0.16511489
0.02968218
-0.22412676
-0.46781242
0.20394357
-0.03937308
0.02600172
-0.28143793
-0.04585036
0.09954322
0.24730380
0.05731971
-0.16151835
-0.17386240
-0.00804166
-0.00852596
-0.00029788
0.22537176
-0.03661267
-0.16997756
-0.08629636
-0.33449295
-0.04241554
0.08397365
0.11058304
-0.09383334
-0.06834607
-0.12911747
0.08528389
0.07693745
-0.09775954
-0.08857230
-0.06179215
-0.13846481
0.01966253
0.04099532
-0.04915042
0.00394865
-0.02384694
0.08649198
0.01470324
0.04725377
0.01034131
0.01433072
-0.11258081
0.02861840
-0.11404141
0.12594141
0.04967678
0.11115571
-0.09640311
-0.05123247
0.05695961
-0.01959160
0.18666850
-0.02134564
-0.01293854
-0.12401412
0.04888855
-0.05686064
-0.04488353
-0.22475655
0.07882984
-0.08224475
0.05145873
-0.19165114
0.08080348
0.19306725
-0.17141329
0.01482421
-0.04198535
0.30429903
-0.06162307
-0.22387962
-0.09377673
0.15495707
0.14809214
0.11002295
-0.06664228
0.21703801
-0.09969085
-0.03824874
0.24721693
0.05135951
0.19370931
0.13908173
0.03213971
-0.14542225
-0.02677574
0.15589061
-0.05619577
0.06617778
-0.12269346
-0.12288376
-0.03773949
0.06768444
0.07560250
0.10092870
0.08025168
0.14458267
-0.00007483
0.03563727
-0.20322973
0.01674457
0.10141631
0.07174148
-0.13153961
-0.16540177
-0.03219908
-0.17483664
-0.01190699
-0.12536986
-0.02584418
-0.23120229
-0.08255442
0.07958496
0.03349404
0.10662195
0.05553911
0.00080824
0.08007602
0.09981127
-0.03966157
0.19857520
0.08787633
-0.07348286
0.03347198
0.01638392
0.06188338
-0.02340748
0.00409006
-0.01800466
-0.02379307
-0.01358788
-0.06020270
0.02717619
-0.03909051
0.06208140
-0.05677724
0.01429021
-0.06011941
-0.15974775
0.08488496
-0.07281572
0.01652362
-0.13662671
-0.06074824
0.10638908
-0.13329968
-0.02279125
0.01122446
0.10114550
0.02780938
-0.00302199
0.06660505
0.17096485
0.11444188
0.01478570
0.01318414
-0.12274570
0.09751238
0.04738832
0.02106335
-0.17325464
-0.00400302
-0.07138778
-0.13145865
-0.00183110
-0.07312364
0.05997138
0.17365719
0.12875681
-0.08957276
-0.12674029
0.06873860
0.02058231
-0.10617688
-0.02513906
0.10573624
0.00055804
-0.08947010
0.04494182
-0.15522203
0.14410312
0.01550639
0.00444916
0.03484244
0.00712102
0.07705835
0.06612548
0.04685577
0.09365004
0.02459102
0.03179898
0.07533104
-0.27081245
-0.07342185
0.01685824
0.12573884
-0.14348429
-0.13176017
-0.00935465
0.20908013
0.03328333
0.03527347
-0.07072608
0.17670920
-0.00973912
-0.14006303
-0.02276616
-0.05995500
-0.25280076
-0.18940216
-0.02404649
-0.18191583
0.12664539
0.07825460
-0.05349091
-0.01108214
-0.06344040
0.12586907
-0.01423338
-0.02387636
-0.04398644
0.10146761
0.10585369
0.14138953
0.12302342
-0.09876285
-0.23309012
-0.22191559
0.17730707
-0.08764762
-0.07855628
-0.13126154
0.17939346
-0.07411570
-0.05216002
-0.14057639
0.02387482
-0.03442077
-0.14114270
0.14164232
0.05791866
0.05772309
0.13139015
0.04903692
-0.10007207
-0.21002728
0.10452953
-0.05366577
-0.08496242
-0.01438452
-0.15770215
0.16469127
-0.02855827
0.07083531
0.20727368
0.13073264
0.16801940
0.00558259
-0.38477793
-0.25884870
0.17838858
0.03728880
0.05195864
-0.22328182
0.25737759
0.07962068
-0.21318173
-0.27569330
-0.18086353
-0.14423729
-0.25154522
0.18113044
0.09231164
0.07127967
0.10419241
0.17851134
-0.21732944
-0.11330988
-0.09301757
0.11087773
0.04445750
0.06565817
0.12853129
-0.04695672
-0.09125802
0.03966224
0.03034440
0.06408741
-0.10010061
-0.08055538
-0.00920322
0.09277252
0.03486456
-0.05451984
-0.04985064
0.13644302
-0.05606027
-0.02616556
0.05528675
-0.00253003
-0.00026687
0.09436129
0.04211559
-0.01467524
-0.09641375
-0.06215218
-0.09574714
-0.03894545
0.06547651
-0.05004321
-0.13536306
-0.04447202
-0.00128813
-0.06010415
-0.04363799
-0.06409891
0.01999838
-0.06800306
0.00663389
-0.03765717
0.15255207
-0.06810490
-0.09688007
0.01519694
-0.01967108
-0.05052870
-0.00736474
-0.06983808
-0.13712342
-0.03383020
0.01882984
-0.08860576
-0.00635175
0.04222994
0.06750453
0.05825375
0.10956161
0.02556301
-0.05831381
0.07825802
-0.07759447
-0.08658773
-0.15765820
-0.01956054
0.06705937
-0.00499645
-0.12439883
0.03879647
0.05394829
0.00525087
0.05922895
-0.06169702
0.13771172
0.04082637
-0.22016487
-0.05829421
-0.02927104
0.10442007
-0.06865104
-0.11214837
-0.04959111
0.08207859
-0.09813771
0.01036780
-0.11809445
-0.05500546
0.05634863
0.03700403
0.14031449
-0.00681609
-0.07201896
0.02991475
-0.07632247
-0.05326058
0.03705797
-0.06336834
0.01766038
0.00148061
0.00965667
-0.02245055
-0.10208567
-0.01998798
-0.15630007
-0.08947487
0.01789305
-0.00119415
0.15102501
0.12401657
0.02002052
0.04595633
0.05246154
0.02588866
0.02306442
0.08770157
-0.05105588
0.08887978
0.11325811
0.02246785
0.08561783
0.08249369
0.01183242
0.08902422
-0.05660637
0.05804163
-0.04473903
0.05105287
-0.00354041
0.00131115
0.11227360
-0.02476570
-0.12559323
0.05097395
-0.08446104
0.02958728
-0.00905724
-0.02972548
0.04021585
0.03298938
-0.08126032
-0.06035611
-0.01086151
0.02496532
0.00696436
-0.00874006
0.09806653
0.10511034
-0.10785416
-0.04238115
0.08949990
-0.09058440
-0.01990693
0.16006267
0.00466847
0.03651695
0.04724406
-0.08959180
0.07865524
-0.01308505
-0.09561490
0.06981428
0.03810280
0.15333375
0.01354191
-0.02544619
-0.03298731
0.04254323
0.09145037
0.05226309
0.01621920
0.04945123
-0.27522436
-0.17057419
0.04598700
0.09313983
0.04095512
0.06358043
-0.04306472
0.00182370
-0.15289034
-0.18608166
-0.09394316
0.08735748
-0.06207294
0.01477922
0.16498037
-0.07109634
-0.00098218
0.15237199
-0.05994967
-0.00597995
0.04433674
-0.13884822
0.14869583
-0.06924156
0.03218450
0.01385907
-0.01481877
0.02137440
0.02363657
0.00983278
-0.02301874
0.04616269
0.06769898
-0.00283406
-0.07143636
-0.02006344
-0.07538895
0.01955682
-0.07057945
-0.07834125
0.00881246
0.16750671
-0.02090109
-0.00498145
-0.07352849
0.11034903
-0.02082133
0.00051676
0.01481085
0.03181559
0.08984789
-0.03437989
0.16479111
-0.06275911
0.09154980
0.06436700
0.11121175
-0.04776168
-0.05339745
0.12345579
0.11976771
0.06778703
-0.06913772
0.05501223
0.09070071
-0.04089777
0.01298612
-0.15675005
0.02946907
0.10822699
-0.07894553
-0.01031469
-0.04405465
0.06390125
-0.01954100
0.05271890
-0.08260573
-0.07883349
-0.02553027
0.01785249
0.11249018
-0.03702754
0.10444984
0.00887156
0.24174544
0.00921920
0.01392139
0.03606802
-0.01427904
-0.01334956
-0.03498849
0.15220179
0.10602316
0.09464480
-0.06531236
0.02457364
0.03814074
-0.11437741
0.01714799
-0.04598940
0.08485849
0.02689474
-0.02758449
-0.03606442
-0.20042714
0.08556724
-0.07391671
0.02628650
-0.30928978
-0.12044599
-0.12447320
0.09496591
0.15668765
0.03414431
0.02857962
0.02406465
-0.14530391
0.05610235
0.09956853
0.11529188
0.38411841
-0.02856183
-0.13140979
-0.06385327
-0.03119691
-0.12021074
-0.22949997
0.02895612
-0.08374765
0.16545717
-0.10309349
-0.22556703
-0.07016955
-0.03102128
0.16039868
-0.14362541
0.07618836
-0.06496929
0.04109583
-0.00047406
0.12209845
-0.04806671
-0.21639198
0.05760725
-0.07956856
-0.03304638
0.11228961
-0.11395553
-0.08875936
0.09595150
-0.16097319
-0.03216205
0.24464045
0.01436235
-0.04247072
-0.08517835
-0.09375904
-0.13847946
-0.09661753
0.04605720
0.01303952
0.07150163
-0.10450316
-0.17263956
0.07095610
-0.10024835
0.11703727
-0.12676241
0.15523468
-0.14493802
0.04781184
-0.03549223
0.17509699
0.05004412
-0.16557933
0.19665408
-0.12528862
0.12209497
-0.07825126
-0.03703699
0.00384488
0.01356969
-0.17131089
-0.18858324
0.07425939
0.04045259
-0.03846156
-0.12483049
-0.08826287
-0.13408715
0.10493299
0.13279101
0.07753534
0.16216363
-0.04953602
-0.08542208
-0.01543310
-0.18106419
-0.06348695
0.07369973
0.12446006
-0.09195215
0.10780076
-0.08838542
0.06632394
-0.05173869
-0.21807228
0.19526865
-0.05026961
0.03889403
-0.10870884
0.05038152
0.09088823
-0.07117650
-0.02836075
0.00141070
-0.07503363
0.01317828
-0.07445921
-0.17047819
-0.13379192
-0.08231256
-0.04305771
0.06048495
0.26883304
0.15183775
0.00034713
0.04342867
0.00989311
-0.10910847
0.07507390
-0.19357848
-0.06665360
-0.06731237
0.18818355
-0.01597433
0.09038366
0.32400239
0.10898865
0.09706366
0.01178196
0.11998172
0.00972294
-0.05952039
0.16398604
0.07361905
0.04655190
-0.10268138
-0.10356767
0.07510334
0.02561026
-0.22221512
-0.03076982
-0.26765656
0.00381490
0.22429886
0.26249605
0.02431060
-0.07611214
-0.04478426
0.15760300
-0.07384128
0.05240066
0.11962500
-0.09031617
0.00399232
0.07063240
0.00070348
0.17316918
0.17228606
0.02770614
0.01415520
-0.14625622
-0.01919647
0.11462875
0.12824307
-0.00032569
0.06928019
0.00159322
0.07770595
-0.04768488
0.13330284
-0.07278778
-0.23696817
0.11409678
-0.19321361
-0.03886802
0.23510858
0.08353980
-0.00099642
-0.05876920
-0.00515294
0.14688958
0.04927486
0.13492244
0.02137290
-0.12494814
-0.00899241
0.02714120
0.05128734
0.13400391
0.18116546
-0.01666318
0.01683652
-0.20675115
0.12582009
-0.04637445
0.04574137
0.04665556
-0.07214020
-0.00259836
-0.08161166
-0.00574997
-0.04919332
0.13151011
0.09468437
-0.15905513
0.06829452
-0.06162042
-0.00635524
0.15955305
0.00367555
-0.00228311
0.06371181
-0.10193778
0.22579783
0.00966620
-0.03838767
-0.01860264
0.13885130
0.02405634
0.08002051
-0.09284236
0.16630556
0.00018114
-0.09939435
0.17019738
-0.05664469
0.04199841
-0.07552248
0.07655964
-0.04806279
-0.03939632
0.06482401
0.01695369
0.01524568
-0.10217424
0.10794031
-0.05007395
0.07528125
-0.01019561
0.02246039
0.11145924
-0.03307190
0.11376469
-0.00154483
0.03008869
0.02822899
0.04159835
0.06020322
-0.11505583
0.06997217
-0.05237237
0.06064512
-0.19719923
0.12523623
0.14039896
-0.17291087
0.13833822
-0.01294901
-0.08995075
-0.04270654
0.20913264
0.04132182
0.04384208
0.14489035
-0.18174773
0.16991438
-0.07752934
0.08315340
0.22988035
-0.02007730
0.02514724
0.11180658
-0.07350580
-0.37017646
0.16528168
0.06951795
0.14182027
0.01938135
0.33496606
0.05665235
-0.22594783
-0.10530690
-0.14904469
-0.13299021
-0.19850954
0.20687778
-0.00686759
0.02208241
0.14303812
0.08107792
-0.15352212
-0.05930807
0.08564122
-0.03856296
-0.12363528
-0.04105489
0.14909686
-0.10928818
-0.13289307
-0.09725858
-0.10650776
-0.07880543
-0.07760985
0.00636541
0.21755172
0.22986306
-0.02254800
-0.24799748
0.11002604
0.15038887
0.07591059
-0.03461307
0.07727595
-0.03967610
0.16661935
0.04542559
0.04951667
0.12349889
-0.08782776
-0.03319406
0.00849024
-0.10861897
-0.01036444
-0.05984611
-0.22066775
0.00877772
-0.05892518
0.03415408
0.15930592
-0.12431616
-0.11687536
-0.11076419
-0.22491990
0.07208582
0.03005967
-0.09212527
0.25287282
0.38689652
0.15978004
-0.13199314
-0.13772275
-0.00119362
0.01605526
-0.16913852
0.22806673
-0.03383342
0.30054665
0.06722482
0.08847400
0.13536139
0.04880919
-0.07122014
0.07017981
-0.03364705
0.10198458
-0.16413683
-0.21087360
0.07010216
-0.06762066
-0.02029336
-0.19287738
-0.05035684
-0.10267938
-0.05895380
-0.17702651
-0.07912842
0.19181001
-0.12511559
0.08297604
0.20786327
0.10396771
-0.10718062
-0.22732621
0.00008115
0.31628409
-0.08623777
0.17640464
-0.16958170
0.28109735
0.07509197
0.14656267
0.47360659
-0.07826734
0.09189074
0.03866528
-0.10426354
-0.11544193
-0.27498055
-0.08017731
0.02236935
0.02941862
0.04781339
-0.07163140
-0.00318051
0.00730111
0.01062151
0.14989902
-0.00778361
0.03367905
0.06881730
-0.25751474
-0.18693669
-0.00837353
-0.09902643
-0.03659081
-0.01047312
0.01098485
-0.01054933
-0.03107879
0.05996095
-0.05944657
0.07130349
-0.05259399
0.02192372
0.14976466
-0.05311223
0.00456802
0.03223196
-0.04569358
-0.04787285
-0.11318874
0.05539845
-0.09592756
0.01733751
0.02008572
0.00400757
0.08519738
0.04060901
0.16395018
0.00664943
-0.06184655
0.06230585
-0.26152050
-0.06079121
-0.03738224
-0.03494052
-0.02401671
0.03864115
-0.07051885
-0.03318981
-0.10586825
0.07343785
-0.17570333
0.10166124
0.01973823
-0.06383841
-0.02437337
-0.06303117
-0.10335583
0.00797499
0.02443730
0.12517428
-0.22557807
-0.01635603
-0.10773452
0.01530793
-0.02315711
-0.01786433
0.11036117
0.09610091
-0.04145930
0.00751079
-0.18066466
-0.09631544
-0.27990130
-0.03745416
-0.07782644
0.02959133
-0.05914311
0.00778659
-0.05540343
0.02402775
-0.05032789
0.14121899
-0.01223672
0.08923105
0.09510434
-0.00272405
-0.05339217
-0.00398488
-0.03630243
-0.01047284
-0.04339626
0.14021339
0.17270589
-0.02602922
-0.06211780
0.06455799
0.04428620
0.06833892
0.10004130
-0.13531078
0.05097967
-0.16466145
-0.15212423
0.05552442
0.09358054
0.14844772
-0.19385971
-0.05844318
0.16896828
0.03827981
-0.07622321
0.00685648
-0.01945619
0.16124955
0.02434061
-0.01457584
0.01220362
-0.14454477
-0.21418777
-0.14324804
-0.11762473
-0.01433569
0.15243591
0.25815466
-0.08597855
-0.04106570
-0.04376500
0.05640838
-0.02267809
-0.08269001
-0.08286898
0.09192108
-0.12798916
0.07956173
0.04464364
-0.14044228
-0.00984840
0.08677962
0.05967063
0.00065469
-0.05711164
0.00716560
0.03626528
-0.04386652
0.15132752
0.05626567
0.17041974
0.07535599
-0.08665729
0.07012247
0.00700392
0.03392306
0.09030552
0.07668404
-0.01643874
0.07261690
-0.06566535
-0.03323301
0.07557929
0.11882642
-0.06178147
0.06565379
-0.11837044
0.13987465
-0.24048236
0.31129158
0.11227696
-0.32471687
-0.09517731
0.06527450
0.37549493
-0.11582567
-0.20995761
0.01544771
0.07229752
0.03369607
0.24071921
-0.05142004
0.12409288
-0.03664151
-0.11843339
0.17566368
0.13543278
-0.00917982
0.32151201
-0.04609341
-0.02215373
-0.05008775
0.05327988
0.04211941
-0.03404708
0.05273002
0.11005391
0.03500446
-0.11532508
-0.10502384
-0.12650010
0.01148420
0.01001866
0.01793809
0.27895457
0.05162248
0.08184037
-0.01920834
0.00203859
-0.01496639
0.01525591
-0.03688166
0.05751365
-0.11166037
0.15696980
0.01888956
-0.02020966
-0.00808075
-0.01566187
0.07759582
0.06942616
0.11418112
0.01823512
-0.06284736
0.01109954
0.08595915
-0.12082080
0.08092065
-0.02315842
0.08639687
-0.16856308
-0.03210012
0.03432818
-0.02400951
-0.13765438
0.08111513
0.10956688
0.06509455
0.00829437
-0.06909087
0.06218145
0.02789541
0.16652186
0.13163759
0.01132708
-0.08376986
-0.00386032
-0.03254243
-0.02910325
-0.10908828
-0.04411862
0.00965227
-0.05264361
-0.00193632
0.10980649
0.00815411
0.08518615
0.05259395
-0.08433882
0.05365803
0.01437393
-0.06485914
-0.03222594
0.00745495
0.03792451
0.02910235
-0.15063648
0.04951311
-0.10204416
-0.01704863
0.05134001
0.08487805
-0.01838370
-0.03947127
0.04937258
0.13239107
-0.05908681
-0.11710820
-0.03340361
0.08455501
-0.02116949
-0.07140191
-0.01237688
0.05017245
0.00788508
0.06544343
-0.05149562
-0.08889063
0.12214722
-0.02333639
-0.21908912
-0.19306569
-0.06389949
-0.04711956
0.00466348
0.10357517
-0.00654683
0.09243786
0.16293120
-0.08683118
0.05148235
0.15168038
0.09603126
-0.02961837
-0.02028673
-0.05221181
-0.05140911
0.15818699
0.09304686
0.09007074
-0.02026497
0.13090011
-0.18773462
-0.03796730
-0.06184182
0.08163990
0.14843673
0.02792168
0.02885051
-0.01593618
0.02098220
0.02346732
-0.06500439
-0.06356496
0.04394179
0.07774902
0.02320587
-0.03852595
0.02616398
-0.09176299
0.01900057
-0.11743329
0.14984970
0.19784190
0.01017580
-0.12756555
-0.02956612
0.02977576
0.01554568
0.10673226
0.18811135
0.09739184
0.10788439
0.18569574
-0.08499237
0.02051769
-0.14630069
-0.00571698
0.03945072
-0.07036178
0.09064201
0.11965508
-0.01241423
0.00360643
-0.04302596
0.00868242
0.13123019
-0.04998505
-0.08959895
-0.08730362
0.10129928
-0.12871376
0.03067620
0.02759760
0.09429890
0.07077137
-0.20014280
-0.11133240
0.06737762
0.00116268
0.03216841
-0.07653068
-0.02273395
0.01304136
-0.02637916
0.07462168
0.06803159
-0.13592759
0.04550201
-0.01624829
-0.13103524
-0.01796659
0.01528987
0.01672544
-0.06269544
-0.01432471
0.05243666
-0.01189954
-0.05604326
-0.15764800
-0.04969879
0.05277358
-0.08252817
-0.00535889
0.06736083
-0.13012218
0.10376081
0.16824293
-0.06434485
0.04898833
-0.03343528
0.09595924
-0.01991134
0.01457707
0.05271395
0.01063753
0.10356260
0.15745766
0.02743625
0.10255666
0.21958999
-0.03412330
0.08482572
-0.00258655
-0.03616216
-0.10531475
-0.01383086
-0.02186370
0.02581116
-0.05266938
-0.07233571
0.01611476
-0.00016939
0.00418335
0.00918957
0.00810691
0.18668653
0.00209253
0.00695410
0.00034593
-0.01302464
0.06584292
0.07772671
-0.01879211
-0.07489827
0.07694617
0.00114941
0.00890904
-0.07032992
0.12265393
-0.03566456
0.01765996
0.15319626
0.05084773
0.03505611
0.02662827
-0.13829631
-0.02757411
0.04527811
0.00495153
0.07279326
0.05967935
-0.05748799
0.04462149
0.02692194
0.01049264
0.18907389
-0.02903033
0.03282292
0.05181307
-0.23511179
-0.19527544
-0.11933525
-0.01671480
0.02350735
-0.03214081
-0.02903106
0.13915192
-0.17847252
-0.05187500
-0.08185609
0.06297984
-0.01777082
0.05611366
0.22205240
-0.00067088
0.03239658
0.02852314
-0.05462444
-0.06235615
-0.03524237
-0.00859408
0.10980301
-0.01335984
0.17380491
-0.00288222
0.02420159
-0.04748210
0.03494426
-0.16295101
-0.08270477
0.09286987
-0.04699761
0.01491989
-0.12328880
0.01578577
0.01044742
0.01719598
0.03208061
-0.05082254
-0.10207715
-0.02295210
0.01348764
-0.16537143
0.12300098
0.11752287
0.01943729
-0.11524737
-0.14516859
-0.05118148
0.11409677
-0.08652543
0.02609406
-0.06524621
0.00604111
-0.05848121
-0.08016898
0.06163403
0.03246766
-0.14015935
0.23778568
-0.10599887
0.02548921
0.20685640
-0.17042007
-0.16870853
-0.17066547
0.10305400
0.10597237
-0.04498795
0.02703442
0.09711056
-0.19418091
-0.05325731
-0.19095887
-0.22754408
0.16543421
0.03527229
0.05651249
0.03892192
-0.23063450
0.01482635
0.05567391
0.03487463
0.05823118
-0.08138304
0.04156244
-0.00761061
-0.04874263
0.06781083
0.07062377
-0.05672165
0.30261305
-0.15766594
0.06731407
0.08210710
-0.26106843
-0.15921584
-0.05888680
0.09743311
0.20737725
-0.06205218
0.04624979
-0.00414281
-0.30750698
-0.06877978
-0.15738904
-0.18278238
0.10998560
-0.02837615
0.14974959
-0.03840195
-0.18727547
0.29453874
-0.00353220
-0.03675742
0.03070478
0.01486554
0.16048676
0.04304620
-0.03949844
-0.03188436
-0.14600238
-0.02553090
0.08286563
-0.09291363
-0.00068555
0.06680991
-0.10717483
-0.07980499
0.08447105
-0.09675737
0.00381979
0.01386518
0.11117633
-0.07652453
-0.11030843
0.05118665
0.02254286
0.09204881
-0.02240982
0.18228813
0.15926237
-0.07223339
-0.05313182
0.04163764
-0.03178440
-0.16393396
0.12123694
0.01082087
0.11627225
0.04757606
-0.07316081
0.03894755
-0.01257597
-0.09271727
0.19767523
-0.18034303
0.01239430
0.23554255
-0.19151187
-0.11898993
-0.09911369
-0.01870464
0.07768507
-0.06910073
-0.02783902
0.06056530
-0.30132452
0.12018099
-0.24459098
0.02665459
-0.05692371
-0.01916654
0.03425230
-0.10670629
-0.08052660
0.02277423
0.00663618
0.11579114
0.06395689
0.05444861
-0.01455822
0.04306326
-0.10442602
0.14025913
-0.02970261
-0.08851524
0.26602042
-0.14764449
-0.08230744
0.19394566
-0.30285206
-0.32123503
-0.06526650
0.06872830
0.07761440
-0.04441622
0.05852148
0.01405441
-0.33566105
-0.00934432
-0.24242853
-0.08896229
0.02295795
0.03927688
0.12030150
-0.02499992
-0.18602084
0.15212761
-0.03073896
0.02169114
0.00575348
-0.05384612
-0.07243022
0.10917393
0.14812127
-0.00251344
0.07404616
-0.28673774
0.01281826
-0.25863183
-0.28512695
0.11944803
0.16076098
0.08799789
-0.19511729
-0.07673895
0.14804780
0.12831946
0.02031382
-0.12489636
-0.11239871
-0.05987013
0.11756546
0.00502510
0.16600329
0.08378403
-0.06295314
-0.10476837
-0.24786024
-0.01507309
0.00665920
-0.09222829
-0.08441877
-0.00468826
-0.09975152
-0.05498183
0.17839134
-0.15712659
-0.11010575
-0.03763179
-0.20793399
-0.00444937
-0.01060537
-0.09462317
0.12258621
0.26963502
-0.06087904
-0.11938915
0.05703077
0.01848849
-0.08239946
0.04289562
0.13355097
-0.01371065
0.20955051
0.01633470
0.06069491
0.00934583
0.04782549
-0.02244266
-0.10584430
0.09107901
-0.05274599
-0.02650760
-0.12069561
0.12453965
-0.03729973
-0.01425659
-0.09466206
-0.02078992
-0.15571620
0.04744923
-0.25997564
0.13034177
0.21630806
-0.18477294
0.06573097
0.20574640
0.20992079
-0.14854062
-0.15641761
-0.03317916
0.20747778
0.08567747
0.28232130
-0.07377658
0.31196231
-0.08213887
-0.02460972
0.31978849
0.00083928
0.05753484
0.18342769
0.00664664
-0.05075740
-0.06450852
-0.05333373
-0.06532461
0.05472798
-0.20270987
-0.03024292
0.09237303
0.13945086
-0.03498267
-0.01316268
-0.08899701
0.11212845
-0.01335977
-0.11078887
0.12034305
-0.11794700
0.03008407
0.05046700
-0.02990014
0.00388377
0.21480176
0.06687381
0.10129528
0.05573335
0.01687037
0.12866248
-0.02389594
-0.00481797
0.04860418
-0.08850994
0.00725290
-0.04525258
0.17968319
0.02487419
-0.11596688
0.04621297
0.00798510
0.03304782
-0.02192008
-0.02961113
0.11820407
0.00049818
0.05354000
0.05323541
-0.07064278
-0.09459681
-0.06512357
-0.07742157
-0.03697778
-0.03439219
0.06638657
-0.03501120
0.10783312
0.03564934
0.01990294
0.05637273
-0.07929940
-0.03247174
0.02458013
-0.00312581
0.04952179
-0.00952104
0.06768622
-0.00267556
-0.10110413
0.00476711
-0.12073930
0.02088179
0.07485902
0.04904039
0.02845879
0.03576593
0.10495859
0.09596825
-0.00684630
0.00273308
-0.01818986
-0.20072585
-0.06644207
0.03934956
-0.00734977
0.07465105
-0.01553972
0.00073436
0.04804105
-0.09561159
-0.10127060
-0.08040648
0.01755911
-0.12086172
0.02086801
0.13097472
0.00287060
0.08552312
0.08218396
-0.21808572
-0.03321866
0.24429174
0.00193398
-0.03682478
-0.14722450
0.20217696
-0.02746821
-0.02598949
0.12061534
-0.07657031
-0.03564826
-0.26029959
0.07432331
0.22630976
0.15242040
-0.09856709
0.01699685
0.26466683
0.11514749
-0.19462991
0.03811571
0.01251305
0.22748162
-0.07966834
0.03195100
-0.15128767
-0.32488877
-0.21622388
0.00530822
0.03402369
-0.09320416
0.20882858
0.20949374
0.05201402
-0.00581027
0.05494064
-0.01940372
0.06216108
-0.05813009
-0.02787952
-0.04215097
-0.17301896
0.03332011
0.05589391
0.06782003
0.19606024
-0.04619313
0.12344753
0.00052741
0.05992294
-0.11503532
-0.01229315
-0.04418202
0.04396424
-0.09962013
0.02486183
-0.05124507
-0.00169484
0.03597479
0.08348213
0.10264490
0.13518660
0.03380176
-0.03998775
-0.08181556
-0.07490764
0.07341845
0.16013482
0.09186073
-0.00589176
0.04083352
-0.05791478
0.00277178
0.00095690
-0.06687041
0.05463640
0.01248003
0.03443693
-0.17425081
0.07681797
-0.02142850
0.00648495
-0.06050897
0.15450615
-0.05530982
-0.02828789
-0.10851224
-0.05038555
-0.12388310
0.04816191
0.12978974
0.08245646
0.05562909
0.02436959
-0.06646913
0.02343037
-0.05382438
0.01911432
0.06439646
-0.02870793
0.08708552
-0.05989683
0.05203218
0.06117035
0.09021862
0.14278877
0.14054590
-0.09075800
0.02633574
-0.28086033
-0.14805909
0.06717248
-0.03682829
0.08244158
0.03920463
-0.00616973
0.04410821
-0.13915887
0.02166139
-0.11484593
-0.01579747
-0.17725100
-0.07943891
-0.08704250
-0.10302726
0.09478234
-0.04292606
0.01923400
0.02396129
0.07830185
0.07212359
-0.13211599
0.04835243
-0.02249972
-0.00870811
-0.08049189
0.16780677
0.14342444
0.14474203
0.09489306
-0.00256895
-0.31882027
-0.24275850
0.19327186
0.00218281
0.09774847
-0.01048866
-0.04104465
-0.03870841
-0.11298028
-0.06696775
-0.18500364
-0.07147891
-0.26305085
-0.01306993
-0.01845534
0.04382209
0.10718998
0.04551362
-0.13930993
0.01163718
0.10206109
-0.05999342
-0.04225511
0.06022772
-0.11182233
0.01958299
-0.10950761
0.25441286
0.14375399
0.20926495
0.06064032
-0.06122050
-0.34286389
-0.23776694
0.28299946
-0.00491777
0.06428368
-0.01072667
0.10231040
0.01764625
-0.18260777
-0.07758522
-0.15201136
-0.05623733
-0.24423657
0.06130171
0.03604959
0.08304615
0.15564483
0.14534953
-0.16969119
-0.12458816
0.09239524
-0.01723202
-0.12733339
-0.01592179
-0.25592977
0.02696781
0.02422699
-0.05425899
0.04649802
0.01879307
0.29093468
0.02996141
-0.08534075
0.00975073
0.12540834
0.12747379
0.08619224
-0.12454545
-0.11654474
0.14406034
-0.10988911
-0.12829982
-0.04119658
-0.08724329
-0.07460125
0.00528670
0.08785689
0.02357992
0.04374929
0.08253749
-0.07807025
0.12561098
0.00346679
0.02350369
0.09323957
0.07472594
-0.16808806
0.07750328
0.03069298
0.02336948
0.04723841
0.02499459
-0.00470405
-0.03794208
-0.02472967
-0.01060281
0.04258251
0.01412235
-0.08070488
0.10170540
0.02199607
0.02493220
-0.05596914
-0.00573564
0.08500756
0.05265161
-0.03577975
0.13305961
0.07037892
-0.07475424
0.11060666
-0.03256636
0.09235553
0.02551578
-0.03559923
-0.02465457
0.00068309
0.19775322
-0.05450592
0.11464843
-0.03229007
0.10919765
0.04510638
0.08640453
-0.01112316
-0.07212260
-0.08245238
0.07216218
-0.02199262
-0.07641181
-0.00488388
0.12263580
0.05308459
-0.07736411
-0.05679148
-0.00415564
0.05485614
0.08022622
-0.05765843
0.06195627
0.00301804
-0.17936496
-0.01207291
-0.08008231
0.01299524
-0.04777697
0.20382093
-0.02821610
-0.05442137
-0.01645515
-0.00981680
0.05878732
-0.11565169
-0.07700741
0.06469145
-0.00489733
0.06381331
0.03135470
0.23715810
0.09209887
-0.00280231
-0.05634847
0.11442389
-0.06058162
0.03839448
0.08782759
-0.00808964
-0.04091323
0.02812995
-0.15746561
0.01252796
0.03058887
-0.09761892
0.09892753
0.02914978
0.15728354
-0.00860551
0.05955800
0.01027609
-0.00747916
-0.06916023
0.06989118
-0.00707448
0.16681668
-0.23801103
-0.01813170
-0.01362317
-0.09139002
0.01341709
-0.01264928
0.02029179
-0.03295470
-0.03811439
-0.12887658
0.11677027
-0.00107583
0.05767384
0.04651650
-0.06998171
-0.08695532
-0.01269376
-0.11462294
0.09900974
0.10042988
-0.12463842
0.08485644
-0.01533054
0.06034731
0.06977110
-0.01577867
-0.17399380
0.05595642
-0.02503257
0.22825275
0.12712309
0.06568891
-0.09300826
0.03875434
-0.02808233
-0.03792133
-0.05104535
-0.03756066
-0.18107681
-0.05099504
-0.07871750
0.01896614
-0.02716542
0.13269733
0.09325764
-0.13494901
0.01586616
-0.14614820
0.04725015
0.09359960
0.10434047
-0.02914511
0.08266068
0.01001368
-0.07285962
0.12335777
-0.11015673
-0.11539413
-0.07423035
0.01777879
0.06594767
0.07135241
0.05451681
0.11414385
-0.01560124
0.10034428
0.01127749
0.02385961
-0.04767453
-0.06587274
-0.14045231
0.07400491
0.03613026
-0.00521940
-0.13316163
0.09453247
0.05462482
-0.11581757
0.05966075
0.00876725
0.06771422
0.06573791
0.10249095
0.10990934
0.08895633
-0.07265855
0.03984898
-0.07458317
0.07195516
0.00573540
-0.00354164
-0.03219998
-0.11199099
0.10179401
-0.04802728
0.06735768
0.04494261
0.08560027
0.02385863
-0.07663886
0.06867795
-0.03213880
-0.08391103
-0.06721574
0.04228478
-0.04683245
-0.01285914
0.06587961
-0.02942266
-0.08710864
-0.06875097
-0.06424708
0.04516466
0.07086668
0.02766121
0.05078565
0.16818209
0.04706537
-0.03109876
0.01949901
-0.04326423
-0.09395920
0.13855040
0.01527105
0.06197649
-0.10925151
-0.02796747
0.02645717
0.09063896
0.02045785
0.03730345
0.00402477
0.18126743
0.12128649
0.04004569
-0.06177571
-0.00481010
-0.01239481
0.00393094
0.01420460
0.04304437
0.13690270
-0.12883036
0.07875641
-0.06841193
-0.00321930
-0.03080958
0.07876968
0.11924303
0.04193560
-0.01929190
-0.00346478
0.06824055
0.07233437
0.11236825
-0.08102481
0.07658830
-0.01534044
0.03018649
-0.04447069
0.12415780
0.01737759
0.20370302
-0.11446106
-0.13228528
0.16262931
-0.13167447
-0.14131792
-0.15716124
0.12731232
0.19280459
-0.11196807
-0.08519562
-0.06186282
-0.12643024
-0.05542780
-0.23384553
-0.02770647
0.01563717
-0.14127697
0.01404347
0.08452847
-0.19230023
-0.09509727
0.07102865
0.07431100
0.12300193
0.01405676
-0.00442828
-0.13615085
0.01497007
-0.07352007
0.18989497
-0.18748584
0.18181740
-0.22803883
-0.06667447
0.16797066
0.03807792
-0.08813733
-0.27308661
0.15814812
0.19725667
-0.00410883
-0.06548166
-0.00432667
-0.13171257
0.02494147
-0.22291760
-0.01193791
0.03990018
-0.04542113
-0.07776688
0.07648975
-0.24077263
-0.08940520
-0.00567568
0.10864003
0.12365154
-0.05779245
-0.02601223
-0.02142667
0.22953261
-0.10938055
0.02996101
-0.08662190
0.04519474
-0.21180953
-0.17689995
0.14331831
0.14383388
0.11669542
-0.27484104
0.00455081
0.22697726
0.05889406
-0.07041913
-0.04033177
-0.12760188
-0.02624032
-0.04105329
-0.05510571
0.13520333
-0.16260394
-0.09361558
-0.07228687
-0.22415616
-0.01293473
0.15935759
0.07949363
-0.03386817
0.02696781
-0.00021068
0.17070064
0.11213019
0.07660176
0.00673314
0.02279501
0.07620789
0.09337720
-0.19179542
-0.05528199
-0.12149011
-0.13070741
0.05880763
-0.06122416
-0.04801699
0.04986291
0.00407117
-0.05235416
-0.01387374
-0.03096461
-0.10577107
0.07449612
-0.04885182
-0.14390162
-0.00743721
-0.07266761
0.08917996
-0.06918188
0.02885369
0.11779009
-0.12531872
-0.13110046
-0.06903279
0.08432695
0.10260502
-0.01687848
-0.03130858
-0.04856871
-0.02663866
-0.00557855
0.02566837
-0.04381084
0.02970114
0.02723347
0.08630355
-0.03393670
0.05649905
-0.01360915
0.10494195
-0.18519360
0.00708774
-0.09766301
0.09500504
0.02036387
0.01417161
-0.05327124
0.18838669
0.07431030
-0.05589867
0.22406559
-0.06181925
0.00256004
-0.05438106
0.11484461
-0.06401329
-0.03038231
-0.12829834
0.19444348
-0.05488855
-0.22185676
0.04305692
-0.18298787
0.01782962
0.16916223
-0.00267166
0.05750643
-0.08165792
0.03416266
0.05244083
-0.00822292
0.34129828
0.02506376
0.03312071
-0.10192866
0.16858186
-0.24895124
0.28261167
0.31539646
-0.10115806
0.12283883
-0.13418923
-0.01903805
-0.09002126
0.06244998
0.18048796
0.01813434
0.07819583
0.03766911
-0.08584307
0.00624086
0.17366304
-0.11912321
0.26965973
-0.24956629
-0.07755524
0.18040729
0.02211313
-0.20373718
-0.27989852
0.12338403
0.11672939
0.01675314
0.10400634
-0.08283859
-0.28836474
0.04542857
-0.24000120
-0.08316302
0.21415259
0.00727664
0.00575842
0.02399152
-0.17510176
-0.01063460
0.07767700
-0.03723321
0.18749130
-0.01269233
-0.11682095
-0.18376933
-0.17412384
0.05246006
0.22823741
-0.11370580
0.21887983
-0.29287311
0.05199109
0.30708623
-0.01829252
-0.22743461
-0.31060582
0.19697860
0.21909110
-0.02534336
-0.04481731
0.12067585
-0.27595311
0.04961160
-0.24110113
