0.03827372
0.11882462
-0.20244695
0.24450944
0.08735485
0.08582681
-0.07091792
0.03104937
0.03836657
0.12462304
-0.00705825
-0.08034797
0.20858404
-0.01705076
0.06445214
0.16454536
0.13536969
0.03528695
0.01638884
0.02044039
-0.00285597
0.02428382
-0.07921358
-0.03873200
0.01726529
0.00825471
-0.06381222
0.06296406
0.05520586
-0.05407258
0.10802719
-0.06046403
0.00573341
0.18046217
-0.02111586
-0.06524137
-0.02043372
0.03075954
0.00791833
0.03965834
0.18622249
0.03527742
0.21608576
0.12703602
-0.07864872
0.01989639
0.07000691
0.03665030
0.18296283
-0.02657313
0.13690437
-0.07910610
-0.02994910
0.21053652
0.03558509
0.21399038
0.06597870
-0.03720660
0.05287868
-0.05816632
-0.24392381
0.07066426
-0.07767166
-0.04571167
0.18964007
-0.03530470
-0.00699150
-0.00478835
-0.06439807
0.02837065
0.14076865
0.02695308
0.02080056
0.00959713
0.20950603
-0.05394113
0.12086249
-0.11157254
-0.02176036
0.09036241
0.02136800
-0.00738817
0.18112119
0.12321904
0.18156826
-0.16907635
-0.04713254
0.30638215
0.01248945
0.06680942
-0.10682566
-0.03430702
0.10514298
0.28886423
0.02304588
0.04314177
0.01310124
0.09831610
0.15681638
-0.01201990
-0.04112449
-0.06420023
0.08893249
0.03540242
-0.01966594
-0.13894367
0.00733324
0.25535658
0.10302193
0.06972378
0.16263327
0.05039481
0.10498860
-0.14206903
0.10199324
0.05441484
0.30412045
0.01703442
0.01794676
-0.00572212
0.11166085
0.02808602
-0.05503878
-0.16209991
-0.08997554
-0.07403646
-0.11233746
-0.13954759
0.04267932
0.00024345
0.04466651
0.04688042
-0.14474773
0.06098751
0.01677879
0.04177383
-0.07596828
0.02934137
-0.04314457
-0.09068892
-0.09905695
0.00419044
0.07544151
0.00428536
0.10209063
-0.06956714
-0.02371038
0.06469949
0.08719420
-0.17772135
0.03802769
0.12217912
-0.02667977
0.02945329
0.16277657
0.12039696
0.06689542
-0.09188096
0.16680934
0.17101087
0.06219934
0.02579476
0.05225950
-0.19125134
0.17425318
0.03743545
-0.02661753
0.12386405
-0.16247946
0.00707708
-0.03661456
-0.22306371
0.07570846
-0.22913572
-0.13861342
0.00902875
-0.08303542
0.23531075
-0.12803568
0.09900779
0.03483853
0.10219328
0.01454420
0.12623182
-0.22106965
0.28551522
0.10220540
0.14456198
-0.19171445
-0.14145535
0.04105898
0.10799295
0.11720438
-0.07106350
-0.01420384
0.25124973
0.16849099
-0.01057453
-0.08647922
0.12294452
0.17920683
0.06737155
0.02804779
0.07428487
-0.02699997
-0.04146377
0.09166880
-0.07026017
0.02694967
0.01328644
-0.26144192
0.09546484
-0.16781637
0.03768441
-0.17371598
-0.19614384
0.03620685
0.01145492
0.07709643
0.01276005
-0.05564644
-0.11978973
-0.08842389
0.06336640
-0.07769904
0.24998996
0.05567456
-0.25501880
-0.11319072
0.02320446
0.03851895
0.18058962
-0.01598920
-0.05854862
0.07653950
0.19715118
-0.24195610
0.13535824
0.11519071
0.07364568
-0.05275284
0.24821873
-0.10792094
-0.02791595
0.01465525
0.15083931
-0.07299576
0.20644729
0.07869558
0.00308018
0.14117926
-0.00244725
0.16122121
0.14221001
-0.22125393
-0.04252542
-0.10346175
0.14005905
-0.01584202
0.11891808
-0.00443194
-0.04855384
0.10521887
-0.01207360
0.10373963
0.06816906
0.17590624
0.14546165
-0.00727226
0.16809738
0.01743213
-0.06459852
-0.28430420
-0.04161928
-0.07252094
-0.04856714
-0.02850867
-0.06839115
-0.05094185
-0.04483069
-0.02973100
0.01644440
0.07534581
0.05662095
0.11179222
-0.03105850
0.03782610
0.01358543
0.14606211
-0.12664798
-0.11475305
0.06742223
0.05172303
0.02641488
-0.04624706
0.22202317
0.02157294
-0.06924099
-0.15133362
-0.07162350
-0.09356532
-0.06409105
0.00224363
0.04851532
0.00028657
0.03984768
-0.06848955
-0.24691093
-0.11510231
-0.15429568
0.02229284
0.04282577
-0.04864707
-0.03509099
0.35613284
0.08531591
-0.18316333
-0.01201364
0.06534473
-0.01397336
0.04879184
-0.08861098
0.19479074
0.02686833
0.05957231
-0.08426385
-0.04342924
0.02563429
-0.06575407
0.10358474
0.31689939
0.22359221
-0.06058030
-0.03296572
-0.12954332
0.08011115
0.16613227
0.00068250
-0.00828202
0.02593667
-0.01116941
-0.22381310
0.13848819
0.15546520
0.05000681
-0.04709687
-0.21918140
0.01946874
-0.05229090
-0.13133052
-0.19974351
-0.10795902
0.18198948
0.09807509
0.13449891
-0.04586937
-0.05348492
0.06779685
-0.11234450
0.00037573
-0.06086166
-0.00917877
-0.07222567
0.00117785
-0.04575422
0.03661820
-0.28201991
0.11066247
0.07303550
0.13701357
0.00271765
0.03713400
-0.20139121
-0.01972406
0.07880422
-0.07292258
0.08730806
-0.04879868
-0.02087321
-0.06011494
0.18099023
-0.15208943
-0.19540097
-0.10107151
-0.03416874
-0.05792733
0.13508989
-0.06822103
-0.04015038
-0.06304739
0.06004592
0.04535866
0.10728932
0.11002071
0.32483265
-0.00478383
0.19254810
0.21852897
-0.14643425
-0.10315561
0.02345513
0.04667268
-0.07694877
-0.19966376
-0.15506676
0.02820017
-0.02331407
-0.10585177
0.00323466
-0.01172891
0.00866294
-0.14598456
0.05420319
-0.01323744
0.05518858
0.11475193
-0.02596644
-0.01416279
-0.10985059
-0.01857569
0.02729666
-0.07090627
-0.05020226
-0.04357591
0.02549560
-0.05866010
-0.07937791
0.17035250
0.08609635
0.16023110
0.01438235
-0.12702850
0.05247684
0.05271563
-0.14823551
0.02760669
-0.01253721
-0.19363543
-0.10402124
-0.06479635
0.09392847
0.06655697
0.10259573
0.08788622
-0.04758821
-0.03576056
0.05930924
-0.11405582
-0.09454516
0.10398600
0.06847354
-0.06050015
0.03559619
0.01218219
0.11122022
-0.11659723
0.00033002
-0.10347410
-0.16287404
0.13871227
0.08663214
0.01436905
-0.16090167
-0.08936172
0.16713795
0.00342300
0.09347252
0.20877779
0.22361475
-0.15315355
0.12799379
-0.08450250
-0.06448121
0.00113012
0.06069975
-0.11768482
-0.00057180
-0.20106269
0.09440361
0.01621904
-0.01254724
-0.14146830
-0.15896991
-0.14214431
-0.09680004
-0.00595068
-0.18757883
0.21620676
0.02116023
0.07625929
0.04020988
0.26512665
0.01912543
0.04626595
0.18037269
-0.14862208
0.09898783
-0.03333266
0.04410660
0.05932036
0.03895113
0.16332455
-0.01028217
0.06324187
0.13780215
-0.02255405
-0.03277190
-0.13732824
0.10907172
0.11779019
0.03197134
0.10419971
-0.16420370
-0.04786500
-0.05428933
0.07398639
0.27353990
-0.07665164
-0.07962416
0.07748879
0.11601862
-0.02608008
0.23248316
0.14184704
0.19811776
0.23377143
0.30953199
-0.05898899
-0.20252118
-0.02557214
-0.05878829
-0.10718843
0.04114348
-0.17515363
0.06327941
0.03420098
0.00186902
0.04109728
-0.00323193
-0.05038876
0.08828497
0.11533907
0.04858727
-0.05302707
0.01546221
-0.24326740
-0.20848052
-0.05496865
0.42434752
-0.09903762
0.02243511
0.07076807
-0.00533410
-0.08142989
0.16415089
0.13007650
-0.21608211
-0.11423562
0.03899813
-0.20204978
-0.12068513
0.22670737
0.14442678
-0.20184433
-0.01241639
-0.20674090
-0.00638083
-0.09543698
0.01467548
0.01259181
-0.05232544
0.14250943
0.20570391
-0.03578395
0.19083150
0.04204041
-0.12668200
-0.18354855
-0.10129470
0.07696245
0.16815713
0.01706595
-0.06177039
-0.01494745
-0.04905641
-0.02040238
-0.06439413
-0.15097521
-0.20268127
-0.05561834
-0.00774014
-0.09012595
-0.05866484
-0.00928255
0.25264761
-0.08530059
0.12486272
-0.14752091
-0.10952105
0.23501141
-0.00120537
-0.09987984
0.08677370
-0.00574331
-0.17460570
0.11609817
-0.14078298
-0.03538160
-0.12236311
-0.07579904
-0.06454653
-0.06809563
0.09284373
-0.02848946
0.06442833
0.08159772
-0.05638594
0.10050014
-0.22057408
0.12467515
-0.10687679
0.08992737
0.10559713
-0.11760184
-0.09910322
0.22321784
0.16156206
-0.01699628
-0.11073703
0.32922760
-0.06922847
-0.07039227
-0.10596468
-0.03159100
0.04744652
0.21177728
0.03209563
0.05335601
-0.01620208
0.05769224
-0.09260051
0.08579632
0.26025742
0.02379643
-0.11464145
-0.12943162
0.28925401
-0.18301059
0.08568330
-0.00312982
0.20462599
0.06086476
0.17588599
-0.08999643
-0.17036836
-0.11025383
-0.00922450
0.04515701
0.06360933
0.07515605
-0.10843845
-0.22275397
0.03184738
0.23066600
0.03609202
-0.00024951
0.02548806
-0.05565644
0.15153325
0.15570883
-0.07393505
0.09649801
-0.04056377
0.19591391
-0.11525888
-0.00123417
-0.12794477
0.04706212
0.02720501
-0.10323415
0.01705768
0.01955473
0.10219182
-0.31329918
0.13884309
-0.01130794
-0.12102038
0.07291988
-0.19391137
0.02635995
0.10507233
0.14636658
0.04833127
0.08384820
0.03261001
0.05598834
-0.16004469
-0.01316360
0.23264985
0.02938043
-0.36088791
0.13329902
0.03205970
0.01136849
-0.04428080
0.13443269
0.03282050
-0.02484960
-0.02716073
0.08669975
0.00363471
0.09820059
0.05886812
-0.12230317
-0.13180532
-0.10947478
0.17482615
0.26158515
-0.11706714
0.03224777
-0.08476234
-0.00046399
-0.03312927
-0.03838319
0.14223790
-0.13890901
0.00260423
-0.07339182
-0.02260525
-0.01105237
0.00825129
-0.06781872
0.01904742
0.05338077
-0.04268694
0.01378878
0.01792424
-0.03211451
-0.16703141
-0.37813956
0.00304050
-0.01921051
0.19128017
0.00146993
-0.00009954
-0.11127643
-0.00728113
0.02655035
-0.52609181
0.31629908
-0.14398809
0.18235812
-0.13603677
-0.30304733
0.17312416
-0.01040477
0.17087547
-0.04644758
0.04255487
-0.12578075
-0.11725137
0.02964012
0.01762173
0.07813624
-0.27928379
0.03307830
0.23925686
0.08213384
0.05532591
0.08303485
-0.12442501
-0.11228986
0.00056642
0.07205138
-0.11752815
0.03654362
0.00340725
0.13210134
-0.27621073
-0.12133765
0.07348283
0.02695639
-0.21893360
-0.17406309
0.25388271
-0.03856364
-0.01367957
-0.19152732
0.06884123
0.04015361
0.04588887
-0.19324782
-0.02666521
0.03689274
0.01424714
0.03429166
0.10997817
0.00906934
-0.37305051
0.07368197
0.05556181
-0.02854094
0.13660102
-0.05561050
-0.10976117
-0.06147235
0.03008364
-0.07350683
-0.01117129
0.05241908
0.28431824
0.02773987
0.15865208
0.37195536
-0.21138880
-0.06802790
-0.12027718
-0.03227486
0.00299712
0.19321069
0.10920530
0.01419801
-0.10132273
-0.26812232
-0.08906192
-0.01334333
0.02741567
-0.16248199
-0.07092191
-0.09941822
-0.02672197
0.01080825
0.17873943
0.25083953
0.12265333
0.10472164
0.18358842
0.02073035
-0.02247824
-0.18748672
-0.06015445
0.08493882
-0.10288536
-0.25114924
0.20712613
0.11031529
-0.17522001
-0.08330071
-0.05230278
0.01300363
0.25073290
-0.25788292
0.12109507
0.05872302
0.03087897
0.33238539
-0.18694483
0.00869375
0.23357736
0.07839065
0.04505384
-0.08780986
0.02463075
0.10522327
0.00531018
-0.15585738
-0.13427590
-0.06964615
-0.35308567
0.01081396
-0.35069516
0.18839490
0.01166942
-0.13619345
0.07411543
-0.31512141
-0.00045557
-0.03385027
-0.18704157
-0.05823676
0.05160239
0.17110860
0.01076397
-0.01316101
0.14525262
0.00631182
-0.01204877
-0.13323593
0.07980271
0.04247248
-0.06070438
0.31385374
0.23935342
0.09046654
-0.06048081
-0.08135935
0.05862993
-0.05161284
-0.00646762
0.14213200
0.18711354
-0.23607321
0.25115183
0.01100479
-0.19708450
-0.08957916
-0.07510608
0.06040490
0.06568865
-0.03131616
-0.26620269
-0.14735809
0.09819871
0.02588729
0.01383507
0.06714407
0.01910355
0.03719509
0.01495072
0.08999866
0.00027347
-0.02735801
0.05692032
0.02845842
0.01674384
0.13045143
-0.11949843
-0.20323858
0.03640081
-0.04922646
-0.03948982
0.06911028
0.01165531
0.16134807
-0.00106036
0.05297817
-0.00664702
0.03383758
0.03085618
-0.00469148
-0.22462028
-0.04060354
-0.16632514
0.00965382
-0.00653747
-0.10044307
0.05603170
-0.01290792
0.00766052
-0.03528415
-0.07305955
-0.03819623
-0.00399557
-0.05803612
0.10227364
0.17057395
0.10854559
-0.15444548
0.07740084
0.13662517
-0.06559929
0.11390005
-0.02057900
0.20979437
-0.03022768
-0.13858995
0.16490649
-0.05700056
0.12670620
-0.13921119
0.14925680
0.01761317
0.05849297
0.19644369
0.03330278
-0.13825104
-0.00536241
0.01617374
0.18052566
-0.12842916
0.02465246
-0.00897937
0.15822223
0.09970523
0.06468377
0.00085029
0.12757668
0.08617218
0.09341686
-0.16232809
0.12423742
0.07350601
0.08141004
0.04273927
0.16280107
-0.01792465
-0.00290927
0.01907066
-0.25053534
-0.01067533
-0.00904199
-0.11061180
-0.12278987
0.01969592
-0.13593531
0.10547701
0.11355580
-0.15468739
0.08100698
0.15111388
-0.13649894
-0.03312956
0.21340728
-0.02294605
0.10870517
-0.11961847
0.08698377
-0.02783305
-0.03489444
0.24163656
0.11695676
-0.21505424
0.22858939
0.06404468
-0.05644125
-0.04599003
-0.10428410
-0.08385798
-0.26811266
0.06118879
-0.03167789
-0.04647846
0.11477382
0.08687371
-0.21697901
-0.13445367
-0.13827525
0.23177922
0.24306437
-0.00618276
0.14401719
0.04518810
0.20654547
-0.09685825
-0.10081057
-0.14581844
0.00529220
-0.18980010
0.03599085
0.05851525
-0.12469590
-0.22348155
0.09489308
-0.13430849
-0.03207208
-0.12165563
0.03334141
-0.01785442
0.19614384
-0.15888938
-0.07537992
-0.10887540
0.02257222
-0.01701758
0.08074919
-0.01599184
-0.04071702
-0.09140639
-0.22416775
0.17626891
-0.04511805
-0.19651723
-0.03629890
0.16165772
0.15925258
-0.15546778
-0.09602093
-0.17626116
0.09220026
0.11113482
0.03978218
-0.11605790
-0.00035047
0.03828794
0.15154153
0.06814608
-0.11663907
-0.05588188
0.05735119
0.11938548
-0.07761156
-0.09846904
0.07898901
-0.09941053
0.04089006
-0.05588911
0.06808422
0.02309514
-0.10013960
0.06320478
-0.06193364
-0.02472915
0.15326686
-0.02154379
0.11446834
0.00923998
0.10003179
0.06981640
-0.13283689
0.12555376
0.17058223
0.14849100
-0.12039709
-0.05513746
-0.14974779
-0.15020382
0.07066379
0.09114010
-0.00577680
0.08270051
0.01485148
0.16950966
-0.07004764
0.10303748
0.00186733
-0.02390542
-0.06969889
-0.15148886
0.07960941
0.05923184
0.12459167
0.26453069
-0.10275326
-0.03568027
0.02509424
-0.19296007
0.07287156
-0.09754515
0.06899036
-0.03039499
0.03111873
-0.00736827
0.06697218
-0.13478254
-0.02448528
0.06238029
-0.10743854
-0.29396269
0.00748165
-0.06689399
-0.11424022
0.16021626
0.01227494
0.11097162
0.06603339
-0.13973257
0.11468751
0.09601452
0.17639078
-0.15121074
-0.05589156
0.13803847
0.10239686
-0.13280043
-0.10840899
0.13451025
0.12288979
0.01601660
0.27848470
-0.09896959
-0.17878145
-0.18187676
-0.01160009
-0.19619930
-0.05239552
0.24277319
-0.02633496
0.04340313
0.09537255
0.07272054
0.17741525
0.29034290
0.15675370
-0.11409996
-0.02258575
-0.06760073
0.01794342
-0.17809004
0.12033898
-0.00382283
0.02192035
-0.02005560
-0.00869385
0.03613469
-0.18678221
0.09604234
0.06748573
-0.04278660
0.02622807
0.00514074
-0.24578805
0.09832346
-0.09944869
-0.00501532
-0.07221948
0.08352244
0.18535161
-0.04890979
0.13914658
0.02049707
0.18542019
0.18361008
-0.15804256
-0.06731385
-0.00596459
-0.10908599
-0.01736318
-0.11612437
-0.15811424
-0.07793192
-0.07757454
-0.03329748
0.02174834
-0.14063327
0.00261556
-0.09818929
0.10575987
-0.01399013
-0.03244381
0.05915545
0.07411549
0.04148764
-0.00305929
0.01304781
-0.13721019
-0.03881159
-0.01324312
-0.00515430
-0.17555626
-0.14327106
-0.07876576
-0.02700155
0.04028580
0.09711479
-0.17280252
0.05063145
-0.19448052
-0.00948338
0.15638229
-0.03709506
-0.04075476
-0.16058016
0.07827942
0.02067493
0.19672565
0.02777818
-0.06602272
0.03323494
-0.12787542
0.10935617
0.09674024
-0.07853173
0.16717939
-0.05529076
0.04548344
-0.04616332
-0.03181288
-0.02175090
-0.02612598
-0.12729877
-0.17768556
-0.02628043
0.05507118
-0.04062000
-0.16376212
-0.12218210
-0.21469633
0.03520150
0.08647090
-0.11235764
0.02918756
0.23099524
0.08156545
-0.20202875
0.05382050
-0.05783485
-0.11538807
-0.13164590
0.13756381
0.20991497
0.08779341
-0.08667762
0.00323375
0.23417950
-0.20588319
0.06557913
0.00788352
0.14668910
0.08079970
-0.03972740
0.04879452
-0.05654704
0.15079243
0.02566963
0.00773463
0.00415981
-0.17697959
0.00916250
-0.13371338
0.03899761
-0.04109938
-0.10205919
0.06347694
0.05978158
0.00062046
-0.06862210
-0.09039070
0.02723026
-0.04622606
-0.02922548
0.15001534
0.04608029
-0.20896810
-0.03514729
-0.24337535
0.07263353
-0.05105798
0.01260989
0.21325953
0.03681717
0.01625905
0.06722125
0.11016010
0.00325463
-0.06064828
-0.34035608
0.03700698
-0.06162613
0.08032545
0.21396123
-0.04817738
-0.21662751
0.00413347
-0.06995950
0.02748963
-0.13266334
0.23947854
-0.03599076
-0.00339595
0.07247560
0.04078169
0.04577991
0.10746709
0.27248141
-0.07141397
0.10630837
-0.19894385
0.02857650
0.10341930
0.19773436
-0.05472326
0.02131602
-0.14013037
0.28606519
-0.09039602
0.00416548
0.03458701
-0.01281123
0.03006552
0.03505465
0.06014355
-0.01977207
0.00852428
0.15194061
-0.15445679
-0.14112893
-0.06891794
-0.05348912
0.04686382
0.08725879
0.08475333
-0.04351159
0.03113016
0.02690313
-0.01464888
-0.23388276
0.10229436
-0.10238831
0.03360893
0.15179469
0.12373916
-0.06215896
0.17504200
-0.19172712
0.08269379
0.01277796
-0.04385649
0.14824043
0.16249330
-0.01656123
-0.05502265
0.09010405
0.06318662
0.05382662
0.06137390
0.20699964
0.09672461
0.03202428
0.05515156
0.01269206
0.00956245
0.21955587
-0.17138571
-0.19066064
0.06149893
-0.07839413
0.01664663
-0.12245271
0.24275973
-0.07410865
-0.06263994
0.04561776
0.10380046
0.10916153
-0.22162168
0.04923303
-0.06299665
-0.08764888
0.03283460
-0.09718727
0.02878931
0.06915011
-0.04875619
0.01492126
-0.01350290
0.01769781
-0.03861188
0.14151345
0.01900637
-0.17355661
0.03809211
0.00198365
-0.02187272
-0.00322845
-0.23353900
0.21143122
0.02242351
-0.14004123
-0.07506523
0.00819520
-0.32343149
-0.25069425
0.01640382
-0.05643472
0.15273628
-0.05059538
0.04188560
-0.09501388
0.04106120
0.04701313
-0.02277559
-0.05982164
0.18802536
-0.24308237
0.24138050
0.20565888
0.09763955
-0.15998538
0.12431017
-0.05612546
0.08929426
0.06131405
-0.19021836
0.10033509
0.00557586
0.02039268
-0.04317712
-0.03108190
0.18628255
0.22359508
-0.05194910
-0.19246280
0.12539344
0.05234938
-0.03488521
0.12892105
-0.00537068
0.01359915
-0.06399187
-0.00416156
0.08697118
0.19160061
0.04212217
-0.17167921
0.00036265
0.21173356
0.09950768
-0.01526069
-0.07866661
0.04986681
-0.07557034
0.11476391
0.04981601
0.03838146
-0.03877602
-0.02857969
0.12230176
-0.01235693
-0.07599971
0.00617483
-0.20160240
0.03542411
0.01091067
-0.13858594
-0.11637753
-0.00844264
0.18854754
-0.18723790
0.19441831
-0.16101983
-0.01732591
0.15828893
-0.08888052
-0.06770726
0.20223911
-0.12319326
0.03616009
0.05418158
-0.12724458
0.00838882
0.14581400
-0.09160555
-0.07280358
0.21908836
-0.19606836
0.15039533
-0.01675317
-0.12674212
0.12683137
-0.10271616
-0.26801485
0.15024827
0.07449464
-0.07930706
-0.10634454
0.04937608
0.00843585
0.02213095
0.12271681
0.21947704
-0.15353750
0.09249169
0.22647056
-0.03476854
-0.00574929
0.01837200
-0.00427270
0.00623372
-0.11099426
0.19423485
-0.02982514
-0.04244024
-0.02070759
0.11921712
-0.07029150
0.05248961
-0.10363912
-0.12977365
-0.05162258
0.01613717
-0.01419084
-0.12693571
0.12856795
0.13475779
-0.04101127
-0.01690084
0.07564670
-0.00566909
-0.17755716
0.06555691
-0.00574897
0.06054452
0.13035424
0.04000577
0.24063343
-0.04417728
-0.02359123
0.05183652
-0.05352275
-0.13515675
-0.04619430
0.02624584
-0.03113514
-0.11236258
-0.01076383
-0.20512897
0.11271642
0.08408987
-0.08119034
0.03036676
-0.05376878
-0.00682474
0.09553770
-0.16701236
-0.12543201
-0.12241951
-0.12906682
-0.12492860
0.19074871
0.14131106
-0.10658727
-0.13409673
-0.02027061
-0.15639837
0.08056863
-0.03565096
0.10688005
-0.00476091
-0.22115512
-0.13425285
-0.10803898
0.16907935
-0.01415255
0.15141684
-0.08185994
0.01064848
0.02096755
-0.05743650
0.11697333
0.13545185
0.13123859
-0.04430688
0.10837018
0.07782187
-0.01018045
0.04766495
0.14798211
0.00525420
-0.04027102
-0.11429577
0.00449601
-0.00176220
0.18141495
-0.00191612
-0.06634705
0.08070971
0.21509333
-0.22854497
0.01035568
0.14715280
-0.07784469
-0.04289923
-0.12954944
-0.16164182
0.07927129
0.06112356
0.00855630
-0.03735836
-0.01613948
-0.15640862
0.06018418
0.27403539
-0.16514857
0.05666994
-0.01856900
-0.18198036
0.23831728
-0.11850663
0.23179416
0.09110766
0.00340315
0.03260547
0.14799136
0.13195701
-0.16599523
0.01615674
-0.17595139
-0.14259285
-0.10398424
-0.14248715
-0.05395519
0.12308210
0.16941689
0.04717759
-0.10036050
-0.00765745
-0.07822607
-0.15378541
-0.01749589
0.01058362
-0.00071163
-0.02389657
-0.06852634
-0.02356499
0.03175991
-0.07305188
0.08761121
0.13364224
-0.02806715
0.06886203
-0.30320683
-0.02011209
0.01567337
-0.03610973
0.22670530
-0.01230660
-0.27672142
-0.00711878
-0.18734866
0.08029345
-0.01851110
-0.05817659
-0.05747874
-0.30308017
0.30078131
-0.19056633
-0.09272131
0.09253882
-0.07574250
-0.07063808
-0.21485768
-0.11333829
0.03800871
0.04994093
0.15993801
-0.24137488
0.20059295
0.07170411
0.02820776
0.06233888
-0.12567811
-0.08911383
-0.01431294
-0.03086828
-0.09071179
-0.10185736
-0.00776459
0.13382067
0.14717826
-0.08871236
0.22942261
-0.17142758
0.02933755
-0.05968367
0.10537357
-0.01043290
-0.14532515
-0.35493851
0.18207797
0.43681651
0.04349988
-0.12328085
0.01008496
-0.00357308
0.01748409
-0.09979129
0.05043412
0.11355182
0.11227931
0.01028558
0.14700121
-0.00496478
-0.20588672
-0.05035431
0.01012120
0.01600019
-0.01237062
0.22819416
0.00329699
0.32972732
-0.13635622
0.23555276
-0.23451535
-0.02423545
-0.07997540
-0.01834368
0.20916325
0.15875858
0.14505027
0.00275177
0.17092016
0.07070980
0.18035838
-0.00201694
0.38468248
-0.01448373
-0.11060489
-0.09503523
0.06547296
-0.11657791
0.10620575
-0.18977603
-0.01244227
-0.06300610
-0.03882451
0.14210111
-0.35531315
0.11292432
-0.07065226
-0.15620115
0.13499214
-0.14050847
-0.02153842
-0.07924589
0.10401999
-0.23069657
0.00336183
-0.04359468
-0.09993484
0.13488740
0.36438891
0.24978052
0.03959829
0.15571615
0.06003563
0.01677807
0.00212850
0.02815709
0.03108404
-0.22388516
0.26035941
-0.04648954
-0.14329971
0.01811382
0.09548217
0.20065884
-0.17132215
0.02189302
-0.18275116
0.18903473
0.03966338
0.01663188
0.04002363
-0.01303792
-0.03739148
0.33971664
-0.10308118
-0.04560031
-0.26747847
-0.05850507
0.11942697
-0.05862338
-0.13938098
-0.15412036
0.04657693
-0.19081463
-0.20208541
0.15532699
-0.02509389
-0.21153399
0.19587038
0.03767377
-0.06292088
-0.09704390
-0.12109710
0.00446053
-0.03719678
-0.10909886
-0.16379909
-0.01752886
0.02372715
0.01930706
0.02753420
0.10688306
0.13606176
-0.03579420
-0.03503693
0.06926332
0.10178488
-0.02044306
-0.01905433
-0.14038372
0.06763545
0.01153522
-0.19015770
-0.04365995
-0.05582792
0.11986525
0.13580818
-0.02880473
0.05382803
-0.00148056
-0.06675592
0.00929353
-0.05380111
-0.01769228
-0.14174257
0.01443674
-0.12632662
0.11947071
0.10582084
0.22033773
0.15996534
0.01450544
-0.29005149
0.00008764
-0.06602842
-0.17268534
-0.23849244
0.31485590
-0.07318042
0.11955955
0.05624460
-0.26580894
-0.10260178
-0.02770764
0.14746659
0.02801229
-0.27723429
-0.09712888
0.00562153
0.18667123
-0.15034939
0.04851901
0.10307769
0.22343478
-0.01004857
0.01019213
0.03496147
-0.10633008
0.04039639
0.05369429
0.05657829
-0.02201483
0.13229182
-0.06380177
-0.13877223
-0.21531236
-0.04775618
-0.08605963
-0.21860415
0.11045586
-0.01336250
-0.13116190
0.07459562
-0.13289033
-0.01073043
0.08673986
0.20284961
0.10900969
0.01371721
0.03164261
0.01269532
0.16122599
0.00053189
-0.04744178
0.00118042
-0.02185257
0.14863142
0.07208486
-0.05610737
-0.15942295
0.04388446
0.25868621
0.10240230
-0.10640767
0.17280218
0.02101677
-0.04499680
-0.04258335
-0.11614002
-0.05842610
0.11523255
0.01002107
-0.01764552
-0.06457209
0.19598471
-0.06192672
-0.03339975
0.11447264
0.09217204
0.12988794
-0.04944748
-0.17159447
0.08187309
-0.18710887
0.06077398
-0.07719982
-0.10851209
0.00144989
-0.08674238
-0.28785101
0.10612077
-0.11810701
-0.02053421
0.06467853
-0.05176269
-0.00740539
-0.00811682
-0.02010774
0.13925669
-0.05975631
0.01815744
0.02885533
-0.09133133
-0.06842694
0.11885400
0.10547832
0.03988587
-0.07597270
-0.08762021
0.01617943
0.22512329
0.07774065
-0.18642624
0.02241079
-0.23771091
0.29902917
0.02698646
0.05884584
-0.04030519
-0.01105893
-0.05905999
0.23388593
-0.17984277
-0.10294583
0.03683817
-0.12181991
-0.03314712
0.36974031
0.09117623
0.00904394
0.27489761
-0.03320917
-0.02972750
0.10230481
-0.05345925
-0.07025390
0.12758420
-0.03498955
-0.02862514
-0.05830509
0.01092679
0.05890955
0.23739094
0.05101658
0.15470287
0.02576909
0.01433654
0.12951522
0.08046443
-0.04925386
0.10141153
-0.10339051
0.03201233
0.02397545
0.06757732
0.00980509
0.08148418
0.05612822
-0.13192710
0.03862104
0.04867862
-0.08395267
-0.05130424
0.00401635
0.02717320
-0.07905639
-0.01947495
-0.18758705
0.05439679
0.01904775
0.17157996
-0.08863779
-0.03892208
0.02627800
-0.08540034
0.08981308
-0.22890146
-0.12904462
0.01528646
0.13433374
-0.01043397
-0.05664330
-0.00395439
0.06386705
-0.23825479
0.10669349
-0.00429585
-0.01248278
0.09714366
-0.03193561
0.07789291
0.13625169
0.00812551
0.06460473
-0.05077674
0.01067025
0.07754107
-0.05525827
0.01993631
0.22235662
0.03921304
0.08062527
0.12553781
-0.01803582
0.03000478
0.25789395
0.06203851
0.11219513
0.11621262
0.02963127
0.09830032
-0.00178486
0.13121089
-0.12922868
-0.15042491
-0.05783028
-0.06515660
-0.04706448
0.14325316
-0.06283744
-0.05675495
0.08705780
0.03210085
0.09769732
-0.01975877
-0.10642374
0.06284364
0.12602337
-0.10850205
0.03216938
0.06440596
0.10722829
-0.01511247
0.02159148
-0.06883919
0.10031246
0.03019769
0.01898113
0.00097865
0.08663387
-0.15591851
0.05226048
0.00748018
-0.12601888
0.07948027
0.04366576
0.00833745
-0.03974350
0.00371307
0.05083548
0.13072979
-0.07796394
-0.08791786
-0.13947302
-0.00532491
-0.23178691
-0.03729421
-0.02329729
-0.05783144
-0.09616276
0.03287912
-0.12430005
0.22655606
0.01701576
-0.29032955
-0.11353303
0.12261006
-0.30845112
-0.06231610
-0.23168314
-0.06462330
0.03736685
-0.18913342
0.00742827
0.07268802
-0.11250333
-0.00804153
0.04264271
0.11480576
-0.11113981
-0.12996219
-0.11304364
-0.13366689
0.04289260
0.05432251
0.16108164
-0.10822695
0.15146534
-0.03430943
0.06526876
-0.19486366
0.15931633
-0.04068972
0.10184712
-0.12043649
0.12022030
0.03219147
-0.05688164
0.18813759
0.07216698
0.12627833
-0.02600852
0.03437240
-0.21262167
0.14329445
-0.03136604
-0.14793459
-0.10387176
-0.02741784
0.00495655
-0.03343969
0.05633758
-0.26856703
-0.09945849
-0.26112479
0.01208893
-0.06637635
-0.01831535
0.20050348
-0.00200401
-0.06322578
-0.13398631
-0.01385587
0.08065812
-0.08638290
0.02708909
0.12610346
-0.03520514
0.06612191
0.19082977
-0.02511998
-0.05205490
-0.08759090
-0.23953642
0.13160193
-0.07521381
0.07028297
0.03105821
0.00391174
-0.11633997
0.01168000
-0.07877467
-0.02342143
0.04252721
-0.08918381
-0.20515330
0.15468198
0.00545492
0.07023108
0.01232420
0.22212622
0.09298944
0.15051647
-0.01483485
0.23337492
-0.10067166
0.08587278
0.20593235
0.00061621
0.08372270
0.11933661
0.11476313
0.27807462
-0.07522397
-0.13428465
0.00477811
-0.25967491
-0.07080249
-0.09474120
0.07854044
0.00775048
-0.30494875
-0.04638031
0.02198883
-0.00571663
0.05023238
-0.12125470
0.18612540
0.31442752
-0.05664544
0.18586619
-0.15034191
0.00194784
0.19154787
0.37539086
0.02661275
-0.23650631
-0.10927708
0.00551012
0.00303718
0.08097284
-0.12310877
0.05246911
0.08902710
0.08242492
-0.00905128
0.17543769
0.09973669
-0.09325483
0.03210172
0.03768333
-0.10822437
0.00632666
-0.04065788
-0.07851616
-0.05464589
-0.10086789
-0.14709920
0.20655115
0.04885101
0.03227765
0.05561759
-0.12114227
0.00487759
0.00692488
0.00228770
-0.03510055
-0.14980361
-0.06120535
-0.24960007
0.05617631
-0.35976374
-0.18653962
0.05734148
-0.08592070
-0.04965184
-0.29386076
0.04990497
0.18902370
0.13020439
0.02159272
-0.08780016
-0.09449124
-0.06196713
0.06246335
-0.10424418
-0.02905941
-0.04211627
-0.19667916
-0.04396611
-0.02404850
-0.16713034
0.14099213
0.19895169
-0.01335682
-0.23827145
0.09760232
0.14017917
-0.08440665
0.00813483
-0.05424149
-0.12263311
-0.23912017
0.02075704
0.10256927
-0.19188705
0.11078461
0.06547210
0.06047488
0.04514559
-0.04069798
-0.05237792
0.12540661
-0.18010592
-0.02145818
0.23119392
0.09362867
0.04813855
0.06956744
0.22304016
0.07521062
-0.13903828
0.06048148
0.21892481
-0.20675963
-0.11714715
-0.04903949
-0.11525917
0.02529125
-0.05988409
-0.07592724
0.05490248
0.23093101
-0.01423191
0.01750759
-0.36130801
0.05551022
-0.21633205
-0.03581657
0.19633543
-0.07450090
-0.10417707
0.04231198
-0.00676759
0.07670697
0.15825635
0.00672354
0.12479256
0.02227821
-0.04626390
0.05626364
0.04800916
-0.13428423
-0.02104017
0.01970708
-0.29882172
-0.12533833
-0.09807406
0.17412119
0.19712290
-0.00676774
0.05868186
-0.22452262
-0.07916479
-0.17607634
-0.24285057
0.04427324
0.08606225
-0.00454284
0.14859807
-0.21129461
-0.23874480
0.02705294
-0.11702464
-0.01559531
-0.05336673
-0.29935184
0.06724257
-0.10572705
0.17862307
-0.01462536
-0.24155219
0.02538663
0.00616914
0.11232521
0.08636373
0.08496325
-0.26742461
-0.04165478
-0.08202370
-0.00934998
-0.04019177
-0.13734119
0.05871155
0.11637457
-0.17425314
-0.27356929
0.08347079
-0.18163659
-0.12759899
-0.34337547
0.04218369
0.18520707
-0.06263404
-0.20144033
-0.16931817
-0.15785599
-0.26248106
0.00398115
0.10163116
-0.13823132
-0.19887726
0.03108574
0.12733646
0.02275996
-0.02010981
-0.08192009
-0.01194368
-0.25571385
0.11850102
-0.11032870
0.12261337
-0.19850414
-0.03515183
0.16114990
-0.21702340
0.21746628
-0.10214654
0.01459005
-0.07308666
-0.08616894
0.00633940
-0.00826766
-0.06624100
-0.00457977
-0.03312130
0.08605137
0.04688817
-0.02887285
-0.08089229
0.05191076
0.33177549
-0.21416071
0.12502120
0.09934011
0.06649567
-0.10020103
0.14373915
-0.00673302
0.10298853
0.09285151
-0.15185589
-0.08164560
-0.02252780
-0.05775476
0.12485781
-0.05879311
0.12285256
-0.05838482
0.16560516
-0.16054203
0.15921035
-0.24820213
-0.03039851
0.10434972
-0.18022104
-0.01662990
-0.07586164
-0.09414306
-0.18126170
-0.13532726
-0.00946864
0.07778087
-0.07428978
0.02863020
0.02887526
0.05815276
0.24582444
-0.08573736
-0.01060521
0.09677074
0.01645998
-0.05051065
-0.13839328
0.04824672
0.11228186
-0.06693849
-0.11281259
-0.03044578
0.09302288
0.00178633
-0.02758211
-0.02875861
0.09357592
-0.01961207
0.10795525
0.38085318
-0.10290862
0.10212120
-0.02539480
-0.16818373
0.18507536
-0.03270970
0.08717529
-0.01182145
-0.03500648
0.08508126
-0.12369295
-0.06979010
-0.21442378
0.15334468
-0.13274090
-0.11319745
-0.02046219
-0.26791278
0.05666599
0.18459581
0.06549472
-0.02285395
-0.02116187
-0.06920663
-0.08000638
-0.08643863
0.07600142
-0.04945335
-0.12780890
0.01820600
0.05735195
0.08949453
0.03786005
0.05336713
0.04279529
-0.12887795
0.08392572
0.04684985
-0.01469051
0.12503080
0.25660938
-0.09793524
0.04135852
-0.11702968
0.12597163
0.01841618
0.01494608
-0.05581041
0.01754721
-0.12912565
0.01984519
-0.00160167
-0.00749077
0.04779509
0.01804469
0.28042680
0.13918045
0.13227533
-0.06003139
0.08007818
0.14035434
0.25070697
-0.02842110
0.01954360
-0.15089382
-0.14385355
-0.00720252
0.05746201
-0.07231463
0.08435866
0.01194300
-0.07291492
0.09374740
0.02997706
-0.11874585
0.05370686
-0.10672755
-0.10454045
-0.17000045
0.03827856
-0.01883408
0.09622903
-0.02701791
0.05027525
-0.07882247
0.14993483
-0.11534161
0.04160088
-0.20443504
0.05083198
0.07850500
-0.24311188
0.12053852
-0.07444946
0.01970579
-0.03121243
-0.24503087
-0.01124941
-0.10958762
-0.05332730
0.18211381
-0.12028643
-0.00642626
-0.10910550
0.09795660
0.21116462
-0.15590231
-0.03035728
0.12755656
0.02072710
0.00210935
-0.11732383
-0.03992552
-0.04470991
0.12502272
-0.05914293
-0.10230389
-0.08483175
0.08317079
-0.02669726
-0.01387766
0.00516493
0.04094851
-0.10105462
0.13318485
0.03649791
-0.08435103
0.21985018
-0.05716559
0.07418554
0.16875729
0.01238153
-0.02973392
-0.07659584
0.00990279
-0.22088806
0.10092390
-0.03511100
-0.08004847
-0.06521721
0.02203791
-0.02377783
0.03426682
-0.03600974
-0.19210555
0.07049119
-0.18538789
-0.03901924
-0.19357131
-0.04304972
-0.04425105
0.27895817
0.03884087
0.16400164
0.12474564
0.17972980
0.06103102
0.01380601
-0.01634711
0.19132358
-0.13910434
0.04618445
-0.05226536
0.08258642
-0.10831110
0.08287945
-0.05674872
0.20199756
-0.05027493
0.03968028
0.08544593
0.05005539
0.11782008
-0.02927192
-0.00403499
0.04191184
-0.18216410
0.26201662
0.06239951
0.03883267
0.20662506
0.02961322
-0.10287755
0.12559023
-0.06047070
0.16551894
0.00274019
0.01233291
-0.10026320
0.00328975
-0.02209131
-0.11954165
0.31341702
0.15839326
0.03145029
-0.07295956
-0.09738341
-0.06632825
0.07331912
0.11291169
0.10850380
-0.03040457
0.23453237
-0.03500294
0.06952973
0.03853061
-0.02603289
0.26353812
0.06773889
-0.24196830
-0.11524252
0.16400680
-0.09251107
-0.14490765
0.01732039
0.20941366
-0.17972830
0.00235352
-0.06101267
0.03710658
0.12079343
-0.05324434
0.02550894
0.01467624
-0.05410018
-0.03059204
0.12131188
-0.02342651
0.01781023
-0.07826518
0.01060556
0.14178072
0.12090223
0.18724701
0.16271763
-0.06116492
0.21629417
-0.00345994
-0.02885997
0.18227439
-0.04017141
-0.04490827
-0.18230839
0.22896793
-0.12261457
-0.05657663
0.47961825
-0.11639530
0.00787703
-0.08903496
0.05657540
-0.23430218
0.00674574
-0.01946896
-0.01324816
0.17313397
0.07330865
-0.06338996
-0.05744742
-0.08606495
0.02011693
-0.08674512
0.13065702
-0.05899480
-0.01493689
-0.07781652
-0.01870026
0.09454513
0.01163511
0.05508583
0.02325332
0.06330123
0.00964159
0.03269975
-0.06904159
0.55963874
0.08692440
0.13543379
0.13137163
0.00563529
-0.28196540
-0.14811197
-0.16059467
-0.21961126
-0.00579596
-0.09380100
0.02802810
-0.16488771
-0.00007487
0.18139644
0.04083835
0.11406858
-0.02882134
0.08244751
-0.04357725
0.11997177
-0.19380513
0.13797465
-0.04878214
-0.03634987
0.01016956
0.00989102
-0.04027620
0.02306703
0.04496918
0.06431356
0.09473834
-0.09864132
-0.09000389
-0.18901052
-0.08471505
0.05281167
-0.04528590
-0.00111605
0.03037669
-0.04273127
0.02317492
-0.22224198
0.02456142
0.00134091
-0.00008414
0.02777533
0.27001363
0.10241038
0.02192827
-0.21784790
0.08599284
-0.03810892
-0.03619477
-0.07342324
-0.16851692
0.13201116
-0.27385405
-0.04416170
-0.18657547
0.04721135
-0.05126942
-0.18075517
-0.11254168
-0.02168982
0.02116796
-0.09442835
0.08286986
0.22782631
0.00866254
-0.12373971
0.05213256
0.05802472
-0.20203073
-0.01246085
-0.04950447
-0.19958791
-0.16070649
0.20753260
0.08967949
-0.05215367
-0.09252953
-0.00592875
0.00010605
0.27764779
-0.00606632
0.14545165
-0.00637312
-0.19025218
0.21918476
-0.02121553
0.07354376
0.01815721
0.00063948
0.08225401
0.08853830
-0.09181210
0.12408931
-0.24358462
-0.17892613
-0.07851612
0.00836182
-0.15962528
-0.08579224
-0.11842626
0.19960664
0.03311063
0.11012630
0.00005794
-0.23895727
-0.15683632
-0.11940134
0.06961089
-0.14296736
-0.00626427
0.11152414
-0.24980326
0.02487380
-0.16012828
-0.13834782
0.05376007
0.05120570
-0.06552278
-0.10562118
-0.15847000
0.05063224
-0.14233308
0.03762973
0.25608000
-0.05373674
0.00128135
-0.15305547
0.05909318
-0.03963974
0.07173188
-0.06163018
-0.06543100
-0.11011594
-0.09312379
-0.06092125
-0.10349133
0.11870136
0.02724640
0.38766098
0.14457741
0.04835626
-0.12592480
0.14741039
-0.02255183
0.04093883
0.19231966
0.02816585
-0.03899296
-0.07431728
0.00861027
-0.02598707
-0.02923315
-0.01712836
-0.14304315
-0.00507627
-0.12959589
0.06834945
0.01405607
0.14856027
-0.12653461
-0.02389710
-0.22996001
-0.11262371
0.00619966
-0.04107023
0.02676295
0.00439840
0.05710500
0.12080664
-0.07270381
-0.01247626
-0.05525817
0.03455831
-0.12884612
-0.04299338
-0.02403755
-0.13166276
0.00702849
0.01626209
0.06661207
-0.15358335
-0.14982139
-0.16190580
0.06533922
0.13483471
0.12536435
-0.15850955
0.14681834
-0.16216546
-0.06011015
-0.10160248
0.13092709
0.08312518
-0.10228730
-0.04499426
0.10518825
-0.05077214
-0.06637370
-0.08274732
0.11619534
-0.13517852
0.12477271
0.20286427
-0.02645730
0.01336595
-0.04828020
0.01275656
-0.11219392
-0.10444102
0.04832775
0.04927104
0.03360811
0.05021650
0.13254790
-0.00478036
0.07201069
-0.02446733
0.08642484
0.16126920
0.15721618
0.07389206
-0.02308883
0.09100147
0.08071801
-0.05424687
-0.09556945
-0.00562474
-0.04414518
0.05411917
0.06760658
0.05627871
-0.12310035
-0.10254979
-0.07108933
0.07493953
-0.12392132
-0.03278469
-0.02235279
0.21790397
0.15105349
0.08352027
0.14975794
-0.07258502
0.06596068
-0.09447350
-0.00467635
0.10208452
0.10129672
0.13770761
0.21042940
0.20836830
-0.04681321
-0.02242553
0.07335195
-0.12411574
0.06133293
0.02039897
-0.21981557
0.08022878
0.07243997
-0.07952161
0.06287206
-0.05219950
0.06844638
0.23065366
-0.24447976
-0.13090406
-0.06415725
0.00264222
-0.09055915
0.09499066
-0.05738239
0.04358050
0.05254782
0.02723588
-0.03498972
0.07358914
0.02010463
0.02283511
0.04728328
0.01230572
-0.03809068
-0.24048097
-0.02581064
0.00277283
0.02410619
0.18819048
-0.07988868
0.02012466
0.06442529
0.03513911
0.03318190
0.11512759
-0.05529254
0.02311031
-0.08437566
0.05548913
-0.08057832
0.16448829
-0.01278355
-0.18846983
-0.03044119
-0.04188749
-0.06417403
-0.43296292
0.13246417
-0.02941458
-0.02138947
0.11730628
0.18980116
0.09652631
-0.07321376
-0.05840275
0.26984587
0.02940026
-0.02115367
0.05059977
-0.03222550
-0.11628854
-0.10301626
-0.09922401
-0.02107708
0.05238948
0.26346412
-0.05298556
0.02996895
0.06602636
0.11356233
-0.02527412
0.12915680
-0.10714088
-0.06031216
-0.01321915
0.01534738
-0.00234806
-0.10633476
-0.09222437
-0.01230679
-0.00011715
-0.02354089
-0.15325521
0.12116557
0.02402303
-0.07875026
0.07069148
-0.06513775
-0.12943472
0.23468496
0.01888477
0.05719440
0.13292235
0.21256420
0.07234967
-0.03477877
-0.02308690
-0.12009469
0.13897963
-0.08070489
-0.12775834
-0.08700676
0.13091654
-0.06714799
0.01967051
-0.35492116
-0.08398274
0.04839911
0.07741571
0.08672143
0.02583540
-0.09892169
0.09030570
-0.04020515
-0.01344462
0.14487812
0.08835824
0.00256766
-0.19190450
0.10454502
-0.09177376
0.10122761
0.01058239
-0.02461719
0.03971040
0.11402922
0.03215257
-0.21787167
-0.05563404
0.01632015
-0.18243510
0.18389632
-0.04088488
-0.03880175
-0.17376395
0.02528161
-0.28263029
-0.03392331
0.06472319
0.13909984
-0.07578006
-0.00847995
0.15335485
0.07313292
-0.09087169
-0.07353259
0.20771651
-0.00523117
0.01341070
-0.06193830
0.19059294
-0.09665212
0.14830151
0.19738044
-0.25207639
0.01976938
0.05851063
-0.02946599
-0.13297762
0.03874325
-0.02705225
0.00183437
-0.03038849
-0.01688205
0.05021160
0.13036671
-0.20217955
0.20894919
0.00135853
-0.05203233
0.05111560
0.05098238
-0.00431778
-0.03959766
-0.08404396
0.09617806
0.00728605
0.16949932
-0.13046372
0.13712084
-0.07044100
-0.13948913
-0.04086805
-0.02471538
-0.04940228
-0.18845490
-0.07777300
-0.03735657
-0.28691655
0.08837701
-0.02928181
-0.10672839
0.01095775
-0.05633663
0.16849810
-0.05135379
-0.00165825
0.26969832
0.00891904
0.19853693
0.00470914
-0.11515754
-0.00872385
-0.02727499
-0.00852983
0.32222044
0.12393643
0.08822659
-0.29841501
0.02969512
0.25608969
-0.07408143
0.00356970
-0.14928758
0.02029624
0.01018528
0.15457995
-0.33892784
-0.06986921
-0.02122260
0.24774130
-0.07622861
0.23487960
-0.21145763
0.01435317
0.14353369
-0.09888386
0.03738634
-0.05131837
0.04612060
-0.10460633
0.13174300
0.24634667
-0.18640822
-0.10174765
-0.02297370
0.14516501
-0.06157288
0.01510990
-0.16529109
-0.12999545
-0.06707601
-0.17749159
-0.08157577
-0.00608327
-0.10249385
-0.14968003
0.18382883
-0.02797757
0.12067788
-0.05231705
0.01925194
0.19603777
-0.15299670
-0.13529985
0.10346823
-0.10488817
0.14234555
0.10227960
-0.10426192
-0.08915068
-0.14320686
-0.00148016
0.08109851
0.21524161
-0.02439477
-0.21579751
0.03690289
-0.05878174
0.05395960
0.07767205
-0.11914931
-0.13661179
0.03300336
0.06578648
0.00189836
0.00999212
0.06105796
-0.09460576
-0.01768328
0.02018075
-0.25877792
-0.16845511
-0.02189801
0.07296909
0.17699996
0.09645202
0.06305556
0.20257619
0.03708359
-0.02626436
0.05703883
0.08689202
0.13995709
0.08149438
-0.10819213
-0.02720093
-0.17113395
0.00237747
0.03753930
-0.07267216
0.05232569
0.15159471
-0.05136831
-0.13252597
-0.04187472
0.17260149
-0.24048318
-0.02614128
-0.01720516
-0.10460207
-0.15206169
0.01154012
0.05900811
0.13760276
-0.11803259
0.29075229
-0.09213639
-0.03242552
0.03117188
0.01672322
-0.00191944
-0.17239662
0.05025574
-0.09310075
-0.15114357
-0.05376112
-0.14203094
0.02587623
-0.08879153
-0.06451472
0.06310290
0.00020133
0.15039620
-0.18310727
-0.09280177
-0.04370746
-0.10938891
0.13957156
-0.12589477
0.01791574
0.08525937
0.07395684
-0.02082055
0.27948028
0.12249427
0.07640722
0.15751034
-0.03039681
-0.03757587
0.13177474
0.05865040
0.02602528
-0.02998910
0.16518645
0.01473426
-0.15706886
0.03449678
0.12619647
-0.08580515
0.10723518
-0.10954911
-0.16262273
-0.05143085
0.04430444
-0.05160415
-0.01049524
-0.06283194
-0.15031289
-0.14026669
0.20577230
0.15718473
-0.04145466
0.03445754
0.05689428
-0.15825650
0.12029006
-0.04805624
0.03993278
-0.05389735
0.36494073
-0.05137362
-0.10576706
-0.18260585
-0.01809139
0.00202286
0.18909387
0.13526213
0.03534838
0.05796926
-0.03443342
0.14455873
-0.07710125
-0.00587381
0.00196889
-0.13932593
0.10355347
-0.13575749
-0.05922777
-0.05702107
0.12987265
-0.06325876
0.02492442
-0.05979136
0.02183606
0.07389244
0.03734823
0.23503155
-0.05954587
-0.19198895
0.18887725
0.00866598
0.01370732
-0.02575011
0.08200938
-0.04858018
0.04733134
-0.05704418
-0.02771741
-0.12907539
0.03632953
-0.06536654
0.10806520
0.02349798
0.15230817
0.04715726
-0.13119689
0.11193060
0.00317936
0.01195834
0.04488834
0.04462727
-0.29386759
-0.03092655
-0.14386167
0.17260034
0.04173358
-0.02555553
0.00671864
0.16070877
0.12647021
-0.11089600
0.11674370
-0.04848647
0.17020009
0.13712701
-0.21328004
-0.01158344
-0.17234351
-0.02540726
-0.17349285
0.01451421
-0.13893934
-0.18116008
0.09276941
-0.07419620
0.02535576
0.13109110
-0.02881521
0.16394095
0.04232268
0.06762883
-0.01052504
-0.06755622
-0.04586617
0.06668177
0.12099338
-0.12273222
-0.01011569
0.03688368
0.05885452
0.07020732
-0.08580275
0.03003328
0.11748094
-0.07930039
-0.19885030
0.14197800
-0.10451218
0.02240859
0.04191465
0.00542707
-0.05677859
-0.01684923
-0.05391192
0.26874158
0.06678040
0.02352340
0.17575344
0.02353292
-0.08384456
-0.12497793
0.00485182
0.14289221
-0.00316542
-0.10348561
-0.13774739
0.03604371
0.01838990
-0.06817127
-0.02886570
-0.08942155
-0.04405106
0.02349197
-0.24538448
0.07303184
0.09552217
-0.10278936
-0.06054355
0.03073552
-0.18162738
0.09289523
-0.15978166
0.13431016
-0.04829118
0.07822069
0.02858893
-0.16449523
0.11394208
-0.09424147
0.07368968
-0.02058993
-0.14795087
0.13160710
0.03067203
0.03560984
-0.01758229
0.18175331
0.15803951
0.00573870
0.07124387
-0.00601662
0.01432238
-0.02233576
-0.02282123
0.07171603
-0.04473383
-0.02883050
0.02498387
0.03829355
-0.03120592
0.10132014
0.04018097
0.18033370
-0.00624445
0.00883702
0.05186765
-0.02133388
0.01091485
0.14193961
0.21077730
0.07483847
-0.08584255
-0.11185034
0.06500249
-0.14651856
0.04700329
-0.04438115
-0.07688171
-0.03205968
-0.06232696
-0.10108626
-0.07278038
-0.11194666
0.08100858
-0.31571278
-0.15293396
-0.01326159
-0.03402735
-0.02070699
0.01943289
-0.00192930
0.13714558
0.19365969
0.14867365
0.17205670
-0.01354017
0.07125568
0.15340586
-0.09876765
-0.01169895
-0.08473735
0.08343661
-0.07539671
0.10272097
0.02661482
-0.08560446
0.01198137
-0.02747139
0.28525287
0.17666134
0.19299795
0.17162400
0.09284555
-0.17572001
0.02836485
-0.06473815
-0.03842264
-0.00466781
-0.04958762
-0.00963232
0.22291277
-0.03679970
0.09627464
-0.25163969
0.07531281
0.12659924
-0.21808653
0.08645348
0.31342733
-0.04897696
-0.04181040
0.15823571
-0.05621972
0.12654932
0.07426877
0.05974008
0.26189256
-0.14842835
-0.05724667
-0.08249176
0.05013225
0.00836889
0.20569739
-0.21493697
-0.01168773
0.04099519
-0.13545612
0.03428669
0.00771045
0.08544822
0.17159908
0.24297142
-0.04775565
-0.03429553
-0.00687927
-0.05537820
0.02746969
0.01099121
-0.02100398
-0.14940973
0.16125621
-0.10910178
0.23316222
-0.09258122
0.05257254
0.01268442
-0.09956137
0.11300997
-0.12822983
-0.11894214
0.00912997
0.15295954
-0.08164079
-0.14287427
0.17629744
0.00026430
-0.04044884
0.16876569
-0.00490569
0.02978558
0.01739933
0.12352584
-0.15387781
-0.25817811
-0.16777411
-0.08358028
0.09393314
-0.16172570
0.05638218
-0.09725436
-0.06403462
-0.11375899
0.02754336
-0.00805051
-0.13267121
-0.02592836
-0.11830102
-0.15604006
0.00621077
0.00210142
-0.02048146
0.09536405
-0.15289544
0.12721002
0.08416042
-0.00107164
0.06643032
0.01257932
-0.12743339
-0.05412292
0.11327182
0.06013482
-0.15848452
0.10624722
0.13281518
-0.09164061
-0.17391351
0.03144119
-0.12103319
-0.02460768
0.03512548
0.01900089
-0.01863317
-0.11919679
0.05454054
0.01975528
-0.06443053
-0.00941849
0.10305950
-0.03208763
0.11040699
0.03275385
0.07937408
-0.05970777
0.12953989
-0.00773023
0.01472340
0.18040985
-0.08579753
0.12749317
0.06878921
0.03636375
0.14173663
-0.03543459
-0.03191938
-0.07954827
-0.00681299
0.00325855
-0.10501336
0.07742157
0.20207717
0.14827299
-0.05028203
0.04149316
-0.02006623
-0.04260270
0.03629016
-0.26017249
-0.05365426
0.04777680
-0.00432777
-0.19824436
0.05681106
-0.02086575
-0.00200647
-0.06365723
0.14476037
-0.08152226
-0.03514870
-0.00137834
-0.12871449
-0.17569175
0.00593641
-0.02271905
-0.07409386
0.08861996
0.05814841
0.04077252
0.06404235
-0.25206932
0.14137994
-0.22440676
0.06365351
-0.18132944
-0.00769986
0.20654705
-0.15281312
-0.08534825
0.00129620
0.17298073
0.14253733
-0.09056577
0.07248481
0.00868327
0.08397584
0.10011641
-0.17165743
-0.03855771
0.02593074
-0.02253262
0.11022575
-0.07936357
-0.19269656
-0.09884383
0.07771266
-0.19572192
-0.00124337
-0.04979990
-0.07041359
0.06093248
0.12910911
-0.17622484
-0.14318350
0.24382105
-0.10562141
-0.22104403
0.20114197
0.12811239
0.05683817
-0.31426230
-0.05614551
0.00638860
-0.09346651
0.10564438
0.19825268
0.14435861
-0.14057805
-0.07981544
0.22481380
-0.12284672
-0.05295955
-0.16569176
-0.01707738
0.17863674
0.22557327
0.08604109
0.03097228
-0.16010773
0.30208731
0.08579322
-0.01536173
-0.25132960
-0.12784597
0.14629771
-0.09018123
0.05288719
0.19611672
0.18978357
-0.22955512
-0.03945170
0.00879709
-0.02063469
-0.08788133
-0.17144397
-0.08635556
0.05982511
0.01108175
-0.11601593
0.36757404
-0.03350682
-0.24535768
0.08809763
0.04285635
0.01507862
-0.16176151
0.11482380
-0.00057549
0.24766573
-0.06626936
-0.26696947
-0.19037831
0.07046861
0.00693278
0.09698605
-0.02443626
-0.01774168
-0.03667287
-0.00354084
0.01152059
-0.00087814
0.02734904
-0.01301060
0.08586106
0.00923926
-0.15788640
0.09594587
-0.05601144
0.09073614
0.23890206
0.07492530
-0.04734098
-0.25899893
-0.07929932
0.23238386
-0.16699895
0.16113229
0.17871439
-0.11930965
0.06305435
-0.02917650
0.13443367
-0.16694976
0.04783287
-0.12209518
-0.15018743
-0.12240929
-0.12517759
-0.15772212
0.24760203
-0.04578282
0.12456714
0.02776469
-0.06052269
0.08432123
0.12847996
0.03600612
0.02643907
-0.14717904
-0.03416341
0.09277189
-0.00841599
-0.19890253
0.11067767
-0.20145720
0.10155004
0.12101790
0.15266176
-0.02738189
0.22275047
-0.26546252
0.01641942
-0.18647058
0.01216718
-0.23215400
-0.02297946
0.03465051
-0.07751746
-0.22151439
-0.10698102
0.13345261
0.09937027
0.11924118
0.00218485
-0.01286659
-0.09399471
0.01768672
0.12097874
-0.01869528
0.02950623
-0.10880427
-0.00958377
0.04997222
0.03773264
0.08514290
0.05586340
0.09945057
-0.02665410
-0.04655783
-0.03524420
-0.13697320
-0.11806376
-0.27285910
-0.03348714
-0.05836293
-0.10840255
0.00576176
0.16166908
0.14208218
0.06339706
0.00755628
0.00167905
0.08911797
0.00530851
-0.17020434
0.27062052
0.19062108
-0.00597246
-0.03987259
-0.12700255
-0.08976035
0.01298413
-0.14633231
-0.01928836
0.20217636
-0.10197039
-0.01946402
0.24076396
0.19173130
-0.00704526
-0.02165760
0.00049587
-0.00187710
-0.08688576
-0.02794249
0.01937597
0.16369358
0.00084358
0.02690884
-0.03410217
-0.03511870
-0.03750239
0.05194855
-0.03092837
0.22190313
-0.12837474
0.13323596
0.13527460
-0.00995869
0.19530880
-0.26815742
0.17071033
0.06008124
0.04943204
0.02751086
-0.04467057
0.21471162
-0.02071069
-0.18464547
0.00838844
0.15837671
-0.07139009
0.00009292
-0.03025887
-0.06952196
-0.00795256
-0.07924828
0.09050626
0.06083271
-0.05802219
-0.20710377
-0.04794675
0.00477524
0.12962486
-0.05687394
-0.18508153
-0.03796579
0.18828547
-0.11313698
0.00137069
-0.02671628
0.20696202
-0.10267844
-0.03919800
-0.14887807
0.13332672
-0.02047805
0.12511393
0.16906753
-0.04924836
0.11585402
-0.10184976
0.04265415
-0.12109245
-0.13919733
0.04295570
0.09609254
0.18626429
0.13270503
-0.21239604
0.04004841
-0.09346975
0.01469410
-0.02408969
-0.01040624
0.02635503
0.05377091
-0.04404541
0.14203605
0.11620606
-0.12654130
-0.04107772
0.05253795
-0.20451042
0.02249758
0.09143835
-0.02340993
-0.02445176
0.00152456
0.17621303
-0.07328416
0.04458740
0.15142392
0.17571576
0.24126107
0.08876451
-0.09262025
0.19251548
-0.24322051
-0.12044766
-0.07937946
-0.03025376
0.12799208
0.14184970
0.04834687
0.10489702
0.18437041
-0.18932034
-0.01206482
0.22549425
0.03128323
0.09189931
-0.02241516
-0.12420616
0.12530062
-0.05554966
0.10142639
-0.07057538
0.02685764
0.04398905
-0.08119464
-0.05121248
-0.12036151
-0.22782636
0.10159057
-0.06749291
-0.10021404
-0.26944011
-0.10638867
0.10704034
0.01808454
-0.15018691
0.06292418
-0.18090674
0.01133565
0.07642436
0.14050288
-0.01997049
-0.01890472
-0.00380662
-0.07202094
-0.00593507
-0.13178261
0.00952714
-0.00069464
-0.03244325
-0.10842049
-0.09304645
0.21459635
-0.08019981
0.01417474
-0.17809774
0.00123196
0.00341673
-0.07947670
-0.14983882
0.12116716
0.01095252
0.06780380
-0.07928579
0.13573514
-0.06457454
-0.15844478
-0.07362445
0.03728498
0.14134136
-0.13850546
0.03758890
0.20565301
-0.15612042
-0.04075852
-0.07107953
-0.08854128
0.01262165
0.01973398
-0.22589235
0.10624547
-0.00239049
-0.07515370
0.01885754
0.06076423
0.07186329
-0.09499796
0.00403958
0.16358455
-0.01698465
0.07197242
-0.04921937
0.07104027
0.21185020
-0.35979664
-0.22483402
0.04227961
0.15415245
-0.01257766
0.06271554
-0.23651631
-0.08143762
-0.12735008
-0.09519973
-0.07193419
0.00232604
0.04732968
0.10283935
0.08329928
-0.23255903
0.10900486
-0.13506730
0.13911651
0.03403925
-0.30159280
0.11006813
-0.00026629
-0.14194557
0.06371649
-0.04905539
0.15171015
-0.05670440
-0.08980018
-0.03144130
-0.05401506
-0.07835563
0.09987505
-0.17313170
0.03692181
-0.09140275
0.19475141
-0.01340408
0.07276759
0.11272717
0.19855142
-0.19665928
0.11026867
-0.05691544
0.18259451
0.07899259
-0.26267019
-0.25857466
-0.02178026
0.09829133
0.02209210
0.04068109
-0.08847492
-0.11312684
-0.08173927
0.06414508
0.00609480
0.02498968
0.00689334
-0.03783259
-0.04351802
0.02472805
-0.12179828
0.12693547
-0.13524105
-0.01279009
-0.05803021
0.15115973
0.00273280
0.10240243
-0.19224936
-0.01753858
0.05131572
-0.09318172
0.20673266
0.14112848
-0.05259476
0.00397457
-0.13549984
-0.13487615
0.01668655
-0.15837872
0.02949654
-0.00324046
0.23159802
-0.00384668
0.03083408
-0.21426612
-0.02757050
-0.20209388
0.11954112
-0.00599154
-0.01152222
-0.01279778
-0.12328527
0.00390784
-0.02235463
-0.12454478
-0.02591887
0.04407486
0.07402377
0.13998556
-0.00283698
-0.09723347
0.00928408
0.00073578
0.06900448
-0.04871080
0.08941237
0.10895481
0.03458962
-0.19438876
-0.21754926
0.12166553
-0.08698028
0.02100706
-0.23902172
-0.12278596
-0.16564238
-0.10924530
-0.07771271
0.02024673
-0.18286616
-0.07444333
-0.02268006
-0.01133202
-0.03939926
0.12114210
0.03161525
-0.12391589
0.04082087
-0.05814231
0.03208744
0.03242976
-0.19151616
0.16942769
-0.06612475
0.01992855
0.13256803
0.01608784
0.01459018
0.00896759
-0.13362162
-0.03197971
0.00000584
-0.14755912
0.09164441
0.02725358
0.17333215
-0.05230479
0.17577061
0.11582198
-0.10528208
0.04267983
-0.02263688
0.00486022
-0.02866254
0.46414387
0.05103863
-0.25828901
-0.06740825
0.04673937
0.14051194
-0.11833989
-0.13289411
-0.05474700
0.13631207
0.01742402
-0.42471340
0.03818408
-0.37575945
-0.04009327
-0.22296621
-0.35262090
0.13898219
0.25851679
-0.10102999
-0.11426473
-0.03246020
0.14193346
-0.04279564
-0.01204906
0.03245988
0.03985108
-0.01207807
-0.07204877
0.07033096
0.01152006
-0.10256300
-0.18005000
-0.18972029
-0.03409609
0.03589808
-0.04224493
-0.10071480
-0.10616765
-0.00841897
0.12181778
0.03984432
0.15600207
0.16317944
0.05094591
0.32786521
0.04341027
-0.02560874
-0.02587373
0.00860411
0.01988416
-0.04810911
-0.22398147
-0.03374886
0.11752240
-0.13321067
-0.05825866
-0.02646345
-0.16521110
0.06118050
0.12356079
0.18386295
0.02330348
0.02362039
-0.10043710
0.09065535
0.12856582
-0.03975469
0.09887456
0.16703223
-0.11189191
-0.05308428
-0.08179428
0.00261571
-0.02628358
0.00892996
0.06332240
-0.07404044
-0.01837934
0.03869457
-0.00096958
0.14039582
0.13891648
0.09399611
0.02236375
-0.04785450
0.11326744
0.27904624
-0.21405804
-0.09739222
0.11036760
-0.18012832
0.10622971
0.07590238
0.21649049
0.07679911
0.24168627
-0.06500329
-0.04164329
-0.17671609
-0.01232608
-0.13774911
0.02916370
0.03709260
0.07833947
-0.18816531
-0.19153027
-0.04173008
0.02927863
-0.11533117
0.01565066
0.01869959
-0.02344067
-0.11698154
-0.10146264
-0.16186796
0.08325469
0.16553190
0.12760299
-0.28593081
0.32318485
0.04559616
0.07234081
-0.10842544
0.05242654
0.00497498
-0.02437856
0.03470146
0.01798593
0.07148080
-0.01990397
-0.05071678
-0.10959816
-0.09675279
-0.10627672
0.04389086
-0.04374973
0.21068853
0.12431692
0.03595205
-0.10286087
-0.05089793
0.01107021
0.16399020
-0.07352633
0.08449749
0.02285926
0.16689174
0.09117307
0.10115408
-0.15657216
0.35347521
0.02801663
-0.24377833
0.10709757
-0.21410942
0.09138610
-0.12484647
-0.02299928
-0.14812770
-0.21395668
-0.17701885
-0.05653877
-0.22835249
-0.18948877
0.08392654
0.22359507
-0.00746269
0.00607051
0.23982134
-0.00989811
0.01831273
0.00991287
0.04156305
-0.01750514
0.01085339
-0.08685825
-0.00599468
0.08713903
0.25425011
-0.12475693
0.03822900
-0.00108454
-0.20369834
-0.15005732
0.06754688
0.13203545
0.01238829
0.17582881
-0.05299155
0.05898830
-0.18302868
0.35087657
0.08137096
-0.27658969
-0.08872716
-0.06814171
-0.19619095
-0.09599575
-0.06133183
-0.02870321
0.05979745
-0.02933230
-0.03193621
0.12274215
-0.08562629
0.10286604
0.16008788
-0.04006224
-0.20277017
-0.04400008
0.18486720
-0.14391597
0.14395003
0.01901148
0.07616229
-0.10033080
0.21963570
0.07039019
-0.17474146
0.01036276
-0.07797019
0.04029525
0.05323153
-0.22131494
0.04563675
-0.13517402
-0.22716334
-0.11577729
0.11894739
0.14115034
0.12127268
0.09769461
-0.18127885
-0.02745628
-0.16480891
0.06481727
-0.31984204
0.00844204
0.01285022
0.09152681
-0.20440838
0.09405537
-0.12656417
0.00812814
0.03467026
-0.01629671
-0.00272051
0.44109672
-0.06111113
-0.07562307
-0.08740535
-0.06753683
-0.04103534
-0.19956204
-0.02927811
-0.03140409
-0.01141507
-0.27361929
-0.15034226
0.05777356
0.02990439
0.01217228
-0.05885650
0.08530150
0.35577834
-0.04744630
0.10939823
-0.01308211
-0.01389841
-0.08630657
-0.22555552
0.06170475
0.18627939
0.05119915
-0.20339030
-0.09586147
-0.10173503
0.02719883
0.25951990
0.00689406
0.13210197
0.01930350
0.01334712
0.08727689
-0.08736915
-0.19977269
-0.06812076
0.12153281
-0.15622990
0.05707365
0.14806519
-0.13574709
-0.12919445
-0.05459053
0.04291864
-0.04061727
0.09282088
0.04548096
0.12201419
0.09379511
-0.03530640
-0.02974499
-0.01117718
0.16339159
0.05319104
-0.04322709
0.02156128
0.11123504
0.12428109
0.17248653
0.01847729
0.16253342
-0.02234621
0.12457315
-0.00336894
-0.03333507
-0.20363241
-0.02727562
-0.11222340
0.28323153
0.12498358
0.08085546
-0.07274313
-0.24418417
-0.04534258
0.07904910
0.03664366
-0.14045236
0.01608534
0.03992764
-0.01239601
0.09825101
-0.01411248
-0.10650754
-0.04023892
0.02260289
0.13399094
0.07978918
0.04126434
-0.16476473
0.00115620
-0.01138660
-0.16784497
-0.23905911
0.01288882
0.28869992
-0.10341807
-0.16348040
-0.00159859
-0.05074335
-0.25318128
0.04324537
0.04699983
-0.20053892
-0.00460675
0.23432881
0.08520363
0.21484867
-0.09483342
-0.08598531
-0.16507392
0.14412464
-0.18312669
0.10086570
-0.14121997
0.03537713
-0.04526434
-0.06907359
0.00817377
-0.21035968
-0.13613485
-0.04810360
-0.15246272
0.01884526
0.17293221
-0.04821387
0.18672067
-0.01733583
-0.00829423
-0.01264399
-0.00789961
-0.11243240
-0.02673916
-0.16596472
0.01923441
-0.06034131
0.10623826
0.04118053
0.14846866
-0.05871238
-0.11796743
-0.02029930
-0.11288705
-0.08473246
-0.02433445
0.14417806
0.12733574
-0.06133875
0.01860072
0.04413539
0.16532803
0.00667779
-0.06298502
-0.07503878
-0.04682104
0.09854987
-0.09803501
-0.03725355
0.12326258
-0.02174198
0.07704451
0.08099657
0.02744456
-0.16456322
0.14461578
-0.10524713
-0.04164298
-0.18048042
0.06808155
-0.04690229
-0.19532193
-0.09171945
0.00296302
0.05684710
-0.09193338
0.32839710
-0.14560117
0.08589928
-0.01269388
-0.08497039
0.03896724
-0.20714881
-0.06193600
0.06023829
0.04510907
0.01468421
-0.03916303
0.15998562
0.20275690
0.02281876
-0.05330225
0.13963597
0.00321601
0.14707762
0.10595710
0.04662681
0.04824004
-0.14715125
-0.20987457
-0.16098137
-0.16523348
0.13789052
-0.06735475
-0.04199986
0.22639172
0.10469635
0.06227762
0.08204200
0.01776143
-0.12008918
-0.08031239
-0.00511581
0.04907956
0.04109195
-0.08797087
0.06124018
0.00416387
0.07112724
0.19727285
0.02986476
-0.11224534
-0.21448876
0.09315609
0.02770047
-0.15057409
-0.24379568
-0.04063893
-0.12542801
0.02689220
-0.12495165
-0.12186358
0.06293868
-0.07193039
0.20306993
-0.17619374
0.04857060
-0.02020083
-0.22637361
-0.02542263
-0.03694448
-0.16514246
0.09134885
-0.00936896
-0.03506007
-0.01729785
-0.02235731
-0.03884843
-0.12713258
-0.05936646
0.14633191
0.11849870
-0.03791784
0.23107375
-0.18183580
-0.03224868
0.02756079
-0.11386779
-0.06143697
-0.15026009
-0.12594035
0.04443173
0.20676446
0.04656651
0.06517056
0.10720752
-0.03954126
-0.07074278
-0.11160728
-0.17422998
0.01881288
-0.00215123
0.01127010
0.02158070
-0.14940207
0.03393033
0.12245563
0.03618085
0.17387272
-0.05459698
-0.00717915
-0.08437989
-0.07917001
-0.04276757
-0.08161128
-0.12733187
0.03267247
-0.08429718
-0.00986696
0.00631766
-0.03511033
-0.12349427
-0.06929325
-0.04092797
-0.05069020
-0.31866223
0.03531176
0.05694143
-0.16665907
-0.16887721
-0.07926695
0.02183410
0.09067130
-0.08238646
0.12396038
-0.08739573
-0.10623571
0.05912249
0.08440232
-0.00528872
-0.15023789
0.00045513
-0.05514916
0.05643861
-0.25381905
0.01506566
-0.17494982
0.08599938
-0.10321061
0.10325973
0.26551101
0.01759160
0.19638266
-0.04619908
-0.00503084
0.00192574
-0.16353986
0.12316660
0.01578780
0.10603004
-0.04547318
0.07886526
0.02662790
-0.02026139
-0.10282787
-0.06288577
0.03049442
-0.17845568
0.03447891
0.12931342
-0.02960489
0.00930716
-0.04321118
-0.11647686
-0.08353606
-0.03192096
-0.11655125
0.15887932
0.03152391
0.01219275
0.00991083
-0.05234287
-0.01396846
-0.00726681
0.05404164
0.10800195
-0.06630851
0.12466240
0.11927778
-0.00569541
-0.08293857
-0.00790859
-0.22324201
0.01408013
-0.14968218
-0.02345212
-0.07162079
0.09744342
-0.10336858
-0.15408033
0.05834616
-0.10477457
0.06149950
-0.00318103
-0.13983625
-0.08449753
-0.06517273
0.05550889
0.08041678
0.03642042
-0.02301230
0.23020592
-0.24370898
0.03596689
-0.37658522
-0.05014006
0.03498783
0.00155327
-0.02095917
-0.02510524
-0.16342279
0.00042443
0.15620647
-0.11868713
-0.02318713
0.06037697
-0.11408538
-0.26245824
0.00045765
0.08057331
0.12967889
0.10989408
-0.12783395
0.17852449
-0.12293857
0.12596883
0.05840332
0.08361875
-0.09020455
-0.10519778
0.11825991
0.00506428
0.00707829
0.12835026
-0.07144800
0.05674299
-0.04101527
0.08924920
-0.01761027
-0.00440785
-0.10663173
0.06866483
-0.12722909
0.12018129
0.00648171
-0.19066711
0.02098403
-0.13719317
-0.06083889
-0.02201498
-0.01648377
0.04923093
0.03404850
0.02879369
-0.03637430
0.17847331
-0.16002820
-0.03118080
0.11285307
0.06872255
-0.11478190
0.14881884
0.02296179
-0.13588481
-0.16390121
0.03917242
0.00305954
-0.17769806
-0.22979243
0.02778850
-0.15821202
-0.10883897
-0.07216237
0.04111272
-0.15770552
-0.07985169
0.02337290
-0.15364508
-0.03043007
0.04225224
-0.07485202
-0.16067888
-0.09256330
0.04190144
0.04981344
-0.15942755
-0.10829240
-0.15023792
0.05324996
-0.01789762
-0.07264809
0.01473282
-0.03770389
-0.11054109
0.16614625
-0.08635580
0.06153774
0.08452312
0.11351153
0.19647342
-0.12514299
0.05355928
-0.11408994
0.09730243
-0.03366629
0.10657418
-0.11472163
-0.03452528
0.10596431
0.01048213
-0.10199343
0.22775885
0.28556752
0.01735420
0.14802580
-0.16176422
0.13084228
-0.08259462
0.04661105
-0.07878882
0.00222435
0.00806813
-0.07514639
0.00535262
0.04947628
-0.13315089
-0.04970486
0.10014049
-0.08375630
-0.19023845
0.02523127
0.18222946
-0.15798043
-0.06172813
0.05030424
-0.13522258
0.06138257
0.04862962
-0.02385865
0.12263210
-0.11917771
0.01584539
0.04466859
0.01711718
-0.07933912
-0.13525842
0.24826454
0.02487028
0.06366527
-0.01922050
0.24308681
0.13739963
-0.17179494
-0.11824669
0.10975012
0.04477862
0.09732627
0.17819095
-0.06039624
-0.04073778
0.04664150
0.26568672
0.15581056
0.11084465
-0.01702117
0.11204945
0.08043993
-0.01350831
-0.11724582
-0.00108142
0.17080484
-0.09112483
0.30110574
0.04336523
0.15085322
-0.10518426
-0.13706468
-0.03343309
-0.14290422
-0.01152844
-0.21249788
0.26093417
-0.04678104
-0.02929176
-0.07315116
0.00179071
0.25453836
0.05720565
0.10975304
-0.16281267
0.02184357
0.01901392
0.03297998
0.24144936
-0.04544854
0.04686719
0.26066369
-0.00116981
-0.14914750
0.16812432
0.13201964
0.14486744
-0.08459625
0.09929506
-0.21554939
-0.12542850
-0.19946519
-0.11252561
0.11052532
0.24331038
0.20335670
0.07374907
-0.20266105
0.02130408
-0.02288682
0.17313795
0.03305492
-0.00957606
-0.03215211
0.01380315
-0.06412212
-0.16063923
-0.02689556
-0.10293207
0.07177162
-0.10280553
-0.03575026
0.00834201
0.09900253
-0.03983338
0.14730887
-0.07565431
-0.08436766
-0.04934219
0.01496675
-0.08352324
-0.13757350
-0.09988075
0.10694613
-0.14786188
-0.06885397
-0.03921638
0.19328773
-0.11560054
0.05707467
-0.07367571
0.07106157
-0.02693092
0.00876058
0.02311359
0.12909657
-0.15600832
-0.05937225
0.07626376
0.09013148
-0.24976408
-0.05956658
-0.16288659
0.07949574
0.05473985
0.15306261
0.11250728
0.01614001
-0.11444765
-0.10395542
0.03414485
-0.24066967
0.17284279
0.14499655
-0.08751123
-0.13053536
-0.03745224
-0.11068269
-0.01990537
0.00554006
-0.00774409
0.04521921
0.06074919
0.06208302
-0.09218465
-0.23127314
-0.18250710
-0.06021979
-0.16466258
0.04551867
-0.10609926
0.11366197
-0.12950413
-0.02484402
0.16859287
-0.21681085
0.06812042
0.03876609
0.12457999
0.01759472
0.04255489
-0.13548474
-0.13454823
-0.00347830
-0.02284493
-0.11279996
0.00645347
0.00429376
-0.09544224
-0.15442061
-0.00404900
-0.17039131
-0.04006205
-0.03210145
0.03165883
-0.13891761
-0.08836845
0.01480810
-0.00040283
0.14348017
0.00752877
-0.01022085
0.18593803
-0.01446303
0.10276658
0.07364354
-0.05311398
-0.05585327
0.12764561
-0.08885988
0.05398300
-0.13044994
0.02915119
-0.00809546
-0.14910273
0.11124358
0.11130714
0.00424687
-0.02717929
-0.20420194
-0.19702134
-0.08028001
-0.25983310
0.02270481
0.01094945
-0.02750302
0.00883297
-0.03829545
-0.27184793
0.02287838
0.01791253
-0.01385470
0.04795191
-0.23030153
-0.05054545
0.07327759
0.17692024
0.10634552
0.17293732
0.02993612
0.10229950
-0.09046047
-0.06727842
0.07186776
0.05897635
-0.04699702
0.03218468
-0.10900102
-0.12574936
0.07644629
0.11205766
-0.20422825
0.17851955
0.20578212
0.00136492
0.13849752
-0.17565778
-0.10985068
-0.15688506
-0.03338729
-0.17408568
-0.00896846
0.02771311
-0.00394258
0.00998261
-0.08622123
0.06135305
-0.11663038
-0.09198464
0.06697288
-0.04369872
-0.09383150
0.09911203
-0.02320969
0.02818294
0.01705852
0.10424046
0.01876288
-0.06964117
0.06111301
-0.01921417
-0.26261675
0.10910090
-0.14580710
-0.05587911
0.01579491
-0.03973999
-0.04684255
0.21998915
-0.05522963
-0.20073134
-0.07624283
0.32841763
0.17159472
-0.14605519
0.13702759
-0.04239678
-0.23784137
0.13571122
0.08756837
0.00078205
0.03020035
-0.02116585
-0.11015572
-0.18351161
0.02242869
-0.08646834
0.09195294
-0.10690270
-0.08634686
-0.19635558
0.06617218
-0.02455070
0.09704556
-0.05502572
-0.03892907
0.07003812
0.14657299
-0.00391468
0.19786073
0.00195448
0.21859653
0.00050559
0.18797530
-0.12825012
0.13583915
-0.02195317
0.12469710
0.04608352
-0.02635581
0.28944239
-0.01372173
0.00498953
-0.06294098
0.16021614
0.09397160
-0.03506098
0.02563894
0.02327983
0.14808010
-0.12228090
0.02361697
-0.01817788
-0.00778371
-0.02653512
-0.16125551
0.14672449
0.19377930
-0.05970835
-0.00865489
-0.28745177
0.14988957
0.01778515
0.03065938
0.10841180
0.07854838
-0.04992669
0.01184513
-0.01625232
0.11641414
0.17930570
-0.17148542
0.08620490
0.31853718
0.08927186
0.04793573
0.01166620
0.09979483
0.03991421
-0.09802898
0.11477258
-0.02696495
0.08229098
-0.19837269
0.04792676
-0.15648463
-0.03569608
-0.10271665
0.09515738
0.02555897
0.14441563
0.18878549
-0.04187310
-0.02905575
0.01889212
0.09329075
0.16970240
0.05641209
-0.13602380
-0.02360532
-0.03310212
-0.07581938
-0.10178052
-0.06188431
-0.01612974
0.12336224
0.05280652
0.05768360
0.07422531
-0.03690200
-0.02701826
0.06499450
0.02157912
0.00759200
-0.01385525
0.02558461
0.06513891
-0.05652854
0.09636104
0.16422807
-0.06324989
-0.06119277
0.00703342
-0.03796960
-0.13624534
0.11693420
-0.11624439
-0.10025117
0.02588341
-0.06491995
0.04051585
-0.14636262
0.21783914
-0.14836225
0.10875154
-0.04235044
-0.16602333
0.14313979
0.04198701
0.04161328
0.00880933
-0.12172797
0.03477700
-0.03038492
-0.03849585
0.20442504
0.08449190
0.06739526
-0.12665568
-0.06342594
0.01057023
-0.06668110
-0.01576299
-0.01336030
-0.01868849
-0.04973288
0.00193656
0.19265223
-0.13978933
0.14985865
0.05651934
-0.11931168
-0.13240013
-0.01917599
0.01736712
0.07443404
-0.00646022
-0.16485810
-0.24956231
-0.08052681
-0.07531540
-0.10393589
-0.02275182
0.18364355
0.07650645
0.09481849
0.02999979
-0.19170290
0.06714732
-0.01557178
0.19527735
-0.01857901
-0.06952488
-0.04011313
0.05293919
-0.29392755
0.03214927
-0.05576031
-0.08979391
0.04843640
-0.12115379
-0.27171037
-0.03434962
-0.02340032
0.03451009
-0.10518070
-0.01463526
0.23706965
-0.12589929
0.02336499
-0.20135809
-0.08566034
0.22579481
0.16037443
0.16548376
0.13365766
-0.03882114
-0.08508819
-0.12504424
-0.06680525
-0.12995714
-0.02981882
0.13234608
-0.01210425
0.11020176
-0.15299875
0.01637253
0.06803008
-0.04673733
-0.13960555
-0.05583379
0.15123475
0.03924236
0.14127904
-0.03774903
0.02791991
-0.07643384
-0.02077374
-0.03069624
-0.02046766
-0.01485535
0.08734548
0.07717660
0.14686230
0.15940426
-0.00839557
0.10758553
-0.02862050
-0.00457355
-0.01329211
-0.05068987
-0.01624599
0.01209745
-0.06009333
0.01125312
-0.19855617
-0.01066685
0.06218178
0.01319001
0.03621898
0.00706869
0.03649300
0.05284378
-0.12369740
-0.11982980
0.11455192
0.04010647
0.10273334
0.06816024
0.13336234
0.26938814
0.08341078
0.02044890
0.13311264
0.00311398
-0.02939328
0.00966918
0.07893416
-0.22500469
0.04219056
-0.05965311
0.00502874
0.04505285
-0.09555162
0.24690130
0.07432385
0.08790206
-0.04555643
0.01636346
-0.12517956
-0.01098690
0.16846697
-0.04643729
-0.13842663
0.01224365
-0.07124667
0.12767282
0.00538239
0.11554205
-0.05539612
-0.18426856
0.04838309
0.05932826
-0.06835147
0.05883239
0.00265094
-0.15732875
0.06532274
-0.00115861
-0.09470011
-0.13709436
-0.00719526
0.02958788
-0.10607572
0.00806432
-0.06506766
-0.03041357
0.03320980
0.01377846
-0.05028350
-0.03432019
0.13349998
-0.07402430
0.04798547
0.14508449
0.07716864
0.04133386
-0.07385493
0.02134623
0.30207253
-0.09601807
0.06092663
0.05381144
-0.00000773
0.00197930
-0.11383705
-0.07474591
0.20685817
-0.00226061
0.04780511
-0.02412000
0.06523947
-0.07223941
-0.17042114
0.39503676
0.20778897
-0.03248146
0.11205946
0.02737286
0.01269290
-0.02602948
0.06427878
-0.04908464
0.15575428
0.08080040
-0.17634203
0.06683546
0.20884818
0.08190453
-0.18664944
0.02076083
-0.04804124
-0.15822542
0.02378019
-0.21508130
-0.01918715
-0.03151126
-0.00912376
-0.05668198
-0.07761154
-0.09891912
-0.06427957
-0.10079654
-0.03795968
-0.15283898
-0.00701024
0.24529284
0.00493581
-0.22794937
-0.01590585
-0.05737714
-0.13839406
0.06712689
-0.04710952
-0.27999538
-0.16349824
0.01025427
0.05526524
-0.02886600
0.03884796
-0.20287237
-0.01950871
0.18909280
0.01951949
-0.23252527
-0.00137763
0.05450916
0.06031290
-0.27596700
-0.12356064
-0.01039692
-0.16899167
-0.15383723
-0.08812630
-0.04075193
-0.09562352
-0.20972858
-0.11926237
-0.00903999
0.01130415
0.04952690
0.03566824
-0.05079895
0.01221245
-0.02141965
0.23765665
0.07595431
0.18245970
0.03319529
-0.06084035
-0.20427908
0.19133428
0.02108898
0.00938840
-0.19748336
0.03206953
-0.00631292
0.14146188
0.27769578
0.03960619
0.06053519
0.11201887
0.01975269
-0.02686169
0.12551621
0.04986265
0.01679237
0.09888940
0.31153411
0.14479689
-0.10215256
-0.12980138
0.01209958
0.17118213
0.09825476
-0.02710761
0.09947518
-0.05599744
0.07155310
-0.18131511
-0.05203488
0.02430505
0.05563293
-0.03003871
0.06363598
0.18434519
0.01342818
-0.05237315
-0.02771721
-0.01760809
-0.20886426
-0.19575652
0.00220906
0.07036687
0.19156419
-0.04402806
0.03750179
0.04288199
-0.02202692
0.05571801
0.17626485
0.11141490
-0.11739328
-0.04499458
0.03919912
0.04384412
-0.01561463
-0.00831069
0.14507619
0.17849271
-0.10331877
-0.05020537
-0.25618708
-0.08527250
0.00203039
0.02263199
0.05257298
0.01348666
0.01415403
-0.00738472
0.23335513
0.03970510
-0.05210463
0.04845765
-0.00742803
-0.07999022
-0.05133441
-0.09375572
0.01219947
0.10469949
-0.11597430
-0.01309753
0.03896585
0.15235338
-0.11749998
0.22750928
0.08563241
-0.04071020
0.01913584
0.07648020
-0.02868610
-0.30317765
-0.12177899
0.22622453
-0.01766963
-0.01489610
-0.18348424
0.06534549
-0.06810072
-0.12753606
0.07993379
0.00570007
-0.07192066
-0.03280450
0.17401041
0.15637472
0.18521392
0.02952471
-0.02205107
-0.10484519
-0.02774576
-0.04316855
-0.14653857
0.17485738
0.25749984
-0.09187467
-0.17348793
-0.09977860
0.01620217
-0.02578030
-0.09687664
-0.12462168
-0.14865465
-0.27011797
-0.07053832
0.13969344
-0.01022292
0.11828610
0.06561208
-0.01468149
-0.01164548
0.25296304
0.25134671
-0.37042108
-0.28677526
0.20523819
0.07716598
-0.12192292
0.01279158
-0.06309196
-0.00520300
-0.00643751
-0.08024163
-0.00844209
0.03353652
-0.15808697
-0.06726564
0.06310639
0.10563347
0.09555054
0.03098314
-0.27452257
-0.00485776
-0.03714250
-0.03070192
0.22789365
0.05749867
0.08921659
0.20263158
0.01116477
0.16799158
0.02616476
-0.03160819
-0.11630046
-0.00931113
-0.12174721
0.08472344
0.07925530
-0.10118347
-0.01270221
-0.02731721
-0.07977850
0.05123630
0.07542664
-0.13909177
-0.17129739
0.11168605
0.03980399
-0.30380753
0.07329583
0.19389884
0.08079161
-0.01300648
0.03592323
0.15334511
-0.01100325
-0.08747870
0.12546235
-0.00328085
0.15383489
0.18174876
-0.17665616
0.11126838
0.10714272
-0.04162664
0.32521421
-0.09011364
-0.03888914
0.15558611
0.00198282
-0.18430974
0.02601426
-0.01166639
-0.09338663
0.06767505
0.22147879
0.06350525
-0.05069631
0.02302689
-0.01689570
0.01679137
-0.23411547
0.17299971
-0.26445332
-0.02404387
-0.03015297
0.06268329
-0.09579473
-0.04650029
0.14927912
-0.00644827
-0.18155527
0.14882219
-0.20310138
-0.09866640
-0.17211127
-0.25487810
0.17603779
-0.17111067
0.04363044
-0.04945181
-0.12493677
-0.13963515
0.11126900
0.04125173
-0.28711784
0.02754623
0.06640207
-0.08688648
0.16969414
0.06401298
0.10312096
0.08813727
-0.18408155
0.11564566
0.13306378
0.03294508
0.02522366
-0.07696950
0.06531710
0.18552570
-0.05581777
0.24204960
0.23186734
-0.20823763
0.01214504
-0.20731860
0.12991713
-0.00722669
-0.16927448
-0.06399895
0.12590861
0.35083756
0.06063194
0.13572410
0.00778339
0.00400444
0.10318763
-0.09940878
-0.10125168
0.14971629
0.23756745
0.07766792
-0.00351062
-0.21804799
0.20602486
-0.12810487
0.08580392
-0.03773061
0.26448458
0.17472260
0.05304132
0.08104873
-0.08293779
-0.10112793
-0.12337340
0.26510698
-0.09217457
0.16780239
0.08087267
-0.08610375
-0.03680698
0.03944827
0.13649587
0.19350915
-0.07731042
-0.04732057
0.02951416
-0.00124117
0.09962757
0.04762871
0.04757849
0.28154305
0.31192109
-0.07770106
