-0.08478595
-0.00084378
0.04087805
0.05784829
0.02849660
0.03209229
-0.17407946
0.14725891
0.00194065
-0.08444990
-0.19798091
0.21686564
0.05742949
0.03731222
0.09220394
-0.07175995
0.07288642
-0.11490862
-0.08529254
0.00184557
-0.11293022
-0.00893240
-0.21170412
0.00058723
0.11003975
-0.06743545
-0.11780476
0.12343904
-0.10937017
0.08354574
0.04972669
0.08267026
-0.02592165
0.03450172
0.02774390
0.16056719
-0.06868292
0.10767709
0.03781550
-0.05946178
0.08220360
0.05385260
0.05538299
0.21854550
0.01270193
-0.00885064
0.01233258
0.10544640
-0.12102026
0.05653798
0.19703317
-0.05457905
0.00576878
-0.05961996
0.03603578
0.17589517
-0.02867525
0.03829180
0.10966964
-0.11913282
0.06608580
0.00561803
0.03651235
0.00766392
0.08242597
0.00739250
0.00719446
0.02001013
-0.03494186
0.00466443
0.00188695
0.01876765
-0.03728615
0.00547776
0.05955189
-0.15423054
-0.12598364
-0.13618091
-0.01397211
0.15462328
-0.05148363
-0.10171766
-0.00032521
0.07493495
0.20668246
-0.04477460
-0.05566281
-0.00328749
-0.02583468
0.03489175
0.00789682
-0.07921375
-0.07336038
-0.17152491
0.05725982
0.16673850
0.20328228
-0.07842755
0.13505417
0.06489015
0.12172198
-0.10943073
-0.13178797
0.17486039
-0.03711065
-0.04329351
0.11769862
-0.17166352
-0.10362088
-0.06127931
-0.17884099
-0.18019186
-0.11824257
-0.10486309
-0.18499054
0.00791192
-0.01484452
-0.02432200
-0.07737969
-0.12356934
-0.05561253
0.02953000
0.11550357
-0.01327832
-0.06058306
-0.00978764
-0.03031090
0.04688723
-0.05681533
-0.09966857
0.09062204
-0.03478982
-0.01259232
0.00719976
-0.05420718
-0.03799158
0.00688768
0.06472152
-0.00288387
-0.04697486
0.02211835
0.07171456
0.04439464
-0.03172008
0.06037385
-0.12636462
0.11237231
-0.01774522
-0.11214337
-0.02713925
0.03517437
-0.03346774
-0.03464816
0.11432294
0.09810372
0.05492623
-0.08909529
-0.07953196
-0.03048091
0.07667676
-0.03410315
-0.16661716
0.05281344
0.11380071
0.10789669
-0.04596194
-0.01396132
0.03626590
0.05314735
-0.01505734
-0.05317017
0.03770733
-0.12013929
0.01071890
0.00757369
-0.01703493
0.14306794
-0.01016815
-0.05773295
-0.06345856
-0.04060922
-0.12802757
0.02562202
0.05634471
-0.13443576
-0.01391032
0.17184785
-0.05263751
0.15503305
-0.02771336
0.02404551
-0.01910381
-0.00851324
0.05114860
0.15577610
-0.00402914
-0.01172614
0.01440727
-0.04250168
-0.03055136
-0.00478061
0.00631222
-0.01375896
0.04440910
-0.03722939
0.09428753
-0.00011988
0.09527702
0.08282980
-0.10900670
0.02615772
0.06940426
0.02522558
-0.00033187
0.08804519
0.01447167
0.06654101
0.08254199
-0.08886353
0.04762248
0.13817486
-0.09865518
-0.02721435
0.20627365
0.15374644
-0.06436761
0.05548733
0.00901756
-0.11973558
-0.04470319
-0.14899075
-0.03408715
0.10691886
0.06730456
0.00977311
0.01171883
-0.00263331
0.09890969
-0.15858689
-0.02175854
0.05763092
-0.13993323
0.02579633
0.01046778
-0.08909508
0.01778058
-0.10163850
0.01366595
-0.12370715
0.10773441
-0.02121127
-0.03547934
0.04051967
0.11527364
-0.00024925
0.03783972
0.20231806
-0.13188614
-0.01535321
0.07091598
0.00445296
0.00372258
-0.09638341
-0.12837082
-0.06682487
0.03859720
0.20759889
-0.03231768
0.05959167
-0.16048226
0.05954829
-0.03842720
0.19157313
-0.12722321
0.05888655
-0.03905713
-0.10504713
0.07440019
0.13497338
-0.05416145
-0.02233626
-0.07729188
-0.11516871
0.20591918
-0.04229248
-0.00962140
-0.05013487
0.05450255
-0.04011134
0.04013430
-0.03143213
0.10702424
-0.01839232
-0.07227529
0.03129805
0.09628154
0.01221197
0.01024042
-0.15533184
0.04608556
-0.05624103
0.04175395
0.01082533
-0.05670244
-0.00254334
-0.03650440
-0.08807260
0.16958390
-0.03887586
0.13245967
-0.00382780
-0.10303594
-0.07112575
-0.15201472
0.11572233
0.01075360
0.13348982
-0.08150727
-0.00161730
0.05955064
0.00554449
-0.01146059
0.00490615
0.03171376
-0.03254385
0.00169814
0.04726435
0.05553537
0.05205201
-0.13637932
0.03084005
0.00776338
0.06408697
0.12729360
0.07218654
-0.09794396
-0.04777965
-0.05582692
-0.03546729
0.05930216
0.06086399
0.00056892
-0.02796595
0.02733596
-0.00725490
0.17247604
0.06907720
-0.02369645
0.00654624
-0.07342235
-0.03149076
0.09068722
-0.09663225
0.00381437
-0.05164061
-0.01955927
-0.08096408
0.02362925
0.14891309
-0.13279255
0.03116665
-0.05459965
-0.07719501
0.07816354
-0.11307303
0.10539158
-0.01831989
0.08791739
0.10642456
0.20047770
-0.05718888
-0.11851878
-0.06013234
-0.02320476
0.04781437
-0.06139848
0.04626671
0.07670881
0.10854031
0.06523526
0.02394402
0.03368036
0.05373864
0.02595004
-0.02790222
-0.06636693
0.02488882
0.07602053
0.03317477
-0.00358868
0.10497651
-0.06488492
-0.22206087
-0.06556730
-0.01038676
-0.12425164
-0.02318502
-0.17162324
-0.00214005
-0.07925669
0.04803060
-0.02429498
0.05347089
-0.08812783
-0.02289515
0.02645213
0.11386208
-0.18375415
0.01927949
-0.03109871
0.08998796
-0.04901155
-0.12352434
-0.04431603
-0.01584933
-0.01447017
0.10782211
0.14248732
0.07199732
-0.21617593
-0.14131072
0.07207545
0.03495416
-0.12334586
-0.00667174
-0.06970205
-0.08259710
-0.14810126
0.04970925
0.05016132
-0.05248465
0.07767411
-0.10244405
-0.07083088
0.00399627
-0.04762641
-0.08688190
-0.06391755
0.07387554
0.00439845
0.04314167
-0.00243549
0.07366017
-0.10323393
-0.03960862
0.00958022
0.10209555
0.05568176
-0.15504898
-0.01241385
0.12063993
-0.02796460
0.00015076
0.09443796
0.03184718
0.06289780
0.17676635
-0.28734145
-0.09111946
-0.21938542
-0.01922550
0.02706853
0.07019353
0.02751683
0.00891243
-0.13153513
0.08970430
-0.01148268
0.12145386
-0.03208318
-0.12553574
0.04737511
-0.11181378
-0.00726415
0.02277352
0.05919413
-0.07699937
-0.06773642
0.06233079
-0.22078586
-0.13250482
-0.09128051
-0.02877126
0.01266663
-0.21998629
-0.05065712
-0.20124625
-0.00173381
-0.03377564
-0.07215599
-0.03577211
0.00782753
-0.01598600
-0.11384407
-0.01632855
0.01913684
0.07990128
-0.15504174
-0.07365515
-0.03702534
-0.01052864
0.02778707
0.22111559
0.01736598
-0.14556465
0.04584242
-0.05582704
-0.08281233
-0.02636516
-0.07332855
0.01066537
0.11417415
-0.09054388
0.05621205
0.07123028
0.03284242
-0.00658285
-0.06228467
0.08447549
0.15486366
-0.02306897
-0.10373171
0.04630392
-0.11113477
-0.01810522
0.02209830
0.01141322
-0.02987415
0.02119106
-0.12646581
0.11478531
-0.04073813
-0.10075843
0.03726225
0.06522572
-0.05791343
-0.00628621
0.12763157
-0.17433852
0.03115183
0.06321402
0.08638512
-0.01115950
0.04602902
0.00149957
0.03726029
0.11498001
0.04248640
0.00284594
-0.02576306
-0.04450820
-0.04042055
-0.00794883
-0.06356709
-0.01077505
-0.10973745
-0.07668827
-0.11148705
-0.15406400
-0.00776490
-0.15248691
-0.04422508
-0.11777316
-0.06255362
-0.00315637
0.10626567
0.01325167
-0.15063593
0.00850287
-0.07149365
-0.00526210
0.00617769
0.07238383
-0.04953347
0.02286858
-0.05089719
-0.05245332
0.11774870
-0.02375007
0.02411222
0.01947865
0.02998026
0.02699489
-0.00116185
0.04748522
0.10645743
-0.02008403
-0.05033460
-0.04916144
0.05700509
0.04227563
-0.11501117
0.13074009
-0.08101466
-0.00433898
0.14528401
0.15740353
0.11166820
0.04865829
0.02109110
0.11346457
0.01574096
-0.15748936
0.01234101
-0.05256853
0.20699829
-0.01616245
-0.21772487
-0.14533791
-0.00922563
0.06636707
-0.00165080
0.13577116
0.09297364
-0.24477272
-0.00367268
0.10341229
-0.05061842
0.04590057
0.08073321
-0.02896609
-0.06631819
0.03989640
0.05067359
0.12599248
-0.09248598
-0.03615146
-0.13670662
-0.02520574
-0.00833480
-0.00109237
0.07940099
0.04684611
0.07716513
0.00089826
-0.03180535
0.07143085
0.15352640
0.03305459
0.04757471
-0.11514196
0.14598618
-0.16966686
0.07200371
0.01163154
-0.09437662
0.06944263
0.07695995
0.00321560
0.04798581
0.22867769
-0.04899614
0.12882766
-0.02601228
-0.03970223
-0.04993910
-0.03824551
-0.03450154
0.02933218
0.09553088
0.05886940
-0.16450040
0.13948955
0.23969476
0.04733411
0.14289790
-0.04186697
-0.11193991
-0.18479934
0.17766654
0.01480098
0.02718936
0.00741439
-0.06054211
-0.00402447
-0.03841498
0.18550007
0.07657813
0.02234554
0.04462323
0.04034956
0.13990620
0.05213764
0.01909300
0.00766023
0.05494586
-0.00184453
0.03145038
0.17949277
0.05991244
0.01149109
-0.17270499
-0.02088784
0.02372382
-0.02017529
0.00483202
-0.16856804
0.04655941
0.00262294
0.00123157
0.02116804
-0.04679997
-0.11782694
-0.17199890
0.14672026
0.02790336
-0.09758461
-0.04995770
-0.00442572
-0.00709883
-0.01453723
-0.13092899
-0.06231841
0.11487227
0.04369193
0.01739794
-0.01265757
0.07677118
-0.08830860
-0.10557693
-0.09970617
0.24747656
0.06066993
0.05305441
-0.04384990
-0.04955053
0.13885838
-0.10643425
0.19495305
-0.00528415
0.05584948
-0.07830675
-0.11087053
-0.08545902
0.00233925
-0.19040221
-0.04378699
-0.06098657
0.01600447
0.00325569
-0.11245339
0.08978822
0.15858370
-0.04062907
0.01820809
0.06203680
-0.03396332
-0.06173270
-0.06815927
0.02555891
-0.02748711
-0.01436993
-0.00631761
0.15792389
-0.02103428
-0.01086518
-0.04542058
0.00979037
0.04323396
-0.11751665
0.06486551
-0.06414018
-0.00609587
-0.01453857
-0.03592977
0.17244157
-0.03499227
0.02249024
-0.01712924
0.08626550
0.05709943
0.06515388
0.01425378
0.15294795
-0.00744382
0.04477373
-0.11729503
0.01465527
0.13101959
0.17339559
0.00339002
0.06310005
-0.02730475
-0.03596840
-0.00948327
0.03192434
-0.10709476
-0.09736607
0.05940300
-0.16755204
0.10997161
-0.05826636
-0.06295042
-0.02685674
0.13880031
0.03053252
0.01492646
0.07664921
0.05410225
-0.02013744
-0.02109046
0.06332492
0.07836125
-0.05287793
-0.00783380
-0.01730273
-0.00158517
0.05121285
0.01810344
0.01418080
-0.05539702
-0.03362073
0.07227053
-0.02697664
0.00785236
-0.01643955
-0.04712527
-0.06174951
-0.03905213
-0.06305676
-0.02624107
0.07136191
-0.08738675
-0.02182601
0.18431728
-0.05546620
0.17668682
-0.03311691
0.01948061
0.02781495
0.02463131
0.10569411
-0.01640969
-0.00763849
-0.13998507
0.06740364
0.07545345
0.00503262
-0.02493799
-0.01561290
-0.09380991
0.05958685
0.04984150
-0.06985790
0.04880858
-0.06088478
0.04656836
0.01515305
0.05423738
0.01121116
0.00027289
-0.05463863
0.00036081
0.05569830
0.00883283
0.00536579
-0.00186404
-0.11841001
0.00005447
-0.08710149
0.00029073
0.03402747
0.02014941
-0.05527683
0.08574294
-0.06211298
0.07786023
0.02824906
0.06472462
-0.10308162
-0.06322335
0.12708472
-0.00919694
-0.12173618
-0.00539682
-0.02774723
0.04344237
-0.12937483
-0.06392192
0.01821777
0.20866959
-0.03551027
-0.02394561
-0.12140179
0.04357964
-0.00228510
0.00064661
0.05474142
-0.04120612
0.00401621
0.05279870
-0.08495574
-0.05402941
0.23985277
-0.05036452
-0.04723891
-0.15342021
-0.28361553
0.13157751
0.10172154
-0.03789072
0.14066631
0.01277567
-0.07686850
0.06263363
0.02746691
0.02537307
-0.17834486
0.02160886
-0.08252659
0.03767397
-0.03700847
-0.02835895
-0.16104233
-0.06688183
-0.07670857
-0.00958956
-0.10927937
0.12436533
0.11639968
-0.00082574
0.05470075
-0.13536681
-0.04254741
0.23747617
-0.19077611
0.08583988
0.03244985
-0.04217368
0.02599570
-0.09340941
-0.21522765
0.05893017
0.04209816
-0.02503212
-0.09922035
0.08093940
0.04851217
0.13708276
-0.19237664
0.07332142
0.02701247
-0.00042602
0.02206598
-0.26943451
-0.11746216
-0.03694709
-0.23544379
-0.00769040
0.08845281
-0.05934972
-0.03393232
0.10140374
-0.05174140
0.21120909
-0.02884704
0.03985520
0.00680621
-0.04904342
-0.27404353
-0.05588332
0.02220554
0.01869499
-0.01885510
-0.02625751
-0.14516288
-0.05895021
-0.00429305
-0.10120612
0.10788083
0.04538395
0.14586087
-0.00333931
-0.09491113
-0.04644242
0.00559102
0.17155404
0.12229967
0.00795159
-0.11088112
0.01586086
0.08053564
0.12640007
-0.03038093
-0.14469576
0.06022568
-0.14420339
0.10206620
-0.04213345
0.00989415
0.03897204
0.02883032
-0.13548027
-0.02632939
0.07246111
0.06896703
-0.15640070
-0.15103324
-0.07137214
-0.14593464
0.04910003
0.01376189
-0.08704205
0.06080128
0.06093985
0.28936490
0.21051899
-0.04737139
0.23265491
-0.03651239
-0.05531360
-0.13106288
-0.04856164
0.02047904
0.04841970
-0.13682885
-0.07761721
0.08173700
-0.20697476
-0.18666142
-0.13278683
-0.02125295
-0.09278071
0.00508183
0.01209499
-0.23370600
0.13205847
0.01799583
-0.10734884
-0.12101807
-0.00333455
0.07874889
-0.03192769
-0.02630739
-0.10307160
-0.03095155
-0.10782483
0.12841636
0.05905737
-0.00505470
0.13321239
-0.10528761
-0.09182405
0.04165661
-0.21862735
0.05078894
0.09196922
0.07640701
-0.14086658
-0.11483350
-0.04209920
-0.02518895
0.25570619
-0.27573609
-0.07294693
-0.08199482
0.02954272
0.04424515
0.07205054
-0.17111771
-0.09249556
0.04912893
0.04200201
-0.18121268
-0.00501522
0.06646097
-0.21836282
-0.10195149
0.01892279
-0.00555132
-0.12035944
-0.04067230
0.04030587
-0.07443392
0.04978725
0.00205651
0.00634704
-0.23918694
-0.04345271
-0.03287145
0.03106832
0.09647714
0.19431853
-0.02696275
-0.14713849
-0.09665976
-0.00688796
-0.07211190
0.12590167
0.08026955
0.05266497
-0.05706142
0.05494823
0.06061226
-0.10591123
-0.11842544
0.12606718
-0.18800196
0.07522996
0.13836116
-0.03536302
-0.02252008
0.06410598
-0.05267730
0.13320020
0.01710235
0.04606647
-0.02718430
0.05829646
-0.01116252
0.02664871
0.00017001
0.11849915
-0.04594097
-0.00997701
-0.00190355
-0.06659079
0.12722984
0.08233573
0.24703972
0.22512133
0.07804744
0.02599304
-0.03370729
-0.23809870
0.02855401
0.04060638
0.15514642
0.05634864
-0.04695530
0.12583430
0.03983489
-0.27175391
-0.20109043
-0.35896873
0.02243536
-0.12149175
0.18471022
0.00906362
-0.09523136
-0.08144201
-0.04468769
-0.02155708
0.15247844
0.04523259
-0.02713741
0.13389990
-0.10903606
-0.05530677
0.03398008
0.02086530
-0.02590163
0.06005615
-0.15480554
0.11764301
-0.08994631
-0.06974265
-0.01901640
-0.09761620
0.07793091
0.07108724
-0.01025303
0.02625317
-0.00559468
-0.03976002
0.06241038
-0.02158573
0.05550873
0.13708459
0.12367892
-0.13457943
0.03723650
0.01761716
0.00121222
-0.00408984
-0.01862698
-0.04941161
0.14774570
-0.14608169
0.00186067
0.22608052
0.11774263
0.06002405
0.00147710
0.13161048
0.08876772
-0.06850342
-0.06041575
-0.05935415
-0.07907828
-0.10242773
0.19527571
-0.00807046
0.02487359
-0.06245910
-0.19539674
-0.01235454
0.02192029
0.01482971
0.01878755
0.10967466
0.10292199
-0.09838575
0.00330231
-0.04576876
-0.11422076
0.05626260
-0.02754008
-0.03443781
-0.18171696
0.06569531
0.10113031
-0.08184383
-0.02209073
-0.05072977
-0.20396657
-0.16461186
-0.06849664
0.02405946
-0.04262095
0.13786092
-0.09439370
0.03449340
-0.07682332
0.12679209
0.07046533
-0.05208365
-0.05777432
-0.03437634
0.08309719
-0.07261719
-0.07573143
0.08114726
0.06317741
0.06016300
-0.12005458
-0.19748169
0.08518259
0.06453799
0.06973954
0.07542446
0.09673794
0.08057513
-0.09359142
-0.03045865
-0.07490167
0.01555494
-0.03294128
0.07670672
0.00506140
0.01477444
0.07100061
0.00145552
-0.03432292
-0.18664689
-0.02109873
-0.01772723
-0.03805597
0.15530565
0.08312406
-0.07315671
-0.06794068
-0.13616531
-0.04781043
-0.10267178
0.08077846
0.02867373
-0.09848229
0.03607826
0.06201977
0.04830292
0.07198162
-0.02912148
0.08245516
0.03664693
-0.02278668
0.05339518
-0.09736290
-0.09010763
-0.00851312
-0.01023325
-0.19555715
-0.10693301
0.00909611
-0.04853677
0.15920557
-0.06157451
0.12268739
0.11323529
0.01213198
0.08046219
-0.26090583
-0.14390552
0.40732613
0.11805526
-0.01551283
-0.18912168
0.20455880
0.08541895
-0.01879842
-0.07071346
-0.09101529
0.22885826
-0.09004038
0.10819128
0.06840353
-0.16063905
0.11218364
0.03746900
-0.14171079
0.02816139
0.12370464
0.01471903
0.14756119
0.01014150
0.12942271
0.18868424
-0.08062390
0.01745525
-0.10218554
0.03152388
0.06551720
-0.09930936
0.15961781
-0.00357505
0.04926037
0.01616173
0.00690290
0.33980682
-0.10496818
0.03621241
0.01283232
-0.02828839
-0.02705365
0.02471505
-0.08678572
0.12098865
-0.05646764
0.19214897
0.02148357
0.16912085
0.06783084
-0.09576524
-0.05345416
-0.11598520
0.03720059
-0.08827075
0.01774353
0.07021882
-0.04276869
0.03786993
0.15766566
-0.06394193
0.02303447
0.13000292
-0.19825414
-0.01500506
-0.01615202
0.04610468
0.12750977
0.03131458
-0.11323089
-0.01437370
0.09093408
-0.04832794
-0.06962070
0.10094505
-0.11120920
0.10933155
-0.04449465
0.27079415
-0.07451741
-0.11165189
-0.02729458
0.02777857
-0.22452074
-0.26805711
0.03443401
-0.00740582
0.00900859
0.23467246
-0.11617545
-0.14086774
-0.01383842
0.00006894
-0.05326415
0.04632555
0.06168183
-0.02228769
0.16600116
0.16531223
0.02048156
-0.08698142
-0.06803048
-0.09363323
0.00438974
-0.05856154
0.02736236
-0.16743694
-0.13825661
0.16207202
-0.01069929
0.02748953
-0.05902676
-0.00710764
-0.21025895
-0.01682498
-0.05685743
0.00827659
0.27760693
-0.14656469
-0.13717671
-0.00308177
-0.09726025
-0.10378160
0.07150552
-0.07010731
-0.03012649
-0.00746695
0.18115903
0.09108985
0.03658269
-0.02420134
0.04782183
-0.08870380
0.13022830
-0.05241841
-0.03862366
-0.10019577
0.00772891
0.10463071
0.21778139
0.12960424
0.11573330
0.19498406
-0.02633899
0.10283367
-0.12188622
-0.00041234
0.00002456
0.02619044
-0.00968102
-0.00913334
0.14250840
-0.05106773
0.00263086
-0.04591655
0.04323811
-0.03575742
-0.00614164
-0.01108187
0.14607236
0.00818917
0.07248882
-0.00300714
0.09548733
0.05897354
-0.01592282
0.09930643
-0.02238383
-0.03753160
0.37894860
0.08328722
0.03333949
0.01264841
-0.01309066
0.02237752
0.01920474
-0.12575842
0.10189916
-0.00311336
-0.07602888
-0.01171323
0.04552964
-0.00269503
0.02863318
-0.06385796
-0.12779051
0.05697499
0.01422911
-0.10915343
-0.11945306
-0.00664528
0.08906314
-0.03670521
0.10576000
-0.00528759
0.11449592
-0.01144521
0.13909245
0.00486414
-0.11471806
0.26757768
-0.01759606
0.03499598
0.01305687
0.06416902
-0.03491553
0.08263677
0.08367883
-0.01462484
0.09285180
-0.03355573
0.00844637
0.05078983
-0.03106194
-0.17948873
0.03865916
0.13426301
0.16956444
0.12833494
-0.03522131
-0.01877490
-0.02360979
0.01031295
0.14597467
-0.15943581
-0.01235112
0.06677730
0.03004083
-0.11847230
0.21807246
0.01710678
-0.00904687
0.10455085
0.06100528
-0.02758760
-0.00376776
0.19910105
0.00709572
0.04293071
-0.06410004
0.07606266
0.20531930
-0.09425931
-0.06670358
0.02726854
-0.09741053
0.06881584
0.02453081
-0.02172123
-0.06864400
0.03368288
0.02029784
-0.02192089
0.01584425
0.04455218
-0.02278595
-0.02492431
-0.05992143
-0.01158840
-0.01449096
0.04506660
0.00224022
0.01807733
0.05940862
-0.04102911
0.04393934
0.08410458
0.02989556
-0.05598642
0.03774209
0.00295738
0.00094862
0.16827555
0.00420694
0.00099169
-0.03407479
0.00994260
-0.01730932
-0.01523346
-0.05137571
0.03568185
-0.04980684
-0.01114036
-0.02527299
0.00344306
0.01754826
-0.02191589
-0.08144513
-0.02367376
0.00508948
-0.00388759
-0.00982515
0.09677186
-0.00328184
-0.07598531
-0.01439945
-0.02230099
0.08682679
-0.01546523
-0.04515670
0.03458826
-0.02230568
0.04882285
0.02793691
-0.03354380
-0.04082465
-0.00063395
-0.04303487
-0.01911705
0.00452580
0.05517064
-0.02722840
0.03714011
0.01724152
-0.00004273
-0.00491528
0.05540895
-0.06700369
-0.01907098
0.10890272
0.01986385
0.03033829
0.00375407
-0.01542481
0.07439300
0.06288702
0.04365459
-0.01662156
-0.02541159
0.04896398
0.03130027
0.02515732
0.06555877
0.02562958
-0.07902454
-0.01117863
0.00485375
0.06463575
0.00869873
0.01143626
0.06372228
-0.00547614
0.02380123
0.00276626
0.01511008
0.02302239
0.02030570
-0.01651688
0.02061951
-0.01477637
0.05055095
0.03931335
0.00174560
0.03192028
0.01842238
0.03629629
0.00951726
0.06719160
0.03337341
-0.06157779
-0.01781751
-0.00106553
0.05344721
0.06655306
-0.02442156
0.01514326
-0.01642703
-0.02831260
0.00211333
0.01314449
-0.03503270
0.01184827
0.07805959
-0.06761579
0.04640341
0.19421361
0.06324750
-0.00878508
-0.26567510
-0.02129084
0.11959928
-0.11859500
0.07616679
0.08590102
-0.05016226
-0.25463459
0.16628762
0.06662793
0.02773339
0.09571220
-0.00133836
0.14208153
-0.12737949
-0.07984105
-0.01738399
-0.01451662
-0.07907560
-0.12091067
-0.01088550
0.05734299
-0.08475673
-0.19295742
-0.09215833
-0.04638618
-0.01078736
-0.09445260
0.16578086
-0.23052184
0.27222511
0.07702634
0.02431348
0.14902547
-0.04589071
-0.08228389
0.21887264
-0.00270247
0.16476047
0.03889840
-0.04178770
-0.03523701
-0.08231561
-0.10744919
0.13227895
0.02199628
-0.02212591
0.02132946
-0.02713148
-0.04998867
-0.13608034
-0.04565819
-0.05894468
-0.01746149
0.09623145
-0.05692722
0.04398100
-0.03693667
0.17885901
0.19903593
-0.11053339
0.00258802
-0.08734803
0.05050002
0.02109548
-0.05886441
0.07482812
0.11896296
0.10799167
0.06032338
-0.09173044
-0.02766140
0.05247210
-0.00612389
0.01316864
0.09573304
-0.03840343
0.03370691
0.10041836
-0.09652787
-0.06735555
-0.00022071
-0.01028527
0.19889574
-0.13911554
-0.11232750
0.01286314
0.01638971
-0.05809006
0.03837167
-0.09145530
0.09712753
0.01687004
-0.03512581
0.13188614
-0.02196742
-0.06008178
0.02188966
0.18927456
-0.06433725
0.03118033
0.08071048
0.12869556
0.08037680
-0.22699194
0.03279422
0.05626056
-0.21883276
-0.12642740
-0.00877923
-0.02742621
-0.00141216
0.14219433
-0.15039675
-0.15056211
0.16305698
0.19256842
-0.01016167
0.01171732
0.00025871
0.06913979
-0.08560998
0.07499329
0.12197552
-0.02317506
-0.03518847
-0.08164595
-0.18121547
0.11670159
0.07200579
0.04184552
0.01717439
0.03461222
-0.02545284
-0.00192959
-0.06514762
0.10690867
-0.04488890
0.02368398
0.12227058
0.07460993
0.14270954
-0.15999115
0.00038436
0.04078853
0.02081864
-0.05294859
-0.02423834
0.14361481
0.11046281
0.04899878
0.00735009
-0.07116817
-0.07275555
-0.09622320
-0.16897854
0.02272011
0.07660796
0.09953491
-0.12140994
0.10956016
-0.12441228
0.04376621
0.07040381
-0.11339089
0.03146666
-0.09117164
0.02590512
-0.06044303
-0.00837256
-0.08653170
-0.14185229
-0.01935917
0.05693223
-0.10276783
0.01759541
-0.04040157
-0.15070201
0.10775378
0.09397935
-0.02964195
-0.06831770
-0.10485361
-0.11840039
0.04605037
0.08704940
0.02475472
0.06435081
0.00061200
-0.00967518
-0.09472552
0.15673725
0.05002439
-0.04101989
-0.01782973
-0.26992923
0.08629818
0.01391752
-0.02635533
0.01815662
0.10839982
0.02665224
-0.10172334
0.00107348
0.05999467
0.05643893
0.03123982
-0.10590414
0.02951259
0.02551674
0.17747721
-0.05041290
-0.04041407
-0.02591224
-0.00922358
0.06844974
0.04057381
-0.11684112
0.12071589
0.03491361
-0.08991817
-0.12341470
0.04128051
0.01959321
0.12832655
0.04666442
0.02815107
-0.14410540
0.06346555
0.00299898
-0.08883160
0.07969130
0.11661761
-0.00999245
-0.07970878
-0.01366776
-0.06938463
-0.04279365
-0.08849934
-0.06436706
0.09428407
-0.02115877
-0.07788864
-0.02912505
0.04251661
-0.07176876
-0.05958661
0.10860024
0.04570403
-0.03021001
0.02112746
-0.13843745
0.10052200
0.18641159
-0.04749513
0.04752135
-0.07719994
0.03510500
-0.07098344
-0.00305585
-0.06447198
0.10043563
0.16271433
0.23805422
0.05751627
-0.00790186
0.20440465
0.21876073
0.13272011
0.08769443
0.13186644
0.23352909
-0.01484858
-0.15047188
-0.04345287
0.00091045
-0.04068042
-0.08187255
0.13121805
0.01818377
0.05101208
-0.07301648
0.06359865
0.02643434
0.12460262
0.15367614
0.14985216
-0.02905686
-0.01349077
0.00668576
0.00740371
0.07801654
-0.07181838
0.07176230
0.08121741
0.03072280
-0.10366300
0.03690662
0.20494011
0.05944503
-0.02173609
-0.06165510
-0.03531417
0.12125485
-0.00340120
0.19927138
-0.05099622
-0.04487243
0.19332600
-0.04044197
0.12463173
-0.03663744
0.03317644
0.04439831
0.05175741
-0.08694712
0.08495647
-0.01375106
0.05488001
0.11426942
0.04253152
0.04115263
0.09051510
-0.02580480
-0.06585407
0.20978329
-0.06800056
-0.00071060
0.04665405
0.05824736
0.02564748
0.15707156
0.11624796
0.02569840
-0.05385368
-0.02923078
-0.04486879
0.06640054
-0.08684366
-0.02700550
0.07115426
0.07314833
-0.04120752
-0.10535765
0.00598657
0.28137991
0.25857288
-0.07171997
0.00625156
0.00125642
0.31080064
-0.16395630
0.20039175
0.12254512
-0.02776291
-0.03771599
-0.00286907
0.00021560
-0.03411563
0.11357038
0.31971884
-0.01037193
0.01449188
0.19313990
-0.07237557
0.01435127
-0.04276054
-0.05232254
-0.04061990
0.04777880
0.00259259
-0.02868748
0.00472747
0.02007230
-0.03386271
0.07630897
0.03427614
0.15011258
0.03188379
0.28421894
0.06217000
-0.07251676
-0.06143999
0.14759874
-0.05173193
-0.03696679
0.16207244
-0.03073443
0.00741010
0.19581427
-0.09807697
0.17694913
-0.06122929
0.06246219
0.15770540
0.01734059
-0.12185471
-0.03731845
0.12973584
0.12851064
-0.13623014
0.16891657
0.02594140
-0.05539763
-0.02902015
-0.00987207
-0.04509495
-0.12754813
-0.01554028
-0.11987125
-0.05988802
0.02828285
0.06038859
0.00843094
-0.01572639
-0.08003291
0.07166838
0.08212378
-0.00854731
-0.05369891
0.17637463
0.06750777
0.10661694
0.09057923
-0.03541796
0.06000708
0.13246980
-0.12887278
-0.06290650
0.15741087
-0.13330142
0.03050713
-0.01065411
0.05819225
0.06700630
-0.05181440
0.08077422
-0.01407389
-0.10954036
0.03425524
0.10080224
0.04483780
0.00172257
-0.13844937
-0.08720367
0.00245021
-0.13415731
-0.01865628
0.10728379
-0.13021325
-0.09559251
-0.12332559
0.06730268
-0.21287958
0.08877479
-0.03089757
-0.00191394
-0.07416165
0.08457353
0.09742560
-0.04095013
-0.27037936
0.04037544
-0.05769473
-0.09289849
0.07164197
-0.08008545
0.08518588
0.20115221
-0.06136217
0.13920431
-0.10452735
-0.06043098
-0.18538237
0.23978785
0.10836347
-0.04017766
-0.06288963
-0.04101701
-0.01958323
0.01069610
-0.00373412
-0.09224495
-0.09642838
-0.10951550
0.04444031
-0.00415981
-0.08334906
-0.19356206
-0.14298312
-0.06522667
-0.07806748
0.05331681
-0.04604812
0.07879072
0.06027414
0.05172010
-0.06229717
0.08275549
0.04944028
0.15332711
-0.05614831
-0.04703035
-0.00858726
0.03530888
-0.01861896
-0.12033010
0.01109853
0.01366934
-0.03376543
-0.05975877
0.06496693
0.01146657
0.05032248
-0.11805514
0.02327802
-0.05508978
-0.03333176
-0.05500176
-0.06838781
0.06837769
0.08925138
-0.10179546
0.01023339
-0.08711201
-0.03759849
0.04848409
-0.00279029
-0.00191755
-0.03659666
0.10877766
0.02075055
0.00347373
0.02756030
-0.13336761
0.08489715
0.01044339
-0.00293822
-0.05338708
0.04038306
-0.05460968
0.00483149
0.04533450
0.10628994
-0.02252150
-0.16608272
0.00759485
0.02183123
-0.12554677
-0.09678990
-0.05406434
0.01139082
-0.06751206
0.03499229
0.02359667
-0.01026481
0.02466469
-0.10535206
0.03031547
-0.18343581
-0.04937654
-0.15743339
-0.00337925
0.04342405
-0.06050630
-0.01153915
0.16431113
-0.01652555
0.03597224
-0.00892392
0.08680635
0.09851181
-0.02542554
0.02038097
-0.02642469
-0.02859930
0.06468076
0.04546630
-0.08366580
-0.08768927
0.04472866
0.05431728
-0.02876904
0.07673839
0.06123650
-0.01219888
0.02027468
-0.00487151
0.00151691
0.00700168
-0.06606776
0.05623971
-0.01061758
0.00591444
0.08837565
-0.10266697
-0.10802586
-0.00256162
0.03317960
-0.11090274
-0.03301137
0.13133895
-0.05012323
-0.00880376
-0.00464972
0.01016896
0.01449881
-0.00084000
0.09001041
0.07924843
0.02007435
-0.08089627
-0.05527883
0.14233802
-0.02073245
0.10261264
-0.06667584
0.04915738
0.11630654
-0.09833331
0.06002595
0.06580988
0.06941116
-0.01238272
-0.14828528
0.08765686
-0.02723364
0.11587638
-0.02179603
-0.15577370
0.01436905
0.09814771
0.08114345
0.09743009
0.06127334
-0.20005357
-0.06914359
0.03635891
0.02423089
-0.08875085
0.01621693
0.08573163
-0.00128498
0.10739926
0.10350510
0.02222897
-0.09865753
-0.29531699
-0.09168620
0.02404439
-0.17327128
-0.13617063
-0.03571901
0.17924245
-0.00134415
-0.01217332
-0.06789000
0.20310146
-0.02619606
0.07267763
-0.09095755
0.03900431
-0.08437501
-0.19898638
0.16183613
-0.06662736
0.00801285
-0.04603167
-0.03468304
-0.01628761
0.10364778
-0.15507504
-0.04789872
-0.17325984
0.01638967
0.11261506
-0.09077682
0.00226017
0.01394185
0.02804514
0.10949222
-0.02145181
-0.21208608
0.05472759
0.01437974
-0.14878072
-0.03159698
-0.07793307
-0.04235088
-0.01597450
-0.00976072
-0.03311904
0.00380056
0.12564018
-0.10170826
0.03649661
-0.06587955
0.08889465
-0.17728157
-0.04492374
-0.09623684
0.00955851
0.10818313
-0.01676190
0.03605096
0.08108181
-0.24374290
-0.09456120
0.04249734
-0.08988052
0.01893844
-0.01465343
-0.02912404
0.07055701
-0.06233264
-0.05688215
0.10576709
-0.04651340
-0.00578232
0.06996270
0.06655036
-0.00094202
-0.03122442
-0.04224535
-0.06377402
-0.12709241
0.07926197
-0.02175502
-0.06419555
-0.17916356
0.00588435
-0.04235929
-0.03028495
0.01849314
-0.06644408
0.13510741
-0.18948904
0.02766374
-0.04411351
0.03632075
-0.01059679
-0.05018080
-0.12217222
-0.05826367
-0.16285847
0.06238246
-0.20492153
-0.02694339
0.11873078
0.08299877
0.06799553
-0.05097028
-0.03161846
-0.14839363
-0.06986780
-0.08457815
-0.07161252
0.06013161
0.04133524
0.05800368
-0.06391769
0.02309054
-0.03782205
-0.02117607
-0.07527263
-0.05372025
0.01424596
0.05111436
-0.01601643
0.01814381
-0.05994328
0.00301641
0.03563766
-0.09063514
0.02151122
-0.05673852
0.01862795
-0.06288473
0.00844629
-0.12290008
-0.02222388
0.08673630
-0.07562685
0.10545838
0.04276140
-0.14993188
0.00246948
0.10539379
-0.04197364
-0.03260378
-0.09942821
0.02164303
0.03223306
0.00933641
-0.02176400
-0.13036469
0.03464666
-0.10193386
-0.06643161
-0.08508839
0.02259518
0.17687285
0.04539933
0.01312368
-0.02682507
0.06028740
-0.02252483
-0.01638928
0.12460830
0.05795852
0.27896613
-0.00980334
-0.11182267
-0.06536873
-0.11622546
-0.27055606
0.09575978
0.07939650
0.07952076
-0.05488884
-0.11300202
-0.00458251
-0.04869974
0.00057701
-0.00178722
-0.02026357
0.03752098
0.01195104
0.08074619
0.00710216
-0.07214680
-0.00822227
0.10272611
0.07401635
-0.13974203
0.03090189
-0.04055389
0.09758040
-0.05460624
0.00627612
0.04761697
0.08272909
-0.14013000
0.27401063
0.08604157
0.05227483
-0.20665839
-0.03055476
-0.00156728
0.07010071
0.08928690
0.00885065
-0.03168726
0.12564264
-0.06785624
-0.20082819
0.08306990
-0.14085582
-0.06323590
-0.01160828
0.10900222
-0.10131209
-0.15677696
-0.19132948
0.12819986
0.00408142
-0.00718798
-0.05656686
-0.01562910
-0.00290575
0.00483254
-0.15658975
-0.16460684
-0.04269699
0.14851993
0.15088578
0.07506449
0.00716248
-0.05649093
-0.00350963
-0.06970605
-0.01217436
0.00373671
-0.04831881
-0.02481959
-0.05008177
-0.02816999
-0.06379911
0.00018673
0.00924373
-0.06767598
-0.00285101
0.05567074
-0.03147510
-0.00652985
-0.00741490
-0.00322353
0.10565233
-0.06308492
-0.04679017
-0.09862516
0.10015963
-0.10900704
0.20390257
-0.04390515
-0.01576712
0.00271387
-0.16077097
0.02638526
-0.08149989
-0.08842166
0.06504843
-0.01373408
0.03337621
0.10879638
-0.06454440
-0.10004453
0.04820494
0.03696828
-0.21609251
0.03627725
0.00503769
-0.00355815
0.16515596
0.01175639
-0.08399428
-0.13794115
0.00407957
0.02162934
-0.15431611
0.01519257
-0.02293060
-0.00614411
0.15813303
0.01517306
0.00116302
-0.03610222
0.01729549
-0.02721686
-0.05422447
0.11474442
0.01111915
0.03483940
-0.17637233
-0.00658788
0.09459622
0.09512625
0.05446960
0.05432956
-0.01118324
0.02973176
0.06904991
0.01419848
0.05221508
0.17171274
0.01465885
0.00852170
0.01911135
0.02970140
0.01547678
-0.02219383
0.04875788
-0.03063521
-0.00351797
0.04216229
0.09063721
0.03780466
-0.08792645
0.01094472
0.10440011
0.10186319
0.11387726
-0.01164171
-0.02016215
0.16394724
0.05256622
-0.00698542
-0.01268897
-0.09651061
-0.06251973
0.14903173
0.02268013
0.00452430
-0.01325229
-0.04946065
0.12808196
0.09583694
0.01762564
-0.02188120
0.05601178
-0.18900317
-0.05987791
0.16257377
0.08481327
-0.03921217
-0.00201107
-0.01913069
-0.04376812
-0.08197095
-0.17451870
-0.23475383
0.03952929
0.09649432
0.21659575
-0.02632081
-0.04609616
0.07645572
-0.00814109
-0.02803476
0.06315795
0.17222981
-0.00524959
0.00360408
-0.02039298
-0.00451785
0.03796412
-0.01395327
0.03054207
0.01759358
0.11617007
0.01248332
0.00154951
-0.01161612
0.15802044
-0.01789928
-0.01695417
0.13791323
-0.01479885
0.01821569
-0.13761908
-0.00058246
-0.08116803
-0.07139571
-0.03965801
0.11716927
0.04112650
0.11793524
0.04756964
-0.05428320
0.00567750
-0.08951897
-0.01399819
0.06047523
-0.01887438
-0.00560956
-0.02872032
-0.12590882
-0.14025047
0.05974502
-0.00346667
0.01528625
0.11314798
0.03211951
0.04168046
-0.04883059
-0.05505379
0.04097730
-0.05820059
0.04144226
-0.10431016
-0.13794734
0.07652985
0.04593721
-0.02052405
-0.01234737
0.00089888
-0.04160795
-0.10019767
0.04219406
-0.05966168
-0.02182918
-0.15727632
0.00055120
0.03051292
0.00837651
0.04448944
0.12872328
0.00489707
0.12730750
0.00848713
0.02465438
0.01672938
0.02230097
0.05865292
-0.14913356
0.01937847
-0.03758142
-0.09851647
-0.01861389
-0.07550205
-0.09122770
0.11248787
-0.05319857
-0.04467486
-0.01436537
-0.03147309
-0.03283444
0.01627399
-0.00638961
-0.13925345
-0.03391530
0.07904250
0.00365677
0.04300385
0.04376335
0.00035254
0.16667086
0.07249938
-0.14905529
-0.03779875
-0.04393007
0.09997838
-0.01273148
0.13445720
0.04414887
-0.02265561
0.00770904
-0.00119560
-0.03967846
-0.11004180
0.01784289
0.11073747
-0.04852113
0.00431873
0.00044849
0.04872615
-0.06405591
0.01665418
0.14676462
-0.02006426
0.05126362
0.03405218
0.03702534
0.02460650
0.03456888
-0.01438634
0.02243525
-0.05830500
0.01856768
0.05513651
-0.03204012
0.07104526
0.03605079
0.12363490
-0.05289163
-0.02593421
0.06829377
-0.05845969
-0.04336304
-0.05077511
-0.10183381
0.03543746
-0.10246658
-0.03876723
-0.03441256
0.08490342
-0.02986456
-0.09351711
0.02995605
-0.36387298
0.09948096
0.00616066
0.04461974
0.17085128
-0.09876155
-0.05205517
0.03902292
-0.11043418
0.02859090
-0.07807894
-0.06168476
-0.02708266
-0.08672514
0.01822517
-0.02699468
-0.11566252
-0.05343060
-0.00761151
0.01983201
-0.09748624
0.12094564
0.02839271
-0.07594325
0.07096346
-0.03035687
0.09711472
0.00927478
0.05483716
-0.13526735
-0.08923265
-0.09137525
-0.00285297
-0.08672462
0.00310838
0.04913244
0.03129601
0.10304358
0.08742348
0.01642498
0.02378395
0.02095545
0.07289337
0.04700656
0.05716605
0.19354278
-0.10137437
-0.08156499
-0.01309610
0.03757516
-0.02763469
-0.00636642
-0.07031686
0.05903478
0.08021259
-0.00202957
-0.11475562
-0.12521777
-0.05636551
0.08635902
-0.11944676
-0.04013617
-0.03288289
-0.11169690
0.08335268
0.07174896
0.04321659
-0.02160345
-0.10612264
-0.02028452
-0.02229127
-0.26987544
-0.07486840
0.00378813
0.05491887
0.17105089
-0.07690190
-0.08149242
-0.06301995
-0.06184260
-0.17318466
0.10050570
0.00876074
-0.09244886
-0.09032118
0.06484783
0.02393105
0.05229532
-0.16446166
-0.09835859
0.04420109
-0.00611950
-0.07057332
0.07257786
0.10293968
-0.06331816
-0.19212508
0.01879417
-0.14960976
-0.06895379
0.00248871
-0.01620770
-0.03718568
-0.04299455
-0.00373073
-0.07881773
0.00385155
-0.03718311
-0.05636702
0.05045492
-0.06683907
-0.03835572
-0.10456564
0.00577451
-0.08888859
-0.15083651
-0.03532566
0.01023432
-0.13007276
0.07584919
0.07158934
-0.00035469
-0.13890123
0.10693486
0.07150704
0.14255950
0.20954549
0.06781593
0.10811531
0.05954693
0.00036874
0.05223188
-0.12409817
-0.03038767
-0.05006170
-0.03681663
-0.05032052
0.06268986
0.16588543
0.00071111
0.02480256
-0.17552178
-0.06524058
0.06309304
0.18523163
0.08135365
0.04739177
0.00799390
0.04518712
-0.07219169
0.15600467
-0.08029635
0.03836975
-0.01475326
0.07498088
0.02937560
0.06011428
-0.02874979
-0.04007295
-0.09119008
-0.00990270
0.02514174
-0.01159626
-0.33430251
0.08209735
0.06746403
-0.05148496
-0.06711384
0.19773500
0.06609439
0.04866451
-0.19104362
0.06177201
0.17094782
-0.01129653
-0.07742666
0.05049697
-0.09701814
-0.00641373
-0.07879373
-0.07528722
0.12353390
-0.03467226
0.05301281
-0.02824912
-0.01051896
-0.07381254
-0.02295147
-0.10080868
-0.09350116
-0.08878662
-0.02151267
-0.06567452
-0.09757180
0.00657842
-0.10087558
-0.08259309
-0.02039612
-0.03938045
0.22707498
-0.07718593
0.05271014
0.05949538
-0.06494000
-0.02539683
-0.01177969
0.04441067
-0.02505942
0.27130875
0.07243333
0.13313249
0.06076829
0.01802722
0.08459838
0.01119762
-0.02463175
0.18208237
-0.04710449
-0.01375271
-0.04679829
-0.06247367
0.09835923
0.03995559
0.01236454
0.16714607
0.04238178
0.01725969
-0.09533463
0.19553396
0.01771700
0.06389243
0.07335126
0.05985141
0.09654807
0.11155514
-0.09110286
0.05065536
0.01155612
-0.09145093
-0.05017330
0.01732638
-0.07038778
0.03796970
0.07290185
0.09470186
0.04166027
0.02519656
-0.11900183
-0.11244744
0.04635289
0.10681950
-0.00568234
-0.03634562
-0.13022649
-0.07043571
-0.03173913
-0.11490209
-0.03207655
-0.02856832
0.13479774
0.08350237
-0.14851311
0.09958892
0.00545702
0.12509970
-0.07269800
0.07294078
-0.05975772
0.02482521
-0.07768847
0.01698452
0.09497137
0.15085396
-0.05064025
-0.07251821
-0.05680691
-0.08047901
-0.01051926
-0.00427273
0.01620799
-0.02354154
0.05709998
-0.08641136
-0.00686055
0.01324002
-0.05793368
-0.04107258
0.04251054
0.02384802
0.00892794
0.03824591
-0.09189880
-0.09236599
-0.12309532
-0.03759269
-0.05719030
0.19240873
-0.02547534
-0.08626796
0.15104471
-0.03242442
-0.02352842
-0.00979481
-0.09930437
-0.09008192
0.08996601
-0.08335228
-0.07183622
0.04877791
0.05518403
-0.02373947
-0.10129229
0.03720571
0.02786530
-0.06125242
-0.02935681
-0.11107671
0.09856119
0.02137128
0.00426090
0.02926044
0.06431110
0.08604851
0.13003697
0.06117119
0.08741913
-0.05959764
-0.04658976
0.01496173
-0.01443880
-0.02024062
0.08006437
0.05226258
-0.04865541
-0.01435153
0.02205537
-0.13272300
0.03550155
-0.03666027
0.20289908
0.00787674
-0.04109140
-0.07152752
0.09409160
0.04700016
-0.06431684
0.05878821
0.01407009
0.00788822
0.05708298
-0.05403841
-0.15503161
0.16577569
0.23287168
-0.10246496
-0.01804931
-0.13459639
0.02646004
-0.05517633
-0.11350466
-0.01564949
-0.06674466
-0.08189741
-0.07421450
-0.02930195
-0.03323520
-0.07519075
-0.07024863
0.00714706
0.00911602
-0.00417005
0.04631214
0.05155507
0.16885059
0.12469256
-0.07523508
-0.12954067
-0.08323493
0.00170838
-0.18832321
-0.00089605
-0.06767614
-0.13198708
0.23226814
-0.04072207
-0.08062795
-0.00232503
-0.09668922
0.07192773
-0.10122024
0.00343866
-0.01325248
-0.11909886
0.03162340
0.10499314
-0.04195114
-0.03064139
-0.03282814
-0.11168767
-0.00608836
0.20003386
0.00897234
-0.06951663
-0.01541441
-0.05081430
-0.11088445
0.13385196
-0.03316779
0.01710114
0.10641996
0.06262888
0.02255677
0.17001237
0.07497791
0.13365059
0.13070467
0.06259799
0.04199607
0.08648059
0.15399677
0.18671557
-0.06048826
-0.19036484
-0.00073844
-0.10941517
-0.02829252
0.25926858
-0.24392857
0.18371521
0.15198894
-0.00283828
-0.14020008
-0.00515620
-0.04016376
-0.05519625
-0.09522112
-0.02507490
-0.12900707
-0.04865718
-0.04919356
0.14394735
0.09632412
-0.22367409
-0.11174442
-0.19428889
0.02866973
-0.14146832
0.05941433
0.01908830
-0.08781444
-0.04455031
-0.05098492
-0.06876444
0.07686070
-0.12703240
-0.20358807
0.04602308
-0.01623321
-0.03186225
0.11239688
-0.15329805
-0.02709808
0.10103669
0.01995355
-0.03889693
0.00425982
-0.14942783
0.06103063
0.00971490
0.03272083
-0.00947764
-0.05695561
-0.13658410
0.02719168
0.03270125
-0.10970982
0.02483336
0.00364949
-0.04020711
-0.08264135
0.06753472
-0.03340947
0.12491918
-0.24048646
-0.08911157
-0.01316649
0.06820567
0.01313688
-0.06262538
0.00420658
-0.02895796
0.08399616
-0.07140340
0.17964801
0.09985293
-0.06898605
-0.03122699
-0.03459239
0.12314130
0.03451856
-0.02523465
0.01932426
-0.01432207
-0.01713271
-0.03817938
0.11456834
-0.12919922
0.01613932
0.09728153
0.07834061
-0.04132880
0.03257557
-0.17885379
0.12093120
0.00438315
-0.09906957
-0.12070176
0.04586447
-0.02752490
-0.09726140
-0.09290028
0.10863113
-0.05313148
0.01550052
0.18866430
-0.06181809
0.03386620
0.10933451
0.06074901
-0.03526334
0.06005179
-0.02990285
-0.00857832
-0.05128860
-0.14732282
-0.02803259
-0.11371820
-0.02041876
-0.03208327
0.00674731
-0.05269059
-0.08421892
-0.16123196
-0.10833194
0.06394099
-0.03046669
0.07673436
-0.03407504
0.09557994
-0.16019276
-0.04465514
-0.04937775
-0.10521072
-0.02693260
0.07330658
-0.01268899
-0.05275651
-0.11287156
-0.03832791
-0.04518257
0.02237179
0.09593356
0.07729824
-0.05036254
-0.10612390
0.11024746
0.09678021
-0.03567146
0.08399215
0.17397107
-0.15636915
0.10597457
0.15078016
-0.09417564
-0.04061697
-0.02893344
0.02302491
-0.04473257
0.05019864
-0.12290359
-0.03260985
0.01759563
0.13089000
0.20594266
-0.07840165
-0.03968973
0.01333784
0.06399377
-0.01300016
0.05166604
-0.13203189
0.10320061
0.15655898
-0.05833079
0.07066458
-0.08166198
-0.19798268
-0.04453528
0.03397658
-0.00814072
-0.03836477
0.12392660
-0.09035524
-0.09231682
-0.02475343
0.17426351
0.04146797
-0.01827695
-0.05066441
-0.01794004
-0.14995839
0.12587920
0.22858478
-0.13678645
0.06484494
-0.05655997
0.06019430
0.16082428
0.05933183
-0.08669437
0.08729786
-0.05011130
0.04601867
-0.01225492
-0.11115448
0.02844223
0.05385603
0.13189591
0.16734102
-0.06838916
0.13247696
-0.05427692
0.04019959
0.14109486
0.08804638
0.08255146
-0.03120330
-0.15925176
-0.09596129
0.08878646
0.09175559
0.05295235
0.03644296
-0.15568125
-0.01400527
0.15779302
0.02164233
-0.04007984
-0.14527495
-0.16597298
-0.08796363
-0.06736731
0.00390018
-0.00919205
-0.05457969
0.02744983
-0.01754341
0.00540427
-0.00868678
-0.03646031
0.00779486
0.05679600
0.04273134
0.09725006
0.03493817
-0.01657921
0.07244158
-0.01311773
0.12596942
0.06470850
0.12745684
0.06472127
0.01777564
0.02812896
0.03992419
-0.03702105
-0.00757348
-0.00116212
0.01962960
-0.01299148
0.10899136
0.04549249
-0.13163733
-0.08001292
0.05100934
-0.01611339
-0.02497778
0.04365627
0.03612061
-0.00460059
0.12005167
-0.05116917
-0.03188997
-0.13720742
0.02470438
-0.08920757
-0.00456797
-0.06789774
-0.01725868
-0.01112276
0.04448144
0.04187779
0.14781931
-0.04711877
0.01690148
0.00010325
-0.05543152
-0.10122894
0.12763540
-0.01455141
0.00597316
-0.05883278
-0.04061138
-0.00439549
-0.00807480
-0.00592115
-0.09160776
0.02490836
0.00209576
0.05129478
0.11481985
-0.07779746
-0.10536791
-0.07735790
-0.00871778
-0.11150892
0.03336865
-0.16801399
0.09915074
-0.05672088
-0.03056749
-0.06281966
-0.04894982
0.09388115
0.02313007
-0.06640543
-0.05131052
-0.07353340
0.05768792
0.04943653
0.07988426
-0.11170913
-0.02313682
0.02096659
-0.04080112
0.04614771
-0.02298244
-0.03889137
-0.01763918
-0.07304978
0.00475143
0.00568998
0.02817898
-0.02743303
0.00257796
0.00936576
-0.05377840
-0.09918708
0.21730949
0.00553196
0.11321072
-0.13889404
-0.08475893
-0.09219303
0.09549146
0.03835232
-0.11914512
0.04740682
0.11785499
-0.06960066
0.04399839
0.05378382
-0.02823355
-0.12757380
-0.06789880
0.19299084
0.13228343
0.03959930
-0.05380845
-0.09660782
0.06187484
-0.19261344
-0.18891831
0.15070128
-0.17889942
-0.02888495
0.01970302
0.01357858
0.02173361
0.07502078
-0.00661509
0.06088495
0.21455234
-0.04985731
-0.10112020
-0.09512515
-0.01925277
0.00829755
0.04214278
0.13727276
-0.03605631
0.04150328
-0.02804171
-0.13957088
0.11305133
-0.14101879
-0.09316824
0.08208929
0.03974829
0.01265966
0.09607202
-0.22403407
-0.04991552
0.09564067
0.03538929
0.07426209
0.03365388
-0.00871553
0.02553633
-0.04831518
0.07845359
0.03976600
0.04197855
-0.09158713
-0.10196849
-0.06445081
-0.19329461
-0.09216776
0.00460664
0.07041562
-0.11120638
-0.03741485
0.09268824
0.04560463
0.09122886
0.05122723
-0.13261907
0.00973148
0.08183777
0.07647213
0.02172907
-0.09880169
-0.11221350
0.11106410
0.05904236
0.09914052
-0.00760689
-0.00757216
0.16979690
0.00199608
0.19764465
-0.01452558
-0.03265744
0.09544008
-0.07472880
-0.00576867
0.12369712
-0.02561605
0.10170902
0.00542470
0.21966068
0.00422705
0.02126639
-0.09200180
0.02546623
-0.16849783
-0.07377683
-0.05096807
-0.03600775
0.18455851
0.18281107
-0.14314261
0.02650239
-0.26442277
-0.07033328
-0.01326584
-0.04784756
0.08786413
0.06606226
-0.03806205
-0.06868298
0.13944416
-0.00031702
0.02417247
0.01163804
-0.02109948
0.21267825
0.06683421
-0.06371948
-0.04620761
-0.17255832
0.00278890
0.02117337
0.21362765
0.06340654
0.06548365
0.22347456
0.01615747
0.00817353
-0.16087401
-0.02414855
-0.02008087
-0.01260533
0.09858214
-0.20930777
0.18776441
0.13047455
-0.11390446
-0.00468891
0.08358528
0.04314291
-0.15107787
0.19704857
0.07231132
-0.01091240
0.01417698
0.07164850
0.10047088
-0.05163125
-0.00978890
0.05138797
-0.04121083
0.01174069
0.01729839
0.06188258
0.29107636
-0.00584297
-0.07064006
-0.06339481
0.00285151
0.03142660
-0.10761056
0.13131030
0.04336470
-0.18007487
-0.04328331
0.10349660
0.02000077
0.16191487
-0.26474264
0.13598853
-0.06038624
-0.04326444
-0.23715313
-0.02305423
0.02714737
0.00860038
0.13066620
-0.00880743
-0.15140577
0.02304858
-0.06049034
-0.08190845
0.01773168
-0.08747450
-0.10739737
-0.10436292
-0.04770290
0.06009268
-0.13827385
0.03692912
-0.01062715
-0.28632280
-0.28075120
-0.02771191
-0.05833372
0.04017919
-0.11059365
0.02907017
-0.09140591
0.05542153
0.15521897
0.04661507
0.13571623
-0.09574296
-0.07352834
-0.02107107
0.03323375
-0.12038075
0.17358337
-0.10778943
0.22077264
-0.03123819
-0.05884593
0.16869739
0.15221296
-0.08653201
0.04877687
-0.07329118
-0.11378997
0.14462766
0.13003434
-0.03314935
-0.00888240
-0.06555565
-0.01745749
-0.10840972
0.02283219
0.12807454
0.04272346
-0.03686273
0.19410692
-0.07604417
-0.05520282
-0.02052737
0.11624108
0.10397156
0.07912112
-0.03258153
0.02803190
-0.04485171
0.03060680
0.10518432
-0.07408215
-0.06233026
-0.04563074
0.03986375
-0.01399022
0.07719593
0.09233320
-0.01427325
-0.08169973
0.18551829
0.14738031
-0.39715499
-0.06006087
-0.00112166
0.16554074
0.02663450
-0.13325538
-0.13248862
0.06817928
0.19201587
-0.22153635
0.02923930
0.08706884
0.05241242
0.02235421
-0.10030808
-0.23968437
0.06536584
0.02923226
0.10849804
0.09145767
-0.12257431
-0.07177497
0.07215574
-0.19611071
-0.04758776
-0.00684955
0.10725099
-0.00302877
0.04687298
-0.08325629
-0.31317991
0.01795712
0.05199050
0.02765589
0.00089366
-0.38590962
-0.03086663
-0.03605276
0.07731282
0.01559195
0.10148480
0.04393823
0.01802198
-0.00545664
-0.08655453
0.02578068
0.08539484
-0.05492277
0.13549739
-0.13953929
0.00433782
-0.04525230
-0.03516515
-0.03034926
-0.03374325
0.10405938
-0.04665484
0.01006249
-0.11414635
-0.00317519
0.22592928
0.09580701
0.16762902
0.05218551
0.00333626
-0.00004355
-0.16393322
-0.15309313
0.17157502
0.02061899
0.00962770
0.01820213
-0.00416682
0.06430744
-0.13045351
-0.23595402
-0.05856373
-0.13481408
0.17834321
-0.18729591
-0.20192617
-0.00666153
0.22979560
0.27285257
0.09835355
-0.25010005
0.01185574
-0.32862487
0.11131011
-0.00942202
0.11169768
-0.08606496
0.11141992
-0.06722131
-0.01403165
-0.21149451
-0.09666058
0.00235775
0.10723361
0.07556436
-0.01364938
0.04057614
0.03920019
-0.04131712
0.05518509
-0.21092583
0.18572244
-0.07094207
-0.09755375
0.05083783
0.04956190
0.04814250
0.25344813
-0.01306874
-0.03261591
-0.04493342
-0.05399231
0.01753798
-0.00337776
-0.05220920
0.02155914
-0.28271264
0.05719807
0.08233203
-0.01250692
-0.02020177
-0.06132113
0.00315697
-0.09098077
0.08755471
0.08461384
0.01404534
-0.12705955
-0.02046847
-0.03347505
-0.07847147
0.15359311
-0.16405477
-0.06981755
0.08024104
0.00885842
0.14836220
-0.00148177
0.07141358
-0.18976146
0.02951226
0.01989766
-0.04298333
-0.09404952
0.05643798
-0.00892770
-0.04334322
-0.03818924
-0.06345617
-0.08818536
-0.03551498
0.04352759
-0.03949173
0.01700488
0.03597586
-0.00358488
-0.18637694
-0.03659786
-0.10852198
0.07350343
0.02356420
0.07710811
0.05702601
-0.12329563
0.00094803
0.07553685
-0.15992889
-0.11875410
0.14556028
0.08393202
0.11290463
0.03091972
-0.12378010
-0.09487054
-0.12302809
-0.04132994
-0.02109133
0.04890311
0.02110267
-0.05443892
0.05610489
-0.11429780
0.00226369
-0.01540949
0.01449913
-0.24487068
-0.00883328
-0.02668181
-0.02446441
0.04267002
0.06079986
-0.15260208
-0.07355853
0.02389518
-0.00129366
-0.04545105
0.08929360
-0.00824364
-0.04975271
-0.01556027
-0.14112398
-0.01681357
-0.09363175
-0.15023890
-0.09285372
-0.05501631
-0.15605642
0.08186981
-0.04999663
0.01130848
-0.22512299
-0.07878012
-0.11671229
0.00467285
0.00577217
-0.01044446
0.02689111
0.06397835
-0.12834290
-0.05597088
-0.21088903
0.02072935
-0.28317422
0.01203791
-0.06915899
-0.04718087
0.03404938
0.00648545
-0.28967878
-0.06715031
-0.03487222
-0.01787408
0.14325035
0.06569721
-0.00768946
-0.01142520
0.03029451
0.01880528
