-0.06101075
0.19845049
-0.05669652
0.29230520
0.12478178
-0.24420872
0.42820790
0.37211031
-0.36332577
0.16131710
0.03198405
-0.24967435
-0.16074485
-0.24773666
0.34776032
-0.43382114
-0.35877272
-0.03530306
-0.06418005
-0.09861725
-0.14775130
-0.01985738
-0.04057004
0.24857809
-0.14739449
-0.10799186
0.26572499
0.12032562
-0.11522449
0.14655101
-0.13425396
0.48786831
-0.06416961
0.51955992
-0.06091654
-0.05719549
-0.02952105
-0.16685748
-0.10818630
-0.25334427
-0.08813054
0.14067712
0.06632400
-0.10703325
-0.07624970
0.15162042
-0.36174530
0.15045707
-0.09277422
-0.14477810
0.00233713
-0.42911020
-0.00485954
-0.38241380
-0.01172739
-0.12561750
-0.02614694
-0.09281316
-0.04025349
0.17579688
0.31769979
-0.05572035
-0.00755005
0.07587814
-0.28281531
0.26357380
0.22626176
0.34832227
-0.26150081
0.01876876
-0.35719210
-0.00687954
-0.06722148
0.09262248
0.29351592
0.13617389
-0.32555756
0.26290712
0.12261593
-0.52775002
0.14855409
-0.04123974
-0.14184076
0.16005166
-0.02153366
0.00604268
0.07332512
-0.35172787
-0.47485784
-0.40371537
0.36754033
-0.45988354
0.10892560
0.27261341
-0.19860093
-0.05684701
-0.00437268
-0.15843198
0.22180377
0.43449673
0.50794661
-0.00970387
-0.34569871
-0.24100187
0.25650570
0.46683905
-0.00835485
0.01249469
-0.02296125
0.12344164
0.02936387
0.04889784
0.28242314
-0.11566345
0.29683200
-0.03706327
0.05045668
0.07670423
0.02608520
-0.06236529
-0.23029897
-0.00363053
-0.16936576
-0.31476235
-0.36024407
-0.34600809
-0.33365953
-0.03659654
0.12069435
-0.43384787
-0.12446546
-0.10117308
0.08995104
-0.11248872
0.10201678
0.09274962
0.08763783
-0.31525576
0.15720822
0.50437129
0.07282873
-0.09683481
0.07087684
-0.27516070
-0.27332351
0.27211085
0.00021633
-0.11954100
0.18314688
-0.01658976
-0.08555728
-0.18064943
0.27553764
-0.16914310
0.04315692
-0.08500577
0.25742289
0.24871589
-0.23866400
-0.23655732
0.08739840
0.01041870
-0.16751607
0.02823375
0.08441837
0.70582998
0.11569156
-0.29311574
-0.21127766
-0.23169275
0.20144765
0.13521121
0.05341319
-0.13268216
0.21404144
0.17102489
0.31499976
0.11757783
0.30651069
-0.02923401
-0.08557528
-0.04158723
0.44546419
0.02222816
0.00290114
-0.34948131
0.23889366
0.17189828
0.07328131
-0.32285714
0.16858679
-0.09182179
0.09097598
-0.31146422
-0.05576098
-0.15147200
0.00362621
0.22008426
-0.08319240
-0.15751706
0.36914584
-0.05423411
0.05279277
0.08972611
0.14137895
-0.11672936
-0.21580918
0.07454044
0.10703535
0.38413534
-0.38888493
-0.30611941
0.10935269
0.35328138
-0.06202086
-0.18325835
0.23808609
0.03886753
0.09239207
0.01647739
-0.05004865
-0.02610182
0.07982123
-0.17839020
0.18694143
-0.11166719
-0.04962468
-0.07024581
-0.32339066
-0.00397990
0.08853936
0.15605618
0.16725408
0.12636945
-0.06530392
0.09760136
0.14335231
0.12084573
0.08927468
-0.16630790
0.25395685
-0.07996151
0.07943413
0.02872076
0.27985254
-0.06242086
0.14061622
-0.08751856
0.17755069
-0.06317272
0.58665633
-0.19404727
-0.27336812
0.02538173
0.05854280
0.11019355
0.33229563
-0.39485475
-0.04058689
-0.13261105
0.10738349
0.00532385
0.10639019
-0.07786801
0.17381513
-0.10844191
-0.16272338
0.17712155
0.07517026
0.10414384
-0.20348884
0.41969827
-0.32533118
0.16748857
-0.35431519
-0.28836733
0.22347033
0.26657227
0.18219428
0.08034045
0.33641323
0.02581110
-0.12574838
0.13045980
-0.11358236
0.11537534
0.02562593
0.14357635
0.02295164
0.18619631
0.00590126
-0.14035639
-0.19525787
0.00354933
0.48109648
0.05017933
0.01455720
-0.31156513
0.06729487
0.35652781
-0.01163845
0.14115290
-0.06404897
0.04559797
-0.06599306
-0.22781999
0.00020495
0.19961591
-0.21131057
0.17626941
0.23751211
-0.07670288
0.07701162
0.32766181
-0.11020983
0.14917432
0.28935665
-0.01639569
0.25009322
0.44576263
0.14358732
-0.19371858
0.27965471
-0.08638625
0.11425591
0.17807883
-0.05982757
-0.16999160
-0.19318445
0.13466658
-0.37282771
-0.26069263
-0.02488179
0.03748055
-0.08486035
-0.01217084
0.01546477
-0.46868822
0.04667044
-0.03365859
0.18852538
-0.09810442
0.12321451
0.09159619
-0.20910086
0.27082816
-0.15257899
0.11400886
-0.02055283
0.17985249
0.18574597
0.17026815
-0.10570607
-0.34430200
0.26051944
0.17789443
-0.14612505
-0.55167764
-0.08200378
-0.04890551
0.52499276
-0.35564598
-0.15908602
0.07377753
0.03267244
-0.15147378
-0.11464176
-0.09089620
-0.31529874
0.01475037
0.07765742
0.06664871
0.33104876
-0.18117636
-0.20375745
-0.15570632
0.25783876
0.06141034
-0.44630957
-0.24368629
-0.27946791
0.16309378
0.18313703
0.01915318
-0.18800196
0.01119100
-0.20021899
0.09142361
-0.18867892
-0.09609521
-0.17185642
-0.19954157
0.14228256
0.14937067
0.22660525
0.01255569
-0.21418586
-0.11151476
-0.16955526
-0.07795440
-0.04122084
-0.21989395
0.09359732
0.23402068
0.05632755
-0.00156378
0.02554635
0.10123538
0.31724545
0.04668060
0.03404456
-0.13332161
0.35850081
0.10146648
-0.07911322
0.15825334
0.16466586
0.00924963
0.10335953
-0.25627369
0.05478683
0.10350646
-0.14013197
0.12376042
-0.28997818
0.08075946
-0.26773861
0.18569550
0.01011676
0.18788683
0.31989169
-0.15364389
-0.32200912
-0.07623141
0.44714993
-0.01139983
0.00786746
-0.04692493
-0.02037315
-0.01460711
0.06414998
0.32254159
-0.23787539
-0.11976659
0.15603033
-0.10926513
0.00871443
0.34254822
-0.02898177
0.05318199
-0.00197015
-0.21024226
-0.06967508
-0.28246927
-0.07839230
-0.30681333
-0.37692508
-0.21539989
-0.24608955
-0.28541204
-0.23016146
-0.02403954
-0.03807694
0.08857157
-0.09418824
-0.15001582
-0.00445588
0.05503044
0.26765895
-0.11883872
-0.31292108
0.42122918
0.17995538
0.21435623
-0.17832732
0.13619280
0.12357191
-0.10608337
-0.03887810
-0.01077763
-0.21637106
-0.23515932
-0.06538033
-0.04709801
-0.01178819
-0.10327810
-0.04403268
0.27554992
-0.55988014
-0.01752794
0.15770978
-0.04734059
-0.30219421
-0.20227642
0.05705538
0.10115840
0.10947547
-0.25832832
-0.18005405
0.03040802
-0.07828301
-0.26525342
0.04632540
0.11737446
0.11097050
-0.04910064
0.05915666
0.25618038
0.00425812
0.40849310
0.25769877
-0.03118338
0.10228740
0.17472149
0.03225853
0.18789108
0.07766235
-0.18955824
-0.33064407
-0.32174027
0.14347231
0.26912808
0.06589427
0.07924303
0.04458382
0.11703426
0.34183019
0.09110811
-0.12129281
-0.09950188
-0.46322840
0.19893987
-0.22482499
0.16679487
-0.15595998
-0.13764551
-0.27573285
0.33880922
0.02147003
0.22379985
-0.52928871
-0.03157395
0.16312601
0.13856459
-0.05332104
0.10003082
-0.10074095
0.01320319
-0.02871020
-0.21330598
-0.17946944
0.22392683
0.07367937
0.49974236
-0.40557992
0.04486538
0.09880301
0.10279918
-0.23031884
-0.09104241
-0.26910928
-0.23166226
-0.04716054
-0.34974369
-0.19016211
0.01520212
0.10592714
0.07344002
-0.10569602
-0.03740706
0.01158880
0.02272348
0.04543325
0.14088781
0.03099112
-0.09765660
0.04902564
0.09248996
0.14318724
0.11219063
-0.01196379
0.12916212
0.28203928
0.29328775
0.09075760
0.02006862
-0.23787743
0.10436075
-0.08766863
-0.13458885
0.06903710
-0.12787326
0.27782422
-0.04485855
0.22120710
-0.02850635
-0.31662577
0.04314698
0.01995355
0.27495202
-0.11957668
0.16900617
0.42169648
0.09980560
0.14849697
-0.26682582
-0.13173155
-0.19315036
0.02238922
-0.18658534
0.16600844
0.01262416
-0.14825585
-0.11131740
-0.06788415
-0.22103357
0.07678641
-0.16108805
-0.01814412
-0.16820072
0.00192211
0.07134122
0.49137834
-0.31402141
-0.13498744
-0.13852550
-0.11388805
0.33981872
-0.24868856
0.04192201
-0.15435959
-0.20060165
-0.21813396
0.01823860
0.20475794
-0.30738860
-0.04204792
-0.04058501
-0.05054101
0.15545449
-0.21228555
0.04035176
-0.31456611
-0.33756074
-0.16422908
-0.20977205
0.08628192
0.08014870
-0.04460314
-0.10178085
0.47171506
-0.10856360
0.01990620
0.04339508
-0.27008072
0.54398417
-0.14882848
-0.02722085
0.17074065
-0.01523846
-0.02674819
-0.12896073
-0.39781862
-0.21970978
0.01376244
0.42019659
-0.23357065
-0.07321718
-0.12679207
-0.24305834
-0.21664512
-0.42758107
-0.14626549
0.02957541
-0.23103596
-0.19189283
0.21052893
-0.11678303
-0.05818147
0.27633461
-0.19758837
-0.31444785
-0.07177194
-0.29225489
0.18152772
-0.14415801
-0.36242861
0.23793155
-0.07958797
0.15466784
0.41914678
-0.02091219
0.08558884
-0.29572922
-0.23768598
0.13980384
0.00075444
-0.13587902
0.39849907
-0.07816747
0.23577295
0.02766815
0.25826016
0.03714197
0.04460145
0.35273311
0.05004233
-0.04672702
-0.08622181
-0.09097241
0.28864336
-0.10214318
-0.04380282
-0.07637531
0.17467065
0.02607136
-0.11876410
-0.03974088
-0.14307524
-0.05283271
-0.00748897
0.46427542
0.00629093
0.23668216
-0.04123646
0.35203296
0.10867637
0.23446244
-0.00937580
-0.12917641
0.01137995
0.09033471
-0.23179235
-0.11338554
0.06561691
0.18470480
0.22288102
0.00772243
-0.18224800
-0.31251776
-0.01846809
-0.18433440
-0.13402110
-0.24356255
0.02399517
0.48177105
-0.58129644
-0.09779378
0.34169608
0.46009070
0.05711927
0.17353827
-0.43463466
-0.40564260
-0.32350904
-0.21805383
-0.03327201
0.04202694
-0.03362176
0.02450527
-0.14366831
0.20212820
0.10007765
0.07793296
0.22646359
-0.26281413
0.08885177
-0.27589071
0.21322650
-0.13783248
0.07906207
0.03192492
0.18541673
0.10922179
0.32404771
0.31013474
-0.30778673
-0.03626034
0.11369390
-0.11881363
-0.16464862
-0.02370881
0.33280438
-0.03766812
-0.16013740
0.00630906
-0.23064350
-0.27957675
-0.35523736
0.13062117
-0.02684175
0.10544637
0.16397680
-0.19734374
0.17723152
-0.04880344
-0.07302524
-0.02600262
0.17603147
0.50001699
-0.07833312
0.32394791
-0.22552353
0.22951242
-0.09881920
-0.03437586
-0.29240227
-0.00257714
-0.15963084
0.46219265
-0.04400621
0.03471446
-0.14133170
-0.06405888
-0.13814497
0.08254104
0.18419537
-0.45527527
-0.22199662
-0.18161102
0.01030370
-0.30851716
-0.03536620
-0.24296327
-0.01993725
0.09642234
0.13965324
0.02852509
0.01015893
-0.02185018
-0.18399037
0.18079151
0.05578677
0.21044032
0.24976662
0.09446691
-0.03490530
0.15057532
-0.11847499
0.10071969
-0.06429179
-0.02834505
-0.00292621
0.12181188
-0.08108900
-0.18351801
-0.24075274
-0.09887880
-0.24114044
-0.25006744
0.09747835
0.21772280
0.15916561
0.15371197
-0.07022538
-0.00735680
-0.08393250
-0.04984275
-0.09964257
-0.31082976
0.20569572
0.19904491
-0.17282742
-0.08154608
0.08954574
0.00359826
0.26382902
-0.01634813
0.21081175
0.12002024
-0.23314656
-0.07778075
0.09959925
0.13045506
0.13242628
0.02408575
-0.32171902
0.14868702
-0.08082483
0.09345974
0.22059543
0.04529112
0.22475533
-0.20395371
0.31621879
-0.00975956
0.03871920
0.14931902
-0.16284691
-0.09448754
-0.15306105
-0.35436153
0.03676146
0.06036911
-0.02668271
0.02743698
-0.21121261
-0.39617962
0.17690742
0.19935966
0.10935717
-0.13010104
-0.00489501
-0.38071623
-0.18994524
-0.45673183
0.17226636
0.44957122
0.33626118
0.13913912
0.26487747
-0.21399085
-0.38119596
0.11761537
0.02931475
-0.04004899
0.13970938
-0.07059828
0.21848215
-0.26744482
-0.05566131
0.12508604
-0.38756990
-0.18517639
0.23512951
0.12155632
-0.18728650
-0.14909449
-0.23605886
0.06808927
0.12680516
-0.10370691
0.07583284
0.19078441
0.15138927
-0.12769249
-0.29854217
-0.10517787
0.37400913
-0.16280565
0.08929784
0.08260798
0.01560397
0.12097980
-0.24104880
0.23832843
0.21015188
-0.04988717
-0.11222932
0.19487323
0.28869313
0.00571035
0.32674092
-0.25833437
0.12803191
0.11581054
-0.00343743
-0.14656782
0.20828487
-0.04978903
0.01251340
-0.17288455
0.26886937
0.08794540
-0.27067232
0.13861699
-0.10544857
0.00287947
0.04689550
-0.28693759
-0.18355514
0.51564741
-0.01100956
-0.04701132
-0.07714961
-0.04402770
0.06662641
0.25004441
0.16838181
0.16463630
-0.27118480
0.04230567
-0.22911943
-0.02656886
-0.26521283
0.05571800
0.15982364
-0.32641131
0.03899629
-0.10159447
0.15523165
-0.00242964
0.23956533
0.07372991
-0.19418274
-0.15539943
-0.02081882
0.37367913
0.02662392
0.43711230
0.09635914
-0.02181113
0.12750508
0.34421840
0.26219982
0.00900443
0.14334090
-0.05657461
-0.21507196
-0.16312531
-0.05678702
0.15763542
0.13592659
0.27051470
-0.08430334
0.11675693
0.10679130
0.22636692
-0.53512633
-0.15053511
0.18751268
-0.16411763
-0.14537320
0.03949539
0.08187895
0.04239952
-0.12479135
0.31315231
0.06109321
-0.24695021
0.06855799
-0.27066275
-0.14967057
-0.36040345
-0.22416449
-0.13944364
0.08301844
-0.01048763
-0.24223708
0.02489132
-0.30191675
-0.17222978
0.45624533
0.09504960
-0.01579087
-0.04551857
-0.39308068
0.12853430
0.26078248
0.03102430
-0.12222488
-0.01661188
-0.15509018
-0.32405102
0.23126248
0.03061692
0.07468720
-0.15940149
-0.15574220
-0.01043516
0.00046910
0.22384012
-0.10775942
-0.04058924
-0.10591988
-0.00586462
-0.03113906
0.33587363
-0.12741879
0.17531508
0.17565928
-0.22226742
0.29315954
0.23286012
0.07955799
-0.04910024
-0.17105483
0.16754073
-0.01188535
0.06006050
0.27564371
0.00595675
0.16926867
0.15767637
0.30978325
0.22350134
-0.02373712
0.06011538
-0.03235496
0.08276606
0.38823304
0.28050977
0.28953511
-0.16259588
-0.46947712
-0.41669866
0.08989846
-0.04839681
0.43825457
-0.23928842
0.01594888
0.07528599
-0.14065439
0.04357017
0.35703337
0.12121340
-0.30976501
0.35708976
0.15492468
0.03998191
0.26680958
0.02789847
0.06542040
-0.02742565
-0.05120352
0.09116207
-0.15426441
-0.10689021
0.43551660
0.23556346
-0.21573126
-0.17115813
-0.03392998
-0.20465265
-0.31199864
-0.10980854
0.17135334
-0.24887662
-0.27763721
0.36833382
0.02894526
-0.15458797
0.24041140
0.09853485
-0.18991765
-0.04250475
-0.06153112
-0.20650333
0.16666710
0.11383398
-0.07585748
0.03604045
-0.14770810
0.23641616
0.35311830
0.11398553
-0.16787075
0.24069777
-0.16604894
0.13313587
0.16939636
0.09459392
0.19897358
0.26013243
0.04832967
0.14559725
0.24379830
-0.09372652
0.17056857
0.00230414
-0.31674576
-0.19630331
-0.13859291
0.14311734
-0.27156934
-0.05168118
0.07891758
-0.33600995
-0.46580428
-0.17090817
-0.00059948
-0.00727670
-0.21142690
0.20636863
-0.12643079
0.26042125
0.30367383
0.05028031
-0.14175032
-0.05255491
-0.06856579
0.10650887
0.15661295
0.26028192
-0.02219712
0.19990560
-0.07293777
-0.11650461
-0.16609047
0.13877422
-0.29634064
-0.04733189
0.05661317
0.12368748
-0.03594096
-0.09531802
0.14160597
-0.06724789
0.19256814
0.20308599
-0.32572901
-0.26746801
-0.13238879
-0.34889650
-0.32707667
-0.20394023
-0.05308918
-0.02214993
0.02890578
0.37714034
-0.21563035
-0.22247612
-0.12220763
0.06634232
-0.10198192
0.19055490
-0.16719359
0.09149109
0.37791240
0.12693319
-0.03258788
-0.09808929
-0.05572164
-0.07017773
-0.19481818
0.05352075
0.07334542
0.04884605
-0.05103205
-0.08396491
-0.06778436
0.01087286
-0.09391972
-0.18351775
0.40987560
0.19747686
0.13004395
-0.04552510
-0.35075101
0.06157044
0.14356738
-0.18355408
-0.15485542
-0.32862088
0.32789996
-0.29787394
-0.00144002
-0.05071200
0.00672513
-0.00058504
-0.06909769
-0.15829034
0.36568013
0.24622598
-0.45926565
0.00486801
-0.07613485
0.19822432
0.18629055
0.09802213
-0.32354760
0.00236332
-0.14753355
-0.22625604
0.44864905
0.01317721
0.16810085
-0.26676896
0.08242090
-0.36075804
-0.09128205
0.17138207
-0.11880215
-0.20473911
0.22159944
-0.10311171
0.04458408
0.07381976
-0.16284218
-0.17665873
-0.34120676
-0.16255000
0.12301543
0.24576037
0.22274251
-0.56765544
-0.32778436
-0.30387163
0.11565787
-0.32199466
0.05506846
0.21537997
0.24827115
0.22404239
0.36845964
-0.00433440
-0.10230960
0.16591567
-0.33279216
0.09849577
0.11137404
0.03418849
0.18111116
-0.18446165
-0.17757387
0.23151943
-0.09989221
0.16888876
-0.04619153
-0.11750401
0.01979458
-0.07354164
-0.07235961
0.19749121
0.04905436
-0.15356311
-0.05490559
0.29163414
-0.05440177
-0.16512795
-0.41835451
0.12900454
0.06270316
-0.04938386
-0.04836436
0.17708540
-0.05301791
0.24321139
-0.24862581
0.09462336
-0.22733624
-0.31754312
-0.14433742
0.19822073
0.20796353
0.26885757
0.16809647
-0.21299967
0.14606678
-0.00682009
0.15307565
-0.05583296
0.26576954
0.04970440
0.22718534
-0.14391172
0.04334860
0.13233344
0.03373213
-0.03415253
0.12532727
0.32681513
-0.14961098
0.09748837
0.10848437
0.32376745
0.29501769
-0.01712892
0.13749574
0.05067067
0.16099200
-0.04952555
-0.27443203
-0.30958211
-0.00680791
0.04164044
0.08770771
-0.02299914
0.13825531
-0.19175020
-0.03425921
0.29036731
0.02533985
-0.04816847
0.00190942
0.20521690
-0.02180598
0.20357592
-0.15082723
0.22805150
-0.24087447
-0.22409406
0.06399992
0.08433539
-0.26918501
0.29859880
-0.04274657
0.02579709
0.18584704
0.00548455
-0.15521303
-0.08027922
0.07703201
-0.26217413
-0.06212846
-0.07075955
0.20138469
-0.27170777
0.01099260
0.04555704
0.13904095
-0.10745473
0.22533992
0.07471942
-0.03028028
-0.19893430
0.26090601
-0.06288683
0.10707639
0.02134019
-0.09761315
0.12483732
-0.15077269
0.08668269
-0.04647072
0.00781039
0.12632787
0.02009269
-0.18311903
0.17446280
-0.21776175
0.19107731
-0.06801365
-0.10619438
0.24244937
0.00681742
-0.03377883
0.01239073
0.17624308
0.23077889
0.07556260
0.10741555
-0.12940687
-0.09066150
0.05239543
-0.23060784
0.08909597
0.46553424
0.06563884
-0.09196615
-0.25789118
0.08371990
0.00080799
-0.09964861
0.14580570
0.18507950
-0.00905812
-0.17567141
0.09753145
0.05322538
0.28501618
-0.05502925
-0.24535760
0.21615161
0.14179929
0.11088385
0.60759103
-0.07341446
0.24139403
-0.14948381
-0.10273439
0.22246075
0.27262065
0.02149716
-0.02745084
0.10529632
-0.15581277
-0.37135565
0.10676789
-0.08616958
0.12114788
0.06940319
-0.28771031
-0.20523293
0.17107563
0.35413894
-0.08047912
0.16728829
-0.11241671
-0.23595431
0.07789670
-0.17053172
-0.10341147
-0.03085937
0.62925559
0.01820041
0.43801579
-0.10971204
-0.00328050
-0.13901618
0.11484586
-0.36035231
-0.05618542
-0.17148311
-0.01308525
0.00049415
-0.11655008
0.08187909
-0.01403063
-0.07651086
0.13777460
-0.07674287
0.00532314
0.02505237
-0.00042010
-0.06954551
0.23043168
-0.08441015
0.07427775
0.13544081
-0.01746225
-0.08176237
0.11606709
-0.47883558
0.37684178
-0.13666406
0.06782461
-0.15252790
0.23884359
-0.02399196
-0.13369878
-0.00091265
-0.00632482
0.20092662
-0.05493602
-0.20868644
0.22932552
-0.09987733
0.00186473
-0.13755050
-0.02869207
0.00031065
-0.13888486
-0.18668403
0.11342105
0.26645058
0.03289961
0.00841288
0.06590199
-0.08322864
-0.21550123
0.19875291
0.25156799
0.22610363
0.27419668
0.05880144
-0.04305873
0.13085161
0.09397710
-0.28945959
0.08562016
-0.00230949
0.30734932
-0.33735600
-0.24800198
0.11452361
0.03794214
0.06262320
0.08771078
0.18604985
0.02526101
-0.06683944
0.01015377
0.21389106
0.10141544
0.24468549
-0.12966613
-0.09740951
-0.08811422
-0.19362722
0.02042736
-0.04927937
0.04494847
0.19077517
-0.20501599
0.02830740
-0.23768921
0.14229958
-0.11262891
0.11655472
0.26742506
-0.08312953
0.21589521
-0.22042881
0.02151099
0.03182746
0.15594836
0.09027765
0.11416472
-0.08112174
0.11025906
-0.13041206
-0.02421353
0.03578850
0.01977713
-0.01085628
0.06130346
-0.46057114
-0.05932975
-0.10480408
-0.13466839
0.12814987
-0.39868838
0.02728033
-0.03731274
-0.19344166
-0.20210874
0.09066518
-0.16670334
0.01431375
0.09494966
-0.15382163
-0.18649095
0.05051291
-0.29906142
0.16359423
0.22276025
-0.20550986
0.11301535
-0.31566343
0.34622195
0.22653423
-0.15553676
-0.01515634
-0.00964280
-0.05955201
0.01631249
0.00575055
0.04000435
0.15913200
0.09665508
-0.07461317
-0.13318168
0.03620869
0.00321067
0.02417969
0.05245509
0.13106062
-0.09074479
0.16008139
-0.07344108
-0.29526353
0.16584171
-0.24496971
-0.15577458
0.20068601
-0.04888362
0.43581411
0.35533625
-0.20078582
0.15778629
0.00209998
0.01410839
-0.16440423
0.03028480
0.00116340
0.09779725
0.08861179
-0.01486049
0.07780481
0.13050325
0.05054998
0.10346586
0.21206297
-0.18070029
0.00556594
-0.18499763
0.18577255
-0.03475641
-0.00036863
0.18828224
-0.19908781
0.31794113
0.00944971
0.04944708
-0.09801685
0.20468542
0.02921336
0.07403363
-0.09705633
0.06335851
0.21717764
0.05983492
-0.07694873
-0.09056823
0.07183934
-0.08055330
0.04175942
0.19643441
-0.09317473
0.29167163
0.07225125
-0.21422821
-0.08022390
0.15701854
0.28341863
0.00354726
-0.02323249
-0.13974510
-0.11091530
-0.00188252
-0.02071849
-0.01073287
-0.01055295
-0.09968618
0.05240747
-0.26721919
-0.16687341
0.26358739
0.32673252
-0.22794302
0.12388387
-0.06088031
-0.18603326
-0.02043168
-0.10415274
-0.11831605
-0.31186849
0.19314687
-0.07700980
-0.43508232
-0.20178880
0.15140471
0.10817460
0.08570140
-0.04122252
0.20980063
0.13503718
-0.11555192
0.13963535
0.09092828
0.15010779
-0.32253855
-0.03348272
-0.02036345
-0.04388265
-0.08773648
0.43968207
0.12259178
0.01113849
0.16898364
-0.04234941
0.31596395
-0.14318100
0.33833086
-0.32157058
-0.15685041
0.22071171
-0.26516131
-0.25730482
-0.12934454
-0.12044379
-0.11340130
-0.08416864
-0.07966260
0.23694289
0.17398122
0.39494750
-0.17711832
0.00591372
-0.05820883
0.06893822
-0.01593409
0.14155404
0.01369850
0.01151941
-0.16555536
-0.14875397
-0.08666854
0.09857835
0.02251457
-0.26771083
0.24228734
-0.04899779
-0.21856244
0.02182772
0.04064156
-0.09080843
0.32963035
-0.16603149
0.20496447
-0.23050284
0.10471036
0.11861584
-0.36794138
0.09691423
-0.11209345
0.13957733
0.29785666
-0.08470127
0.03438780
-0.42744228
-0.29238135
0.35671374
0.10096070
0.21599109
-0.05968133
0.06002785
-0.21314120
-0.23626600
-0.06954452
0.46004999
0.23167592
-0.27765644
-0.47696790
0.00784692
-0.01475098
-0.25203294
0.32808939
-0.15127456
0.09453587
0.15923294
0.03170936
0.04079578
0.08731315
-0.18118359
-0.30064979
-0.10280281
0.30850342
-0.35803822
-0.19719322
0.03048138
-0.17032202
-0.14155222
-0.37234190
-0.08325937
-0.14934897
0.08837510
0.11075944
0.15085129
-0.26950774
0.00260660
0.20285061
0.08261987
0.07603191
0.05956396
0.12569250
-0.24177866
-0.13258439
0.28089458
0.47201344
-0.18297191
0.32292613
-0.15013367
-0.06601866
0.08948654
-0.06855399
-0.08828265
0.04309596
0.05448985
0.15506683
-0.08451150
-0.39468208
-0.17324625
-0.02949828
0.17168723
-0.00447924
0.18865640
-0.22733457
0.18964998
-0.17325036
0.27838272
0.37736756
0.09440278
-0.14097345
-0.33352664
0.14407970
0.08049291
0.14364766
0.02031118
0.07624583
-0.03984419
0.15325186
0.25554931
0.01109522
0.01898519
-0.44109187
0.14656164
-0.36120901
-0.09664854
0.36732364
-0.23879018
0.45654795
-0.21946642
-0.05008332
-0.22622143
-0.29941082
0.04404692
0.15271847
0.06894775
-0.32925230
-0.01180444
-0.01677011
0.48865765
-0.17638102
-0.05850317
-0.06699194
-0.07140051
0.11968955
-0.12993546
0.05827402
0.00712494
0.03257200
-0.20365812
0.08947162
0.15358983
-0.07019496
-0.17992802
-0.25627443
-0.14435042
0.06670515
0.05507374
-0.38440320
-0.31718779
0.18242055
-0.15716465
0.30085430
-0.23080772
-0.14608541
-0.01903677
-0.01511582
0.01586145
-0.34119025
-0.14756139
-0.19790746
-0.02702920
0.07843152
-0.21166135
0.38801971
0.02997735
0.16563834
0.13860695
0.06710184
-0.01762134
-0.06346725
0.29775530
0.26489627
-0.13739602
-0.15635642
-0.05361191
-0.01427070
-0.13443641
0.25378069
0.05677267
0.27311862
-0.21311633
0.09543451
0.21058086
-0.02331677
0.13701390
-0.09336393
-0.38080364
0.12217329
-0.31122839
-0.09168980
0.12335248
0.04397443
0.12499568
-0.12644424
-0.10614412
-0.41994894
-0.04444389
-0.34535110
0.13875000
-0.17028704
-0.15067710
0.36316422
-0.14578189
0.19208032
-0.05717373
0.35611567
0.29984990
-0.01442282
-0.12594788
-0.04039721
-0.12752785
-0.00328769
-0.01938759
0.24284558
-0.14426170
-0.08033182
-0.31397110
0.00300834
0.12082228
-0.06641132
-0.07795216
-0.12212183
-0.34083742
-0.02043150
-0.00069078
0.04902203
-0.10420451
0.19245160
-0.37428990
0.02492363
-0.10559837
-0.18264881
-0.15576892
-0.40923738
0.11175371
0.25873789
-0.38393313
-0.16370495
-0.13465092
0.19292814
0.02997844
-0.02608193
0.25914711
0.04948761
0.31859422
-0.14420339
0.41643053
0.21792828
0.16238740
-0.12867233
-0.14183395
-0.39322481
0.05714075
-0.35422075
-0.29231334
-0.17662579
-0.12034371
0.07783784
0.09723696
0.00346528
-0.22640216
0.11789923
-0.28337613
0.05449123
-0.21813965
-0.28097442
0.25306419
0.11896415
-0.15748918
0.15926160
0.21702555
-0.00537255
-0.03749921
-0.07217029
0.35525224
-0.00541767
-0.10831042
0.05852589
-0.00585610
0.36413956
0.19290271
0.32419011
0.14774340
-0.21421684
0.18279290
0.17421535
0.17046633
0.07801692
-0.03378049
0.22580695
-0.30407128
0.05925689
0.20837906
0.12486947
-0.34259266
0.05812700
0.20328575
-0.21615200
-0.03498230
-0.07717947
-0.09651198
0.15179773
0.06799054
-0.25175887
0.08460238
0.12624879
-0.03977159
-0.03583328
0.30683836
0.19379596
0.06031381
-0.33754441
-0.28592494
0.18533419
0.30803740
-0.01798226
-0.17036684
-0.12698600
-0.11367600
0.26538262
0.21947493
0.15438527
0.43060234
-0.04676560
0.19283812
-0.05290896
-0.17735511
0.02601878
0.14293259
-0.18046315
-0.13241321
-0.18305629
-0.08150630
-0.09398545
-0.20392059
-0.04650218
-0.07683300
-0.16446379
-0.10717890
-0.24087544
-0.03101403
0.27666834
0.11052800
-0.04876572
0.03834258
-0.15218696
0.08048330
-0.01271707
0.00479376
-0.18973505
-0.24094106
-0.15924476
-0.07169674
0.09750855
-0.13063858
0.24779822
-0.00000535
0.39724103
0.07348771
0.09108630
-0.08999231
-0.04596947
0.15802389
-0.00260711
-0.03746154
-0.29876363
0.03828422
0.12504186
0.05141510
0.29840925
-0.21239008
0.32219714
-0.25131485
-0.00051723
0.04855229
0.19472142
0.09063467
-0.02574878
0.16101849
0.10471345
0.19789004
-0.25204408
0.13551043
0.26749897
-0.08636813
0.04412529
0.04448113
-0.20923594
0.27656126
-0.03898615
0.02728152
-0.17550999
0.02131718
-0.00987740
-0.13653955
0.10927556
-0.11950647
0.21877548
-0.12801625
0.14327399
-0.02603896
0.18129504
-0.07513868
0.32996204
0.07535969
-0.02659072
0.18541601
0.15319452
-0.17336603
0.20081270
0.24697091
-0.07801337
0.01876296
0.02061176
-0.04662278
0.04884467
-0.14233889
-0.08124682
-0.05707994
0.01512977
-0.20991027
-0.49832177
-0.07724871
-0.31837371
-0.07533254
-0.17495015
-0.15720759
0.09289289
-0.11802538
-0.23500864
-0.12198656
0.42799753
0.27822411
0.16708325
0.51213390
0.03196499
-0.03252798
-0.23516393
0.09817825
0.10325287
0.42796502
0.18328565
0.01953158
-0.28558770
-0.09838696
0.04448741
0.08144495
-0.21466529
0.20661275
0.04374215
0.06096849
-0.06032943
-0.04178102
0.37401125
0.11586416
-0.09573437
-0.09804960
0.06200941
0.12931930
0.27588120
-0.29003048
-0.30813408
0.06703370
-0.09918767
0.11659025
0.31862941
0.01200185
0.05056057
0.07042421
-0.26822641
0.04134345
0.24224387
0.39128041
0.12712981
0.30987111
-0.17447251
-0.25906903
0.08655252
0.26712748
0.10104661
-0.17161795
-0.44512582
-0.06877476
0.26915234
0.17435636
-0.02382095
-0.03956632
0.20963322
0.16393629
0.29074782
-0.19503549
-0.29728183
-0.24422307
-0.08354995
-0.38783571
-0.10354304
-0.06388206
0.19844532
-0.19338498
0.05948526
0.44272700
0.06117541
-0.08392442
-0.13243617
-0.02118011
0.29453391
-0.03429255
-0.28800720
-0.17880611
0.07797651
0.19796093
0.10615824
0.07963952
0.20560752
0.28190458
-0.11488613
-0.06843930
0.34036621
-0.15003887
-0.04195175
-0.26037660
-0.18539456
-0.06829379
-0.03625869
-0.11250129
0.01829204
0.02886398
-0.07471405
0.09171043
0.13610925
-0.13953112
-0.18637727
-0.22021744
-0.06674952
0.07775969
-0.17393722
0.17165406
0.18635286
0.10605075
0.16765213
0.03448655
0.00369694
-0.07242844
0.24565275
-0.12249641
0.15913005
0.27174336
-0.53691757
0.04592018
-0.24233933
-0.24418533
-0.15705179
0.11174209
0.17543864
-0.24650256
-0.39882770
-0.03800836
0.12983757
-0.15792572
-0.14540395
0.25902987
-0.15715554
0.25262582
0.17175147
0.02645668
0.13876961
-0.00548993
-0.27329955
-0.45229873
0.21672566
0.04660118
0.03800919
0.14629957
0.00793149
-0.01883253
-0.37388518
-0.08433118
-0.11957649
-0.12314626
0.00787391
0.16084756
0.01260915
-0.25236794
-0.02355491
-0.04320458
-0.02355097
0.01880522
0.24960864
-0.21914257
-0.44676840
0.19393620
-0.32629016
0.08632023
-0.15955102
0.02643409
-0.11900779
0.21377115
-0.17691642
-0.01393477
0.08245435
-0.14569664
-0.18558465
0.16257669
0.17385648
0.13088457
0.17343575
0.00665151
-0.33162922
-0.07387189
0.22541434
0.23285244
-0.01464735
-0.16240200
0.25957996
0.05618807
0.07533653
-0.02255686
-0.15072779
0.01968815
-0.10193286
-0.06532671
0.26852831
0.19655734
-0.19377282
-0.14801961
-0.22039479
-0.23141325
-0.01397379
0.20594889
-0.14175874
-0.29396889
0.28364789
-0.05655812
-0.17979078
-0.25744763
0.18552276
-0.10263360
-0.10219240
-0.02951575
0.21224423
0.00316916
-0.27498162
-0.16247927
0.10496879
-0.05359897
0.08717880
0.23406135
-0.05952130
0.06013054
-0.46186516
-0.11070228
0.20497651
0.39695084
0.25514084
0.01068824
0.04326029
-0.09609538
-0.18428329
0.25280070
-0.14704585
-0.27068049
0.07957456
-0.48422334
0.10575403
-0.04184388
0.08021785
-0.45801169
-0.06008068
-0.21769775
0.10849838
-0.05162792
0.08142354
-0.21106118
-0.06058639
-0.23421642
-0.26511490
-0.20544682
0.16786513
0.40740076
0.04729154
0.12039387
0.02968554
0.13059120
-0.19856358
0.22803730
0.15470736
0.08652075
-0.06933606
0.11341436
0.23474206
-0.31301910
0.02524516
0.03292653
-0.38914317
-0.11086655
0.28718773
-0.00898545
0.00954826
-0.13261491
-0.08572766
0.04091313
-0.08723091
-0.37433186
-0.17732474
0.43323609
0.07140768
-0.01294694
-0.25622064
0.30257508
0.25005400
0.10136196
0.03716170
0.15296245
0.03908782
0.28232539
-0.01845458
0.27941376
-0.11181619
-0.02694921
-0.07002105
0.01476022
-0.08132506
0.21791740
0.18461503
-0.07041888
0.16148466
0.21770243
0.08010078
-0.17545584
0.04592233
-0.13430566
-0.03996949
-0.17447209
-0.10196613
-0.37357360
0.12619112
0.27406210
-0.02845968
0.01194595
0.02517080
0.02512283
0.08218940
0.20078892
0.21531817
0.08173168
0.17086294
0.02663156
0.20088977
-0.04634703
-0.25034672
-0.11414650
0.16831619
0.02636811
-0.19553706
-0.20310141
0.22360539
-0.26540038
0.03787477
0.19645087
-0.12078626
-0.10203906
0.17302287
-0.20717558
0.02008854
-0.11486624
-0.17321055
0.41311869
-0.28270102
0.04057465
0.13838099
0.07365477
-0.09062381
0.15590632
-0.08986674
0.01171270
0.16884714
0.01135282
-0.05575963
-0.15270191
0.43251494
-0.11002947
-0.16598302
-0.19913907
0.19686820
0.02780023
0.23312104
0.02621654
-0.15693665
-0.19379328
0.30623665
-0.05624774
-0.19311565
-0.14603186
-0.09176251
-0.11669861
0.08585236
-0.15631889
0.05285006
-0.01794138
0.01516016
-0.05725857
0.20360820
-0.08470511
0.10831378
0.17542505
-0.04739041
-0.01498060
-0.09871621
0.02604130
-0.03325813
0.01702328
-0.05843699
0.11805824
-0.15729767
-0.22799060
-0.08922483
0.11562161
0.19633465
-0.20791982
-0.03316294
0.09067666
-0.16885887
-0.11044259
0.02223009
0.14626981
0.13639554
0.11022928
-0.11870374
-0.02658806
-0.04867845
-0.33712763
-0.09821693
-0.07718547
0.55905825
-0.12369910
0.02033963
-0.25634471
-0.13678259
0.05598833
0.22360054
-0.05634511
-0.08451738
0.18861055
0.01793308
-0.08733202
0.01181216
-0.22277640
0.04219080
-0.00274939
0.24109766
-0.17747596
-0.00021274
0.31701961
-0.09135960
-0.09782451
0.01144741
-0.02808380
0.12902705
0.34018371
-0.29349899
-0.28925821
0.04681148
0.02431739
-0.08770704
0.24094418
0.13384777
0.19935626
-0.02250387
-0.21070795
-0.24440818
-0.09707849
0.25966167
0.00057886
0.13918866
-0.03458737
0.22007810
-0.15568607
0.29398596
-0.29661825
-0.11558342
-0.12556937
0.03109623
0.05008895
-0.22579560
0.00835603
-0.07874326
-0.26020116
0.02541230
-0.13406952
-0.10415960
-0.01461603
0.28774458
0.07172535
0.37106359
-0.02126774
0.11408599
-0.19898908
-0.11459966
0.12412112
0.27831408
-0.32455677
0.35850811
-0.26706675
-0.08232354
-0.09307489
0.05922854
-0.27595246
-0.14010599
0.13280393
0.20053895
-0.06220692
0.11609171
-0.00348340
-0.14278746
-0.13793238
0.11812405
-0.00550376
-0.40319371
-0.14814694
-0.05769952
-0.18240450
-0.06569900
0.24600157
0.04184194
0.03584190
-0.09776364
-0.07309756
-0.04476569
0.26249865
-0.02833345
-0.14182822
0.16025959
0.01690801
-0.16425212
0.32416919
0.14310043
-0.12605384
0.01394106
-0.03018932
-0.00267211
-0.39039698
-0.04197351
0.24353679
0.14931059
-0.20387585
0.11545684
-0.00228404
0.16454071
-0.01840128
-0.15434122
0.04147650
0.38005057
0.04704082
-0.15315445
0.01085263
-0.14329910
-0.11867557
-0.22026524
-0.14749187
0.20299882
0.03002813
-0.18874124
-0.21111336
-0.18843541
-0.05911373
0.01215066
-0.01325324
0.18715826
-0.08352976
0.24401160
-0.17367864
-0.23419206
0.23732065
0.04076207
-0.26734084
-0.18563744
0.34725353
0.12617451
-0.03553183
-0.10862460
0.26866198
-0.48954904
0.00500871
-0.04549434
-0.20090057
-0.02734864
-0.32594857
-0.01769024
0.11220334
0.04077225
0.09005144
0.17467050
-0.33951882
-0.11452518
-0.33900952
0.02899172
0.21692328
-0.22381212
-0.13107398
-0.31237942
-0.30911583
0.02046298
0.05526300
0.03166116
0.12839925
0.53919578
0.09197100
0.13804272
0.03920958
-0.32669267
-0.04710773
0.00193066
-0.21184336
-0.21908240
-0.05300839
-0.06697974
-0.12473923
-0.08163209
-0.14470354
-0.11958849
-0.20834981
-0.12973417
0.06883103
-0.03064018
0.13793187
0.02664836
0.04845180
0.00955848
0.04359805
-0.15821843
-0.09991612
-0.14885119
0.03966812
-0.04197060
0.17880225
0.15454362
0.07355319
-0.08514790
-0.34592909
0.41675109
-0.21744376
0.19251834
-0.13091409
0.19486436
-0.24903661
-0.05963675
0.05676884
0.04528274
-0.06630775
-0.10425292
-0.09064807
-0.27398500
-0.35565880
-0.08565103
-0.01880665
-0.10636128
-0.27632731
-0.01289683
-0.04779667
0.34916013
0.08525460
0.05817364
0.20906912
0.22466192
0.21701875
0.25706550
-0.07933894
-0.21478392
0.25399688
-0.06770627
-0.24075560
-0.26098132
-0.03865203
-0.17835911
-0.12372632
-0.05835473
-0.09710930
-0.04739287
0.00379281
0.02612312
-0.14007743
-0.03048022
0.13940762
0.13484895
0.27865401
-0.10602938
-0.19078939
0.15953034
0.09779738
0.16408272
-0.16074635
-0.07054838
0.21215449
0.12069660
0.13234162
-0.03666749
0.13932511
-0.10205784
0.13046262
0.06707214
-0.06719507
0.14922881
-0.25451386
-0.14228642
-0.23313625
0.02588336
0.04255909
-0.04529493
-0.00625738
-0.16967107
0.11694179
0.06125760
0.02070516
0.07128635
0.22828974
-0.16221434
-0.02896582
-0.02021156
0.14271986
-0.28954706
-0.34565592
-0.14511853
-0.12468476
-0.44331315
-0.23274612
-0.09628012
0.02638747
0.10274487
0.31894726
-0.13528083
0.00835605
0.11904813
0.28149730
0.31923583
0.10323621
-0.20219634
-0.35770735
0.05982766
0.14281523
-0.37945232
0.09571628
0.12875514
-0.07060309
-0.04965972
-0.16408171
-0.06080358
-0.15322541
-0.19722472
-0.24389921
0.00762052
0.15233034
0.14311136
0.25720635
0.18231624
-0.03151353
0.00504868
-0.06558945
0.00744268
0.09279270
-0.12441745
0.09646989
-0.12110665
0.06681821
0.13545331
0.25516853
-0.13208404
0.21379513
0.16282712
0.25321749
-0.17435016
0.46337992
0.00211488
-0.03539132
-0.26282150
0.12822042
0.26321450
-0.19878682
-0.29605556
0.08448570
-0.08369438
0.42801118
-0.05576732
-0.02171451
0.04889413
0.29581219
0.17329295
0.04809408
0.10482258
-0.10849316
0.00465068
-0.40914303
-0.16607329
-0.29953891
-0.17792508
-0.23681974
-0.20024616
-0.08589903
0.15684357
0.06386055
-0.35884508
-0.04586964
0.02918573
0.11274778
0.10986210
0.30494642
0.13114110
0.20480111
-0.09187511
-0.11163017
-0.00478854
-0.15887849
0.02547872
-0.14043610
-0.27028486
0.19504884
-0.13996704
-0.13305181
-0.37869760
-0.12468160
0.14827058
0.32578334
0.04596325
0.07015656
0.34135723
-0.07936181
-0.20247936
0.15765293
-0.11236306
0.29087606
-0.15531041
0.35027075
-0.26507175
0.17841727
-0.09669672
0.12312940
-0.08683617
-0.28083193
0.29170978
0.17578819
-0.10054402
0.20750420
-0.11562139
-0.15451011
0.13614613
0.10199645
-0.08770307
0.03695457
-0.22194321
-0.00659108
0.28625244
-0.04838479
-0.19016023
0.12839685
0.18125831
-0.07079204
-0.38704893
0.05348997
-0.40685096
0.16331427
0.15633443
0.13106152
-0.01285532
0.16441253
-0.13060643
0.07016851
-0.23127761
-0.24276990
0.14911282
-0.29471514
0.11033852
-0.34499061
0.18103290
0.01421557
0.09932386
-0.06068942
-0.25814506
-0.11123259
-0.46030715
-0.10810819
0.10913279
0.20437759
0.16918756
0.05269629
-0.47284016
0.32727796
0.08518341
0.24994922
0.06779408
-0.19089840
-0.12278283
-0.19434524
0.25062928
0.15831745
0.05428997
0.19667976
-0.14687721
0.18683431
-0.15131474
0.06960201
0.08087261
0.09332237
0.21436431
0.22030336
-0.00446316
-0.14182632
0.11291395
0.07627022
0.25681588
-0.05284542
0.09942159
0.18020898
-0.02054011
0.19028625
0.24475296
0.18988033
0.23065527
0.28806499
0.04318462
0.27439764
0.16222283
-0.20425791
0.13699153
0.08965452
0.30428466
-0.21592292
-0.22212869
0.17769898
-0.02079394
0.17980185
-0.34028423
0.07252388
0.03011420
-0.11586738
0.15444997
-0.00054178
0.32539043
0.22005351
0.13042578
0.12576860
0.27072075
0.08074700
-0.07499368
-0.26620674
-0.11554416
0.09077951
-0.23276134
0.20484495
-0.00289526
0.17674898
0.19194676
0.24252723
0.32168654
-0.17221184
0.21015185
0.17637315
-0.25620282
-0.16218372
0.35377222
-0.28043669
0.09843181
-0.02958837
0.19034256
-0.03008671
0.23125882
0.18819548
-0.11512490
-0.30086967
-0.23366475
-0.15150747
-0.04527160
0.03588800
0.06268720
-0.25082508
0.08020804
0.09922919
0.30023512
-0.26396894
-0.34596616
-0.15618768
-0.20940964
0.08037183
-0.01342087
0.01263253
0.19721958
0.06009457
-0.19431773
-0.15511478
-0.05578325
0.06503464
0.31025627
0.19284047
0.55488235
0.14493410
-0.11377849
0.14665833
0.29838249
-0.27810377
-0.17801297
-0.14750224
0.02168555
0.05943861
0.12172162
0.22320031
0.05398109
0.22751406
0.14852822
-0.10120738
0.05898269
0.29364043
0.07009907
0.36374620
-0.22312815
-0.11349224
0.19606440
0.06396660
-0.17778367
0.29233909
0.08267090
-0.03213352
0.42290899
-0.34247279
0.12574114
-0.27953076
0.23222086
-0.20064901
0.24621010
-0.29060143
0.14288284
0.27829644
-0.17291147
0.14112665
0.28766859
0.13785665
-0.10371962
0.24838462
-0.34381458
0.02906364
0.36165500
0.34959832
0.23510323
-0.25556278
-0.02887558
-0.41699407
0.00147775
-0.02514414
-0.00450178
0.20115198
0.37065685
0.11838591
0.06661550
-0.18269654
0.00253322
-0.07512312
-0.13598129
0.07288917
0.06280885
-0.05738104
0.15937655
0.17857011
-0.08487564
0.15060927
0.32518142
0.25562847
-0.22513960
-0.04839614
0.18396468
0.29403672
0.11309445
-0.08203899
0.00103563
0.05562630
-0.09263048
-0.11868741
-0.13277775
-0.08697701
0.09129589
0.00313680
-0.13727866
-0.23565464
0.25400814
0.30543008
-0.13328871
0.02327137
-0.35417828
-0.11470477
0.03175597
-0.13423762
-0.06838601
-0.14205502
0.03857282
0.01973630
0.08157194
-0.12203598
-0.15149969
0.01063064
-0.02589664
0.09762729
0.13537349
-0.04501057
0.10154543
0.03986101
-0.18066625
-0.29235667
0.21283065
-0.32217681
-0.07710316
0.32034269
-0.46698660
-0.08754370
0.06678022
-0.34111670
-0.13221565
0.07684114
0.01157040
0.01896560
-0.31260151
0.10232122
0.20018901
-0.36091313
0.02114037
0.23461409
0.16004273
0.08299233
0.16437036
-0.06617153
0.13175312
0.16772443
-0.34698632
-0.07150631
0.13579291
0.18940070
-0.05293139
0.02232195
0.05263790
0.31064773
-0.16409853
0.05584057
-0.20134781
-0.42895538
0.06395831
0.00082476
-0.09277768
-0.16705777
-0.27852044
-0.02083302
0.08843970
0.03415309
0.35946918
-0.27757606
-0.41412127
0.21070632
-0.11936540
0.08173248
-0.25727358
-0.14745994
0.09851842
-0.00703937
0.09368782
0.06609286
-0.03272858
-0.00861196
0.00386580
0.13700174
-0.06013352
0.04319013
0.03351143
-0.21595426
-0.49730802
0.07608958
0.32550803
0.22652355
0.30133367
-0.07615587
-0.08150087
0.37906095
0.05907634
0.00092390
0.00082116
0.24303064
0.03443440
-0.05007791
-0.05243640
-0.01934941
-0.18422946
0.12422067
-0.13297386
-0.17423782
-0.23280142
0.29278889
0.04525679
0.14420889
0.14526559
0.09683280
-0.28385618
-0.36890608
0.12159071
0.15208249
0.09871700
-0.21138467
0.22396922
-0.09261906
-0.01633912
-0.23465396
0.12724783
0.12055311
-0.00333978
0.01632358
0.20867549
-0.02754786
-0.44870612
0.07477521
0.06664261
0.21227863
0.12704268
0.10188282
0.10543210
0.07017017
-0.15362896
0.46123916
-0.09285041
-0.17369817
0.02013111
-0.54333955
0.10236130
-0.07732120
0.27987191
-0.46558154
0.04428292
-0.27893516
-0.09685421
-0.08997140
-0.03916255
-0.17362109
0.26079383
0.01433101
-0.01850053
-0.16213681
-0.01463265
0.25030348
0.17981283
0.07212482
0.16686489
0.01969864
-0.23118661
0.08884563
0.38961598
-0.24070284
0.18302168
0.07853831
0.21398073
-0.10516753
-0.06022811
0.00105070
-0.47470859
0.07186458
0.24110974
-0.07131023
-0.06060702
-0.05713372
0.03929320
0.00405457
-0.08558813
-0.24219231
-0.00718485
0.16966058
0.17910680
0.06265721
-0.09824727
0.18048759
0.43207341
0.12065264
-0.10208001
-0.14307450
0.19201529
0.08736837
0.05194413
0.17935111
-0.01788487
0.08716979
0.14502548
0.12937988
0.07674301
-0.00192643
0.05357962
0.02631004
0.12758754
0.04465304
0.15979160
-0.03545175
-0.03318939
-0.05495193
0.14190032
-0.04903177
0.25157535
0.20996553
0.20842221
0.11866792
0.31785244
0.39748856
-0.24261262
0.00012181
-0.05353303
0.18431252
0.18474759
0.19071124
0.44409120
0.02680666
-0.00230469
0.22350071
-0.04920849
-0.37570500
-0.02196119
0.11106186
-0.03282687
0.16065800
-0.01435969
0.12396087
0.09845342
0.10776775
-0.17063548
-0.14177707
0.27574179
-0.11427440
0.07698622
0.10676774
-0.05895466
0.16574210
-0.33982891
-0.03830852
0.15104398
0.12996268
0.30783543
-0.11327913
0.11605096
-0.05202720
0.14180025
0.03768679
-0.15380526
0.24216487
0.33150020
0.09180851
-0.34908527
-0.09603630
-0.05221928
-0.01542361
-0.19777247
0.10070322
0.05096796
-0.27628809
0.37246206
0.23598000
-0.10321543
-0.06994331
0.16621181
-0.06259800
0.02802650
-0.15541726
0.17860673
0.10119423
-0.18281303
0.00308359
0.08439936
0.23465087
0.14785337
0.18464512
0.38399485
0.16556056
0.26674235
0.24279021
-0.05502089
-0.03816260
0.03902618
-0.03129505
0.12401921
0.06496013
-0.27749419
-0.01909664
0.03528550
-0.31864631
-0.08309908
0.03037115
0.22394565
-0.27063525
0.03718360
0.03203941
0.11348278
-0.07368889
0.24650235
0.28394532
0.04034583
-0.00501155
0.28640607
-0.10766868
-0.09945015
-0.08005536
0.27296215
0.13838083
-0.21161705
0.19702068
0.31819358
0.18442471
-0.14503624
-0.02706040
-0.07336406
0.43472189
0.15460669
-0.04025848
0.12468662
0.21487406
0.11973108
-0.00760781
0.04989256
0.19399570
-0.01024919
-0.20996590
0.06025247
-0.38768545
-0.08319248
-0.22267503
-0.02128575
-0.19194083
0.11090105
-0.01602499
0.02978113
0.23672836
0.40036687
0.00556140
-0.16404432
-0.34754696
-0.09631608
0.03106622
0.03632262
-0.17107242
-0.35108623
0.06593484
0.32347691
-0.02050449
0.08993674
0.15334344
0.17683391
-0.01022799
0.16132881
0.18811460
0.06273477
-0.09169334
-0.03444397
-0.17745219
0.48426086
0.10839520
-0.10681036
0.08261082
-0.04220525
-0.03970986
0.03853588
-0.12184437
-0.09464782
0.15904096
-0.10050356
-0.16302167
0.17266560
-0.34761679
0.33980432
-0.13380057
0.24751338
0.16596252
0.23137148
0.27574089
0.03172234
0.29596710
-0.03296179
0.33109525
0.17944606
0.11414280
0.07952453
0.08573311
0.29328972
0.24139819
0.08074945
-0.00435898
0.02109726
-0.23048735
0.10601634
0.06708771
-0.04856062
-0.15315749
0.01528166
-0.14591767
0.07651250
-0.16105451
0.12630947
0.25116336
-0.42112437
-0.22976883
-0.09815246
0.06183155
0.19772771
0.21149532
0.22550286
0.17720598
0.13473682
0.10556985
-0.03740554
-0.34674394
-0.20508386
0.08043537
-0.14273119
0.14891739
-0.15533587
-0.01027802
0.22962050
0.04821468
-0.41636711
-0.08622714
0.03846882
-0.15504660
0.03109461
0.04493361
-0.05777051
0.45313922
-0.25683630
-0.11087800
-0.06406741
-0.15895247
-0.06820884
0.00957153
0.13391863
0.09487770
-0.19971059
-0.17319700
0.06210183
0.14525209
0.34993055
-0.23582432
-0.19557460
0.30169863
0.11557323
0.00974570
-0.27878457
0.20905797
0.10635710
-0.09469443
0.12947889
0.15482043
-0.02502614
-0.13396035
-0.03958920
0.13475916
0.24652490
-0.01966986
-0.00664474
0.04934738
-0.16962111
0.03188211
0.30275446
-0.02252674
0.23190069
-0.23426703
0.16376239
-0.12271423
0.24892122
-0.08714253
-0.41210315
-0.13304622
0.00007010
-0.21378063
0.02560554
-0.08051369
-0.05154333
-0.07923868
0.05265883
0.00402625
-0.16344267
0.25632241
0.03146229
-0.19920562
0.00372198
0.00651818
-0.02039949
-0.16270368
-0.10944893
0.20813332
-0.15494375
-0.12727469
0.13090539
-0.13621187
-0.14106788
-0.17265040
0.27777204
-0.21781623
-0.00437392
0.18862237
0.45065081
-0.11104601
-0.24958074
0.01905746
0.04562640
0.14639133
0.17453445
0.31679922
-0.09536847
0.15884316
-0.06637069
-0.03312287
0.04338818
-0.08883516
0.15283549
-0.34337997
0.15837406
-0.08071034
-0.10984476
-0.05883973
0.05549350
0.00899686
0.08856998
0.06711615
-0.16661093
0.08584072
0.31177893
-0.16131231
-0.06398962
-0.16690059
0.15769339
-0.02304819
0.05066400
0.01619493
-0.21771169
0.11719727
0.12371708
0.03492025
0.23565212
0.10943089
-0.04550795
-0.00902236
0.05727413
-0.13982582
0.21854456
-0.01848298
-0.05693363
-0.20153174
0.33535391
-0.32785118
0.18918067
0.07286108
-0.25342813
-0.16706203
-0.16033269
-0.23957944
0.01466272
0.49580470
0.32174447
0.01893392
-0.34506297
0.00173123
0.20542830
-0.22539802
0.31528109
-0.10041457
-0.07102467
0.02723534
0.13826790
0.26994258
0.19028868
0.27761504
0.04295600
-0.05318329
-0.27366713
0.08561113
0.01077002
0.02028962
0.17961900
0.43312430
-0.15549646
-0.25950560
0.16948432
0.35318267
0.10189635
0.18294720
-0.13464646
-0.11985525
0.15140480
0.36916390
-0.13701792
-0.05957424
0.20055588
-0.24063227
-0.25066015
0.11424413
0.19290796
0.02928878
-0.28561547
0.15346514
0.09553692
-0.08262950
0.16786529
0.15302894
0.29915237
0.11863386
0.13897257
0.35281458
-0.04808018
0.24560200
-0.16905487
0.07755274
0.18875973
-0.08867463
0.07777370
-0.23472095
0.05525505
-0.31914440
0.11591251
-0.02264481
-0.17504147
0.13010359
-0.17372514
-0.05905667
0.49009955
-0.07742530
0.13376576
-0.11582168
0.12269177
-0.15226056
0.04629543
-0.08502843
0.05996877
0.20684576
-0.41172862
0.04308905
-0.06449089
0.53469330
0.41418940
0.20497893
-0.06226016
0.06604140
-0.20719247
0.04507494
-0.31836727
-0.18816754
-0.01933311
-0.15286335
0.16407102
-0.03559821
-0.21869168
0.12530291
0.12130608
-0.26506606
0.10326494
0.04974459
0.32032365
-0.02687230
0.00625249
0.14218600
0.18517078
-0.07090340
0.00753797
0.48431483
-0.02031427
0.41057414
0.23813030
0.02716986
-0.03107421
0.01198568
-0.36163694
-0.12852055
0.30250758
-0.04576268
-0.13556737
0.10858040
-0.05339279
-0.20890006
0.00758632
0.03407650
0.09159660
0.23253123
-0.03290409
-0.09070733
-0.27503592
-0.04531625
0.41186303
0.25511906
-0.16839761
-0.05691205
-0.35274845
-0.02633086
-0.08602381
0.05224384
-0.18605590
0.04101412
-0.41858670
0.27225822
-0.29869196
-0.06551012
0.26894408
-0.17678215
0.23616204
-0.00527207
0.17938185
-0.13303855
0.05582258
0.08561155
0.03472235
-0.29335016
-0.21850710
0.13985305
-0.03686857
-0.23107049
0.10448752
-0.23913755
-0.09346128
0.12832831
0.13480984
0.22808839
0.09578307
0.08901674
-0.24797137
0.09451639
-0.03599897
-0.26904544
0.06617315
0.16530353
0.08482984
0.02475541
0.01290556
-0.07745913
0.00816521
-0.18996744
-0.11574043
0.33651298
-0.05158196
-0.23647889
-0.07884925
0.08513258
0.24232911
-0.06022867
-0.06894973
0.27821717
0.14845788
0.12920471
0.11807761
-0.22015429
0.27127790
-0.25279239
0.02870394
-0.14751893
0.48008481
0.23412773
-0.05574246
0.33164304
-0.09914766
0.00795660
-0.04015952
0.14384341
0.09736438
-0.05888961
-0.18484031
0.07005031
0.14080539
-0.10564945
0.03060053
0.31734303
0.32734892
0.29396358
-0.12751809
-0.01312455
0.05511523
-0.06790842
0.14033066
0.22191085
-0.11370213
-0.06674720
0.16038238
0.06834418
0.25544053
0.25061503
-0.02237931
0.01307640
-0.02389098
0.16881859
0.10412980
0.05968595
0.03303993
0.00032534
-0.10985934
-0.31718013
0.08978757
0.02688818
0.00857198
-0.23954821
0.00732311
0.09355771
-0.20644304
0.10644769
-0.31006810
0.03017132
-0.03539477
0.11585042
-0.11445004
-0.19350450
-0.26796117
-0.22538427
-0.23660414
-0.15594278
-0.02312987
0.13647248
-0.09453367
-0.07311693
0.11390064
-0.01598351
0.43798196
-0.44390050
-0.08240999
-0.31036600
0.13778087
0.16331679
0.04057584
-0.43243727
0.17746575
0.30538699
-0.18638928
0.01932360
-0.02092313
-0.03248419
0.04664538
-0.22929379
-0.30665925
-0.29257512
0.26390517
-0.09854001
-0.35240391
0.19059895
0.00865089
-0.35340822
-0.20942537
-0.29075164
-0.12800696
0.03455442
-0.23953737
-0.18548860
-0.04355776
-0.06805566
0.10478225
0.28446168
-0.07176168
0.17320701
-0.14163424
0.28249934
0.39729425
0.23709400
0.02619921
0.27649930
-0.13923661
-0.24581775
-0.35048509
-0.04768339
-0.15284069
-0.49919212
-0.23380956
0.05732816
0.17281038
-0.14451285
-0.40003040
-0.02043995
-0.24593200
-0.12921450
-0.02498272
0.14626639
0.01837964
-0.10362772
0.10504583
0.06561061
0.21939401
-0.02088164
0.13621287
0.04875613
-0.35664871
-0.39596507
-0.15092903
0.08847729
-0.18396287
0.23351750
-0.01640148
-0.05718547
-0.19709843
-0.17884274
0.01317623
0.00123447
-0.07249365
-0.05300290
-0.29160982
0.15958175
0.01938227
-0.18872516
-0.26028866
-0.47308797
0.11638629
-0.08594152
0.06554121
0.00288527
-0.15789317
-0.12929969
-0.24449903
0.22943051
0.04593780
0.36432931
-0.38226533
-0.13146576
-0.12953697
0.05807067
-0.14801514
-0.00687852
0.06217280
0.01411004
0.07451901
0.09711052
0.13382339
-0.03337739
0.17928687
-0.28332898
-0.34674832
0.25987974
0.24063990
-0.46534556
-0.20379741
-0.12469414
0.07830371
-0.11885550
-0.52132219
-0.07657412
0.14511555
0.11408920
0.26499665
-0.01603229
0.02148693
-0.51389003
-0.22713114
-0.44797575
0.52868903
-0.35274202
-0.11626524
-0.11474235
0.03224149
-0.21179484
0.37498283
0.04890437
-0.09512509
-0.15694165
-0.21145278
0.03477319
0.20043233
-0.16387826
-0.06127596
-0.46394068
-0.00860295
-0.06016307
-0.14307189
-0.41275278
0.17685506
-0.39025965
-0.10219758
-0.09235608
-0.14205892
-0.21058232
0.18449688
0.09251356
-0.35765767
-0.23247269
-0.15091242
-0.33972305
0.05233086
-0.10598442
0.08727974
0.29032296
-0.07723454
0.08718824
-0.21390411
0.15966742
0.13645129
0.29962209
0.16214384
0.26309168
0.03088506
-0.01897718
-0.15157379
-0.13486265
-0.13793977
-0.00501322
-0.00290194
-0.21263388
-0.01217411
0.02782045
-0.07581563
-0.13758704
0.18504822
-0.15335129
-0.05100520
0.15200953
0.03578152
0.15945134
-0.09703290
0.31814846
-0.26209959
-0.01587197
0.03055966
0.37523520
0.00329187
0.05658174
0.11769786
0.18825188
0.15926893
-0.19779529
0.23726971
0.04666394
0.33856508
-0.08445337
0.02642989
-0.01653871
0.16731696
-0.05502333
-0.14285451
0.07667281
0.09983966
0.02409600
0.16302070
0.06095297
0.21356668
-0.01899488
0.04888657
0.04104328
0.12909034
0.04664765
0.07929560
-0.29030868
-0.17769291
-0.26968265
-0.25329888
-0.26796466
0.15664251
0.00027425
-0.03119854
-0.26103872
0.06601448
-0.20552066
0.21519253
-0.00032176
0.22884007
-0.10405267
0.06255757
0.12443453
0.13033232
0.07319023
0.14734374
0.03348991
-0.04988344
-0.03422000
0.18667282
0.06382606
-0.19987907
-0.02538540
-0.21644329
0.10137518
-0.08563326
0.23604594
-0.06807571
-0.08563986
-0.20387065
-0.16864005
0.08289868
0.10730372
0.04985354
0.04502896
0.30646679
-0.17772308
0.18014179
-0.18195716
0.07298902
0.18033174
-0.24111591
0.16048566
-0.01124672
-0.08082363
0.37197229
0.09378923
0.30335116
0.19397430
0.21782891
0.26473391
0.00193503
0.12020687
-0.15151900
0.29962677
0.32179540
0.30216849
0.24732564
0.18273556
-0.15913936
-0.25814599
0.05995192
0.05737747
0.25640377
-0.13780999
-0.05593457
0.35011539
-0.18711448
0.11658688
0.41411057
-0.00058183
-0.18875563
0.43109831
-0.22258912
0.03710492
0.13707301
0.01783623
-0.15471531
-0.01624747
0.08534493
-0.02865552
-0.28103009
-0.21898349
0.18272468
0.25514248
-0.22037435
-0.24833442
-0.17194442
0.21793474
-0.10711077
0.14878480
0.04071216
0.24314590
-0.22496533
0.09993035
-0.08734263
-0.30991480
-0.02860644
0.12296969
-0.10699591
-0.19601999
-0.06132045
0.01565346
0.16773434
0.08133488
0.00712731
0.23056793
-0.18490812
-0.08528325
-0.10057481
-0.12139373
0.07287031
-0.13755749
-0.19204082
-0.02505331
-0.08040548
0.06910460
-0.08825553
-0.16544309
-0.24301113
-0.35890859
-0.20404036
-0.39310735
0.02118492
-0.11764910
0.07619496
-0.12314065
0.09927054
-0.09879630
0.13114741
0.22115906
-0.03864732
0.03024058
0.28032830
0.28749046
-0.08791163
-0.08283364
0.18104535
0.01442543
0.22737922
0.02855879
-0.03700562
-0.34000051
0.03012009
0.33004877
-0.08982910
-0.01555241
0.02487250
-0.21749769
-0.00280164
0.01704539
0.05487207
0.27566597
0.26032460
-0.02411272
-0.07411104
-0.33889025
-0.23506816
0.08008923
0.01905541
-0.22773840
-0.36300275
-0.23780356
-0.13880812
-0.07964311
0.32205206
-0.05586918
-0.12326919
0.32062900
0.45100743
-0.07363535
-0.09325376
0.20939690
0.30202121
-0.19034946
0.41646209
0.15580240
0.07108506
0.07724446
0.03802863
0.11237563
0.14674716
0.15722258
-0.03333489
-0.12428910
-0.10212474
0.43962556
0.01410043
-0.00482155
0.29275700
-0.13676350
-0.08285998
0.08504038
-0.20631036
-0.00411172
-0.08674662
0.16785994
0.02901562
-0.24277459
-0.25504592
-0.00906984
-0.16247591
0.24584170
0.27809399
0.15563323
0.10779659
0.16361172
-0.07918181
0.33263358
0.00973707
0.27916905
-0.15897088
-0.28704938
-0.17083415
0.09887614
-0.05072739
0.02946314
0.05369296
-0.21942148
0.12191256
-0.16586845
0.25625381
-0.06090849
-0.16794915
-0.14835069
0.33622772
-0.23282011
-0.04596156
0.39384815
-0.19118346
0.16033001
-0.07718851
0.45342717
-0.16486990
0.45806640
0.06480785
0.27719995
-0.24405105
-0.29231238
-0.00357591
-0.17846625
0.12090516
0.08385663
0.10270798
-0.02010307
-0.09416814
0.01409281
-0.18673079
-0.23154810
-0.12024885
0.11958405
0.24542597
0.31508645
-0.16272435
0.35908133
-0.19776919
-0.13501875
-0.17355894
0.00820114
0.04689129
0.18060061
0.01339858
-0.10396435
0.32184756
-0.34255680
-0.20344386
0.15234056
0.05390799
-0.06522563
0.13538252
0.08605716
-0.05013204
-0.29112291
0.17170916
-0.04297952
0.18844350
-0.19424595
0.02385826
-0.09105496
-0.05844675
-0.11662207
0.09084085
0.28058079
0.11317483
0.29438928
0.19423875
-0.23448864
0.09965250
0.03511004
-0.12021092
-0.29464164
0.10117637
-0.27939752
0.01174505
0.10000304
0.10066234
0.21087642
0.03426261
0.01087607
-0.10743958
-0.15523003
-0.07688027
-0.03244219
0.00672010
0.14165159
0.08884172
-0.17422324
0.20511395
0.01244770
0.14572640
-0.07501143
-0.13408928
-0.19590412
-0.03725290
0.20371924
0.02465356
-0.20665477
0.05523656
0.01959874
0.09377481
0.00031960
-0.00746934
-0.00767230
-0.02726777
0.18682805
-0.02294374
-0.02482715
-0.29184121
-0.00075882
-0.13112386
-0.16786784
0.28819683
-0.35818163
-0.12372134
0.04581000
0.17703842
-0.23582971
-0.07492764
0.06193428
-0.05496240
0.09593731
0.18872780
-0.17088817
0.06019600
0.07249811
-0.10494518
-0.03883540
0.28661641
0.27155101
-0.21145399
0.14894345
-0.01009717
0.10361996
-0.11492006
-0.04091581
0.15098989
-0.02169065
-0.02956897
0.13135125
0.47360924
-0.11363596
0.01922791
-0.10995861
-0.01095288
-0.04295259
0.32342345
0.00919570
0.25629529
-0.21604033
0.09151711
-0.32424808
0.12419747
0.19748360
0.11965192
-0.03008281
-0.28303227
-0.17028008
0.14244176
0.01843805
0.12527929
-0.03033439
0.01285682
-0.24758910
-0.21488030
-0.08875088
-0.03454671
0.09826658
-0.30561134
0.07173058
-0.05060256
-0.01095750
-0.14602059
-0.38397804
0.14831503
0.07692781
0.33727321
0.21833925
0.30817303
-0.11940478
-0.30654392
0.04877304
0.11451484
0.12522289
0.13879199
0.20522031
-0.05225792
0.07893875
0.07936968
0.02227065
-0.26609355
-0.05378547
-0.07649773
-0.10667177
-0.12811223
-0.16859156
0.06516324
0.18232812
-0.01014060
0.09010927
0.17641869
-0.17099839
-0.12853651
-0.40092111
0.00440037
-0.09930674
0.00913921
-0.01815978
0.05903220
-0.09874485
0.21717548
0.32573506
-0.25403425
0.38872209
0.09497738
0.27792057
0.29607189
0.18102795
0.04577731
0.03031069
0.19474022
0.00987678
0.24246348
0.01494187
-0.04240663
-0.35965043
0.12675604
0.14793822
0.02259865
0.00850235
-0.23013748
0.00466485
-0.35263506
-0.19569574
0.08119860
-0.32969308
-0.00913365
0.24583492
0.09633144
0.26088181
0.11998215
0.03036511
-0.30816680
0.21577117
0.04984700
-0.05647691
-0.39390725
-0.02195619
0.26493263
0.14610125
-0.28565991
-0.04151303
0.19714087
0.20000447
0.11459766
-0.08079219
-0.03514284
0.20203607
0.03851853
0.21378919
-0.33649176
-0.28230512
0.24839117
0.22998838
-0.18702196
-0.08239614
-0.04538527
-0.11591832
0.08105262
-0.04787536
0.04403482
0.03258357
0.08991030
0.04848000
-0.16151887
0.12197144
-0.26581591
0.10285044
-0.26927441
0.26351240
-0.11705162
-0.13931528
0.02876642
0.07577649
0.07185914
-0.24045755
-0.08084110
0.07281503
0.06971964
0.12795117
-0.33362401
-0.41334298
-0.41117594
0.32252529
0.07666736
0.16993158
0.05800739
0.20989491
-0.07721490
-0.01962426
0.10665729
-0.29572958
0.21159947
-0.10207026
0.04741344
-0.09078937
-0.02428314
-0.05068015
-0.23158608
-0.24478969
-0.41215289
-0.18911611
0.04273631
-0.06939781
-0.00392975
-0.41425821
-0.24117745
0.11726317
-0.06447068
-0.04013234
0.14982635
-0.05249061
-0.03276641
0.02848362
0.18868266
-0.03036881
-0.15867080
-0.28363064
0.09405173
-0.15134376
0.20687552
0.25157565
-0.36850107
-0.15863694
-0.02741322
0.34086740
0.14091247
0.23888500
-0.05792664
0.03998043
-0.27016523
0.11385832
-0.14387591
-0.28280398
-0.03936382
-0.02418727
0.00522435
-0.10030580
-0.00149649
0.07341632
0.32671356
-0.16299631
0.05333401
-0.07193092
0.34773672
-0.21824262
0.03010215
-0.07859297
0.09942900
-0.20559256
-0.07793194
-0.03101430
-0.29496321
0.01927988
0.31160083
-0.16824259
0.09328818
-0.04700543
-0.03309495
-0.19562846
0.14921878
-0.07883153
-0.23682138
0.09244139
-0.04825484
0.01808416
0.00302317
0.17348863
0.02706797
-0.07027639
-0.18108673
-0.03592791
-0.33988038
-0.18820478
0.01292790
-0.26641846
0.11258988
-0.18992175
-0.22357102
0.01124636
0.01931672
0.03768880
0.04171035
-0.00751032
-0.00720754
0.30498809
0.09681760
-0.11768543
0.44423118
0.10514370
-0.09763195
-0.36607710
0.19181752
-0.00695968
-0.15781605
0.11077431
0.10618207
-0.17245449
-0.32361621
-0.20048185
-0.24132369
-0.02881934
0.00897971
-0.21736600
0.01698742
-0.08662376
-0.15282406
-0.14699605
0.25126883
-0.00430042
0.25501290
-0.21835187
-0.20674311
-0.27455670
-0.49560538
0.02869750
0.24651489
0.02069736
0.10795333
0.05504045
0.14127351
0.06458832
-0.05802916
-0.10572734
-0.06130571
-0.07313851
-0.24765442
-0.28123125
0.50815523
-0.21181996
0.10143351
0.12470122
-0.25942945
0.13579656
-0.06272092
-0.12688994
-0.20098256
0.27701205
0.25049686
-0.09051286
-0.29469430
-0.02342402
0.40551463
-0.14759326
0.03685221
0.16010934
-0.04526801
-0.19562039
0.13196918
-0.00141385
0.20692559
0.08138376
0.25709325
0.00930327
-0.14847361
0.28444186
0.34543240
0.01010934
-0.10867842
0.13705300
-0.12063497
-0.07835492
0.16757242
0.29642338
0.02844558
0.10721469
0.29722968
0.43921232
0.24760869
-0.13612072
0.23450957
0.04842806
0.05956139
-0.00539107
0.30586264
0.09502430
-0.28081128
0.00612827
-0.35901746
-0.03034964
-0.08985043
0.14019568
0.32264528
-0.14142314
0.04194567
0.29139036
-0.29535347
-0.00827786
-0.22912812
0.16002387
-0.03093468
-0.25090241
-0.02028741
-0.25848490
-0.01251418
-0.09669203
-0.01801737
0.33018860
-0.00131796
-0.23935984
0.01696509
0.13612659
-0.10193325
0.33623019
0.28555286
-0.03125541
0.10209933
-0.09184201
0.22170813
0.11369290
0.05653935
-0.10200274
-0.14592630
-0.18361215
-0.17341265
0.35999927
-0.31350571
-0.24460964
-0.38587663
-0.25900233
-0.16586404
-0.14588906
0.17242414
-0.12670082
-0.42962083
0.44678509
0.08304687
-0.08502383
-0.10056090
-0.40257338
-0.06191494
-0.20639066
-0.05787662
0.01209462
-0.04175464
0.22243153
-0.25814068
0.00522960
0.18281692
0.04202982
0.22337672
0.20205614
0.43667525
0.35701808
-0.05673486
-0.01299265
-0.21778093
0.13923089
-0.07609539
-0.05588878
-0.39602596
0.14844537
0.13175336
0.25861204
0.15133776
-0.03029415
-0.13776734
-0.24089809
0.10200308
0.09808423
0.17955880
0.06189124
0.22696838
-0.28937301
0.33615461
-0.10612997
-0.17174567
0.13940914
-0.01533571
0.07796862
0.03484218
-0.26743543
-0.31295437
0.15334581
0.15859155
-0.32421654
0.01735893
-0.05352367
0.05468354
0.00967558
-0.38758522
0.17769484
-0.10551979
0.40767562
-0.07988207
0.05405200
0.53515720
-0.19367263
0.12238705
-0.13108847
0.15896860
-0.16653395
-0.04477442
0.48185596
-0.01809654
0.04381261
0.05225462
0.05115390
-0.15816563
0.13025196
-0.34782302
-0.12651867
-0.19275212
-0.05539550
-0.05407143
0.29109749
0.09511231
0.12417547
0.30852598
0.08940452
-0.25576922
0.15119337
0.14818941
0.10470156
0.19569758
0.14313534
-0.01026270
-0.07380130
0.01898071
0.02205821
-0.15524757
-0.04930591
-0.09884830
-0.22185498
0.16351640
-0.07761458
0.17205337
0.32316306
-0.30730590
-0.81807798
-0.24559847
-0.24282622
0.11412970
-0.06455966
-0.53500640
-0.17564517
-0.03556187
0.20530134
0.06570564
0.27687261
-0.29774529
-0.29348662
-0.38433981
-0.11210078
0.07621114
0.18719999
0.05747296
-0.31984973
-0.20746261
-0.02653561
0.24616869
-0.40132415
0.16117434
-0.10916758
-0.11253944
-0.17191142
0.12000233
0.13903451
0.17772932
-0.13947786
-0.06879953
0.10859598
0.16193299
0.07618396
0.21758936
-0.05397678
-0.24072927
0.48341143
0.52936196
0.20498869
-0.14955969
0.19868551
0.12834814
0.02749851
0.06610773
-0.12190302
0.39835882
-0.08439339
0.08734114
0.10592125
-0.02008401
-0.16178435
-0.12243892
0.11907743
0.01671764
-0.07810423
-0.07013986
-0.21690737
-0.05529393
-0.28125742
-0.23674656
0.26542613
-0.15954055
-0.03770391
-0.04511128
-0.11018033
0.25002500
-0.13571209
0.01648214
0.11676366
0.17421150
-0.22429566
-0.05245444
-0.31621495
0.23767348
0.39158431
-0.43157658
-0.06302888
0.00556377
0.48191369
0.08941776
0.18885083
0.10521397
-0.01147998
0.02572846
0.24404825
-0.12987438
-0.23106377
0.17656113
-0.21664619
0.15806341
0.04568068
-0.24824515
0.25414622
0.12738895
-0.22830352
-0.03426975
0.07224911
0.31389269
0.16633596
-0.22689830
-0.02566928
-0.02640941
0.01636171
-0.00822827
-0.01119496
-0.04250340
0.01068004
0.15743567
-0.34622517
0.04622027
0.07037660
0.23782751
-0.08614752
0.03840080
-0.12677620
0.04533507
0.21195604
-0.14744134
-0.05710114
0.10312402
0.13270889
0.06195871
-0.19735485
-0.21054384
0.04580660
-0.32110462
-0.15800877
0.22902656
0.05914919
0.20349877
-0.28031173
-0.19006878
-0.06241802
0.23142970
-0.11613371
-0.15536115
0.33162746
-0.12255389
0.31693062
-0.17459035
-0.06040728
0.14154704
-0.02356003
0.17596062
0.03387488
0.16909949
0.02262056
-0.11479422
0.09926042
0.09544899
-0.09930932
-0.04612876
0.13291982
-0.11054807
-0.31268042
-0.06557160
0.03920803
-0.34773961
0.24327585
0.20576379
0.01838189
0.38500205
-0.09103252
0.17912090
-0.17687637
0.06402397
-0.09883115
-0.04722233
0.04193350
0.25032124
-0.12769619
0.37475783
-0.13942315
-0.00517251
-0.15177509
-0.22375333
0.26521146
0.36301300
-0.19028179
-0.02912528
-0.33626491
0.24045239
-0.29166302
-0.15170147
0.25680998
0.17119393
0.29067311
-0.10466868
-0.34490845
0.02650622
0.12961955
0.31096110
-0.07370980
0.22050086
-0.03198915
0.27273405
-0.21060354
-0.10950116
-0.07259717
0.15726748
-0.08803986
0.31801370
-0.18616188
0.06444430
0.16325817
0.04282121
-0.27926314
-0.26514328
0.17769913
-0.00635947
0.17806835
0.07725653
-0.03809187
0.02111422
-0.16002394
0.07262890
0.24649093
-0.12050861
0.01126690
0.08940217
-0.18754606
-0.54820734
0.09755262
0.23375429
-0.21193582
0.09471842
-0.10018242
-0.22459841
0.24828081
0.38838008
-0.16973919
0.19127786
0.12838456
0.42166296
0.14725298
-0.22605762
0.21528298
-0.11660913
-0.17001772
-0.05437895
0.00700856
-0.19449066
-0.10434398
0.10312542
-0.15155086
0.04621869
0.15703376
-0.17759492
0.04229051
0.00443731
-0.06031564
0.04876716
-0.10281447
0.16927636
0.39384788
-0.05685844
-0.03122741
0.04294663
-0.10637255
0.04658635
0.19871718
0.06804597
-0.03967354
0.07970642
0.04198674
-0.17978835
0.24977432
0.27834386
-0.22446939
0.49812937
0.17359914
0.15926294
0.24613744
0.18003152
0.06618292
-0.51027673
-0.11600134
0.21776053
-0.46137416
-0.22884926
-0.10712111
-0.10395472
0.29223582
-0.17976363
0.37534407
0.24554512
-0.03111307
-0.21876486
-0.20843315
0.18325345
-0.24405798
0.06868318
-0.31563693
0.02723480
-0.10125656
-0.34002376
-0.36823022
-0.14938965
-0.05899712
0.51236820
-0.14881195
0.22979504
0.11695518
0.10560701
0.00024625
0.03346830
-0.40071261
0.03924307
-0.02731162
-0.17953907
-0.19628204
0.03588015
0.02313645
0.01421712
0.09930187
-0.14450301
0.16170844
-0.11112044
-0.10588432
-0.07205965
0.01821973
-0.03970502
-0.10606286
-0.04470224
0.13046569
0.27618140
0.17615259
0.17538427
0.04919465
0.25755131
0.01576180
0.42673010
-0.03378354
0.07582773
0.09702868
0.28805467
-0.34968710
0.24965511
0.12119641
-0.23718266
0.22717619
0.20823884
0.08248819
-0.18844019
0.02870749
-0.22911394
-0.19997799
0.09050284
-0.04559625
-0.02367174
-0.15688610
-0.05171730
-0.18823363
0.21678822
-0.18092555
0.21735094
-0.18416090
-0.05274199
-0.00600554
-0.26935649
-0.25340530
0.04657792
0.00510765
0.22772564
0.33270973
-0.17093410
0.02095982
0.07432005
-0.01972902
0.28440782
-0.29846710
0.26577386
-0.02078744
0.05953559
-0.10047508
0.15953125
0.08321762
-0.12742837
-0.08807576
-0.37664750
-0.12193082
-0.06197802
0.62446672
0.41371039
-0.00225308
-0.34233218
0.13662636
-0.00148019
-0.26404381
0.13961610
0.09842562
-0.14738582
0.00149109
0.08993165
0.00611670
0.27145022
-0.14718956
0.04560921
-0.21351460
-0.18131028
0.30799240
0.00202391
-0.10319538
-0.09241524
0.36075813
-0.18203153
-0.02952133
0.12955153
0.23387510
0.01073740
-0.03297305
0.26754770
0.05126113
0.15647593
-0.20183671
0.00957273
0.05922385
-0.13001607
-0.09022539
0.34146461
0.30618247
-0.18723467
0.29727894
-0.45898452
0.06569143
-0.11465209
0.14729558
0.40221474
0.04930979
0.26486525
0.39117429
-0.14704855
0.17669217
0.09496318
-0.04430975
-0.14338471
0.03200198
-0.04070414
-0.10942627
0.28212118
-0.11143190
-0.13491587
0.20155509
-0.11434755
0.24607700
0.13230662
0.17353410
-0.18439560
0.09466695
0.30568165
-0.05009269
-0.22343463
-0.17441802
0.31913674
0.12772956
0.01511955
0.09664613
0.20637065
-0.25704417
-0.59938568
0.43717724
-0.02395833
0.20223546
-0.14173546
-0.11177850
-0.10748371
0.23155226
-0.33741912
0.12320635
-0.33531681
0.22063167
0.12606375
-0.09170321
0.04120857
-0.25246736
0.05222964
-0.03257973
-0.12637040
-0.41943195
-0.03273288
-0.13578500
-0.13737501
0.01994730
-0.21969348
0.33076152
0.08263114
-0.07979690
0.19829495
0.39369217
0.13067617
0.02513832
-0.00011553
0.09412680
-0.04544311
0.09629879
-0.55101299
-0.01241194
0.14344391
0.14092851
-0.03247710
0.24437052
0.12358327
-0.03080324
0.07493529
-0.03516299
0.16897817
0.01397715
-0.12833592
-0.36955914
0.07813033
0.25350577
0.25529787
0.25834176
-0.19312917
0.17326079
0.01303121
0.01809660
-0.42992768
0.18633197
-0.14542750
0.05177307
0.08250998
0.07482298
-0.52334392
-0.03337630
0.13846932
-0.02688241
-0.07941865
0.33654502
-0.23971730
-0.10351613
0.22960921
-0.28600973
0.11183199
-0.18281621
-0.09767114
-0.15518378
-0.20186481
0.21605043
-0.06295457
0.15845487
-0.07086956
-0.18647605
-0.13423823
0.33021984
-0.16472015
0.25389755
-0.03781068
0.17376964
0.19190267
0.30399105
0.52509898
0.13052677
-0.02578815
0.27325013
-0.18630370
-0.30611315
0.00974826
-0.15286648
0.00995848
-0.10561566
-0.15534475
0.12501736
-0.38030225
0.28020269
0.28376335
-0.14608978
-0.09049118
0.05088109
0.13728979
0.07255668
0.17097907
-0.02457087
0.13118736
-0.43283540
0.06495539
-0.18663184
0.12735891
-0.15038949
0.16292220
0.10972323
-0.26199248
-0.17749353
-0.05270095
0.22095311
-0.18601507
-0.16372891
-0.33161843
-0.00041952
0.12564264
-0.11610994
-0.18629774
0.07251479
0.18144661
0.12363888
0.08245382
-0.36214650
0.25606465
0.10886966
-0.12980574
0.07400545
0.04709302
-0.06050011
0.09714100
-0.17564891
-0.10815159
0.12544902
0.01639755
0.00049512
0.31177989
0.12787870
0.05449033
0.07447474
0.41255620
0.14535035
-0.00852103
0.06485275
0.40800518
-0.23598224
-0.24986425
0.02823478
0.31092653
-0.09485334
-0.08996496
0.09193756
-0.00966685
-0.09453568
-0.08125392
0.16568691
-0.04143421
0.06203942
-0.06829607
-0.29354301
-0.09240788
-0.17392965
-0.20200580
0.05838263
-0.10241838
0.03799842
-0.00133384
-0.34150881
-0.23366548
-0.04211959
-0.27772442
-0.23928711
-0.03121813
-0.27918270
0.14324912
-0.30760846
0.16454963
0.20612666
-0.13320702
0.22208713
0.19541703
0.35639521
-0.02534958
0.05998759
0.01056392
-0.15686837
0.28859356
0.04928847
-0.21167509
0.01487972
0.05539876
-0.08384942
-0.04465229
0.11526898
-0.01520752
0.07602766
0.05619886
-0.16960949
-0.06975567
-0.12370929
0.05192973
0.09555528
0.07075480
0.04569903
-0.14701162
-0.07537871
-0.02365590
0.04705079
0.10117099
-0.00650621
0.15308750
-0.02466252
0.02258793
0.15880802
-0.15722199
-0.21005610
-0.03580642
0.06763791
-0.08962237
-0.06247455
-0.21076794
0.20334961
0.10542815
-0.05342865
-0.15816008
-0.05605956
-0.20653339
-0.16341341
-0.16933562
-0.00072969
0.22528651
-0.00229627
0.19244488
-0.10623419
-0.04304691
-0.20343687
0.23620404
0.02573646
-0.20484240
0.41090831
0.08783852
-0.06711232
0.11013949
-0.03064296
0.32940432
-0.01274614
-0.09028924
-0.14695059
-0.05998391
-0.08961858
-0.09372250
-0.04054198
0.12975675
-0.12809297
-0.03400311
0.18094043
-0.23651122
-0.13043027
-0.18830082
-0.02075017
-0.27944869
0.07655313
0.34033415
0.01658623
0.04637062
0.08645604
-0.26285601
-0.18429676
-0.05450992
-0.11534489
0.04343837
-0.04466237
0.19021013
0.13308255
0.38760659
-0.24728410
-0.36426029
-0.12112995
-0.00277854
0.23578691
0.12111390
-0.05214194
0.08872963
-0.06791230
0.08033545
-0.05565496
-0.10804541
0.07960803
0.26783058
0.24150336
-0.07964420
-0.29389459
-0.03085268
-0.04763297
-0.05265905
-0.10316020
0.12643950
0.06884032
-0.04221609
0.11067364
0.06411110
0.16608723
-0.10263527
-0.12785387
0.02377541
-0.03438530
0.14417532
0.15615821
0.06640332
-0.34175211
-0.24108736
-0.15813634
-0.01071594
-0.05869836
0.06403867
0.06830555
0.16063604
-0.25341624
0.02463422
0.19242603
-0.01595624
-0.13911276
-0.04326874
-0.01105816
0.08221184
-0.45375970
-0.12505804
-0.12545198
-0.18934858
-0.06279682
0.23496605
-0.21879765
-0.23908554
0.15361990
-0.22668697
0.02365383
-0.01961031
0.39703107
0.06824838
-0.01821312
-0.09015669
0.12724355
-0.12532124
-0.11170244
0.25790566
-0.14051601
-0.05367332
-0.10652047
-0.12512319
0.02206635
0.19826967
-0.14988658
0.13045532
0.20474479
-0.17062396
0.10058978
0.13075958
0.10333114
-0.01931887
0.02053627
-0.39165470
0.12362073
-0.06771437
0.01293663
-0.10897495
0.07550804
0.16003984
0.24594878
0.14273317
-0.50047427
0.00140903
0.38686728
0.10677560
-0.30730832
-0.28906173
0.08298354
0.03566307
-0.12276588
0.31196934
-0.04135688
-0.05403698
0.20955405
0.02076685
0.29571748
0.22270988
-0.13571332
0.19666624
-0.27195251
-0.26839274
0.31019855
-0.02010307
-0.01653858
-0.00300610
-0.12021499
-0.20468462
0.03249226
0.04246528
-0.09123136
-0.18999857
0.15657228
-0.06936978
-0.31688982
-0.17085178
0.17743875
-0.00945718
0.22234865
0.07304160
0.25690317
0.19682062
0.41187191
0.01538180
0.11247479
0.10055944
-0.02096183
-0.08175014
-0.41614351
-0.17867728
0.08450054
-0.14607421
-0.07608540
-0.17661920
0.04707525
-0.26139149
-0.10723646
-0.25962105
0.00395024
0.13537697
0.10750889
-0.02941283
-0.32351249
-0.10015544
-0.01976654
-0.03972081
-0.00953066
0.02319733
0.57896096
-0.52666163
0.21708268
-0.08300981
0.39486679
0.06671370
-0.14706121
0.25492802
-0.11973085
0.38110778
0.47908077
0.17775171
-0.13579287
0.00452495
0.56119692
0.12463087
0.19625817
0.29487383
-0.09164347
-0.22679168
-0.20740248
-0.39864212
0.29123428
-0.10118335
-0.13953505
-0.14238738
0.27791166
-0.03716207
0.15748787
0.12275717
0.03077948
-0.04289461
-0.05805684
-0.30955356
0.08160628
0.32051745
-0.24027604
-0.16583963
0.27752686
0.07283617
0.12620217
-0.07233131
-0.28070787
0.43071708
-0.09926714
-0.06886939
-0.33262792
0.01636267
0.14777878
-0.21024807
-0.01249880
-0.00928024
0.52633929
-0.04532880
0.29238158
-0.00229503
-0.01577827
0.00034555
0.04079660
0.06823125
-0.22208016
-0.21277303
0.08339442
-0.08713856
0.01204075
-0.15983838
0.28167719
-0.20313644
-0.15642995
0.13697062
-0.04302102
0.06159908
-0.01081207
-0.11027608
0.17836016
-0.04746228
-0.12541457
0.11853672
-0.03412448
-0.12202948
0.13506553
0.38940534
-0.09342194
-0.13419248
-0.04296805
-0.09054664
0.06578937
0.21591362
-0.19738838
-0.35398114
0.26062679
-0.10140175
-0.14235312
-0.27043721
-0.06640599
0.23444150
-0.06035430
0.06863827
0.14421675
0.03942309
-0.13444088
0.20764728
-0.09775430
-0.32827935
-0.04567149
-0.07803757
-0.07440219
0.31259930
0.16781318
0.01930290
0.27300763
-0.11888222
-0.04203260
0.19342400
-0.13672538
-0.31148902
0.19707842
-0.03291347
0.18869857
-0.13695785
-0.13841671
0.00564472
-0.02330018
-0.18897727
0.21118459
-0.24704553
-0.30253848
-0.21886022
-0.08048683
-0.11532836
0.09693103
-0.16066782
-0.02639440
0.07212643
0.22733781
0.02135847
-0.03255331
-0.30299708
0.50781256
0.09681284
0.01723761
0.05962325
-0.32716107
0.38323772
-0.15425885
-0.01507470
0.09939151
-0.21813132
0.05000822
-0.29770163
0.22712089
0.00424230
0.09445432
0.11470250
-0.03406544
0.26021743
0.20338014
-0.02938948
-0.21339671
-0.16152543
0.32855392
-0.04903205
0.15076962
-0.17256066
0.10479924
-0.09829007
0.10788082
-0.09783480
0.14328025
0.30889237
0.06808735
0.00623469
-0.02804012
0.11475665
-0.09644037
0.27713400
-0.18811497
0.10456582
0.04593771
0.07886461
0.03655248
-0.06365363
0.22052102
-0.00268403
0.02440761
-0.40725672
-0.14955394
-0.06457841
-0.06614031
0.01581591
0.00214100
-0.29877514
0.06924525
-0.11553758
-0.05878052
0.01800714
0.24180436
-0.15617488
-0.25008684
0.09341873
-0.29957074
-0.09233347
-0.05788133
0.03240288
-0.04577234
-0.10495885
0.18610173
0.01124196
-0.15815710
0.18117896
-0.24332105
-0.27983138
0.34390998
-0.15233968
0.09935352
-0.48189989
0.05115318
0.07341304
0.01861383
0.57712346
0.04286028
-0.14877832
-0.02423509
-0.19307597
-0.47444034
-0.03088545
-0.19160995
-0.03432833
-0.23113698
-0.38154295
0.21031274
-0.31565934
0.18890086
-0.02330466
-0.10127581
-0.02968897
-0.28609213
0.18076915
0.03761182
0.20305811
0.27492064
-0.04184764
-0.16896425
-0.21042648
0.11566503
-0.02958026
-0.34062356
0.01693171
0.25284708
-0.25141510
-0.03671695
0.01525945
-0.03115036
-0.22429411
0.24053515
-0.13220152
0.04085205
-0.08593751
0.00452046
0.06444284
-0.27634385
0.08711910
0.11649896
0.06724042
-0.15492930
0.28110343
0.13944589
0.00270370
-0.15123050
0.12664622
0.23014225
0.16193052
0.21876495
0.10037406
0.16697748
0.09869406
0.19374301
0.14192872
0.11375289
-0.08190574
0.25789627
0.32176551
-0.08350436
0.21875292
0.00033637
0.23023240
-0.32848209
-0.39081931
0.03010477
0.13185509
-0.10273869
0.09644673
-0.06611477
0.00030691
-0.28690627
0.29403928
0.35999456
0.04313791
0.03834185
-0.01364117
-0.20435975
-0.12415850
-0.00680492
-0.24521257
0.08558180
-0.01394916
-0.22418010
-0.11502832
-0.18256158
-0.00315872
0.08064024
-0.01197050
-0.17578956
0.32414937
-0.11716069
0.08763156
-0.26732865
0.00689974
0.13987589
0.00999974
0.00184601
0.15379171
-0.07379727
0.15665841
-0.11065247
-0.08131915
0.01694373
0.37768278
0.16042781
-0.32807562
-0.31901574
-0.02318770
-0.25735506
-0.24374564
-0.07928019
-0.04881976
0.12740941
0.07149922
-0.07139272
-0.09840996
-0.04046616
0.10309906
0.21654233
0.25154161
0.01400656
-0.03413529
0.11850178
0.06527299
0.02490764
0.18273111
0.06256657
-0.02119805
-0.04617659
0.04374954
0.08616323
0.09157545
-0.25754350
0.01281465
-0.12564069
0.06124487
-0.19568788
-0.03433629
0.18934339
0.11294528
-0.14091116
-0.08213776
0.12206259
0.09869321
-0.04792370
0.13842571
-0.00486234
0.04572592
-0.08128790
0.13705519
-0.13837478
0.08640470
-0.19690824
0.17866464
0.14608671
-0.11501716
0.22775675
0.11931081
-0.03133637
0.10393125
-0.11084738
0.35931343
0.16233021
0.25598326
-0.29247198
-0.08141141
-0.10950831
-0.07048175
-0.06795315
-0.02619361
-0.23115525
0.14071408
0.06397821
-0.32212591
-0.09507145
-0.09855944
0.03517634
-0.34375024
0.10121106
0.44188958
-0.00573192
0.05487239
-0.45753953
-0.09676988
-0.04146741
0.37133685
-0.03241158
0.07893783
-0.32752869
0.04084231
0.06389599
0.34311485
-0.35665384
-0.10651214
-0.14435545
-0.20285095
0.27857521
0.31598237
-0.35203871
-0.06838636
-0.27958399
0.10374209
-0.20092922
-0.10007577
0.07241071
0.34861791
0.19242333
-0.04718194
-0.09602311
0.25349313
0.10038011
-0.07070312
-0.16172473
0.36401933
-0.08939834
0.02704203
-0.19857354
0.02550589
0.11676490
0.30524474
-0.11394519
-0.07763537
-0.02961750
-0.00935761
0.18597789
0.06461218
-0.36110309
0.15083739
-0.06211734
-0.00835193
0.01473108
0.03937576
0.02605567
-0.02885332
-0.35871729
0.28978306
0.21146286
0.08634709
0.03955058
-0.15635027
0.23559327
0.24966371
-0.02247148
0.23348655
0.34701312
0.01207996
0.13884702
-0.02756103
-0.45551872
-0.02319438
-0.00188830
0.58251172
0.02865519
0.01896055
0.02093723
-0.29910070
-0.22549069
-0.08596385
0.07745947
-0.10275991
-0.20105833
0.03163326
0.06358195
0.31551939
0.10623979
-0.18899646
0.04223607
0.10916135
0.14770679
0.03569036
0.33112100
-0.11611604
0.09919396
-0.14601049
-0.32081088
0.02947039
-0.07386993
-0.07249823
0.21197708
0.20484784
-0.17805772
-0.30941990
-0.17893572
-0.33183417
0.13720813
0.19715650
0.03436586
-0.09768871
-0.38221276
-0.18022777
-0.22779787
0.12520306
-0.01332324
0.02425748
0.01023446
0.55164999
-0.07389680
-0.00153309
0.15897919
0.09098715
0.05248765
0.06287200
0.14991318
0.06431880
-0.05142882
-0.19536513
0.32274806
0.13420312
0.31499535
0.10036708
0.05870397
0.19829632
-0.00650958
-0.01298907
0.28063118
0.05573196
-0.37061313
0.01653646
-0.08604950
-0.34086028
-0.01155942
-0.00792928
0.13316934
0.35081866
-0.03710344
-0.40256253
-0.29996073
0.18132623
-0.13095367
0.21339968
0.18559705
-0.20649223
-0.11650671
0.04537033
-0.07045139
0.46244273
0.30227691
0.22988264
-0.17659084
-0.00002631
-0.16223098
0.40123296
0.04955003
0.14706668
0.19125387
0.09799708
-0.11589338
-0.03133674
0.01507291
0.01433806
0.08998541
0.37573019
-0.02475218
-0.03420538
0.10961923
0.17514038
-0.21942803
-0.12334576
0.30920008
-0.11901231
-0.19636418
-0.34996817
-0.32447523
-0.24119993
0.08116150
0.05098200
-0.37124348
0.00405220
-0.07180542
-0.10371310
0.18281904
0.24242777
-0.10010105
-0.09881029
-0.33153978
-0.05519309
0.24848434
0.14601038
-0.13646299
-0.14438674
-0.09588838
-0.09309192
-0.09788632
0.44569576
-0.17344476
0.21830010
-0.02498454
0.04888630
-0.13258336
0.15134296
-0.03053384
0.03294725
-0.16770178
0.07744286
0.13163625
-0.10881042
-0.01148761
-0.04819591
-0.01158024
0.26043138
0.05321512
0.09479387
0.29954705
-0.30145103
-0.09803385
0.14917664
-0.27441430
0.30318815
0.00172531
0.15149184
0.13879269
0.39666212
-0.22355808
0.19193903
0.29796928
0.24979499
0.14586358
0.28349140
0.05406910
0.27479661
0.00517150
-0.04200524
-0.01404016
-0.10598240
0.02690127
-0.13528797
-0.05021675
-0.09783804
0.05740060
0.13776949
-0.08423976
-0.04245123
0.00486151
0.08482426
0.23013967
0.01991541
0.28180400
-0.33236220
-0.11213047
-0.13240400
-0.14582260
-0.14893794
0.05946159
0.22134790
-0.01753828
-0.20311336
0.18676254
-0.10910448
-0.22384791
-0.15146798
0.36200291
-0.22442049
0.01345192
0.05224119
0.28309092
0.15285710
-0.10312078
0.00935678
-0.34766451
0.16771834
0.35116282
0.20227031
-0.01727389
-0.01390093
-0.05016095
-0.37255102
0.00597178
0.09341077
0.09625013
0.22408737
0.11249324
0.12267216
-0.01256401
-0.17084746
0.08873846
-0.13171406
0.16188376
-0.12038250
0.10696191
-0.30879313
-0.25344419
0.06047959
-0.12064516
0.02475321
-0.04404433
0.03503253
-0.14753753
0.15955517
-0.14362702
0.14856550
-0.09131729
-0.04660805
0.01405052
0.21423693
-0.00753662
0.17640232
0.06675274
-0.04682144
0.08799297
0.09241485
0.25100163
-0.00084610
-0.15062872
0.26987004
0.13701014
0.23896456
-0.02667127
-0.11539466
-0.20358565
-0.07598408
0.03844836
0.14146583
0.04209141
-0.22117329
-0.15494619
0.18483223
-0.18302792
-0.10211682
-0.04105102
-0.04480887
-0.21759227
0.14194633
-0.18438806
-0.00920550
0.13749644
0.21908522
0.13094187
0.06001194
0.16409327
0.21039404
-0.10537331
-0.34963128
-0.18692026
0.19692205
-0.05633713
0.01921493
0.15257096
0.08114705
-0.01005976
-0.17180341
-0.24068004
-0.00186181
0.22267936
0.45542836
0.15692565
-0.14217389
0.15736961
-0.01139838
-0.14909261
-0.09854300
-0.03867834
-0.00314656
-0.20111409
-0.03206764
-0.15416311
-0.18087332
-0.16145194
0.08002850
-0.36960608
0.19080573
-0.06158537
0.11328527
-0.16750008
-0.05688061
-0.34793878
-0.11312490
-0.37179607
0.12384900
0.31933245
0.13340634
-0.18096046
-0.31519553
-0.08997710
0.06851187
-0.14905058
0.11022139
0.19666399
0.36317921
0.15063694
0.24699250
-0.06245681
0.00268169
0.11421107
-0.22301817
-0.08995085
0.31398639
0.21356522
-0.04946980
0.06487960
-0.06340092
-0.15230229
0.04255129
-0.14246213
-0.15909141
0.11842868
0.04350789
-0.23186666
0.01740186
-0.19004779
-0.10481890
0.07290456
0.29734048
0.15682040
0.12966184
0.27399766
-0.14711559
0.30784982
0.19772255
0.13811404
0.17400971
0.23858060
0.16039574
0.20306168
0.08861299
-0.07515483
0.01507303
0.08928512
-0.02576672
-0.09789252
-0.04485812
0.06251185
-0.07395841
0.20660278
0.15800829
-0.01831619
0.16659831
0.17208877
-0.07887888
-0.08330927
-0.18916422
-0.05647493
-0.34088892
0.01350154
-0.13412242
0.18141776
-0.28321034
-0.19782756
-0.43640375
0.22642171
-0.02691655
-0.17202961
0.05830810
0.12710677
-0.17969655
0.08708902
0.02176032
0.16065834
0.01519549
-0.09685014
-0.22286691
-0.01628822
0.15194695
0.35931450
0.04830982
0.03645350
-0.03606132
-0.06110181
-0.10411221
0.10556433
0.04458967
0.11113147
0.42727917
-0.08383626
0.02416457
0.12186205
0.00171405
0.03678565
-0.05358931
-0.01433994
0.06756835
0.17043371
-0.24775520
-0.29513445
-0.10479741
0.31789091
0.22669224
-0.03110846
0.11114775
-0.04369023
-0.35595784
-0.14256606
-0.00386984
0.13134676
0.03562531
-0.10358557
0.05165627
-0.25219709
0.01402844
0.10032816
0.27204317
-0.16676326
0.04684566
-0.01077192
0.06147943
0.00945468
-0.17352420
0.30201745
0.17777826
0.16326962
0.33860376
0.10261742
-0.15050919
0.29633033
0.08422484
0.23157740
-0.24511036
-0.11281204
-0.01607988
-0.25658184
0.12425984
-0.15066865
0.04448261
0.00490302
-0.03104026
-0.02796401
0.18653405
0.24572693
0.30088064
0.10458862
0.32203966
0.18572672
0.09708688
0.06702964
0.22975507
-0.18061154
0.10509667
0.14494237
-0.25242636
-0.07910140
-0.34770980
0.14895971
0.09286486
-0.28185320
-0.15827675
0.03179983
-0.28993991
-0.23735622
0.21192694
0.05292112
-0.05111949
-0.27113467
0.13910171
0.25032267
-0.15501781
0.17243391
-0.00764212
-0.24650818
-0.34316584
-0.00635711
0.01492798
-0.29889914
0.00837342
-0.22777185
-0.00386916
-0.06986983
-0.15565021
0.09520331
0.25062832
0.00582408
0.00324070
0.03075643
-0.01364558
-0.23766232
-0.08211634
-0.08187044
-0.12732089
-0.13747372
-0.09904911
0.19629687
0.24114096
-0.19626412
0.03780595
0.26968294
-0.16104844
-0.03951261
-0.43161669
0.22431405
0.19828624
-0.00646645
-0.02797945
0.01495242
-0.18000758
0.04903655
0.36171699
0.14083615
-0.04156895
-0.28983313
-0.02395356
-0.24873321
0.06069732
-0.08781584
0.30691555
0.26799202
-0.01248335
-0.18925035
-0.01126360
0.15274711
0.11888977
-0.06400397
0.02286982
-0.23061927
0.10510062
-0.04166790
-0.06580026
0.27501872
0.47078931
0.23180750
-0.20797257
-0.10600857
-0.08670064
0.07286723
0.27547112
0.00862914
-0.07199209
-0.06226758
0.37324944
0.18960905
-0.08051341
-0.26285893
-0.13300143
-0.01484638
-0.18807350
-0.19320247
0.29997963
0.61408663
-0.14280556
-0.00823628
-0.35205838
-0.02054076
-0.26518452
0.32916653
0.31507966
0.07300138
0.19917387
0.08586391
-0.16666475
-0.11382396
-0.12708220
-0.18530178
-0.26822490
0.14710829
-0.00972894
-0.09137947
0.06731667
-0.00557108
0.13739993
0.23136798
-0.27602652
0.34892443
0.04766756
0.17254183
0.05459245
0.25542167
-0.24504372
0.07555480
-0.08702286
0.14171384
0.01471171
0.14836980
-0.23771007
0.01308447
0.15831262
-0.39399159
-0.50244385
0.12198671
0.05651523
0.12784129
0.07113575
-0.02151050
0.01335718
0.08715399
-0.24005876
0.26164183
-0.14009143
0.10865535
0.16749154
-0.23969811
-0.17155641
0.05430035
0.15010715
0.34583202
0.04799280
-0.25529155
0.23325878
-0.19752148
-0.06698678
-0.01414662
-0.55576909
0.19514278
0.11570561
-0.08078001
0.39571062
-0.10002351
-0.02142996
-0.11892699
0.08122127
0.12287203
-0.09991921
0.00929996
-0.44306976
0.01692712
-0.12677795
0.26207170
0.24204989
-0.16713439
-0.04365935
0.15942585
0.16463919
0.09288532
-0.19662969
-0.07325003
-0.18289867
0.15914999
0.04717679
0.32107952
0.06415849
-0.18997967
0.09517267
0.33764887
0.16153999
0.02862459
-0.28565517
0.22457273
0.04350216
0.04637994
0.44007444
0.07070744
-0.36135119
0.15183102
-0.13839069
0.29447451
-0.02703366
0.18000415
-0.12969226
-0.07857481
0.26879638
-0.43025830
0.11906804
0.01979034
-0.23237470
0.14493492
-0.22902805
0.10145166
0.09642038
0.23480302
0.07501800
-0.02885518
-0.52948570
0.19344269
0.02058733
0.05243669
0.11784478
0.00593120
0.29071936
0.36445183
0.36078966
-0.00972952
0.16270380
0.10220481
-0.10673348
-0.12202247
0.14882565
-0.25229239
0.08433344
-0.34856606
-0.04564808
0.02006040
-0.11091659
0.00978620
0.33345518
-0.01132497
-0.05368741
-0.17563596
0.09042144
0.04654806
0.03415302
0.03329601
0.06908231
-0.02843938
0.04959511
0.02839240
-0.14974914
-0.21467136
0.68213624
-0.10730813
-0.31520209
-0.37246156
0.14799260
-0.03372783
0.32157993
-0.10823236
0.00036582
-0.03203993
0.12488987
0.09328876
-0.24978578
-0.23669292
0.16785011
0.07949329
0.21645620
-0.06176157
0.05667625
-0.07763344
0.15238860
0.14133546
-0.23311199
0.16951588
-0.21982595
0.03203456
0.24550068
0.14170000
-0.05342357
0.07117242
0.08680505
0.29266393
0.28007033
-0.16635354
-0.39306241
-0.06775574
-0.03035929
-0.18413898
-0.32652766
-0.09113547
0.14977002
0.21753354
-0.03019502
-0.06392311
0.19862588
0.19058363
0.22507125
0.10487933
-0.16664325
0.11850960
0.02513100
0.20340493
0.06073660
0.20164461
0.02297936
0.15363257
0.15655372
-0.35946679
0.09980147
0.06243079
-0.22405249
-0.33419999
0.00454621
-0.08219284
-0.32268628
0.08918634
-0.08334479
0.00810977
0.14369605
0.12219247
-0.31252226
-0.26144230
0.24550276
-0.05744514
-0.04633897
-0.05345108
-0.14037746
-0.21503164
0.02847636
0.30892485
-0.12465078
-0.20704882
0.00681565
0.39046618
0.15131757
0.17901956
-0.11686520
-0.19210283
0.16217214
-0.29908153
-0.10479495
0.01980940
-0.26969272
0.14615904
-0.05326128
0.09834998
0.19977055
-0.07817274
-0.17002779
-0.16681699
0.12122356
0.21872713
0.19551244
-0.03497200
-0.01090737
0.28953698
-0.07762133
0.09500669
-0.32760185
0.10970697
-0.07151639
0.24283020
0.11369368
0.31528714
0.38649994
-0.08754189
-0.15977198
-0.22952120
-0.07079546
-0.07189400
0.18445039
-0.21927781
0.23183300
-0.13760838
-0.14214943
0.21795446
-0.29542452
0.31512752
-0.04337448
0.01636566
-0.30123499
-0.26873517
0.00555782
-0.02868086
-0.11647359
-0.07834258
-0.03542163
0.02180220
0.02010210
-0.16612385
-0.16133811
0.45920837
-0.17408049
-0.08327644
-0.00422362
-0.14029513
-0.09970684
-0.02649623
0.00487870
-0.05497970
0.26188257
0.06655654
-0.19823411
0.10153241
0.16189748
-0.23253725
-0.07441287
0.25099722
-0.18010688
0.25323251
0.07953754
0.35830373
0.01161888
0.18002971
0.27808866
0.20475471
-0.14670767
0.09194829
-0.34515482
0.08217939
-0.18080936
-0.06864974
0.01258512
-0.14897063
0.02363966
0.24803175
-0.08288086
0.25575137
-0.29237339
0.04242664
-0.13790183
-0.01451724
0.27184317
0.10551475
0.04497026
0.13519156
0.22277111
0.00777964
0.05897516
0.03941588
-0.16585778
0.06259225
-0.32309309
0.24043158
-0.16582571
0.14167072
0.02255023
0.09279779
-0.14743747
0.06648608
-0.34579301
-0.17608449
-0.37688079
0.26365429
0.17717963
0.11675278
0.00514629
-0.00313763
0.17158021
-0.06797953
0.49067086
0.14785309
-0.10209689
-0.22238541
0.03839398
-0.02272059
0.10548963
-0.25653291
0.08021355
0.20604897
-0.16767792
-0.15650608
0.29216668
-0.01083624
0.14574885
0.33806333
-0.02950224
-0.05824247
-0.47971326
0.10795450
0.01562467
-0.14037497
0.05212580
0.00427081
0.29454279
0.18671913
0.11096907
0.08102962
0.30311367
-0.14287707
-0.02563786
0.13920473
0.22488199
0.13817298
0.05973138
-0.13697031
0.07129478
-0.16191426
-0.00953706
-0.08091588
-0.05231717
0.18338247
-0.10046937
0.09259523
-0.02764870
-0.05791207
-0.08560643
0.20314102
0.11942669
0.10327013
0.31848225
-0.33903810
-0.05440610
-0.06944180
-0.09071570
0.25458458
0.12041117
0.34260395
0.11069621
-0.03808780
0.14603639
0.18516909
-0.04779748
-0.03708690
-0.17975087
-0.10169204
0.02013003
0.04264475
-0.00221295
-0.10907052
-0.24239330
-0.05126355
-0.08738627
-0.39870304
0.08142074
-0.26783973
0.01077287
-0.16559736
-0.31582022
0.02168050
0.12986857
-0.03213909
0.01900704
0.49302030
-0.03774678
-0.05019372
-0.00064469
-0.10404980
0.22878197
0.09796706
-0.16429950
0.28646702
0.21157964
0.06837635
0.04158651
0.41928837
-0.03741745
-0.06525775
0.19139741
0.03662454
-0.21581937
0.00985315
-0.25950363
-0.31449810
-0.29175547
0.16198470
0.16976053
0.06212423
-0.07594968
-0.12586352
0.16367018
-0.22694808
-0.33719209
0.12160904
-0.06884328
0.17714259
0.16925296
-0.23684511
-0.13819779
0.00286464
-0.04515053
-0.05339305
0.00115549
0.14082976
0.00608128
-0.02032122
0.21529244
0.09140439
0.35908145
0.06589430
0.22089374
0.24191932
-0.15921408
0.17939742
0.12783916
0.28680891
-0.01079372
0.05630044
-0.16639490
-0.01815046
0.21616593
0.20709132
0.04440225
-0.08954459
0.03924835
0.21351674
0.37233803
-0.04059243
0.07171790
-0.04389468
-0.04336233
-0.14851461
-0.00374885
-0.17292351
0.11562490
0.25280404
-0.00052375
0.11437102
0.04868222
0.26721725
-0.38386729
-0.18679447
0.09218835
0.26414829
0.22545403
0.06234247
0.18999913
-0.04506486
0.12015628
-0.59423614
0.07283916
0.04364434
0.26384377
0.29642206
-0.20005438
-0.06318493
-0.13345391
-0.04972837
-0.00323504
0.07994922
-0.04894320
-0.28920299
-0.29866785
-0.17900796
-0.09967431
-0.09434728
-0.16465181
-0.03640928
-0.04960949
0.06280514
0.17513846
-0.01979848
-0.00797881
-0.09573739
0.03464451
0.21008594
-0.22653462
0.17028581
0.06125557
0.28451210
-0.19939341
0.03812331
-0.04794661
-0.26874360
0.13859850
0.15834352
0.27535594
0.24038593
0.04301339
-0.12377786
-0.24498793
-0.05135461
-0.03540196
-0.15150118
-0.05189921
0.48100194
0.06539747
-0.16455936
-0.05344563
0.12930876
-0.16340204
-0.04577945
0.02331279
0.22255027
0.39106742
0.25603798
-0.03539162
-0.03441529
0.06380960
0.01766966
0.22568785
-0.38564667
0.19983982
0.25307608
-0.10566308
0.08949254
0.02006499
0.03744646
-0.13928349
0.11862095
0.32784685
0.35433224
-0.08871525
-0.00065505
-0.31956095
-0.02989618
0.24534410
-0.04551816
0.10429683
0.08137106
0.07988043
-0.07747601
0.07933167
0.26684654
-0.39974487
-0.06736246
0.16854972
-0.05063216
0.11470614
-0.18864782
-0.18369833
0.20163172
0.13326946
0.05771441
0.13610113
-0.27068868
-0.18167254
-0.33347794
-0.33643997
0.31364346
-0.06975241
-0.30449113
-0.22752447
-0.25655419
0.17854546
-0.06982549
0.17885338
0.07085235
0.25046459
0.26692939
0.11195480
-0.07114158
-0.16440433
0.01842780
0.07747194
-0.10744999
0.07792378
0.07425079
-0.16296525
-0.35882562
-0.10918967
0.03832713
-0.21539427
-0.14959738
-0.19942114
0.12115288
0.10662983
0.18886623
-0.17140242
0.27090129
-0.34942183
0.19693692
-0.03927629
0.00640026
-0.29453242
0.06206513
0.12889977
-0.02227021
0.11515008
-0.08954513
-0.20363192
-0.13709845
0.00898094
-0.04339727
0.04387175
0.01044665
0.02715455
-0.15781070
-0.02718729
0.19843443
-0.08181866
0.22874415
-0.01948169
0.16909619
-0.00981099
0.16091272
-0.07935371
0.20159508
0.08986652
-0.19884551
0.01114921
0.06522781
0.14356318
0.08065804
0.03694798
-0.03704324
0.13890927
0.05341526
0.15742469
0.06520212
0.12702744
0.07516435
-0.45553869
-0.03180392
-0.09724721
-0.06356125
-0.20315084
0.05557321
0.18473254
-0.10293724
0.26024777
-0.04125472
-0.28780693
0.13082260
0.00684045
0.19616546
0.34332365
0.03181148
-0.11164160
0.00052965
-0.04785452
-0.21735436
0.07847464
-0.26981023
-0.20459901
0.04648347
-0.25023237
0.13052571
-0.16775638
0.06207433
-0.11603938
0.08527888
0.00125583
-0.18365814
-0.16568342
-0.30802804
-0.30389959
-0.01468888
0.06960857
0.00201053
-0.12019891
-0.16901642
-0.02041663
-0.00159703
0.46211550
0.11788580
0.01272979
-0.04927117
0.15378246
0.14714223
-0.16629571
-0.23542944
0.04515375
-0.22843990
0.11617463
-0.01389340
0.00188052
0.02169154
-0.02071192
0.21360993
0.13976499
0.09150899
0.14373229
0.29590493
0.07550169
-0.07659752
-0.13658364
0.03534425
0.06620587
0.14570601
0.01375451
0.14364468
0.37997526
-0.17522807
0.04367061
0.02979901
-0.07493223
0.04655774
-0.02459305
-0.15088414
0.13034754
-0.04961535
-0.22917199
0.23996869
0.01840161
0.07676965
-0.14680544
-0.13409285
-0.32462195
0.04953887
-0.15260400
-0.02473429
-0.01522597
-0.11112081
0.20106506
-0.07396235
0.27180395
-0.15032549
-0.02697471
0.10639019
0.17839780
0.19872838
0.04647085
0.22754276
0.07323338
0.08165202
-0.01778335
0.34035560
0.05173396
-0.29707468
0.23347411
0.07444572
0.04153805
0.33370453
-0.11487359
0.16802977
-0.13373579
-0.03348608
0.11990324
-0.02520596
0.40086189
-0.11897397
-0.35856500
0.02534575
-0.17209023
-0.01975305
-0.49648058
0.01077589
0.13803533
-0.29525632
0.05720964
-0.00821931
0.07910386
0.14419948
-0.14091773
0.14980961
0.13660488
0.19705768
-0.08220261
-0.10740373
0.17669240
0.16411442
0.18992527
-0.17564395
-0.22810240
0.06197339
-0.31455573
0.03210436
-0.28308445
0.22766648
-0.09962228
-0.14797023
0.05743344
-0.11162223
0.20841329
0.20027235
0.01111765
-0.20991999
-0.11744598
0.31827322
0.37763587
0.00490036
0.20303020
-0.00637833
0.25196955
0.06329706
0.23157378
0.16807008
0.22768871
-0.09103057
0.10586871
-0.24604450
0.27746046
0.09879418
0.01456475
-0.07364423
-0.11874537
0.12253809
0.27118939
0.43870252
-0.04774415
-0.16491614
0.07692447
-0.19393632
0.24410906
-0.01242651
0.27450952
-0.27099335
0.16667047
0.13076653
-0.00997154
0.03918704
0.05763486
0.06916618
0.27674508
-0.16819669
-0.16935132
-0.04988169
0.15711910
-0.17704657
0.08254590
-0.06635593
-0.05648609
0.06953692
0.14156504
-0.32227013
0.22498775
0.03788655
-0.01068663
0.00724928
-0.23554912
-0.27371708
0.15177394
0.56406033
0.22570319
0.21195713
-0.28613672
0.09710898
0.47572178
-0.16238828
-0.01777768
-0.20547871
0.04417108
-0.21316369
0.15926796
0.28105545
0.24561556
0.22130165
0.04311369
-0.03007371
-0.14765653
0.14929618
-0.02598860
0.16010611
0.23147018
0.21467859
0.06036588
-0.16562487
-0.02915354
0.30625588
-0.32671499
-0.21822743
0.17312481
0.39625970
-0.08039870
-0.59424460
-0.12084039
0.00287917
-0.49934977
0.04091169
0.15745537
0.07535913
-0.36429870
0.16357696
-0.30484089
-0.04993584
-0.03357673
0.24940567
0.38890839
-0.03928046
-0.16997001
-0.13397318
0.01903983
-0.01109568
-0.37495896
0.13769154
-0.20947176
0.01681263
-0.08103319
-0.10835901
-0.02259132
-0.27066272
-0.04406464
0.29425588
0.16425335
0.20388015
0.25723085
0.14221802
0.16600932
-0.02838185
-0.14552309
-0.14026612
-0.01244692
0.02244629
-0.07011239
0.08857484
-0.29063401
0.24994525
0.18042828
-0.11810299
-0.22276971
0.25146490
0.14894946
-0.02464328
-0.31356460
0.17463648
-0.25897256
-0.18142761
-0.18901980
0.34668809
0.26713789
0.29103869
-0.10043287
-0.03635844
-0.22848523
0.07047353
0.12355575
0.12935056
-0.14077754
0.32603344
0.37705299
-0.11492085
0.03040950
0.16253048
-0.11186004
-0.20282866
0.03642881
-0.06610303
0.35584882
-0.09102931
-0.07637928
-0.04852222
-0.22958571
0.27471685
-0.39281344
-0.04138388
0.12501514
0.00098762
-0.17634709
0.51532125
0.44306600
-0.00607311
-0.03028915
-0.01106835
-0.06859066
-0.15044020
-0.16721387
-0.28763935
-0.13177414
0.20420805
0.30674660
-0.04280942
-0.23100770
-0.27665678
0.09540695
0.44275427
0.15030017
0.02752449
0.03768503
-0.27091107
0.05309887
-0.17981572
0.00735916
0.08104374
0.00062319
0.39064026
-0.54687077
0.29169354
-0.25358346
0.28170955
-0.15812556
-0.21826984
0.31251779
-0.10592795
0.01140705
0.01744815
0.10487493
-0.33991113
0.19700356
0.50522393
-0.17428198
0.10316010
0.04647987
0.17770477
0.06970875
0.39253792
-0.34709433
0.24333292
0.15803026
-0.06715647
-0.14370811
0.04613194
0.01955273
0.17409420
0.34528974
0.32894185
-0.02380355
0.34324297
0.08720631
0.10772249
-0.15741010
-0.27236074
0.26851457
-0.25212830
-0.09359808
-0.02016391
-0.04864124
-0.01576179
0.12422343
-0.26647854
0.15170498
-0.11699868
-0.16330187
0.09753878
-0.18773188
0.01064736
-0.00140711
0.06353981
-0.22859930
-0.03514850
0.21242420
0.19465327
-0.28982025
-0.15778331
-0.01222847
-0.03096967
0.36806390
-0.01501407
-0.15375324
0.06511770
-0.16508988
0.26139185
-0.13818964
-0.22462095
0.00050151
0.10810494
0.23912278
-0.24363202
0.18314341
-0.22069404
-0.24387367
-0.27377626
-0.02958887
0.28063285
-0.02744495
-0.25531992
-0.24992105
0.34222987
-0.18527527
-0.08579361
0.01780259
-0.20499626
-0.47541022
0.20234387
0.35006791
0.16328548
0.09536003
0.02320995
0.00537846
-0.22376476
0.08636601
-0.10544590
0.04261162
-0.16969745
0.00500138
0.08862542
0.01500601
0.47760481
-0.06743466
0.00834068
0.09409678
-0.13961917
0.11688778
-0.05692152
-0.08928444
-0.56098515
0.04469343
-0.01175927
0.00925581
-0.05911383
0.21754800
-0.08607959
0.09718022
-0.07428682
0.15393649
-0.11900277
-0.03011366
0.08076516
0.24689832
-0.07276354
0.19746575
0.23207267
-0.00803890
-0.22488341
-0.06538592
0.18043919
0.07845592
0.10764354
-0.07449534
-0.00935625
-0.27848333
-0.01490977
-0.04681340
-0.10451034
-0.14081427
-0.09065496
-0.01486059
0.16419131
-0.01995250
0.18799497
0.35799304
-0.17765614
0.19205374
-0.11817911
0.19042529
-0.06551445
0.04232448
-0.02029850
0.24884781
-0.04508310
-0.20137474
-0.22715081
0.04528240
0.31296638
0.52198005
-0.01075117
0.01487331
-0.32062209
-0.04699243
-0.20502214
0.00603988
-0.24991828
-0.01892793
0.00730520
-0.17013419
-0.21625960
0.13903549
0.13229199
0.16131490
-0.04475042
-0.08661493
0.12075093
-0.38353452
0.00215396
0.17547907
0.09268025
-0.05704510
-0.20152527
-0.25246719
0.00397056
0.33275577
0.04234621
-0.00891015
-0.03155709
-0.29573840
0.29398260
-0.03096582
-0.07439339
0.40516016
-0.07866932
-0.01254408
-0.30451202
0.17735285
-0.00211649
0.04892791
0.08671194
-0.12225354
-0.21162714
-0.21497503
0.02011538
0.07405838
0.01916197
-0.04472142
-0.28443635
-0.16000138
-0.11100785
0.14607728
-0.16166812
0.47977501
-0.09396956
0.29044500
-0.10200629
-0.28226590
-0.29335782
-0.61003107
-0.14165615
0.11953493
0.02969749
-0.05790726
0.13447557
0.08162576
0.20045118
-0.02685117
0.16649491
0.16759346
-0.07236396
0.13969998
0.10232496
0.08559868
-0.23042135
-0.00968412
0.27639294
-0.21917489
0.22703917
-0.03416625
-0.08642392
0.06429216
0.19574563
0.04796964
-0.23105434
-0.14377882
0.36216080
0.08347519
0.01337348
0.04595024
0.07466881
-0.19875471
0.12818423
0.11427332
-0.18292034
0.20433347
-0.06453995
0.20333837
-0.09791358
0.01116549
0.50265139
0.00208470
-0.01814987
-0.26858470
0.11145917
-0.29864475
-0.03873685
-0.00572538
-0.03152563
0.03987134
-0.09528638
0.54795516
0.03541465
0.07543173
0.00350672
0.37870508
0.19822858
-0.33809808
-0.15053314
-0.00346577
0.38728973
0.03086373
-0.14102107
0.32094619
-0.09399089
-0.08111042
0.21919550
-0.07967933
0.00531204
-0.16288054
0.36369568
-0.41957363
-0.10980499
-0.23700772
0.00474909
0.19813983
-0.33921415
-0.16489986
-0.26521656
-0.05830356
0.07065120
0.15580946
0.02994328
-0.29014096
0.11774887
-0.30504316
0.00430253
-0.01605728
0.25402200
0.08703717
-0.13872357
0.09771371
-0.08290631
0.16332120
0.07862835
0.11381842
0.08500930
0.07787883
-0.39618328
-0.07709460
0.08838949
-0.20781974
-0.09821012
-0.28804457
-0.20431162
-0.10801549
-0.08322576
0.06095976
-0.15376939
-0.06876181
-0.11052579
0.13247241
-0.20285852
0.05468463
-0.16960444
-0.24102481
0.06089218
-0.13818479
0.00794862
0.17945448
0.12994258
-0.10256641
-0.29857999
0.24957488
-0.13361230
0.15325217
0.08493403
-0.17658760
-0.03884691
-0.03477100
-0.25076535
0.15320407
-0.06547593
0.05265103
-0.12398687
-0.26367199
-0.28598273
-0.09351365
0.02722983
-0.06107064
-0.30380544
-0.18259023
-0.14272389
-0.09350860
0.14537737
0.00959864
-0.13898790
0.00929246
0.01024023
0.15946689
0.07721461
-0.35637781
-0.09103449
-0.01064477
-0.25476614
-0.04182412
0.15584706
-0.01598567
0.20345490
-0.07105190
-0.07876615
0.19851291
-0.17324209
0.50058240
-0.07885897
-0.10818205
0.09112036
-0.09325978
0.05112198
0.15941516
0.37076715
0.22391021
-0.16678639
0.00198245
-0.08878578
0.16609742
-0.11938504
-0.11676969
0.27745524
0.21904849
0.14528102
0.06297049
0.10252874
-0.00426652
-0.43025228
-0.06960179
-0.50749010
0.29654613
-0.03668490
0.08797710
0.13862066
-0.22627108
-0.22298998
0.28684461
0.25902689
-0.03263126
0.64419025
0.27981827
-0.02117524
0.33478492
0.09030646
0.00046568
-0.09518074
0.02268719
0.04334533
0.23543271
-0.05836350
-0.09492392
-0.08183981
-0.19692388
-0.03284489
0.13241124
0.05025440
-0.47473618
-0.04132162
-0.03532005
-0.24727906
-0.23995408
-0.15871330
-0.00828130
-0.54983783
0.38838896
0.32371283
0.10359798
0.17334428
-0.02004784
-0.01983479
-0.08973827
0.08320982
0.18398285
0.15438071
-0.28516096
-0.19081701
-0.16504608
-0.08626323
0.06410167
-0.00323611
-0.21224828
-0.14928311
0.12451880
0.14754523
-0.06146281
0.06896709
0.06053348
0.17961748
0.02876292
0.20816882
-0.10857855
0.04233861
0.11731933
0.22475144
-0.11034480
-0.17689739
-0.04109895
-0.26780686
0.22528188
-0.22038130
0.16441275
-0.36121035
-0.29171067
0.02428140
-0.00035978
-0.20568497
-0.09725532
-0.01932181
-0.08401672
-0.01459042
-0.00879177
-0.16499846
0.10110637
0.48072296
-0.20306683
0.37358025
-0.08610783
0.00803304
0.03434725
-0.10603004
0.22085404
-0.16244721
-0.01161277
0.11190719
-0.02378732
0.12633857
-0.08430266
0.08468335
-0.04030884
0.01432659
-0.17164689
-0.11091782
-0.12253113
0.30476773
0.57833081
-0.45933801
-0.13562194
-0.40378505
0.13682336
-0.10889867
0.22305921
0.02004050
-0.01518266
0.01048850
-0.12984420
