0.01842351
0.01012388
-0.04914553
-0.02796816
0.11325081
-0.15132861
-0.01728376
-0.03344278
-0.03411023
0.04657819
0.04236917
-0.04563455
-0.06144400
-0.01400392
0.09024495
0.01800059
-0.13540286
0.05898635
-0.08274409
-0.16865389
-0.05601701
-0.02907477
-0.01782379
0.00031958
0.00774635
-0.00687140
-0.13706827
0.06201989
-0.01249437
-0.09889638
0.05736826
0.04105129
0.01604559
0.10507403
-0.14222826
0.14770365
0.01333705
0.07417949
-0.07076458
0.01658635
0.09344259
0.08624882
-0.03587417
-0.00955767
-0.01026162
-0.02930520
-0.03917696
-0.09750255
-0.01202688
0.03393931
0.05002623
0.03256431
-0.01888228
-0.10800528
-0.02747762
-0.07744545
-0.15237986
0.02532337
-0.04516357
0.09996016
0.03390806
0.11468443
-0.05713112
0.04856268
-0.07973404
0.07925315
-0.12474010
0.06513939
0.01541708
0.17542432
0.00567929
0.04964618
-0.03907559
0.13766238
0.01976646
-0.05544794
0.02552955
-0.02808724
0.05173322
-0.11371128
-0.05567086
0.01905764
0.07443184
-0.03655038
-0.07099149
-0.06077297
0.09311433
-0.00031351
-0.07123128
0.11758340
-0.10194229
0.06488528
0.08709195
0.18800354
-0.06962597
0.00674878
0.04569349
-0.13127895
-0.15073824
0.08743972
0.13638298
0.00648451
-0.08039522
0.05674874
-0.16211909
0.05489229
-0.08782082
0.00072609
-0.13359234
-0.01994390
0.07742545
-0.11566012
-0.03363973
-0.12388151
0.34057713
-0.12761787
-0.08068790
-0.13288216
0.23894587
0.13045034
0.12967797
0.23638736
-0.15001804
0.13136189
0.18730031
0.04525631
0.00972979
-0.04000032
0.20902900
0.10817491
-0.03621486
0.18743476
-0.01689232
0.08358041
-0.08451602
-0.03650617
-0.06779283
0.06011917
-0.05643834
-0.16505617
-0.05822805
0.01490427
-0.02853017
-0.19950746
-0.06071361
0.09376205
0.43261892
-0.00239082
-0.01559225
0.02205802
0.16484630
0.05763321
0.06360486
0.24944790
0.01315005
-0.08207487
0.11745360
-0.15928373
0.09857127
0.28173223
0.13461830
-0.03532793
-0.15182169
0.06261578
-0.07914446
0.09332537
-0.10804515
-0.12060019
-0.23559412
-0.05741069
0.10335667
-0.19702412
0.00450193
0.18150872
-0.09305403
-0.03026726
0.20368738
0.00148238
0.21444607
-0.05006029
-0.08413952
-0.06312078
0.30150110
0.05820082
0.18374094
0.27498114
-0.11386327
-0.11589662
-0.00248020
0.15666336
-0.07671951
0.14898704
0.23943463
-0.02767979
0.17462172
0.09240510
0.32557094
-0.24327478
0.09042323
0.01594003
-0.01582881
0.06020132
-0.16371800
0.06803164
-0.05929159
-0.06859976
0.07457174
-0.07379005
0.05919000
-0.01470318
0.05138494
-0.29781520
-0.05413176
0.09596268
0.05580992
0.09990420
0.07721386
-0.05228581
-0.03921960
-0.15596101
0.04974286
-0.14034502
0.19955137
0.06505712
0.11384507
-0.05032985
0.06234735
-0.03121243
0.16808993
-0.20683399
0.01829981
-0.00365819
0.11966529
-0.02919492
-0.14006233
0.23546338
-0.13639134
-0.13252188
0.05117901
0.09164593
0.05202403
-0.02667821
-0.03792001
-0.18444724
-0.07651577
0.05632832
-0.05602880
0.18661803
0.01042547
-0.05680778
-0.08905298
-0.07278281
0.01867818
-0.03375625
0.19077104
-0.13493642
0.16271871
0.00434765
0.00565099
0.11502405
0.10352945
-0.32776389
0.06637719
0.06848656
0.24043974
0.04056725
-0.09524325
0.00888095
-0.16645642
0.01986783
0.09525370
-0.06979930
0.13596953
-0.03548468
0.04863902
-0.06129572
0.14391284
-0.03343648
-0.12410878
-0.04851036
-0.16284832
-0.25976244
-0.07466844
0.08447676
-0.02407720
-0.25422066
0.09470622
0.12385725
0.01074621
0.16694431
0.21926402
-0.12051753
0.15082997
-0.00841193
-0.17099135
-0.04026026
0.15167446
-0.03384071
0.01032341
-0.10303368
0.06130398
0.10708141
-0.05449628
0.12927960
-0.13415134
-0.00129717
-0.12887198
0.03518594
0.07687119
0.08800940
-0.02894555
-0.02621839
0.03571510
-0.21100974
0.10974520
-0.02699709
0.03234154
-0.08085363
-0.02803595
-0.12500849
-0.09907220
-0.14611824
-0.13641886
-0.02381768
0.11676005
-0.01444255
-0.11257768
-0.26302046
-0.08985368
-0.11970392
0.21993580
0.13964130
-0.00343924
-0.32217711
-0.00039114
-0.03657189
-0.06407425
-0.20940891
0.17957728
-0.19738032
-0.32361618
-0.09133547
0.03837056
0.00857762
0.12278142
0.34981310
-0.08913874
0.09747505
-0.01675600
0.00787891
-0.08301187
-0.02087924
0.17866004
-0.15297611
-0.09320664
-0.12040758
-0.11366180
0.10905191
0.19418070
0.00889914
-0.03227167
-0.16206542
0.02375003
0.15623888
-0.02151283
-0.03500808
-0.16033754
-0.14734368
0.46025446
0.01737274
0.17595360
0.01235971
-0.12942605
0.11830013
-0.05946929
0.12780201
0.05014422
0.22786497
-0.01368205
-0.01343048
-0.18423419
0.00924110
0.01922576
0.05631876
0.02790878
-0.20098493
-0.05221252
-0.15254366
0.04229914
-0.01374745
-0.12999620
0.10612420
-0.06082574
-0.06162897
0.05956898
0.06224634
-0.06691585
0.02294485
0.02971422
-0.09155859
-0.07771497
-0.09564734
-0.02544082
-0.12769857
0.02895967
-0.01715494
-0.12834111
0.04702368
-0.07106905
0.02432238
0.07148599
-0.07578168
0.03844565
0.06516630
-0.03586407
-0.24229994
0.00097962
-0.13055365
0.05143252
-0.06477136
0.07434950
0.07741859
-0.27598783
0.01482908
-0.00277323
-0.01290188
0.04138673
0.07457440
-0.01160533
-0.25614220
0.10036324
0.06642757
-0.09430473
0.02968036
0.05727515
-0.10381912
0.02940859
0.01907290
-0.15238427
0.03539777
-0.13760349
0.00423087
0.13605426
-0.03680550
0.17818362
0.04860171
-0.11220515
-0.19664434
0.10320317
-0.07068544
-0.15648079
0.16791381
0.24628089
-0.17713505
-0.22245604
0.00589712
-0.14461978
0.01026454
0.15758881
-0.01396872
0.03963083
-0.19992195
0.04596200
-0.22198419
-0.12486591
-0.14109851
0.26755798
-0.13162762
-0.21501467
-0.07406333
-0.05233853
-0.01934354
-0.05052513
0.14387506
-0.09799027
0.06130052
0.08984198
0.02079849
-0.15858731
-0.00535221
-0.03446376
0.12582073
0.02836232
0.13890289
-0.00753308
0.24335188
-0.10746299
0.07284960
0.04616954
0.10123231
0.05459867
-0.21542774
0.01660851
0.03428583
-0.02265202
-0.19827162
-0.13225463
-0.00140726
0.04298304
0.14226650
-0.03916734
-0.04770407
0.01053696
-0.13034792
-0.19936951
-0.01092240
0.06810296
0.19982515
0.08132475
0.04357328
-0.14947762
0.05711905
-0.09863316
-0.13402978
-0.06071047
-0.04221041
0.18030789
0.17959315
-0.00815012
0.10808994
-0.12899835
-0.04212738
0.03420737
-0.12612720
-0.00928885
0.14356852
-0.06568228
-0.08902136
-0.07439020
-0.01135184
-0.04516904
-0.10001888
-0.21113692
-0.03541485
0.01857197
0.00447141
0.06033906
-0.01206083
-0.08524209
0.01373661
-0.06248991
0.17167225
0.04096384
-0.20711331
-0.02097934
-0.07709882
0.12159473
0.13137612
-0.03373379
0.09221192
-0.05544146
0.05644535
0.03131274
-0.04975859
-0.13296394
-0.11850488
-0.00005934
0.05850870
-0.12596162
-0.16219184
0.15672892
0.10559549
-0.04913131
0.12728937
-0.01258127
-0.06893162
0.05932149
-0.10775422
-0.08747497
-0.18744400
0.04385919
-0.03461835
-0.12417669
0.03418535
0.11956470
-0.12089831
-0.13789324
-0.17686422
0.09052365
0.04081665
0.13308446
0.13231279
-0.04076860
0.24810237
-0.10778506
0.00386366
-0.10261769
-0.04033961
-0.02164849
0.20474252
-0.00260073
-0.25912517
0.04626140
-0.05165836
-0.00945683
-0.00155101
-0.08422501
0.02011684
-0.08258875
0.04674993
-0.10284215
-0.17500263
0.08967918
0.06153946
0.01076638
0.21327962
0.08032557
-0.20334734
-0.04607125
0.02525417
0.11261953
0.06907474
0.11700918
-0.09206998
-0.03307199
-0.08374883
0.02800236
-0.01812568
-0.06190191
0.15359184
0.00872795
-0.31439337
0.03126741
-0.04455402
-0.02168890
-0.02338561
-0.00364510
-0.14419129
-0.00082787
0.05479917
-0.07486014
0.22347310
0.10900800
-0.02776265
0.16813944
-0.06808547
-0.02834411
-0.03587220
0.10464320
-0.08660455
0.15168518
-0.00854118
-0.02153826
0.02256926
0.12088922
-0.27628407
-0.07214746
-0.01286032
0.19185980
-0.03016868
-0.00070129
0.03571351
-0.06446811
-0.10739850
0.01439121
-0.11282229
0.19126986
-0.08459279
-0.00484365
-0.01255200
0.15805012
-0.01898210
-0.13393827
0.07487560
-0.00339163
-0.26666501
0.02189339
0.02305266
-0.03853073
-0.32902235
-0.01117863
-0.10973135
-0.03049173
-0.10338172
-0.30732098
0.09041401
-0.00724132
0.00134323
0.03933498
-0.08414287
-0.17050341
0.01439343
0.11205183
-0.08227353
0.08629682
-0.04018103
0.02013102
0.02170346
-0.06407374
-0.07494695
0.12627864
-0.03017495
-0.01843265
-0.16999823
0.16524233
0.10119281
0.10365035
0.20730923
-0.04602744
0.14321195
0.07035720
0.21387506
-0.15603781
-0.11793808
0.04120972
-0.07670581
0.00725812
-0.07202280
-0.06099593
-0.04852926
0.08117940
-0.09906764
-0.00499020
-0.07539307
-0.00935178
-0.03292615
0.12376735
0.14331731
-0.02103296
-0.01302046
0.03883132
-0.00381333
-0.01298361
0.02870035
0.03558203
0.00587536
0.03379650
0.00396639
0.12695782
-0.04791181
-0.05780226
0.02663250
-0.11455537
-0.15381439
0.00256263
0.10567031
-0.02784506
0.13306215
0.26128951
-0.02800526
-0.11242810
-0.01879851
0.00789797
0.03843778
0.16943546
-0.13727099
-0.15623981
0.04195503
0.11083727
0.05553251
-0.15187833
-0.06025955
0.04567443
0.23779272
0.03768032
0.13898143
0.08944801
0.29268110
0.00670843
0.07567956
0.10182105
-0.09923765
0.18507865
-0.09839690
-0.08727336
-0.21181209
0.17609341
0.09233399
0.10173010
-0.03851371
0.12513678
-0.08362240
0.00061252
0.08612054
-0.10334808
-0.03867829
-0.08077250
-0.12525630
0.02763735
-0.09810647
-0.07718853
0.07272990
-0.13072665
0.05248184
0.16218707
0.06927269
-0.03933929
0.05957784
0.02224009
0.02586289
0.03970132
-0.10952742
0.02987936
0.12863553
-0.02131587
-0.07929993
0.00851598
-0.00288929
0.02284243
-0.04746239
0.07341573
0.07163000
0.09595761
0.08783802
-0.10328745
0.02890817
0.02285430
-0.21832806
0.01707201
0.00129341
-0.00627880
-0.01688056
-0.04660029
-0.22866867
-0.07667958
0.02809053
-0.02858261
0.08429688
0.24103263
-0.00474517
-0.07527445
0.08522461
0.05509925
-0.00253731
-0.02832860
0.30121991
0.04332206
-0.10163487
0.07509874
0.03695011
0.08577780
0.07125039
0.26908579
-0.06335091
-0.03429208
-0.12856714
-0.10079763
-0.03456179
0.09569490
-0.16037428
0.03396150
-0.05232555
0.00826317
0.08046875
-0.00819277
0.06038379
-0.00432633
0.16581771
0.36104977
0.08680276
-0.07182948
0.02029539
-0.07217814
0.01464917
0.00416724
-0.02965229
-0.02052553
-0.00105751
-0.03337142
-0.07416162
0.06431589
-0.06131079
-0.02748971
0.04245647
-0.22526069
0.10572448
-0.12571436
0.27349785
-0.13391487
0.06775174
-0.07469115
0.04704776
0.10198187
0.05774785
0.14249356
-0.09210178
-0.10455124
-0.09993308
0.11195189
-0.30213457
-0.23963705
-0.01116614
0.15453298
-0.01839115
0.03704135
-0.01877696
-0.02541176
-0.07019422
-0.18170074
-0.06916428
0.05330601
0.12741973
0.03856649
0.07545450
-0.10247652
0.17124890
-0.17725535
0.09975242
-0.10264362
0.21311155
-0.05368442
0.19963413
0.00539826
0.10929074
-0.05032792
-0.04968405
-0.07833381
-0.05652959
-0.07835802
0.00184137
0.04657655
-0.33847541
-0.12068073
-0.01746901
0.17235824
0.02860928
-0.01039964
-0.02790298
0.03848520
-0.07342392
-0.10194649
0.03739566
-0.00865110
0.04167967
-0.02722196
0.05330278
-0.02915047
0.07781750
-0.01087265
-0.09607435
-0.26589733
0.12483575
-0.05575430
0.04352313
0.08043488
-0.06744999
-0.07062857
-0.09424005
0.03090853
-0.06736496
-0.01658941
-0.05492401
0.11838917
-0.05073049
-0.03920446
-0.11086877
0.12198327
-0.05268743
-0.16813572
-0.16613503
0.12018463
-0.07040516
-0.03194178
0.16080625
-0.04798227
-0.04655628
-0.04608057
0.27981898
-0.02937890
-0.03193880
-0.12990279
0.05469624
-0.07139461
0.25502014
0.29412317
0.12335573
-0.03772665
0.26140076
-0.11144080
0.17517047
0.21205997
-0.29109457
0.00690586
0.19477554
-0.04770916
-0.30643198
-0.14997499
-0.12739085
0.14607558
0.04143820
-0.06209630
-0.03787694
-0.01692666
-0.03278524
-0.04035239
-0.06001069
-0.01751184
0.17741387
0.11417615
0.20261942
-0.15931597
0.02241636
-0.06383459
0.01653755
-0.05117469
0.23527320
0.22262450
-0.05653985
0.00329609
-0.09885629
-0.05072002
0.04322691
0.17841278
-0.13842632
0.06660075
-0.04895355
-0.12890096
-0.22979137
0.00672674
-0.17607848
0.28528684
-0.01020376
-0.03359060
-0.10661650
0.02391714
-0.04527975
0.03420078
0.16301042
-0.03606665
0.09964582
0.13170801
0.06223782
-0.15854414
0.11265723
-0.09009549
0.08491376
-0.06371872
0.16709071
0.10591137
-0.08622910
-0.00952650
-0.03375355
0.11098360
-0.03658652
0.20520210
-0.04725236
0.01383168
0.08290126
-0.24689712
-0.22912276
0.18421246
-0.08913501
0.12682036
0.05863933
0.14106010
-0.11708240
-0.06949811
-0.12922111
0.00083148
-0.12772235
0.06400584
0.18110840
-0.06816533
0.02947959
-0.19268404
0.07226925
0.08648757
0.04255395
0.04774342
0.10346690
0.02500404
-0.05807124
0.03126856
0.02985022
0.10098536
-0.09779520
-0.09187072
0.02601511
0.07053521
0.04010642
-0.03961358
-0.04205903
-0.00526646
0.09027454
0.10156723
0.01901420
0.01103650
-0.00260918
0.02373090
0.05790930
-0.06277635
-0.09663712
0.10387629
-0.14779584
0.01435021
0.22991827
0.04785544
0.14401451
0.00263743
-0.08904954
-0.07734898
0.14896347
0.14053290
-0.14044254
0.08803339
0.11160658
0.07651258
-0.03066381
-0.04337426
0.02410935
-0.01287360
0.07072046
-0.01472624
-0.21023524
0.10338992
0.00503020
0.14653671
-0.01037558
0.04675565
0.05173095
0.09326582
0.06216142
-0.00841816
0.03084465
0.05196805
0.03289073
-0.02175188
0.04996076
0.05823962
0.23318638
-0.01732647
-0.04411547
-0.06578275
0.15047669
0.12243535
-0.11666546
0.08127772
0.06182352
0.09213412
0.09001607
-0.09859965
-0.08400441
-0.13985480
-0.07353714
0.00862975
-0.23739481
-0.02446133
-0.02859462
0.14840570
-0.03374011
0.13372171
-0.00654056
-0.01611979
0.04629028
0.05621197
-0.06859122
-0.00466541
0.05880472
0.01741048
-0.13379654
0.05613214
0.12681448
0.10216514
-0.08712696
-0.02806389
-0.08950823
0.05204035
-0.04960597
-0.08972434
-0.15661106
0.13455161
-0.15981036
0.15244175
0.13968609
-0.03007596
-0.27518564
0.08098969
0.00957164
0.01873421
-0.22449459
0.21942474
-0.21237372
0.03724185
-0.11861559
-0.03975901
0.11589824
-0.00314180
0.29178876
0.02858740
0.01558975
0.23669893
0.24666061
-0.11094416
0.03695795
0.15351641
-0.17902729
-0.17364484
-0.12209903
0.12545080
-0.14320691
-0.06091420
0.02612430
0.07438003
-0.12362050
0.01147084
0.17408498
0.00409142
-0.16343828
-0.06092235
0.05020864
0.12876365
-0.09034125
0.15750399
-0.27917236
-0.04414575
0.00736557
0.03169356
0.14804406
0.05927850
0.25519601
-0.07877992
0.04422006
0.19744244
0.06276699
0.00426851
0.03133153
0.33418912
0.08773313
0.05400411
-0.06193487
0.10980075
-0.24115825
0.01557698
-0.04605494
0.15563957
-0.12418973
-0.07895213
0.13687730
-0.01408025
-0.13260439
-0.02023090
-0.12399086
0.12588020
-0.06191302
0.09877338
-0.06902637
0.07237126
0.21170595
-0.05974939
0.03144958
-0.01256296
0.01518901
0.07060420
-0.11948115
-0.00298310
-0.13865224
0.05075299
0.31438342
-0.32308155
-0.18224519
0.09620065
-0.09439996
0.25954002
-0.04338122
-0.25555176
-0.01792024
0.00455188
-0.15717967
0.15859002
0.05477961
-0.20801154
0.01193683
-0.04204512
-0.24169394
-0.12257178
-0.12785156
0.10438827
-0.05711443
0.17017825
-0.02416861
-0.01627735
0.15081824
0.12252717
-0.20701456
0.24312322
0.05064093
-0.05454413
-0.13991946
-0.07221349
-0.21508248
-0.40096533
-0.20744324
-0.08034232
0.06553490
0.53854918
-0.09918472
-0.21348980
0.01341150
-0.21092324
-0.10067078
0.14676152
-0.06794105
-0.31872961
0.17631125
-0.12835573
-0.13404539
-0.10482847
-0.17966954
0.06145450
-0.20311017
0.23033501
-0.15944551
0.08974414
0.28612909
0.21282311
0.00021814
0.04825023
0.18566118
-0.08726882
0.01000121
-0.13434614
-0.31870708
-0.29113916
-0.09532163
0.06029257
0.27951828
0.32465085
-0.04820820
-0.18228526
-0.06084504
0.12827207
-0.21140184
0.03870433
-0.03837185
-0.35424927
0.08976597
-0.12506820
-0.18533692
-0.04303461
-0.12879133
0.17131566
0.02577068
0.37917387
-0.09937092
0.07641559
0.19780812
0.15558541
0.01836212
0.26139727
0.19658478
-0.12683628
0.03653169
-0.13906413
-0.15853719
-0.02707889
-0.09767715
-0.09755784
-0.00569330
0.09593545
-0.03426440
-0.06691591
-0.00618524
-0.08270182
-0.14450811
0.02566111
-0.09261154
-0.25884017
-0.03125228
-0.10118973
0.03156371
0.08105434
0.07957245
0.01649994
0.06887152
-0.25569922
-0.02998438
0.09176390
-0.10269558
0.04987688
-0.02309162
0.00365034
-0.00482753
-0.23332204
-0.14822119
0.02294286
-0.11518484
-0.08945636
0.05973507
-0.05038559
0.18372729
0.01428789
0.08490768
-0.05690172
0.00841969
-0.00672392
-0.13979883
0.16041835
-0.19727050
-0.16871142
-0.07956796
-0.24869950
-0.12954053
-0.02569613
0.01683793
0.18200324
0.15614845
-0.20927824
0.00516084
0.05570309
-0.13862970
-0.11717578
0.06556147
0.09450267
0.15632223
-0.06823825
0.19350120
-0.16726008
-0.11357874
-0.06071431
-0.05740938
-0.02932039
0.04207579
0.08053394
0.11437681
0.04671239
0.03691299
-0.02579207
-0.13854593
0.07753663
-0.12992139
-0.09487823
0.07779015
-0.25239414
-0.13036491
-0.03714505
-0.03683263
0.09623372
0.09264936
-0.39134455
-0.03360888
0.01824544
-0.14105377
-0.02245858
0.02501901
0.03400568
0.13409628
-0.16941412
0.17855480
-0.02004301
-0.16328819
0.03758598
0.09754992
0.05944451
-0.02423741
-0.11511424
0.02956626
-0.00145200
0.04484003
0.12417790
0.02469020
-0.07267068
-0.05853321
-0.06787517
-0.11073790
-0.03217059
0.18884113
-0.15535989
0.10107004
0.01750809
0.06673230
-0.06712694
-0.05261859
-0.09427384
-0.11430257
0.01802411
-0.07676193
0.20719594
-0.00346320
0.04222902
-0.08113254
-0.02155491
0.12459612
-0.08283557
-0.16840284
-0.07992308
0.07804863
0.11292482
0.04000767
-0.03149288
0.01389890
-0.04973668
-0.05522988
-0.02350342
0.02311226
-0.04771592
-0.05254552
0.01326430
0.05092587
-0.04804281
-0.07288436
0.12787677
-0.12591408
-0.24457158
-0.10336250
0.12919198
0.06456974
0.09016645
0.28590643
-0.08919059
0.01213946
-0.07941915
0.17617452
0.06929618
0.00581716
-0.04016023
-0.00364655
0.07206245
0.17571364
-0.00697678
0.18904169
-0.05083783
0.01993114
0.09486824
-0.06127214
-0.12464265
-0.06349713
-0.07774192
0.12177898
-0.05750474
-0.26212403
0.29452044
0.11100651
0.16316919
0.11017151
0.00951520
0.07015029
0.14714862
0.00611317
0.02331202
-0.03952990
0.05435081
-0.08455955
-0.14562635
0.13163055
0.15819892
0.18530227
0.18588501
-0.01541005
0.05835048
0.00030061
0.02638254
-0.26710710
-0.10510798
-0.00956436
0.17936498
-0.05742874
-0.05669769
0.23384024
-0.14159235
-0.19203299
0.19586271
0.01516488
-0.00047810
-0.02875795
-0.03946724
-0.16708115
0.08572492
-0.05643108
-0.17067900
0.03078152
-0.05344542
-0.21293919
0.00148948
-0.03074593
0.01456468
-0.21142058
0.06138678
-0.07113030
0.14257176
0.01193399
-0.03590816
0.11500537
0.02550081
-0.30395222
-0.07855457
-0.05528080
0.25100219
-0.08210737
0.00902543
0.15274790
-0.02958735
-0.38567773
0.17294596
-0.07730359
-0.04589798
0.03665693
0.12355056
-0.15204713
0.02238141
0.03806574
-0.07906294
0.12205092
-0.18905251
-0.02579651
0.08924688
-0.05588345
0.12663925
-0.14025332
-0.05254386
0.14944017
0.13665041
0.03818121
-0.00404882
0.04888798
0.08762335
-0.19379266
-0.02622833
0.15771817
0.08925241
-0.05835072
0.16773660
0.09428712
0.00066415
-0.06040228
0.16200930
-0.05698333
-0.08016606
-0.09565122
0.09016120
-0.23672363
-0.24497616
-0.01644475
-0.14601766
0.02502577
-0.17275836
0.03475991
-0.06342955
0.04622000
0.15540870
-0.03654223
-0.07415583
0.06081982
0.03323087
0.02750507
0.03737916
0.03578854
-0.01278444
0.11269394
-0.09490851
0.03277325
0.05305049
-0.00884774
0.01803653
-0.11744381
-0.09191889
0.06906236
-0.10808964
-0.13404605
0.09905630
-0.03581614
0.01519735
0.01855855
0.03718021
0.05351556
-0.03676289
-0.06784639
-0.03551899
0.14420326
-0.03302549
-0.01172223
0.00274157
0.09967340
-0.04592659
0.05824313
0.12380034
0.10687471
0.07219168
0.02096267
-0.15024479
-0.02434864
-0.09504012
-0.25646800
0.12708940
-0.14229150
-0.02311469
0.17913470
-0.00620681
-0.47494990
-0.03578223
0.13745910
0.00982575
0.04309015
0.08989537
-0.09114914
-0.04681744
0.01662751
-0.09678845
0.03823182
0.00621336
0.17985703
-0.04675582
-0.10055692
-0.00427943
0.00590254
-0.05509574
0.04978236
0.21368635
0.11270498
-0.02184348
-0.00925680
-0.12118994
-0.05294013
-0.06101657
0.04706535
-0.03858060
-0.00842670
0.00217288
0.03698168
0.01177665
-0.02576996
0.06199135
-0.03005525
0.04308483
-0.05345085
0.00393226
-0.09234418
-0.05975213
0.06518667
-0.12571760
-0.01057624
-0.06626038
0.09104547
0.02760883
0.05122041
0.10124093
0.01168780
-0.06559167
0.08954354
0.14324503
0.13473779
0.03727657
-0.29657313
-0.08366934
0.10222930
0.08999605
0.11109339
-0.03177115
0.04040332
-0.20231022
-0.06008930
0.07899450
0.14201812
-0.01162779
0.25506115
0.05521641
0.06502233
-0.02602114
0.10653220
0.12589943
0.02613468
0.12246580
0.04679101
-0.02080151
0.06150390
0.03230694
-0.16288634
0.03960801
-0.03952723
0.14903767
0.01470455
0.11877338
0.11996430
0.10844302
-0.12385824
-0.02803764
0.02012703
0.08393542
0.07245395
-0.01763808
0.06015662
-0.28956297
-0.02374975
-0.09038948
0.14636050
0.04587380
0.09104519
-0.00074273
0.04625899
-0.05066440
0.04088874
0.10749755
0.11199217
0.07289632
0.13869423
0.04343440
-0.00494703
0.04765444
-0.02605129
0.09953898
-0.06850425
0.15451972
0.02598572
0.07881899
0.09685733
-0.01165226
-0.14056204
-0.08799148
-0.03012628
0.12958845
0.04389094
0.04700761
0.12320283
-0.24655454
-0.02766096
-0.05572348
0.08286986
0.01374207
0.04846391
0.01783885
0.08764957
-0.02071360
0.03728692
0.25302401
0.06709508
0.07241364
0.09740279
0.05402381
0.07120381
0.04451172
-0.01179984
0.11487640
-0.02834306
0.14964937
0.07326938
0.08361911
0.01080216
0.16077733
0.12595984
0.00844382
-0.05828099
0.10535897
-0.07035789
0.17016092
-0.12459914
0.02971188
0.03364077
0.13310795
0.11914034
-0.23247565
-0.08786090
0.12632532
0.06932603
-0.06091095
0.09940832
0.09557349
-0.05404890
0.04529878
-0.08191020
0.04945175
-0.09523780
0.14479168
-0.05208383
-0.10712298
-0.10375728
0.01705992
0.21427022
-0.08478384
0.00152759
0.00856905
-0.05737752
-0.09503935
-0.10906647
-0.06360050
-0.23614693
0.18461132
-0.18722081
0.16160944
0.13718088
0.04202367
-0.22672245
-0.14462170
0.06481694
0.17329261
-0.11293090
-0.06858084
0.11109374
0.05802397
-0.19034037
-0.05047894
-0.07353742
-0.04249991
-0.01204685
-0.02269434
0.04222064
-0.09766467
-0.11475170
-0.20729043
0.00993759
-0.08662568
0.08243161
0.00163595
-0.03138802
0.04838480
0.13159475
-0.10045875
0.02612026
0.19093424
0.00758411
0.16612230
0.01324950
-0.05617082
-0.04537034
-0.17659497
0.03689273
-0.01904549
0.02571099
0.11448506
0.16907465
0.17078789
-0.08950608
-0.01688333
-0.05865513
-0.06521107
0.01363866
0.07608901
0.09219625
0.00070241
-0.05013009
-0.07137420
-0.08064791
-0.09628528
0.00301150
0.15617603
-0.12128072
0.11974853
-0.04015163
0.10741555
-0.02524327
0.01955675
0.04545693
0.06621969
0.09152481
0.05100546
0.00508740
-0.00343475
0.14756174
-0.03236553
-0.01266583
-0.25957721
-0.04479149
0.11184372
-0.00396448
-0.12065244
0.06332571
0.01529052
-0.17002703
0.17908671
0.01411002
0.03568475
-0.09389128
-0.02912376
-0.11557359
-0.16113539
-0.06793548
0.04453608
-0.08337439
0.19538932
-0.06586182
0.05530102
-0.01004948
0.03700412
-0.05274302
0.02727148
0.15322846
-0.05465255
0.04017489
0.03550480
-0.08705944
0.04378365
-0.18469180
-0.00715052
-0.11106987
0.09576796
0.00516782
-0.03962541
0.22648087
0.24484879
0.00463602
0.04730720
0.08799206
0.01683760
0.06220121
-0.01912323
-0.14949219
-0.05618499
0.02215904
0.02234669
-0.06344651
0.02522104
-0.02659321
0.04551383
0.03295961
0.14852951
0.03444752
-0.05101387
-0.02220208
-0.10197622
0.17333005
-0.13463095
-0.06932184
0.01264449
-0.13293251
0.05228594
0.00105009
0.27665946
0.00430942
-0.00740174
0.06604541
0.16768160
0.04771835
0.08190264
0.16950487
-0.01722741
0.07326122
0.03243214
-0.04677002
0.11912609
0.03544961
0.00810048
0.03806818
-0.00755993
-0.11370508
-0.03512300
0.03447400
-0.02823623
0.18265177
-0.01853671
0.03131578
0.02871678
-0.16666892
0.19551320
-0.05079231
0.03145359
-0.08789607
0.05283280
-0.14479084
0.04223508
0.03220819
0.01200046
0.10481980
0.00523679
0.12933691
0.08277152
0.08925998
0.19817688
0.08926562
0.11909971
0.16596909
0.15166090
-0.00472458
0.06122278
-0.08373978
0.01390549
-0.11648437
0.01752820
0.01061801
-0.01853134
0.14031380
-0.12703018
0.13033429
0.05117731
-0.03236711
0.18900743
0.09094036
-0.10360767
-0.01699659
-0.04251853
-0.10833920
0.09597230
0.02755992
-0.02355090
0.11830502
0.04341178
0.08922184
0.00885290
-0.07043023
0.25203475
-0.07625802
0.18671311
0.14216124
0.12625121
0.08692568
0.01788799
-0.07613197
-0.12302992
-0.09575535
-0.00194595
0.04114340
0.04331513
0.18630084
-0.12072064
0.04672317
0.23336785
-0.04814293
0.19889638
0.02023942
-0.04073884
-0.01689555
-0.07421296
-0.07443310
0.12944673
0.08156542
-0.03084618
0.04130255
-0.00554562
0.09538969
0.03140024
0.03263293
0.15905038
0.11295225
0.19563679
0.14230232
-0.11877958
-0.16227773
0.00704378
-0.06692308
0.18415447
-0.06651089
-0.13848114
0.12829168
-0.02404712
-0.01657569
-0.01912617
0.13600524
0.04620294
0.00772534
0.05492843
-0.00275557
-0.07440861
-0.14080282
-0.02296786
-0.08679324
0.16496134
0.04959872
-0.06621717
0.08120090
-0.04210823
-0.07777622
0.02941616
-0.02023705
0.05505474
0.08162950
-0.02858510
-0.15097973
-0.11457498
-0.08733747
0.00708203
-0.08337165
0.02141697
0.03140940
-0.17762774
0.04206406
0.03312697
-0.03154211
0.10282582
0.11276533
0.08444548
-0.09401514
-0.09699381
-0.05182136
-0.17498310
-0.09281314
0.23067258
0.01382075
0.16250066
0.01021902
-0.07413004
0.03804939
-0.07752725
0.01729251
0.22069679
0.12014894
0.19677670
0.04943930
-0.12600994
-0.04163687
-0.04202928
-0.12628536
0.02244950
-0.20827737
0.05956642
0.18768038
-0.20776150
0.08257209
0.01572181
0.01484311
-0.00077074
-0.00931397
-0.00388678
0.21917424
-0.11195486
-0.01373777
-0.07542560
-0.06088249
-0.01983207
-0.02974159
0.14163996
-0.00335261
-0.08860657
-0.00759001
0.03029286
-0.17324711
0.03692592
0.02840214
0.04245731
0.01318260
0.00586591
-0.18882330
0.24751861
-0.04133446
0.01733682
0.20003860
0.01679698
-0.07591226
0.06824896
-0.04909627
0.13788240
-0.13475667
0.06206687
-0.00697463
-0.01173888
0.13640632
-0.10044920
0.04993955
0.24692598
0.06291787
0.02613733
0.04216274
-0.08814912
-0.03691775
0.17946437
-0.03318117
0.01142587
0.16765864
-0.08111603
-0.19451150
-0.01087680
0.10538754
0.01276781
0.19047342
0.04474537
-0.13186540
0.06712415
-0.02911115
-0.10706153
-0.12956341
-0.06876773
-0.12811066
0.25788665
-0.08683456
0.13463275
0.11357311
0.02710280
-0.17842023
-0.19218633
0.10481548
0.15486667
-0.02854537
0.10570193
0.21484806
0.12217596
-0.05717361
0.04903070
-0.11225724
-0.14990160
0.17203321
0.04091859
0.03996566
0.11233827
-0.01765620
-0.12180294
0.16406113
-0.00922726
0.08388609
0.04745203
0.05646537
-0.04745863
-0.08685381
0.03259508
0.08082586
0.23599778
0.09437472
0.03570506
-0.13907802
-0.03462559
0.15193358
-0.11162756
-0.07105854
-0.00370222
0.03631774
0.07865626
0.11463096
0.27650470
-0.04119146
0.14459376
-0.07878297
-0.04951874
-0.03455039
0.01464585
-0.03417356
0.10905704
-0.18552652
0.01944597
0.23086999
-0.00164385
-0.09517033
-0.03961723
0.04461013
0.03657721
0.03203288
0.02110667
0.15010664
0.02478348
0.04481474
-0.08821328
0.00745859
-0.06131749
0.10673004
-0.02031313
-0.07261594
-0.05955910
0.06881665
0.07333851
-0.05152436
-0.06574652
-0.00497799
0.00067162
0.07639024
0.05916414
0.05467489
-0.00897172
-0.02267131
0.05940250
0.08120008
-0.00431449
0.06174446
0.03072300
0.04140098
-0.00247738
0.05911341
-0.01458642
-0.00106132
-0.00440211
-0.02587375
0.05976146
-0.04886483
0.03425537
-0.01658027
0.04781531
0.00797480
-0.06841715
-0.08160426
0.01793393
-0.07547211
0.10761390
0.00732894
0.02464511
0.02135915
0.01768889
0.00793476
-0.05261233
0.00944318
0.02861053
0.00066336
0.10446353
0.06577358
-0.09558551
-0.02036213
0.04703143
0.10489348
0.06041555
-0.03003862
0.05154205
0.04719353
-0.05670962
-0.05367280
0.03564133
0.05343748
0.09085638
-0.05242192
0.02142313
0.02405752
-0.13001324
0.00984499
0.00331607
-0.02691460
0.00917919
0.08120783
0.00847943
-0.02834155
0.00072060
-0.00441454
-0.02336172
0.06801506
-0.00842442
-0.01407251
0.07174420
-0.01565405
-0.00007719
0.03872631
-0.05723733
-0.07100000
0.02610059
-0.06839325
-0.04612074
0.08616696
-0.08997565
-0.01391711
-0.08682067
0.03177723
-0.06342148
0.02136077
-0.13738170
-0.07813098
-0.01341041
0.10263106
0.09926775
0.03145604
-0.00386880
0.04116896
0.13838564
0.08212702
-0.00881591
-0.03304385
0.03125462
-0.00786531
-0.00114661
-0.00940784
-0.03574449
-0.01565162
-0.01589552
-0.17750621
-0.00521765
0.07617989
-0.12049098
0.03174349
0.07917938
0.01451094
-0.06388002
0.01261803
-0.11270534
0.01435186
-0.02820685
-0.13881415
-0.08951165
0.06325524
-0.05244099
-0.00918731
-0.04355106
0.06837770
0.10709774
0.08198799
0.02323353
-0.01083375
0.02855667
0.05001425
-0.02764173
0.01344924
0.06206125
0.10672990
0.16443473
-0.01651733
0.03847361
-0.04397740
0.08410462
-0.06190118
-0.07182717
-0.09942139
0.00660022
-0.13216354
-0.06424554
-0.03824089
-0.00491462
0.00507347
-0.00732777
0.00879069
-0.04113276
-0.00310695
0.01040289
0.03014429
-0.00981073
-0.02827014
0.01267952
-0.04457445
-0.04252688
0.00220202
-0.01216418
0.01614418
0.01674557
-0.04095160
-0.02719564
0.06558678
0.07340450
-0.08288495
0.06693478
0.02299948
0.01498136
-0.00195585
0.00951684
0.04924715
-0.05239236
0.09642536
-0.03640271
0.00236217
0.05926412
0.04947748
-0.08447639
-0.00890788
-0.10382622
-0.00122752
0.00475390
-0.13331811
0.17139006
-0.02540682
0.05802389
0.08771308
0.00152614
0.09226608
0.05256452
0.09792748
-0.04397120
0.15052491
0.12974629
0.04947786
0.12088415
0.20005032
0.03126417
0.04685310
0.08973265
-0.06078574
0.00780909
-0.05424610
-0.02030560
-0.09648650
-0.09009150
-0.02296837
0.03669812
-0.05502929
0.00134140
-0.00862287
-0.00085711
0.04877902
-0.10401890
0.06475336
-0.02138471
-0.02931924
0.04114033
-0.06082416
0.04127441
0.00165914
0.03744904
0.03938325
0.06612007
0.05352068
0.02587631
0.00887134
0.04039079
-0.01407491
-0.01107411
-0.05835179
0.07308067
-0.17728202
-0.01902448
-0.24967915
-0.05177379
-0.17859478
-0.08338589
-0.25940284
0.05144229
-0.13028210
0.13434874
0.10636286
0.01577320
-0.16125196
-0.05729529
0.04970741
0.03224270
-0.04923476
0.02879319
-0.06534139
-0.02769316
-0.05614265
0.01229930
-0.03586660
0.08699086
0.02623216
-0.02885146
0.07084808
-0.11655454
-0.11572211
0.02269608
0.01647572
0.06661714
-0.00678633
-0.12968098
-0.04984802
-0.03613681
-0.22467087
-0.02194674
-0.22197945
0.00469720
0.00875134
0.04790314
0.05135178
0.05500109
0.00958025
-0.00541674
0.01713330
0.07619395
-0.01763756
-0.04443840
-0.01886186
-0.06865950
-0.12987943
0.06749947
-0.00230969
0.14856453
0.15251802
-0.18466462
0.02564680
-0.00147008
-0.07094675
-0.02828162
0.08035354
0.06038769
-0.03058054
0.05127197
0.07082775
-0.19685398
-0.07912206
0.07552002
-0.08061224
0.22352172
0.04273755
-0.08798583
0.05214852
-0.03850934
0.05875109
-0.00417642
0.01921546
0.08281732
0.03961166
-0.04867744
0.06690101
0.20069635
0.03236017
0.03989867
-0.10204560
-0.04874983
-0.00857830
0.00035841
0.04728210
0.00845720
-0.13124609
0.05578504
0.25774300
-0.02748308
0.10458229
0.07771268
0.10129663
0.02787859
-0.06848200
-0.01402186
0.00164370
0.12923779
0.16333403
-0.05787294
-0.03035145
0.02274269
0.04534039
0.05764674
-0.04104508
-0.09047762
0.03110014
0.08037665
0.07333076
0.02863150
0.06948875
0.16287906
0.00866125
0.02018429
0.03610249
-0.02642833
0.11297882
0.04152527
-0.17255068
0.01534087
0.28939730
-0.05545361
-0.01497953
-0.07893740
0.19899830
-0.11293764
0.01470848
0.13685381
0.06162016
-0.14044678
0.07322013
0.02089240
-0.13664795
-0.03804978
0.17068170
-0.04668435
-0.03263958
-0.00044208
-0.04374786
-0.14742064
0.10338341
-0.11097491
-0.05781355
0.10501450
-0.15417276
0.05271700
-0.02056418
-0.11013528
0.02603856
-0.07764614
0.10580719
-0.00993227
0.06891967
-0.06444419
0.20688465
-0.03812025
0.13105917
-0.13755992
0.01377344
0.10030846
-0.00822605
-0.01258232
0.07315088
-0.10275054
-0.16365974
-0.05021570
-0.12506847
-0.03545757
-0.11983650
-0.04940964
0.06729546
-0.04612006
0.17989807
-0.03839057
-0.03222390
-0.03663445
-0.09446988
0.01770567
-0.12079046
0.03520253
0.13353117
-0.06684326
-0.00169114
-0.01272399
0.12787785
-0.23292866
0.05692362
-0.11301079
-0.00689147
-0.02544572
0.08427253
0.03923201
0.09133812
0.03967720
0.16454744
0.01033383
-0.23562165
0.00404889
0.19550797
-0.07093924
-0.05455565
0.01033302
-0.03323752
-0.06897049
0.15732618
0.08584480
-0.20860639
-0.06895348
-0.31597182
-0.09046914
-0.18204054
-0.11381083
0.17658055
-0.10255472
0.06875205
-0.09902907
0.12328057
0.15524371
-0.04466009
0.10957864
0.20236503
0.03869769
-0.29137129
-0.13072036
-0.15540262
0.05732705
-0.08318766
-0.02492992
-0.10674233
-0.06967855
-0.01949758
-0.05428915
-0.01828929
0.15207832
0.05845132
0.13658904
0.07259651
0.03270757
0.03540047
0.16256779
-0.01084671
-0.14822471
-0.02106779
0.03033974
-0.13155968
0.03767717
-0.17149666
-0.03598063
0.26233402
-0.11236787
0.00124836
-0.02017498
0.11260810
0.05950930
-0.11580432
-0.06814604
0.03149451
0.15255187
0.00109388
0.11536305
-0.04304371
0.02794806
0.01530029
-0.02926184
-0.15581495
0.22490314
-0.01950398
0.19810244
0.05543462
0.07974907
0.04730837
0.12537594
-0.10573275
-0.17086479
0.00106865
0.04323016
-0.09477577
0.03026074
0.03820422
-0.06572577
0.15140490
-0.04902553
0.07120044
-0.08210230
0.16587202
0.27362123
-0.03985379
-0.07531419
0.08804388
0.01354768
-0.03672408
0.11888190
-0.13063504
0.05270065
0.13786973
-0.12323449
-0.09187749
0.09309372
-0.00555841
0.14573126
0.01579550
0.03633763
-0.02102128
0.17249243
-0.09616751
-0.13190293
-0.01381962
-0.02393887
-0.07266239
-0.03199111
-0.04565036
-0.16573666
0.08427509
-0.02781885
0.16309026
0.04384011
-0.04922269
-0.07263614
0.02211034
0.04544295
0.12047102
0.08267744
0.07466005
-0.02063709
-0.07117734
-0.25967088
-0.00815216
0.06284596
0.03435390
-0.12684332
0.00861652
-0.09145930
0.13092940
0.05175686
0.03292050
-0.10681121
-0.07849322
-0.12411915
-0.12766452
0.03708444
0.00063341
0.02812167
0.01174689
-0.00113065
0.02945503
0.02475942
0.00427030
-0.12073637
0.01392418
-0.07948992
0.17400113
-0.04075113
-0.01031888
0.04022529
-0.03613256
0.01147932
0.14569695
-0.03971110
-0.19842842
-0.03187684
-0.05748061
0.03331772
-0.05336680
0.13346472
-0.03628095
-0.07805121
0.01063218
-0.01222233
0.09926964
-0.01958244
0.27649313
0.07112543
0.00681520
0.09367090
0.35759211
0.02717899
-0.00209815
0.13171652
-0.01684467
-0.05703436
-0.08371881
0.05721505
0.16881031
0.00372694
0.04919851
-0.11450268
-0.19881566
0.05295878
0.08307699
0.11090202
0.31014875
-0.12830883
-0.10787918
0.31126073
-0.17623411
0.05061371
-0.04527323
-0.11071032
0.03482406
0.12432004
0.18806659
0.06480628
0.28516328
0.04971577
-0.14100395
0.13782288
0.40275013
-0.04517920
-0.11569954
0.02196623
0.00867810
0.00416357
0.11555199
0.18840611
0.00899084
-0.07894392
0.06822698
0.17470600
-0.09139197
-0.01436080
-0.03103558
0.00406546
0.05908822
-0.07941119
-0.14562969
0.06202549
-0.02604785
-0.00351657
0.02003832
-0.12556253
-0.13413583
-0.06298116
0.01930230
-0.04796948
0.02980242
0.21099308
0.15541208
-0.01680253
0.15973380
-0.07961560
-0.14687265
-0.00202113
-0.06855325
-0.09587503
0.27166063
0.01320181
-0.04785752
-0.12522541
-0.03684594
0.04409084
-0.04775471
-0.05672898
0.03891383
0.04911976
-0.21778308
-0.02464687
-0.18415394
-0.14062575
-0.12811629
0.21441440
0.04185503
-0.08497186
-0.10770923
-0.04841641
0.07064363
-0.02837111
0.13774402
0.01909023
0.25471464
0.08978843
0.13335092
-0.05509583
-0.12279957
0.05401289
0.11453439
-0.05653018
0.07216299
-0.00682930
-0.06040219
-0.08025404
-0.09993427
0.23059249
0.02940261
-0.05705409
-0.07170025
-0.02241471
-0.00755468
-0.03668772
-0.04761529
0.05876002
-0.03738657
-0.01424592
0.22668892
0.15959059
-0.09618913
-0.08076339
-0.25801688
-0.31734508
-0.25153509
0.09793425
0.12114657
-0.01722168
-0.19732511
-0.05815431
-0.06015889
-0.01476521
0.00009840
0.10542769
-0.22533920
-0.00065756
0.25230861
-0.00666798
-0.00102723
-0.08533212
-0.02129169
0.03835136
-0.15878031
-0.03088129
0.15682107
-0.16867585
0.00844101
-0.01875964
0.09132767
-0.08902642
0.20248875
0.02920825
0.04825853
0.11815061
0.03131356
0.05004505
-0.05547872
-0.03134927
0.05613630
-0.02051338
0.05477035
0.03663017
-0.08978647
0.03924181
0.11309750
0.00978282
0.12295699
0.09340531
0.03883628
0.03621877
-0.19088224
-0.11104435
0.09863289
0.05273743
-0.19315377
0.02696395
-0.18220694
-0.14694759
-0.11924338
-0.10731866
-0.05610962
0.23324196
0.02107019
0.00999481
0.07580466
0.18628138
0.04649087
0.12068905
0.23345402
0.01508802
0.23279716
0.13991670
0.02365240
0.01285349
0.05619274
0.08671203
-0.04565325
0.01746887
-0.05523279
-0.01139910
-0.03568980
0.10229485
-0.07816008
0.10280113
-0.01007513
-0.04380026
-0.03551944
0.04029438
0.17810747
-0.08492362
0.03095738
0.11947045
0.06692129
-0.08961463
0.05642055
0.04953209
0.05490459
0.00340510
-0.01152986
0.08698054
-0.12789597
-0.01851989
-0.07464361
-0.12043659
-0.14470807
0.05007575
0.04135698
-0.14236395
-0.02922187
0.20544891
0.09128097
-0.08108681
0.24059944
-0.10996704
0.08058443
0.24298351
0.00473189
0.06499868
-0.09744836
0.03839728
0.03695802
-0.24191467
-0.22121517
-0.08018015
0.02051135
0.09957590
0.30425358
-0.01199902
-0.00046531
-0.02121411
-0.13578039
-0.16971117
-0.08358192
0.32655841
0.14391209
-0.08405199
0.08078025
-0.14109814
0.08621787
-0.15743951
-0.16265991
0.00518263
0.19159274
0.03567926
0.00264793
-0.12727208
0.10771407
0.06381642
-0.02768204
0.22589196
-0.15250528
-0.14492267
-0.01342339
-0.17862310
-0.23130247
-0.06225722
-0.11532797
0.14299330
0.07680074
-0.12753759
-0.15851523
0.02091876
-0.15466766
-0.10612012
-0.08824106
0.05659376
0.24739829
-0.03165109
0.03360180
-0.14728683
0.00015823
-0.22150847
-0.08616753
-0.04411917
0.27957690
0.07982436
-0.11943717
-0.20114326
0.00681759
0.17813142
-0.00523462
0.11994658
-0.05501712
-0.13672286
-0.00286112
-0.08958772
-0.27561530
-0.06592122
-0.01499151
0.27207994
0.05321540
-0.02045127
-0.07644424
0.07130221
-0.15580718
0.00834019
-0.07754349
0.09792226
0.11728238
0.00641246
-0.01843103
-0.16637114
0.11862418
0.10088229
0.15690593
0.00398249
-0.00562235
-0.10314890
-0.01786107
-0.14317548
-0.00868623
0.25562802
-0.08633193
0.12727141
0.07413293
-0.09013055
0.10136769
-0.19606839
0.04985988
0.27968752
-0.11526020
0.12515414
0.18647586
0.13352096
-0.05189586
-0.09471788
-0.15604149
-0.12529074
-0.04116366
0.15660036
-0.06036532
0.10901157
0.10243563
-0.25145215
0.20483103
-0.00686004
0.05606413
0.11974116
-0.13177381
-0.24785171
0.24156836
-0.01026450
-0.08123989
0.39872727
-0.12474567
-0.07422379
0.16637555
0.00927192
-0.13226748
-0.17027023
-0.12405340
0.08491650
0.06623055
0.16277400
0.27697858
0.32990009
0.11067985
-0.20064294
0.01271852
-0.17245649
0.10748344
0.29778016
0.11101017
0.19265895
0.09944468
0.03332583
0.09271577
-0.02505662
0.10145748
0.19940437
-0.20870680
-0.10073705
0.29673553
0.10413003
0.11507379
0.06182797
-0.10127986
-0.34174755
0.03893419
-0.00817113
0.12481539
-0.10921224
-0.06962156
-0.00925028
0.25761226
0.01498254
0.19703686
0.22346435
0.19271687
-0.08842241
0.28737763
0.00228937
0.00115102
0.27314609
-0.01972148
-0.06977487
0.13130993
0.37552696
-0.07185099
0.08520986
0.06092281
-0.01703941
0.18248226
0.10639740
-0.00206908
-0.08474766
0.09859418
0.02574668
0.02339683
-0.02652404
-0.08017106
0.09645969
0.20685279
-0.01464978
-0.30886096
0.10483228
-0.05689768
0.13459100
0.01263416
0.09384519
-0.02505054
0.12697025
-0.02296182
0.02406028
0.06937227
0.04487531
0.01788190
0.12505028
0.05202746
0.02449089
0.13680261
0.19937901
-0.00484465
-0.08836935
0.05664204
0.00622055
-0.14739785
-0.10430720
-0.20875990
0.02118740
-0.05189548
0.10826743
0.13969761
0.00915644
-0.28371981
0.05132781
-0.10608584
-0.05087781
-0.03318083
0.16348734
-0.06416522
-0.00500578
0.04473291
0.08960716
0.05051507
0.06158500
0.07174281
-0.04710066
-0.07873372
0.08422960
-0.14496703
-0.00807009
0.21341051
0.13777152
0.08777650
0.04072041
0.08526533
0.07887623
-0.10874887
-0.05342080
0.07082750
0.03599414
0.04150402
0.16977230
-0.07691021
-0.04352552
0.07563392
0.04802326
-0.14008911
0.00965947
0.02587190
0.08167987
-0.08837428
-0.11583922
0.11953693
0.04182038
-0.11310905
-0.07954187
0.01694600
-0.01720472
-0.02869651
-0.02461896
-0.25976872
-0.08389432
0.26715678
-0.07578148
-0.02787194
0.09425932
0.06063681
-0.00046692
0.11428688
-0.12805611
0.09080627
0.09560440
-0.08874814
0.09259366
-0.12311760
0.07855381
0.23514448
-0.21320315
-0.24881072
0.04758530
-0.10603829
0.10372388
0.25306895
0.17118527
-0.00515791
-0.02220727
-0.05196512
-0.10102006
-0.12231982
0.29576811
0.14754696
0.04247779
0.16509806
-0.09516354
-0.20253184
-0.17482443
-0.10976225
-0.02893881
-0.03236718
-0.02703525
0.06029736
-0.25060651
-0.07488352
-0.09874325
-0.10818356
-0.00499233
-0.20532310
0.02918997
0.03223666
-0.17454284
-0.12879921
-0.10328146
0.00245683
0.13324237
0.23432592
0.19671465
0.01439589
0.10288175
-0.05817530
-0.02049402
-0.10488857
0.04758207
0.07673603
-0.08406182
-0.03423059
0.08569702
-0.09243589
-0.04259754
-0.11258526
-0.09517489
-0.05979054
0.06503917
0.03897183
-0.18108965
0.01396764
-0.14136328
-0.03159220
0.03744228
-0.19421984
-0.00664452
0.04322157
-0.15166213
0.02887587
-0.02803557
0.13095866
0.07799721
0.12037212
0.08818655
0.05748006
0.10409165
-0.03355587
-0.01051985
-0.17131688
-0.06912283
-0.05637728
-0.13868435
-0.16747315
0.09890591
-0.18886608
0.12379090
-0.08030238
0.02636692
-0.08370407
0.13471991
-0.05828536
0.03107047
-0.20657305
-0.28348607
-0.02407831
-0.17209980
0.02742333
-0.05012888
0.05287831
0.02342364
0.18670389
0.11909428
0.02975506
-0.09128904
-0.14907326
-0.10688133
-0.06257154
0.19089636
0.19509442
0.20934299
0.29814178
-0.18355368
-0.08082724
0.02932584
0.02681123
0.23291093
-0.13215539
0.08861969
-0.06956530
0.10815513
-0.26286033
-0.10241974
0.04683379
0.04507427
-0.31913137
0.03510429
-0.04772265
-0.00299412
0.14301099
0.05685989
-0.14842281
-0.06934880
0.09414557
0.19201034
0.07484820
0.05178016
0.06461872
-0.02714013
0.00787963
-0.00976960
0.15597118
0.05544494
0.11106998
-0.03699230
-0.05367282
0.03237756
0.08929753
0.16046116
0.06423823
-0.08738536
0.18287407
0.11034463
-0.11750354
0.04506491
0.02905565
-0.06357507
-0.10685909
0.02055250
0.00277514
0.15542184
-0.19562405
0.07352525
0.16419491
-0.19410416
-0.09503409
0.06136922
0.05531680
-0.00162849
0.17261179
-0.00529407
-0.01243819
0.04171670
-0.13460834
0.05965272
0.05150618
0.01384903
0.12356984
0.03582132
-0.11678383
0.00850799
0.18121168
0.10312911
-0.14934266
0.07948375
-0.10275028
-0.02622077
0.03776569
0.04454302
0.10147032
-0.03422980
0.06376720
-0.03120827
-0.02434963
0.04217511
0.10237215
0.03707441
0.06221135
0.10798448
0.08130193
-0.11437798
0.00172765
0.04107765
0.07520537
-0.00132751
0.07403301
0.08072183
-0.00026848
0.04348122
-0.06632114
-0.03183549
0.10293636
0.08896830
0.02188335
0.00750969
0.04550655
-0.07087187
-0.06361855
0.01257007
0.01326199
0.02672029
-0.02264521
0.00286408
0.00566121
0.01581601
-0.11929072
-0.06257881
0.00261500
-0.08887420
-0.01120724
-0.00447289
-0.05904694
0.02052559
-0.04531480
0.01259512
0.04959219
0.06877597
-0.01616202
0.05774008
0.05036907
-0.02022747
-0.03083258
0.06472456
0.01558729
0.01329182
-0.00624181
-0.00604590
-0.00891867
-0.00767816
-0.10038448
0.01968749
0.04878535
0.02949084
0.01850265
-0.03178569
-0.02609621
0.09432594
-0.01024871
-0.10288551
0.03261330
-0.11242279
-0.04574951
0.06648408
0.00702078
0.11199393
0.00670112
0.10914552
0.00163286
0.00178172
-0.05918281
0.01263005
0.03293451
0.07871310
0.06698976
0.00309524
-0.02261001
-0.07880379
-0.04084453
0.06390427
0.09609494
0.08166192
-0.05684192
-0.05780396
0.06880935
0.02568709
-0.05157396
0.10244887
0.02411038
0.02551473
-0.02934681
0.01097315
0.10774747
-0.18262602
0.07600244
0.11943383
-0.01558045
0.00627578
0.00096780
0.03983903
-0.05567934
-0.08774897
0.05304236
0.04139586
-0.01878331
0.03194417
-0.00256180
0.09486745
0.12075025
-0.07679582
0.16430308
0.06245103
0.12636223
-0.07119059
0.12714148
-0.02333568
-0.03191587
-0.08040380
0.06121217
-0.03525858
0.06573053
0.06459415
-0.08087066
0.09353891
0.04466396
-0.12691323
-0.13978942
-0.05745867
-0.08306364
0.16006787
-0.00023079
0.10520785
0.04319930
0.05163741
0.02461576
-0.00616178
0.06450573
0.02392532
0.12368742
0.23934974
0.02858973
0.04295504
0.10413925
0.05061301
-0.01962051
0.08457858
0.13259523
0.03687918
-0.14996135
-0.06591073
0.05448340
0.04682530
0.01499418
-0.11545333
-0.07590538
-0.03046774
0.00932645
-0.05771215
-0.10241117
0.01008635
0.21981668
0.04800180
0.03597083
0.22263466
0.01575878
0.06145848
0.05648495
0.16684014
-0.05962782
0.04132393
-0.08615383
-0.04519327
-0.21753564
0.21301365
0.16232879
-0.09626832
0.04810408
0.03207506
0.05040529
-0.20777340
-0.00216263
-0.09383605
0.02207287
0.07684585
0.10838506
0.01909082
-0.11136605
0.00026803
0.00757809
-0.02505824
-0.20887236
-0.09514084
0.05980423
-0.03802118
0.13644871
0.01574483
0.11596862
-0.06966549
-0.14263968
-0.10301413
-0.13505609
0.15699185
-0.03757074
-0.04720756
0.07530471
-0.01749246
0.28668037
-0.18072613
0.03087559
-0.11091405
0.13928325
0.00940812
0.00799276
0.00275130
0.07034013
0.02221023
0.06831789
0.08724727
-0.06856552
0.10909296
0.04599554
-0.00545857
-0.28318784
-0.07964141
-0.07471576
0.16447426
0.08660943
-0.06926924
-0.06135131
0.03843718
-0.04653212
-0.05317536
-0.05423676
0.09252292
0.19921716
0.03413881
0.09100587
-0.09076742
0.16211675
-0.05336390
-0.03438910
-0.12199426
0.26050234
-0.01560119
-0.13917863
0.04863499
-0.05480063
0.13639870
-0.15509836
0.02799790
-0.08636959
0.00454020
0.07276388
-0.05214683
-0.25871685
0.02702176
-0.07671885
0.07806417
0.04342338
-0.02446358
-0.07664556
-0.03375655
-0.02704949
0.10087235
-0.06329976
0.09641308
0.11331140
-0.06683971
-0.04695989
-0.04689371
0.27159771
-0.02703163
-0.06979710
0.05276243
0.01447123
-0.02080316
0.02245399
0.00620573
-0.06442606
-0.03334012
-0.04075310
-0.01329093
0.15054889
-0.03887693
-0.04570034
0.16563080
0.01250058
-0.08259577
-0.10272561
0.01610263
-0.05158180
0.02397130
-0.01107074
0.02279853
-0.04096968
-0.00999112
0.00114372
-0.05861232
0.03307370
-0.03317675
0.01618445
-0.12381583
-0.05579758
-0.02856724
0.15469226
0.05602530
0.09339032
0.02384927
-0.04181644
-0.05272513
0.06212119
0.04616048
0.03122942
-0.08704944
-0.08732302
-0.10007370
0.04082828
0.08814157
-0.08829359
-0.08892008
-0.02041940
0.00838596
0.10828052
0.03049212
-0.02509529
-0.00210072
-0.03388600
-0.01640354
-0.01482163
-0.00021189
0.04742508
-0.00948773
-0.04707062
0.01023364
0.06280590
-0.03126274
-0.02867538
0.04802920
0.06975351
0.08491101
0.08055773
0.01701707
0.00376173
-0.04530056
-0.03839596
-0.03715887
-0.00887169
-0.10200828
-0.03501580
0.08978032
-0.02195779
-0.03700756
-0.01184079
0.04881246
-0.01742507
-0.11593903
-0.01619956
0.02623243
0.03449301
0.01196822
0.05264955
-0.04581574
0.01586402
-0.02551038
0.09225058
-0.03518327
-0.03283736
-0.20187612
0.09901110
0.06005612
-0.15307842
-0.13831516
0.26799697
-0.10340969
0.02680601
0.02093778
-0.15821354
0.03447505
-0.27002057
-0.01512279
0.17633694
-0.35132208
0.04484456
0.03869070
0.03335031
0.04033194
0.34076366
-0.04227348
0.05255214
0.03448519
-0.23498225
-0.02911387
-0.07107377
0.12252835
0.06584488
-0.18014842
0.04615552
0.00261394
-0.03443402
-0.25691611
-0.04461262
-0.12600069
0.01828312
-0.09967819
0.22252554
-0.08617689
-0.09521384
-0.17169110
-0.13146430
0.11685257
-0.35459140
-0.07063074
0.11975399
-0.31819406
-0.04190423
-0.01795205
0.01688992
0.03686099
0.34106255
-0.11846722
-0.08868174
0.12583727
-0.23181367
-0.01231275
0.07226909
-0.00348709
0.10790397
-0.20357050
0.13331233
-0.09746870
-0.15348329
-0.21529502
-0.12094032
-0.12406631
0.02699433
-0.05686304
0.33788729
-0.07882185
-0.01391839
-0.20863065
-0.04491885
0.13728191
-0.28329000
-0.13583606
0.00450403
-0.32353961
-0.15573600
-0.04572211
0.03458206
0.01519635
0.40224391
-0.13297705
-0.04760944
0.13498098
-0.19770329
-0.11903625
-0.01973240
0.05151629
0.13768850
-0.28104347
0.19072635
-0.11059491
-0.14249538
-0.03261100
-0.03978266
-0.11341250
0.07569671
0.10021114
-0.16491354
0.02500200
-0.03209157
0.13152510
-0.01470640
0.16259427
0.21326610
0.00490083
-0.14984953
0.00321519
-0.04690993
0.04617051
-0.21623372
-0.00002065
-0.19850068
0.12178062
-0.12419556
-0.13248777
0.11573061
-0.01476187
0.05481986
-0.08727325
0.08613152
0.11308870
0.13383873
-0.14034186
-0.02029345
-0.00456434
0.03592369
-0.06325007
0.12955338
0.14154762
-0.21908879
-0.01743627
-0.04378015
0.13822494
-0.07128005
0.16437101
0.17894261
0.05933711
-0.13337125
-0.04735707
0.03974120
-0.07207498
-0.13728362
-0.02131498
-0.12395544
0.09800520
-0.04904188
-0.16339706
0.13479832
0.02397907
-0.00137983
0.13024777
0.14797859
0.08334732
0.01071128
-0.16649230
-0.05449996
-0.03596005
-0.05230026
-0.09881534
0.02778979
0.09663007
-0.23410748
0.06063089
-0.11476710
0.13399202
-0.22751944
0.16974783
0.12552439
-0.02519761
-0.15646230
-0.05338820
0.12004754
-0.08106276
-0.16011354
-0.06733864
-0.24345826
-0.10029931
-0.00107001
-0.18034959
0.06934478
0.10771118
-0.06207602
0.04579557
0.06717977
-0.08716534
0.05804788
-0.18185359
-0.03473186
-0.06782560
-0.15332963
-0.08106261
0.27129680
0.34464234
-0.08038317
-0.08954277
0.12382155
-0.18616228
0.18001388
-0.02763724
-0.00885643
-0.19309543
0.04654913
0.17844328
-0.35791099
-0.12670490
-0.19231425
0.29685467
-0.17772049
-0.09807250
-0.07814381
0.06125381
0.19217744
0.14372991
0.13866390
-0.02673416
0.07217279
0.22535138
0.06550543
0.12226584
-0.07789710
0.02910070
-0.10027073
-0.02527409
-0.03268932
0.23125999
-0.10845775
-0.09036716
-0.04371031
-0.11746972
0.02370059
-0.11375991
0.06410888
-0.12736969
-0.05164504
0.12672712
-0.19152464
0.00386673
-0.05978239
0.31143045
-0.08561274
-0.13848564
-0.01459591
0.11806855
0.13809110
0.12888184
0.08503757
-0.06052405
0.08958176
0.13185294
0.05969262
0.16758479
0.06735889
-0.04841868
-0.13290083
0.04550371
-0.06128495
0.30656418
-0.00452100
-0.15505156
0.07216592
-0.23078275
-0.12465359
0.04474716
-0.00157895
-0.12178610
0.08832379
-0.03597744
-0.03801280
0.02081573
-0.08397909
0.15142517
-0.14158711
-0.29606760
-0.04625831
0.08882097
0.20003644
0.13031888
0.12213984
-0.07172697
-0.06569880
0.07763159
0.03059382
0.11187267
-0.06790440
-0.07381158
-0.12830637
-0.23936950
0.17161065
0.21081989
-0.13998748
0.09092048
0.06025562
-0.15220048
-0.04511971
0.00735162
-0.32052967
-0.01777729
0.08426620
-0.18749851
-0.31814611
0.09707238
-0.03344209
0.07751159
0.01183143
-0.06457205
-0.04843147
0.20172873
-0.09757535
0.05210110
0.02992543
-0.09654033
0.05798610
-0.14657521
0.03286443
0.00763357
0.09699522
-0.07168814
-0.01084289
-0.09657454
0.30189064
-0.04996905
-0.02960028
-0.03790465
0.09019211
-0.00525104
0.02403609
-0.06633155
-0.31145033
-0.04119832
-0.02590407
-0.15771100
-0.36817786
-0.12375750
0.13147324
0.20888495
0.20229575
0.01927995
-0.05686917
0.18280044
-0.05439296
-0.06981230
0.05911205
0.00919777
0.21442877
-0.01120064
0.00144481
0.08483752
0.17238025
-0.05751494
0.02340100
-0.24373521
0.24982995
0.02785185
0.10723094
-0.10159441
0.14150988
-0.09915160
0.05219363
0.02486039
-0.20528314
-0.01918345
-0.02333750
-0.05342833
-0.37914011
0.01386249
0.06889043
0.14393909
0.12928262
-0.10261743
-0.05065311
0.10984542
-0.13807371
-0.16247115
0.09814703
-0.03126126
0.10436253
0.02744880
0.08575507
0.01599183
0.08507369
-0.01309849
0.11200785
-0.06025720
0.25716281
0.00248043
-0.10950101
-0.02270419
0.01047550
0.04366108
-0.03188565
-0.03814336
-0.11498710
-0.01503392
-0.13086957
0.02937003
-0.30379400
-0.00188907
0.08896445
0.05882031
-0.00582155
-0.13336293
0.02510235
-0.09721086
-0.19428611
-0.06978351
-0.23837611
0.06748030
0.02704712
-0.27518302
-0.12829900
0.03406118
0.00604455
-0.11175295
0.02560182
0.00732825
0.16766670
-0.18619324
0.04908949
-0.07325447
-0.05787839
0.19114918
-0.07439755
-0.13253780
-0.00388468
-0.06629470
-0.29921979
0.00945654
-0.48163494
-0.04294511
0.04237667
0.21272168
0.13297155
-0.06620935
0.12844785
-0.12280900
-0.04301362
-0.28888652
-0.06850110
0.19618765
0.09566357
-0.04944829
0.07765892
0.06508728
-0.05093910
-0.10873474
-0.10441849
0.00495759
0.21896605
0.05244416
0.16030353
-0.10089459
0.24832812
-0.03085291
0.05125608
-0.20813805
-0.03158120
0.04769143
0.07176562
0.10309197
-0.46748090
-0.12357759
-0.04540881
0.03855206
-0.01257315
-0.04352343
0.00668798
-0.08011235
0.02932554
-0.11388064
-0.10769147
0.25556186
0.09134025
-0.01275938
0.15185505
0.12086421
-0.11530631
0.05236888
-0.03048723
-0.00685583
0.16095285
-0.11126403
0.05991199
-0.09664246
0.01559162
0.16297674
-0.08829294
-0.04124553
0.00721638
-0.15353887
0.00156209
-0.01118214
-0.17036355
0.12589352
0.01350237
0.30792767
0.00686333
0.00558847
0.04463953
0.05879678
-0.01731490
-0.02511015
0.16085947
0.06673811
-0.11818142
0.07679081
0.20787077
-0.05360391
0.12818530
-0.01609922
0.06799736
0.10103073
-0.01230049
-0.19761391
0.15947685
-0.10855710
0.16878298
0.28109625
-0.05092409
0.01546385
0.05859601
-0.13218629
-0.15827017
-0.11261272
-0.20738614
-0.12892009
0.03636156
0.27531242
0.09070949
0.03635275
0.04022753
-0.01810776
0.02931344
-0.09328794
0.11852758
0.16860430
0.07441741
0.16369264
0.14388628
0.06358203
0.22427832
-0.06237909
0.04144385
0.11938331
0.00037837
0.05696948
0.01887872
-0.20068279
0.08589085
0.04655833
0.05024590
0.05018385
-0.06145279
-0.06780099
0.05040872
0.05549691
-0.01455999
-0.18784977
0.08548924
0.12532824
-0.03821321
-0.03707362
0.09120376
0.08336790
0.01544054
0.18489610
0.11355629
0.05659945
0.03007779
0.15111068
-0.04091884
0.04783771
0.08408964
0.04647309
-0.10365938
-0.10069820
0.01792138
-0.04850926
-0.14295477
0.16368680
-0.21778899
-0.09009807
-0.04918418
-0.10015364
0.00292719
0.03786633
0.08144592
-0.14492738
0.05425534
0.01362297
0.09145601
-0.14147750
0.08162807
-0.07517846
-0.06033243
0.07590877
-0.01257609
0.24271370
0.05361685
-0.18678160
-0.02723648
-0.18821579
-0.00890655
0.08629715
0.14287177
-0.04068493
-0.06830977
-0.01451741
0.07881731
-0.10206874
-0.05555203
0.10520630
-0.33476344
0.05348039
-0.14852166
0.09028998
-0.00410326
0.15889047
-0.09889283
-0.01834033
0.06654739
0.00984716
-0.01205026
-0.12142804
0.12403259
0.05484986
-0.12857972
-0.01809251
-0.09265955
0.09367374
-0.01141218
-0.02766214
0.14058875
-0.10745609
-0.05026508
-0.06506985
0.02168523
-0.08561970
0.14540972
-0.07057798
0.15809950
-0.16633968
-0.02295892
0.13248728
-0.07289711
0.08956517
-0.06985816
0.00416925
-0.04555547
0.07998058
-0.02855525
-0.08092160
-0.27151892
-0.10496131
0.10512532
0.09800728
0.05413032
0.07945426
-0.00726705
0.01266612
-0.08120760
0.03629215
-0.02433346
0.03804645
0.22913757
-0.10792455
-0.04943022
0.07219715
0.16092671
0.26090792
0.19365561
0.15387625
0.14509396
-0.14652915
-0.04854859
-0.12363084
0.11928251
0.27492076
-0.02598392
0.13137712
-0.13612473
-0.16990894
0.28128603
-0.28517294
0.06690022
0.26534152
0.10748240
0.08845270
0.28837842
0.22359392
0.04815075
0.14512607
-0.16617253
-0.22691043
-0.04119165
0.13057846
-0.18960908
0.05971714
-0.11170820
-0.16947451
0.19291101
0.15167624
0.02586611
0.00870835
0.07082336
-0.21615335
0.08192876
-0.05364987
0.08880308
0.29202729
0.01341526
0.03864405
0.04751049
-0.07716401
-0.16228844
-0.11690617
-0.04532228
0.08578684
0.08965912
0.34611756
0.24840875
0.10795002
-0.02242170
0.01890785
-0.01679302
-0.27025700
0.15927736
0.15604649
0.04546002
0.24480219
-0.08789668
-0.05429351
0.23705782
0.17175625
-0.12662587
-0.03274081
0.03124228
0.13597974
-0.02758005
-0.10178875
0.21989627
-0.05476854
-0.03113911
-0.03144555
-0.09834255
0.04621060
0.11798878
-0.13053572
0.05851912
-0.09361028
0.01816530
0.15132013
-0.10897367
-0.11548505
-0.09354284
0.23699659
0.05136539
0.13933295
0.18520702
-0.05611581
-0.09040903
0.09829608
-0.15849096
0.12173571
-0.07180508
-0.04747870
-0.20988110
0.06803539
-0.05295010
0.22513133
-0.04083470
-0.16149051
-0.06306538
-0.12355993
-0.01409765
0.15036336
0.12295188
0.04696859
0.08618613
-0.00184728
0.01858628
0.07165127
-0.09491194
-0.03056405
-0.03712407
-0.07678212
-0.00670823
0.09371513
-0.00536641
0.01137241
0.00470469
-0.05496719
-0.01770399
0.06418420
0.05019950
-0.10602095
-0.13039689
-0.04445091
-0.08099843
0.03551031
0.06836964
0.25256947
0.02164993
-0.22460444
-0.02780790
-0.09674650
-0.09674940
0.16950575
0.04259870
0.01322764
-0.06029197
-0.06693807
0.01460933
-0.04297904
-0.09606726
0.13079244
-0.10729696
-0.17069955
-0.06731229
0.10517212
0.03720012
0.02235449
0.08981393
-0.08832582
0.05015229
-0.00924181
-0.11587857
-0.17961974
-0.01361456
0.10617635
-0.03737295
0.08758952
0.14219832
0.14010841
-0.02488970
-0.14828178
0.02975869
0.02819390
-0.09007172
0.05385926
-0.02636261
0.00757099
-0.03601124
-0.12988171
-0.11916927
0.20913056
0.04764721
0.31964186
0.02590000
-0.12476050
0.03693477
0.06562753
-0.01610243
-0.10549773
0.10819055
-0.00966696
0.06006547
0.03316677
-0.16356589
-0.08640382
0.07074500
-0.00086804
0.21408269
0.04776260
0.07371978
-0.14975469
0.09471779
-0.11172892
0.01723565
0.36723140
-0.02503755
-0.00256394
-0.01081114
0.01735033
-0.04692256
-0.20022787
-0.22099558
0.09983670
-0.00042540
0.05282669
0.21485539
0.03963232
0.05667679
-0.14550857
-0.11489263
-0.20769604
-0.03786880
0.15366165
0.09122989
-0.06038280
0.07268032
-0.03605083
0.12682021
0.00756896
0.28793898
0.26095581
0.06235636
-0.16215256
0.02852749
-0.12489014
-0.00004673
0.50668931
-0.01600898
-0.07932179
0.15111697
0.01004902
-0.07315766
-0.12299089
-0.25321448
0.02883822
0.06663788
0.10271876
0.17706724
0.24397543
0.12673071
-0.23488624
0.04460695
-0.26291537
-0.19323123
0.31806830
0.03413818
-0.02607081
-0.08174798
0.04205203
0.29325253
0.01492103
0.14901619
0.20564802
0.07186119
0.09058812
-0.00467218
-0.08041830
0.11996171
0.10304066
-0.01164600
-0.08175416
0.04871724
-0.03844202
-0.07966939
0.02859978
-0.14792575
-0.11203722
0.13357078
-0.00085398
-0.13675500
0.13349646
0.16783063
-0.09784300
0.14568391
0.02206292
-0.21938251
0.26283237
-0.08171392
0.11848552
-0.12398834
0.04653788
0.03810002
-0.06935055
-0.04655048
0.02352787
-0.09011212
0.04754176
-0.06215019
-0.14059885
0.00842360
0.02215689
0.02421989
0.10425697
-0.05266019
-0.09283955
0.12623684
0.05271146
-0.13417958
0.02404860
-0.04885305
0.01606741
0.07138541
0.14778343
-0.02821530
0.02703653
-0.11087132
-0.02940205
-0.18752679
0.05838441
0.07702938
-0.00378984
-0.22190997
-0.04141222
0.04886605
-0.00888654
-0.04013637
0.17100278
0.06357589
-0.06978551
0.08690758
-0.21626151
-0.00270839
0.06589406
-0.04536331
-0.02185757
0.03425653
-0.06124331
-0.20290358
0.12980938
-0.05226494
-0.18195128
0.05747905
0.16294505
-0.01331319
0.04839620
0.07318672
0.12161525
0.01211247
-0.11374986
0.11226331
0.09670515
0.06600081
0.08920334
-0.10604143
-0.04269008
0.14822818
0.08578298
-0.09636971
-0.00456360
0.07047819
0.09490591
0.04661609
-0.02976054
0.12245983
0.08264303
-0.02304186
-0.04103750
0.09083541
-0.07759979
0.09640256
0.01500519
-0.11441357
0.19936594
-0.12696794
0.09919523
-0.09055099
-0.09782860
-0.00554680
0.02559978
0.09284934
-0.05742346
0.04974915
-0.03553466
-0.07642772
0.01745225
0.06657797
0.04107237
0.02073140
0.00033229
0.00192530
-0.00282969
0.04847101
0.15214707
-0.04277002
-0.15996704
0.21851856
-0.06130058
0.09547548
0.04704826
0.05239980
-0.00760796
0.19357400
0.11319395
-0.00372778
-0.03488056
-0.06928576
-0.01630368
-0.07097808
0.00979257
0.06998485
0.09776426
0.06484050
-0.02597119
-0.06978212
0.06514215
-0.10150933
0.20046963
0.02186896
-0.09886830
-0.03093470
0.01851906
0.09984461
0.06088392
0.08132954
0.08965389
-0.14232133
-0.14005607
0.00981791
-0.08104306
0.02582436
0.14889181
0.06442706
0.03679946
-0.23425269
0.05375659
0.03538437
-0.19806205
0.00179187
0.14812014
-0.16193055
-0.11570764
0.01141170
0.09112515
-0.00466652
-0.00435241
-0.02943728
-0.00198502
0.03934555
0.14663668
-0.20109332
-0.09237777
0.06070207
0.07932835
-0.02010925
-0.06541423
0.13579199
0.20477419
-0.29522508
0.00706683
-0.04732082
-0.24476339
-0.14728391
0.14037867
-0.11996058
-0.12871923
-0.00281677
0.06585283
-0.04110618
-0.01790235
0.02629570
0.05356133
-0.20262502
-0.30826935
0.06350145
0.20347436
-0.03493118
0.20625430
-0.03345472
-0.13908470
-0.03117924
-0.22597109
-0.46169221
0.04729408
0.05076664
0.20193920
-0.07336891
-0.07310245
0.10842285
0.08158372
-0.24175984
0.10614248
-0.03810991
-0.02554183
0.03443281
-0.05614443
0.08793098
0.06818242
-0.04929177
0.10765057
-0.09448654
0.16017653
-0.08982779
-0.04419279
-0.15670972
-0.04370437
-0.09560765
-0.09235357
-0.03328833
-0.08048970
-0.17959237
-0.06115826
0.04002203
-0.01551667
-0.01612735
0.05689100
0.00022472
-0.06128444
-0.07813376
0.09912186
-0.15560044
-0.16560954
0.07888655
-0.06642905
-0.00062456
0.28827021
-0.09492116
-0.07795261
0.32963938
0.07073943
-0.28530180
-0.06917462
-0.04161207
0.01265946
0.00178749
0.12995999
0.07642410
0.15250935
0.07273585
-0.28450885
0.05877381
-0.24364772
0.00612204
0.23910855
0.11464924
0.11708698
0.14029704
0.03687644
-0.06591070
-0.10836156
-0.10067743
0.07270509
-0.10412236
0.20035860
0.18282092
-0.16252139
0.23114885
-0.17377861
0.04684931
-0.07271260
-0.16849309
0.08429619
0.32668799
-0.02692204
-0.30733103
-0.06028919
-0.15314710
0.06670985
-0.10531609
-0.03197337
-0.04900432
-0.03013239
0.14613710
-0.04820589
-0.14551897
0.15720624
0.09592082
0.09095570
0.21236505
0.08663740
-0.11487269
0.03515055
-0.17463829
-0.10125157
-0.01404787
0.04143036
-0.04102073
0.09606079
0.05257008
-0.04672185
-0.01007837
-0.21827438
-0.05331075
-0.08091789
0.12572189
-0.00517412
-0.10565578
0.24530785
-0.00177308
-0.08027825
-0.06283410
0.04530555
-0.01779004
0.05056909
0.18587919
0.02060693
-0.03889342
-0.17065915
-0.10260145
-0.24572727
0.02016714
0.23143624
-0.16168311
0.02345748
0.10926808
0.18204324
-0.14683105
-0.28020224
-0.00192343
0.01808097
-0.02160813
0.26044750
-0.05337155
-0.03608059
0.20116925
0.02986896
-0.11684721
0.00303390
0.07030506
0.08223766
0.08975645
-0.03015289
0.14282809
0.16215536
-0.00026883
-0.14007884
-0.02779811
-0.19176160
-0.15374663
0.19641985
-0.05649526
0.12621006
0.09345946
0.05427580
-0.00972767
-0.13111773
0.19376329
0.06967811
-0.00746566
0.18706648
-0.10844541
-0.18312445
0.11512863
-0.04299302
0.07754198
0.24900655
-0.08197501
0.06399045
0.11846124
0.03343052
0.12902899
-0.27016759
-0.08283812
0.00784852
-0.01258726
0.03209480
0.02373370
0.01498931
-0.15859784
-0.02618067
-0.13493352
-0.06015700
0.14968142
0.23471798
-0.06504523
-0.15958402
-0.05532870
-0.28755412
-0.20191842
-0.18750839
-0.09694527
-0.00651556
-0.01045974
-0.11229234
-0.22588693
-0.21327899
-0.21846212
-0.08300835
-0.24233796
-0.03183041
-0.07032739
-0.00398700
-0.08568122
-0.09957807
0.06197556
-0.01787657
0.08988891
-0.17673178
-0.22928065
0.06132434
-0.15510844
0.05391483
-0.11740270
-0.12623456
0.20459659
-0.48201045
-0.14781579
0.15947489
-0.34597939
-0.19304168
0.03653306
-0.00568244
-0.04880849
-0.16849780
0.14675829
-0.05011062
-0.19469425
-0.00345894
-0.26561734
-0.20640166
-0.04337701
-0.07890432
-0.30276272
-0.04896987
-0.08437797
-0.24423461
0.20126714
0.08074138
0.21663171
-0.07276913
0.02920401
-0.06859152
-0.07287458
-0.07946432
0.01489201
0.14867716
0.22974792
-0.14628123
-0.00388610
0.14052454
-0.24888764
-0.16093086
-0.30757949
-0.10577398
-0.21833557
0.08265834
0.19166547
-0.11848972
-0.06230849
-0.18064554
-0.27874267
-0.11587635
0.04476850
0.04431324
-0.04914758
0.06356427
-0.04658498
-0.05439312
0.03241760
-0.17688388
0.04381825
-0.22832310
-0.09404446
-0.00507899
0.01880372
-0.05949088
0.02969888
0.08657275
0.14753233
-0.13840345
0.21550085
0.09439643
-0.38470793
-0.03844551
-0.03731616
0.00930804
0.03210800
0.01236136
0.07814346
0.02622472
0.04723277
-0.04667367
-0.10859450
-0.06968361
-0.04992196
-0.05461887
0.05966549
-0.11987064
-0.09883417
-0.02047922
0.07995104
0.01779155
0.06067760
-0.18826199
-0.01756608
0.09080374
0.06047972
-0.08452067
0.00587714
-0.03661281
-0.05024264
-0.21344995
0.04431558
0.13045406
-0.10231031
-0.01878467
-0.00580484
0.07084317
0.02529077
-0.00820888
-0.01710420
0.00807637
0.00956055
0.18423362
-0.05057959
-0.17569336
-0.05730042
-0.04491806
-0.02583064
-0.07854620
-0.16250892
0.09824152
0.09423258
0.08200857
0.08435478
-0.02709477
0.06122039
0.03507470
-0.00939563
-0.10496739
0.04277356
0.12069071
-0.02483140
-0.10896454
0.07129858
0.14189389
-0.00673208
0.01422341
-0.04704610
0.00739103
-0.01699298
-0.07749499
0.09775064
-0.04643233
0.07948227
0.23513775
-0.05799842
-0.10487597
-0.03556872
-0.03786134
-0.04891254
0.01333043
-0.06526420
0.14254637
0.05063221
-0.00864924
0.20756401
0.21677005
0.02529001
-0.10551410
-0.00449536
-0.21385758
-0.03158655
0.18418834
-0.09816287
0.04276483
0.10150030
0.13512957
-0.01242727
-0.07193965
-0.22040145
-0.31420004
0.18984066
0.22003581
-0.24405265
-0.00527708
-0.09567669
-0.24720892
-0.05188214
0.18772714
-0.04015117
-0.03899283
-0.10184221
0.10140454
-0.24893801
0.08841893
-0.10412151
0.19436242
-0.27192020
-0.23387332
-0.07415490
0.07488243
0.03523150
0.24651909
0.10094874
-0.29005826
0.08935772
-0.15518858
-0.20567121
-0.08385972
0.08790869
-0.07440856
0.10014694
0.17535356
0.12045757
-0.07864046
-0.00058859
-0.08185764
-0.00538487
0.10515111
-0.03956750
-0.08479176
-0.10443976
-0.05404573
0.00888493
-0.10139953
-0.13674870
-0.04297195
0.08091746
0.17737474
0.12743598
0.06641266
0.18979619
0.06002813
-0.03112450
-0.11574134
0.00448940
0.27876002
0.08871593
0.02885152
0.08568560
0.06295472
0.25399369
-0.21702065
0.11432724
0.07106614
0.05469732
-0.05039652
0.08708647
-0.21988496
-0.00635719
0.08676845
0.12590501
0.14201874
-0.21403800
-0.04034239
0.04457928
-0.13297212
-0.11140464
-0.22000177
-0.09420303
0.13105771
0.11240462
0.02695096
-0.12534699
-0.01630287
-0.22002088
-0.09824161
-0.02878436
0.18519846
0.13558300
0.12523420
0.09222251
-0.09937358
0.14314388
-0.01884801
-0.01302643
0.05223196
-0.02326910
0.07104340
0.13925301
-0.21998556
0.20194156
-0.11802123
-0.02996041
-0.04972138
-0.04993881
0.02062782
0.15811440
-0.00181487
-0.01336888
-0.04044623
-0.00836387
0.08579809
0.00229663
0.20647635
0.00165838
0.03470013
0.08957057
-0.01515542
-0.08947790
0.10549756
0.05489251
0.06882897
0.16955434
0.06686383
-0.15033320
0.01466269
-0.00026310
-0.10735144
-0.02737488
0.19185174
-0.11512271
-0.17780468
-0.14048386
-0.09535406
0.02653976
0.05720654
0.01484663
0.04978539
-0.02291384
0.04280740
0.02523145
-0.00458944
0.01204005
0.12693271
-0.10553513
0.10709637
-0.10600098
0.07689680
0.05886447
0.08303254
0.09938782
-0.15167692
0.10432436
0.06150755
-0.04027666
-0.04052155
-0.16083227
-0.01402520
-0.07420406
0.10906065
-0.14238031
0.01286799
0.08876029
-0.11527776
-0.08240443
-0.01953739
-0.02139262
0.02458450
0.03293789
0.13428859
-0.03164972
-0.01883726
0.15655610
0.03153183
0.08999400
-0.02302481
0.08264136
0.35082415
0.07175148
0.05541296
-0.07992916
0.01589609
-0.05462618
-0.02389345
0.02937509
0.08517624
0.00398771
0.00914893
-0.14507009
-0.10367135
-0.05369287
-0.05340254
0.27363524
0.14281908
0.12763278
-0.08035927
0.04654597
0.09781137
-0.01248693
-0.00273407
-0.17265703
0.05232701
0.28963083
-0.23127235
-0.45492101
0.26877493
-0.03940937
0.17739834
0.09498283
0.08883771
-0.02598127
0.09746279
0.00049400
-0.09722041
0.04577299
0.16003370
0.10385253
-0.07273755
0.11419282
-0.04949981
0.15496929
-0.03105977
-0.00215527
-0.07075048
0.21646816
0.11261149
0.02124883
-0.06599183
-0.14544846
0.02109459
-0.03368857
-0.05953181
-0.12502591
-0.04424474
-0.13568671
-0.15094739
-0.40146247
-0.00000674
-0.01711573
0.44451076
0.13093472
0.07145695
-0.07138591
0.06908332
0.00476242
0.02105720
0.09156290
0.08431087
0.13350911
-0.05162427
0.00503873
-0.02244579
0.15241139
-0.01935698
0.02526542
-0.09292530
0.10258491
0.05420820
0.05380455
0.03106901
0.06801777
0.04989691
0.02570375
-0.21531023
-0.10236891
-0.06263611
0.13381159
-0.04411307
-0.15623978
0.13426113
0.03503695
0.19674067
0.09570885
0.05425506
0.04355677
0.09767140
0.17644987
-0.02497932
0.03112473
0.01947272
0.05441983
0.00249474
0.14636898
0.08485875
-0.08679893
0.16915920
-0.14826253
0.02442784
-0.02107700
0.02078854
-0.09997547
0.10453777
0.00029622
-0.00546613
-0.11346906
-0.15070662
-0.03832716
-0.04709006
0.19849387
-0.03297975
0.09685589
0.11987076
0.07641145
0.06142266
-0.01386882
0.04491476
0.10165932
0.02504780
0.15488717
0.07639698
-0.00314084
-0.14142738
-0.11484446
-0.13149588
-0.12663831
0.17650343
-0.02821571
0.16484532
0.16877994
0.06521843
0.03869257
-0.06369735
-0.18207915
-0.04932158
-0.13955475
0.13858899
0.02433533
-0.08916488
-0.03024895
-0.04407622
-0.12409651
0.12474564
0.00902142
-0.09153159
0.06212801
0.13858487
0.00209035
0.02689298
0.03889814
0.09289286
0.03825726
-0.04411267
0.08392607
0.01285179
-0.07149845
0.02014413
-0.25687388
0.13356559
0.29974392
0.08872152
0.02671144
0.04670765
-0.09798811
0.07614370
-0.26466560
-0.10858101
-0.14639458
-0.00645302
0.04120884
0.08582000
0.02973185
-0.00113841
-0.01245901
0.06252666
0.07448927
-0.06943690
-0.07558031
0.05214204
-0.06506240
-0.04367569
0.09132081
-0.05650362
-0.12714167
-0.04466681
-0.10133778
-0.02825663
-0.08753309
0.15657018
-0.20198387
-0.03119249
0.04314400
0.02047388
-0.04246403
0.01939346
0.10697673
0.02988125
-0.04129258
-0.18483712
-0.00535161
-0.05905084
0.01666992
0.09638816
0.00716423
0.01786681
-0.08095530
-0.04515461
0.01832645
0.03746435
-0.08164944
0.07821747
-0.07724789
0.15498379
-0.00253522
0.02823421
-0.00392625
-0.12487882
-0.01888795
0.06362678
0.05960942
0.18642418
-0.03286297
-0.10570840
-0.01780625
-0.06414542
0.01704020
-0.18975465
0.06670496
0.13886811
-0.01602494
-0.06859238
0.14446427
0.01450158
-0.00478568
0.17174144
-0.12189325
0.15130912
0.20617732
-0.21326783
-0.15051155
0.04481900
-0.09781155
0.09663385
-0.00301275
0.03291347
-0.06422893
0.08623639
-0.01610988
0.01804199
-0.03441571
-0.12256297
0.03804708
0.05412318
-0.02171881
-0.15788908
0.01854162
0.02541225
0.03570750
-0.03915038
0.06990816
0.12791783
-0.13370660
-0.10034836
-0.07119605
0.04425369
-0.14981321
0.26784843
-0.16266945
0.13088641
0.07102089
-0.26788998
-0.04606241
0.11932787
-0.13080984
0.10263896
0.01439978
0.06195093
-0.10625757
0.14483102
-0.09571496
0.00752333
0.06034111
-0.03673381
0.04040190
0.00579304
-0.02432037
-0.12351485
0.06423029
0.17741874
-0.09447680
0.01725900
-0.01625286
0.00651501
-0.01094127
-0.03882751
-0.07058454
0.03598024
-0.00563151
-0.03304928
-0.06010568
0.00585855
0.15074234
0.06832898
0.08707069
0.07417992
0.13292970
0.24544594
-0.04028999
-0.00313456
0.10149091
0.24852724
0.08681137
0.12049760
0.23736863
-0.03812931
-0.13982967
0.14150171
0.12617120
0.04863704
0.18091409
0.15675142
-0.02264133
0.10196302
0.04199308
0.01213538
-0.14092019
0.00846912
-0.05943401
0.03663900
-0.06498858
-0.06857269
0.12909754
0.03276106
0.03092169
0.08572927
-0.12356954
0.17089680
0.05166728
0.22072680
0.01728863
0.11078678
0.14026023
0.09306389
0.15746523
0.10815603
0.16942666
0.01745362
-0.22791089
0.04604630
-0.12448111
0.07737745
0.33123800
0.13001837
0.00227320
0.04067205
0.10565034
0.03497258
-0.26090330
-0.10880397
0.04355138
0.11018744
0.06670742
0.02518794
-0.03053250
-0.05357946
0.03930673
0.09774050
-0.07727869
-0.04675177
0.02179491
0.27629989
0.05102498
0.13047484
0.08855078
0.03907631
0.03108835
-0.03790943
-0.04619930
-0.01071805
-0.02489009
0.14853518
-0.28990239
0.09382088
0.39868501
-0.21454206
0.15760432
0.00013473
-0.08960880
-0.06903139
0.11350909
-0.06759725
-0.15199807
0.10224220
-0.06146673
0.09656607
-0.02988778
0.03059637
-0.00011326
-0.12862431
-0.26239467
-0.02203779
-0.08448752
-0.03215400
0.11887330
-0.00740432
-0.05140102
-0.12189081
-0.18414311
-0.02723265
-0.07512441
0.00526515
0.24573319
-0.09934576
-0.06093496
-0.08986007
0.01193746
-0.16590948
0.08007124
-0.16206755
0.09732736
-0.02458779
0.19826801
0.02759954
-0.00574662
-0.13262682
-0.10812537
-0.08343547
-0.18236023
-0.05468049
0.04418481
-0.08236226
-0.37261832
-0.13083778
0.02252138
0.18691583
0.06013704
-0.11403421
0.01696776
-0.01688333
-0.05070501
-0.03584794
0.15164463
0.00737241
0.18184982
-0.04485628
0.19436510
-0.05307546
-0.06855366
-0.17649977
-0.06457864
-0.01861718
0.07226064
0.02109086
0.24273580
0.00069131
0.00866426
-0.04039887
-0.10639020
-0.20107213
-0.24034557
-0.06763399
0.10993864
-0.08202064
-0.34533146
0.01381783
0.01253399
0.05234001
0.22141564
0.03420375
-0.01924454
0.05327518
-0.01295672
-0.04878179
-0.00980735
0.15067221
0.10104260
-0.13330409
0.28117746
0.09465317
-0.12597699
0.07508732
-0.21501827
-0.14166044
0.10348422
0.22902174
-0.34160805
0.15665102
0.09897288
-0.26238269
0.07006568
-0.04052839
-0.17652296
-0.08564299
0.18228906
0.16867357
0.00509333
0.02143099
0.00970221
-0.07004615
-0.18967529
-0.03601931
-0.00979803
0.30486417
0.11558250
0.18928261
-0.04746159
-0.18878154
-0.19262558
-0.15210441
-0.12027823
0.14183831
-0.05057649
0.11603839
0.00807899
-0.08363120
0.17345288
0.10552925
-0.20771652
-0.02559531
0.04847585
-0.03227296
0.07295704
0.13020614
-0.07003047
0.10640731
-0.15667531
0.07448522
-0.00523574
-0.00042041
-0.03045052
0.23787107
-0.08067992
-0.16206379
-0.10052772
0.07500303
-0.04926221
-0.04361542
0.12048808
-0.12189118
-0.07433202
0.19645746
-0.09912509
-0.08274640
0.09554802
0.16698095
0.03283948
-0.17490132
0.13986804
0.19891596
-0.16138916
-0.11039490
0.04389390
-0.10966951
0.07525198
0.28077269
-0.11033048
0.05409516
0.01090687
-0.06184503
-0.08627277
0.09049921
-0.15318762
0.29603243
-0.10538821
-0.22594213
-0.18175630
0.07437238
-0.06772560
0.02277903
0.29285750
-0.14147252
-0.07592928
0.22077316
0.09707800
-0.31327176
0.10777947
-0.06475381
0.01083406
-0.22012573
0.03738893
0.01838252
-0.03248843
-0.06260481
-0.12241002
-0.07667091
-0.08076812
0.05809464
0.05518372
0.06955209
-0.07149862
0.06025673
-0.11900344
-0.05161338
-0.10257903
0.03238406
-0.23279403
-0.06200630
-0.06963859
-0.05698389
0.01694117
0.17313924
0.07725799
-0.04295863
0.14956015
-0.01379853
0.04928980
-0.14006720
-0.00049856
-0.07092162
-0.08883985
-0.12167488
-0.07117677
-0.11901942
-0.01997148
-0.02718336
-0.18850215
0.05048810
-0.09635849
0.04177562
0.14346185
0.00245607
-0.24509311
0.00749758
-0.07042758
-0.11964396
-0.11260232
0.11373175
-0.19029711
-0.00648470
0.00971723
-0.07692131
0.01794408
0.08895832
0.19854000
-0.04632065
0.09385998
0.07813443
0.03798517
0.00103491
0.14359799
-0.05450024
-0.03014953
-0.07661957
0.06192921
-0.00719059
0.03858371
-0.01408280
-0.09037021
0.03995273
0.03153394
0.04175910
0.05647147
-0.00526505
-0.10289859
0.06466105
0.00113641
0.03372210
-0.10629123
-0.11110647
-0.06523116
0.02748718
-0.03461577
-0.09010927
0.04162332
-0.02965190
-0.00450718
-0.00071299
-0.01275559
0.02672191
0.05398906
-0.06118283
0.05677051
0.07019584
0.00866098
0.08300323
0.01316666
0.13058537
-0.13591197
-0.09607109
0.11070698
0.04622666
0.01078816
-0.00614829
0.04672978
0.05649137
0.02222850
0.13687481
0.05685722
-0.17523144
-0.00764747
0.06282535
-0.21215165
0.00555806
-0.01289040
0.03144623
0.08781967
0.00137115
-0.03617113
0.07176224
-0.03116212
0.15974453
0.01150227
0.04175612
0.06379882
0.03173812
-0.06011777
-0.11304247
-0.16105935
0.08673525
-0.04411150
-0.00301692
0.11261871
0.04334172
-0.06314786
-0.01013225
0.20339981
0.12877753
-0.07094922
0.02331236
0.07848518
-0.00072746
-0.19499400
0.14317939
-0.17023385
-0.04267038
-0.11057755
0.04018305
0.20147435
0.09893160
0.14066553
-0.15129556
0.00379887
0.16305332
0.03253114
-0.01349006
0.00984775
0.08081894
-0.00413586
0.07645073
-0.19998506
0.18800919
-0.12743181
-0.04379628
0.10411938
-0.07197417
-0.02372743
0.00934827
0.06002922
0.06599476
0.16235653
0.01736696
0.16145806
0.04250273
0.03926545
-0.13556711
-0.17011684
0.01972932
-0.10279097
0.08989254
0.11732888
0.10852008
-0.00562240
-0.04492828
-0.15542860
0.01220391
-0.10388413
0.05380196
-0.07906044
0.11062740
0.15225066
-0.01333220
-0.08504027
0.04712099
0.13897020
-0.14517245
0.07013947
0.04201972
0.09845968
0.11820881
-0.08473622
0.01668850
0.17355886
-0.16903169
0.05123656
0.05339193
-0.09821050
0.21169260
0.07891591
0.16778518
0.13404831
0.11641397
0.05737176
-0.07093060
0.15162331
0.13135217
-0.01698212
0.25346190
0.04173692
-0.08894669
0.13437039
0.23826602
0.13248439
0.10845720
-0.06845374
0.02529679
-0.11656449
-0.12221639
0.01188738
0.08686365
0.05767276
0.04110126
0.01575092
0.00714842
0.08517636
-0.11772904
-0.09314580
0.05562207
0.01560851
0.13345316
0.11238363
0.13016275
0.13494590
0.13239387
-0.01971842
-0.02105894
0.13003170
-0.01119713
-0.10331041
0.06000511
-0.24841936
0.07191863
0.20937751
0.18046708
0.07124918
0.24185127
-0.18302880
0.01887465
-0.02897627
-0.07894645
0.02486499
0.15277113
-0.01311016
-0.00238842
-0.02101012
0.06235069
0.13868034
-0.06244192
0.11801238
0.14818615
0.14379509
-0.05263939
0.05031485
0.25124750
0.12393299
0.12378054
0.01302114
0.11076973
0.01306225
-0.08398554
-0.18459828
0.06581332
-0.31350520
0.18325713
0.18370205
0.16182558
0.17872579
0.12521027
-0.03388783
0.06284519
-0.16330530
-0.09569376
0.12193881
0.15898660
-0.00210927
0.01649690
0.07456369
0.04523977
-0.10552821
0.02481635
0.02090250
0.02298505
-0.02179064
0.04894447
-0.07898563
0.04956250
0.11885201
-0.02610607
0.08584755
-0.07315375
-0.05362589
0.23994839
-0.03947020
0.16449317
-0.00180576
-0.06886650
0.10933913
-0.02941778
-0.06054208
-0.01668717
0.00688816
0.02879466
-0.02429536
-0.01912035
0.00516840
0.19778389
0.01608821
0.00077294
0.04244454
-0.01264700
-0.18183720
-0.06611457
-0.10849080
0.12969355
-0.13545957
0.11392678
-0.01742705
0.08372327
-0.10951213
-0.08605228
0.10438749
-0.06336384
0.00799990
0.00550207
0.07995772
0.10840224
0.15055777
0.00194256
-0.00448039
-0.08114845
-0.09042595
0.09294179
-0.13528942
0.11065765
0.11850905
-0.07694589
0.12636000
-0.02710185
-0.01665339
0.04341050
-0.06725792
-0.07729811
0.14150645
-0.14036727
0.00631266
0.18169890
-0.02194402
-0.08247563
-0.01410301
0.04749679
-0.08248303
0.03073474
-0.03464301
-0.02669659
0.04316203
-0.07445580
-0.04627789
-0.01111745
0.17213506
0.04445067
-0.18133393
-0.06484322
-0.17524739
-0.09421609
0.07877763
0.09099574
-0.04262570
-0.01556577
0.09745751
-0.07567048
-0.01706308
-0.11876026
-0.10646926
-0.10153788
0.19838178
-0.02395859
-0.29186457
0.01888993
-0.00396033
0.06482366
-0.11324146
-0.00780383
-0.00003848
0.09537804
0.08790194
0.07874494
-0.06100884
-0.06471942
0.06738468
-0.04641046
-0.03768265
0.06615581
0.02163452
-0.03790351
-0.03657721
0.02729052
0.14001404
-0.00413617
0.02414791
-0.06254157
-0.04843191
-0.11177772
0.01056812
0.01838380
0.04592889
-0.00195277
-0.14514600
-0.01930450
-0.08523016
-0.13518688
0.03305486
0.26298860
-0.01719218
-0.14549209
-0.01164359
0.08571669
0.06715565
0.09330643
0.14651519
-0.03386093
-0.03247944
-0.00052713
-0.02072550
0.01538862
0.05633522
0.09413955
0.03035907
-0.05054889
-0.02959550
0.05502847
-0.02620454
0.03191598
-0.09399000
-0.14578828
-0.13274577
0.11430047
-0.14989953
0.09532896
0.23382844
-0.19334781
-0.07569030
0.05727368
0.04840505
0.07786093
-0.08706165
-0.16189384
-0.00672815
0.09968528
-0.00167360
0.11575571
0.03841974
-0.08326918
0.06023887
-0.23224670
0.03519412
-0.01915621
0.07987946
0.14295077
-0.01833077
0.10504267
0.00324230
0.15505087
-0.23134165
0.09295368
0.04724509
0.19883798
-0.00124332
0.06155896
0.13147391
0.02163898
0.06289686
-0.10478562
0.12165296
0.09149812
-0.10646272
-0.00429824
-0.06671313
0.06267086
-0.05946802
0.03007104
0.00531196
0.01394030
0.05458709
0.05521566
-0.16102420
0.05623389
-0.08710428
-0.06732383
0.08081622
0.02570342
-0.20894696
0.16550395
-0.19541697
-0.05589512
-0.02204708
0.11982007
0.11894713
0.24023981
-0.03320418
0.09941767
0.32436088
0.02149298
-0.05281286
-0.11916380
0.14965202
0.08954909
-0.06920160
0.02676543
-0.00026350
0.11979968
0.07493783
-0.09980880
0.11562391
-0.04872651
0.00792536
0.03454897
-0.01841810
0.08042146
0.01518621
-0.08670344
-0.02490203
-0.06425448
-0.11114412
0.22144353
-0.09485638
0.13042958
0.06427715
0.00273937
0.30119154
0.16394074
-0.02148314
0.06019467
0.03379453
0.01578812
0.18237397
-0.05373072
0.08832210
-0.06684554
0.03843710
0.01218969
0.00750656
0.11132845
0.03222455
0.05699790
0.07499550
-0.01248290
-0.07880914
0.12832406
-0.04258404
0.03192311
-0.08228720
0.00620864
-0.09257531
0.01338876
0.07328251
-0.03443735
0.04737685
0.05463277
0.05673472
-0.00482235
0.03746230
-0.06998388
0.08335508
0.03811029
-0.02779122
0.05875526
0.03727974
-0.07147383
-0.00965179
-0.13498668
0.00120282
-0.01622781
0.01831612
-0.03890296
-0.13823086
0.08459660
0.02062218
0.04880459
0.11551078
-0.04111453
-0.04350476
0.07003050
0.04602292
0.08247893
0.02413660
0.12402900
-0.04018944
-0.10801304
0.09252756
0.02003975
-0.11978018
0.04386700
0.04994806
-0.11967785
-0.03731279
-0.11750597
0.02688047
0.05068622
0.04914784
0.03219960
-0.11841816
0.04721254
0.05961809
0.12059919
-0.06096720
-0.02768070
-0.07806910
0.16834088
0.00852169
0.03912530
0.19121753
-0.14809074
-0.01023819
0.01166956
-0.05673206
0.12634248
0.04442321
0.11251540
0.24974872
0.03015039
0.14225380
-0.03145120
-0.17695741
0.01986388
0.09105771
0.09022433
0.13740027
-0.17886053
-0.04171141
-0.03609152
0.11835683
-0.03952155
-0.14115286
0.04964671
0.06132806
0.12720592
-0.02177612
0.21005102
0.09040595
0.11914308
-0.09578693
-0.06370170
-0.12789524
-0.05177319
-0.13097504
0.15736085
-0.25747854
0.13042177
0.22755159
-0.03966832
0.06651062
-0.03398905
0.02221737
0.09242108
-0.18445516
-0.23199855
-0.06009410
0.02323235
0.00260869
0.30372137
-0.05895536
0.01665031
-0.09767719
-0.03032198
0.04812105
-0.14425138
-0.11780578
0.15006578
-0.03709331
0.05318380
-0.08629433
-0.01005444
-0.11380020
-0.06395982
-0.07913052
-0.00490654
0.00816596
0.05024038
-0.17299895
-0.21900491
0.00866957
-0.07415412
-0.04411691
-0.07307950
0.06092510
0.01047706
0.02567180
-0.10328208
0.15411296
0.08318903
0.04276875
0.10121439
-0.12130760
0.06892069
0.13133723
-0.11008250
-0.22689125
0.20439161
-0.07386177
0.10675354
0.05351802
0.02565719
-0.06777690
-0.02363226
-0.12773469
-0.11073513
-0.10130591
-0.02597911
0.03840739
-0.01095983
-0.04277626
-0.17332008
0.05907623
-0.02642808
0.06825152
0.15929793
0.11262703
0.00292781
0.04493872
-0.18289660
0.08687785
0.13916957
-0.00492308
-0.01746684
-0.10722055
-0.04193141
0.09321160
-0.16027662
-0.07934119
0.15593931
0.04729745
0.05507206
0.17718658
0.07304241
0.04050387
0.06240420
-0.06678194
-0.10089134
-0.08575460
0.16375643
-0.06830720
-0.03695801
0.07781487
-0.04620478
0.06762971
0.11697266
-0.01096070
-0.00828943
-0.11330655
-0.06540802
0.05877314
-0.03802127
0.04917791
0.31737959
-0.19627115
-0.07173554
0.14080589
0.06979735
0.02304979
-0.17599227
-0.21437448
0.35493398
0.00659127
0.05380954
0.05047000
0.06515121
0.00692211
-0.25176913
0.06070958
-0.06656723
-0.17657094
0.14508682
0.06717134
-0.21731590
0.00539817
0.08865326
0.04652273
-0.09530170
0.09157325
0.16045134
-0.12238603
-0.09765004
0.22051850
-0.07683238
0.00504077
0.15104550
-0.21435080
0.01257858
0.22994415
0.14235297
-0.19732413
-0.24032931
0.04345475
-0.00867475
0.07470617
0.03599783
0.09888355
-0.07517654
0.07290249
-0.16197082
0.09803797
-0.05572920
-0.01564253
0.25206715
-0.06284804
0.03200242
0.19021320
0.03848028
-0.16045581
0.03934433
-0.04686645
0.06056632
0.06623456
0.36283726
-0.09149218
-0.11959935
0.02580686
-0.18652266
-0.22300956
0.10622022
-0.00794304
0.12962961
-0.04117231
-0.16425239
-0.05051584
-0.11237528
-0.00738905
0.06184495
-0.22228591
-0.35810485
0.06349070
0.18748340
0.07921711
0.27342263
0.04946381
-0.00528360
-0.07608168
-0.08575492
-0.00707485
-0.06894235
-0.09673615
0.14081775
-0.04084142
0.06099710
-0.00919755
-0.12220599
0.10089879
0.03298817
0.12862737
-0.09540217
0.07004512
-0.22468625
-0.02481340
0.04612984
0.06367727
0.03957516
-0.07715301
0.00795011
0.13549612
0.05059480
0.04997741
0.05493745
0.12173746
0.14111756
0.08754147
0.04731160
0.04741168
0.08628706
0.00222726
0.05767571
0.14302319
0.24973176
0.10415582
0.10219078
0.06218662
0.02827165
-0.05468321
-0.07604879
-0.04117085
0.02222333
0.00752264
-0.13162337
0.04880588
-0.19232057
-0.02892611
0.10605626
0.11362701
0.06507733
-0.00257080
0.02051875
0.12933734
-0.06029094
-0.07859959
0.01115868
0.10167733
0.06711642
0.04356101
0.09541413
-0.12846780
-0.13768092
-0.02066990
-0.08989827
-0.14595915
0.24131893
0.07067983
0.11134259
-0.02523761
0.07489321
-0.08184245
-0.08501521
-0.18267339
-0.00235180
-0.19177784
-0.00720089
-0.03391035
-0.17945766
0.09677637
0.06497984
-0.16681567
0.11804780
0.08557562
-0.08831365
0.04947838
-0.01465254
-0.05985344
-0.04712671
0.10041679
0.01889689
0.12689672
0.11668313
-0.04278916
-0.06841610
-0.08924326
-0.01494519
-0.25743654
0.17804024
-0.02209314
-0.20822094
0.16588055
-0.04711029
-0.01323888
0.00919243
0.16915734
-0.13698335
-0.05018101
-0.03873667
-0.05661907
0.09816459
-0.15829264
-0.03498240
0.07168083
-0.18856217
-0.00687344
-0.09114695
0.03980118
0.00360622
0.25705850
0.07300182
0.00760599
0.02801741
-0.17155394
-0.11168773
-0.06620542
0.06154023
0.17379205
-0.04874350
-0.15500186
-0.05075496
0.00806359
-0.14851284
-0.03568560
-0.16191339
0.11729869
0.11529021
0.28104576
-0.04826412
0.07992922
-0.24883229
-0.08432198
0.15230829
-0.25141728
0.05138236
-0.05116019
-0.12924995
-0.11521401
-0.03790854
-0.11378804
0.14485796
-0.00380055
-0.20950967
-0.09397107
0.20965818
-0.13770705
-0.00106528
0.15075800
-0.12428503
0.17030531
-0.00700933
0.19902152
-0.12472794
-0.07617436
-0.17843814
-0.13165408
-0.16783378
-0.09415964
0.01854860
0.20007394
0.09244509
-0.01245737
-0.11626287
-0.24154329
0.20503323
-0.06758838
-0.02137650
0.13539597
-0.17699458
-0.04341248
0.16369064
-0.00644766
0.12280983
0.04119630
-0.22019415
0.04055701
0.14723936
-0.05823936
-0.01992433
0.17498271
-0.07266642
0.04439158
-0.17744522
0.33221233
-0.14974223
-0.11589821
-0.12826206
-0.28700072
-0.03421826
-0.17575496
0.12221691
-0.05984186
-0.28703564
0.14154340
-0.02828058
-0.22664125
0.08718811
0.25066137
0.04559737
0.05708972
0.09642361
-0.19267488
0.15973702
-0.30819365
0.01894154
-0.15302615
0.05427362
-0.08244504
-0.20503262
0.06530847
-0.13341896
-0.22423954
0.05593584
-0.02095317
0.01982667
0.04880489
-0.07110718
-0.27019897
-0.17539905
-0.11243581
0.20143668
-0.07670071
-0.04899502
0.15653132
-0.36825278
0.07381353
0.13111284
-0.21204530
0.04515745
0.28593156
0.01725161
-0.24238178
-0.04011197
-0.17552347
-0.10747217
-0.07702273
0.16704950
0.04788949
0.11930145
-0.01964565
-0.22006442
0.21980165
-0.04425886
0.09014405
0.34428164
-0.04376971
0.22047013
0.03963893
-0.05526087
-0.11425234
-0.15834747
-0.22975838
0.12858409
-0.13414037
0.12857892
0.08796050
-0.27565476
0.07554793
-0.13172042
-0.17946002
0.05438127
0.07772499
0.03287939
0.18747906
-0.02839316
-0.04050757
-0.13218914
-0.15350655
-0.06365921
-0.04582890
-0.00136806
-0.07722192
-0.05365444
0.18913014
0.15986755
-0.01246856
0.09019577
-0.01491451
0.03080859
0.18302251
-0.10161195
-0.24612427
-0.04887085
-0.08238133
0.08831250
-0.12090372
-0.22997603
0.22080927
0.06911830
0.00996614
-0.08929046
0.03348080
-0.07864996
0.01462524
-0.00311359
-0.05585438
0.10784619
0.01161164
0.11628580
0.07252506
-0.14600061
0.05034070
0.17071162
0.01474827
-0.02811749
-0.01508133
0.02061936
-0.05943357
0.04601450
-0.04950620
-0.16099137
0.18680398
0.10809401
-0.04518035
-0.05213941
0.06792563
0.03530634
-0.01854357
-0.17752473
0.12798654
-0.02580683
0.04877560
-0.17424971
0.06609525
-0.10391361
-0.15042125
0.02553007
0.16370116
-0.04244657
0.01498468
-0.04019378
0.08284823
-0.14327030
0.08442143
0.22221833
0.07237065
0.01411116
0.09047246
0.10039196
-0.10559142
0.05874971
-0.07740483
-0.06343856
0.13522455
0.18581222
-0.06414889
-0.15830374
-0.00272788
0.05245226
0.01105081
-0.07155526
0.03629432
-0.06278776
-0.06235663
-0.10685327
-0.00405568
-0.23308277
-0.03654062
-0.01929724
-0.10905193
0.09482457
-0.02916649
-0.21410152
-0.02521988
0.06849389
-0.02576340
0.13316679
0.04524094
0.04164668
0.07300917
0.23148061
0.03218552
0.10340821
0.05639517
0.06559099
0.03639494
0.17034012
-0.04045380
0.10780917
0.09245116
0.09593041
-0.00285765
-0.18653885
-0.06072723
-0.05817376
0.05345499
0.20506206
0.03981986
0.04658272
-0.00710348
-0.06022684
-0.00079311
-0.10641558
-0.06800784
0.09154533
0.10745386
-0.04443517
0.14201216
0.09953666
0.13315260
-0.06617755
-0.15344776
-0.14886668
-0.25768313
0.13440695
-0.10294455
-0.10309794
-0.18342549
-0.04807626
0.19992319
-0.02336841
0.10212825
0.15587452
0.02861172
-0.07703961
0.10227587
-0.03977292
-0.04764068
0.08959454
-0.02049658
0.04420284
-0.02630100
-0.01784050
-0.07089997
-0.14548580
-0.07334371
-0.03399347
0.06074172
0.08683613
0.04263674
0.06675620
0.11714133
-0.06053445
-0.12342558
-0.11704516
-0.12308529
0.24122089
0.04491152
-0.03746365
0.02645983
-0.04075598
0.20917518
0.05465785
-0.08693270
0.08067773
0.13511036
0.11923816
-0.10515718
0.01110970
0.12686221
0.01071987
-0.16955671
-0.07780152
-0.07950255
0.00159106
0.21524283
-0.13266398
-0.36097956
0.17875102
-0.08074466
0.22023898
-0.08396180
-0.09335140
0.01073968
0.01117061
0.13355583
0.09064686
-0.04937861
0.20359719
0.08292738
-0.11351216
0.04325878
0.06083199
0.19357602
0.07713863
0.01820010
-0.10181671
0.14753695
-0.04389122
0.04591336
-0.09486291
0.01975036
-0.05963564
-0.02717464
-0.16396187
-0.12324957
-0.05568989
0.07194225
0.01723199
-0.08749425
0.00857398
-0.01727336
0.06440738
0.04386618
-0.10885937
-0.02383646
0.15757757
0.09296021
0.08494788
0.08100379
-0.05598029
-0.00496765
0.00792850
0.03665186
0.07356089
-0.00456223
0.18978824
0.15380189
0.00892089
0.13674918
-0.06713957
-0.18094312
-0.12588991
-0.01198131
0.07452118
-0.03406674
-0.03839467
-0.00137068
-0.01535462
-0.16486035
0.12088956
-0.04447099
-0.09314595
0.11826812
0.12386393
-0.02087566
-0.06688968
0.11680993
0.05779855
0.10600808
0.03474894
-0.04648200
-0.03278128
-0.04794266
0.06302313
-0.25972909
0.12079214
0.15430494
0.25830024
0.23360659
-0.01207878
0.19409396
-0.00555423
-0.28671303
-0.06156830
-0.00298943
0.20889045
0.02304534
0.00749221
0.12541763
-0.00076237
-0.23659959
0.09563184
-0.13900414
-0.04695200
0.00650541
0.10855746
-0.11388309
-0.01955646
0.10618640
-0.09105729
-0.03766190
-0.15071873
-0.09862928
0.00414490
-0.06107041
0.01799925
-0.22906402
0.04378082
0.32139716
-0.04627533
-0.05705432
0.02992494
0.02011066
0.04336720
0.07504676
-0.01312640
-0.04828635
-0.05511218
0.01637777
0.07084963
-0.06061976
0.01380270
0.01459426
0.03072482
0.00657157
0.00238354
0.07252911
-0.08145644
0.07192758
0.10151913
0.01663050
0.12075574
0.00508415
-0.04977585
0.11299843
-0.02099229
0.02464502
0.05200863
-0.03852010
0.04268875
-0.03949452
-0.01054315
-0.04458764
0.00886181
0.04228720
0.06339997
0.00248866
-0.06199648
-0.08658879
0.04165738
-0.01835703
0.02534477
-0.03897749
0.04844180
0.01399130
-0.02979157
-0.01596272
-0.02165365
-0.00015000
-0.04401634
0.04687278
0.01312770
-0.04568436
-0.01087813
0.03482061
0.07232942
-0.01634966
-0.03888186
0.10887399
-0.03894785
-0.06221354
0.06781127
0.02751308
-0.03909478
0.04687424
-0.04266202
-0.04215264
0.03259272
-0.08217290
-0.00599093
-0.01850114
0.06559034
-0.03539672
0.00628661
-0.05040517
0.08790917
-0.08067119
-0.01355813
0.02717071
0.04320456
-0.06847625
0.04723730
-0.04776218
-0.00746505
-0.10023233
-0.04297068
0.01069667
-0.06672434
0.05564255
0.04849468
0.08579453
-0.05812893
0.00224503
-0.03709817
-0.02548534
0.07282727
-0.10911883
-0.04918458
-0.10710423
0.11217792
0.18700115
0.00915584
0.09350186
-0.17445306
-0.18381682
-0.18814170
-0.06778490
-0.05055257
0.16156524
-0.12611859
-0.10092860
0.00247102
0.09441169
0.07907464
-0.03993315
-0.12439080
0.05364724
-0.02358642
0.21173744
0.15348449
0.09777426
-0.07880037
-0.02368885
-0.10338160
0.04940209
0.22509754
-0.05257699
0.20674549
0.02217087
0.02965629
-0.04275734
-0.02144177
0.04380402
-0.07141632
-0.12424075
-0.04650723
-0.22464366
-0.27230537
0.07656590
-0.06433778
-0.18783617
-0.11700112
-0.06781746
-0.15852049
0.11900606
0.28477108
-0.11602616
-0.21677895
0.16168098
0.06469925
0.25574139
0.15077230
0.33412200
0.03533991
-0.06622475
0.03810767
-0.03961794
0.32422400
-0.00860405
0.18913004
0.05440020
0.05764345
-0.15566249
-0.09498097
0.02772288
0.00440719
-0.16421202
-0.04179945
-0.22080740
-0.25401047
0.13531859
0.05338110
0.03645394
-0.03951311
-0.08396897
0.23235609
0.10208243
0.09070558
0.01044293
-0.06425379
0.13259941
0.00509695
0.22028784
0.00425820
0.09133148
0.02487234
-0.06592065
-0.02747819
0.01753011
0.18481523
-0.06723978
-0.17519377
-0.17025627
-0.11902192
-0.05204242
0.17521444
-0.06836811
-0.02493350
-0.22374330
-0.20027372
-0.17537318
0.07219555
0.01335923
-0.02015766
-0.06101898
0.03287316
0.02864529
-0.15891740
-0.09919444
-0.12494413
-0.12829082
-0.15161823
-0.07940824
0.06693651
0.01548705
0.15352495
-0.08448622
-0.11751442
0.05496411
-0.29037046
-0.13510855
0.02503369
-0.18620962
0.00547775
-0.10538425
0.00279512
-0.14561252
0.00408332
-0.07322866
-0.11988284
-0.42041171
-0.01818463
-0.06859930
0.05426343
0.25764480
0.03700798
-0.54592675
-0.04884222
0.09419849
-0.04431327
-0.10073874
-0.04406988
-0.07978472
-0.04505335
0.01944051
-0.07630180
0.11436881
0.15546866
0.19570717
0.00976038
0.04311537
0.01302446
-0.10965116
-0.00247880
-0.14383385
0.12563479
-0.23711145
0.13144259
-0.29536176
0.02408621
0.14101347
0.04183883
-0.09571405
0.00947955
-0.02113010
0.10454968
0.21829024
-0.00349363
0.10415647
-0.16272332
0.21440722
0.32638860
-0.21746290
-0.37199113
-0.04140924
0.11682248
0.03297738
-0.22177956
0.13844517
-0.02457661
-0.12171863
-0.01498019
-0.07931665
0.05520070
0.23524977
-0.15784292
-0.25989577
0.09379951
-0.00741755
-0.04456240
0.01955652
0.04170400
-0.03784183
-0.04636807
-0.08385344
0.01448444
-0.14631438
-0.21679378
0.14502332
-0.00808753
-0.01237946
-0.07512672
-0.15124668
0.08641791
0.05589883
0.17772874
-0.12236541
0.03481394
0.03577360
-0.02618520
0.28397888
-0.00989270
0.01383078
0.00020698
-0.01025948
0.08503035
-0.01848397
0.16268176
-0.02707123
0.11012965
0.01996925
0.09557390
0.07323495
0.01876851
-0.02616955
-0.04488049
-0.04374076
0.05201081
-0.10300802
-0.20701328
0.13635400
0.03911093
-0.08833023
0.00492225
0.02402229
-0.05955509
0.20886274
0.12910147
-0.14387561
0.04902099
0.19612248
0.01738957
0.24698514
0.04059971
0.03153268
0.04434749
-0.13127744
0.05109083
-0.08734013
0.26891652
0.02869716
0.09914850
0.06853861
0.06070339
-0.05838708
0.11834629
0.04988953
-0.11212747
0.01635014
-0.01264271
-0.12389873
-0.20078038
0.01484841
-0.02785197
0.13336802
-0.02624200
0.04179830
-0.00352062
0.01558919
0.07363054
-0.08781322
0.03655871
0.04682794
0.14810961
0.17730734
0.12393268
-0.05140647
-0.04866410
-0.22272548
-0.01471249
0.04139251
0.10709152
-0.00907420
-0.07992991
-0.05880646
-0.03699966
-0.12759092
-0.12163600
0.34909761
-0.04604366
0.00814128
0.02672549
-0.10761109
-0.10022955
-0.07337775
-0.03536711
0.14611679
-0.08892627
-0.07494658
0.18880585
0.02680861
0.13433412
0.20517443
-0.02702354
-0.04445020
0.00440711
-0.06785776
-0.15374288
0.15264522
0.18220338
0.08352379
0.03480801
0.33279952
0.04483953
0.01583917
0.07448374
0.02456033
-0.00705915
0.03919946
-0.12899722
0.11947631
-0.02487985
-0.03205300
0.06554511
-0.00306632
-0.21433870
-0.08280341
-0.09809276
0.04137896
-0.04093725
-0.23734850
0.12144189
0.13796715
0.19781461
0.15328799
0.02375297
0.06499785
0.03910445
0.08637030
0.00663435
0.14211316
0.17998573
0.00301914
-0.04723055
0.12850368
0.29201946
0.08432970
0.07694961
0.04054561
0.00754271
0.13410205
-0.09932679
0.03955822
0.08325011
0.02333274
0.12098271
0.02652717
-0.36947531
-0.08613301
-0.12363034
0.25091472
0.10340325
-0.23444141
0.19645146
0.17454040
0.16843727
0.15638176
0.20344529
0.10804267
0.07703585
0.12855834
-0.10310149
0.00307045
0.16980369
-0.09733805
0.00153785
0.00719092
0.32386363
0.14541548
-0.05683474
0.17168540
-0.06166966
0.13194525
-0.06257336
0.05975650
-0.12727384
0.08362120
-0.04028372
0.02129676
-0.00818957
-0.09176959
0.05110932
-0.00972676
0.00042610
-0.19526397
0.01660572
0.02480308
0.06963365
-0.03829802
-0.08895552
0.08288363
-0.01754788
0.07556997
0.09525899
0.01258821
0.01893573
0.07862777
0.02790414
0.01058960
0.01484451
0.04100874
0.09502590
0.05374051
0.01519404
0.01945051
-0.07569308
0.04438012
-0.07927948
-0.09773480
-0.04102413
-0.09001676
-0.11951501
-0.04380573
-0.02458466
-0.08079098
-0.02075013
-0.13674036
-0.11158859
0.09046488
0.03705769
-0.05666366
-0.06497524
0.12275719
-0.04726421
0.09161610
0.03919432
-0.00048691
0.05395374
0.00208218
0.00791780
-0.06601993
0.05775442
0.13185097
0.11414012
0.09189742
0.05449644
0.03936355
-0.01706053
-0.09135415
-0.00793689
-0.07645732
-0.00745457
0.00127235
-0.10449780
0.06816580
-0.03452762
-0.20371929
0.04702121
-0.06019117
-0.07231910
0.15181556
0.05670670
-0.15039477
-0.01059583
0.23683858
0.00605667
0.10871118
0.04209972
0.03047275
-0.03695183
-0.10896532
0.06435610
-0.12638234
0.19271731
0.04885084
-0.13246582
0.10822006
0.00264030
0.07049439
-0.09012909
0.09697550
-0.20169617
0.14657120
0.08469009
-0.03860832
0.02774098
0.09708418
-0.02527544
-0.01264799
0.08402112
-0.11441667
-0.01803526
-0.11672107
0.07065043
0.02902813
-0.06036495
0.02254159
-0.06578208
-0.16450500
-0.21869481
-0.17357321
0.21816896
-0.03515145
0.03839327
0.16998285
-0.08835591
0.02245518
-0.11944902
0.10184766
-0.02235559
0.10269308
0.01011382
0.07931057
-0.21172334
0.02953399
0.04383342
-0.07804840
0.12231152
0.04406916
-0.12712701
-0.15340436
0.04691892
0.01717428
-0.05748498
-0.13978185
0.02939667
0.02564398
-0.13305035
-0.08823204
-0.06204606
-0.02214951
-0.13870876
0.01360184
0.05443198
0.10423515
0.11162685
0.21712644
-0.11764050
-0.03228991
-0.09283736
-0.11206695
-0.11423609
0.21700057
-0.02252100
-0.04020154
-0.04897847
-0.03986497
0.01738431
-0.11326339
0.05064638
0.05478075
-0.05773606
-0.23747304
0.02751413
-0.08374738
-0.10260243
-0.09645903
0.23050722
-0.16182247
-0.24728711
-0.04420903
-0.03036746
0.00631670
-0.02605405
0.14582665
-0.06617426
0.10220145
0.06504372
0.13999736
-0.06319345
-0.02757473
-0.01219886
0.08035763
0.05592154
-0.06873809
-0.01961940
0.14773969
0.01412110
0.01005749
0.08481996
0.03105464
-0.05964582
-0.15047026
-0.03482756
0.18031155
-0.22801788
-0.28846285
0.04223831
0.01763147
0.08009288
0.19520462
0.15171309
0.07258655
0.00688161
0.05022931
-0.00021730
0.07537135
0.10810816
0.17895351
0.21035257
0.09565839
0.05408124
0.13697363
0.12575078
-0.04281968
-0.01741150
-0.18217964
-0.07861633
0.02843016
-0.04004570
-0.21850361
-0.03595295
-0.08179288
0.08642203
0.15187760
0.01324131
-0.37661561
-0.05707446
0.15432429
0.03338287
0.00486559
0.06350145
-0.01368021
0.05644627
0.12409653
-0.07293068
0.08594146
0.05188495
0.14028142
0.05907105
-0.02035618
0.08439525
0.00711022
0.02066493
-0.00236387
0.13727839
-0.02864123
-0.10868587
-0.13555197
-0.06929791
-0.03864154
0.04963123
-0.00184130
0.03881105
-0.09896702
0.07625371
-0.05674378
0.02903144
0.14968306
-0.12663387
-0.00379392
0.07503488
0.07082023
0.02251439
-0.03453115
-0.03999687
0.08124154
-0.03096101
0.04702769
-0.00114436
-0.08135948
0.07261328
-0.04303647
0.06124204
-0.20219673
0.02443790
0.11683962
0.04181744
-0.05488734
-0.02935147
0.10239971
0.05432275
-0.03055773
-0.00112634
-0.08221869
0.01738882
-0.04039272
0.08643620
0.00596350
0.03682296
-0.10362204
0.07890327
-0.09758606
-0.04758981
-0.04716633
0.01519660
-0.07414582
-0.01506649
-0.15693313
0.09234463
-0.03997995
0.05569831
0.10989724
-0.01900715
0.04339191
-0.05074100
-0.01709476
-0.06218152
0.09527471
-0.03252213
-0.08848431
0.11016988
0.00752902
-0.01161751
0.05308533
0.01041553
-0.06221638
0.02098833
-0.08143007
0.04009405
0.03613210
0.04082242
-0.02336757
0.06675266
-0.03870503
0.10295562
0.02293135
-0.05046225
-0.00336930
0.00100431
-0.05624691
0.00082570
0.04603581
-0.07525550
-0.03072296
-0.00825848
-0.05018663
0.03681887
0.06111895
0.04013170
0.03307446
-0.10116620
0.00721344
0.08728738
0.02752453
0.02472197
0.15380955
0.04766061
-0.02452441
0.00564600
0.00474713
0.05916623
-0.03401569
0.05841009
0.01462833
-0.06648872
-0.08572176
-0.04485188
0.01848018
-0.03308355
0.00350965
-0.06301638
0.02268476
0.11039143
0.06549393
-0.07646185
0.03992066
0.08332797
0.01307247
0.00140952
0.08070105
-0.00272923
-0.01686802
0.03934537
0.00734166
-0.01478800
0.01994639
0.07412431
0.01809650
-0.04577881
-0.10363019
0.05492248
-0.07994311
-0.00330163
0.14642273
-0.03005470
-0.09002446
0.03271486
-0.03794402
0.12176075
-0.12234974
-0.02053072
-0.09122811
0.04268565
0.02402265
-0.12346444
0.08961638
0.07299674
0.11697349
0.09009272
0.14904128
0.14309412
0.00588945
0.02598311
-0.01786656
0.10244654
0.25001046
0.19986990
0.02649904
-0.01721906
-0.17542927
-0.04265332
-0.02395395
0.28352493
-0.03994832
-0.10513725
0.08309772
0.01699596
0.04004563
-0.07531969
-0.00346671
0.09675252
0.04521909
-0.05480696
0.06826860
0.21417984
0.04673624
-0.03027791
0.01638547
-0.00563706
-0.23226883
0.20586924
0.01584606
0.07222094
-0.11643951
0.07049367
0.10876266
0.05406388
