0.01471548
-0.17120461
-0.04327596
0.03346233
-0.05868881
-0.10880899
0.28133273
0.05672890
-0.00778858
-0.10312801
-0.02088098
-0.16777818
0.08835383
-0.06454016
-0.02373254
0.04154857
-0.09207366
0.02264931
-0.05326629
0.35002294
0.10848139
-0.11998892
0.21272348
0.03253405
-0.11985991
-0.11304632
0.19165415
0.06464859
0.07353505
-0.01409928
0.13870800
-0.04619308
-0.05406151
0.05233396
0.09245694
-0.10217097
0.04028803
-0.15579456
0.07932374
-0.00629287
0.15733519
-0.05407937
0.07548221
0.04205966
-0.06220919
0.05234019
0.09988881
0.00428415
0.03096468
-0.17781892
0.05605442
0.02347626
0.01000766
-0.01713468
0.33059606
-0.00446145
-0.02144769
-0.04521959
-0.06748004
0.01869979
0.07896946
-0.07337118
-0.08843637
0.00653049
0.04395888
0.10522318
-0.07582418
0.09957244
0.01425040
-0.04272353
0.25417569
0.07865077
-0.13306162
-0.05071309
0.11772653
-0.04494454
0.07412884
-0.05533502
0.01321638
0.01201998
-0.10177464
0.00025370
0.00649558
-0.07365129
0.09800897
-0.00973157
0.21298453
-0.03261996
0.11074467
0.11793923
-0.00208110
-0.07611828
-0.03210004
-0.02671340
0.10706426
0.00179538
0.02015922
-0.22404189
-0.04489743
-0.02703366
-0.04836116
-0.02184922
0.22863173
-0.08261404
0.00319015
-0.10542620
0.00136541
0.17096297
0.01794451
-0.08548467
-0.08309942
0.06017573
0.10642702
0.08933582
-0.06353123
0.10842789
0.04012219
-0.16354688
0.08052290
0.04537576
-0.13861562
0.00868326
0.02441632
0.03215274
0.09007217
0.00808648
-0.04173872
0.00315875
-0.03306137
-0.01666445
-0.07066034
-0.05367447
0.11891595
-0.11780103
0.15531410
0.04545585
0.05348751
0.16038856
-0.15527393
-0.05636675
-0.08980517
-0.13673083
0.08761279
-0.12692900
-0.19649446
0.18341514
0.22412042
0.12527031
0.25899163
0.18661216
0.09123709
0.13760127
-0.17226461
0.09074358
0.09770527
0.03385983
-0.15365763
0.05317246
-0.24640654
-0.04719857
0.07642592
-0.05145890
0.10401924
-0.17223819
0.00574770
-0.09081993
-0.00417612
-0.07994112
0.07817369
-0.14648168
-0.18127380
-0.13729823
-0.12665853
0.05556331
0.11601433
0.04465957
0.25574249
-0.10552537
0.29529992
0.19530773
0.02419536
-0.08581448
-0.11120363
-0.15771635
-0.23220633
0.16939761
-0.13588525
-0.02732956
-0.07131541
0.08203261
-0.04086554
-0.02096533
-0.05087061
0.22303677
0.08801426
0.02652856
0.13419133
0.21685722
-0.11069004
0.16227187
-0.16724229
-0.01072433
-0.15697420
0.12410519
-0.09347846
-0.06589939
-0.12835313
-0.10420976
-0.02523047
-0.20292558
0.15351605
-0.07228301
-0.00572370
-0.02186414
-0.04150128
-0.13816354
0.02246008
-0.13941735
-0.24016592
-0.01130938
-0.00882688
0.00335907
0.19963598
0.00402442
0.34107250
-0.04300183
0.33306023
0.23605864
0.02541068
-0.15537000
0.00578180
-0.15257435
-0.19293612
0.05900854
-0.16540892
-0.10049688
0.09047694
0.04702589
-0.02055706
0.08887637
-0.08151217
0.16928065
0.15198682
0.05026391
0.14903694
0.22453478
0.06199497
0.08364903
-0.11246520
0.09317503
-0.03178479
0.36985928
-0.04316878
-0.10910944
-0.25032270
-0.11215045
0.11563886
-0.11078169
0.22744527
-0.15894154
0.15566967
-0.11962067
0.08557233
-0.12754184
-0.00340834
-0.15480137
-0.40214401
-0.09818634
-0.10299914
0.08928811
0.25184640
0.12079620
0.38151520
-0.13722229
0.40787798
0.03099184
-0.10722075
0.07506488
-0.00957461
-0.00286581
-0.19187181
0.01514571
-0.24959394
-0.11280657
0.05807662
0.08006779
0.06687017
0.00420334
-0.21981211
-0.04254880
0.05039386
-0.23500770
-0.12187861
-0.14885448
0.00199850
0.02530824
0.04969782
-0.05664921
-0.02359612
0.06917740
-0.29577616
-0.10099577
0.00208378
0.00000055
0.06959848
0.15685308
0.08467868
0.06054446
-0.04017029
-0.18256387
0.16518766
0.00715773
0.13322769
0.00561230
0.06360245
-0.21898775
-0.11359508
0.07638427
0.10247071
-0.07366198
0.05775125
0.08314495
-0.07554479
0.14605443
0.17345326
-0.06905083
-0.02847871
-0.09526315
-0.11924056
0.30625120
0.09624501
0.15293981
-0.03948955
0.05276381
-0.06838474
0.03998413
-0.17695241
0.03081666
-0.19758624
-0.22248150
-0.07036926
-0.07291940
0.00752017
-0.09918310
-0.06696864
-0.19712472
-0.06564551
-0.00223056
-0.04036896
-0.20541729
0.12745014
0.13250636
-0.03160983
0.18364666
-0.00727814
0.03820586
0.04776331
-0.15352622
-0.00339998
-0.01690200
0.16798025
-0.08271042
0.07614342
-0.16561490
0.03453641
0.02756653
-0.12988676
0.06857966
0.04731898
-0.04677017
0.08604062
0.00336084
0.05555193
-0.07163455
0.04868126
-0.18339810
-0.02826318
0.02171528
0.01109663
0.08262064
-0.01556392
-0.14730234
-0.03901802
0.05136003
-0.13239828
-0.02789499
0.02026725
-0.19659640
-0.17442629
-0.22990438
0.04649398
0.07633451
0.05604631
-0.26373506
0.14654291
-0.00507217
0.09435584
-0.12515604
0.02586709
-0.04226402
0.06538431
0.12023464
-0.09003276
0.17097218
0.11602698
-0.14877875
-0.00171915
-0.06920517
0.13408682
-0.15505269
0.09362347
0.03617223
-0.12737387
0.01245733
-0.11184667
-0.03768137
-0.01513519
-0.03192608
0.02402039
-0.06783872
0.06382424
-0.08094255
-0.05700189
-0.00766013
-0.12340422
0.01617362
0.10824036
0.10341089
-0.04404803
0.06548230
0.13358071
0.04250919
-0.06048285
-0.20995204
0.14759943
-0.13029529
-0.31133088
0.04395584
0.08794291
-0.09349453
0.08937142
0.13331665
-0.05737279
0.18766510
0.17307964
-0.29849756
-0.28654626
-0.10658255
0.04656245
-0.47807249
0.27870926
0.07638501
0.09927553
-0.10597395
0.07628997
-0.10233857
-0.04462669
0.09994055
-0.42434022
0.10041258
-0.14058226
0.31332323
-0.28991863
0.06573537
0.31388706
-0.16728838
-0.00503021
0.04940385
-0.01285987
0.09075524
0.19830118
0.43098429
-0.01375851
-0.04119065
-0.25085256
0.18484151
-0.04818933
0.10488880
0.09558444
0.06387479
-0.11506899
-0.07055638
0.16151826
-0.11773708
0.00301225
0.25537348
-0.06971683
0.06388088
-0.06370253
0.19032301
0.12229093
0.21680062
0.01757676
-0.10312656
-0.39665258
-0.08477292
0.06286395
-0.24896830
0.02486160
0.01198814
0.07097827
-0.00489328
0.23661861
-0.00238150
-0.04552842
0.22055389
-0.26376244
-0.21422879
-0.22030206
0.14361595
-0.19846071
0.05293854
0.06709319
-0.14907487
-0.03192182
-0.12124971
-0.08788384
0.04317305
0.02089309
0.23436113
-0.12454815
0.28220546
-0.29605028
0.09635846
-0.10424753
0.07396414
-0.12490079
-0.11021068
-0.25657248
0.11842436
0.33708334
0.05055422
0.18879938
0.30166534
0.12953751
0.16622770
-0.09838612
-0.13233943
0.04291080
0.12778977
-0.16957363
-0.07156074
-0.19619305
-0.22764482
-0.00341468
-0.13580590
0.19198528
0.08784034
0.05897195
-0.01901880
0.08711402
0.00351258
0.38219234
0.15212555
0.05305131
-0.18175776
-0.13069421
0.00667064
-0.25497040
-0.09273614
0.05708010
0.11109889
-0.10658106
-0.01383178
-0.03185706
0.18526757
0.12509365
0.09311948
-0.07329109
0.15758882
-0.15979618
0.43291929
-0.01185358
-0.31634173
0.11998700
-0.42860273
-0.19816661
0.09903270
-0.09160865
-0.32085326
-0.18727639
-0.12999977
0.13783926
0.00490174
0.22463799
0.00669991
-0.21489424
-0.41806516
0.24603678
-0.06011216
0.05782845
-0.01689951
0.02044555
-0.25879431
0.64529592
0.06736557
0.02008800
0.08329215
-0.01403695
-0.37752751
0.00178611
-0.34928489
-0.19909032
0.13632537
0.05829526
0.22509602
0.18353243
0.29652551
-0.04773771
0.37461135
0.13418236
-0.12663597
-0.09948531
-0.27137059
-0.09064937
0.01146659
0.26578036
-0.03874478
0.11897171
0.11585443
0.00709564
-0.21784826
0.17473187
0.01394198
-0.06305890
-0.02345735
-0.13955267
-0.27555624
-0.19195509
-0.15194377
-0.00380027
0.14991657
0.11381734
0.11102786
-0.18203487
-0.26396060
0.17560551
0.04393712
-0.07420237
-0.04867816
-0.00500247
-0.06091589
0.38846052
0.05894488
0.03049253
-0.22817005
0.03206266
-0.54956377
-0.09469461
-0.33619002
-0.22256806
0.22421767
0.07766178
0.28488481
-0.00544631
0.35861248
0.00680013
0.19363046
0.16381581
-0.16591762
-0.23935679
-0.08499799
-0.04089441
0.11109491
0.10617726
-0.00368095
0.22772847
-0.00043912
0.08058690
-0.08771142
-0.02736669
0.02492783
0.02805101
-0.29139197
-0.19769041
-0.22589816
0.07982250
-0.14585632
0.08257592
0.30806339
0.11908305
0.14512232
0.05491747
-0.15887807
0.25116673
0.01999537
-0.13888744
0.17661101
-0.00622634
-0.08146884
0.16473435
-0.12115119
0.08836465
-0.24629742
0.31570494
-0.33548677
-0.17849694
-0.26474893
-0.15327686
0.35912526
0.16536765
0.17724673
-0.05050180
0.41652662
0.05040980
-0.04055410
0.46609223
-0.18010853
-0.33179125
-0.08374706
0.05323577
-0.02435352
-0.21851370
-0.04236829
0.33005896
-0.20610607
0.06802014
0.11518321
-0.08185234
0.10451041
-0.09047355
-0.16597509
0.24960636
-0.43599689
-0.20310426
-0.02471721
0.12097301
0.10869658
-0.04343920
-0.29581061
-0.09905885
0.11398621
-0.07773948
-0.12293996
-0.02577261
0.08725459
-0.01466100
0.12134906
0.45333770
0.36457974
0.00314298
-0.22085716
0.10665707
-0.06547070
0.12865333
0.19618456
0.01447865
-0.09319417
-0.12390015
0.00709441
-0.10525353
0.16178298
0.30806032
-0.10879700
0.27729037
-0.06747505
0.09466593
-0.04527717
0.39305094
-0.06391791
0.08578032
0.00797896
-0.06969990
-0.05809757
-0.00084260
0.04324092
0.08416369
-0.01406663
-0.00577182
-0.33435848
-0.04122804
-0.30569735
-0.03405469
-0.19373910
-0.00154700
0.09078490
0.25990641
-0.37989068
-0.06554195
0.03516355
-0.13322778
0.01728375
-0.16541216
0.06468192
0.42665434
0.25680819
0.03869491
0.15893759
0.15726319
-0.31564662
-0.02768330
-0.03140184
0.26151291
0.14193964
-0.04366935
0.01860654
-0.08848774
0.00188813
-0.02399211
0.11252807
0.09559215
-0.19208594
0.09946489
0.05905504
0.25373775
0.04288353
0.16838032
-0.09162242
-0.08701070
0.14183548
0.07575700
0.06961199
-0.37565544
0.18574588
0.05841601
-0.12743424
-0.12725389
0.07443638
-0.04100393
-0.09026829
-0.00030230
0.09465601
0.13227694
-0.09119447
0.24612963
-0.06749476
0.13739818
0.04347093
0.10329070
0.34513623
-0.13730015
0.07653254
0.28382242
0.18131022
-0.04811561
-0.10592537
0.05805422
-0.08918776
0.23352614
0.01151121
0.24303518
0.04946265
0.07864450
-0.06005643
-0.05916139
-0.01486776
-0.11301657
0.07687492
-0.07948215
-0.15389550
0.02561553
0.18694276
0.36499059
0.13117291
-0.03167190
-0.19959827
-0.17682689
0.41797653
0.08016815
-0.08528100
-0.13512152
0.28722766
-0.18902452
-0.04975008
-0.00035890
-0.20257530
-0.05877922
-0.21997006
-0.15015219
0.04897463
-0.02512633
-0.07402416
-0.00931067
0.28321275
-0.05446460
0.26804593
-0.15257776
-0.29539698
-0.12696485
0.05876609
0.04565861
0.05763870
0.10336784
-0.21114561
-0.14173082
0.08356657
0.16214815
-0.09784917
-0.27077356
0.01518291
-0.24176192
-0.08247107
-0.14977716
0.01125356
-0.26396847
0.01401887
0.18949351
-0.04115800
-0.12230852
0.30960846
-0.12737238
0.20265183
-0.00338229
0.16396739
-0.17870490
0.38424036
-0.25271162
0.15256627
-0.14082350
-0.01353333
0.33731243
0.03567361
-0.28544724
-0.16058485
-0.09840839
-0.18497288
-0.19594471
-0.05462259
-0.00772597
-0.09780934
0.04580124
0.01682572
0.02164251
0.08786981
-0.01906803
0.01380158
0.00650287
-0.18353814
0.03523311
0.00764053
0.08325444
-0.06042536
0.05502113
-0.18270132
0.31447282
-0.05904185
-0.02860691
-0.02786435
-0.26359648
0.05985141
-0.14482172
0.11235775
-0.20958078
0.05399363
0.02355650
-0.02351905
0.07590459
0.06667611
-0.02293715
0.14229833
-0.06905400
0.15046367
-0.25214681
0.08311255
-0.20083646
0.16913000
-0.06798477
-0.00941615
0.17361711
0.00842619
-0.24178503
-0.09351672
0.13072594
-0.24499831
-0.26333249
-0.11725281
-0.09239498
-0.06712214
0.04136365
-0.04076779
-0.16060910
-0.12142171
0.02772187
0.07466093
0.04547975
-0.28132567
0.04789557
0.01455367
-0.01938284
-0.07657535
0.02424184
-0.36206308
0.03285323
-0.17994381
0.04537331
-0.19873728
-0.09290045
0.21651515
-0.31835720
0.08853529
-0.16901867
0.09992558
0.17080244
0.00882782
0.02291912
-0.00579402
-0.00740187
0.02836070
-0.07404302
0.16674407
-0.08377267
0.06738541
-0.14457016
0.17911284
-0.16226473
0.16565961
0.09243596
0.03730391
-0.20658541
0.05803303
0.13002807
0.04501504
-0.19284493
-0.00951692
0.14662203
-0.00889570
-0.04607194
0.30251589
0.19314758
0.18436642
0.03550586
-0.10257987
-0.25062895
-0.11997844
0.15223113
0.10819059
0.08155975
-0.10938536
-0.00616779
-0.03592212
0.12129661
-0.08676270
-0.20639560
-0.15191391
-0.13758497
0.01092334
-0.15615349
0.16734952
-0.23421092
-0.30476710
0.19925651
-0.03747767
-0.12785834
0.18134466
-0.04265036
-0.01032455
-0.03598384
0.18983628
-0.16336168
0.31415591
-0.40486327
0.05078527
-0.18607168
-0.20613571
0.21202879
-0.15271588
-0.11965055
-0.00621784
0.05052280
0.00969060
-0.16889657
-0.09644075
-0.01482808
-0.01930038
-0.04820443
-0.02969929
0.08801859
-0.00927802
0.00022876
0.11193281
0.01495123
-0.31322026
0.09753372
0.15227441
-0.01813278
-0.04652061
0.06902664
-0.31005433
-0.01066732
-0.01412204
0.01430805
-0.17448434
-0.08733074
0.01230788
-0.11875328
0.10931043
-0.25977790
-0.03921191
0.07900383
-0.03778524
-0.06077192
-0.03535837
0.03091886
0.03727169
-0.01985802
0.10516617
-0.09516254
0.06619094
-0.14574027
0.15422229
-0.12331317
-0.04189555
-0.00847742
-0.01073559
-0.28422970
0.05310355
-0.08423477
-0.17929876
-0.28447253
-0.22226439
-0.00988146
0.02234924
-0.02296399
-0.15394141
-0.00524215
-0.40764606
0.22996537
0.13608637
0.02461581
-0.21901022
-0.07568679
0.26626721
0.03925021
0.18557563
-0.02894083
0.00186573
0.09767415
-0.09656064
0.16108760
-0.21295092
-0.00785733
0.08442651
-0.07378274
0.05849737
-0.00764206
-0.12741061
-0.10370079
0.12607820
-0.16364169
0.00708036
0.07709945
-0.10765975
-0.09822296
0.05611212
0.21541399
0.06425536
-0.04148823
0.33197311
-0.00096010
0.04618619
0.07278024
0.13953233
-0.19089673
-0.10393508
0.15129291
-0.37062511
-0.11204574
0.05830872
0.38154563
-0.09130663
0.18402377
-0.30170479
0.17410593
-0.21506613
-0.10426703
-0.00517937
-0.03598779
0.14242554
0.04560676
0.22057977
0.27548552
0.12623167
0.10771626
-0.29213706
0.31164813
-0.14157774
0.08208202
-0.00062687
-0.08430780
0.10587353
-0.07678378
0.13900270
0.08115028
0.16770734
0.35060918
0.08052997
0.25633776
0.09770875
0.07468238
-0.28755596
0.17994739
0.10266616
0.00957165
0.07795445
-0.23230812
0.09228837
0.04198979
-0.10216441
0.00371009
-0.00422842
0.05126516
-0.16812450
-0.08482806
0.06982456
0.13768987
-0.09901109
0.11332673
0.28756705
-0.07296013
-0.09190498
-0.11412442
0.07223822
-0.20867029
0.02379612
-0.07467345
0.35239604
-0.12083544
-0.13874893
0.13964143
0.08660149
0.00576778
-0.04523434
0.02806108
-0.00564822
-0.00787128
0.20770961
0.04753499
0.14942952
0.05221716
-0.08765150
-0.12121856
-0.03728150
-0.09508941
0.08404914
0.21349832
-0.04676173
-0.02132568
0.12144782
0.30150160
-0.03891566
-0.14990655
0.01903309
0.14207244
0.15602218
0.04731042
-0.02732755
0.12046725
-0.11026751
0.06376151
0.03235509
-0.16873781
-0.06277941
0.05847780
-0.30040953
-0.11600518
0.07995973
0.12108209
-0.00617296
0.17498930
0.07076504
0.09798814
0.13549362
-0.16424839
0.22315136
0.10985811
-0.10338071
-0.08482613
0.28322947
0.40635473
-0.26385632
0.04213789
-0.24487728
-0.15574940
0.23580973
0.14369598
0.10915644
0.08650186
0.00482125
-0.14478652
-0.19767390
-0.15493618
0.12714928
0.10638508
0.04612467
0.22198321
0.09104881
-0.15278445
-0.14630166
-0.33902997
0.16433667
0.05303440
-0.06668167
0.00926415
-0.00913539
-0.00659996
-0.45090258
-0.30742398
0.06220825
-0.18274209
-0.13722590
-0.09912758
0.41411784
0.15788248
-0.18218236
-0.35982737
0.14658488
-0.10935201
-0.21623583
0.08895880
-0.24743520
-0.15035947
0.10142087
-0.15572724
-0.14666820
-0.02906405
0.01905652
-0.00787638
-0.01998502
0.29404646
-0.00267419
-0.03616465
-0.14964181
0.00646213
-0.06266898
0.17960805
-0.08507483
-0.14903997
0.04522295
-0.06340147
-0.21324956
0.08455826
0.07458446
0.21410607
-0.06365261
-0.03489507
-0.14143993
0.02604740
-0.05866564
0.00034499
0.04207204
0.13238280
0.02771767
-0.11686649
0.24795751
-0.02362271
-0.21366771
0.14116500
-0.35908982
0.07312550
0.03762183
0.15366441
0.03973305
0.16464297
-0.12390736
0.06640755
-0.03243228
-0.08540589
0.07329406
0.04534947
0.10224200
0.17842607
0.19707361
0.04065833
0.00687000
0.15258719
-0.46036598
-0.00734005
0.06807456
0.03249499
-0.05653448
0.07095708
-0.04376797
-0.22421438
0.18497436
0.10686538
0.19853611
0.13538983
-0.07086114
0.16291152
0.02278349
0.05755831
0.02140833
0.16227220
0.05555450
0.11279529
0.10362967
-0.00259345
-0.00516100
-0.12778150
0.11639286
-0.30899021
-0.01167348
-0.22599426
-0.06560874
0.25835180
-0.23191653
-0.00706381
-0.11488348
0.11475470
0.09343245
0.36388451
-0.45302501
0.31542158
-0.06512187
0.12731865
0.33529961
-0.11420136
-0.14067461
0.15930222
0.26187605
0.26673764
-0.05343847
0.51397270
-0.29041919
-0.02423043
0.06121406
0.32269683
-0.06462451
-0.07378732
0.17368029
-0.31791425
0.43094197
0.26164857
0.21858428
0.02504086
0.12962176
0.06115320
-0.25359821
-0.08977591
0.13499360
0.04985128
0.30656919
-0.10206214
0.11784590
-0.08330847
0.26558149
0.06336470
-0.36621147
-0.05579149
-0.20073794
-0.11837372
0.17503136
-0.12079944
-0.11507910
-0.07375695
0.04184044
-0.07438068
0.02004812
-0.02242712
0.11005601
0.09409899
-0.11678449
0.00675460
0.22329332
0.00437387
-0.00173806
0.17787857
-0.11363094
0.11343107
0.21086575
0.24857277
-0.61547935
-0.05953027
-0.02402317
-0.07703012
-0.17453659
0.06183210
-0.11830056
0.01789046
0.19781581
-0.04830141
0.13597634
0.29543370
0.10460951
0.18467267
-0.01928801
-0.10288162
-0.14636496
0.04609855
0.22777693
-0.14061578
0.13469388
-0.09049351
-0.06502788
0.01370216
-0.19756307
-0.10954836
0.01658106
-0.02634086
-0.14772050
0.11517879
0.01421557
0.12160462
0.19982576
-0.01037028
0.01995691
-0.05477688
0.13347706
0.08124314
0.06021266
-0.26251042
0.02932091
-0.12646228
-0.33940852
0.36838889
-0.02828390
0.07052542
-0.08702496
0.08002790
-0.40590224
-0.00406566
-0.00865792
0.03665226
-0.05264283
-0.06298123
-0.01450434
-0.14681533
0.15933806
-0.16080579
0.01264399
0.34276834
0.07610866
0.03609536
0.12177350
-0.13714130
0.04471407
0.05562459
0.30441862
-0.17514724
0.34565401
-0.18888280
0.23324265
-0.24397504
0.08526787
-0.15176781
0.00274540
-0.26756135
-0.16917242
0.15629254
0.11890037
0.24498636
0.12852517
0.26207206
-0.07085636
-0.01507232
0.14482954
0.22576883
-0.08359110
-0.24402763
0.05563758
-0.08071839
-0.37334448
0.37831384
0.07970426
-0.03036243
-0.23064631
0.08703655
-0.23455742
0.25793567
0.08976386
0.00805977
-0.13553317
-0.07316112
0.01313380
-0.27064341
0.02273695
-0.10814410
0.01484179
0.29107440
-0.11353535
0.00511603
-0.00210348
-0.15971436
0.08609807
0.10695500
0.29557833
-0.28964531
0.40844566
-0.27853677
0.50171620
-0.18664663
-0.06774050
-0.18969096
-0.01516669
-0.09074357
-0.11463337
0.09275731
-0.00592624
-0.09394315
-0.05396597
-0.10226125
0.10345170
0.07634763
0.07540998
0.25005826
-0.20372641
0.10237179
0.12396031
0.21777795
0.11972983
-0.02029864
-0.13645069
0.06448016
-0.02149151
0.10105457
0.06777982
-0.00166770
-0.30734119
0.03752607
0.03256044
-0.13833132
0.34548295
-0.09080976
-0.10230548
0.06388938
-0.22431165
0.01516668
0.08446656
0.09477872
0.12698154
-0.01006321
-0.37611967
-0.00315850
-0.14577736
0.04772211
0.02516311
0.05018727
-0.02683632
-0.09050997
-0.08734131
0.15421526
-0.16790256
-0.01739538
-0.16095650
0.00035145
-0.03522746
-0.09707731
-0.09130769
0.15946503
0.07207670
0.17685266
-0.25889304
-0.19028090
0.06084790
-0.02078428
0.22468632
-0.00007559
-0.13729204
0.03613964
-0.17936124
0.27507550
0.10261514
0.02111577
0.00402805
0.01651825
-0.25067252
0.09325661
0.02396698
-0.28942820
0.08543824
-0.19275406
-0.36089206
0.15973850
0.09913611
-0.03648943
0.17444319
-0.08946267
0.16988489
0.17373861
-0.08490551
0.15838359
0.16752130
0.09321576
0.10275631
0.01686668
0.00593129
-0.05973076
0.10927773
0.11482785
-0.17282355
-0.06109167
0.19678031
-0.03104413
-0.29833153
-0.05595946
0.02527991
-0.09514366
-0.29931483
0.09211411
-0.28071398
-0.01767111
0.07055573
0.07987829
0.34888527
-0.00948890
-0.41257441
0.18959814
0.17484125
0.22805749
-0.06820436
0.23450282
-0.39512160
-0.00207024
-0.30244622
0.26554382
-0.14401521
-0.32305729
0.01342918
-0.35617012
-0.26105309
0.20164540
0.23492697
-0.12845641
0.24532096
-0.02870808
0.15908353
0.15440607
0.24282396
0.11449891
0.18470810
-0.13800231
0.17585979
-0.10064531
-0.03651127
-0.10864880
-0.03235867
0.06799325
-0.44523084
0.15706630
-0.08198047
-0.05878238
-0.22329128
-0.06552853
-0.11285753
0.00158162
0.17714183
-0.14621061
-0.01083116
-0.04686905
-0.46058542
0.07903437
-0.03082884
0.02286370
0.26444525
-0.14730161
-0.05473761
-0.04807294
0.22328621
0.08400410
0.10149745
-0.11951786
-0.22390769
-0.04045307
0.32836610
0.03632845
0.17025369
-0.03716454
-0.06236649
-0.04822591
-0.17311579
-0.04256887
0.15165493
0.01036065
0.06534805
-0.01077828
-0.44278932
-0.06541882
-0.20350382
-0.01495253
0.08768230
-0.13605553
0.01726717
-0.03282883
-0.03912453
0.26517367
-0.02298729
-0.12537922
0.01324099
0.20118965
-0.39429247
-0.16169779
0.21528640
0.03181547
0.10398418
0.13700615
0.00860462
-0.04211439
-0.11391895
0.10952772
0.23008889
0.06067605
0.03696827
-0.01431892
0.06769943
0.31541425
0.10718773
-0.02595354
0.00864090
-0.02133626
-0.20823449
0.20435888
-0.06385694
-0.18643408
0.05343011
-0.32905090
-0.15252940
0.17727542
0.18234502
-0.04571560
0.16986318
-0.20149982
0.09523637
0.25414971
-0.00817400
0.08766103
0.08620491
0.15476599
0.16906521
-0.03676648
-0.04358542
-0.04321633
-0.05363496
0.15797532
-0.15377571
-0.06194564
0.14556085
-0.13464423
-0.42601201
-0.00636527
0.05512071
-0.06815960
0.02476227
0.11271884
-0.21749571
-0.01101792
0.04997185
0.04762938
0.16541342
-0.00909138
-0.08501402
0.19293074
0.25683793
0.40738970
0.03161072
0.20929916
-0.55094242
-0.01611020
-0.10480504
0.09623347
-0.20152827
-0.23724255
-0.07915495
-0.16322905
0.03749147
0.29592088
0.51428866
0.02364553
0.06812348
0.05839319
0.12367316
0.19571061
0.24012789
0.28245819
0.15172005
-0.18096927
0.31780162
0.03511989
-0.10420065
-0.08205333
-0.03977998
-0.19748388
-0.22991389
0.10596136
0.16491005
0.01310574
-0.02926366
0.21976918
0.12312597
0.05433316
0.16458127
-0.06606336
0.17101824
0.03793618
-0.01949940
0.11878871
0.02689603
-0.01247902
-0.09001292
0.21592698
-0.01434153
-0.03014241
-0.21671779
0.19585481
-0.06905548
-0.09653587
-0.11405386
-0.09487473
-0.13273214
0.21717027
-0.11033808
0.08666509
-0.12982413
-0.37229443
0.04138721
0.18937987
-0.04642585
0.05113763
0.11256108
-0.02019192
-0.13690591
0.15728013
0.03112068
-0.11265830
0.14647616
-0.06529713
-0.06573955
-0.13574372
0.15999964
-0.25196379
-0.22795576
0.00271200
0.12946162
0.14429887
-0.17136286
0.04742165
0.04244838
0.08941907
0.10259546
-0.06094974
0.17952403
0.12141995
0.01943732
-0.05403860
-0.11158403
-0.18600501
-0.15769584
0.13504304
-0.22836186
0.14541908
-0.07864495
0.20150799
-0.12653585
-0.15093903
-0.19859079
-0.08009028
-0.30400977
-0.06241013
-0.12420671
-0.09731722
0.01726431
-0.13717498
-0.01142843
0.30141783
0.06411179
0.15156995
0.18862100
0.07124298
-0.27893731
0.28742331
-0.02738458
-0.18725438
0.09189583
-0.24997091
-0.18908380
-0.08856586
0.09796212
-0.11436588
-0.14541070
-0.11051060
0.17695367
0.21057276
-0.17070089
-0.11905470
0.28525150
-0.14001745
0.05817705
-0.05251169
0.03952110
0.15230180
0.03304799
-0.05751438
-0.02205377
-0.14656642
-0.37821260
0.16929457
-0.03901579
0.28941867
-0.17521629
0.17738061
-0.15719125
-0.10558800
-0.30031785
0.03382882
-0.34370852
-0.37418908
-0.03990165
-0.28739193
0.09056251
0.04674274
0.06158500
-0.04068202
0.12288315
-0.03588305
0.01730101
0.04380931
-0.06743382
0.03851260
0.11323225
-0.03830444
0.11302283
0.05954330
0.04760483
-0.05244792
0.09815140
0.08446283
-0.05386838
-0.11130561
-0.28141639
-0.11401535
0.01874611
0.00949018
-0.02088002
-0.09223468
-0.09947523
-0.06598414
0.07446689
0.08748265
-0.12108307
-0.09876265
-0.05288604
0.00672648
0.01231046
0.30399686
-0.10310125
-0.07309049
-0.06918963
0.33880213
-0.26195338
0.34595889
-0.46374780
0.06626857
0.14216758
-0.04208706
0.36494040
-0.02746100
0.07601322
-0.57482547
-0.10041561
0.07148711
-0.04625652
0.12007330
0.17347135
-0.13336045
-0.02088027
0.24229579
-0.05762224
-0.48414427
0.15150368
-0.02880108
0.35424516
-0.25299156
-0.31252298
0.19670397
-0.43677279
-0.11005109
-0.24390347
-0.11157780
-0.08938295
0.02135882
-0.04751180
0.07960714
0.22107406
-0.10932013
0.03381382
0.07166630
-0.33924422
-0.09253336
0.03835750
0.00767978
0.05019526
0.14381972
-0.09643072
-0.02060474
0.15335546
0.25957516
-0.14179212
0.53067487
-0.40327486
-0.06314800
0.08403900
0.14281459
0.28266570
0.02251012
0.06808139
-0.38315216
0.00115676
0.08614441
-0.02392741
0.35481456
0.01654874
0.03319186
0.03169211
0.31491932
-0.17457570
-0.20423174
0.05269068
0.07140459
0.15333529
-0.10282486
-0.20081428
0.00689982
-0.18941747
-0.07863274
-0.22890648
-0.08320979
0.02844911
0.18391427
0.00792102
0.29259828
0.15876903
0.04591591
-0.28666225
-0.08327369
-0.47028309
-0.12734854
0.15445343
0.31778324
0.15140526
0.07315400
0.01367818
-0.06330544
0.02117318
0.14861095
-0.14205410
0.32021433
-0.11976020
0.09131575
-0.07744497
0.14301521
0.40133700
0.10431875
0.05830413
0.06844983
0.10922623
-0.01968534
-0.02190721
0.40181112
0.13697724
0.20382015
0.01912672
0.14425930
-0.09504604
0.06892213
-0.00571162
0.07946915
0.06838372
-0.18697868
0.02849329
-0.34568241
0.11217783
0.19143938
-0.10434663
-0.22212321
0.07332679
0.16465442
-0.31617311
0.00800885
0.12028984
-0.05953205
-0.04556884
-0.24829943
-0.25112253
0.08816806
-0.16969804
-0.12836227
0.06340187
-0.08976292
-0.10984643
-0.06720468
-0.00829001
-0.00978706
0.09887571
-0.00933511
-0.08926908
-0.12999389
0.11745034
0.19391565
0.00844860
0.14916831
-0.08915854
-0.06197271
-0.12108513
0.02589188
0.09144779
-0.03699815
-0.04855254
-0.25899917
-0.04435106
-0.04099866
-0.13980876
-0.13853769
-0.11198957
0.10440295
0.06876323
-0.01116622
-0.07677294
0.01398431
0.07225309
0.01008493
0.01338618
-0.08987716
-0.05927749
0.01217716
-0.03711020
0.40370968
0.16381781
0.07476625
-0.07764816
0.02898237
-0.05348602
0.16001107
-0.07576396
-0.01520260
0.10451506
0.05071044
-0.01400281
0.19060451
0.07317033
0.05688016
-0.01623777
0.00882620
-0.18707773
-0.10046352
-0.10966948
-0.15390514
0.13013107
-0.01815454
0.09476534
0.00065600
-0.00583424
-0.00820494
0.24511722
0.05073217
0.02199264
0.03372821
-0.16484325
0.13378830
-0.00277987
0.00364194
-0.02771371
0.06754655
0.09966587
-0.04442674
-0.06127083
0.06187653
-0.06567620
0.00944464
0.14522865
-0.17081493
0.00969947
-0.00710081
-0.06305766
-0.11675248
0.15967469
-0.05248001
-0.19769435
-0.14185964
-0.03330531
0.00524962
0.03300919
0.08680746
-0.22177801
0.28306344
0.13899910
0.15773195
0.07103493
0.00948023
-0.27829191
-0.14533688
-0.32958123
-0.02696169
-0.17224139
-0.06966925
0.02910579
-0.04478367
-0.05043545
-0.02483412
0.02922845
0.03490050
0.25056320
-0.02315773
0.08649030
0.20817392
0.08370708
0.25983438
-0.10093322
-0.01525647
0.08684671
0.02830699
-0.03321708
-0.15839866
0.11423056
-0.01498325
-0.17267331
0.13135991
-0.23005421
-0.22668917
-0.42722875
0.00487193
0.02521069
0.07586613
0.24696589
-0.08340801
0.00738211
-0.21964413
-0.18495527
-0.14969508
-0.20111102
-0.14780191
0.22049496
-0.17807080
-0.13770990
0.08961555
0.37242004
-0.08196203
0.05994115
-0.09095001
-0.30949476
-0.20586348
0.09927785
0.19443281
-0.13273497
0.01697102
-0.04009923
-0.11711728
0.10086770
0.24930054
0.27629817
0.01690308
0.43238705
0.41335455
-0.26862544
0.04711359
-0.27801085
0.14710747
0.00037103
0.18231957
-0.07672433
-0.29364210
0.28846538
-0.03576370
0.14451641
0.05030628
-0.09211941
-0.05234060
0.02024012
0.20240363
-0.00663387
0.20180060
0.05056286
-0.02469761
-0.13736916
-0.00123785
0.05880141
-0.10883608
-0.10751398
-0.02773902
-0.00609170
0.14110416
0.08272585
-0.12400834
0.11386745
-0.04271499
-0.11267190
0.01069107
-0.00250253
-0.04002159
0.07590281
-0.02257909
0.09519868
-0.08483871
-0.09567784
0.00090213
0.13445035
0.05861783
0.15653835
-0.00951809
0.31714088
0.06159072
0.09137810
0.24004765
-0.01475514
0.13031898
0.03859310
-0.04729892
-0.01284307
-0.33317935
0.16211411
0.00062670
0.06258329
-0.19657619
0.25897273
-0.21127670
0.03652555
-0.33699420
-0.06093185
-0.07939287
0.02992849
-0.13527346
0.17499141
0.16952544
0.06438337
0.31125635
0.03621012
-0.15246476
-0.12087307
0.23290549
0.01362131
0.05967630
0.31624329
0.33913317
-0.14716278
0.13270822
-0.25222981
-0.08395313
0.17987612
-0.07762570
0.21714880
-0.04338441
0.15565179
0.08680090
-0.16178627
-0.15655963
0.20256610
0.04964193
0.18928406
0.25803819
-0.04608060
-0.10323972
-0.10072066
-0.10445718
-0.01562160
0.06334019
-0.06463582
-0.00773231
-0.21970455
0.14184989
-0.49792066
0.01184119
0.06901013
-0.04533612
-0.08257347
0.04493528
-0.06166223
0.19472557
-0.02139543
0.09392273
0.03498797
-0.06619728
0.05840759
-0.04256656
0.00587672
-0.04477497
0.14400940
0.01082232
0.09499955
0.14951864
0.13645500
-0.06784741
0.04711284
0.18560812
0.00457209
0.05607011
0.24414237
0.08269550
-0.09733444
-0.08328643
-0.01474521
-0.22957291
-0.15669346
-0.14364298
0.05166558
-0.17589252
0.18515572
0.04409173
0.12601155
-0.03801271
-0.05960197
-0.16638212
0.05680488
-0.02301560
0.12254995
-0.05931109
-0.11465678
0.13372307
-0.34974480
0.01106379
-0.00125874
-0.31248146
-0.12642391
-0.11720867
-0.00464168
-0.05657542
-0.06900476
-0.00870356
-0.18188529
0.06137526
0.01819811
-0.11530501
0.01665876
-0.06805643
0.07537549
0.15486898
-0.04460970
0.07777683
0.11729627
0.12822367
-0.19813229
-0.03214090
-0.10744584
-0.01724623
0.17412557
0.01850647
0.02456727
0.06232929
0.02138071
-0.10749780
-0.08710078
-0.07123744
-0.08113375
-0.00387418
0.25842002
0.17787702
-0.02668600
-0.12762056
-0.15422806
-0.28862885
0.07220081
-0.03814019
0.05181972
-0.08582839
-0.05591580
0.05917566
-0.22610568
-0.23501706
-0.04815314
-0.16029745
-0.08590962
-0.14727530
0.13372552
0.27603164
-0.07801150
-0.28687242
-0.02148360
-0.01097424
0.12888698
-0.14786172
0.00415268
-0.11277148
0.12437078
0.05547053
-0.13953170
0.23668136
0.25480554
-0.07263660
-0.15338787
0.23545347
-0.05430036
0.12178753
0.13705228
-0.02693832
0.11202804
0.06897390
0.12475359
-0.19659761
-0.11649136
0.16817343
0.08820359
0.01964393
0.17806877
-0.01702084
0.09876651
0.02292937
0.02357090
-0.32815549
0.11736175
-0.20850882
0.22763212
0.01911498
-0.37496656
0.14830008
-0.34420377
-0.12231619
-0.06198117
-0.00968746
-0.00067414
-0.01634744
0.13048057
0.10124158
0.00191227
-0.03569490
-0.12182993
0.39129931
-0.04987094
0.05438487
-0.00945701
-0.21729493
0.01300728
0.03908048
0.12528177
0.01419414
0.11061235
0.14676057
-0.16173923
0.21877131
-0.07693940
-0.02836147
-0.09173239
-0.01040545
0.20980936
-0.07593348
0.08447376
-0.09181485
-0.02352212
-0.02368993
-0.02093568
0.09037174
0.17437094
0.05521443
-0.11481632
-0.11611598
0.01122449
-0.09098909
0.05937311
-0.04262136
0.05421959
-0.04271631
0.06559702
0.04565610
0.05766065
-0.14510337
-0.22356084
-0.08168046
-0.05022134
0.18278459
0.03634993
0.22533746
-0.04134065
-0.08677392
0.07698765
0.26367760
0.05621343
0.03937282
-0.04284775
-0.23042597
0.04459101
0.08046878
0.28509659
-0.06306960
0.12532651
0.00920696
-0.09489599
0.42561924
-0.02427888
-0.12679042
-0.04912097
0.15493934
0.01693491
-0.03581208
-0.12086021
-0.34317148
0.05911570
0.02818924
-0.13518333
0.16675560
0.38468099
-0.05244352
0.04718398
0.06435375
-0.19891237
-0.21045455
0.20735674
-0.09376023
-0.08489787
-0.15591304
0.00176283
0.04072532
0.05358794
-0.21595715
0.09744820
-0.01520930
0.02127417
0.00902587
0.04221161
0.14332160
-0.16670857
0.03482999
-0.18079942
0.30956119
-0.12105886
0.17316185
0.23868546
0.01703282
0.00536473
-0.02174173
0.31905231
-0.00485568
-0.11419465
0.04957777
-0.27623236
0.12169392
-0.00839193
0.03075945
-0.22068571
-0.13706781
0.20100643
-0.01110841
0.01154284
-0.10409311
0.03184911
-0.06636212
-0.13569115
0.32546493
0.09324428
-0.03122219
-0.06483388
-0.07819138
-0.05484521
-0.22343422
0.02565972
-0.13969845
-0.05192379
-0.00884916
-0.12555277
-0.03116358
0.07658135
0.03227397
0.08800689
-0.16139731
-0.00989986
-0.13642125
-0.17011787
-0.20113559
0.32615760
-0.04116412
-0.10770782
-0.01033414
-0.09083946
0.18349576
0.15374598
0.19055377
0.09471901
-0.05674172
-0.05776974
-0.00700726
0.31528562
0.02543813
0.12128381
-0.04937729
-0.05229757
0.00665432
0.03608388
0.16817994
0.10688873
0.03103207
-0.01624979
0.06040736
-0.14302078
-0.03480741
0.11727402
0.04137237
-0.25261050
0.19896698
-0.14216974
0.00333038
-0.15249741
0.18025255
-0.08236197
0.07649132
0.03106916
0.01151874
0.02451178
0.00669209
-0.03460559
0.05477004
-0.01584026
-0.12916781
0.01076494
-0.05078068
0.05948165
-0.08414269
0.15217477
0.06626354
-0.03943776
-0.05520846
-0.13245291
0.17779505
0.40110880
0.21855193
0.09727889
0.06296417
0.19606148
0.01773692
0.08128701
0.01806832
0.14561762
-0.15378414
-0.09571199
0.14535889
-0.08125121
0.10675763
0.09602519
-0.17964183
-0.03693545
0.22196823
0.15613946
-0.02241652
0.27453282
-0.14226048
-0.16523167
0.20535971
-0.13167407
0.01013620
-0.02701621
0.31420526
0.02272689
0.06455542
0.02037604
-0.23646450
0.04325593
-0.06850369
-0.03508059
0.14023645
-0.03003059
-0.09505700
0.09848168
0.13283071
-0.14704624
0.00536768
0.31554806
-0.04382810
-0.07949682
-0.03931155
-0.03347031
-0.15868047
0.22810192
0.16027483
0.06206046
0.14994313
0.13275857
-0.01356549
0.12110064
-0.03393828
0.05506443
-0.14099470
-0.04671643
0.12836891
0.19587290
0.04990911
-0.01640862
-0.10256048
-0.16608909
0.12915418
0.21375668
-0.04252081
0.22090052
-0.01252238
-0.09191105
0.20797513
0.04271728
0.26864004
-0.13965708
0.23070782
0.02373628
0.15377913
0.07350268
-0.39607012
0.11370821
0.00576269
-0.10768414
0.09786512
-0.11821103
-0.13122474
0.11156949
0.17016234
0.09336787
0.10785382
0.18967122
-0.07872956
-0.07543183
0.01223164
-0.33144194
0.05861378
0.09822813
0.05680334
0.12428025
-0.02022858
0.14973508
-0.09609435
0.24583071
-0.10316890
-0.07242460
-0.02376115
0.05833061
0.04884461
-0.07196696
0.13762084
0.03174663
0.04438064
0.02281461
0.13114133
0.21613981
0.03699031
0.07647697
0.04096397
-0.00176405
0.02190879
0.12468553
0.15930822
-0.16498365
0.25381315
0.09349176
0.21744417
0.10923948
-0.42666745
0.26417854
-0.11100382
0.19115064
0.04877514
-0.13721775
-0.11398534
0.09149711
0.17384231
-0.10354491
0.10428030
0.16267656
-0.06102098
-0.05913411
0.13418925
-0.23538075
0.18195495
-0.08004433
0.03672414
0.18107383
0.03048474
0.13443415
-0.13897884
0.16283855
-0.02861204
-0.08989508
-0.07827596
0.06093002
0.07087439
0.09229279
0.15392601
0.08533602
0.01242250
-0.03700761
0.06914211
0.04713284
-0.00480685
0.04371648
0.21858579
-0.08808395
-0.10746013
0.08384826
0.22718230
-0.19285218
0.11393413
0.00110391
0.21272548
0.13248670
-0.24987553
0.11527293
-0.00869218
0.05280663
0.07165901
-0.01142307
-0.10605910
0.13376838
0.12654398
-0.15140416
0.02644937
-0.02353410
0.00034313
-0.03634074
0.24755764
-0.18021624
0.18395457
-0.22220406
-0.03344990
0.11020631
0.14498748
0.01718485
-0.08913153
0.17769614
0.17501643
-0.11507233
0.01807161
0.00268757
0.02173578
0.20224896
0.16166662
0.06956267
0.04060563
-0.02358993
-0.17310925
-0.11795176
-0.02465408
0.01267043
0.12102461
-0.05072093
-0.11193915
0.01359701
0.13360222
-0.17951007
-0.06176128
-0.04857118
0.11949286
0.04416525
-0.14937973
-0.02727961
0.15189925
-0.42673087
0.10611194
-0.25927073
0.03863030
-0.04763457
0.15623724
0.09099670
0.00089182
-0.12040760
-0.06320845
0.17821157
-0.17450701
0.15388915
-0.15955807
-0.16583526
0.07061717
-0.02467451
-0.04962666
-0.23283295
0.12260753
-0.22925550
-0.09518918
-0.21506539
0.33742559
-0.01453786
-0.13523312
0.17268866
-0.28350201
0.00033572
0.02398953
-0.07020605
-0.26091531
0.09379586
-0.17547505
-0.13421272
0.31601453
0.02742448
-0.09495130
0.24694777
0.29295808
-0.05834651
-0.24160033
0.02153277
0.11280843
0.09304662
-0.11198173
0.41226745
-0.07925923
0.03240972
-0.06539593
-0.16185637
0.09111451
-0.00558105
0.05635799
0.04272272
0.21140514
-0.06552644
0.02672674
0.11934924
0.05397587
0.05195985
0.06487379
-0.17709219
0.23156983
-0.06282139
0.01508703
-0.22152279
0.16673042
-0.13915567
0.01267186
-0.22815005
0.27548474
0.00596816
-0.07342609
0.03704140
-0.09278450
0.12823924
0.03816504
-0.07607131
-0.20616329
-0.08151001
-0.09853099
-0.10943365
0.37322792
-0.04889504
-0.05217636
0.07988173
0.17792930
-0.02275197
-0.18615395
0.06110061
0.01126340
0.10541973
-0.13544774
0.29908031
0.02877396
0.04277247
0.10106866
-0.07247679
-0.04583769
-0.01401763
-0.00923444
0.04938748
0.15434495
0.00684709
-0.07176270
0.22913475
0.04311264
-0.07474943
0.05158528
-0.19586895
-0.12030637
0.07810914
0.13691102
-0.25120893
0.10630334
0.14984985
0.06920417
-0.18240656
0.04750062
-0.11804510
-0.13615614
0.06667562
-0.02756075
-0.22777884
0.03611392
-0.06768985
-0.06954163
-0.28148165
-0.05437031
0.07995378
0.22008701
0.15306288
0.17157710
-0.25203565
0.01152553
-0.10356317
-0.18198849
0.17050979
-0.09649497
-0.08668529
-0.24254960
0.19990955
0.03039168
0.01564859
-0.03137551
-0.09146204
0.05707208
0.00925626
0.08906281
-0.11250056
0.13165864
0.11908156
0.10822733
-0.17387478
-0.09924088
-0.27408478
-0.11346281
-0.04030366
-0.24832441
0.06371587
-0.02704922
0.23887798
0.14461663
0.12093416
-0.01203445
0.12542921
-0.02354413
-0.09275052
0.44289136
0.19418298
0.13235736
-0.21008921
-0.05417453
-0.05650122
0.15500416
0.27980259
0.28468513
-0.11247697
0.09797505
0.23513772
0.07456383
-0.14976934
0.06667165
-0.20295703
-0.07569665
0.07359426
-0.00847375
-0.03257716
0.05887502
-0.24262755
0.11966446
0.06778625
-0.08087308
-0.02593268
0.13192962
-0.01950487
0.12070420
-0.10664438
0.12946591
0.04112767
0.15994678
-0.18570872
-0.02349830
-0.19002143
-0.19459935
-0.12564737
-0.15849802
0.03645971
0.01043699
0.21945220
0.11039758
-0.01148465
0.01126472
0.05222008
-0.03645970
-0.18212651
0.46493176
0.19483507
-0.06268665
-0.11787944
-0.12684929
0.03079317
0.21591549
0.26628816
0.19366230
-0.02035724
0.10029480
0.20908891
-0.01137762
-0.19379707
-0.00970108
-0.14800310
-0.09060579
0.07497732
-0.10737885
-0.03568040
0.11897884
-0.33196476
0.17675456
-0.06559746
-0.14414355
-0.00426409
0.18297388
-0.07551961
0.07968056
0.01660253
0.13529806
0.08853797
0.11798261
-0.17082131
-0.07617044
-0.12219346
-0.13095300
-0.13527441
-0.14019619
0.04250200
0.07055216
0.12371711
0.19115759
0.05037035
-0.03609021
0.03521987
0.07277027
-0.12736693
0.43069413
0.19181490
-0.00867246
-0.09213217
-0.13311319
0.01583398
0.19431755
0.17678572
0.24581121
-0.10863730
0.11119624
0.17061433
0.02817993
-0.14498807
0.03981080
-0.15699129
-0.06262931
0.10987545
-0.18413855
-0.00053200
0.05726435
-0.31048065
0.12054531
-0.02952578
-0.03048309
0.06131974
-0.10167435
0.06559366
0.06699621
-0.09855598
0.03161031
0.04843083
-0.15997909
0.13233544
-0.13044453
0.27601808
-0.13023131
0.04048857
0.07046807
-0.14042747
0.13374846
0.02627301
0.07030406
-0.12638186
0.05331850
0.00167578
0.01044754
-0.28383529
0.14054045
0.13129288
-0.36516947
0.36262786
-0.03912310
-0.07540251
-0.05502802
-0.08685870
-0.03409435
0.19684365
-0.01599591
0.11885598
0.01462453
0.15820239
0.15423781
-0.00173247
-0.03073463
0.00423152
-0.18660191
0.13803644
-0.07629785
-0.14823130
0.15922984
-0.33978322
0.09347564
0.09004582
-0.12011604
-0.01444064
-0.09561334
-0.20208426
-0.18058339
0.13413370
0.03653700
-0.16128473
-0.12543529
-0.05488186
-0.28905046
0.26275003
0.17900848
-0.21709743
0.02616397
0.05261751
0.06096119
-0.06222928
0.06450790
-0.16082874
-0.11854455
-0.20049962
0.19256674
-0.19101691
-0.28909892
0.29781720
-0.08320574
-0.06274748
-0.16300671
0.12644790
-0.02738915
0.03168240
-0.01185384
-0.04739001
0.09165321
0.01282388
-0.03369687
0.10943216
0.08140940
0.00783485
0.06332187
0.14930777
-0.04359950
0.04304253
0.00781620
-0.05428479
-0.41576812
0.01911847
0.08244420
-0.16174275
-0.16641882
0.19802439
-0.10640211
0.05840121
-0.16586745
0.06549089
0.04576844
-0.14837472
0.03586316
0.21659859
0.04667602
-0.47967598
-0.00771901
0.05415497
0.18174329
0.06828164
0.16286355
-0.27193314
0.08972722
-0.20959103
0.22314298
-0.14347789
-0.22053316
0.04803956
-0.31265303
0.05085310
0.02516537
0.16416281
-0.16376634
0.00964178
0.07754467
-0.22614706
0.06386013
0.25197741
0.13241662
0.21570580
-0.01043466
0.00464964
0.08704908
0.39988834
-0.03946285
0.23273860
-0.01729320
0.01317338
-0.25232512
-0.26156735
-0.14152372
-0.00834112
0.04296584
-0.25773740
0.26523492
0.03791576
0.01003922
-0.19662233
0.03156173
0.00837831
-0.01910444
0.20272236
-0.12089538
-0.15169521
0.47626209
0.04585734
0.19897003
0.01547138
0.56862342
-0.68520027
0.35190812
-0.18807156
0.20576197
0.00084977
-0.09001528
0.25239208
0.00981395
0.04002815
-0.10973220
-0.16029330
0.19184297
-0.12834142
0.57884163
0.03260902
-0.07673460
0.18579011
0.43533587
0.06973572
-0.40668553
0.15086456
-0.24968448
0.17044067
-0.35414323
0.07592794
-0.16817996
-0.28001320
-0.21479149
-0.15250513
0.07271565
-0.06076275
-0.02413178
-0.09285326
0.22902249
-0.09743108
0.06449187
-0.02604988
-0.13051353
0.19891480
-0.18163787
-0.11699722
-0.16388971
-0.12422840
0.38533959
-0.13086505
0.33509856
-0.04446658
0.30554917
-0.53703779
0.26982939
-0.28005403
0.18425459
0.04119005
-0.19026650
0.14932434
-0.15695575
0.07436778
-0.07756475
-0.02306988
0.25192538
-0.11602678
0.28393689
0.24355996
-0.04132772
0.11020263
0.56205326
0.08579585
-0.29979250
0.20045079
-0.36881661
0.24130669
-0.20460312
-0.08898395
0.06414855
-0.45170218
-0.15380445
-0.00131827
0.02686983
-0.09963086
-0.21243757
-0.16272268
-0.16803683
-0.14701748
-0.07617322
0.06536127
0.06385709
0.06907889
0.12488408
-0.26229560
0.15130018
-0.12708123
0.98821038
-0.16996585
0.20093772
-0.03204763
0.60879594
-0.48480412
0.03945931
-0.38910982
0.13533711
0.02726390
-0.14859328
0.13356365
-0.14805849
0.11902371
-0.41102615
-0.03338986
0.37746179
-0.33172849
0.17267829
0.10410929
-0.02051864
-0.20600486
0.47416356
-0.03373284
-0.17940767
0.24131113
-0.57227761
0.06790007
-0.31387153
-0.33768186
0.03363103
-0.43978798
-0.33117005
-0.17717057
0.10881894
0.11792079
0.07407898
-0.02141176
0.16284361
0.06743457
-0.00017880
0.03847920
0.34759524
0.04873021
0.00581595
-0.06839831
-0.07731873
-0.02193798
0.21383053
-0.16798744
-0.03074555
-0.17768958
0.15219289
-0.44173178
0.26310048
0.02025883
0.12460973
0.13142028
0.06477560
0.14578831
0.02258844
0.18458875
-0.28639984
0.01174646
0.27632520
-0.18474534
0.41389951
0.09169094
0.01975767
-0.03082972
0.28199926
0.00591580
-0.21406917
0.07925014
-0.17115164
0.09315166
-0.13849142
-0.03358812
-0.04295681
-0.05879435
-0.13022000
-0.10079463
0.04107209
0.02005545
0.13404205
-0.07942821
-0.12716374
0.21117753
0.08463760
-0.06366540
0.19904251
-0.06287824
-0.10763256
-0.06206862
-0.01509849
0.00334078
0.21490689
-0.17084889
0.03516028
-0.05589330
0.20215006
-0.36821699
0.03950159
-0.05009975
0.10801158
0.09634817
0.08271181
0.16635828
0.12641522
0.18043557
-0.18878107
-0.07936513
0.08227251
-0.15016584
0.25753614
-0.06110321
0.04730557
-0.06565180
0.02996458
-0.14760150
-0.17704026
0.08169847
-0.06837391
0.11230683
-0.11496509
0.14158654
-0.15260100
0.01023344
-0.15513846
-0.06296525
0.07037479
-0.03393335
0.17302859
0.02777442
0.06616837
0.03939624
0.00220030
-0.02394990
0.09518699
-0.07170790
-0.17417455
0.13763431
-0.17744343
-0.16970596
0.28010920
-0.02806900
0.06147887
-0.16878615
0.14396237
-0.25736520
0.03884854
0.06340237
0.26699138
0.12200709
-0.16281885
-0.03481891
-0.09386862
0.06929573
0.08336208
0.09796111
0.03522019
-0.04086893
0.13230594
-0.13569419
-0.07718781
0.15611045
0.03215054
-0.03823597
-0.05224965
0.16050996
-0.23174258
0.23783763
-0.21489459
0.26196176
-0.15696144
0.07431812
-0.17402641
-0.23830070
-0.03680339
0.11659165
-0.20095764
-0.09731571
0.06371019
-0.20256875
0.06860615
0.01400838
0.00521563
0.13997516
0.05309878
-0.01658230
-0.07586519
-0.10173786
0.05893298
0.00225237
-0.03903878
-0.03098831
0.04855314
-0.01651906
0.05799738
-0.03311835
0.00165605
-0.07248433
0.13496193
0.25379649
0.06044203
0.05974532
0.14888240
-0.08931814
-0.02582131
-0.07415366
-0.11445438
0.03809885
-0.03138828
0.07442094
-0.11125752
0.18970190
-0.21275446
-0.01548494
-0.05212797
0.04596732
0.04741881
-0.08240911
-0.02541792
-0.04821621
-0.29361179
-0.02819432
0.10492096
0.01884870
-0.11678212
0.05980146
0.13026114
-0.11457690
0.03597606
0.08884083
0.01068317
-0.02304462
-0.08440122
0.15394866
0.05688572
-0.03836647
0.05885295
-0.10927185
-0.00052552
-0.22584084
0.08325618
-0.10318645
0.23937733
0.01363018
0.04380833
-0.12019841
-0.06323402
0.10035802
-0.11595537
0.02765238
0.04788661
0.00428800
-0.00257559
-0.03923270
0.06661754
0.08621081
0.13825122
-0.13395683
-0.12300167
0.07026381
0.02415530
0.00171605
-0.16930369
-0.05163082
-0.03087894
-0.13198885
-0.14145981
0.01074116
-0.07907300
-0.11123239
0.14788543
-0.15959471
-0.12415472
-0.10000502
-0.01058776
-0.05789113
0.01511540
0.06459129
-0.07011885
0.04175027
-0.13637748
-0.00852509
0.00416272
0.05781662
0.19965352
0.00137825
0.00167440
0.03500032
-0.00059588
-0.20735872
-0.07481339
-0.01218894
0.04986084
-0.01174118
0.02316844
-0.03236175
-0.23053840
-0.01956422
-0.20018645
0.06171273
0.15866868
-0.06096467
-0.03654504
0.03366357
0.28296134
-0.04356890
0.15765762
-0.14298995
0.01832980
0.07786966
-0.40031773
0.02904500
-0.13034433
-0.07191965
0.00794441
-0.03329884
0.08046835
-0.22218378
0.23524192
-0.07646351
0.06615294
-0.22732183
0.01644291
0.00425314
0.06683133
0.20465440
0.06669532
0.07584846
-0.14216545
-0.17249465
-0.23965178
0.03777076
0.37904549
0.05731583
0.12629931
-0.18598500
0.04960971
-0.26482913
0.01805772
-0.04886848
-0.05288065
0.01984735
0.02513066
-0.00873668
-0.34975165
0.07867219
-0.30915651
0.21683721
0.37242100
-0.09262833
-0.08724055
0.00660979
-0.14302523
-0.04906423
0.41480881
0.23387584
-0.16053183
0.37179980
-0.45975947
0.00790382
-0.15236804
-0.43894500
0.14474162
-0.32790738
-0.03991102
-0.01428258
0.33145228
0.00713560
0.04649841
-0.02323434
-0.15056328
-0.02720435
0.17045900
0.00218663
-0.15989250
-0.03991767
-0.12350133
0.21293487
-0.16995828
-0.33042139
0.57735205
0.23015071
0.14614783
-0.11406252
0.11709075
-0.06366176
-0.03956704
-0.05456111
0.52283341
-0.00246544
-0.21763912
-0.07080732
-0.29015881
0.11426435
0.02993598
0.23396438
0.00512284
-0.15661439
-0.21136072
0.02276122
0.17948814
-0.02080130
0.07201058
0.12783174
0.01644038
0.35032129
-0.09146771
0.06739270
-0.16124192
-0.08044235
-0.06939389
-0.13896015
-0.28817075
-0.10684194
0.01161552
0.06094529
-0.10747762
0.18463334
0.04549857
0.02633879
-0.10106689
0.05871493
-0.14830577
-0.05672889
-0.18521997
-0.06345892
-0.10724670
-0.24620950
-0.11817256
-0.09206191
0.17945984
-0.00160882
0.02049459
-0.00094771
0.15633397
-0.01519383
0.24060898
-0.03566927
-0.00361343
-0.17554601
-0.00376043
0.05446929
-0.16026101
-0.10673760
-0.04658083
-0.25388032
-0.09987935
0.01460363
0.22793597
-0.07299203
-0.06528511
0.09863792
-0.02561348
0.07329579
0.04397621
0.35169294
-0.06536327
0.25827426
-0.05744798
0.14277619
-0.05750670
-0.15218619
-0.08303320
-0.37203366
0.01284132
-0.26102173
-0.15894918
-0.13732384
0.01094348
-0.02277987
0.24024436
0.06837951
-0.13756309
-0.27326608
-0.06068538
0.13943100
0.26115221
0.10364345
-0.00255284
0.14307313
0.13607441
-0.04236627
0.00852471
-0.17649417
-0.13767153
0.08675412
0.08448330
-0.03657703
-0.05887897
-0.03582379
-0.44407803
-0.16309226
0.45913634
-0.21214963
-0.04865002
0.16610278
-0.10418917
-0.29115221
0.07493850
-0.07680228
-0.29358232
0.40487981
-0.41381544
0.28038022
-0.30673441
-0.29645902
0.18773104
-0.25445184
-0.28137052
-0.07943102
0.00245096
-0.11630391
-0.09685091
-0.00313236
0.09169777
-0.02661799
-0.03622847
-0.12827484
0.13123521
-0.08100591
-0.04130856
0.03236917
0.21775760
0.08602905
0.00090373
0.04151032
0.25220856
0.09092743
-0.03681793
-0.07022010
0.16682433
-0.17729828
0.01336847
0.02998263
0.09981721
0.07739984
-0.05227183
-0.01001397
-0.09025399
0.04119208
0.13325536
0.09735084
-0.10389877
0.23198216
0.04349162
-0.13606499
0.02845912
-0.02470059
0.20996352
0.22406907
-0.13750553
0.42620182
-0.03726257
-0.21839933
0.16783993
-0.09909980
-0.35571134
-0.00754200
-0.23222592
-0.09618691
0.01982716
-0.05304880
-0.09710533
-0.10393833
0.06206987
-0.14736064
-0.02263080
-0.32790253
0.35726607
0.16866806
0.32398435
0.08970064
-0.06781480
0.03704287
0.19069304
0.14842072
-0.01793188
-0.07223969
0.29762283
-0.14608929
0.12004361
-0.06846689
0.17276175
-0.04049516
-0.02787502
-0.17617798
0.04204646
-0.01134581
0.02959075
-0.07570808
-0.03108050
0.10059281
0.07901178
-0.03411938
-0.05898691
-0.17083620
0.22935809
0.08657247
-0.04655425
0.22663848
0.09000028
-0.18448056
0.02742866
0.00410497
-0.27210557
-0.12741923
0.11511858
0.01463203
-0.07745688
0.25591287
0.14391804
-0.09357605
-0.18557192
-0.19235398
0.04190769
0.11540713
-0.08417712
0.16452689
-0.48508486
-0.44718856
0.31040996
0.04309566
0.14710534
-0.12565249
0.31937802
-0.63624787
0.03869465
-0.14280920
0.62318528
0.04968282
-0.20194256
0.21173140
-0.18002522
0.03578753
-0.24557017
-0.09784893
0.12612551
-0.09743685
-0.02469034
0.14883053
0.06560235
0.03588044
0.24229367
0.13195156
-0.46637779
0.14634973
-0.26559073
0.28604636
-0.17875801
-0.21967106
-0.21495871
-0.28934902
-0.34285229
-0.16349201
0.09016141
-0.17549440
-0.14881250
0.07770965
-0.19247697
-0.10763571
-0.08551601
-0.33712810
0.01948702
-0.00161879
-0.02305009
0.10353725
-0.33951768
-0.32678428
0.38433182
0.06275250
0.24960540
0.04235436
0.37231255
-1.12770236
-0.12933156
-0.17602080
0.62056977
-0.05383756
-0.09622789
0.09218652
-0.22581382
0.16101685
-0.19279708
0.00039637
0.28436798
-0.12837932
0.15797092
0.12782134
0.11904319
-0.09343392
0.48572311
0.13760406
-0.32779497
0.23324223
-0.34135970
0.24577338
-0.14545077
-0.23020422
-0.21908624
-0.20828620
-0.33629435
-0.14911893
0.22670254
-0.19590355
-0.03069684
0.10301789
0.09983211
-0.08161467
0.05646576
-0.25436705
0.07644158
-0.01330765
0.15233514
0.05881352
-0.18486531
-0.17728886
0.33380425
-0.04510407
0.18178220
-0.13178931
0.39719486
-1.00401056
0.07338677
-0.13272718
0.34880799
-0.23024967
-0.01374514
0.16002105
-0.21590331
0.18502806
-0.22995716
0.11578303
0.32991439
-0.08703746
0.35348469
0.02662860
0.04739226
-0.14381471
0.59567881
0.07537053
-0.23235734
0.17984892
-0.17407513
0.15247600
-0.16128431
-0.08887507
-0.24499734
-0.08339818
0.05990279
0.02619545
0.14238559
-0.04457103
0.10064372
-0.18091980
0.07874884
0.07538833
0.05170559
-0.03103358
-0.17575234
0.15201834
-0.12214807
-0.14745624
0.06671323
0.06621437
0.04924620
0.00035974
0.08882094
0.12492666
-0.02142093
0.00383723
-0.12210272
-0.06246158
0.02295875
0.28255445
-0.05471219
-0.04480553
-0.09985290
-0.05898184
0.11073371
0.11914791
-0.10036793
0.37657037
-0.13050888
-0.06877834
0.05838802
-0.01623227
0.25319928
0.04676839
0.18651329
-0.00286319
-0.00624650
-0.06114250
-0.28249750
0.01551213
0.20908630
-0.23141874
0.05579472
0.03111193
0.09254324
0.01760221
0.08949579
-0.13128775
0.06152373
0.04244544
0.16424510
0.02996184
-0.03419551
0.08327346
0.04215566
-0.09672631
0.04401597
-0.00399842
0.06537502
-0.18173203
0.07641874
0.13616481
0.14399940
-0.04612645
0.06313100
-0.21041119
0.09574012
0.14288703
-0.08403549
-0.00282324
-0.07149576
-0.06420083
-0.09372132
0.05231586
-0.07224709
0.38956723
-0.00931055
-0.01780067
0.04985864
0.02306356
0.15953597
-0.02793398
0.16916089
0.03324670
-0.03292569
0.05302501
-0.27259094
0.01181796
0.19826990
-0.40975583
0.11309722
0.15453671
-0.04408722
-0.01396180
0.02781541
-0.08187214
0.12484802
0.21571578
0.03526286
0.05040178
-0.12938602
-0.06374680
0.01088250
-0.00381468
-0.07564801
0.12146620
-0.08205402
-0.33778605
0.02452263
0.30025694
0.00859342
0.07237903
0.05258236
-0.19245124
-0.00327829
0.20696838
-0.01090373
0.03704172
0.01939343
-0.05504182
0.09465098
-0.06792200
-0.20805910
0.33775890
0.11658508
-0.02702183
0.14886090
0.05385618
-0.00624489
-0.11688644
0.11324772
-0.01864934
0.10955021
-0.03636986
-0.07210144
0.22168149
0.05957156
-0.03813388
-0.14426856
0.04867553
0.07563788
0.05604103
-0.13967505
0.07646714
0.01191911
0.13362320
-0.03213524
0.07285842
0.05984861
-0.21474732
0.25176632
0.15189640
-0.07216638
-0.24344724
0.07875698
0.04009813
0.27753714
-0.01086421
0.14638323
-0.00200040
-0.06710424
-0.16457571
0.22158763
-0.18752700
-0.09366313
0.01819317
-0.38883173
0.09115164
0.05263961
0.31015801
-0.05489807
0.26208663
-0.03567420
-0.09626874
0.11850104
0.28056893
0.15520021
-0.02267240
0.29151058
0.11124328
-0.02510668
-0.00331641
-0.16877557
0.01448332
-0.03638913
-0.19860627
-0.25894582
-0.13342898
0.20720159
-0.00077303
0.15273245
0.07953220
0.06367959
0.60330576
0.02799096
-0.03700766
0.23956601
-0.01094339
0.08089355
0.15716320
-0.05938955
-0.07864635
0.25261623
-0.30159894
0.19502476
0.11179473
0.40821809
-0.32894146
0.19306841
-0.02893256
0.04390481
-0.03303183
0.17575777
0.05110960
-0.05730266
0.38428292
0.00744706
0.09978902
0.08138470
0.08030436
0.24558483
-0.28649110
0.02015425
0.15138489
0.26825580
0.05514646
0.01557059
0.14109012
0.32147503
-0.03427032
-0.14441463
0.44372752
-0.46101210
-0.13205062
-0.44062150
-0.40202925
-0.06906117
-0.04747453
-0.05657724
0.07672250
0.20920280
0.17121033
0.05621028
-0.14025657
0.12227806
0.04998373
-0.05383802
-0.04743581
-0.03075988
-0.17006856
0.31848732
-0.32304642
0.22447960
0.03655560
0.34407821
-0.28443822
0.43917519
0.00051256
0.17129132
0.03831199
0.02164213
0.15167327
0.02566676
0.41667050
-0.05266900
-0.15709570
0.15776585
-0.01017153
0.27278823
-0.13222097
-0.16238339
0.04044351
0.09938876
0.18187623
-0.23318487
0.33012441
0.01929228
0.27565968
-0.10598101
-0.04028565
-0.22780621
-0.12734325
0.01753197
-0.32886589
-0.19312760
0.04024127
-0.10330918
-0.02873536
-0.02595212
-0.11099130
-0.08512790
-0.07779204
-0.07526439
-0.16919100
-0.17049736
-0.00713316
-0.11813939
0.11706057
0.00736943
0.01781815
0.03978860
0.20733728
0.00634463
0.01214948
0.03563024
-0.20175882
-0.07491532
0.11917203
0.00539998
0.17685865
0.11838187
-0.06404023
-0.17919917
-0.15470517
0.04025597
-0.05497732
-0.00856093
0.20446229
-0.06253292
-0.07870828
0.07919102
-0.06716816
-0.10368726
0.02895217
0.01530042
0.19001295
-0.12583560
-0.12232698
0.03928085
0.07747623
0.07401332
-0.22048046
-0.18950778
0.01883594
-0.08007143
0.08664486
-0.02368660
0.06911459
-0.21652527
-0.15989466
-0.11650367
-0.19357367
-0.12631470
-0.02113374
0.02403833
-0.00444480
0.05435092
0.01067767
0.02437239
0.13730493
0.00843243
-0.00996163
-0.03167794
-0.18728924
0.08661421
0.07442177
-0.01385621
0.11995269
0.05385374
0.00144778
0.00690863
-0.07962507
0.03866602
0.03238916
0.02314576
0.07875387
0.09262025
-0.05876844
0.12223423
-0.06452926
-0.00085601
0.03843620
0.06175311
0.19881922
-0.12737890
-0.02862048
-0.09487307
0.00334092
0.04522283
-0.08007245
-0.22107090
0.13506189
-0.11157596
0.10537302
-0.10898893
0.01300633
-0.22759220
-0.15821907
-0.11274844
-0.35816202
-0.08388926
-0.00054165
0.05539116
0.04252383
-0.01269576
-0.00766611
0.03300255
0.15327540
0.07952727
0.00192381
-0.08828767
-0.17441063
-0.04204983
0.05712343
0.03553036
0.23858462
0.10215822
-0.03523699
0.01389535
-0.11375076
-0.04140838
0.06664926
0.07717213
0.15526961
0.20263894
-0.11817306
0.04414187
-0.13545302
0.11052684
-0.03709412
0.11128894
0.21013160
-0.10510028
0.04970053
-0.11688159
0.05775925
-0.29380691
0.09933588
0.01249885
-0.14515993
-0.09904414
-0.13563308
0.42615017
-0.11948334
0.19955353
0.07084826
0.10466281
-0.12828125
0.21306473
0.10175759
-0.29844421
0.03195211
0.02483902
0.06655490
0.01445209
0.14909902
0.34991944
0.08945280
0.46573809
-0.01050298
-0.02177568
0.01421120
0.09009685
-0.11644489
-0.05608871
-0.05339772
0.04924370
-0.05128634
-0.11098467
0.33351460
0.14387178
-0.07137261
0.24879169
0.01109475
0.03355118
0.16901633
0.02447187
0.03055324
-0.16903771
-0.12229454
-0.05161699
-0.07996546
-0.15089381
-0.24361938
-0.08024251
-0.27983758
-0.12433303
-0.11466845
0.09481512
-0.02166867
0.05209536
0.04585704
0.34925273
-0.40437362
0.06957143
0.10457397
-0.06598365
-0.00720340
0.12641862
-0.08174682
0.36767203
-0.08125297
0.40532088
0.02027120
0.25805691
-0.70082307
0.15164612
-0.04103138
0.18625516
0.20733102
-0.04586672
0.36709416
-0.03481698
0.02050792
-0.13780132
0.15326396
0.13436994
0.05336229
0.62614906
-0.01238328
-0.05275308
0.25594831
0.37773275
0.12194061
-0.38301605
0.09772512
0.03908547
0.15269412
-0.20556210
0.08906773
-0.21616225
-0.22957826
-0.20439774
0.00562689
-0.09025893
0.06313395
-0.13288574
0.42008319
0.19548947
0.08745760
0.04990283
-0.08218339
-0.06375075
-0.07006820
0.31073940
0.23947373
0.08864178
-0.04677596
-0.01769047
-0.22495343
0.16646139
0.21196774
0.18860112
0.01690633
0.47320819
-0.00117760
0.36332723
0.19676149
-0.03489096
-0.01716087
0.02446266
0.09436208
-0.00654298
0.17468426
-0.07750989
0.08440512
0.19527055
-0.02441558
0.06889387
0.06087725
-0.01070952
0.20562996
-0.09473655
0.08516936
0.18963596
-0.05204630
-0.00007725
-0.04149269
-0.22485261
-0.02320994
-0.10980379
0.27827278
0.14381105
0.03370467
0.03017003
0.23215865
-0.22511049
0.06526373
-0.23096225
0.12901467
-0.03637295
0.15831736
-0.12942776
0.04067789
0.20298342
-0.44860375
0.13509589
-0.07142466
0.32202494
-0.03334601
-0.00082292
-0.27210501
-0.18254125
-0.20209046
0.15462117
-0.24561831
-0.37935039
-0.03247488
-0.21235636
-0.02097163
-0.03314548
0.01513788
-0.05281147
0.08254664
-0.08670845
-0.11766907
0.06069250
-0.01041390
0.06367901
0.00401048
0.10639252
-0.02654097
-0.09110488
0.02813368
0.05937089
0.00126577
0.01020738
-0.09586388
0.01319409
0.14601180
-0.01101735
0.03334321
0.05355034
0.16496161
-0.04379554
0.08370866
-0.14999598
0.08625538
-0.11555899
0.19068085
-0.07217676
-0.00112170
0.08661812
-0.41905487
0.11866173
-0.15844774
0.18163525
0.01304612
0.10436270
-0.22500479
-0.03427763
-0.05471325
0.09281699
-0.10061128
-0.14142276
-0.01121590
-0.13469179
-0.00232758
-0.23849751
-0.06095941
0.02056122
-0.02751583
0.05392365
-0.09867240
0.02455940
0.16269068
0.10310207
0.03922718
-0.02395407
0.08031111
-0.11317544
0.09871517
-0.04932765
0.04652445
0.03299820
-0.18163361
-0.39448890
0.21548477
-0.02859874
0.09355172
0.00467536
0.14015330
0.07143719
-0.04452427
-0.19759755
0.14260742
0.18841617
0.21492301
0.24500008
-0.02040400
-0.00265464
-0.48985231
0.10815129
-0.02573865
0.12364829
-0.07352706
0.11245586
-0.33283040
0.12828037
-0.01399516
-0.04336504
-0.32107702
-0.25815833
-0.03802344
-0.14559598
0.04777102
-0.15412094
-0.16030046
-0.20007858
-0.04348094
0.05025698
-0.03020329
0.06312016
0.11838479
0.03149616
0.00031095
-0.06811748
0.01547260
-0.18726157
0.05495889
-0.10687351
0.03826699
-0.13541560
-0.03788527
-0.01017703
0.00291616
0.03148939
0.02674622
0.19680716
-0.14986159
0.04870978
-0.00722744
0.19841491
-0.00855447
0.06805634
0.08569326
-0.13418342
0.16318811
-0.13721058
-0.06464147
0.07148637
0.21289724
0.03565805
-0.04916539
0.19315253
-0.03547876
-0.11118184
-0.01638356
0.10247088
-0.11044852
-0.19333114
-0.01327257
-0.03004115
-0.01966480
0.19733702
0.07045429
-0.00517482
0.00237503
0.31468576
-0.05795918
0.02330401
0.14442863
0.20643988
0.05529802
-0.06586340
-0.05326925
-0.11166876
-0.04241963
0.01714065
0.01229927
-0.13944410
-0.04888036
-0.07590143
0.06205773
0.03745301
0.06436689
-0.20965314
0.00486828
-0.08687935
0.06853411
0.16007432
0.02967894
0.05124318
0.15421551
-0.04088013
0.02996362
-0.02266209
-0.19132622
0.35137752
0.04076556
0.06280107
0.15844153
0.32478127
-0.38377833
-0.06572565
-0.37496421
0.13501307
-0.13750383
0.03024499
0.03932758
-0.13391501
0.05056383
-0.02664250
-0.02381090
0.25160441
0.03955713
-0.12300741
0.14436176
0.01560157
-0.05616126
0.11493278
0.07332840
-0.29927808
0.28784215
-0.06077684
0.06377530
-0.09861836
-0.25972989
0.21061045
-0.39382049
-0.03505062
-0.14565378
-0.12957206
0.13564785
0.27051449
-0.02308413
0.24526364
0.38510498
-0.03224437
-0.01777447
0.32559282
-0.15331301
0.11986966
0.07024088
0.25692877
0.15642701
-0.04779234
-0.22245969
-0.15368053
-0.10559531
0.20203312
-0.05396259
0.09153024
-0.07298690
-0.15413010
-0.19171317
0.28353354
0.30178449
0.17640793
-0.11112475
-0.21742693
-0.00571841
0.10660934
-0.13023810
0.40244013
-0.04411645
-0.13377692
-0.17418240
0.00499676
-0.14445668
-0.16763695
-0.03111834
0.20753446
0.00864385
-0.13425554
0.16189520
-0.01229823
0.17172989
-0.30759361
-0.02303513
-0.02538419
-0.07715593
0.09217399
0.01335892
0.12936905
0.09313662
-0.05619305
-0.17161024
-0.04925542
-0.20935884
-0.01392541
0.02679190
-0.11673223
0.02476458
0.01867204
-0.04537707
-0.02481720
0.17270580
0.11626472
-0.01379594
-0.03258612
-0.11024527
0.18466449
0.05482632
0.13093528
0.08232899
0.02491255
0.11658220
-0.09023857
-0.11154051
-0.02072591
-0.05392594
0.23638715
0.18505383
0.23885334
-0.07120274
0.01432261
-0.03087863
-0.04094718
0.03439637
-0.02344606
0.08796853
-0.05429683
0.09951239
0.06840140
0.02715463
-0.20197728
0.04556001
-0.10657434
-0.10088293
-0.16492894
0.19836636
0.15178563
-0.04907598
-0.15994380
0.02228217
-0.03228444
0.00679252
0.14770721
0.04150924
-0.23016426
0.02333497
0.02343366
-0.04100628
-0.07574899
0.17650051
0.13215959
-0.11633400
0.07664166
-0.11861228
-0.06560383
-0.01779231
0.06420603
0.10436949
-0.05569824
0.04235994
-0.09430831
0.04726264
0.04569640
-0.01371109
0.00927158
0.06128584
0.14794840
-0.11245535
-0.01977604
0.04925713
-0.12057662
0.02198143
-0.01748520
-0.12506667
-0.06811581
0.02045516
-0.04281050
0.00478532
-0.05208666
0.13977429
-0.19933122
-0.08815902
-0.26898366
0.27637649
-0.08791437
-0.06828265
-0.11710163
0.07280272
-0.09597059
0.12595807
0.16192204
0.27275947
-0.08098114
-0.08031781
0.18691117
0.29899597
-0.03954481
-0.09743860
0.05348906
-0.18274136
0.03513579
-0.05475046
0.03977047
-0.19306356
-0.01753482
-0.01974463
-0.02892624
0.09689383
0.04791508
0.30644396
0.09588659
0.05182238
-0.13857645
0.15666109
0.06577714
0.03135089
0.04674527
0.20297103
0.06551661
0.05453845
0.11004689
-0.11514727
-0.04807065
-0.03614984
-0.09872063
0.03450886
0.12425088
-0.12133666
-0.06291951
0.05513842
0.12711358
-0.06932541
0.03792952
0.23219654
-0.02397751
0.08551371
0.04183273
0.10924416
-0.12871860
-0.02480087
-0.12026606
0.12840542
-0.01726999
-0.08338211
-0.13033038
0.08176769
0.05017064
-0.05968769
0.11765755
0.01911867
-0.09632082
0.20763607
0.12993112
0.05018233
0.08129744
-0.24099423
-0.29380178
-0.22681600
-0.01813912
0.04559552
0.23894875
-0.02735403
-0.16320018
0.15980780
0.04642423
0.01640992
-0.22953600
0.06029524
0.00867291
0.19759144
-0.16869898
0.18360135
0.02802521
0.02707255
0.03103242
-0.13833873
-0.11356495
0.05545410
0.01970669
-0.02701087
0.14133731
0.08039042
-0.01793515
0.00757587
0.19109401
0.00404992
0.20817761
0.07677072
-0.02176407
0.03874812
-0.03174357
-0.13244466
-0.04748845
0.17175621
0.06209819
-0.03942413
0.09333151
0.02110190
-0.10820711
0.04308221
-0.00450735
0.14024848
0.03146257
-0.11400042
-0.10049247
-0.20733446
-0.03907901
0.16160211
0.25758424
0.04474762
-0.09659497
-0.09893309
0.10117935
0.00250443
-0.04688330
-0.01228603
0.00121581
-0.02294510
-0.04375707
0.05737874
0.02121305
0.03183040
0.04697428
-0.07873350
-0.07281192
-0.09590920
-0.10453942
-0.14209919
0.16930546
0.14381331
0.00319764
-0.08798644
0.03252579
-0.04778828
0.01966255
-0.03366979
-0.18499443
0.01368272
-0.00381201
-0.01834290
-0.00089843
0.21947476
0.14414126
-0.19992103
0.07254774
-0.17274025
-0.22808392
0.00196063
-0.01912132
0.16166185
0.00534170
-0.11757057
-0.27238497
-0.01985346
-0.00599267
0.25461096
0.26619470
0.14132383
-0.07427903
0.07788410
0.12412530
0.05613608
-0.13829967
0.02707908
-0.04786045
0.00658543
-0.17467020
0.26754215
0.01231254
-0.02999230
-0.15150516
0.04689242
-0.02017811
-0.10199203
-0.04403744
-0.04726345
-0.01027033
-0.06234743
0.08190683
-0.11751238
-0.11670951
0.15773094
-0.01209824
0.04768553
0.21034440
-0.04256121
0.17986707
-0.01869078
0.09950805
-0.13767825
-0.02300335
-0.17600057
0.09594831
-0.02497581
-0.05559842
0.00149806
-0.13360825
0.08389667
0.02913152
0.02566830
-0.10679526
-0.07034490
0.17002639
0.02183539
0.05187987
0.06438629
-0.03446973
0.02402365
-0.08498619
0.08540524
-0.12889931
-0.04876496
-0.29327741
-0.01068246
0.02677617
-0.08164976
-0.06303675
-0.13826357
-0.18237919
0.14092438
-0.05443972
-0.05325693
0.00491124
0.03662207
-0.02245715
-0.00810353
0.05079442
-0.13967109
-0.17478162
0.08648035
-0.03543780
0.16872856
0.15114775
-0.15140311
0.23902780
-0.04125185
0.09936947
-0.11911362
0.02646794
-0.29273790
0.11516478
-0.07431366
-0.02244836
-0.02521093
-0.09163610
0.14486776
-0.03755927
0.02314518
-0.16262233
-0.03975753
0.13382000
0.03951345
0.04727347
0.08453178
0.01626261
0.06194019
-0.01553269
0.14160907
-0.03251811
-0.01124734
-0.21093658
-0.00059393
-0.01029712
-0.05430455
-0.11392552
-0.17984791
-0.29219228
0.17723420
0.05123805
-0.01757275
0.05128793
0.11623020
0.04437407
-0.01623376
0.07876255
-0.07326356
-0.14420623
0.10696764
0.08871845
0.19350624
0.19523084
-0.17727874
0.16747357
0.00868842
0.06627174
-0.09636594
-0.00059213
-0.29166633
0.17276774
-0.04596879
0.09770330
-0.04887116
-0.05953960
0.08141642
-0.06598838
0.05185896
-0.08347554
0.00439839
0.07812276
0.03674829
0.00504546
0.13859703
0.07387209
0.05240243
-0.09474666
0.15189178
-0.01610173
0.07539177
-0.28739038
0.03487691
-0.00214000
-0.00474390
-0.07843760
-0.12994047
-0.06362384
-0.01567632
0.29905072
-0.40784127
0.05845483
-0.00348211
-0.06937300
0.09153783
-0.15182897
-0.01316529
-0.04687004
0.07507243
-0.32311025
-0.19534384
0.18087411
-0.01997065
0.06050106
0.27835277
0.25243613
-0.25989044
-0.11726042
-0.18139949
0.00575560
-0.04104531
-0.01606105
-0.10223761
-0.18412200
-0.15034635
-0.35648146
0.17177378
-0.16398975
0.35088593
0.40233040
0.05337940
0.13853082
0.07325020
-0.04601413
-0.02130830
0.26998881
-0.02764492
0.25327244
0.06789797
-0.29446271
-0.03148756
-0.19472985
0.06819806
0.03113074
0.07673865
0.03672909
-0.08143395
0.03257700
-0.34482658
-0.00438286
-0.02015975
-0.05543325
-0.02777822
0.03993288
0.09851975
0.05341964
-0.23079304
0.11607929
-0.27752498
0.27066064
0.15564965
-0.02434559
-0.01215317
0.09157184
-0.00423807
-0.04457314
0.04142130
0.00444740
-0.09952758
-0.14802593
-0.17972706
-0.04128271
-0.08032236
-0.15355760
0.14581598
-0.21360390
0.11438191
0.13794331
-0.02785722
0.18234937
0.13618535
-0.17434122
-0.33085698
-0.02555163
-0.11868835
0.08244890
0.00265770
-0.16442676
-0.06285443
-0.03782988
0.06314841
0.11482795
0.22033621
0.00938755
0.09430540
0.03091240
-0.44514588
-0.14122126
-0.25028417
-0.11691830
-0.00989565
0.12817265
0.11743031
0.17914979
-0.31815913
0.16063450
-0.12583512
0.04547137
0.05464643
0.00752595
0.18398038
0.13738069
0.00942007
0.12171290
-0.08724465
-0.01178608
-0.14360075
-0.13629508
-0.31132033
-0.06879597
-0.20193711
-0.11198857
0.16892718
-0.28525019
0.01050576
-0.00417539
-0.00033558
0.22316721
0.10150120
-0.00787859
-0.30507040
-0.09559468
-0.05950401
0.16345288
0.12103385
-0.18246415
-0.14009732
-0.24197060
0.11869674
-0.12680022
0.21006885
0.11834235
-0.24593662
0.00727775
0.08117847
-0.10054692
-0.12309760
0.24670099
-0.01669842
0.34245732
-0.05069032
-0.06849417
-0.04997478
0.21715175
0.11859529
0.12874021
0.15736145
-0.04091086
-0.19766645
-0.07987777
0.27467775
0.11816960
-0.01570115
0.16989765
-0.12561391
-0.03628674
0.07995901
0.04614123
0.20045228
-0.04530060
-0.03152775
-0.04581202
-0.03022005
0.19970062
0.08983848
0.13097139
-0.16849366
-0.16445772
-0.22325483
0.26207757
0.22464836
-0.06116576
-0.10288038
0.06922485
0.00417422
-0.04561539
-0.16469638
0.24962130
-0.02140124
0.05022638
-0.15394984
0.07223847
-0.03513999
-0.12215753
-0.12858826
0.15107499
0.00988747
0.42596668
-0.05033911
-0.04053410
-0.00379618
0.19720864
0.24004419
0.08934923
0.06935613
-0.01175556
-0.10984842
-0.04071357
0.16685279
0.18763293
-0.14777023
0.14138581
-0.12256270
0.05886135
0.00755715
0.02127327
0.19768839
-0.13333640
0.00359717
0.04171855
0.00081563
0.09718201
0.09026062
0.23685946
-0.19416319
-0.09706100
-0.10146087
0.14787710
0.19875427
-0.05942153
-0.08278966
0.01107947
0.01326311
-0.07590298
-0.06802005
0.08874901
-0.04791341
0.06384380
-0.29341701
0.01939272
0.03707322
-0.08705905
-0.15719686
0.15517683
0.11775703
0.33070418
0.04671425
-0.01602229
0.07939785
0.10505459
0.20304722
0.07694797
0.06685282
-0.10804184
-0.26120821
0.05342253
0.08488497
0.22847916
-0.16233270
0.24687149
-0.17234243
-0.02971238
-0.00603811
0.00721662
0.22108805
-0.04860268
0.11075668
0.01875842
0.05847459
0.24234532
0.15352698
0.28471735
-0.33823320
-0.16976029
0.08512025
0.27459666
0.28074384
-0.15859589
-0.09556233
0.04563624
0.05301405
-0.02589865
-0.02866327
-0.00336928
0.03510245
-0.11499803
0.12146518
0.22446772
-0.32726437
-0.17643364
-0.08098244
-0.19564594
0.00092528
-0.02573907
0.09911052
-0.01736807
0.14185184
-0.15729308
-0.18417162
-0.15359503
-0.11004129
0.22215515
-0.07252369
0.28654832
-0.12930301
0.13690330
-0.01671275
-0.05153830
-0.32960692
0.07871427
0.17635034
-0.15576015
-0.07735100
-0.48534107
0.14279510
-0.21335258
0.09051976
0.14947771
-0.03606594
-0.01612712
0.20846221
0.16341060
-0.16910563
0.03006664
0.00770175
-0.04794156
0.10916996
-0.11663135
-0.07577872
-0.08760890
0.06299624
0.17096519
-0.35315883
-0.45836586
-0.02442016
0.13646844
-0.06548930
-0.09434087
0.01460576
0.06480257
0.10269719
0.09332456
0.02867700
0.16005607
-0.14859927
0.26316249
-0.05263040
0.06943676
0.01595710
0.02235610
-0.09130235
0.18911870
-0.08196128
0.04729726
0.03284852
0.03721755
-0.14268672
0.13303865
-0.03481856
-0.03854144
0.05567011
-0.19585201
0.13260961
-0.12075274
-0.11003350
0.01548223
-0.04614592
0.05348996
0.10144317
0.02426843
-0.37851375
-0.04483273
-0.13620852
0.05349796
0.12626639
-0.16882485
0.03846819
-0.03486533
0.00303735
0.06868109
-0.01527627
-0.25077456
-0.03265380
0.18248713
-0.32005456
-0.08088608
0.18999590
-0.10333610
0.22363037
-0.10062551
-0.01845542
-0.03201216
-0.27495950
-0.04190403
0.36327785
0.11459035
-0.21028484
-0.00927946
-0.12165470
0.54914868
-0.12662610
-0.05324004
-0.00666981
0.03518636
-0.12885973
0.32930517
-0.26388583
-0.15074228
-0.07415833
-0.33177796
0.16313736
0.10972255
0.08922964
0.16641113
0.20874529
0.02031110
0.11141748
0.23789483
-0.14860897
0.09810500
-0.05232136
0.19326328
0.14061819
-0.04043077
-0.04938562
-0.10027463
0.31738418
-0.45459986
0.14523447
-0.45472991
-0.04301630
-0.08673729
-0.09823960
0.01834245
-0.07037858
0.37712893
0.05836616
-0.02336235
0.19629648
0.19954398
-0.20643422
0.00126554
0.03418756
-0.31390682
-0.03247089
0.20418157
0.02792818
0.15868273
0.08237609
0.15439400
0.00090239
0.31687969
-0.10101863
0.00117404
-0.14240929
-0.07858170
0.09091592
-0.09298442
0.27911574
-0.07495919
-0.18568455
0.04381204
0.40178779
-0.02547454
0.02314438
0.00546154
-0.07333550
-0.02227044
0.15666310
-0.18928464
0.45942402
-0.22589922
0.13956366
-0.17596655
-0.26951486
0.09969278
-0.27158794
-0.50886369
-0.03874388
-0.12932819
-0.18570453
-0.04326754
-0.08873867
0.06002625
0.08776169
0.07920170
-0.06794205
0.08096281
-0.20801036
-0.11664303
0.08762243
-0.08703291
-0.00525929
-0.00028281
0.09479609
0.16833609
0.11798687
0.02895095
-0.13384096
0.16863173
-0.06153036
0.11773741
-0.15758844
-0.12905084
0.05563388
0.01614444
0.35658064
0.03460719
-0.05128449
0.02358449
0.19265920
-0.08473458
-0.00769343
-0.06743558
-0.06021855
-0.13392840
0.01339029
-0.03516711
0.36997780
-0.05685419
0.22854026
0.02921378
-0.24176452
-0.04569919
-0.08391599
-0.59743893
-0.16012540
-0.04398820
-0.28934294
-0.01823394
-0.09071382
0.03110027
0.10424060
0.03802111
-0.24806121
0.07286980
-0.34237337
-0.12223397
-0.00687136
0.02590727
0.10753332
-0.05390333
0.06792911
0.18160087
0.17210141
-0.03268502
-0.14353809
0.21072260
-0.11576174
0.19400178
-0.21087115
-0.00717186
0.14423653
0.09402113
0.38734248
-0.02059679
-0.08129568
0.11373281
0.14118989
0.08600669
-0.04986106
-0.08721642
-0.17891450
-0.13449402
-0.08773176
0.03807827
0.40918729
-0.00186944
0.36946970
0.05409882
-0.14483766
0.01700564
0.02162276
-0.03862150
0.09436925
0.24607491
0.05428904
-0.15315115
0.13649273
-0.37372580
-0.02081038
0.09174590
0.05209416
-0.02107671
0.29799640
-0.01499103
0.08447378
0.08583512
-0.18091902
0.11398499
0.17875390
0.00342323
-0.18889499
-0.07106869
-0.07849304
-0.21552360
0.03983661
0.29191908
0.05397475
-0.33250007
-0.00883791
-0.35390368
0.09549409
0.06579286
0.21257734
-0.06006994
-0.01391796
-0.30750102
-0.18820629
-0.09170263
0.12223793
0.05849995
0.24431425
0.07666002
0.10279106
0.13007414
0.12760858
0.06669854
-0.19930524
0.09412158
-0.28249824
-0.08921464
-0.21308950
0.10625787
-0.07509456
0.01351600
-0.02243994
-0.33861127
-0.00963452
0.09500192
-0.19834790
0.11848702
-0.05357945
0.09951213
-0.04467929
0.05635583
-0.02456383
0.06195564
0.20036228
0.00570887
-0.14635336
-0.00664645
-0.17865154
-0.10803648
0.04627739
0.10979180
-0.08246212
-0.09430040
0.21341208
-0.13885729
0.36379364
0.08858555
0.16179800
0.00255248
-0.09696519
-0.21833241
-0.11325880
-0.12601697
0.03181612
-0.11600482
0.04764652
0.09154972
0.07202025
0.09925492
0.21021764
-0.07451540
0.03650536
-0.12196222
-0.04196215
-0.30469292
-0.37464166
0.00447610
-0.10346755
-0.06071189
-0.06020366
-0.12895939
-0.05804437
0.15085272
-0.18469715
0.19618367
-0.13001165
0.10674152
-0.04568668
0.06234713
0.12516621
-0.01437328
0.10899743
0.06327929
-0.08258211
0.02775248
-0.23623618
0.07489247
0.05205960
0.02106645
0.07106683
-0.08511660
0.13600807
0.00317145
0.47183841
0.08582145
0.06420358
0.08919279
-0.04068230
0.06944876
-0.20022050
-0.09402502
0.00307207
-0.04583179
0.11482111
0.02228993
0.12448041
0.20073208
0.03039607
0.01722886
-0.00233414
-0.12419254
0.10750706
-0.07642812
0.05095360
-0.05871939
-0.06911758
-0.00569407
-0.15343869
-0.16865076
-0.19369625
-0.07217686
0.11015624
0.25326446
-0.11103727
0.08113766
-0.20874499
-0.06232127
0.08957071
-0.03612544
0.23942299
0.04959521
0.12853689
0.01559993
-0.10499283
0.15328024
-0.17298533
-0.04197534
0.11199483
0.11473218
-0.10559504
0.01805621
-0.03608680
-0.35630968
-0.20634805
0.01820144
-0.16731916
0.07204331
0.21699089
-0.13881390
-0.07485108
0.05073072
-0.22103865
-0.21250682
0.02571180
-0.19757558
-0.09764989
-0.02781119
-0.19684283
0.12332541
-0.14033177
-0.10098325
0.05265357
-0.00875734
-0.18128528
-0.09994838
0.06991807
-0.06225814
-0.01878849
-0.01630169
-0.12309767
0.07492582
0.12829810
-0.22925133
0.09924459
-0.27092040
-0.10807414
0.38277715
0.15983199
0.16763704
-0.00287574
0.03015337
-0.36499807
-0.04917949
-0.10885043
0.03041623
-0.08142579
-0.23554319
0.00219696
-0.03378915
0.04484051
-0.14779288
-0.04060427
0.13337804
-0.28213871
0.00145007
0.30535996
0.06323844
0.05083396
-0.00361668
-0.07577001
-0.45066234
0.41441134
-0.19767371
0.01702035
-0.21246184
0.00736296
0.03402847
-0.24973267
-0.30309033
-0.03885647
0.05107076
-0.01321469
-0.11823692
-0.05530246
0.16366492
0.16067609
-0.03229104
-0.12128195
-0.03424767
-0.01825519
0.09846768
0.21801229
0.06178998
-0.10740608
-0.08294281
-0.01193716
0.24276033
-0.06603374
0.04100918
-0.00127849
0.28007716
-0.00253781
0.47420847
0.11830475
-0.27630591
0.09559541
-0.08691670
0.15569733
0.10254911
0.02049700
0.03818097
0.04671037
0.03371286
-0.33833885
-0.19918244
-0.09204974
-0.10706897
0.17590988
-0.11741503
-0.02678162
-0.08107369
0.23572384
0.08917818
-0.09029239
0.15971066
0.02174768
-0.43004960
-0.02971187
-0.03446409
-0.16679965
-0.20044145
-0.05951121
0.05663006
-0.06443816
0.00158347
-0.09668349
0.12726849
0.00441678
0.20769747
0.01133074
-0.04973027
-0.05632422
0.05123574
0.01688727
0.18267559
0.16219851
0.27178186
-0.62869662
0.05200782
-0.01876573
0.03378767
-0.09620721
0.06836296
-0.02641143
-0.00821619
0.21706383
0.01579741
0.07653740
0.21781947
-0.05445985
0.30034387
-0.04482876
0.12669615
-0.24348815
-0.01456153
0.01201171
0.01585461
0.05746060
-0.25026456
0.22440282
0.04013149
-0.16208763
-0.06617103
0.05475567
-0.19160458
-0.05786695
0.09135807
-0.03515853
-0.11975999
0.00900146
-0.02987745
-0.00642687
0.07801320
-0.05269107
0.08491649
0.16215776
-0.02753191
-0.01892617
-0.05900193
-0.14795008
0.18908906
-0.02865809
0.21994595
0.08377113
0.15085620
-0.48348567
0.04834205
-0.02966493
0.04197500
-0.00733881
-0.09246597
0.03898025
0.00147721
0.22304593
-0.06361504
0.09710864
0.38063204
-0.09556494
0.10559816
0.04583883
-0.01071012
-0.11884852
0.04259402
0.10597520
-0.07414229
0.24121003
-0.23502429
0.20890658
-0.08527157
0.04393798
-0.09196422
-0.04704444
-0.27602795
-0.08419664
0.05550206
0.04921423
-0.09064469
0.10163131
-0.02027895
-0.10761912
-0.09473432
0.05102470
0.00173618
0.03382288
-0.18481833
0.04454468
-0.07830436
-0.27426705
0.20674501
0.00285311
0.17319469
-0.15224680
-0.01288789
-0.28711364
-0.04037614
-0.02383733
0.10503823
-0.02408058
-0.22284187
0.07477549
-0.04712570
0.07656406
-0.19662225
-0.04878303
0.47568822
-0.19530115
0.01030939
0.15187021
-0.11365924
-0.00423738
0.07442772
0.08616316
-0.09021117
0.23714480
-0.40819719
0.39041233
-0.12949997
-0.12867174
-0.12565997
-0.10782860
-0.05485274
-0.02550068
-0.04274227
-0.05648125
-0.05899776
-0.02275587
0.12218358
-0.10109480
-0.01000757
0.07298420
-0.12726659
-0.10542478
0.08649468
-0.00691452
-0.02057232
-0.24878275
0.44345418
-0.02732324
0.15203375
-0.24655586
0.33843035
-0.09850632
0.01155859
-0.20640311
0.05988932
-0.02234800
-0.09704801
0.03536600
-0.04872571
-0.02469693
0.01345133
-0.01712578
0.12325808
0.11785986
-0.00529577
0.01881009
0.11911288
-0.03077937
0.13891758
0.04071834
-0.27188462
0.10048983
-0.13141657
0.00119000
-0.12231001
-0.28928712
-0.05465103
-0.52829993
-0.11766676
0.04934957
0.06099238
-0.05915429
-0.15700176
-0.02091941
0.00556887
-0.02190883
-0.10060430
-0.05865552
-0.37139904
0.06251732
-0.27673054
0.02218985
-0.42024410
-0.36522007
0.26178166
-0.19390170
0.57879251
-0.14221260
0.30405584
-0.20591573
0.11188405
-0.13323554
0.24392225
0.14345594
-0.09553106
0.01800225
-0.02672680
0.17575024
0.05072851
0.10984804
0.04580296
0.14412971
0.01601096
-0.11583678
0.11349069
0.18998747
0.48834947
0.20115708
-0.22937229
0.12352660
0.13702849
0.13200711
-0.08268182
-0.08874319
-0.15180671
-0.64890343
-0.06107923
-0.05409993
-0.00572107
0.10088359
0.04225222
-0.07041754
-0.04599982
-0.03307547
0.05373844
-0.20463398
-0.25858501
0.04340567
-0.07206754
-0.04777031
0.06104500
-0.13816929
0.30192715
-0.31398699
0.21718417
-0.35003778
0.39642319
-0.44979936
0.01087095
-0.21038201
0.22426003
0.03278351
0.06992244
0.28209344
-0.03462888
0.17092092
0.05892268
0.06851571
0.41412786
-0.04421786
0.11901879
-0.09064467
0.16122021
-0.03440535
0.47035903
0.18325308
-0.21786760
0.01464117
-0.00188137
0.16876014
-0.02719083
-0.21539479
-0.01401859
-0.46413657
-0.02014905
-0.44629627
-0.25587845
-0.22094342
-0.10867201
0.01842181
-0.11402955
0.12349800
0.14650525
-0.24224915
0.00421123
-0.02405163
-0.03743193
0.22753665
0.09523640
0.03982001
0.08102593
-0.06973328
0.03617377
0.29068315
0.21696003
-0.19952391
0.18878958
-0.13933717
-0.03390686
0.11332401
0.00781153
0.09078075
-0.01984671
0.03021079
-0.05023094
0.20206255
0.17595203
-0.13033931
0.48875213
0.14679888
0.07804468
0.01976540
0.29544052
0.09952886
-0.08420777
0.16699256
0.11313091
0.01596678
-0.16594775
0.17443119
-0.24338427
0.07328742
-0.06300128
-0.30078048
-0.01868304
-0.03442598
-0.02444071
0.06683669
0.14683636
0.14094199
-0.05458679
-0.18450664
0.23254752
-0.02302856
0.01951053
0.51693153
0.18806031
0.00835392
0.12420133
-0.12959072
0.07908480
0.02276911
0.34271008
-0.27891541
0.25020164
-0.17245404
0.03938173
0.11978833
-0.03581350
0.24389684
-0.17024034
0.02498599
-0.36827785
0.00122153
0.25618750
0.08523893
0.45502141
0.05683566
-0.06430528
-0.03565395
0.19056098
0.16514301
-0.07326984
0.23357338
-0.15424122
0.07213684
-0.44455746
-0.09132952
-0.09803291
-0.21260202
-0.08386180
-0.28956366
-0.05879677
-0.05414889
0.06203760
0.04004890
0.28155705
0.28338227
0.18335088
-0.42512530
0.15146826
-0.11859798
-0.10307407
0.37313789
0.44827530
0.08746155
0.12070125
-0.08755911
0.02285208
0.17101510
0.19746481
-0.14263269
0.26375175
-0.07555963
0.02062653
0.02181836
0.06078043
0.36216015
-0.05966898
-0.02274009
-0.06939936
0.01282582
0.13839628
0.13586308
0.68626410
0.13151784
0.12560640
0.06845855
0.35043630
0.00878882
0.00953793
0.18418686
-0.11744569
0.23212901
-0.53574872
0.06607219
-0.22700046
-0.03407652
-0.24183057
0.10948352
0.07146726
0.05545591
-0.13405302
0.16851388
-0.02844924
-0.14526121
-0.07077546
0.16346706
0.07448041
-0.17414583
-0.04825718
-0.11407041
-0.01371842
-0.36199361
-0.04305347
-0.00719242
0.28151464
-0.06684632
0.04970948
-0.18804726
-0.09637319
-0.19373779
0.13430732
-0.33467492
-0.23843040
0.01413010
-0.07753520
0.09841269
0.13223681
0.13968141
-0.02571095
-0.01615410
0.05599225
-0.02235035
-0.07808860
-0.13954367
0.12597191
0.07696812
-0.06086697
-0.03354907
-0.16213137
-0.01995912
0.04216764
-0.30656746
0.07523342
-0.03619722
-0.02079827
-0.02032823
-0.12194522
-0.07838716
0.10722539
0.30103734
-0.06177034
0.21205635
0.13473435
-0.13913511
0.08829338
-0.24473172
-0.10130631
0.13766539
0.06433015
-0.01107714
0.28611541
0.15063019
-0.02645732
-0.00055364
0.20763554
-0.44575986
-0.06884766
-0.24276571
0.10433329
0.00205052
0.05737549
-0.05825893
-0.09890577
0.08099275
-0.01477439
0.19913217
0.16955435
-0.10297607
0.07942536
0.05610786
0.11575808
-0.21182586
0.21920639
-0.03984503
-0.03833175
0.28558016
0.01117399
0.02096694
-0.43729451
0.09494550
-0.03844741
-0.04393351
-0.04955149
-0.23255132
-0.13747738
0.07872673
0.26941577
0.09367044
0.29463270
0.25349906
-0.07597123
-0.08504271
0.46177709
-0.23076162
0.02719726
0.13172866
0.02736256
0.17757474
0.02291669
0.07886457
-0.10662259
-0.09794704
0.08853796
-0.04290942
0.37493536
-0.04648655
-0.02252422
0.07085070
0.19834073
0.21026152
0.08222888
-0.11912226
-0.17737052
0.12680216
-0.03356271
-0.03100648
0.49155238
0.09751769
-0.13901690
0.14685814
0.23575550
-0.15848204
-0.24869448
0.01541331
0.20086698
-0.03857818
-0.16222097
0.02922964
-0.03941314
0.06791928
-0.62121701
-0.07489730
0.12941499
-0.13042684
-0.36862493
0.33673048
-0.36161608
-0.15663552
0.00432460
-0.14318655
-0.09152748
-0.07781531
-0.26577914
0.22660875
0.14894579
-0.55309790
0.14442074
-0.18256187
0.19988707
-0.15194829
0.07643227
-0.17171530
0.08545544
-0.23073561
0.70802772
-0.04173583
-0.34213868
0.19708061
-0.24709548
0.30967811
-0.04169342
0.15118392
0.15924856
-0.01665782
-0.15673070
-0.04855244
0.07105321
-0.01250695
-0.00424870
0.35866922
0.01698691
0.32171044
-0.03538944
0.48539463
0.00360887
-0.43930468
0.17864493
-0.11273001
-0.58935779
-0.02719217
0.23097560
-0.21978353
-0.32248408
0.26201424
-0.32472107
-0.15979993
-0.01830744
-0.08050907
-0.22589710
-0.18816404
-0.04366836
0.16053872
0.10593867
-0.53764975
0.14776529
0.01575964
0.30270675
-0.15307082
0.04545055
-0.20345654
-0.09793201
-0.22574753
0.54922134
-0.27832446
-0.17022401
0.17198011
-0.40869918
0.32340002
-0.05122678
0.25183359
0.17284119
-0.02728124
-0.25269115
-0.13231567
0.07861847
0.11345623
0.11001078
0.41537035
0.08686083
0.17087665
-0.10557007
0.45830971
-0.00144265
-0.19473445
0.02165912
-0.12240307
-0.61201185
-0.06981035
0.23838174
-0.25528046
-0.23348947
0.22579767
0.03827937
-0.07014110
0.06927579
-0.17393669
-0.00848855
-0.18673255
-0.06358462
0.18908410
-0.11251803
-0.50018066
0.13963862
0.26184994
0.33897403
-0.20525581
0.08831123
-0.30862632
0.04696929
-0.24477117
0.50991911
-0.42702371
-0.31898704
0.21016675
-0.40444571
0.31921723
0.14131597
0.31617454
0.15518914
0.03216454
-0.16769628
-0.11937115
0.20599177
-0.01155381
-0.03080891
0.44518125
0.04888942
0.17832859
-0.12838742
0.32376301
-0.02787118
-0.03059056
0.01114723
0.04627289
-0.66676301
-0.06016221
0.19685300
-0.27519184
-0.29462460
0.12265790
-0.02989504
0.04272411
-0.09749653
-0.19853145
0.52895844
-0.18884230
0.16715889
0.49554238
0.12329137
-0.18264486
0.22200286
0.09265181
0.14345363
-0.13702494
0.40103495
-0.42190716
0.40340468
-0.29350731
0.32177520
-0.26064703
-0.25166535
0.29696605
-0.31953809
0.22542292
-0.28072268
-0.03540141
0.28750366
-0.08794371
0.27773839
0.06300621
-0.04758038
-0.18358688
0.01288931
0.06705906
-0.28204471
0.30873242
-0.44925010
0.27031603
-0.25920752
-0.31982377
-0.11615722
-0.08883686
-0.13764925
-0.08208444
0.14125024
-0.05599416
0.11049880
0.17764950
-0.01426941
0.01715970
-0.06163346
0.04561321
0.23845220
-0.05782270
-0.08699994
0.15213972
-0.17018500
0.13956697
0.03882268
0.08645160
0.09221134
-0.04532795
0.02077093
-0.07281329
0.10125744
0.03966716
-0.01011122
-0.08346193
-0.05682663
-0.13353275
-0.11366730
0.19840944
0.07438533
0.17824619
0.13415723
-0.04570784
0.08584390
-0.09591787
-0.13324364
0.03129831
0.10215923
0.11902225
-0.13224594
0.08196504
0.09720051
0.06126506
-0.05575977
-0.03686006
-0.34387511
0.09283374
0.06768376
-0.29047364
-0.08648916
0.10279583
0.17453590
0.21507208
0.27398130
-0.12211923
-0.22965220
0.01554013
-0.11215141
-0.06515210
-0.10759795
-0.38405958
0.01242445
0.27512503
-0.23078212
-0.35391113
0.02840994
0.21011826
-0.05652650
0.04941923
0.19964877
0.02012235
-0.25455895
0.23013768
0.16369696
0.03237998
0.10134740
0.00460090
-0.05174595
0.09319755
0.05606858
-0.04587362
0.17390808
0.23004258
-0.06719162
-0.07614093
0.13204195
-0.19680817
0.08561819
-0.15671885
0.13212062
-0.02541235
-0.01349980
-0.12583019
0.17292376
0.11640856
0.00598585
-0.14926915
0.24053715
0.06695163
-0.00657229
-0.09956115
-0.04514246
-0.06239823
0.15788354
0.15588623
0.25447968
0.14888647
-0.02605715
-0.20376866
0.02584865
-0.16258477
0.15244485
0.07755285
0.01394170
-0.08319264
0.01087986
-0.19331019
0.16000578
0.12149759
-0.15100221
-0.25726056
0.14156422
-0.04527059
-0.02816813
0.14358236
-0.12535457
-0.15064804
-0.03169301
-0.22495838
0.03337174
-0.05706000
0.09345987
0.10282879
0.01914861
0.11614873
-0.08730857
0.18543662
-0.01911469
0.09634650
-0.10494013
0.11183856
-0.13944890
-0.13038331
-0.08280779
-0.09232865
0.09357388
-0.09131811
0.07146716
-0.17273903
0.08746443
0.05895367
0.10554668
0.06774676
0.21914926
0.07605788
-0.04634111
-0.30931684
-0.00819986
-0.15002710
0.02929236
0.13465926
0.12818964
0.07245401
0.08920553
-0.12324464
0.27928454
-0.02281506
-0.18463512
-0.29374611
0.24110630
0.00237898
-0.05705950
0.23868287
-0.14717445
-0.23912789
0.01099107
-0.10564173
0.36275515
0.09135319
0.22340596
-0.06251236
-0.00530630
0.02384703
-0.19489379
0.09907785
-0.26271474
0.03837880
-0.06345430
0.21408109
-0.01777746
-0.15358108
-0.17708209
0.10699367
0.05235595
-0.14847070
-0.31353024
0.16175385
-0.02167530
0.03334099
-0.08162944
0.09500464
0.11036383
0.02521101
0.03354242
-0.00359907
-0.01363122
-0.32548904
0.04293130
0.09540120
0.13453710
0.14257525
0.14572386
-0.14931422
0.14957780
-0.00888788
-0.06956688
-0.18503298
0.04270766
-0.02956768
-0.09928071
0.22031032
0.05060460
-0.09631098
-0.18090889
-0.07252435
0.05748924
-0.09105636
0.26191315
0.16416490
-0.02156198
0.17385101
0.02627576
0.09200840
-0.12476496
0.06154712
0.02251024
-0.09668168
-0.10241580
-0.16049626
-0.13850746
-0.32746133
0.02658648
-0.31437728
0.07437047
0.02824064
-0.14133748
-0.02884070
0.00393944
-0.04555040
-0.22262977
-0.09181146
-0.30902734
-0.20854056
0.10415629
0.18977031
-0.06987699
-0.11169290
0.15989152
0.10182379
-0.09833821
-0.06620921
0.25777984
-0.07741844
-0.05099977
0.27220792
0.23016804
-0.02144608
0.01158608
-0.03241037
-0.21060887
0.12890203
0.14451252
-0.07395468
-0.07352239
0.34287536
-0.10130575
0.03538894
0.01642495
-0.20929863
-0.02152502
0.07872458
0.18051216
0.17096630
-0.02210792
0.13091043
0.08166889
0.09305608
0.00876741
-0.12500167
-0.04919655
-0.05483418
-0.01448404
0.12552381
-0.10831006
-0.07228462
-0.06343558
0.00124495
-0.04619616
0.12815844
-0.20510575
-0.02555072
0.16477305
0.02834202
0.07599284
0.00171863
0.05588077
-0.11840945
-0.09093077
-0.19523931
0.02929540
-0.00224906
-0.01443038
0.05073451
0.02397654
0.07030226
-0.09135469
-0.18285358
-0.22752485
0.15494826
0.23354609
-0.09780663
-0.03119550
0.20446168
-0.16761251
0.07277041
0.16660590
0.01203986
-0.07301352
0.11815320
-0.12788834
0.10942373
-0.06338969
-0.02730660
0.09354099
-0.01517713
0.03769780
-0.00362420
-0.10846835
0.16965479
0.07245383
0.10730567
-0.02879513
0.02555493
-0.06811011
-0.06127644
-0.12275350
0.04109764
-0.10736275
0.23135881
0.08946735
-0.10783577
0.14011312
-0.03889668
-0.03746379
-0.07398571
0.12399518
-0.45720643
-0.12058277
0.05402970
-0.02497890
0.16351014
0.09013321
0.11022706
0.03292171
-0.04840212
-0.06895897
0.06492846
0.05962798
0.09515733
0.03881442
0.12448390
0.02649016
0.08960716
0.25801244
-0.03005353
-0.12729976
-0.02298919
0.02456200
0.07841736
-0.12616581
-0.15950863
0.10796195
-0.25884378
-0.08796914
-0.16155484
0.01575589
0.08277058
0.15753940
0.04063685
0.04422176
-0.04998313
-0.07973673
0.14993000
-0.02178221
0.00934983
-0.01877234
-0.00145519
0.02119338
-0.15050778
0.04794047
0.22925572
0.01020171
-0.28239146
-0.03546626
-0.18338357
0.08936957
-0.00548048
-0.10987515
-0.23743665
-0.12308466
-0.05600136
-0.01788714
-0.03459107
-0.20646961
0.09587135
0.11641654
-0.14798774
0.05253942
0.14325245
-0.14944807
0.19714619
0.20039493
-0.07274392
-0.19165669
0.07504218
-0.05838903
-0.07824234
-0.04734994
0.01682978
-0.06247333
0.13500786
-0.12729880
-0.00557106
-0.03781383
-0.09187770
0.08403722
0.03406118
0.01198723
0.06299642
0.00354084
0.08969439
0.12905847
0.11056767
-0.09314631
-0.01208413
-0.05857873
-0.04406713
0.16140032
0.09824050
0.06755909
-0.16174546
0.11362169
-0.47502500
0.17838417
-0.05181454
-0.04445595
-0.17966658
-0.05664286
-0.15926078
0.06651460
0.07440329
-0.18730827
0.02499147
0.24446318
-0.17309743
0.39728293
0.07438821
0.04171166
-0.00247730
0.21753035
-0.13513336
-0.33253491
0.15068905
-0.14404601
-0.18161313
-0.17876522
0.06149152
-0.19860876
0.03138760
-0.19895129
0.03302649
0.03872684
-0.03037166
-0.08200795
-0.01374395
0.16019467
0.02799635
0.08280580
0.00836045
0.24147905
0.01417132
0.25753805
0.16460197
0.07570629
-0.22785847
0.14409882
0.18688358
0.05350444
-0.28264254
0.16268152
-0.43232465
0.27451736
-0.10346410
0.02812539
-0.19356735
-0.08891953
0.00920998
-0.03388362
-0.02144863
-0.09250985
-0.02865084
0.07880744
-0.16120942
0.38515425
-0.04702480
0.02627319
-0.05206321
0.07754855
-0.11629143
-0.07945275
0.09224992
-0.12610480
-0.09822918
-0.12015499
0.09954086
-0.20407091
-0.01082536
0.00771348
0.03731684
-0.09971363
-0.30871826
-0.06902187
-0.05225848
0.24077520
-0.13322434
-0.05183183
-0.28482008
0.04705404
-0.06482607
0.10342821
-0.28730524
-0.05987220
0.28053340
-0.18442710
-0.19494276
0.08166607
0.34019160
0.04957853
0.08175702
-0.04994069
-0.24818400
-0.12138759
0.17503472
0.11829334
-0.01010325
0.07629350
-0.11416458
-0.04032947
0.00510504
0.15608603
0.06789806
0.15109210
0.37306049
-0.02799987
-0.27561358
-0.04822043
-0.17461863
0.04804085
-0.06359842
-0.16652873
-0.12430435
0.13115536
0.01612713
0.23712260
0.13887827
-0.06667794
0.08205407
0.03042375
-0.18002000
-0.14910626
0.04028089
-0.07775991
-0.03858312
-0.01791657
-0.04772240
0.06604907
-0.11276337
0.04564877
0.00763364
0.03030806
0.23183630
-0.05557493
0.27319762
0.10859691
0.10974550
-0.05835497
0.14173736
-0.15820663
-0.11471666
-0.07172964
-0.05011065
-0.05785241
-0.04420791
-0.22813269
-0.03581147
0.23606378
0.14920686
-0.00547808
0.13909660
-0.14630722
0.18110073
0.11936305
-0.20434169
0.09981130
-0.03780429
0.19683641
-0.04509410
-0.01358286
0.02545865
0.01586659
-0.25714198
0.12005675
0.02217565
-0.02974699
0.15056112
-0.13850093
-0.19895741
-0.12720542
-0.11522084
-0.13607231
0.09807895
0.17608248
-0.12853394
-0.03454335
-0.14686809
0.07650632
0.23332095
0.03661698
-0.09271274
0.11054404
0.18163024
0.26126719
0.30513990
0.11053791
-0.36856791
-0.06783926
-0.34127453
-0.09676328
-0.33983043
0.06093140
0.12439340
-0.03897453
0.15341716
0.01956771
0.19729103
-0.06378147
0.12400357
-0.01854758
0.16377866
0.07900662
0.13226585
0.16651917
-0.05670772
0.01211508
-0.03090258
0.05876879
-0.04122750
0.05715176
-0.19882219
0.02380502
-0.18295054
0.21202968
0.01197756
-0.20659953
0.07295191
0.04310177
0.00010306
-0.06238160
-0.25090608
-0.16267098
0.08990263
-0.16423917
-0.09531008
-0.10133122
-0.35617390
-0.10529027
0.00953313
-0.02506826
-0.06883290
-0.02315175
-0.10924251
-0.04838637
-0.01667888
0.12726940
-0.11610234
-0.16072424
0.07992534
-0.02862310
-0.05739985
0.15596382
0.05424288
-0.15490820
0.04549083
-0.10986168
-0.07451769
0.02721200
0.09981404
0.04269414
0.06790272
0.11302544
-0.12425479
-0.01481815
-0.15027224
0.09644438
0.10499254
0.01175800
0.23045470
-0.12620634
0.15690757
0.02047713
0.13926952
-0.03344202
0.04233886
-0.13994415
0.01228001
-0.05752567
-0.18803613
-0.11563442
0.04836068
-0.15381773
-0.01003516
0.02658999
-0.20859978
-0.13063781
-0.17110553
0.02053022
-0.16331233
0.11319682
0.08649897
-0.04885408
-0.04865814
0.01344914
-0.41311786
-0.15709381
-0.05139134
0.02872356
0.02769002
0.06484847
0.14911179
-0.16148725
0.10045986
-0.05634466
0.01678784
-0.07545182
0.03729485
0.11258675
0.09108216
0.24236566
-0.02408933
0.07614233
-0.06955650
-0.01010632
0.09361373
-0.00394663
-0.11401989
0.06499493
0.04531790
-0.09982485
0.25616527
-0.03863521
-0.01065767
-0.12466505
0.03406110
-0.03136390
-0.13196556
-0.14686130
0.07248688
0.07585373
-0.13767818
0.22606398
-0.16325162
0.23667534
-0.39227882
0.11191813
-0.12578365
-0.01130127
-0.15169910
0.14535151
-0.19726588
-0.08316210
-0.25521749
-0.06960450
-0.21638675
0.05907642
0.07598392
-0.07302205
0.07715952
-0.39983106
-0.11356716
-0.01425315
-0.01987778
0.04227308
0.03795709
0.05757374
-0.14715360
0.14705910
-0.06328852
0.10001701
-0.04531580
-0.05962427
0.08468158
-0.19016032
-0.10603784
-0.03627641
0.00004126
0.10271421
-0.02172541
0.20994045
-0.07698405
0.16245419
-0.04686099
0.01606950
0.16248630
0.27580515
-0.17322598
-0.01979107
0.16059059
-0.04581891
-0.08671982
-0.19792834
-0.02672719
0.22571619
0.28405651
0.04957242
-0.11485390
0.06449786
0.02438977
-0.14349453
0.02329967
0.00447505
0.22226839
-0.06173280
-0.07229754
-0.23830923
-0.01234208
0.01349460
0.37680513
0.17612493
-0.04060286
-0.16703019
0.07149908
-0.04376653
-0.07921523
0.12485291
-0.05243260
-0.07282611
-0.00597353
0.14982611
-0.13738036
-0.10023456
0.18435317
-0.04019745
-0.03085877
0.05509617
-0.10343339
0.04183927
-0.10126594
0.08593463
-0.19591938
0.13442339
0.16726512
0.12384738
-0.21324703
0.02754490
-0.07289093
0.18786380
-0.09276675
-0.31594697
0.00781071
0.15569589
0.17144153
0.04091211
0.06289806
0.21391337
-0.03519170
-0.12109607
-0.05529823
-0.08133299
0.11745367
0.22425234
-0.03515138
-0.12528323
-0.00875965
-0.04980021
0.20573738
0.18553922
0.08242579
0.13259611
-0.01354153
-0.06081923
-0.25494695
0.13163038
-0.14615265
-0.17309038
-0.14650624
0.18820889
-0.14612700
-0.20237052
0.09667523
0.00819839
-0.03992641
0.01132569
0.03066615
0.02474600
-0.15285772
-0.07238315
-0.18164100
0.11615225
0.21004747
0.17208087
-0.10691821
0.05900271
-0.04235978
0.21627602
-0.11645032
-0.24240580
-0.02559266
0.08332223
0.13643329
0.07568133
0.03862767
0.26940221
-0.12524432
-0.09033593
-0.07012159
-0.05915260
-0.11838553
0.11717288
-0.06079357
-0.16272347
0.10432469
-0.09558842
0.24039716
0.05597474
0.15915063
0.12046528
-0.06502634
0.03226926
-0.23718965
0.05257956
-0.04758118
-0.09693394
-0.15757024
0.14758855
-0.12050018
-0.10070483
0.00208846
0.05246571
-0.01442128
-0.57237250
0.03131350
-0.04580567
-0.03500221
-0.05457171
-0.00453487
0.38462615
-0.21485281
-0.04642634
-0.35804349
0.06650566
-0.26462993
0.10908091
0.08429815
-0.30229324
0.12173938
-0.06282274
0.06037094
0.12589954
0.14797711
0.07140094
0.07542908
0.28816882
0.12738846
0.30479911
-0.09331700
-0.05815737
0.07651003
0.07425337
0.01431645
0.14392596
0.13724414
-0.08484823
-0.08854330
0.23919550
0.12228619
0.18097199
-0.14175838
-0.14024258
-0.06830735
0.05528343
-0.04589086
-0.09325691
-0.02502554
0.07991885
0.02257450
-0.01739413
0.19719297
-0.00266200
-0.09011984
-0.09867727
-0.41816840
-0.31501028
0.04826554
-0.21730857
-0.18712419
0.11329108
-0.29780805
-0.17651968
-0.33491927
-0.15933390
0.04385633
0.14181195
0.01339999
0.02514838
-0.19142440
0.53375083
0.29546842
0.09736776
-0.10441128
-0.13203287
-0.52740413
0.08551649
-0.20796047
0.06458668
0.08265617
-0.16283298
-0.00776619
0.08810592
0.33598766
0.23976897
0.10185627
0.10515996
0.16055138
0.29227278
-0.16475394
0.20760286
-0.13247256
0.05030318
-0.01056406
0.08390905
0.05723957
-0.14396729
0.14393134
-0.01186232
0.01830303
-0.04208305
0.06286219
0.03384358
-0.25064021
-0.41070384
0.04208438
-0.00717776
0.17444839
0.00124015
-0.09881082
-0.04953849
-0.03116463
-0.12208916
0.07077421
-0.22529337
-0.10183695
0.13728710
-0.00950744
0.30905801
0.13686186
0.12344615
0.03561594
-0.03696720
-0.23803811
0.04051821
0.09325285
-0.26258129
-0.03427987
-0.27131319
0.07537127
0.01780817
-0.00063881
-0.01304345
0.14228179
0.02411197
0.21105351
0.31180081
-0.23997264
-0.06678642
0.04808622
0.11903359
0.20223379
0.02345344
-0.02807092
-0.34218904
0.19096205
-0.14534689
0.00059675
-0.00831405
-0.11122259
0.07547930
-0.07799616
0.01373298
0.13536225
-0.24597518
-0.25777772
0.20622306
0.10477617
-0.11590868
0.03318924
-0.06460915
-0.25550649
-0.29646972
-0.11148319
0.16360383
0.06687927
0.09590298
-0.10207778
-0.00598907
-0.21984822
0.00584660
-0.25507277
0.03309127
-0.02775945
-0.05801355
-0.10514812
-0.03236957
0.01928565
-0.06380625
-0.13238916
0.06667784
-0.42276740
-0.16947886
0.19635321
0.10414401
-0.06803676
-0.03096535
-0.03616905
-0.17072499
0.18713307
0.05809646
0.03665858
-0.08114198
-0.06349410
0.10883025
-0.14649956
-0.01973773
-0.13870858
-0.07042158
-0.05152069
0.16533402
-0.00156746
0.05124369
-0.10295410
-0.01676325
-0.03193831
0.11679290
0.04340264
-0.02462710
-0.20570484
-0.20161954
0.13866891
0.28039044
-0.11831918
-0.05331667
-0.01466037
0.14292875
-0.25845939
0.22469731
-0.28938857
-0.09892991
0.09179706
0.13035110
0.01409318
0.06026181
-0.04983511
-0.27550352
-0.21414402
0.11415900
-0.28176922
0.19319248
0.17385571
-0.04058692
-0.12661353
0.11124530
-0.16919634
-0.32880574
0.05969599
-0.02760700
-0.01293091
-0.22104564
-0.10426632
0.00151074
-0.26425266
0.14895506
-0.32991621
-0.26097333
0.13420475
0.30490711
0.04239810
0.40612763
0.07968302
-0.17798212
-0.05160239
-0.03009056
-0.18218286
0.03273546
-0.22476912
0.09385527
0.26843092
0.02687412
-0.26916149
-0.18261020
0.12571988
0.09189368
-0.09469550
0.56684285
-0.24749191
-0.17593272
0.10945589
0.29526249
0.28881431
0.21154352
-0.18980111
-0.27598408
-0.02946674
0.08484151
-0.24853759
0.47466147
0.14875799
-0.13830297
-0.05226601
0.38131991
-0.24637836
-0.30938965
-0.03601146
0.13016157
-0.00131752
-0.17163193
-0.06065261
-0.10250106
0.09133187
-0.15632069
-0.20899460
0.01689972
-0.00748459
-0.21399079
-0.08914021
0.26783407
0.16936611
0.03153886
0.01176761
0.08434626
0.30151409
-0.04185551
0.04402810
-0.30866516
0.00234663
0.07617251
0.07746091
0.05369700
0.04749293
-0.02251038
-0.00522650
0.15664798
-0.12675875
0.03658312
0.08093107
-0.21612312
0.17279112
0.03401339
0.00464611
-0.18238539
-0.27648446
0.17368987
-0.04425749
-0.25146389
0.13246267
-0.06532244
-0.02912151
-0.02963041
0.08404303
-0.15000348
0.30431992
-0.26767555
0.18662433
-0.04782260
-0.11306552
0.14290334
-0.09745657
-0.16094993
-0.03886810
-0.18767892
-0.08558060
-0.35176197
-0.17251189
-0.05533694
0.05587251
0.11093540
-0.22817963
-0.05233945
0.03036154
0.03183566
0.10418817
-0.05830763
0.06143050
0.12069048
0.12312511
0.14757195
0.17500447
0.06392033
-0.16303539
0.02422825
-0.14329650
0.17460380
0.03019944
-0.19597237
0.14512506
0.13240150
0.00919117
-0.00835991
-0.12112845
-0.05398715
-0.07718128
-0.15610348
0.00987299
0.10892215
-0.02038807
0.03211713
-0.05010649
-0.07807968
0.10015161
-0.03324107
0.15781140
-0.00293777
-0.11130888
-0.03106956
-0.09112965
-0.25245088
-0.17673914
-0.09316916
-0.07254297
-0.12171484
-0.05438931
0.13114157
0.10335104
0.05368048
-0.25851205
-0.05141326
-0.11901218
0.11334237
0.06649948
0.07605651
0.09189677
-0.01023785
0.12045287
0.05116823
0.18783396
-0.04933089
-0.19518274
0.18429565
-0.08465166
0.23201893
-0.07752338
-0.07015642
0.20100860
0.09317084
-0.00398210
-0.05021445
-0.03231975
-0.06875203
-0.05317005
0.01476315
0.01265730
-0.02751297
-0.00295187
-0.00200336
-0.09113433
-0.00508848
0.15026459
-0.02948769
0.32910395
-0.02022893
-0.03357002
0.02247534
0.07103685
-0.14758798
0.12476038
0.19713955
-0.35459951
-0.26730892
-0.21424598
-0.11233763
-0.13196887
-0.09519630
-0.16087598
-0.11437046
-0.16156934
-0.04231173
-0.10034436
0.09477240
-0.11414018
0.25948596
-0.09776087
0.13882875
0.32879296
0.28755352
-0.60291135
-0.21892418
-0.07389628
0.18114316
0.13728915
0.04145814
-0.01795302
-0.21660621
0.10411611
-0.11195342
-0.00691067
0.45599625
0.04258442
0.25906196
-0.03029443
0.10513045
-0.48793548
0.20286354
-0.04306535
0.08998624
-0.04589315
-0.66255134
0.21255714
-0.03931118
-0.06913868
0.16028452
-0.29365826
-0.44763899
-0.06589610
0.27998620
-0.09817716
-0.17604534
0.20484833
-0.02816604
-0.03004544
