-0.09777768
0.14544556
-0.04670411
-0.07823656
-0.11253722
0.10514615
-0.11341651
0.07011098
0.16052182
-0.19067669
-0.02149647
-0.00430770
-0.01601746
0.13918196
0.17216195
-0.13134249
-0.19497843
0.27034530
-0.08367237
0.07409671
0.08787762
0.14170824
0.06482396
-0.00418875
0.07472321
0.18281077
0.05975692
-0.00983094
0.09922398
0.29363894
-0.11271961
0.06875549
0.08491683
-0.04276292
-0.04583992
-0.00647780
0.01506742
-0.00357643
0.02637412
-0.02033732
-0.03076579
-0.01375623
0.03451692
0.07103764
0.00309910
-0.05093291
-0.16478394
-0.09550790
0.04517290
0.16991827
0.10618735
0.14719196
-0.20124011
0.07737755
0.09542591
-0.00083452
-0.07408318
0.04956038
0.23625351
-0.04018803
0.00281534
0.31610900
-0.02653194
0.00711145
0.06221146
0.01086643
0.11181821
0.05978415
0.01978695
0.00310717
0.08504511
0.07796133
-0.10674398
0.00404086
-0.01364203
0.03149784
0.02929679
0.05213653
-0.16484164
0.04946813
0.15952346
0.17746446
0.11477514
0.12851073
-0.28591800
-0.03305982
0.08327354
0.05469744
-0.26931599
-0.02314219
0.12990528
0.01833905
-0.01435840
0.23142034
0.20768870
-0.02213622
0.23762920
-0.02513944
0.01409018
0.14452292
0.14893143
-0.18446025
-0.04765151
-0.01182457
-0.22596082
0.09001485
0.13027221
0.04854706
-0.15729511
-0.17323226
-0.22614682
-0.08307151
0.13410708
0.40929833
0.14665322
0.14765456
-0.22053489
-0.02254996
-0.01467960
-0.02765725
-0.24809158
-0.06441119
-0.17829375
0.12653327
-0.13024688
0.35919958
0.18481296
-0.04673817
-0.11236971
-0.00858331
-0.00070577
-0.08365536
0.06888686
-0.13753228
0.10641041
0.11575520
0.07637914
0.10537161
-0.02597572
-0.13116784
-0.07206587
-0.14709947
0.04338048
0.14455813
0.00825614
0.02261936
-0.07059415
-0.03415828
-0.04815779
-0.08763322
0.11569820
0.04349040
-0.00022751
-0.03775032
0.02109794
-0.03380571
0.09965318
0.13220799
-0.06100795
0.02480630
0.00061015
-0.06951533
0.04716581
-0.13480720
0.04467184
-0.01556479
0.09957041
0.03130210
-0.05012420
0.15908159
0.18076749
0.16402486
-0.27419060
-0.19220746
-0.14531958
0.27906391
0.23865795
-0.28183430
-0.00183694
-0.21900764
-0.01571679
-0.10011549
0.03943410
-0.27254581
-0.02240555
-0.03834663
-0.08533991
-0.02433085
-0.02069897
0.05785590
-0.04366357
-0.25107089
-0.12994783
-0.00296495
-0.03311183
-0.08346645
-0.02291985
0.00635637
-0.13633886
-0.03512773
0.24557859
-0.04444661
-0.27577096
-0.05552042
-0.00120330
-0.06144738
0.00360550
0.06904349
-0.17998737
-0.03741688
-0.08941533
0.07781459
0.05644298
-0.06376319
-0.00792529
-0.03360170
0.21058778
0.03201183
0.08809555
-0.13584688
-0.05544949
0.17101483
-0.02387195
0.16486245
0.12262161
-0.10035805
0.08486468
-0.10523405
0.09134272
-0.16562909
-0.03822738
-0.08617846
-0.04851570
-0.03402743
-0.10916348
-0.01991857
0.16415279
0.08729789
0.01552059
-0.12586667
-0.12226753
0.06063344
0.00548783
0.05890117
-0.14846477
-0.05799354
-0.11585209
0.12089062
-0.04877127
0.04134078
-0.17392159
0.01239155
0.06670183
0.30120558
0.00495614
0.12541273
0.13226411
0.03035105
-0.06495181
0.06003361
-0.03589515
-0.00789887
-0.11097834
0.05421292
-0.16144805
0.09244435
-0.20252375
-0.05100747
0.07479224
-0.01787332
-0.27942249
-0.05050249
0.01376275
0.09922212
0.14864703
0.04197641
-0.26204705
-0.09683353
-0.12481024
-0.01282333
-0.22243291
-0.15175192
-0.05209975
0.06289073
-0.04703580
0.20716973
-0.09546739
-0.08236127
0.02796806
0.00116059
-0.11315303
-0.06514034
-0.09156090
0.12666409
0.12752327
-0.06164463
-0.15800057
0.14549597
0.13817218
0.12641385
-0.27076739
-0.03162546
-0.07437682
0.06104783
0.06968165
0.05379337
0.04642937
-0.11159899
0.05074124
0.13756375
-0.11551223
-0.13846560
-0.11788522
-0.07953131
0.10106870
0.02518779
0.05642683
-0.09881604
0.10836212
-0.25222516
-0.10516170
0.00984683
0.01228696
0.05165778
-0.02562068
0.18977354
-0.04987645
-0.05449909
-0.06514241
0.11799312
0.05054847
-0.06642705
-0.17473248
0.09543440
0.05243270
0.10279012
0.03528765
0.00980060
-0.06677798
-0.00311274
0.13960554
0.02645118
-0.00942224
-0.02204578
-0.05206710
-0.07504829
0.14046884
-0.11203562
-0.05929455
-0.11003654
0.00762588
-0.09563351
-0.07036359
0.11282345
0.06529704
-0.11494233
0.04010998
0.24845690
-0.01537736
0.07285371
0.14867204
0.19375910
0.09778452
0.00110094
-0.02879419
0.05124356
0.13974322
-0.03437591
-0.02332564
0.19556938
0.07315857
0.05597162
0.01021481
0.09341729
0.03919481
0.03219193
0.07511419
0.10417185
-0.00681892
-0.08814101
-0.08012065
-0.06102252
-0.00385515
-0.03946113
0.08282129
0.02859260
-0.12568189
0.13003331
0.08141071
-0.14581406
-0.22788242
-0.10655602
-0.08076669
0.02739844
0.08671237
0.05650033
0.03673952
0.08090632
-0.04806483
0.02697965
0.25634566
-0.02647277
0.08382552
-0.03022630
-0.04451381
-0.01097613
-0.09836856
-0.06991047
-0.08013955
-0.33265942
-0.01260392
0.12584338
-0.14946598
0.25796720
0.29573122
-0.35927162
-0.03216418
0.06909756
-0.04501189
0.06058118
0.11698720
-0.25330094
-0.27673849
0.07821073
0.16102557
0.16869646
-0.12251522
-0.17703688
0.16780345
0.21917114
0.07487224
-0.10693614
-0.02679396
-0.02132033
-0.01089978
0.18544054
-0.11107322
0.02351945
-0.14460593
0.00704905
-0.05535032
0.00269083
0.07335591
-0.06091626
-0.02544785
0.08018132
-0.08497061
0.10814888
-0.07720029
0.13410327
-0.02755551
-0.09762419
0.01092812
-0.20085424
-0.15072255
0.08737933
0.18649541
0.21868369
-0.26115790
-0.15590274
0.11298487
0.26653096
0.01975005
-0.17171347
0.05202109
-0.26566604
-0.05716944
0.14730461
-0.14751454
-0.05365986
-0.06338650
0.16670963
0.06270003
-0.03802119
-0.06647091
-0.14897490
0.06285014
0.02554535
-0.12371740
-0.02450352
0.06981935
-0.03078467
0.01240775
0.15701090
-0.04945800
-0.03491338
-0.00573391
-0.08321669
-0.06056210
0.16454832
0.15662661
-0.16711995
0.08007368
-0.02145090
-0.09421364
-0.12006024
0.04781067
-0.07474873
-0.04496466
-0.03564776
0.01712406
0.04613645
-0.06992405
-0.04482128
-0.08865893
-0.05093585
0.09483071
-0.05445746
0.00604449
-0.07682446
0.03052233
0.06568889
-0.04929481
-0.00191194
-0.00253982
0.00995726
-0.04281211
-0.06257151
0.09973646
0.00438227
0.00994399
-0.02480331
0.01743374
0.09809153
-0.00668538
-0.12527072
0.01501639
-0.09215724
0.05917110
-0.08424868
0.07546039
0.06128846
0.16622430
-0.14057770
-0.08667709
-0.05271157
-0.01024497
-0.11582320
-0.02846743
0.05530798
0.08208879
0.00695952
0.03115864
0.07695552
-0.01244699
-0.06625543
-0.14549789
-0.02978905
0.12561406
0.10068791
-0.04129114
-0.04082825
-0.01537925
0.05137916
-0.05457396
-0.07465476
-0.05065760
0.04854126
-0.06157075
-0.12880011
-0.17783278
-0.09516525
0.07435558
-0.05566259
0.01927227
-0.11452825
-0.04583155
0.02615057
-0.06173785
-0.01087031
-0.07604392
0.00798224
-0.13132361
-0.05760521
0.00442243
0.02338644
0.00388431
-0.11556058
0.00810181
-0.01067799
-0.19654459
0.25786024
0.37683949
-0.17426707
-0.16134095
0.01094181
0.02269529
0.11220910
-0.01845725
-0.18709345
-0.05185425
0.22629170
-0.12920599
0.34308478
0.07112276
-0.06788029
-0.15446042
0.00325476
0.01328166
0.07179765
-0.03924742
0.16362096
0.07807844
0.17628442
-0.12396574
-0.23558158
0.02682434
0.16338727
0.00852460
0.07499653
0.06191308
0.06186212
-0.09750814
0.07838581
0.08768212
0.15400140
0.16680846
-0.05298065
-0.12110174
-0.12979580
0.06253684
-0.04229024
-0.05987227
0.00231731
-0.22540824
0.13351205
-0.02724248
-0.08611975
0.06074448
0.02635670
-0.00821880
0.16114515
0.07140131
0.00744420
-0.02926222
0.03901624
0.09000890
-0.04599056
-0.13027626
0.17784937
0.03541050
-0.05942153
-0.07603335
-0.01987951
0.18930542
-0.16463399
-0.19539443
-0.08320293
-0.07108394
0.03808447
-0.09718966
-0.16003405
0.01791342
0.00634444
-0.04994372
-0.17336698
-0.02378707
-0.02866920
0.17244208
0.10823867
0.03293678
-0.14804187
-0.00783142
-0.08520257
0.09593350
-0.01118248
-0.38036186
0.07035865
-0.03428634
-0.04017498
-0.13684344
-0.03406892
-0.14260553
0.04029991
-0.01302484
0.01427970
-0.11949237
0.12608606
0.09700085
0.12587628
-0.04413323
0.13274628
0.06859385
-0.14990488
0.02313542
-0.10004919
0.17329642
-0.01497093
0.16902229
-0.01172976
-0.11543471
-0.08437972
0.19879659
-0.06308506
0.02159377
-0.01562101
0.01156148
-0.21727230
0.11163454
-0.13041094
0.02097813
-0.21610339
0.06510177
-0.14962424
0.03195192
-0.04165412
-0.09730524
-0.06304751
0.00102288
0.01490132
0.04672539
0.05551691
0.00419308
0.05383462
-0.05350129
0.02175337
0.05686248
0.19485551
0.01034005
-0.11268092
0.04298132
-0.15664421
0.13481255
-0.04337770
0.03745201
-0.02139160
-0.04332714
0.06498663
0.03303869
0.02166330
0.07865872
-0.03666272
-0.08696214
0.04489866
0.00599554
-0.04836556
-0.13874327
0.00268791
0.09287385
-0.04574028
-0.12589361
-0.23557344
-0.11436231
-0.07703573
0.21973823
0.10283063
-0.22123572
-0.01702651
0.21229886
0.09530645
-0.03069594
0.02684359
-0.11306974
0.06085940
0.01871661
-0.04423092
-0.09411853
0.04736092
-0.11865800
0.02278576
-0.03577435
-0.11219310
-0.05574237
-0.00638859
0.09567272
0.13297771
-0.05971576
-0.01380641
0.03384513
-0.00390226
0.05637041
-0.11367493
0.02479836
0.05166742
0.24521948
0.01927435
0.00606997
0.01949181
0.00273390
-0.00786718
0.10482290
0.07070498
-0.04527150
0.05260738
-0.09429730
-0.01444067
0.00120871
-0.04137646
-0.07191363
0.00755958
0.15393001
-0.02859413
-0.00984197
-0.03722393
0.18985602
-0.00733257
0.04155612
0.26913360
0.14173329
0.06420115
-0.04557035
0.02182043
0.13668551
-0.01521113
-0.00007404
0.07589074
0.21604885
-0.00599158
-0.05917077
0.11785307
-0.01358543
0.06392611
0.13556994
-0.03681745
-0.07606638
-0.00142153
-0.20228440
-0.17154841
-0.15574206
0.07637718
-0.15118204
0.10066712
0.04630876
0.13219687
-0.03712502
0.09175119
0.26980576
-0.08126913
-0.04636626
0.25315821
-0.06668301
0.11730467
-0.28573692
0.02954483
0.06902404
-0.23077688
-0.08392323
0.12349195
0.16451064
0.15665101
-0.07506262
0.02808543
0.13011841
-0.00602488
0.02303086
-0.16695803
-0.00942825
0.01834895
0.01761944
-0.29818624
-0.04734890
-0.10764348
-0.08522730
0.07201211
0.07040860
-0.13471980
0.06740138
-0.01352043
0.13199607
-0.10964132
-0.03859577
0.20037785
0.13017616
-0.06879017
0.03319277
-0.07202636
-0.01253640
0.17198685
0.06986849
0.03607986
0.17847341
0.02237168
0.04625101
0.19267662
-0.02906467
-0.04590114
-0.03283941
-0.01498779
-0.01723784
-0.11865956
-0.04825853
0.01045055
0.07129534
0.07114432
-0.09722772
0.06621441
-0.00574547
0.07026467
-0.05501451
0.00698240
0.01061037
0.08766489
-0.10590206
-0.13660197
-0.06791545
0.09265620
-0.02444313
0.06857344
-0.03393107
-0.00420208
-0.06657471
0.08228674
0.02513408
0.10315302
0.02761520
0.08562485
-0.04527736
-0.16981052
0.03480979
-0.16911238
0.08287917
0.02875036
-0.12099472
0.02306542
0.08800529
-0.04653866
-0.03421126
0.04164180
-0.00608588
0.08864551
-0.03636588
-0.02513148
0.03817301
-0.06133996
-0.02036638
-0.14397284
-0.17226191
0.21243422
0.01443792
0.04084210
-0.00668015
-0.09143363
-0.05413886
0.03519309
0.11257836
-0.08939777
0.21607302
-0.00689243
-0.07028501
-0.06283259
0.10479618
-0.09351630
0.00438253
0.11164607
-0.10846950
-0.06892513
-0.10102911
-0.08695550
0.06211087
0.09498025
-0.06929246
0.10195866
0.12845626
0.14082775
-0.15780048
0.04775782
0.12828392
0.06854405
-0.07980073
0.02448334
0.18669640
0.05552837
-0.15552230
-0.11186909
-0.01942864
-0.28045914
-0.36300546
-0.09446345
-0.03922605
-0.24153958
-0.16272573
-0.03752001
0.04315119
0.08702746
-0.03419203
0.02421510
0.12480725
-0.10566379
0.15566921
0.12924863
0.06204622
-0.00716826
-0.24021195
-0.14281906
0.09240710
-0.06268016
-0.18609248
0.05962076
0.08606293
0.22668844
0.00188219
-0.20109957
0.07490437
0.10638054
0.06571809
0.00704240
0.06417455
0.06932866
-0.11166281
0.07916553
-0.11327671
0.00826614
-0.00267152
0.06847186
-0.04680507
-0.20731460
0.04098854
0.11466698
0.04663713
0.04745841
-0.05359829
-0.01427842
0.03665017
0.15071096
0.00399873
-0.06086667
0.08059660
-0.00798064
-0.08265126
-0.05448841
-0.08975101
-0.01044184
-0.09398993
-0.11437980
-0.00248419
-0.01192673
0.01031557
0.09249335
-0.04904597
0.30673119
0.08051731
0.10703798
-0.16876049
0.07030541
0.37223485
0.06983382
-0.18925716
-0.17446767
-0.06471927
0.12392218
-0.01892401
-0.00776248
0.04002070
-0.12457737
-0.14541383
0.21856000
-0.02763460
-0.09342772
-0.19513102
-0.02074630
0.17328566
-0.00110882
-0.04006333
0.17357820
0.20040706
-0.10265833
-0.02490026
0.05787764
-0.10849752
-0.04092158
0.02832736
-0.08871189
-0.00308315
-0.06991543
-0.21984845
0.25162423
0.21780066
0.03433631
-0.08441378
0.01969185
-0.00191381
0.14505939
0.11415528
-0.03994006
0.18524429
-0.21353111
0.00300791
-0.12946750
-0.04325946
-0.15502705
-0.06735718
-0.14482100
-0.13725273
-0.06373475
0.00354737
0.01702740
0.17879064
-0.02167268
-0.07575977
0.11643708
0.02294279
-0.07073924
0.00349180
-0.01266449
-0.11282440
0.08415550
0.03111084
0.26834920
0.13441183
-0.04517749
-0.00501665
-0.07429849
-0.01466064
-0.03144698
-0.07407948
0.03162965
-0.13437140
0.00652734
0.18633480
0.03087982
0.11610229
0.01530192
-0.03242822
-0.02664241
-0.09224623
-0.03773489
-0.10758160
0.06365033
-0.12076286
0.04792726
-0.13793565
-0.07224192
0.09975897
0.04654899
-0.04382555
0.06543796
0.02644358
0.09531803
0.12008328
0.18549934
-0.05258206
-0.01038815
-0.14396550
0.15639338
0.10322739
0.05579146
-0.09244487
0.10182418
-0.10343765
-0.12210115
-0.00090611
0.12721257
0.14239345
0.09060726
0.12728909
0.02253901
0.00048292
0.01573545
-0.00926237
-0.12278311
0.00381223
0.01418620
-0.38884607
0.08532065
0.05150276
-0.18275680
-0.19799484
0.29027373
0.16334662
0.14573292
0.14874329
0.02295153
-0.12166897
-0.00203939
0.19538121
0.15663032
0.21161768
0.06253888
-0.17497434
-0.45510480
-0.15732579
-0.30558431
0.16387208
-0.00855993
0.08497218
-0.00038379
0.17820317
0.03002480
0.30667642
-0.06693222
0.15966395
-0.40964323
-0.09453981
0.16608950
-0.07510473
0.01051326
0.08222476
-0.17138878
-0.17521487
0.23386741
0.09037151
0.04720372
0.23882300
-0.16136119
0.04762402
0.16803351
-0.02658685
0.01990087
0.22243384
-0.05258645
-0.00474531
-0.09282823
-0.14587083
0.02940995
-0.03993048
0.14535441
0.09759050
0.00454241
0.07014316
0.05639962
0.27070114
-0.04040666
0.00006651
-0.34008101
-0.16430968
0.00865946
-0.01704830
-0.03765319
0.05555277
0.03608991
0.03153985
0.01584839
-0.08110847
0.09569537
0.08836621
-0.09744620
-0.19219396
0.22287229
-0.23974462
0.15209891
0.00226453
0.02827905
0.00174494
0.14627521
0.07797350
0.28839210
0.03321268
0.07874714
-0.04014986
-0.03516159
0.12414021
0.20167953
-0.02473797
0.12133937
0.07017336
0.16396043
0.03143377
-0.01470073
0.13741167
0.06022378
0.04333654
0.07321651
0.05011045
-0.09062183
-0.34765738
-0.06607299
0.10160993
-0.03665011
-0.20162725
0.00267263
0.06594891
0.00352693
0.02837093
-0.01516051
-0.02509525
-0.06384926
-0.00602169
0.11319204
-0.07152026
0.04603755
-0.11288745
0.04479418
-0.11329495
-0.03641945
-0.11997867
-0.11245169
0.01593659
0.04442048
-0.14234647
0.05263874
-0.01480504
-0.00347428
0.05470498
-0.05393389
-0.14316610
-0.01061050
-0.08743346
0.09070001
0.09229639
-0.00139732
-0.14732541
0.05771411
0.05623421
0.09690540
-0.00922310
-0.07253565
-0.09698887
0.10253201
0.05730297
-0.05143618
-0.06705904
0.09555759
0.03045478
0.10678684
0.02688649
-0.07674167
0.03261655
0.04131471
-0.05217529
0.05557561
-0.16127896
-0.11475025
0.19911872
0.06722490
-0.08783443
0.01298494
0.00691032
-0.13190575
-0.25203532
0.05149098
-0.00565177
0.12262280
-0.15708670
0.13878772
0.02584359
0.11479416
-0.19516195
-0.02246649
0.07387406
0.12496652
0.05536781
0.16930300
-0.27152956
-0.02787381
-0.07628262
0.04810700
-0.17528935
0.11000046
0.04041647
-0.06568765
-0.13248910
0.07944819
-0.11728040
-0.13094738
-0.03654571
0.03431316
-0.02669894
0.04466385
-0.00237619
-0.12130939
0.04266183
0.07278661
-0.05878797
-0.00387273
0.13045062
0.00792848
-0.19966678
-0.24998058
0.12750517
0.04435721
0.05391856
-0.27678779
-0.08903996
-0.09902637
0.01059129
0.02557241
0.03938325
0.04027548
-0.01990522
-0.03149455
-0.24664080
-0.11040524
0.06022814
-0.13300389
0.04185889
-0.03201107
0.04649351
0.12034086
0.00610308
-0.07911381
0.08416504
-0.00341518
-0.06076687
0.05111036
-0.03098463
-0.05892117
0.14746176
-0.01340796
-0.08624214
-0.03583403
0.04247263
0.02157231
0.13691857
-0.27527574
-0.07918459
-0.01437332
0.06828203
0.01600194
-0.07088784
0.00186213
0.11314745
0.11073114
-0.13804084
0.00827988
-0.06837709
-0.03691046
0.07244175
-0.05813823
-0.08314086
-0.04963234
0.05614462
0.01354979
-0.02433134
-0.05523435
0.02559877
0.12701713
-0.12033832
0.02014314
0.19802366
-0.06482522
-0.16151798
-0.15042552
0.22029124
0.02710826
0.09329057
-0.15418115
0.03129595
-0.05739442
0.15516786
0.07513336
-0.07937073
-0.12133056
0.10535575
-0.03601415
-0.22058915
0.00073077
0.08516299
0.00068396
-0.00859703
-0.13168962
-0.13698965
0.05321130
-0.00566440
0.06256396
-0.02816429
0.02324008
-0.15914771
-0.01290910
0.25450036
-0.15642376
-0.16856711
0.08276612
0.06673923
0.05129801
0.20137332
0.03055623
-0.09322761
-0.19400476
0.02263399
-0.13982122
0.04673896
0.02199327
-0.01506068
-0.02626273
0.10735177
0.03910886
-0.05307385
-0.16890728
0.04220204
0.02344467
-0.14224368
0.07388707
0.06535555
-0.00761480
-0.02727560
0.06845013
0.05869186
-0.21069816
-0.18218334
-0.13743375
0.08987876
-0.14148006
-0.15964378
-0.11686539
0.11039560
-0.15201554
-0.04005103
-0.07809728
-0.04900460
-0.14893217
-0.04886481
0.10579466
-0.06928275
-0.11215559
0.02705655
-0.07482145
0.01862834
-0.09821188
-0.25134030
0.07633223
-0.01024891
0.05404996
-0.10417007
0.04160640
0.14506973
-0.07645252
-0.04905897
0.02703554
-0.01520793
-0.15187503
-0.17331289
-0.06192925
-0.18534778
0.05695165
-0.05361965
0.00942219
0.16077890
-0.07920256
-0.09461472
-0.01980983
0.22110167
-0.09759033
0.19878268
-0.05145503
-0.10604174
-0.11718675
-0.18645680
-0.07419155
-0.15907879
-0.02384374
-0.20604278
0.16128662
-0.00060225
0.10832793
0.11040415
-0.14593294
0.02899141
-0.06283225
0.05667130
-0.01482720
0.07603524
0.10692253
-0.04821929
0.12680112
0.20237809
-0.11993703
-0.12025155
0.04217835
0.03950348
0.12332609
0.09155122
0.05069866
-0.29023564
0.16159326
-0.08629779
0.05382683
0.15591018
-0.05992611
0.12635623
-0.09545281
0.10695862
0.01622374
0.18896374
-0.08775481
0.02730007
0.15828863
-0.10360190
0.09898573
0.02286593
-0.09998261
-0.00553279
0.06896379
-0.04005506
0.18254033
-0.01298435
-0.01168912
-0.09977056
-0.14362375
0.06201892
-0.07888643
-0.08930390
-0.02169265
-0.00332999
-0.03955520
-0.09303052
0.27614287
-0.03836344
-0.04213460
-0.07351407
0.06554043
0.00457984
0.02226409
-0.07190104
-0.05233133
0.11407441
0.10493676
0.00465948
0.29640496
-0.06826183
-0.04587007
0.09064188
0.00102630
-0.05439591
0.10368526
-0.00899634
-0.05579563
0.04360504
-0.09610873
-0.11864852
0.13529551
0.12355173
0.00045359
-0.01690436
-0.10753664
-0.29349056
0.09500097
0.12403709
0.08582717
0.06167018
-0.03101780
-0.21533285
-0.12001844
-0.11065874
0.04349198
-0.18702152
-0.06774998
0.01116293
0.01540964
-0.14775771
0.12237207
0.19263150
-0.12469508
0.03734112
0.01515225
-0.04769468
0.06874453
-0.00942411
-0.19169365
0.06263865
-0.08135606
-0.12358421
-0.07843698
0.33172476
0.08056257
-0.36229795
-0.01480526
-0.00104463
0.05820349
0.04279732
0.19513240
0.02152181
0.06368098
0.14662929
0.02050996
-0.04611272
-0.12223010
-0.09732711
-0.08212068
-0.27504548
0.03227907
0.01810075
0.18151593
0.11979624
-0.15841347
0.07936871
0.07878847
0.07931133
-0.04083472
-0.02680445
-0.03802452
0.14963743
-0.04516215
-0.00762867
0.10025691
-0.10482924
-0.05793602
0.08558540
-0.01916448
-0.03659447
-0.05309961
-0.13264391
-0.09813039
0.00979406
0.02627940
-0.12651686
0.03765710
-0.05499121
0.01076848
-0.08602346
-0.02996380
-0.03099587
-0.08938400
-0.11436205
-0.01577769
-0.05959795
-0.03407625
0.21707138
-0.06642641
-0.13877158
0.07974431
0.17453872
-0.04597661
0.33815932
-0.02609470
-0.17483091
0.31961942
-0.03333684
0.11648961
0.02616924
-0.02738027
-0.14004156
0.07899414
0.02626607
-0.38677773
0.17995122
-0.15471624
-0.06799494
-0.04887956
-0.10233997
-0.06100007
-0.02250032
-0.02791690
0.23414765
0.07669118
-0.14662150
0.02756845
-0.01415795
-0.06318683
-0.17761089
0.11126114
-0.02416540
-0.05417205
-0.04038085
0.02699565
0.06174714
0.03706264
0.16069239
-0.17824109
-0.03383268
0.06503814
-0.10553058
0.11552159
0.21588959
-0.00832219
-0.07590380
0.02428536
-0.02904279
0.01298971
0.20368117
0.13106447
0.12402294
0.07303117
0.14175697
0.06354819
0.00529821
-0.13086496
-0.01966176
0.11368732
-0.11838334
0.15139930
0.09848011
-0.01331781
0.01906964
0.06926481
0.05759425
0.03429218
0.03087077
-0.07609715
-0.11949936
0.00804171
0.07792757
0.03324047
0.03928456
0.08572632
0.00272125
0.02529158
-0.03394033
0.10563744
-0.03551548
-0.06951254
0.15655656
0.07166030
0.12346050
0.03943828
0.00007841
0.04784716
-0.02849906
0.10384724
0.14265437
0.19861834
0.11073269
0.02320881
0.02335432
0.01434786
0.04243675
0.08315093
0.02112647
-0.07807858
-0.13355894
0.00326450
-0.27485657
0.03841062
0.17889272
0.06532566
-0.04391254
-0.13956460
-0.07492206
0.06813663
0.14355043
-0.03675542
0.08536200
0.02234363
-0.10808337
0.07019071
0.01775241
-0.10276195
-0.18719523
-0.10575337
-0.16899112
0.01106768
-0.13198070
0.19660062
0.06312583
-0.14651343
0.09872852
-0.06741147
-0.12275796
0.02620373
-0.06149929
0.08116287
0.01450914
-0.06085570
-0.22782612
0.18441294
0.20031275
0.07600835
0.06009078
-0.10034448
-0.14280510
-0.05500441
0.13604370
0.08283246
0.08903036
-0.06410059
-0.16895984
0.10940709
0.06592179
0.04582561
-0.07974125
-0.12511082
0.09569085
-0.02015654
-0.05339703
0.13651164
0.17749751
-0.12780146
-0.05252782
0.11015003
0.02947758
0.08359620
0.00033325
-0.01278994
-0.08530520
0.06444585
0.06309609
0.08635594
-0.05678078
0.07498466
0.12367404
0.17750038
-0.08440845
-0.01662583
-0.14530063
0.09603365
-0.07798871
0.05924088
-0.01781644
-0.01241804
0.10697798
0.01800916
-0.04704039
0.00771205
0.14135486
0.01878663
0.11350007
0.08825433
-0.08422244
0.07751297
-0.13347477
-0.03895848
0.10203137
0.00485893
-0.03964389
0.18796204
0.07373665
0.10187028
0.24254455
0.09019403
0.06035800
-0.02291663
0.13878715
0.13412170
0.12991601
-0.05298294
-0.04895492
0.24326491
0.03532397
0.11603964
0.00129805
-0.00940548
0.02147065
0.08639564
0.11961850
0.16206867
0.19012341
-0.02223713
0.07262202
-0.06007846
-0.06282534
0.11836199
-0.03713613
-0.04251780
-0.12703581
0.05740401
0.11222224
0.11261160
0.03007721
-0.06013466
-0.17304777
-0.14973292
-0.05875413
0.17379270
-0.01744408
0.01306063
0.01949096
0.05179216
-0.03620075
0.18784626
-0.04377824
0.04538444
-0.01475100
0.02548581
-0.02784936
-0.06058469
0.00040870
0.03703231
0.02618282
0.06857868
0.04936824
0.13732092
-0.01042377
-0.08868741
0.01039750
-0.13024953
0.07951428
-0.00452308
-0.05669546
-0.10439164
0.04234521
-0.06982762
-0.08782126
0.15362418
-0.22316347
-0.02866366
0.10423449
0.00278353
-0.02927764
-0.14213513
0.00690737
0.19573727
-0.04123880
0.14957772
-0.10129741
-0.06440518
0.03654295
0.15434319
0.07564198
0.18186793
0.08584443
0.07572544
-0.04921618
-0.04441829
0.00234454
0.11571693
0.19517648
-0.02606484
0.04922004
-0.12188338
0.11308642
-0.03370067
0.06227676
-0.15940760
-0.23360364
0.16043389
-0.02548837
0.09950297
0.08369758
-0.15444702
-0.06363182
0.02782193
0.17387314
-0.25179189
-0.03090325
0.08334551
-0.20635134
-0.08829471
-0.01085408
-0.02202948
-0.02557478
-0.03422866
0.21185611
0.01026195
0.09093967
-0.10037269
0.10231066
0.06281509
0.09085127
0.06456041
0.09792266
-0.03204582
0.06511112
-0.14266059
0.20536804
0.07834681
-0.04494553
0.04830677
-0.01108432
-0.02414990
-0.02709870
-0.16088107
-0.11602663
0.14050066
0.21014909
-0.12165596
0.00833937
-0.06539155
-0.05878401
0.05695641
0.13461339
-0.12224851
-0.00366518
-0.18947972
0.11849822
0.10193023
-0.07022770
0.11714566
0.13723963
-0.21076322
-0.05891147
0.12879868
0.14489016
0.00074343
-0.11065123
0.05946464
0.11442485
-0.04264640
-0.04840318
-0.14472647
-0.05516015
-0.00237720
-0.08225332
-0.03230921
0.10929937
-0.07388245
0.02002488
-0.26614207
0.02018830
-0.09015982
-0.03536395
0.08945312
0.01089431
-0.03596677
0.12764893
0.09749889
0.04172788
0.06588364
0.07969107
0.01237848
-0.06203796
-0.01909356
-0.08804550
-0.04451210
-0.00590366
-0.09198093
-0.04380157
-0.08730753
0.05668839
0.11594050
0.03419600
-0.11519435
-0.20569900
0.10395969
-0.05216157
0.05634058
0.28654182
-0.00894928
-0.04652254
-0.10778569
-0.08219213
0.03904328
0.11401394
-0.04474294
0.04016130
0.08094118
0.15202467
0.20951867
0.01286277
-0.08704282
0.07725208
0.15920006
-0.11141159
0.07692472
0.06361748
-0.11339496
0.06690925
0.07287831
-0.06205235
0.17135154
0.33498549
0.02826949
-0.07468538
0.00605391
0.12053405
0.25971177
-0.10272218
-0.08839206
0.09426516
0.14841281
0.11031703
0.28320992
0.10248242
-0.17756131
-0.10817656
0.12578414
0.02627322
-0.22191361
-0.19302146
-0.05765825
0.13440554
-0.05185768
-0.05319530
-0.04445379
0.07970443
0.06069964
-0.00468668
0.11193688
0.03657241
-0.11946530
0.02429511
-0.00408913
-0.08339437
0.17585249
0.16000459
-0.06000584
0.04250874
-0.06623340
0.08036073
-0.05546344
0.17937730
0.03949432
0.08202863
-0.02676006
-0.07983816
-0.13740508
0.14050859
-0.13853063
-0.09965359
0.05520075
0.02129398
0.05094297
0.03204840
-0.09800757
-0.04075569
0.07751373
0.00599296
0.00224915
-0.07975721
-0.09150100
0.02516315
-0.04121252
0.02630840
-0.32432032
-0.20718591
0.01254797
-0.07412831
0.09823542
-0.07902519
-0.03435087
-0.09496298
0.05853699
-0.03866147
-0.01499948
0.17402644
-0.05809640
-0.10273641
0.01561701
0.07167975
-0.04130661
-0.04558158
-0.09118973
0.06658919
0.01851772
-0.39401436
-0.06329284
0.08486515
0.00862733
-0.13013314
-0.14790450
-0.01079549
-0.15219449
0.01721855
-0.04641059
0.09120177
0.10462093
0.25004247
0.06461714
-0.00336886
0.12382321
0.06096978
-0.06491563
-0.03249432
-0.01432755
0.07077373
-0.09714271
-0.11289762
0.11778301
-0.10404824
-0.13281284
-0.00056584
-0.01024725
-0.12554193
0.11163937
-0.04849167
-0.03014987
0.06345661
0.00546319
-0.02202752
-0.11365395
0.05339853
0.12187421
-0.04892335
-0.05745841
-0.08682457
0.05736144
-0.04935201
0.05386839
-0.10838577
0.00158493
0.00937198
0.06299945
0.01289613
0.07790308
-0.16212441
0.03616082
-0.06229463
0.07245253
-0.00117154
0.08975679
-0.00162031
0.03513892
0.02779570
-0.07760520
-0.04006464
-0.08275382
0.07491612
0.12883955
-0.09499399
-0.06002795
-0.10031469
-0.03037892
-0.05926706
-0.01763197
0.14974034
-0.05089245
-0.00153061
0.07392851
-0.04290125
-0.04190858
-0.07434922
-0.13845685
-0.10084454
-0.04727015
0.13072683
0.05446931
-0.03701281
-0.03542545
-0.04880272
-0.08358836
0.08104054
0.10877734
-0.01955286
-0.07080746
0.08228408
-0.13155338
-0.04222019
0.06519952
0.06510191
-0.10794926
-0.23039746
0.16108024
0.03217131
0.03207325
0.06701395
-0.02032067
-0.03468493
-0.04853724
-0.07514253
-0.00011693
-0.05946844
0.08546748
0.16731387
-0.06345376
0.05019281
0.07245428
-0.15218766
-0.10253448
-0.03843040
-0.08234096
-0.01531310
-0.22767755
-0.07372818
0.14027277
-0.12909794
0.03179505
-0.09821330
-0.00863515
-0.09238409
0.01562226
0.12237331
0.04339993
-0.01803991
-0.02841393
0.07248091
0.09072188
-0.12750505
-0.00217928
0.07513630
-0.01953386
-0.08154090
-0.05174880
0.00319300
-0.13795802
0.05865714
0.05458249
0.01734467
0.04971654
-0.19691753
-0.06460766
0.11956376
-0.00058111
-0.14834198
-0.22124960
-0.07968458
0.02367679
0.08369776
0.07041089
-0.21750998
0.01604414
-0.06304985
0.12627673
-0.16126685
0.07525729
0.07708503
0.00916378
0.01514183
0.14195323
-0.18336861
0.00098356
0.15264048
0.08211283
-0.14001147
0.05286462
0.00388776
-0.05631144
0.17417297
-0.13837807
-0.27358577
0.18766989
-0.02534907
-0.05846035
-0.11494521
-0.04061480
-0.22889522
0.07497589
0.15905638
-0.08961008
0.12370630
0.09367882
-0.21645358
-0.03852469
-0.10014711
-0.04497569
-0.26945224
-0.13681951
0.05417356
0.16809364
-0.15046874
0.02250995
0.21864347
-0.11270659
-0.03252817
0.04980431
-0.01604743
-0.00872692
0.09817357
-0.09090082
0.04627972
0.05534897
0.05682911
0.18841293
0.04496198
0.13475908
-0.01147091
-0.02343141
0.02471100
0.09238040
0.12884161
0.19828671
0.04691103
-0.07876595
-0.10911872
-0.03248822
0.05541719
-0.04306905
-0.02686320
-0.05353951
-0.05693296
0.02963331
-0.04217306
-0.05350000
0.02273722
-0.08114401
0.03993477
0.02503899
-0.07312365
0.04388873
-0.08899336
-0.04501375
-0.11132681
0.04076471
0.06197343
0.01489322
0.01859882
-0.00303566
0.09817509
-0.02717673
-0.09019111
0.01626200
0.07242291
-0.00142684
-0.05342967
-0.11043621
0.02872467
-0.09298266
-0.12108133
-0.11878479
-0.03193323
0.01286779
0.03386502
-0.10358214
0.00105111
0.05016769
-0.07654736
-0.13263535
-0.08967560
0.07364190
0.14102033
-0.04705431
0.08948075
-0.04042709
-0.02064937
0.02964580
0.04714483
-0.11486254
0.12004621
-0.05781490
0.00221283
-0.10296454
-0.02522635
0.02172859
-0.02501596
-0.13385135
-0.00682260
-0.11246786
0.17537168
-0.01999395
-0.09625526
-0.08743319
0.14436683
0.00619816
-0.20026802
-0.11629432
0.15256114
0.08246154
0.00741276
-0.14650422
-0.04730023
-0.09631579
0.05077631
0.08502514
0.10285573
-0.18100515
-0.25967583
0.08018227
-0.01282093
-0.14167891
-0.14224958
0.03790386
0.00749740
0.17118478
0.06783475
-0.11006660
-0.01086596
-0.07999869
0.09656082
0.00803113
0.11042254
-0.25901327
-0.10214282
0.07839774
0.07090324
-0.14721438
-0.15154727
0.06250869
-0.00451401
0.22580300
0.01281016
0.11180765
0.04672760
-0.12558070
-0.06960894
-0.02288166
0.05500058
0.08541422
-0.01600866
-0.11454952
0.05817273
0.10246768
0.00976134
-0.05496216
0.10765805
-0.14123248
0.00940842
-0.03316348
-0.01258869
-0.09118481
0.02519102
0.02251684
-0.09373199
-0.10401653
0.01430914
0.01580588
-0.04877442
0.02061047
0.00729201
0.11641691
0.03649513
-0.08732302
-0.11232533
0.04853399
0.04430577
-0.00188913
-0.02836210
0.08728162
0.05606495
0.32156450
0.31808910
0.00176033
-0.02962984
0.03117937
-0.03983697
0.11996317
0.11891089
0.05181455
-0.01421644
0.13054723
-0.01446262
0.08273574
0.01775749
-0.09051159
-0.22720361
0.14323938
0.08173319
0.03320609
0.01319037
0.11477132
0.39776558
-0.08053583
0.11461920
-0.13337785
-0.01813346
0.05806369
0.10586067
0.02185197
-0.08870237
-0.07559799
-0.06438053
-0.13816594
-0.14175703
-0.02750847
-0.19374023
0.21172193
0.00143133
0.10651495
-0.05484565
-0.00278678
-0.08388448
-0.03527362
-0.00385932
0.03463789
0.09274560
-0.04000708
-0.14153235
0.06011980
-0.16000372
-0.01617865
-0.02856950
-0.07663284
-0.10633890
0.03901284
-0.00674409
0.10488027
-0.02296164
-0.01033367
-0.06026361
-0.05967476
0.04519982
0.04400956
-0.10637140
-0.15140153
-0.08054598
-0.07150067
0.20017801
0.30323938
-0.09723166
0.05524140
0.08323636
0.16939908
-0.11053807
-0.08753732
0.00550483
-0.02570244
0.03843075
0.10964033
-0.07993054
-0.16420346
-0.03435724
0.00893772
-0.01891137
-0.02393638
0.00145516
0.04171200
0.02575749
0.00393103
0.00210410
0.17221276
0.09120510
-0.06151323
0.02248943
-0.09223523
-0.02639936
0.05039728
-0.17643878
0.04374975
0.12155406
0.15111759
-0.14441524
-0.06121831
0.03729999
-0.01061311
0.11288238
-0.05854642
-0.06133722
0.04250362
-0.05527794
0.18339002
0.01993944
-0.05823081
-0.02242683
0.00319317
-0.00867871
0.09319559
0.01195758
0.03576543
0.03980712
-0.09257083
-0.08583333
0.03340252
-0.17796004
0.03511408
-0.00539481
0.03159434
-0.10930374
0.12960573
0.07341667
-0.09062613
0.09988041
0.05619925
-0.35278645
-0.12327561
0.28974625
0.07596841
-0.07418178
-0.20257939
-0.28327417
-0.25577000
0.01946156
0.13348646
-0.27957928
-0.01528014
-0.01823577
0.20554297
-0.00790065
-0.01785217
0.20448913
0.11066984
0.01424288
-0.13198422
-0.12772155
0.10671690
0.01664740
-0.01720375
-0.02942231
0.01596379
0.18514231
0.12154012
-0.13616166
-0.12721579
0.15982416
-0.03901541
0.00264927
-0.19840136
-0.21159659
0.14724627
0.07135907
0.09986111
-0.08091591
0.12003066
-0.00902836
0.21727629
0.01675057
-0.01612183
0.04743511
0.04663713
0.02702753
-0.05530981
-0.04563962
-0.09202600
0.02288889
-0.02621313
-0.00206295
-0.00848951
0.16613990
-0.10825008
-0.09290155
0.05821264
0.29439256
0.03095083
-0.26284936
0.10542013
-0.14149977
-0.25877503
0.12534496
-0.03109034
-0.40864864
0.05841410
0.07044108
-0.02568973
0.08486506
0.21026933
-0.02264308
0.11611857
0.10769650
0.03495724
-0.09036135
-0.26162696
0.02702046
-0.01900947
-0.19855292
0.00382453
-0.06865772
0.18991460
0.04597694
-0.11982633
0.02919804
0.06999578
0.00039312
0.18929224
-0.04172396
-0.03172638
-0.11281733
-0.04371390
-0.24522768
-0.18341555
0.04321656
0.10990547
0.07420336
0.02939137
-0.02778958
0.19008338
0.21577136
-0.09041169
0.04846527
0.01461287
0.13971266
0.00235133
0.01480091
-0.07688959
-0.00398354
-0.01952900
0.01608923
-0.07676654
0.00772484
-0.03482908
0.18969615
-0.19729550
-0.13968560
0.07247441
-0.04881062
-0.09809303
0.04552540
-0.07584703
0.00054544
0.07899836
-0.10687851
-0.06141661
0.11287502
0.06517299
-0.08005022
-0.01783541
0.19086272
0.07903937
-0.00248793
-0.00026098
-0.10574475
-0.04175333
0.09806146
0.13925946
0.10156964
-0.01980263
0.21370314
0.08775102
0.00693365
-0.03762239
0.00502324
-0.05737015
-0.03021306
-0.00661518
-0.15174071
-0.07852964
-0.09168980
-0.09876680
-0.14371711
-0.06686861
0.02253231
-0.06484754
-0.08798067
-0.10262045
0.11409336
0.02345341
-0.04056113
0.10795958
0.11776554
0.05939036
-0.09499461
0.08144208
0.02161231
-0.05729879
-0.05771464
0.00742347
0.00907477
0.05461608
0.06802478
0.08277314
0.12555419
0.00536808
-0.10334356
-0.05417638
0.11706723
-0.15573320
0.08622564
-0.03068177
0.03380331
0.00966913
-0.13764057
-0.12366585
0.02671271
-0.06000344
-0.03543147
-0.02711162
-0.03845323
0.02473367
-0.07014528
-0.07961487
-0.15621319
-0.10283104
-0.04545786
-0.25671047
0.07485089
-0.05747797
-0.07063809
0.12024909
0.01332220
0.05084296
-0.06451375
-0.06784082
-0.24312526
-0.10210116
-0.09235898
-0.01092372
-0.03360324
-0.09563757
-0.05658604
0.12128018
-0.04973766
-0.00441738
-0.01576991
-0.00528429
-0.18761791
-0.03909762
0.04275275
-0.03996901
-0.11835191
0.11473707
0.20273094
0.00392274
-0.06013029
0.05163900
-0.07543111
-0.41714847
-0.11075651
0.02701846
-0.03436292
0.11141760
0.08739222
0.11684934
-0.15656675
0.03542850
-0.11121268
0.06219505
0.00774847
-0.03869351
0.02848830
-0.08663760
-0.08711070
-0.08197775
0.00399334
0.08854509
-0.04889637
-0.10321710
-0.07748131
0.00484495
0.21093212
0.03040326
-0.11202846
-0.04276686
0.07930677
0.05600636
-0.06443042
0.06730701
-0.00687707
-0.18882775
-0.08616262
-0.04110711
-0.00490337
0.05213214
0.04647432
0.05063181
0.01920640
0.02226824
-0.02469642
-0.13710511
0.01319047
-0.12484862
0.07744686
-0.01513390
-0.10200136
0.13524380
0.02714569
-0.03877153
-0.10511817
0.07090755
-0.07520422
0.17895526
0.28637502
-0.05824004
-0.09437800
0.05871295
0.11656789
0.07718851
0.12453257
0.03196999
-0.22460690
-0.19343077
-0.03904704
0.02131313
0.11277243
-0.00639150
0.07148500
0.16310656
0.15887903
0.16737612
-0.07533037
-0.13893709
0.03538109
-0.09352995
-0.18022534
0.02298816
0.08650661
0.04849631
0.04842804
-0.06705119
-0.05804729
-0.14195718
-0.17190111
0.06136581
0.12400044
0.11010991
-0.04302153
0.03235443
-0.00109882
0.04603302
0.01747558
0.06285041
0.10743050
-0.08450668
-0.01734430
-0.01399953
-0.10863429
0.06387044
0.01751010
-0.06820497
-0.03517472
-0.03383661
-0.03180127
-0.00474123
0.00965014
-0.04447750
-0.02024893
-0.01173465
0.10318178
-0.02411898
0.02010883
-0.04783182
0.07809935
-0.02158763
-0.05996052
-0.08478314
-0.13509281
0.09949663
0.10167745
0.08076099
0.06046191
-0.01823269
-0.22422786
-0.08981124
0.22826916
-0.15478529
0.14053120
-0.15314181
-0.15348093
-0.13401523
-0.08370235
-0.05207545
-0.13035701
-0.21777624
-0.14112622
0.14894789
-0.11418262
0.04625478
-0.02202745
-0.08481310
-0.13853930
-0.01235490
-0.04635498
-0.08291119
0.01099922
0.02277620
-0.06185756
0.04208016
0.15958549
-0.03242176
-0.04301233
-0.06347620
-0.05680870
0.15036923
0.19630003
0.03858798
0.02069145
0.04100731
-0.13240078
0.01992756
0.07205737
-0.09786438
-0.08210430
0.06115827
0.19106562
0.13707103
0.12814045
-0.00973100
0.15795869
0.07722181
-0.20951669
0.10611236
-0.00775906
-0.00943286
0.08496280
-0.05411037
0.06127100
0.00509876
-0.07226049
-0.09447943
-0.03952495
-0.09038812
-0.00452038
0.08438858
-0.12243216
0.00464807
0.11914049
-0.02102717
0.12603168
0.11809955
0.03695311
-0.20336387
0.14836989
0.01954641
-0.10559548
0.00195777
0.03520978
-0.10234718
-0.11834121
-0.03385962
-0.03375030
0.07190119
0.07302660
-0.02163167
-0.08269119
0.06201833
-0.07323682
-0.08857712
0.01021309
0.00793877
-0.06041321
-0.08738568
-0.08121464
0.00536967
-0.06913254
0.05054362
0.10860465
-0.06449197
0.01685675
0.04942535
0.03027617
-0.00177600
0.04034739
-0.00786677
0.13754806
-0.01690665
-0.06223196
-0.05600312
0.04537748
-0.05283115
-0.06569412
0.06508980
-0.01897979
0.04384453
0.05581703
0.01086709
-0.09756632
-0.00387293
0.15105335
-0.09180380
-0.05660008
0.19525032
-0.05387172
0.20002435
0.02322082
0.08041397
0.30183551
0.04864131
-0.25229636
0.02422679
0.30347130
0.08439943
-0.11646234
0.10494093
-0.13873906
-0.03744959
0.31319913
0.16710699
0.07933336
-0.02177050
0.14008093
0.14712963
-0.15600982
-0.10280498
0.07952859
-0.02461275
-0.09829651
0.00790120
-0.18984151
0.00867923
-0.00238673
0.09660799
0.10730502
0.01693570
0.00333665
0.03751351
0.18575254
0.08901381
-0.05536220
0.05778344
0.10223348
0.01517425
0.20414416
-0.15473138
-0.16610204
-0.05010306
-0.14727156
0.08584882
0.12909375
0.01956317
0.02394739
0.07981022
0.20818903
0.09305301
0.11224653
-0.10480173
0.15023178
0.09221990
-0.05900256
0.23842898
-0.02144792
-0.03568934
0.01647504
0.02836805
-0.01656000
-0.07155888
0.03642240
-0.10030290
-0.07679965
0.23919635
-0.30729058
-0.01718147
0.13927570
-0.08429158
-0.01456582
-0.13034900
-0.00301371
-0.16844893
0.00374434
0.03783922
-0.23661642
-0.08857292
-0.13919885
0.10810417
0.00673783
0.14184196
-0.02299942
0.09135374
-0.00535658
0.06608114
0.00244343
0.07821070
-0.07105114
-0.11922748
0.04188532
-0.04378093
-0.03155641
0.08244780
-0.11676642
0.10662772
0.07696014
-0.13680893
0.09378759
-0.01322234
0.00569452
0.12933804
0.10953762
-0.07581040
-0.03915399
0.03120711
-0.09507095
0.01012540
0.01368282
0.00856627
0.02349930
-0.00773380
0.15618104
0.18484025
-0.06860171
0.02804150
0.00736728
0.11733942
0.00452747
-0.09853516
0.04346467
-0.00003157
-0.10362465
0.02392307
-0.09310773
0.11739353
-0.11611175
0.01616850
0.06830934
0.09438659
0.16654100
-0.01782018
-0.16421489
-0.00021090
0.12355494
-0.03284568
0.10840290
0.22483981
0.00004037
0.04394144
0.19021204
0.12996855
-0.03922487
-0.04552860
0.11348990
0.00966033
0.02942209
0.02656341
0.00801683
0.12736626
0.07246318
-0.12643543
0.01546432
-0.03613861
0.03244385
0.11199379
0.09920637
-0.12571771
-0.12912062
0.04565308
-0.05328774
0.16428229
0.01041890
-0.04802118
-0.07383884
0.09812514
-0.10784888
-0.04208839
0.01351623
0.01298858
-0.03077863
0.09051333
-0.03632736
0.01958413
0.07780783
-0.03234005
-0.10998333
-0.02206513
-0.06915506
-0.06339394
0.00712825
0.06559830
0.01156786
-0.04699615
0.03825716
0.04756400
0.08388108
-0.13236220
0.02620893
0.10288569
-0.01506658
0.01331451
-0.02438846
0.15632622
0.10655499
-0.04302122
0.05618925
-0.08648399
-0.00355111
0.08577172
0.06878735
0.09059103
-0.04629969
-0.05601447
-0.07004717
-0.08853322
-0.08219109
0.02328788
-0.01655080
-0.02309553
0.06782141
0.05812250
0.03573686
0.11571591
-0.04138713
-0.01344343
0.06289662
-0.07927965
-0.02581174
0.06182959
0.12066369
-0.01686670
-0.14778668
-0.02461574
0.10191307
0.22870041
-0.00647029
-0.06829865
-0.04776749
0.02972882
0.09573212
0.04006821
-0.08160573
0.00294926
-0.06615755
0.00756358
-0.06458737
-0.02161795
0.11337657
0.03037159
-0.08477987
-0.01001560
0.05554779
0.04881903
0.01432507
0.07325567
-0.10547564
0.03593174
-0.02651744
-0.05262207
-0.03938594
0.04994411
0.02205929
-0.02482557
-0.06662970
0.03581342
-0.03066646
0.21375956
-0.06359871
-0.10402036
0.06729750
0.13415954
0.00368375
-0.12769787
-0.00428547
0.10225981
-0.03393887
0.06262293
0.02840916
0.00434349
-0.06149436
-0.01676441
0.05181348
0.09252657
-0.05305491
-0.01208890
-0.07772464
-0.01735189
0.03474976
0.08371446
-0.15552549
0.19012786
0.07280067
-0.09389249
-0.12401772
0.31295314
0.07125482
0.06728859
0.15221554
-0.19893230
0.05465534
0.18074557
0.02066984
-0.02074890
0.29057625
0.20069095
-0.22663943
0.12496870
0.01056085
-0.13418400
-0.08695601
0.24038002
0.07452592
-0.13811724
0.06347151
0.12444307
0.07210775
-0.05972577
-0.05689947
0.10405393
-0.00650556
-0.06776043
-0.25829881
0.04958428
-0.07708807
-0.15562178
-0.10892884
0.22779121
0.13746351
0.14913726
0.22339126
-0.07255146
0.06697640
0.08645613
-0.14925326
-0.00534704
0.13989095
0.14692885
-0.16266382
-0.00020756
0.02825724
-0.18379474
-0.08864820
0.10369348
0.14008844
0.03187151
0.18220907
0.05773298
0.10520823
-0.19005808
-0.04898153
0.07609607
-0.16848963
0.02680433
0.00541433
0.02396035
0.03683320
-0.10622608
-0.00797118
0.19629462
0.12190414
0.10670761
0.03936427
-0.15072767
-0.06473261
0.09295683
0.01592049
-0.15509653
-0.12544586
0.16874555
0.05720672
-0.05317872
0.15073121
-0.19917123
-0.17836285
0.08083172
-0.06249322
-0.13527355
-0.16014384
0.00498421
0.03960842
0.01796417
-0.03961139
0.05984536
-0.07237631
0.02903741
0.12119327
0.01815064
-0.11296850
0.14841779
0.08690336
0.00366120
0.24716794
-0.16667747
0.06457897
0.16003853
-0.14101855
0.03717216
0.18672132
0.05712933
-0.18922183
0.05589681
0.17044602
-0.20665264
0.02706139
-0.02781519
-0.10124975
-0.02492192
-0.04985498
0.11531913
-0.09204526
-0.24678534
0.16070189
0.00798800
-0.10755406
0.21151148
0.01848273
-0.10831860
0.00305562
-0.01714687
-0.05431885
0.10384750
0.01886420
-0.06681078
0.32369733
-0.01343451
0.13932882
0.15066451
-0.20290534
0.00550615
0.13885608
-0.06430714
-0.08728084
0.11364215
-0.11271859
-0.22610703
-0.01373085
0.04632170
-0.13778906
-0.04449023
-0.06169708
0.08475351
0.03062621
0.00688578
0.16201721
0.10715647
0.08724972
0.07576297
0.08449925
0.04553096
-0.04055368
-0.02910835
-0.03419590
-0.08355308
0.05287902
0.16118076
0.14755233
0.02564618
0.13779937
0.04024838
-0.07633675
0.01890198
-0.00595701
0.09670656
0.12081451
0.07520514
-0.19103394
-0.09248310
0.03296908
0.12722462
0.01678993
0.00578586
0.04472068
0.01590160
-0.00604967
0.23871881
0.18911403
-0.08417795
-0.06498133
-0.02272732
-0.13922676
0.16692574
0.04588970
0.01073413
0.03871703
0.00057082
-0.07019355
0.09317933
0.25949991
-0.04780472
-0.15140925
-0.07037987
0.14249533
0.07437234
-0.09101232
-0.09719738
0.00573432
0.19030619
-0.05532816
0.26450488
0.06131932
-0.10654758
0.05902538
0.20043278
0.01496733
-0.02431012
-0.14573878
0.03006659
-0.01319397
0.05454437
0.12636138
0.09358645
0.24512859
0.05014408
0.07450845
0.00144759
-0.03219384
0.11229039
0.05347344
-0.11604537
-0.09605638
-0.03293821
-0.01239126
0.05559524
0.02828346
0.02069137
-0.05286274
0.00607173
-0.15940093
-0.04427986
-0.02423007
0.05985297
0.02355967
0.04816162
0.05468400
-0.07298885
0.11641595
-0.02567811
0.01737493
-0.05788536
-0.07997207
0.01845230
-0.06401254
-0.01798169
-0.04423570
-0.08118972
0.09035638
0.05150462
-0.03015460
-0.10625378
0.16773829
-0.15223093
-0.22883990
-0.04665190
-0.00431202
0.21372309
-0.04089561
-0.04427786
-0.03796884
0.09553941
-0.09589195
0.01225337
0.07310678
-0.13505451
0.01807847
0.16413197
-0.00976559
-0.08807860
-0.07098059
0.04916078
0.06035546
-0.04639922
-0.19606799
0.10062776
-0.01524653
0.02056747
-0.05141377
-0.12659502
-0.00605922
-0.05687356
0.09680581
0.02647372
0.00656870
-0.09573895
0.08268258
0.05376210
-0.03574144
0.13539544
-0.01720363
-0.02496243
-0.02084512
-0.04690455
-0.02716939
-0.09381384
-0.09937808
0.17574804
0.08133291
-0.01258463
-0.06717466
0.07990123
0.06243954
0.03816244
0.12215815
0.13226075
0.10062405
-0.03278546
0.11941698
-0.02165199
0.03126664
-0.00826366
0.20163991
0.09842683
-0.05545780
-0.16733265
0.13173540
-0.04857423
-0.04903211
0.15581530
0.00502717
-0.11017707
-0.09079402
0.05998252
-0.00696574
-0.18405540
-0.01908236
0.08846503
0.17753156
0.13524887
0.06111684
0.06222169
0.04671719
-0.00615395
0.06679568
-0.10357592
-0.08266720
-0.03006112
0.09356718
-0.08460557
0.09178925
0.24735287
0.02415493
-0.03947318
0.07712078
0.06823993
0.10713691
-0.09994753
-0.07925068
-0.03605269
0.06768846
-0.01977350
-0.11325735
-0.11594406
0.14892390
-0.10232288
-0.07582875
-0.14084038
0.01676659
0.01169961
0.15625048
0.02712240
0.01936670
-0.01816776
0.07026099
-0.05432232
0.01581837
-0.12916131
-0.06292030
-0.06383049
-0.16448940
0.02766524
-0.00532100
0.06409561
-0.05585804
-0.05344904
-0.20046802
0.07594515
0.07469640
0.06420065
0.08809426
-0.16050790
-0.27264190
-0.01358641
-0.01583295
-0.04754753
0.05889110
-0.01602627
0.00153468
0.05331413
0.23593548
-0.06234354
-0.22582461
-0.16787975
-0.15628177
0.16384146
0.24039416
-0.16578725
0.06457646
-0.02075813
0.24924622
0.23480411
-0.14080207
-0.06180455
0.16087025
-0.09515642
-0.00900740
0.29067925
0.06277397
-0.11946336
-0.01057953
0.01881395
-0.05161770
-0.10137080
-0.07117138
-0.07602151
0.09283241
-0.11289577
0.04825820
-0.10133617
-0.08929730
0.06019492
0.14272845
-0.05460671
-0.07743152
-0.22587219
-0.12386483
0.01898342
0.19069171
0.00435445
-0.08416361
-0.00528849
0.11264400
0.08832710
-0.13951761
0.02894793
0.19520593
-0.07827432
-0.01644369
0.08101698
0.01543545
-0.11615966
-0.05452650
-0.02680228
0.14290409
-0.33643827
-0.18253648
-0.01291650
-0.19738881
0.12735327
0.05716011
-0.00252202
-0.05683761
-0.12831159
-0.11353543
0.13986240
0.29305384
-0.31630743
0.14793774
0.04649367
0.14000948
-0.06391857
0.02296931
0.00873039
-0.00501990
-0.21116655
-0.13556534
0.15389061
-0.09016985
-0.04633820
0.07645512
-0.17558455
0.00082326
0.03297345
-0.00942661
-0.15475892
0.00620463
0.00153274
-0.02911982
0.04783176
-0.10636296
0.10398937
0.15477541
-0.01130782
-0.14831090
-0.09797405
0.05021893
0.04239542
-0.07461030
0.19742696
-0.08064821
0.05124563
-0.03679318
0.14023843
0.13203351
0.15129063
0.00930422
0.00570110
0.07231164
0.04636835
0.17253643
0.10214581
0.05561087
0.02555684
-0.00123143
-0.08360129
0.09743173
-0.02052175
0.09716554
-0.02325165
0.04589890
-0.01839834
-0.17773075
-0.04686655
-0.12434825
0.08998574
-0.02887419
0.06657334
0.00460113
-0.08943821
-0.08770290
0.13278012
-0.01180683
0.08818316
0.00338508
-0.05829937
0.04223290
-0.00642462
-0.14991564
0.01922256
0.03997475
-0.08305186
0.07851297
0.03221218
0.04652236
0.06365966
0.14165543
0.05135469
0.04435617
-0.10690790
-0.03529417
-0.13113685
-0.03272336
0.04208637
-0.13728072
0.08579525
0.14208567
0.03344435
-0.07742744
-0.19559446
-0.10969540
0.12791547
0.19201177
0.16525358
0.05278427
-0.05923673
0.02136537
0.00370368
-0.05258286
0.01995635
-0.13176034
0.01021899
-0.17437178
-0.01285445
0.00617139
0.07313379
0.05444694
-0.16761757
-0.04516646
0.00205536
-0.09523035
-0.00139146
0.11538879
-0.08677521
-0.19537497
-0.06170828
0.18542996
-0.02267100
-0.14227615
-0.08461578
0.03893955
0.16270544
-0.03458479
-0.07025092
-0.07943764
-0.20508698
0.12971970
-0.04088776
0.09019517
-0.11462032
-0.03122059
0.10439906
0.10128145
0.06500613
-0.10801703
0.06035995
-0.12732476
0.01345828
-0.00119020
-0.02260759
-0.20729175
0.07142144
-0.00454438
-0.01799056
-0.05731384
0.18278332
0.09903006
0.00412940
0.09973245
0.01621765
-0.09178384
0.00233399
0.00239420
-0.15033497
0.18340515
0.07393568
-0.29910150
-0.19576992
-0.15031180
-0.03143300
0.12619951
0.05166185
-0.00567089
0.06238728
0.06279954
0.17492554
0.10025584
0.03979794
0.10568737
-0.25066602
-0.11600230
0.16029210
0.00949536
0.01939305
-0.04054920
-0.04098878
-0.08442374
0.19809040
0.05777374
0.12463700
-0.00378108
0.04697846
-0.14177781
0.04925711
-0.04795304
-0.01114027
0.04181666
0.13386370
-0.14193441
0.24939875
-0.06776312
0.05131997
0.02516709
0.17189158
0.13901807
0.12075230
0.02581893
0.13704613
0.15300539
-0.11153853
0.00856537
-0.11425107
-0.03360236
0.11330976
-0.03376514
-0.08250172
-0.05198433
0.04606720
-0.04251557
-0.03953677
-0.19030276
0.03413452
-0.10643056
0.14697389
-0.11910318
0.04948249
0.04164288
-0.02306617
0.06502307
0.14118181
-0.05141579
0.21497516
-0.04513613
-0.02316256
0.03538379
-0.02608614
0.03687608
0.06439020
0.03034075
0.11393133
-0.12070163
-0.08473551
0.01706313
0.13725908
-0.04303473
0.00713194
0.17081363
0.03438936
0.10661172
0.06418934
0.08853325
-0.16815937
-0.04707930
-0.09884965
-0.01343924
0.15157874
-0.19286270
0.04997703
0.02774850
0.12848333
-0.05230918
-0.09747563
0.01404265
0.03981324
-0.04040024
0.18943346
0.01840977
-0.11463079
0.01426155
-0.01634855
0.13076869
0.08205542
-0.11531945
0.10276040
0.09718116
0.00493742
0.00120214
0.08009514
-0.02129844
-0.00592792
-0.04084055
-0.04966358
0.16701406
-0.12598325
-0.24528135
-0.05259195
0.10121589
0.16233793
-0.16209646
0.06803080
0.14413074
-0.05597436
-0.08252934
-0.01549245
0.00571982
0.11488310
-0.00470589
0.05035487
-0.00940889
0.09011978
-0.06406950
-0.09149586
0.06303205
0.06191116
0.01274117
0.06712807
0.06510078
-0.05795837
-0.00459370
-0.04671443
0.22975527
-0.10666201
-0.10643947
0.11155299
0.06125309
-0.05772696
-0.15339684
-0.18727180
-0.21629123
0.00540373
-0.29134357
0.01496553
0.26140893
0.03967815
-0.29057339
-0.04655480
0.05105011
-0.37096098
0.23075113
-0.00428845
-0.22854428
-0.19931641
-0.04152850
0.10547967
-0.31910715
-0.19051647
0.09434871
0.10888652
-0.03907153
0.04159328
-0.00396761
-0.03397738
0.08095333
0.02095746
-0.04166445
0.10503778
0.15125172
-0.10916114
-0.05309652
-0.16861448
-0.11045028
0.00884536
0.07628487
0.04272814
0.02702811
0.04326281
-0.10390516
0.17347524
0.13020176
0.03541202
0.11372904
-0.01767191
-0.01465842
0.08387567
-0.11191436
-0.07308979
-0.16554312
-0.17561178
-0.09581602
0.01578075
-0.08938155
-0.04730659
0.10671886
-0.31761163
0.19527929
-0.03437664
0.00595925
0.05528041
0.12151692
-0.07876951
-0.31837317
0.00719541
-0.30146724
-0.16441418
0.45650843
0.24318413
-0.16652706
-0.17540050
-0.14628893
0.11124504
0.38006601
-0.01966850
-0.03103555
-0.14277028
0.03205861
-0.06369556
-0.08778837
-0.17135121
-0.01445304
-0.13172033
-0.05448315
-0.01771959
-0.03788967
0.01663589
0.29211518
-0.24090779
0.17467831
0.07302965
-0.05244633
-0.01840394
0.07631312
-0.01848350
0.19068643
-0.11441608
0.02523284
0.01971254
-0.08484464
-0.22183074
0.02105984
0.02685161
-0.12717755
0.07048012
0.04786623
-0.04106655
0.14074822
0.02121306
-0.01812604
-0.16878237
-0.06163401
-0.17237166
-0.07940862
-0.28719473
0.18717211
0.15473278
0.06089836
0.06976672
0.05255303
0.04165995
0.02988749
-0.10309985
0.13176593
0.07019486
-0.08318169
0.14559494
0.35068759
-0.07419534
-0.00235593
0.06870571
0.04250618
-0.16624947
0.03625804
0.00054299
-0.10701264
-0.02074191
-0.05625827
-0.02111042
-0.09062511
-0.07296254
-0.05879664
-0.01805815
-0.07446468
-0.08300553
-0.09866711
-0.04856560
-0.01232872
-0.06827717
0.10409529
0.06377956
-0.07605585
0.18347418
-0.13204961
-0.07890121
0.01416560
-0.09932148
0.08054277
0.06028438
0.30314410
-0.08568870
0.10608575
0.02867485
-0.15395465
-0.06235084
-0.00683037
0.09391919
0.05923310
-0.01108688
-0.10318246
0.14546418
0.09251118
-0.11324868
0.04466445
-0.03208422
-0.10601659
-0.04680308
-0.08357514
0.09543617
0.02488691
-0.07302349
0.01383480
0.04203523
-0.09157063
0.03022136
0.09351452
-0.09483933
-0.01901970
-0.07543164
-0.05372269
0.02242725
0.02004370
-0.02397134
-0.02561554
0.03194694
-0.01400950
-0.06064834
-0.06598145
-0.07961060
-0.01247747
-0.09290471
-0.00969416
-0.14407985
0.13831037
-0.00966532
0.04170312
0.04060027
0.08447200
-0.08770668
-0.04695560
0.03741591
-0.13779876
-0.03791785
-0.06291464
-0.10116562
-0.01418275
0.04719012
-0.03118474
0.00887409
0.04887003
0.11069361
-0.01861344
-0.17611733
-0.17668395
0.09690574
-0.01283079
-0.06617912
-0.12415639
-0.01585918
-0.05413124
-0.03450500
-0.05815592
-0.12333891
-0.19452047
-0.14048575
0.04583000
0.03669759
0.06087940
-0.03575143
-0.00226217
-0.01503696
0.01612997
-0.04109561
-0.14093633
-0.05701639
-0.01327085
-0.10928699
-0.10214005
0.06235391
0.06077864
-0.07377166
-0.00312721
0.07541180
0.08165784
-0.16237716
0.02741343
-0.12204976
-0.07227989
0.02025404
-0.10275652
-0.01106061
0.09522481
-0.08427709
0.08319865
-0.00836952
-0.04684108
-0.28106815
0.10325138
0.12538984
0.01572083
0.01990991
0.01566150
-0.00323652
-0.09091583
0.02178160
-0.05582179
0.09988632
-0.03543403
-0.13256125
0.00004006
0.07776520
-0.10839791
-0.05239217
-0.05956409
-0.06435834
0.02126870
0.05774302
-0.22493230
0.17725278
-0.00049339
-0.14039554
0.02412241
-0.01616254
-0.06639998
-0.07081375
0.13881995
0.02693199
-0.06557214
-0.03171216
-0.12591669
0.02077123
0.07985923
0.01871211
-0.03407201
-0.00343184
0.06794034
0.10465625
-0.13518392
-0.03711899
0.10655288
-0.21483868
0.10290713
0.13965610
-0.05096342
0.06383955
0.10803843
0.03520391
0.07030608
-0.16622478
-0.08826178
-0.07739461
-0.02272752
-0.16561425
0.05371803
-0.11248934
-0.05321454
0.01307165
0.01459106
0.08982800
-0.07319791
-0.00519580
-0.08741311
0.03273263
0.06638422
0.01142834
0.07033842
0.06241759
-0.03346996
0.03489359
-0.04750779
-0.09823711
0.00218680
-0.16060628
0.00241413
0.06113293
-0.06736149
-0.12432995
-0.02889169
0.00782074
-0.02713578
0.02768900
-0.12397882
-0.09049744
-0.19899431
-0.03385075
0.11804680
0.04004388
-0.11451333
-0.10233240
-0.18469873
0.06914277
-0.00729597
-0.15919171
0.02064688
0.05547339
-0.04728144
-0.01037002
0.05922759
0.05025928
-0.04273186
0.00822427
-0.18360592
0.17577492
-0.07906351
-0.05386725
0.20233431
0.03945829
