-0.05367345
-0.11536167
-0.06661659
-0.09543096
0.08507941
0.04536674
-0.13551600
0.00315957
-0.00446581
0.02615667
0.13603850
0.06874909
0.00607481
-0.03458950
0.08542660
0.10662919
-0.20574865
-0.07569807
-0.00481171
0.15437153
-0.18907018
0.07905258
-0.03470389
0.04774746
-0.16687830
-0.13135794
0.10906371
0.19896434
0.05196504
-0.15629360
-0.07417756
0.37338388
0.05651574
-0.08381704
0.11014681
-0.00463156
0.19455178
0.02235977
0.12582693
-0.01582559
-0.15675096
-0.00971499
0.14314377
-0.02346902
0.23890005
0.02155686
-0.06666837
0.04120980
-0.11740305
-0.10242531
0.02597685
-0.04878477
0.05959815
-0.09255418
0.12379699
0.11639643
0.00449648
-0.17358156
-0.03694915
0.14991455
0.09678631
0.11727465
-0.01001588
0.08316557
0.00315768
0.01661034
-0.01242383
-0.03561510
0.00036760
-0.01333469
-0.00188090
0.00673555
0.05187828
-0.01037092
0.05233588
-0.05808221
-0.01238341
0.05045116
-0.14188792
0.05228139
0.18746936
0.04008230
0.01547782
0.00644834
-0.09362828
-0.03376624
-0.02249656
0.02925211
-0.15544875
-0.00036420
-0.25382602
-0.01455141
0.02362898
0.14844966
-0.07761344
-0.07380620
0.00119660
-0.05902886
0.12812334
-0.04012717
-0.07006616
0.01137563
0.08322043
0.04858497
-0.06098817
0.04168410
0.02688740
-0.05382231
-0.01616348
-0.02567128
-0.01289537
0.07898442
-0.07529657
0.05045505
-0.03472104
0.02954513
-0.01386360
-0.00842906
-0.02417361
-0.02901550
0.01905906
0.00298292
0.26806495
-0.04678224
-0.10669524
-0.03216003
-0.05133126
0.00046666
0.01211606
0.05315907
0.01595900
0.04055021
-0.04132781
-0.02363297
0.07654689
0.13136862
-0.06810407
-0.04589095
0.03286244
0.00455886
0.02671240
-0.00109158
-0.05505800
-0.04223203
-0.02179284
0.00783368
-0.03818561
0.14896375
0.09136794
0.04667858
0.04999544
-0.04064868
-0.16166039
0.00292188
-0.00492301
0.11831877
0.00941940
0.04515276
0.24681723
-0.09168475
-0.00140135
-0.04457805
0.01912962
-0.01201693
-0.01539678
-0.04668359
-0.15198879
-0.01514828
0.00965565
0.04760372
-0.01226805
0.07392019
-0.02482145
-0.06868489
0.01333380
0.02025120
0.03128805
-0.02614338
-0.02986735
-0.04493587
-0.00658267
0.02250086
-0.06647906
-0.17194416
-0.01380245
-0.16288684
0.09259122
-0.13083225
0.05527712
-0.05144209
-0.07545415
-0.05291713
-0.04504574
-0.00230957
-0.00339415
-0.03600654
0.00563668
0.16599260
-0.17692576
0.15327288
-0.00727032
0.02273298
0.06211176
-0.03788632
0.01677488
0.04493785
-0.16184914
0.00248170
0.13660717
-0.09912058
-0.00378839
0.17762764
-0.14180544
-0.01276773
-0.13239495
-0.03321059
0.11553959
-0.00272517
0.03902069
-0.19778594
-0.01251433
0.08635335
0.01429266
-0.00930555
-0.04993535
-0.01846529
0.05639793
-0.00098981
0.18408877
-0.03584535
-0.03167269
-0.00541064
-0.14000189
0.05653694
0.09881892
0.03236718
0.10793436
-0.03038947
0.05413530
-0.08934823
0.00026948
-0.28980953
0.04999028
0.00129996
-0.02186056
0.06378178
0.03239314
-0.12854773
0.10474934
0.09419860
-0.11176618
-0.15249440
-0.08287586
0.02857374
-0.14325032
-0.02654758
-0.03195286
-0.05463629
-0.00030173
-0.03770257
0.08864675
0.02917587
-0.18153259
0.20742413
0.04765858
0.10285707
-0.11023004
-0.01099688
-0.05650247
0.10153103
0.00601519
0.12513031
0.13592066
0.13752072
0.15620664
-0.02605025
0.12333322
0.00680235
0.03537915
-0.11130459
0.08979882
0.12373152
0.02277673
-0.01854966
-0.06421082
-0.18334782
-0.23845294
-0.01618831
0.04063841
-0.00207917
-0.15964055
-0.00937601
-0.08313638
-0.06652936
-0.12201234
0.05516934
-0.00621704
-0.06126153
0.16387662
0.05571815
-0.23476402
0.15558776
-0.02414151
-0.29264233
-0.06042181
0.04857954
-0.04879006
0.03161025
0.03190982
0.10253613
-0.14329807
-0.11613205
-0.12882143
-0.20681608
0.22403407
0.05746407
-0.11359366
0.04357731
-0.23824778
-0.01214360
0.01222974
0.00692086
-0.04039004
0.00756679
0.15647730
-0.10322270
-0.00775244
-0.00413116
-0.10757278
-0.00838227
0.00730171
-0.03919837
0.00967086
0.04969756
0.17152889
0.02308431
0.01001371
-0.04464741
0.02079568
0.00007429
-0.01481218
0.00382736
0.21873391
-0.02595388
-0.14070359
0.08455244
-0.06782039
-0.16053484
-0.00290092
-0.04736102
-0.11628909
-0.12806477
0.00875728
-0.02081838
0.14325944
0.03375015
0.07475644
-0.03869358
-0.06061048
0.06488731
0.02909403
-0.05409234
0.01312957
0.01688525
-0.04112468
0.07984542
-0.00651591
0.09394486
0.06114969
0.12458671
-0.03978307
-0.02011811
-0.00194974
-0.14689837
-0.02047502
0.12334252
-0.01229943
0.01464057
-0.02374547
-0.05091769
-0.05942492
0.01923636
0.11744214
-0.00182729
0.06533477
0.02796201
-0.00167314
-0.00247837
0.07528809
0.00693638
0.10791877
-0.16830389
-0.02708952
-0.01818372
0.00960389
0.17602581
0.06106470
0.11900176
-0.09977808
0.08586705
0.00831559
0.06001526
-0.01704947
0.17030235
0.03478202
0.10926520
0.12010965
-0.08708926
0.16514707
0.13140272
0.09456717
0.07810101
-0.03742925
0.14346635
0.14723516
0.10354339
-0.01408492
0.08465354
-0.05664720
-0.03197741
0.09723128
-0.08855235
0.10959549
0.06040388
0.09581755
-0.14969765
-0.16562690
0.00054729
0.10816003
-0.03067940
0.01811855
0.02331303
0.12899593
-0.26878208
-0.04862664
0.03766511
0.11806373
0.04831829
0.00239390
0.24016711
0.07873605
-0.12000898
0.02653312
-0.20290990
0.22894494
-0.00057014
-0.19179429
-0.02703466
0.14107057
-0.14543900
-0.07513600
0.12354192
0.04249007
-0.15219872
0.01164910
0.15460128
0.05559506
0.13144593
0.00308299
0.14991160
-0.01355645
-0.03612857
-0.14317754
-0.00300614
0.22047772
0.21677035
0.10375413
-0.09113940
0.16013250
-0.06705637
0.05870480
0.16863529
-0.05170668
-0.01614856
0.23657177
0.22739366
-0.18672192
0.09328216
0.13620788
0.05192688
0.01091985
0.11183903
0.04392696
0.02669684
0.08995282
0.14799957
0.02402482
-0.03453876
-0.01920990
-0.09077609
-0.09831085
-0.14813915
0.02961374
0.24025024
-0.03563526
-0.22752862
-0.04416414
-0.02441831
0.11328998
-0.07886304
-0.07685142
-0.03914408
0.18140018
-0.12515622
0.08337732
-0.15955009
0.00372888
0.12557049
-0.21404134
0.03738338
-0.18283086
0.13677585
-0.10823806
0.08017573
-0.03915764
0.07611970
-0.04896107
-0.09286911
0.02123241
0.03786635
0.02207037
0.11080257
-0.03349286
0.02049104
-0.13597088
0.00416124
-0.16656950
-0.12189307
0.11535734
0.24165843
-0.06737527
0.04057240
0.15702417
-0.01295680
-0.20402506
-0.01045946
-0.04635056
0.11356373
-0.16079728
-0.23742248
0.06838729
-0.19770475
0.20496699
0.07842470
0.05556411
-0.03205087
0.28125298
-0.00382887
0.01094391
0.03401296
-0.00066865
0.12306365
-0.15488148
-0.23109238
0.14217740
0.07465624
-0.13682744
-0.13494620
-0.02150218
-0.11467995
0.11740976
0.12953556
0.12900108
0.13592340
0.10052345
-0.19109452
-0.11528488
0.07173853
-0.00206900
-0.17003305
0.14720722
0.09481212
-0.06616196
0.05216981
0.05741858
0.01648131
-0.11642431
-0.12237351
-0.09892635
0.14022772
-0.07731323
-0.01403322
0.11638766
-0.15560627
0.10419751
0.16756649
0.08060532
-0.12962455
-0.15200351
-0.04908410
0.13622668
-0.00718827
0.16005436
0.14701046
-0.00169024
0.13463135
0.16289289
-0.10296980
0.20243695
0.02122150
0.04803152
-0.15882111
0.19136359
0.25905076
0.06505527
-0.02289661
0.25307596
0.12338631
-0.00044808
0.18729985
0.17351501
-0.01344230
0.07243390
0.07022525
-0.00101538
-0.03838998
0.09488331
0.04772865
0.18005767
0.01799237
-0.10722506
-0.00846274
-0.05049467
-0.01264886
-0.20059493
-0.05966761
0.03773777
0.02750874
-0.10911729
0.08390673
-0.20879787
0.03676583
-0.04526243
0.12152502
-0.04733715
-0.26689276
-0.18415536
-0.01709854
-0.02311591
-0.04492237
0.01374794
0.04119387
-0.02114150
0.09566633
-0.22269978
-0.05108400
0.18018778
-0.08497233
-0.05038289
-0.00560999
0.04447275
0.17733900
0.05243720
0.11219677
0.04532061
-0.03232670
-0.14292040
-0.07963394
0.05705899
-0.09207808
-0.03725616
-0.04713430
-0.20807068
-0.01783906
-0.00530190
-0.07944716
-0.15013926
0.18193005
-0.09523482
-0.22025588
0.07108577
-0.22798821
-0.05346572
-0.14477468
0.06847679
-0.05848055
0.04228776
-0.00464353
0.17202453
-0.00086554
0.04449375
-0.02946639
-0.00938623
0.05727911
-0.09849507
-0.11636875
0.03616594
0.33018529
-0.18617971
-0.06586242
0.01378585
0.04018337
-0.05429861
0.14278702
-0.17640901
0.13593411
0.11238588
0.02612250
-0.06135147
0.09455416
-0.07204448
-0.04911473
0.17816234
-0.03526173
-0.00471910
0.11902025
0.05219357
0.11843514
-0.17481461
-0.18888423
-0.00999957
0.06862675
-0.03692929
0.00415158
-0.04593987
0.13460344
0.10567413
-0.17169388
-0.03358122
-0.04720259
-0.08356643
0.10775924
0.04874937
-0.24317095
0.21323662
-0.05212666
-0.03669256
-0.02983105
-0.16605556
-0.00067002
0.08449609
-0.12860598
-0.15135573
0.10710435
-0.23031062
-0.14867632
0.04249935
-0.16667131
-0.11795786
0.11588600
0.18439868
0.10490227
0.14098915
-0.16796030
0.21936511
0.17234774
0.15481880
-0.03615337
0.08730509
-0.16659793
0.12031235
0.02186415
0.15249801
0.15105459
0.03595732
-0.04372840
-0.02343799
0.09526408
0.03946061
-0.12299041
0.12243229
-0.15043204
-0.04610723
-0.03908804
0.32959747
-0.02255462
-0.08634271
-0.00143368
-0.00451427
-0.04018959
-0.02429016
0.06134361
-0.09841841
-0.06672166
-0.36425203
0.04157263
0.03104142
0.07130527
-0.00995503
0.05350960
-0.06363555
-0.02079592
-0.17835210
-0.01978154
-0.39396656
0.02507165
-0.00165240
0.10137753
0.19500770
-0.05111835
0.31458294
0.01824253
-0.25866434
0.05305757
-0.24240555
0.18937239
-0.03281528
-0.14717202
0.20935240
-0.13373072
0.01111626
0.07839952
-0.14121260
0.00286811
-0.05014780
0.02732010
0.18231243
0.02200674
0.03118179
-0.01061785
-0.02841549
0.01525788
-0.17029086
0.05517378
-0.00914312
-0.17993513
0.00942757
-0.13152826
0.02125071
-0.00203385
-0.01121481
-0.04820593
-0.08570158
0.10130452
0.00893627
0.24141100
0.12994765
-0.02832221
-0.10458546
0.00910035
-0.07970177
0.02386175
-0.06185599
0.09727285
0.03607563
-0.09125996
0.05499478
-0.03930828
-0.05989121
0.09140591
0.11761503
0.04730710
-0.16953218
-0.18968989
0.05991539
0.16136777
-0.00939850
0.00344099
-0.04871019
0.26495928
0.12118846
0.11736485
-0.12873869
-0.13698852
0.12505549
-0.01699666
0.21967010
0.01796664
-0.11804432
0.03924736
0.03304717
0.05494257
0.16710819
0.37642285
-0.04826807
0.03310027
-0.24712025
-0.03480420
0.23150666
0.06747970
-0.03755759
0.07047819
-0.20988770
-0.24561043
0.10322107
-0.06753747
0.12829801
-0.02068057
0.02199170
0.19483721
0.05961225
0.04135929
0.03384737
0.09125593
0.02973950
-0.09995308
-0.01681132
-0.14304796
0.04314701
0.00826070
-0.22156811
-0.01379959
0.15765128
0.02065187
-0.03575879
0.00981132
0.01169066
0.00293068
-0.02053268
-0.13902384
-0.18307954
-0.08733857
-0.05171958
-0.10737662
-0.11325074
-0.02901810
0.08906011
-0.09994198
0.10812707
0.08301120
-0.07030544
0.07501353
-0.09039962
-0.21971539
-0.05678860
0.12518272
0.15552895
-0.02971023
-0.30529553
-0.01348259
0.12976313
0.00212570
-0.06443170
0.09554429
-0.04544770
0.01865393
0.01480193
-0.24585308
0.02196989
0.07036553
0.04141252
-0.02662994
0.00095597
0.01442169
0.00794637
0.12402159
-0.11803310
-0.06428725
-0.16345972
0.10824610
-0.08112833
-0.07755958
0.03891096
0.17103943
-0.03409224
0.09017465
-0.16734292
-0.00063254
0.08509436
-0.00090888
-0.13770258
-0.19747254
0.03084955
0.07238127
-0.00743061
0.08224780
-0.26593333
0.03466779
0.08112111
0.08020305
0.03190641
-0.07312411
0.01310467
-0.01439732
0.16773997
0.16656654
0.19493480
-0.13350269
0.08067580
0.01953175
0.02497727
0.07586077
-0.11459114
0.01995354
0.16446835
-0.07680965
-0.12458567
-0.11789385
0.09055980
0.13740689
0.00064275
-0.00082468
0.11792853
-0.12067064
-0.10645197
-0.03718845
-0.04638764
0.04323215
-0.04345280
-0.01594079
0.13623282
-0.06927800
0.04667627
0.01315564
0.15054160
-0.01455284
0.01512023
0.04461090
0.03846576
0.01583084
-0.19390883
0.02519536
0.01571570
-0.01300396
-0.06176137
-0.05826835
-0.03213994
0.06438485
0.00080407
0.19560748
0.14486009
0.09926414
0.03174073
0.09897291
0.10667626
0.09066807
-0.00488157
0.11083602
-0.08982476
-0.01075905
0.13126446
0.04658551
-0.19190300
0.04311481
0.08031284
-0.05350494
0.00066238
-0.06206618
-0.05546439
-0.13229369
-0.12963413
0.12876163
0.10153361
-0.06546301
-0.18750493
-0.10874611
0.12344111
0.16553940
0.20619334
0.07952267
-0.14858475
0.28723052
0.11605094
-0.11847432
0.04818682
-0.09604116
-0.16146608
0.05844544
-0.08694360
-0.19531807
0.04078465
-0.14571539
-0.00318290
0.10628717
0.00717448
0.29886043
-0.04009975
0.21729624
0.08795448
-0.01961938
0.06457429
0.02686722
0.01803934
-0.07080851
-0.08390456
-0.23468125
0.11995973
-0.13515452
0.07876973
-0.03486571
0.01791603
0.09355991
-0.15762824
-0.15521799
-0.10074898
0.05877610
-0.08915073
0.19825383
0.02934083
-0.04347920
0.10848586
-0.01465363
0.06632294
-0.15130654
0.00310887
-0.10658468
-0.01078447
-0.07203821
-0.01721242
0.00201259
0.00187974
-0.01231673
0.16280404
-0.08284475
-0.16348179
0.11680316
-0.02436021
-0.03398588
-0.05705425
-0.02175099
0.09323825
-0.15897924
0.06520543
-0.09127104
0.24426366
-0.14060295
0.01997059
-0.14560288
0.04129096
0.03770902
0.09584266
0.05532788
-0.03921869
-0.04387314
-0.02646887
-0.11729670
-0.02302212
0.10286533
0.12825967
0.00781119
0.04376093
0.04998104
-0.05071349
-0.00537836
0.06723207
0.02829675
0.01402453
-0.04776565
0.08229889
0.06087714
0.14531355
0.02069271
-0.04483745
0.07577007
0.00307499
0.01270721
-0.13381982
0.12314387
0.02317379
-0.06679952
0.07786459
0.06145116
-0.06475974
0.09401710
-0.07978540
-0.05119754
0.20230600
-0.04544200
-0.13198230
0.00092218
0.00368469
0.00578901
0.06149666
0.02600521
0.06037673
-0.00971892
-0.02593780
-0.12503751
-0.04645821
-0.19724402
0.09799290
-0.03892904
0.13080631
0.00959632
0.00601035
0.00416202
-0.18732341
-0.01276638
-0.08444815
-0.02130908
0.06237045
0.15050988
-0.01350582
-0.01688801
0.05849173
-0.06094049
0.10059731
-0.04799134
0.06876770
-0.22592823
0.01248114
-0.14314777
0.06102169
-0.11206963
-0.00154859
-0.15267253
0.03200821
-0.06362883
0.10468249
0.02983337
-0.12600628
-0.06027728
0.21471865
-0.03904158
-0.01975306
0.00396524
0.07141136
0.06002815
-0.04314036
-0.14067887
0.00373905
-0.15190946
0.02950914
0.02304529
0.05295849
-0.01488255
-0.10266662
0.05053605
0.14753357
-0.13237119
-0.14501069
-0.01716497
-0.18191497
-0.01577876
-0.04723362
0.05755670
-0.04267403
0.01500366
-0.01050863
-0.03659883
-0.13022944
-0.10181316
0.05201545
-0.03813171
-0.01298387
-0.02970484
0.00297548
-0.03512250
0.04045929
0.03720758
-0.11012569
0.02342434
0.16894580
0.02095010
-0.00448211
-0.09247736
-0.05579494
0.00223752
0.01990125
0.01193952
-0.24261039
-0.00945966
0.09985957
0.03418110
-0.01776982
-0.10398738
0.00724025
-0.00984346
0.00399350
-0.06112291
-0.09625168
0.00054973
0.01748307
0.00253238
0.03015172
-0.05520183
0.09791157
-0.06618700
0.01915502
0.01255835
0.04033020
-0.02904065
-0.00320031
0.07622220
0.05225386
0.08447300
-0.03044947
0.02690163
-0.04257346
0.16921891
-0.01989945
-0.03307014
-0.04645028
0.10372654
0.10806734
-0.11958629
0.00555109
0.00804744
0.00592000
-0.04754580
0.02632975
0.16125658
0.00129699
0.05984338
0.16157033
-0.17957413
0.09438340
0.11104049
-0.03373238
-0.06864178
-0.17862847
0.15119073
-0.01347425
0.01419747
-0.07512163
-0.10799054
0.25402749
0.19067334
0.00419635
0.11362962
-0.01528643
0.08925992
0.18611640
0.05666378
0.16878851
0.02545944
-0.26254830
0.31234583
0.04392416
-0.23272850
-0.18276758
0.29403108
0.01367042
-0.09771050
-0.27606839
-0.02334077
0.14110048
-0.01679504
-0.18132535
-0.02942549
-0.01432020
-0.15606561
0.19611049
-0.00202020
0.15274113
-0.11962137
0.00973332
-0.11879401
0.14120172
-0.13332282
0.14737928
-0.07109031
0.04038424
-0.09558117
0.14930068
-0.23568156
0.12048207
-0.07657043
0.14129360
0.05666009
-0.22179888
0.01135790
-0.04463995
0.00479522
0.00899669
0.07854866
0.03778082
-0.01079322
0.15384911
-0.06911276
-0.07876665
-0.08970849
0.06966063
-0.00349977
0.02893461
-0.11812780
-0.03071885
-0.00420579
-0.22346351
0.01744976
0.12040916
0.04573142
0.07105511
-0.19295093
0.01142927
-0.01664019
0.14851035
0.00441044
-0.13375513
-0.01958850
0.02180044
0.07393783
-0.03304243
0.03041624
-0.17503472
-0.08116626
0.00673225
-0.09874239
-0.04953357
-0.04455858
-0.06550716
-0.01356264
-0.08305429
-0.00356533
0.04996170
0.07659221
0.11714224
0.06199395
0.03913738
-0.07143181
0.02290607
0.09144796
0.02464788
0.18611227
-0.01874343
0.08835511
-0.05859803
0.01199720
0.00451478
-0.11398648
0.10245560
0.00734675
-0.01296345
-0.04833119
0.20181581
-0.06234929
0.05147445
0.00227231
-0.01604030
-0.09305127
-0.07825597
0.10584474
0.07019553
0.17503862
-0.16643587
-0.13245609
-0.12882276
-0.01868143
0.15557966
0.19878410
-0.00553830
-0.12811603
0.22132131
0.04446158
0.05996806
0.06455348
-0.07799224
-0.23019174
0.05498437
0.16960488
0.11981876
-0.11536121
-0.00053778
-0.13656820
-0.11461040
-0.18530315
-0.08451865
0.16983333
0.15116787
-0.03406318
0.09518152
-0.07361737
-0.23661977
0.09104171
-0.07209202
0.02811441
0.09466310
-0.06442218
-0.04191366
0.06146823
-0.08434803
0.01822982
-0.02027805
-0.22521289
0.01161972
0.11502177
0.03673824
0.10169820
-0.06740151
0.04406219
0.02460214
0.19600855
0.06091947
-0.19005811
-0.05793794
0.07883237
-0.14327753
-0.09451371
-0.32328939
-0.02001055
-0.02601686
-0.06498626
0.02547518
-0.10201951
0.03566757
-0.04068717
-0.01097438
-0.04218391
-0.03684336
0.08159138
-0.00905715
-0.04804324
-0.05464421
-0.05756773
0.02011839
-0.06040368
-0.02696204
-0.00634814
0.18847331
-0.20185438
-0.07608282
0.00393469
0.09880939
0.07549781
-0.05568592
-0.13901737
-0.00323755
-0.05384671
-0.07264379
0.12501211
0.04700382
-0.07880516
-0.03511148
-0.07689770
0.00267066
-0.15836629
-0.06565110
0.00684780
-0.13125947
-0.04768109
0.14119802
0.00550100
-0.15999968
-0.01030865
0.02819687
0.06676298
0.01256985
0.03915107
-0.00606606
-0.12335138
-0.07572468
0.00096984
-0.05164697
-0.00203749
-0.00397539
-0.07317759
-0.00140549
-0.00387284
0.12024269
-0.11450630
-0.12899183
0.00673021
0.02448833
0.00275802
0.07296522
0.00482801
-0.06550849
-0.23195131
-0.10563833
-0.03564125
0.05896735
-0.10780525
0.38064837
0.07620593
0.07078589
0.15311788
0.13210227
-0.04105207
0.02783019
-0.07081632
-0.08479434
0.12280434
-0.13869230
-0.13172074
0.02175823
0.00566703
0.16658688
-0.13454390
0.07563510
0.14940518
-0.14727946
-0.05742001
-0.07872860
-0.29662520
-0.11042161
-0.00833230
0.04517047
-0.08896771
0.01447228
0.14908665
-0.02874739
0.01616831
0.09517670
0.11793459
0.18577610
-0.00208315
0.02811016
0.14898692
0.04768869
-0.08951960
-0.05544958
0.16056958
-0.01721998
-0.06395747
-0.15522909
-0.17814992
-0.07801535
0.05266699
-0.03239698
-0.04096138
-0.10468249
-0.11620256
0.05481960
0.08225938
0.14246452
0.03028671
-0.13664210
0.01762095
-0.04011262
0.01641971
-0.01725286
-0.04805610
-0.04181943
0.04490433
-0.28228411
-0.19431403
-0.08203186
-0.31183931
0.10699423
0.15695772
0.12731186
-0.03130165
-0.13904870
-0.01100964
0.05655425
-0.04716736
-0.02655822
-0.28792357
-0.15037648
0.31680989
-0.09945168
-0.03805353
-0.04621248
0.06508441
0.01973181
0.11923941
0.01911819
-0.02790748
0.03427676
0.11883975
-0.12358114
-0.18414062
-0.03881784
0.11449784
-0.21348333
0.00222052
0.00454771
-0.01231572
-0.04340271
0.09332807
0.15083934
0.11115270
-0.06856290
-0.01611573
0.12528968
0.01632118
-0.05766971
0.21331064
-0.07600761
0.13428935
0.13840947
0.02149848
-0.06215002
-0.07756785
0.03588006
-0.04064653
-0.01578113
-0.15183835
-0.01081730
-0.01380126
-0.07560898
0.05686273
0.14201136
0.03855877
0.01647810
-0.02085768
-0.02399810
0.03679166
-0.10249135
0.10136212
0.03228816
0.03041275
0.05227014
-0.02078684
0.10962337
-0.06433371
-0.02657133
0.02069300
0.03746959
-0.00923825
-0.04804250
-0.07526934
0.02779491
0.11070327
-0.18781577
0.06864616
-0.06209410
-0.07048539
-0.16124077
-0.02224122
0.19219707
0.15429510
0.01506300
0.11021891
-0.16247861
-0.29240519
0.02185561
0.08284957
-0.08517502
-0.02374943
-0.01675024
-0.02922426
-0.00249698
-0.00143547
-0.02022210
-0.00091322
-0.07084766
-0.01107842
-0.09893943
0.01291712
-0.01755198
-0.00541653
0.01186033
-0.16622910
-0.01904809
-0.01590284
0.01410997
0.05199854
-0.08306289
-0.28888392
-0.03583180
0.03310838
0.08088453
0.11333450
0.07549734
-0.03278046
0.08923136
-0.02494992
-0.02579976
0.03745697
0.03467244
-0.06207861
-0.08677392
-0.01735622
0.05867323
0.07088374
0.04007666
-0.01775357
0.05892012
0.04527792
0.04288741
0.05556310
-0.04771093
0.06449587
-0.16258974
0.08686379
-0.04835062
0.09346909
0.16402969
0.00752650
-0.00251975
-0.06311830
0.12367381
-0.03358778
0.08492287
-0.07456287
0.06437739
-0.09390326
-0.13732460
0.06545557
-0.00247823
0.09824716
-0.02428846
-0.00555657
0.04939608
-0.03511506
0.00606741
-0.05211201
0.09271006
-0.02824614
0.06285494
-0.00346021
0.10339759
-0.04075746
0.03210998
0.04509960
-0.04678036
0.10603977
-0.01195763
-0.06168987
-0.02318340
0.10724487
0.03256118
0.20614137
0.00514064
0.10595082
-0.09372494
-0.03502209
-0.08821929
-0.01886460
-0.09484734
-0.01164408
-0.09143042
-0.05633707
0.11094970
-0.08568595
-0.21639605
-0.02176676
-0.15794067
0.05095348
0.10338749
0.01436155
-0.01425243
0.14661326
0.12801066
-0.13640046
0.06125733
0.04754115
-0.11003169
-0.22805765
-0.05634134
-0.18192473
-0.02233400
-0.04807733
0.09673090
-0.09651786
0.23332281
0.14984640
0.00690664
0.27098718
-0.07336581
0.18271771
-0.20477104
-0.26848945
-0.01477796
-0.09796220
0.10066210
0.13135442
0.04685857
-0.00964392
-0.04097848
-0.09085836
0.15720175
0.28408056
0.03444650
-0.12468263
0.09995741
-0.12247404
0.09347458
0.15542552
0.19100036
-0.04486259
-0.06422929
0.18594782
0.08528955
-0.00842810
0.02522545
0.03417372
0.11132268
-0.11401713
-0.03963290
0.03704608
-0.16739869
-0.07567129
-0.03911588
-0.14384937
-0.00506661
0.00874917
0.08771829
-0.01050521
-0.02425069
0.07987262
0.10350098
0.09860837
0.10817289
-0.01839589
-0.17133547
0.02306831
-0.01248200
-0.11504164
0.21037760
0.06997848
-0.14694637
-0.14036305
-0.00289196
0.05785649
-0.09350158
0.05835541
-0.14183904
-0.08447900
-0.02106491
0.02719656
-0.05058379
-0.00437993
-0.02372006
-0.11833669
0.09701521
0.13038731
0.00156375
-0.01313771
0.19688113
0.02873116
-0.15680082
-0.09235564
0.05942830
-0.08616363
-0.09786006
0.08739457
0.00290108
0.03045641
-0.05571307
-0.06304043
-0.00803905
0.23366483
0.03937307
-0.11282056
-0.07390932
-0.00526664
-0.00299734
0.09533573
0.02155966
0.00861904
-0.09032548
0.14421950
-0.11197934
-0.03674222
-0.02028748
0.02208108
-0.03635477
-0.00562452
-0.03499946
0.03214568
0.01804309
0.00132879
0.12001920
0.07725154
0.12909095
0.04706611
0.01640701
0.02061375
0.02284076
-0.12611145
-0.05480587
0.00706155
-0.17986800
-0.00932393
-0.20519176
0.07427926
-0.04198013
-0.28224248
0.02684214
0.00190161
0.07016653
-0.00152776
-0.14663570
0.07840302
0.06888391
0.09972346
0.03353825
0.19475435
0.06985138
-0.00256399
-0.02965032
-0.00596529
-0.04072595
0.01448496
0.01279555
-0.04531863
-0.15532073
0.03171293
-0.04006504
-0.04630922
0.12594619
0.02777367
0.12804684
0.09422129
0.02264841
-0.31108564
-0.04998007
0.18258102
0.03560820
0.05700108
-0.02877896
0.00401561
0.02579005
0.19531637
0.01119133
0.08695479
0.04709680
-0.09198286
-0.11918826
0.00350917
-0.03265630
-0.01454830
-0.03706415
0.02661612
-0.01143561
0.01744267
0.23719689
-0.08943472
0.01580910
-0.06949774
-0.03641661
0.03610939
-0.06874907
0.02384340
0.04992549
0.06210039
0.07609597
-0.05498886
0.01689966
0.01969323
-0.05864714
-0.03167751
-0.14263727
0.05164801
0.17302528
-0.01183123
-0.14412986
0.00903965
-0.05594298
-0.06840231
-0.02854518
0.07674714
-0.00807986
0.10977046
0.03660266
-0.09055922
0.11997016
-0.00488101
0.00411513
0.03397345
-0.12966383
0.03848734
0.00207257
-0.10959642
-0.04274687
0.00701767
0.10385233
-0.06366247
-0.03050402
-0.01256880
-0.04241969
0.04524019
0.05659172
0.02363721
0.03690571
0.08213217
-0.06632195
0.01469099
0.02473038
0.07007191
0.05343547
0.05375375
0.12305021
0.02134269
0.04693575
0.02548529
