-0.35871163
-0.18866229
0.16846479
0.08440115
-0.01117605
-0.10603765
-0.18240200
0.17143704
0.14270167
-0.46663305
-0.09692015
-0.07784147
0.06456504
0.03374045
-0.23345754
-0.04002709
0.32515973
0.09779473
-0.06094641
0.02715099
0.06536006
0.03330247
-0.05369149
-0.41166818
-0.00846871
-0.06494974
0.04168226
-0.01770743
-0.27186081
-0.15797931
0.06305243
-0.12282566
-0.25586739
0.15910570
-0.00509950
0.04907423
0.27241543
0.17973892
0.08128848
-0.19122760
-0.12216869
-0.04868574
-0.17192869
0.12465772
0.24573109
0.03660250
-0.37897271
0.23319781
-0.16617739
0.13293183
-0.06359933
0.09225567
0.02831708
-0.35188976
-0.15965283
0.03007898
0.07472056
-0.13379037
-0.28220081
-0.20254816
-0.25809580
-0.29002255
-0.30213571
-0.24417830
-0.01000560
-0.26157129
-0.02456163
-0.35809916
-0.13722891
-0.30411640
0.13037544
0.08833399
-0.20281518
0.12950683
-0.36422679
-0.12238710
0.14526588
0.07215019
-0.26551259
0.07408625
-0.34159824
-0.22688833
-0.21355253
-0.08447036
-0.24078517
0.21706879
-0.04282678
-0.29062974
-0.38195890
0.01321246
-0.02969567
0.03954392
0.06527849
-0.14897123
-0.25328428
-0.06747182
-0.06731079
0.04192147
-0.08509107
-0.05156478
0.11753496
-0.04710338
-0.15160231
-0.07746113
-0.04056865
0.04511179
0.09550756
-0.01932114
-0.12191657
-0.28152299
-0.38827124
0.10448112
0.20161308
-0.00520928
0.18750180
-0.06384698
0.17262155
-0.22350718
-0.32529429
-0.25762743
-0.10099792
-0.06136857
-0.15577661
-0.15498321
-0.14576127
0.26748490
0.07440461
0.14891385
0.04132675
-0.53800040
-0.09454990
-0.16065067
-0.27139044
-0.06264425
0.11980975
-0.35304439
-0.00930473
-0.01542157
-0.51031947
-0.00522924
-0.23541895
0.03101475
0.00561284
0.07902636
-0.17202935
-0.24228363
-0.17080028
0.21233639
-0.17054121
-0.11019027
0.01797778
-0.02539798
0.04674417
-0.03101436
-0.25539958
-0.06198775
-0.00995238
-0.13238859
-0.50884014
-0.22418696
0.05429522
-0.15819508
0.06626681
-0.12021554
-0.35359487
-0.15292014
0.05980070
-0.00825087
-0.20213306
0.09132602
0.03406041
-0.21399528
-0.25461680
-0.11084881
0.20473152
-0.50077063
-0.01336781
-0.02866885
-0.04534528
0.00736471
-0.33466771
-0.09542239
0.17830321
-0.17431293
-0.08306851
-0.06772564
-0.16574535
0.13577808
0.09550067
0.09846994
0.02456886
0.04641646
-0.29217017
0.14594524
-0.27469289
-0.02174948
-0.09073445
0.09233505
0.00109518
-0.27630955
-0.33297542
-0.08515256
0.04240937
-0.01466620
0.01799064
-0.17181127
0.03924505
-0.37357691
-0.09402508
0.01935796
0.12179079
-0.01013931
0.03041015
-0.20666301
0.11166275
-0.10067917
0.11497717
-0.03839234
-0.17962080
-0.13847382
0.14434686
-0.21687798
-0.39805001
0.04408838
-0.06846806
0.08491129
0.08933894
-0.05206458
-0.26844689
-0.01936332
0.22500058
-0.05130752
-0.00858505
-0.33606178
-0.06564274
-0.07038352
0.14177905
-0.00549407
-0.07641534
-0.18562281
-0.27005973
-0.09750214
0.12856743
-0.26401213
-0.06717984
0.01940693
-0.04557774
0.00663896
-0.34567648
-0.32535371
0.02471489
0.14447647
0.07877730
-0.66223204
-0.15855141
-0.41722158
-0.25331157
0.17359866
0.10174688
-0.04121900
-0.00970273
0.12021387
0.11504488
0.05606901
0.09931654
0.46437067
0.36454743
-0.21014743
-0.06402396
-0.24022444
0.04679433
-0.00149090
-0.15460034
0.04335035
0.03228351
0.35314074
-0.13937488
-0.02761319
0.13681839
0.32163948
-0.10386331
-0.36130869
-0.20592888
-0.33557737
-0.30297008
0.23063631
-0.02557494
0.47019675
-0.16185704
-0.08579911
0.21927844
-0.04260765
-0.15892935
0.06515963
-0.02043984
-0.39368072
0.59354877
0.16053161
0.24958654
-0.23208910
0.15284441
-0.15304083
0.23661415
0.16045235
-0.01494557
0.07867178
0.04856049
-0.32031161
0.18635428
0.03125888
0.02126457
-0.08897936
-0.36649346
-0.14085592
0.13445202
-0.41759872
0.15891825
0.35833231
-0.26954946
0.25956696
-0.08615230
-0.06021713
0.18778104
-0.09377368
-0.10106138
0.49862319
-0.30070329
0.07666560
-0.04750875
-0.12419266
0.12058194
-0.00164506
-0.30278891
0.25960842
0.04849197
0.30509049
-0.35310152
0.26428315
0.01885448
0.26146472
-0.14022246
-0.14652702
0.10202920
0.28936023
0.33796480
-0.13273484
0.17542559
-0.08648916
0.08898976
-0.08216694
0.20861502
0.15715563
0.11581852
0.14395142
0.01986861
0.22742352
-0.05212075
-0.00425366
0.08631702
-0.19288981
-0.27667147
0.15516609
0.18010703
0.00360755
0.19744235
-0.14370464
0.27625090
-0.13159263
-0.03751526
-0.23980817
-0.07997803
-0.18292977
-0.13000943
0.24018390
0.03847848
0.17691755
-0.11318243
-0.16359840
-0.03192364
-0.14301866
-0.25732815
0.17196997
0.00966152
-0.00686508
-0.20567930
0.14269121
-0.02294648
0.26816732
0.33411521
-0.27180886
-0.02047846
0.01156530
-0.30788875
0.28366730
0.17982756
0.11952744
-0.02417901
-0.07753861
0.18485878
0.08109998
-0.06580991
-0.03611881
0.32925281
-0.02105209
0.02889424
-0.01929970
0.11545414
0.02049115
0.41496593
-0.02355300
-0.38510880
-0.06927907
0.13541713
0.20484717
0.15204088
0.60071421
0.08768705
-0.15552966
0.30281588
0.12686199
-0.06274010
-0.26806322
-0.21888030
-0.12680793
0.36081430
-0.09487368
0.02806877
0.20661949
0.10507613
0.15722926
0.27785063
0.08710755
0.10950789
0.07667186
0.26475772
-0.28065503
0.11160474
0.39442605
0.34319305
0.21766376
0.04806924
-0.03947232
-0.11405032
-0.02730967
0.40835962
0.13351810
-0.03907663
0.08441807
-0.01856319
0.19924241
0.31677884
0.09925506
-0.02882391
0.22986348
-0.11166462
0.03306639
0.03289657
0.23367874
-0.03570986
-0.16558641
-0.20717289
0.30253240
0.15000455
0.11749521
0.14067887
-0.21229820
-0.05835383
0.51521617
0.18942912
-0.27588522
-0.02421453
0.31167558
0.19916666
0.33663964
-0.22948387
-0.06722106
0.03315371
0.33490869
-0.14395459
-0.03059728
-0.33747208
0.22591752
-0.24189031
0.21137711
0.12566504
-0.10664875
-0.08427774
-0.22902596
-0.01838130
0.03066531
0.15363306
-0.17218783
-0.09473468
-0.00129117
-0.01764909
-0.14765015
0.19110340
-0.01247987
0.07753076
-0.04828424
0.01138422
0.17224291
0.23869228
0.24895355
0.01037179
0.07028612
0.07344139
-0.02231739
-0.00472425
-0.16200872
-0.41405302
0.17582746
-0.16279715
-0.37882209
0.06151317
0.07303608
0.01453110
-0.14705604
-0.02003141
-0.09695119
-0.00408306
0.09010586
-0.00773762
0.16510636
0.04117120
0.10169186
-0.22906926
0.21646744
0.01688384
0.01913995
0.04174124
0.04149712
0.42339566
0.31048116
-0.16371304
-0.16539687
0.03284525
-0.01570521
0.16240788
-0.03242862
-0.41578093
-0.12348393
-0.10587437
-0.03819973
-0.18364273
0.11203770
-0.31574306
-0.26582679
0.09019237
0.18528329
-0.14805485
-0.06608011
-0.16904651
-0.00039137
-0.17278419
-0.18568543
-0.16946296
0.07639797
-0.22731455
-0.32717097
0.56138706
0.15183336
-0.00870475
0.06170356
-0.01387115
-0.00003273
-0.24491495
0.11097214
0.00483639
0.11148459
-0.08241765
-0.25496551
-0.10115059
-0.13611546
-0.23518859
-0.11489806
-0.07228412
-0.26886457
-0.11375079
-0.27112296
-0.42603362
-0.29281062
0.12023932
0.09223343
-0.03515083
-0.05256944
-0.05518126
-0.10807247
0.16414343
0.07285397
-0.09190626
-0.02986585
-0.18826963
-0.18398160
-0.21182719
0.08747911
0.04338072
0.12644403
-0.05965634
-0.06853524
0.02567258
-0.11025308
-0.05782650
0.20478980
0.03667762
-0.31201309
-0.05271351
-0.11259034
-0.05173209
0.30452129
-0.35782740
-0.12871504
0.05189597
-0.04654814
-0.19032404
-0.05869817
0.11653422
-0.15567735
-0.02611888
0.05404197
-0.22460614
-0.07222197
0.03452630
0.04617124
0.13954744
0.10937524
0.15375249
-0.45880169
0.40173072
0.00934849
-0.01357699
-0.28524703
-0.06309820
0.06827131
-0.05238962
-0.35848838
-0.39415562
-0.04082371
-0.02974559
-0.13418175
-0.22609629
0.00187368
0.02749045
-0.05437526
0.22661963
0.01974073
-0.03427123
-0.48174340
-0.26800114
-0.25387821
0.27405593
-0.06871774
-0.09972959
-0.07329273
0.09553377
-0.23433752
0.00924766
-0.10106681
0.21635294
-0.22739846
-0.14804555
-0.26305264
-0.08703085
0.28398845
0.10552482
-0.01016216
-0.17414285
0.35319555
-0.30006126
-0.01011303
-0.05830351
-0.09565882
0.35299703
-0.23861550
0.35831314
0.10317945
0.09548439
-0.35242584
0.00433040
0.09637049
0.06843954
0.02714308
0.18324453
-0.11215100
-0.40965375
-0.31356767
0.05772340
-0.02279243
-0.12268899
0.09859066
-0.35569498
-0.17625305
0.04736536
0.12441103
0.02693593
0.18246584
-0.37368500
0.29485288
-0.10098609
-0.02933526
-0.00560194
0.17379338
-0.09929153
0.06816890
0.10974620
-0.09142891
0.20211664
-0.09613451
0.12529680
0.20390454
-0.27593154
0.04174490
0.04770909
0.31252804
-0.07841613
0.36270595
-0.26134539
-0.12660074
-0.24306913
-0.24349965
-0.13031685
-0.20077059
-0.05188319
0.03872816
0.13025157
0.03338747
0.23667397
-0.18413927
0.23920293
0.08311310
-0.05264494
0.10335406
-0.48509198
-0.05141694
0.28756711
0.30757156
-0.36422053
0.26241824
0.30147272
0.00557360
-0.32027492
-0.24431890
0.13286766
-0.10539511
-0.34536070
-0.00905805
0.16853935
0.18850462
-0.16866432
-0.20714179
0.27800924
0.03910415
0.08361006
-0.21085456
0.14993282
-0.04469313
-0.11681780
0.18577056
-0.16282411
-0.04491301
0.19420147
0.06715538
0.05283762
0.11139978
0.01259355
0.11200297
-0.11785234
-0.51290089
-0.15006655
0.35305768
0.26040563
0.04573349
0.40814671
-0.05263954
0.10009397
-0.15032445
-0.06236607
0.07708175
0.17052907
-0.06792878
0.06607546
0.04493211
0.04711344
0.22067899
0.05512455
0.01595162
0.28624049
0.05768214
0.47334138
0.36041859
0.00161259
0.18340197
0.08820665
-0.14984342
0.40580589
-0.16115999
-0.20193076
0.26958725
0.20786276
-0.22998264
-0.03930329
-0.08092295
-0.15234292
-0.17013213
0.03599932
0.43839794
0.10897895
-0.08274146
-0.27311906
0.01814047
0.20740603
-0.23107570
0.10979453
-0.18745250
-0.22196308
-0.02608352
0.44932920
0.46698043
-0.03039591
-0.04885688
0.03925834
0.13680145
-0.30680969
0.40964490
-0.10384516
-0.08851007
0.00594228
-0.22565524
0.07249497
-0.01914847
-0.08199060
-0.06892667
-0.16295697
-0.26123562
0.06400340
-0.23621157
-0.16830643
-0.18003805
-0.11017250
0.02095195
0.14158790
0.46728113
0.06304349
-0.16425499
-0.04046896
0.01071764
-0.06445561
0.03163536
-0.30979332
0.04491750
-0.48850423
0.17123173
0.04407863
0.30469796
0.28423834
0.05828288
-0.04491061
0.09903780
-0.03698039
0.01636149
-0.06670969
-0.18056758
0.14589491
-0.01133314
-0.22419222
0.23464724
-0.33780399
-0.07612560
0.10008431
-0.04403397
-0.13716188
-0.04077935
-0.11385334
-0.00355200
0.00462893
0.25353733
0.00968371
-0.33913222
0.11339127
0.01781415
0.23837265
0.02541305
0.29892063
-0.23828371
0.37617537
0.21266544
0.17532369
-0.21989018
0.11512830
0.19701611
0.28336674
-0.23156177
-0.26243877
0.55584651
0.03730447
0.06396469
-0.22671188
-0.46213549
-0.19596352
-0.01716504
-0.08538006
-0.26693162
-0.04715903
-0.02814596
-0.21820053
-0.03886887
-0.20809968
-0.06018620
-0.06403615
-0.06334164
0.16256537
0.06282397
-0.01073974
0.03462655
-0.13590400
0.07041289
0.20893347
0.05548831
-0.08022423
0.02456873
-0.19778349
-0.09748384
0.04499380
-0.05785653
-0.32892734
-0.18193434
-0.02937160
0.10630689
-0.21714850
0.07143833
-0.17513888
-0.12066580
0.09483381
0.06401342
0.00859294
0.24628945
0.11394957
-0.00408834
-0.09277949
0.05886994
-0.19989362
-0.13255627
-0.20826820
-0.15774456
0.13382792
0.16535540
-0.07822379
-0.11032367
-0.43765181
-0.02620592
0.10869305
-0.13446660
0.12947862
0.13047123
0.19628963
-0.15513346
-0.36545804
-0.02172741
-0.24109393
-0.08015534
-0.05884458
-0.13607457
-0.01028845
-0.30285800
-0.16799825
0.03191741
0.17229019
-0.08096077
-0.48753953
-0.14246345
0.04449905
0.28022620
0.13027279
-0.20534894
-0.19870135
-0.10718174
-0.29119006
0.10013518
-0.04736598
-0.16779234
-0.14267386
0.11822242
0.00799843
-0.24768123
-0.26817128
-0.02240780
-0.21020317
-0.11818555
-0.08570283
-0.33565393
-0.24084380
-0.10741752
-0.06221760
0.18314351
-0.13056193
-0.34111270
-0.15207419
-0.01892390
-0.09306692
0.13672452
0.31046686
-0.03390407
-0.26228109
-0.19918722
-0.04341041
-0.22818768
-0.27054235
0.09391847
-0.16648971
-0.22136965
-0.05769465
-0.46478158
0.19902483
0.14851278
-0.17390163
-0.02747109
-0.36589924
0.04808300
0.01912098
0.13238049
-0.12458536
-0.18018410
-0.00352496
0.03990013
-0.23559982
-0.09262305
-0.07109777
0.03712621
0.02072738
-0.00950253
0.21821795
0.15791422
-0.18936414
0.21959373
0.03837663
-0.19009985
0.21536672
-0.30844140
0.29703990
0.09818982
0.00001665
0.30850667
-0.06519390
-0.05892520
0.07385506
-0.04512509
0.14788060
0.13247168
0.27211943
-0.34588048
-0.09469530
-0.15264331
0.03253670
-0.18370028
-0.00382278
0.49453878
-0.17458954
-0.06919930
0.07611170
0.12694944
-0.03424716
0.16348639
-0.09145814
0.07287630
0.39041203
-0.01644938
0.01445187
-0.01765773
0.15571158
0.11490161
0.26644844
-0.00988998
-0.04532290
-0.02701025
0.05378138
-0.04507842
0.23521815
-0.21681517
0.07657978
-0.17809752
0.09271859
0.10491128
0.07264359
-0.19871363
-0.09308786
-0.01031637
-0.00433277
0.21322879
0.20358206
0.00582975
0.11071703
-0.22063054
-0.04460736
0.19920835
0.01849991
-0.06637922
0.27558541
0.07074057
-0.11067350
0.19915667
-0.07405474
0.46970925
0.07597584
0.05052163
0.01374144
-0.12831573
0.06288096
0.04837839
-0.10884099
-0.03224445
0.24312764
0.09103316
0.07478310
0.14369486
0.08752528
-0.36041501
-0.20296931
-0.10528037
0.00413831
-0.07335688
-0.21288952
-0.04765584
0.04425703
-0.07124517
0.02910307
0.17355452
-0.06091516
-0.12723391
0.13418943
-0.19819352
0.06503325
0.08028563
-0.02945153
-0.04939495
-0.06646557
0.07658523
-0.04685923
-0.29656157
0.01399855
-0.26692867
0.20662150
0.22830662
0.14127874
0.00424338
-0.05466753
0.23124662
-0.01587220
-0.18178399
0.01003613
0.09151002
-0.22111869
0.15650518
-0.13397907
-0.40060326
0.09572029
-0.01215373
-0.01140005
-0.06820607
-0.19229096
0.54834646
-0.02966276
0.04501915
0.34642658
-0.29415509
0.40097842
-0.12365232
-0.01738164
0.05838771
0.13301648
0.31772339
-0.23062508
-0.00123109
0.03973484
-0.02641887
-0.02351851
0.11144867
-0.01898080
-0.07981237
-0.02034584
-0.08631212
-0.10800129
-0.22255860
0.37530822
-0.02441553
0.00367598
0.03840441
0.39947629
0.24595194
0.25542304
0.18058991
0.11172192
-0.34570491
-0.04608574
0.06283050
0.07524659
0.14275220
0.58985096
0.13305320
-0.37192562
0.60736072
-0.05686118
0.09075642
-0.00471568
-0.08759537
-0.29104558
-0.09832685
0.03806803
0.10008231
0.16966276
0.19499338
-0.02359511
-0.20102686
-0.16391139
-0.06664920
-0.51072097
-0.17241746
0.15551424
0.05695167
0.14221637
-0.15723850
0.27189639
-0.04621066
0.06248520
-0.05236436
-0.29487512
0.15378682
-0.06840035
0.17328225
0.20375933
0.20937397
-0.13189715
0.04123246
-0.13213676
-0.03485830
0.24114391
0.11502721
-0.14465429
0.00766903
0.10566122
0.29243344
-0.18739904
0.18498668
0.18338272
-0.14443627
0.07048303
0.26552033
0.40354803
-0.21360210
-0.15417252
0.14475963
-0.01229043
-0.26211375
0.57307285
0.02855687
-0.01341274
-0.10814760
0.22700807
0.13389884
0.07062185
-0.00432557
0.15764111
-0.22299184
0.15366021
0.05830823
0.05584688
-0.30768648
-0.14843994
-0.16242172
0.02463497
-0.09075691
-0.34325254
-0.11132583
-0.06068528
0.22178255
0.00498340
0.08415806
0.40059906
-0.32299593
-0.05004362
0.68445903
0.24723136
-0.03823505
-0.16798353
0.05203057
-0.08898516
-0.33821374
0.21184874
0.18685493
-0.09375080
0.04471014
0.01610564
0.02100113
0.13574283
-0.04452573
0.15831783
0.06760029
0.18798789
-0.05884806
-0.27559221
0.22756012
0.03626579
0.17689514
0.39777595
0.35004950
0.21561003
-0.00609848
-0.14452255
-0.02983810
0.02130016
0.16873211
0.06813243
-0.13529612
-0.16490813
0.28583694
-0.04213661
0.04745726
-0.17740177
-0.02493822
-0.34091642
0.14297107
0.03627412
-0.24675848
0.03865896
0.17453435
0.00238604
0.06770200
0.01044009
0.02398127
0.32285571
0.03638996
0.24121119
-0.33164772
-0.10311507
0.02935405
0.22016121
0.02871710
-0.29586956
0.15711033
-0.10936641
-0.27933311
0.15758987
0.41402319
0.49391049
0.15238547
-0.01705308
0.15181802
-0.08833323
0.03686210
-0.42348891
0.36292374
-0.12546217
-0.08192179
0.19408576
-0.01919189
0.17745689
-0.18192180
-0.19847776
0.21242857
0.21534391
-0.00663485
-0.07587259
-0.18552212
0.10686944
0.27878612
-0.20622106
-0.18768443
-0.07994414
0.05979000
0.05132563
0.02801858
0.21786958
-0.03429190
0.09226163
-0.08196858
0.35319746
-0.11639389
-0.01214082
-0.03350162
-0.31416216
-0.07418535
-0.18918660
0.15174165
-0.06212243
-0.29534164
0.21940809
-0.01428181
-0.29835284
0.01294617
0.07070424
0.07471157
0.29074511
-0.00576095
-0.04007528
0.09382405
-0.19272147
0.11118124
0.03209990
0.23253740
-0.01939922
0.34690917
-0.29649249
0.19651525
-0.06173573
-0.04070276
-0.05382995
-0.06749526
-0.21912731
-0.13297686
0.14039730
-0.27486017
-0.10024319
0.06847341
-0.40304747
0.05375975
0.12885913
-0.14189307
0.02891445
-0.23161893
0.03875368
-0.27447170
-0.31343868
-0.15181628
-0.12030398
-0.05583075
-0.13585615
-0.12588556
-0.42680123
0.20777528
0.23440839
0.19251871
0.07207462
0.23971863
-0.33399323
-0.28990832
0.26947954
0.20468725
-0.22296119
-0.07455527
-0.33160797
0.08718059
-0.21022466
-0.07473881
0.10543943
0.03090087
-0.07418770
0.39364114
-0.14583126
0.04887803
0.31649029
-0.01354759
0.23161504
-0.09275739
-0.35972068
0.05549335
0.13758306
-0.20501015
0.08571284
0.09647246
-0.07389988
-0.08248641
-0.23721959
-0.22843547
-0.16528259
-0.27039295
-0.32937840
-0.08932309
0.25754592
-0.07193557
-0.11108587
0.11567193
0.16610895
0.20175481
-0.19402950
-0.10504922
-0.30208436
-0.45788735
-0.28699762
0.15741928
0.13441765
-0.11003350
-0.20998958
-0.34357542
-0.07848543
0.01575293
0.04040866
0.07066265
0.05967632
-0.09497665
-0.36975810
-0.06680612
-0.09391525
-0.23850238
-0.23273903
0.22091490
-0.10178909
-0.07200196
0.08030028
-0.21207610
0.28219315
-0.26964447
0.01885790
-0.33398524
0.01286755
-0.08961938
0.21207178
0.14843455
-0.10482366
-0.19601898
-0.19499364
0.06475970
0.07303068
-0.06578971
0.04111003
-0.07205687
-0.28986618
0.11688803
0.15545510
-0.13684703
0.26309603
0.33058599
-0.23999438
-0.32720822
-0.23018269
-0.19956654
0.00412220
-0.08650145
0.11568907
-0.07286420
-0.23241802
0.05027016
-0.20487021
-0.32801810
-0.13501842
-0.28980967
0.21355169
-0.31975272
-0.16156651
0.12835500
0.18255578
0.19143142
0.13718759
-0.07380736
-0.44086146
-0.08207685
-0.03627628
0.20406517
-0.15420127
0.33567443
0.08987208
0.31478384
0.08828340
0.05124929
0.54102278
-0.00435045
0.20155305
-0.32929716
0.14558586
0.53205651
-0.35867468
-0.10953035
0.14261343
0.23136611
0.19024192
0.06077916
0.03169353
0.03555275
0.27706856
0.14634427
-0.02272233
0.16466725
-0.25036529
-0.19268487
0.35155720
0.01743655
-0.11809266
-0.04197579
-0.05195929
0.26698166
0.03229770
0.23564368
-0.00451108
0.15510248
-0.14008245
0.33251783
0.41018051
0.35143599
-0.07978438
-0.07052598
-0.03417833
0.22279100
-0.06283435
0.47156256
-0.07085055
-0.15214458
-0.27858657
-0.20845656
0.03445077
0.05283155
-0.09623806
0.21195272
0.00875098
-0.12196364
0.07614508
0.00914956
-0.15581153
-0.17068747
0.04097172
0.21149947
-0.14428249
0.38366756
-0.08791197
-0.08244812
-0.09215634
-0.04631027
0.20527160
0.13479401
-0.03213806
-0.02152522
-0.36727557
0.04838405
-0.11754713
-0.07781672
-0.23733048
0.22221509
-0.06864875
-0.09022653
-0.07685584
0.32634377
-0.11614236
0.14559703
-0.17673938
0.11707620
-0.05883529
0.31739351
-0.42814127
0.01305431
-0.15513696
-0.41316959
-0.15400583
-0.00261212
0.31897202
0.20543650
-0.02837081
0.23634274
-0.13736583
-0.21678770
-0.00682300
-0.05854139
0.45094374
0.13413934
0.60316932
-0.09349112
0.16907893
-0.09623001
0.27884799
0.11241162
-0.11016624
-0.07558133
0.05322086
-0.11279579
-0.20318170
0.08174624
-0.19472443
-0.12204207
0.08852137
-0.73355591
0.07053073
-0.10180414
0.02384676
0.09612964
0.11973671
0.01788114
0.03429861
0.20914237
0.12186842
0.20931919
-0.02179998
-0.04337923
0.06162582
0.16629143
-0.11380566
0.01312305
0.05560261
-0.03119735
0.13804542
-0.10994064
-0.04309177
0.05599719
0.17270820
-0.03838178
-0.00778864
-0.09159756
0.16151483
-0.11174279
-0.08767243
-0.06051942
-0.13203017
0.11829246
-0.10583971
0.02425090
-0.19138277
0.01631441
0.12619504
0.16313088
-0.13453898
0.14781930
-0.11732206
-0.06796642
-0.04615282
-0.10078410
-0.00292403
0.13387926
-0.01433036
-0.11344112
-0.23105027
0.08217326
-0.31309319
-0.06454398
0.19789520
0.00098960
-0.12987734
-0.14092216
-0.13104455
0.26440108
-0.03407708
0.08400337
0.14823896
0.15414071
-0.02014067
-0.02840192
-0.00393200
0.11665615
-0.13670540
-0.16190466
0.03635825
-0.37086871
-0.63841826
-0.12108257
0.01538612
0.03801991
0.14096555
-0.24573725
-0.00611803
0.03464305
0.36203435
0.07484306
0.06270613
0.23684853
-0.00748905
0.11244187
-0.02782847
0.21998180
0.02692574
0.02222394
-0.02063961
0.03165038
0.05572969
-0.02696350
-0.05688446
-0.01466090
-0.04609467
0.17416508
-0.02230860
-0.27255997
-0.13635166
-0.16567175
0.10924649
0.19856098
0.16748695
0.04713805
-0.06301360
0.19849944
-0.04050604
0.03200682
0.09635964
0.09375262
-0.18744527
-0.02549520
-0.12030278
-0.43365687
0.23434922
0.01754740
0.19696219
0.07449535
-0.25127643
0.06770965
0.18371314
0.14457947
-0.02080911
-0.54726774
0.06196773
0.10518152
0.19219024
0.07529735
0.30037749
0.26542419
0.19348721
-0.01396937
0.01638694
0.22159973
-0.06487801
0.19827776
0.27660665
-0.07710738
0.08296529
-0.14855258
-0.01154365
-0.19291610
-0.16633844
0.09538175
0.21097152
-0.03317021
0.04380583
0.15289856
-0.08044498
0.06106699
-0.13290697
-0.10271642
0.16532566
-0.18724421
-0.19183759
-0.06040039
0.07404540
0.24518566
-0.17336614
-0.10331458
-0.03263754
0.19809996
0.08112141
0.13105242
0.15512490
-0.18096378
0.29132414
-0.09671299
0.30722037
-0.06672088
0.14864136
-0.02626929
0.04801280
0.09254353
0.00971686
0.00147390
0.15218370
0.14573435
-0.26915506
0.12854232
-0.14216240
0.14548779
0.26398292
0.00758232
-0.11803316
-0.14255773
-0.09002424
0.30068898
0.38797545
0.03096974
0.07792672
-0.11473987
-0.09502917
-0.07598650
0.10836635
0.19916758
0.17546289
-0.28835562
-0.09384739
0.12336646
0.25210249
-0.17128702
0.05203210
0.28594819
0.11627943
-0.01642654
-0.27146706
-0.09425987
-0.07551090
-0.10078555
0.19132037
0.07921933
-0.09027399
-0.26392785
0.10173520
0.03728754
0.11057858
-0.14952666
-0.14443663
-0.07050446
-0.01879548
0.21812025
0.12303454
-0.07305645
-0.02911120
0.06944823
0.27479750
0.03195424
-0.06161153
-0.00260216
-0.26724496
-0.00297609
0.04915287
0.19999395
-0.08796617
-0.15495536
0.33432394
0.06137800
0.09186332
-0.27760759
-0.04144073
-0.37900904
0.15350536
-0.02440965
0.08609746
0.01793945
-0.00509697
0.16716780
0.21119419
0.01976752
0.09564097
-0.13258441
0.22763480
0.21254876
0.00306817
0.24211295
-0.21720099
-0.08424432
0.13548680
-0.00560502
-0.27265286
-0.30553204
-0.01840797
0.24954113
0.35374251
-0.11706024
-0.02738886
0.17266650
0.02251668
-0.12739457
0.06041243
0.00127812
-0.14860284
-0.10911284
-0.08966972
-0.03345994
-0.24542595
0.11045199
-0.05018212
0.24572293
-0.17177069
0.34126869
0.09180883
0.04938459
0.08376826
0.00368893
0.07122220
0.26169658
0.26969063
0.11626551
0.27153480
0.00514455
-0.07874847
0.03242746
-0.17902793
-0.23276651
0.29970413
0.23417921
-0.28189853
0.12332164
-0.18129775
0.02364533
-0.00616116
-0.03877243
0.14781518
-0.05007945
0.11875167
0.32808629
-0.02469941
0.15280220
0.00187063
0.15211597
-0.27970183
-0.03101235
0.11630338
0.26809070
0.40104312
-0.12873033
0.28949091
0.02015199
-0.06576455
0.17859383
0.07068316
-0.42684436
-0.16304405
-0.12190904
0.34633902
-0.01653302
0.00054976
0.30986905
0.06124469
-0.22514884
0.24487731
0.20964052
0.01331822
0.07201922
0.14650254
-0.16005199
-0.27405861
-0.13182798
-0.20086966
0.05715254
0.20989832
0.01098463
-0.12676236
0.18517263
0.16750814
0.21982321
0.04196641
0.12970108
-0.10991501
-0.29982325
0.42395434
0.02255227
-0.10650302
-0.21203983
-0.27719915
-0.00866552
0.01287330
0.19132045
0.03107683
-0.06404357
0.01173626
0.05045236
0.06642169
0.08249754
0.14649674
0.07452607
0.16096982
0.18588702
-0.32693392
-0.15505567
0.15227270
-0.18491486
-0.01815198
0.34440348
-0.13598374
0.02318730
0.05500400
0.00398660
0.01137010
-0.20632096
-0.49570554
-0.02721814
0.19589558
-0.05751859
0.18066071
0.08231749
0.05742846
-0.10572249
-0.18073590
0.05320516
-0.10445797
-0.18186942
-0.07601355
-0.23139873
0.01814106
-0.05036810
-0.36803368
-0.00730189
-0.00663745
0.16642727
0.04987740
-0.06889066
0.12006982
0.09809865
0.11368576
-0.25445500
-0.01006691
0.07138963
-0.56932420
-0.17884944
-0.21998860
-0.16650398
0.08611480
-0.29440242
0.05600504
0.01100076
-0.06784672
0.00403904
0.26336539
0.03286176
-0.03563341
-0.07241500
-0.03196348
-0.21947011
-0.05111480
-0.10371079
-0.03333298
-0.22520468
0.10900935
-0.12478155
-0.18349154
-0.06432715
-0.20349227
-0.04162510
0.16773181
-0.02255474
-0.15791593
-0.05066720
0.03810061
-0.19076316
0.01422639
-0.13026685
-0.25625435
-0.09999955
0.02753989
-0.09878837
0.11866167
-0.09627462
-0.19904236
-0.00100469
0.02874217
-0.05266661
-0.18390086
0.08135054
-0.38924021
-0.00286531
-0.11066503
-0.05299148
-0.12413456
-0.13470167
-0.17812361
-0.22730599
-0.10367338
0.16012318
0.06374393
-0.05201598
0.26423836
-0.14716868
0.13851528
0.22399025
0.09462928
-0.28826162
-0.10461953
0.00596095
0.00542097
-0.06818898
-0.07773760
0.19960830
-0.03941355
-0.11368248
0.08058231
0.12573369
0.03326527
0.04695525
-0.33468279
-0.26790491
0.31502837
0.02856544
-0.21962877
-0.38970077
-0.07858841
0.13262299
-0.05417512
-0.32743341
-0.01147704
-0.29222906
0.16713105
0.15664876
-0.19723377
-0.13476108
0.06945098
0.03990343
0.21143022
-0.16424364
-0.14543422
-0.14678988
-0.15089375
0.03279595
0.08424235
-0.20516089
-0.07435398
-0.00224640
0.01796727
-0.14603668
-0.23816092
0.11915039
0.16262759
0.22248375
-0.46854576
0.27609578
0.06951456
0.17842038
0.25055537
0.00783790
0.21089956
0.12446141
0.02093258
-0.11908187
0.12462444
0.26897240
-0.16994423
-0.22684401
-0.13267498
0.16703667
0.22504392
-0.03921030
0.02030469
0.07009510
0.07658008
0.57145715
-0.14291687
0.28793696
-0.13849890
-0.11482732
0.10640452
-0.13286717
-0.28144383
0.14004791
0.22427805
-0.16071577
-0.17080507
0.13983557
0.16295744
0.17037050
0.11752576
0.16196452
0.21946794
0.20522405
0.11215653
-0.11171749
-0.12220352
0.12405140
-0.06225409
0.13599311
-0.04408769
-0.03365395
-0.27608469
-0.21336867
0.15984701
-0.03862051
0.26491553
0.19578110
-0.01486583
0.02954591
0.05211723
-0.09002221
-0.02582075
-0.10167427
-0.04046363
-0.07146905
-0.13711607
-0.00139971
0.06040750
-0.39681908
0.01450349
0.34023234
0.14681979
0.15218726
0.01671036
0.04065027
-0.29039097
-0.07294819
-0.02172008
0.05408392
-0.31657696
0.01690383
-0.16404463
-0.27498078
0.01096426
0.32776928
0.04961288
-0.11614386
-0.41643333
-0.02748644
0.10392046
0.12656580
-0.39908245
-0.16733067
-0.06040666
-0.08481275
-0.28495872
-0.04078497
0.18005055
0.13613428
-0.22846869
0.12447973
-0.10641813
-0.02275824
-0.38281527
-0.23075171
0.21817386
0.28928259
0.23078302
-0.16318798
-0.08745810
-0.18168293
0.18179296
0.18419589
-0.16275641
0.03801085
-0.09766991
-0.14024875
-0.19454779
0.08483261
0.03560179
0.02653829
-0.26706985
-0.35222873
-0.03774403
0.01708201
0.27745080
0.03073811
-0.25593966
-0.07776532
-0.15478383
0.01057724
-0.39818013
0.08305872
0.05375280
0.11844976
-0.31889546
-0.07117878
0.16477416
0.02087748
0.15839955
-0.32853565
0.05011441
-0.12752193
-0.01797342
-0.37185130
0.14110169
0.23661058
0.16811211
0.31961918
0.20096987
-0.28996223
-0.03448305
-0.08974182
0.07456002
0.05754993
-0.13370943
0.14696859
-0.01220719
-0.10428610
-0.16009778
0.00522574
-0.07363986
0.00446341
-0.09476544
0.20844786
-0.06804191
0.03138780
-0.12049457
-0.09197883
0.09765743
-0.01855951
-0.14618956
0.00916308
-0.26355910
0.02280607
-0.12754853
0.05763363
0.06987167
0.12358093
-0.21560195
0.04469617
-0.31352147
-0.64144850
-0.12927844
-0.23374221
0.10240719
0.05803629
-0.09073350
0.22876224
0.17681144
-0.33149451
0.06055002
-0.18626688
-0.34538022
0.03249401
-0.50670427
0.09522638
0.13131690
-0.02763819
-0.19864240
-0.12912625
0.14625429
-0.16418378
0.09332705
-0.06491166
0.11427816
-0.14846653
-0.09422986
-0.13490897
-0.32707366
-0.13311197
-0.04978091
0.24228881
0.13173266
0.12690744
-0.15867741
-0.19863382
-0.20880881
-0.07984771
-0.04055112
-0.27290142
0.07047394
-0.14720857
-0.05505703
0.02904554
0.11407384
-0.28334662
0.04462080
-0.12436322
-0.22466144
-0.11280835
-0.38637510
0.07201853
0.24114801
0.15644000
0.02854388
-0.16831495
0.01735379
-0.10836408
-0.00316809
0.01925711
-0.11806057
0.12114217
0.10594188
0.21291508
0.08726370
0.01297132
-0.21783766
-0.01181935
0.11596781
-0.04737479
-0.20346630
0.00714070
0.18850604
-0.17328796
-0.30079547
-0.20712361
-0.13350594
0.11011254
0.25218931
0.17129928
-0.07070454
0.39814410
0.10296741
0.04335563
0.20580868
-0.13691209
-0.00861414
-0.12553535
-0.10831919
0.09252101
-0.13549113
-0.01516546
0.24299702
0.20081747
0.03018045
0.37089488
0.10631626
-0.16948013
0.16456904
0.16896288
0.10578927
0.34718847
0.13004287
-0.29402435
0.15158944
0.03873551
-0.35685581
0.41316983
-0.02472941
-0.07246706
0.14707264
0.28186271
-0.12750460
-0.00945037
-0.04223870
0.17191608
0.16073954
0.00905828
-0.17575978
-0.17186795
-0.30104384
-0.08248395
0.29070324
0.17723355
0.05780130
0.24028790
-0.22301422
-0.06213215
0.06849419
0.10664316
0.23702432
-0.20070022
-0.18122308
0.06409983
-0.01952194
0.23934065
-0.11312515
0.03451650
0.00182586
-0.26274601
-0.20134370
0.10950341
0.05313722
0.27717030
0.03993541
-0.27142701
0.16766649
-0.05642118
0.07172114
-0.11447934
0.00045351
0.22651741
-0.08652896
-0.11151605
-0.09313317
0.04286843
-0.15218428
0.04147635
-0.02293932
0.29514131
-0.08655293
0.01913658
-0.03035643
-0.10831238
-0.05926642
0.20820050
-0.02852357
-0.03356767
-0.08063132
-0.21738705
-0.26057824
-0.00255018
0.43537670
-0.23939936
-0.22755735
-0.22769745
-0.07440697
-0.00144072
0.22025040
0.21544649
0.23173755
0.20271613
0.21302217
0.16701934
0.25220498
0.13579357
-0.06873779
0.00232880
-0.27213722
0.18202406
-0.14319383
0.01458329
0.03819964
-0.08669676
-0.07786041
-0.18612641
0.28103533
0.04658007
0.11483782
0.25673875
0.10323256
0.00248543
-0.26747161
-0.11025785
-0.04188678
0.12731421
-0.55429411
-0.03996995
0.06713589
-0.00097886
0.00835252
-0.45932424
-0.06936994
0.09963430
0.11873872
-0.04985488
-0.21462223
-0.16380741
0.00311090
-0.35484645
0.14922158
-0.04338479
-0.01169241
-0.10206504
0.10704211
0.18277349
-0.22122161
-0.01586693
0.22589360
-0.28261477
-0.15401292
0.02444108
-0.15728466
-0.39868513
-0.08064692
-0.08172244
0.10027698
0.12603030
0.03076567
-0.19872180
-0.00840372
0.03811823
0.00762912
-0.27845621
-0.03124398
-0.47333610
0.03063668
0.03727000
-0.12650964
0.20886624
-0.08906028
0.15901531
0.10307109
-0.08440614
-0.11222765
-0.06310683
0.11091360
0.04628537
0.15434018
0.08046428
0.06836094
-0.14287464
-0.08761748
-0.06035537
0.23784390
-0.01593030
-0.17819640
-0.05658387
-0.05945855
0.22954786
0.17064893
-0.09522019
-0.08799165
0.02287998
0.20728149
0.07710572
-0.05400939
0.13385232
0.08782160
0.02484019
-0.01077507
0.09386948
-0.11593539
-0.18107529
-0.03094660
0.10991564
-0.16719963
-0.08659762
-0.12010482
0.32068017
-0.42585170
0.08703017
-0.18090479
-0.24606535
-0.02778393
0.06083587
-0.19237149
-0.07403605
-0.15338397
0.08386856
-0.28868687
0.30623993
-0.32705885
0.08006041
-0.22273876
0.09113970
-0.11910957
-0.26883036
0.11872865
-0.11772121
-0.14759891
0.06211593
0.14008354
0.02879012
0.22175384
-0.19515492
-0.12228321
-0.04453713
0.20482422
0.15976092
0.14067104
-0.28481707
-0.07319967
-0.22354853
0.14420691
-0.42351821
-0.06458902
0.11736214
0.21506174
0.03477922
0.21617451
0.02359832
-0.26186138
-0.08662266
-0.34140876
0.28365281
0.05989753
-0.06083305
0.04532346
0.02177617
-0.20428468
0.14934123
0.37761402
-0.14345258
0.09220412
-0.55416244
0.24072778
-0.25084007
0.11907442
0.05460273
0.01075839
-0.02156597
0.14955649
-0.11147841
-0.09783190
0.00829953
0.09439728
-0.19773626
-0.19218874
0.10634852
0.00859739
-0.33113402
-0.08491504
0.10065288
-0.13807569
0.29510015
-0.15834630
0.17424420
0.17913279
-0.06835775
0.07315037
0.02390991
0.18983023
-0.19977048
-0.08688938
-0.04666052
-0.34747434
0.10501128
-0.06665783
0.05201936
-0.02593816
0.06310448
0.11236304
0.10663986
-0.13953339
-0.14861082
0.00052327
0.08655810
0.00559269
0.04508931
0.09791491
0.19573481
0.19458716
-0.15088496
0.04264854
-0.26775539
-0.49638638
0.15716672
0.05820307
-0.06956276
0.11207449
-0.03654104
0.02847830
-0.10009661
0.21329762
0.11860310
0.18885505
-0.05681577
0.18644662
-0.05068230
0.15526813
-0.03306982
-0.27241376
0.18659946
-0.23037343
-0.06208285
0.13790056
0.24347787
-0.46653312
-0.14750929
-0.11581915
-0.03816196
0.01909348
-0.27800521
0.00899008
0.11941049
0.15968198
0.03621044
0.07978027
-0.07488254
-0.10986228
-0.18691726
0.23352382
0.10685921
-0.25172567
-0.09421650
-0.05272947
0.05617167
-0.16854478
-0.24333914
0.08935530
0.23856261
0.24035303
0.06541861
-0.05309189
-0.18930683
0.19943468
0.20381026
0.24831623
-0.11577038
-0.26283675
0.12644742
0.13651176
0.07451146
-0.13115929
-0.31096199
0.00890811
-0.09162468
0.18804175
-0.13016067
-0.09079906
-0.03775866
0.34547547
-0.20673724
-0.23353831
-0.03695020
0.22127156
0.07720156
0.15461218
-0.15641142
0.04787624
0.14297609
0.15891327
0.08088868
0.13279723
0.32337582
-0.05098536
0.23333652
-0.26361871
0.29811776
0.18497871
0.02534518
0.07425039
-0.61522150
-0.05587124
0.13110711
0.19557576
0.19162314
0.05351368
-0.08306374
-0.01290512
0.39582717
-0.28481564
-0.08887129
0.27909711
0.00097493
-0.17124049
-0.07162753
-0.07139178
0.19182611
-0.07131857
-0.00012553
-0.35437009
-0.19216959
0.05077795
0.03473592
0.00256049
-0.11685842
-0.26001275
0.29273534
0.15353903
0.01377029
-0.14015570
0.12664165
0.16627014
-0.17237288
-0.12898825
-0.04836725
0.15899566
0.00288500
0.26956847
0.03023334
-0.25589141
0.19284578
-0.04186750
-0.01264627
0.16234951
0.24095815
-0.16092296
-0.00588188
-0.08753172
0.00649229
-0.01148998
-0.06407551
0.05999912
-0.00877993
-0.03874655
-0.06863275
0.30605495
-0.27124828
0.23219706
-0.05674110
0.05955530
-0.03726110
-0.25446185
0.00567771
0.15363958
0.02517351
-0.11563198
0.11475471
-0.02241144
-0.04314682
-0.18297645
-0.06364595
0.00689295
-0.16917504
-0.00250852
-0.06518845
0.13982704
-0.10440443
0.03076291
-0.08411343
0.11002308
-0.05103159
-0.00781602
0.11195292
0.06334282
0.04067476
0.14333132
0.27234995
-0.06639522
0.03617861
0.24124019
0.23105079
-0.06789505
0.01011167
0.05588065
0.23088418
0.00405678
-0.28881040
0.02339584
-0.28081742
-0.26869163
0.17223114
-0.22847171
0.02601405
-0.02930715
-0.10794264
0.34270346
0.04005139
0.10234650
0.11414103
-0.19293617
0.21195644
0.01361249
-0.13390552
0.31186849
0.05581352
-0.35204637
-0.01531273
-0.00606165
-0.11179531
0.05146102
0.13582216
0.07487167
0.05785951
0.08864291
-0.01797031
-0.01844736
-0.02661236
-0.18281598
-0.21714737
-0.03444377
0.40947920
0.26106992
0.15466914
-0.12302636
-0.09446151
-0.25914475
0.12951964
-0.31247568
-0.29958639
-0.18054834
0.15804413
-0.18037058
0.28965276
-0.33392826
-0.22628953
0.04787644
-0.00715161
0.18894613
-0.27523375
-0.17867939
-0.02927887
0.22533752
-0.04809271
0.16121206
-0.12133105
0.12734582
-0.05910448
-0.00135316
0.00919118
0.27359313
-0.03597478
-0.00864364
0.19340868
-0.30735239
-0.14197700
0.01661470
-0.08949485
-0.04170922
-0.09463803
0.08836482
-0.23571998
-0.18568429
-0.17919280
0.13108136
-0.04909401
0.12739335
0.27130303
-0.01920829
0.15357190
0.09332253
-0.01332071
-0.34171253
0.10575069
-0.37479627
0.11794496
-0.16463463
-0.07859552
-0.07517519
0.03827826
0.22263090
0.06224244
-0.08176220
-0.27913228
0.23039244
-0.14071533
0.16593488
-0.04368639
-0.46833670
0.01326509
-0.17854375
-0.15315986
0.00828699
0.08338965
-0.31658229
-0.06043072
-0.16913778
0.22595559
-0.00066181
0.00173677
0.03488315
0.08270792
-0.03718965
-0.09598672
0.05262915
0.00055947
-0.14226463
-0.04501104
-0.11986661
-0.06409355
-0.05072113
0.08490356
0.03315443
-0.11532187
-0.01190233
-0.38330624
-0.03653074
-0.12152223
0.13602796
-0.18300240
-0.25940809
0.14225999
-0.14229260
-0.16244245
-0.03634121
-0.11894407
0.05354656
0.10299226
0.10995829
-0.00937592
-0.22578143
0.05819624
0.05081185
-0.15115002
-0.08399208
0.35848927
0.11828815
0.07877612
0.08991285
0.28994215
0.19266723
0.06096431
-0.05363457
0.17006694
0.19279447
0.01122365
-0.08569399
0.47342351
-0.00889718
0.09631523
-0.10851724
0.22397099
-0.08798892
0.14989743
0.06250242
0.35600677
0.47354209
-0.10467207
0.24754816
-0.13578764
-0.14576414
-0.28461143
0.50310892
-0.13189897
-0.32808205
0.02941043
0.09163657
-0.16759646
0.28490365
-0.18677934
0.31219453
-0.13167767
-0.21163920
-0.17731592
0.00329510
0.14422151
-0.05046967
0.29637626
0.18293799
0.16047454
-0.03637952
-0.00219068
0.02549813
0.03215578
-0.06694216
0.33462766
0.01992120
0.12773518
0.15598729
-0.13213438
0.12882818
0.06039794
-0.14216143
-0.10722035
-0.05545466
-0.07321484
0.21796308
-0.09624314
0.28850812
0.30837604
-0.01478397
-0.28027007
0.13671927
-0.04120741
0.12839635
0.19381872
0.04749883
-0.01931806
-0.02088719
-0.05353224
0.21661334
0.14229493
-0.09009318
0.12134898
0.28933746
0.04372153
-0.22148378
0.07989287
0.13594216
-0.21822107
0.21980056
-0.19142863
0.05620761
0.03821076
0.01546701
0.15882473
0.10295466
0.05241704
-0.30685967
0.17919871
-0.09955301
0.24035051
-0.24988703
-0.16147096
0.05722309
-0.10060736
0.06237981
-0.13895075
-0.28932419
-0.26142934
-0.28488913
0.27097639
0.03295070
-0.22466850
0.03068027
0.45847020
0.12891409
0.21774659
0.20630670
0.05763922
-0.13445835
-0.20457318
0.00974744
-0.06927171
0.34245491
0.23502287
0.05357194
0.20312160
0.13130684
-0.01709010
0.21783933
0.18936303
0.16249435
-0.11234362
0.01348987
0.35603824
-0.25118336
0.07322905
0.20589574
0.13302805
0.25211221
0.21026398
0.26833317
0.11850639
-0.09438930
0.15405300
0.22793679
0.25550854
0.20113346
-0.25423354
0.02363222
-0.16809158
0.07601506
0.51454943
0.05271929
0.00614156
0.20127212
0.11023403
-0.12827334
-0.04942935
0.12765159
-0.19601977
0.23385417
-0.06728577
-0.14930484
0.22709797
-0.02021796
0.08232817
0.01281768
0.05219165
0.13575912
0.01764529
-0.17063411
0.03755375
0.05082756
0.30897951
0.44406626
0.16578186
-0.03257851
-0.24621950
-0.26613060
0.37304425
0.08915168
0.10229733
0.16580102
0.05034552
0.27082989
0.04247938
0.38080192
0.32481372
0.21028881
-0.39055389
-0.07580475
-0.23925363
0.21820566
-0.05199834
0.23804033
-0.02799018
0.06189878
0.15562721
0.09091143
-0.18964522
-0.01883047
0.02470306
-0.13567381
0.28570125
-0.17160778
-0.08040044
0.25309756
0.19642417
0.01143600
0.03898641
0.16156361
-0.02704307
-0.20676532
-0.16603425
0.03821724
0.26577815
0.22750279
-0.20277125
-0.06653112
0.09383348
0.03000788
0.02711525
0.43155026
0.08754301
0.06905297
0.34955180
0.18588680
0.49982813
0.14173461
0.21901834
0.04757871
-0.13304628
-0.15260260
0.03829819
0.30713475
0.21192485
0.01161232
-0.04289350
0.19366997
-0.04899988
-0.35263750
0.23357564
-0.17439714
0.05694489
0.15996945
-0.09791967
0.28965738
-0.09236705
-0.19532257
-0.07311295
-0.18108553
0.37264073
-0.34769070
-0.08288816
0.15700296
0.35853213
-0.18439807
-0.15540205
0.46905047
-0.13351706
0.12457214
-0.24313888
0.07522556
-0.12292184
0.20880739
0.04458975
0.04600881
-0.25283685
0.27212128
0.24691069
0.17833953
-0.28474304
-0.19060911
-0.19785020
-0.08508291
0.07498550
0.00585835
-0.21493727
0.08947356
-0.13401578
-0.26484945
0.37380064
-0.11480283
0.13565885
-0.23786934
-0.16793035
0.20719390
-0.07612102
0.12741116
0.19573912
-0.03376899
-0.32653877
0.48561630
-0.05770935
0.19600388
0.17737088
0.01703975
0.03455567
0.21566418
0.12604609
0.15051772
-0.30803436
-0.13656765
-0.37495160
-0.23178966
0.25784373
0.33203465
0.19245547
-0.04543892
-0.05378440
-0.29245281
0.40164691
0.16497907
0.02987216
-0.23075740
0.07915892
-0.08588088
0.02255625
0.07825288
-0.03114915
0.36566263
0.21889515
-0.19914423
0.27505755
0.36916617
0.04991480
0.19835781
-0.01479696
0.13786215
-0.11993717
-0.33185866
-0.14096820
0.00615401
0.04276105
0.22001551
-0.15862644
-0.35141629
0.17946702
-0.27970171
0.23949091
-0.22494642
0.30496913
0.34422645
0.00785060
0.00317858
-0.02580097
0.24967337
-0.44248441
0.17921245
0.05103150
-0.30912861
-0.51035291
-0.02353542
-0.08087979
-0.30253294
0.17472646
0.14489581
0.23378363
0.12640283
0.20604037
0.22180197
-0.01242323
0.10586292
0.22201949
-0.00749439
0.56041241
-0.21280190
-0.13663721
-0.09232818
0.05547205
-0.06360270
0.25164753
0.06423995
-0.13949428
-0.06861795
-0.05944591
-0.06130560
-0.62914902
0.28245962
0.24498139
-0.00731974
-0.10988532
-0.18603955
-0.37138966
0.02236884
0.23942363
-0.04769483
-0.13749199
-0.13927457
-0.10998112
-0.06441423
-0.16129604
-0.02254790
-0.19019857
0.13389923
0.01759389
0.27680501
-0.23399863
0.17222956
-0.05371271
0.12641299
0.03826745
0.22573408
0.05736355
-0.09224474
-0.01617070
-0.22753575
0.40868384
0.13208950
-0.14512776
-0.03040128
0.16219644
-0.14998148
0.21983537
0.37201378
-0.06193769
0.03153701
-0.33059421
-0.12862702
0.07168721
-0.03738227
-0.00125803
0.00934214
-0.07424558
-0.00500512
0.10270101
0.07354493
0.07345037
0.00815939
0.18317559
0.14567985
0.37945884
0.23147638
-0.10717262
-0.38363746
0.08579104
-0.00051404
-0.01259385
0.10392024
-0.25837961
-0.01277427
0.08519262
0.15827225
0.11597763
0.31320220
-0.08171308
0.16740960
-0.00266497
0.14813145
-0.00537803
0.20558360
-0.08451812
-0.03979225
-0.03346015
-0.23657072
-0.42641973
-0.04950399
-0.10637528
-0.06423140
-0.12423511
-0.28823793
0.17591842
-0.16023999
-0.01771601
-0.16548336
-0.48692933
0.05454190
-0.01523892
0.04344276
-0.17262389
0.07035337
0.23134354
0.08941948
-0.02603574
-0.18640067
0.17220055
-0.25654575
0.14758241
0.27834395
-0.17526782
0.11197986
-0.06275808
-0.09702647
0.41529775
0.10572401
0.13588272
0.16737543
-0.31340218
-0.10128970
-0.07919223
0.17314991
0.19063155
0.32682076
-0.04027686
-0.12648433
0.12131575
-0.20140564
0.11933848
0.16122420
-0.08598901
-0.08410670
0.07073773
-0.32773733
-0.08748615
-0.01288068
-0.48675877
0.23546605
-0.32936287
0.18177798
-0.08513436
0.00625020
-0.43306968
0.00399181
0.14636463
-0.24598686
-0.21954107
-0.09770884
0.04583443
0.02528102
0.08425754
0.01823477
-0.04184936
-0.18091166
0.23091954
-0.25496233
0.06871148
-0.05962703
-0.63989961
0.15108661
-0.08289307
0.07067994
-0.03744595
-0.17682342
-0.05129104
-0.05487180
0.02722492
-0.27830756
-0.21936436
0.31600612
-0.14138052
-0.15951116
0.10246925
-0.13655177
-0.00305306
-0.29819795
-0.05164950
-0.09034696
-0.11246972
0.01357214
-0.15916972
-0.06149970
0.05669000
0.01240781
0.03148134
-0.24939215
-0.20428073
-0.06253922
0.00653557
0.26849535
0.00007409
0.21263748
-0.20296374
-0.14313163
-0.02877348
0.07220453
-0.06355338
0.00666106
-0.23691480
0.00195841
-0.10586722
0.11542414
0.22369124
-0.11694959
-0.10518663
-0.15252376
-0.12996288
-0.17317563
-0.49433213
0.20114353
0.14587398
-0.13192001
-0.23091146
0.11414170
-0.12384444
0.10748540
0.15402563
0.10075892
-0.00812814
-0.41391596
0.17368178
0.05899657
0.07653815
-0.05163698
-0.12264250
0.16753364
-0.13044442
-0.02844634
-0.44286653
-0.15282187
-0.21926956
-0.22035673
-0.04133792
-0.00771673
0.08845818
-0.45474982
-0.19623064
0.06056242
0.26968515
0.18900667
0.02772552
-0.03772731
0.06134161
-0.00608542
0.14690237
-0.35855541
-0.31160110
-0.10861284
0.33334145
0.10890514
-0.26101938
-0.14648259
-0.16812263
-0.16558374
-0.18805803
0.05443509
-0.19668470
-0.18204518
0.27687785
0.35216206
-0.27638066
-0.04306692
0.14665365
0.18950577
0.45544943
-0.05251120
-0.16483828
-0.19174744
-0.09841635
0.25703502
0.04389183
-0.16213612
0.18454701
0.34995630
-0.17988415
-0.01141905
-0.22474504
0.23445863
-0.30650139
-0.23287967
-0.22448553
0.35163644
-0.14374949
-0.09643931
0.08153620
0.11600673
-0.07996620
-0.04907159
-0.39148197
-0.32837084
-0.16871640
-0.06389666
-0.09739393
-0.19668101
0.05085519
0.03809316
0.17431508
-0.06976213
-0.10547023
-0.20495503
-0.25891954
0.15924570
-0.13715820
0.33879551
0.23920162
0.02559817
-0.15202270
0.00506435
0.31966746
-0.29299304
0.19280568
-0.11625311
0.18700515
0.37403616
0.05147677
0.05321122
-0.14893652
0.16244049
-0.10982493
-0.07383042
-0.20221487
0.16231278
-0.07010847
0.17956755
0.03558805
-0.23266882
-0.13482265
-0.22239128
0.33832952
0.25743064
0.01345218
-0.02607880
-0.11520123
0.20830686
0.00588084
-0.00563973
0.39095849
-0.29858562
-0.36978003
0.14211418
0.28486511
-0.26517430
0.09539592
-0.08246014
-0.14129104
-0.36542848
-0.17311674
0.25244263
-0.22125946
-0.08418822
0.01528506
0.01199853
-0.14232405
-0.22543384
-0.04107947
-0.20208246
-0.02055143
-0.00453833
0.21148993
0.07284244
0.32222617
-0.03523495
-0.09437153
0.24099262
0.02448156
-0.01493009
-0.47433877
0.07578229
-0.21483797
-0.28482902
-0.27746049
0.20715812
0.24244753
0.32041579
0.06159914
-0.05221463
0.20567143
0.35395083
-0.01704489
-0.06647339
-0.11245602
0.11786098
-0.05134552
-0.08439565
0.11597608
0.07069889
0.13064200
-0.07843100
0.04131542
0.07062340
0.09962303
0.02243295
0.21506165
0.15253586
0.14425181
-0.07817761
-0.11461560
0.04839076
-0.18099286
-0.05856986
0.12288297
0.29280055
0.01987410
0.04045025
-0.02767553
0.05721683
0.18016410
0.09153152
-0.11390891
0.15731858
-0.19789846
-0.00060469
-0.11908145
-0.12227630
0.05768684
-0.01482567
-0.08246683
0.26910537
-0.01403570
-0.16095363
-0.09045745
0.06378058
-0.01784301
0.02124444
-0.04787032
0.14818397
0.22177120
0.09045704
-0.00538328
0.12802675
-0.10008360
0.13220429
-0.31144509
0.15855408
0.06847189
-0.21504837
0.18098411
-0.04172638
0.03621813
0.07358619
0.19587152
-0.09562678
0.08656022
-0.00016350
0.15795985
0.05522462
-0.08348474
-0.02197114
0.01550362
-0.33359158
-0.15520889
-0.10393405
0.12865201
0.09289072
-0.31804436
-0.23259540
-0.03764368
-0.09318869
0.13555957
0.11697377
0.06927538
0.00483118
0.02912822
-0.03815007
0.06771355
0.12801035
-0.02810568
-0.02802420
-0.16153395
-0.05418241
0.16405022
-0.13058327
0.08825265
-0.24440005
-0.01587167
0.12739958
0.14954865
0.07935549
-0.27107069
-0.10353748
-0.04165054
0.02373651
-0.07102910
0.19668247
0.08934537
-0.01512405
0.04700301
0.08965287
-0.05309706
-0.07334360
-0.01141925
-0.21298383
0.03160024
0.15260036
0.03672083
-0.02705092
-0.03833465
0.03681326
-0.12356982
0.08846851
0.12054719
0.10023679
0.07256290
-0.22689821
-0.01949530
0.23990110
-0.02539195
0.19283341
-0.11123335
-0.21692850
0.05441620
0.03977385
0.22816071
-0.40975654
-0.17146412
-0.26763079
0.00482920
0.08808745
-0.42764500
-0.12581728
0.46888921
0.12828130
0.08945277
-0.47564122
0.06563599
0.31193921
0.26158389
0.21037635
-0.48058009
-0.03325833
0.04477837
0.12248253
0.02439869
-0.03267327
0.09347511
-0.14179981
-0.03112652
-0.16406037
0.09365064
-0.06115542
0.02535496
0.20044981
-0.28993466
-0.00126736
0.18917716
0.19856754
-0.06188061
-0.00948751
-0.02711048
-0.31564382
0.10862740
-0.37754393
-0.03908692
0.04500546
0.20276135
-0.50963867
-0.06979056
-0.33005822
0.07348690
0.30258551
0.01770713
-0.06357645
-0.23028183
0.15842894
0.15265131
0.02112157
-0.07111387
-0.38996124
0.07673252
-0.07697827
-0.21964245
0.20615783
0.15847039
0.15056951
-0.36839157
-0.31344977
0.06648670
0.09715215
0.04275012
-0.03521737
-0.07485805
-0.18949230
0.16854367
-0.05237543
-0.19482972
0.19862367
0.03183425
-0.12081894
-0.36241338
0.20221277
-0.03290273
0.00509991
0.01995146
-0.08899900
0.05456590
-0.38511252
0.00162663
0.01374745
0.36000231
0.09989915
-0.09218574
-0.14892620
0.22176626
0.21155256
-0.05920017
0.03481514
-0.17522964
0.05883463
0.01287887
0.07973284
0.09799462
-0.20375875
-0.04291204
0.10639348
-0.33542162
0.08482508
-0.11189719
-0.09830696
-0.09899601
-0.06175343
0.09866302
0.03812374
-0.08809356
-0.02527868
0.02534080
0.01778516
-0.13903661
0.09878778
0.11814059
0.16556507
0.41713548
-0.22875781
-0.09219230
-0.34236178
-0.15426613
-0.01606311
0.13301371
-0.01519762
-0.39449432
0.00992826
0.14908038
0.01551496
-0.04250000
0.07054591
0.07849377
0.22009438
-0.00652656
0.42203909
0.11507525
0.01930990
0.08363931
-0.35835725
-0.04816945
0.03771761
0.07627491
-0.03148153
-0.07249326
0.03904596
0.11719730
0.35579962
0.26320249
0.05301910
-0.09196501
0.04939833
-0.08531674
0.26725176
-0.32309976
-0.07944082
0.11603256
-0.24811368
-0.47286421
-0.08650664
-0.05773722
-0.32328182
-0.14070782
0.07793559
0.10729232
-0.04215943
-0.21043929
-0.43174446
0.32413277
-0.24001856
0.00057984
-0.33062297
-0.01884156
-0.39653051
0.07197107
0.29251000
0.11761332
0.11967376
0.10103395
0.10290992
0.17641820
-0.19544472
-0.06171611
0.03966998
-0.18566246
0.11485013
0.15155771
0.13317290
-0.08301760
-0.01753364
-0.12228417
-0.34274182
0.17015384
0.07468860
-0.23172140
0.06158759
-0.35658917
0.14611456
-0.07193304
0.24487360
0.12053186
-0.07493365
-0.35029551
0.10534218
-0.29590496
-0.03635990
0.08845488
-0.14409800
0.25301501
-0.21064530
0.11534379
0.09646200
0.13249610
-0.16204055
0.08027329
-0.00885873
-0.14782879
-0.00296966
-0.07928307
0.33120653
-0.02570570
0.16920744
-0.00070795
0.18310383
0.30347243
-0.09363787
0.05759186
-0.20334870
0.22195509
0.08372785
0.32070893
0.07219777
0.00985208
0.01359652
0.05087982
0.26512372
-0.01231540
-0.25380617
-0.14955425
-0.00450325
-0.04042720
0.02466354
-0.31320754
0.21538112
-0.06599928
-0.10811532
-0.03122727
-0.11191377
-0.14177740
0.16701306
0.02636502
-0.06964527
0.03469887
0.22128831
-0.04533497
-0.29481435
-0.19607815
0.06873368
0.21404363
0.03045157
-0.15825313
0.16948378
0.15340924
-0.18354076
0.16754386
0.16742475
-0.00504563
0.18365481
-0.25956523
0.08202327
-0.10305350
-0.28166184
0.36071205
0.01286464
0.08878408
0.23011717
-0.07915644
0.04423688
-0.19252217
0.28560513
-0.23163824
0.09815200
0.12025837
-0.07326452
-0.23032968
0.16031221
0.14899106
-0.16325797
-0.05220443
0.04592272
-0.01159754
0.08323678
-0.11242297
-0.20624138
0.02122390
0.27893957
0.05422913
-0.17568925
0.10074534
0.04545374
0.15475574
0.02466941
0.03375453
0.18071705
-0.22088522
0.04879597
0.14874586
-0.17517340
-0.02873926
0.12249500
0.03901784
0.29798356
0.15148579
-0.05684589
-0.04052024
-0.27313733
-0.13455187
-0.27659217
0.26611486
0.11019096
0.07073364
-0.09724133
-0.07859534
-0.03209044
0.09051829
0.29912898
-0.14137092
-0.41594100
-0.07853293
-0.27013403
0.09470972
0.12713999
0.00944637
-0.01709427
-0.18890749
-0.07632323
-0.10277567
0.10349756
-0.09096743
0.18649538
-0.04428490
0.09189629
0.07270963
-0.30431446
0.24360295
-0.08949121
-0.22471669
0.11892550
0.09582155
0.02234780
-0.23056461
-0.23203883
-0.28087649
-0.02164165
-0.28717369
0.15364088
0.05788327
-0.06164642
-0.03792768
0.30016887
-0.21216720
-0.04415399
-0.09113365
-0.02897919
0.01946252
0.05754300
0.02794059
0.10956526
-0.23070025
-0.18046810
-0.00952410
0.25473052
0.28986987
-0.07883907
0.02614038
-0.30936354
-0.04079514
0.17987941
-0.03686947
0.10506121
-0.31424603
-0.16082042
0.05106527
-0.30413571
-0.38058880
-0.06424780
-0.00940560
-0.17925233
-0.00790565
-0.09478092
0.09021587
0.02275596
-0.25109354
-0.17098597
0.30564088
0.13636616
0.20501335
-0.40888125
0.16708079
0.28664801
0.00582315
-0.07231154
0.00438709
0.30110708
-0.04404052
-0.04804640
-0.26522437
0.11556844
0.24428013
0.04585567
-0.07195229
-0.07340722
-0.18387997
0.04899866
0.06032165
-0.24299391
0.21371536
-0.08493663
-0.10834974
0.14022139
0.15206011
-0.04816715
-0.02922954
-0.16722630
0.00799176
-0.33390787
0.20929497
0.08930832
0.28225443
-0.37316385
0.02130895
0.01211465
0.08746216
-0.10083830
0.25216106
-0.12079509
-0.34761831
-0.00635823
-0.20641391
0.14434144
-0.40737286
-0.21856830
0.01375855
-0.03249234
-0.27712792
-0.48236001
0.00654378
-0.00252993
0.13317952
0.04231849
0.05522145
-0.11316358
-0.13063961
0.34598467
-0.07726496
-0.06558879
-0.13171661
-0.43963096
-0.16572912
0.26615632
-0.05216745
-0.13422287
-0.12353109
-0.05768039
0.00265084
-0.02517084
0.09072054
-0.00830405
0.00736777
-0.12928821
-0.04465820
-0.23963133
0.04049984
-0.03799312
0.30272806
0.13974002
0.09033842
-0.04959679
-0.38211805
0.16966836
0.21650723
-0.05228792
0.13701478
0.26963836
-0.02358871
0.02315776
0.12730245
0.21437873
-0.18170194
-0.12677924
-0.10122367
0.09054615
-0.03029297
-0.37108377
0.06542355
-0.04023121
0.36927372
0.08682142
0.08704223
0.16093850
-0.30576798
-0.14155129
-0.06486333
-0.12258525
-0.28049791
-0.10794776
0.13798200
0.09279387
0.13215613
0.13273385
0.03253770
-0.04473022
0.03353954
-0.00664809
-0.08252553
0.05970807
0.13830432
-0.17177871
-0.23718163
-0.24786097
-0.03571885
-0.28313756
0.15570495
0.11217415
0.24145028
-0.05863299
0.14013734
0.17752476
-0.08589553
0.07947348
-0.17409173
-0.03810817
-0.02384548
-0.36889035
-0.19418019
0.16848218
0.04071679
-0.06393628
0.23930958
0.04969810
0.13432012
0.03586962
-0.13342014
-0.06837733
0.22699456
-0.33700332
-0.15900271
-0.00320446
0.17336598
0.03976082
-0.09052208
-0.18693729
-0.06145202
-0.16861244
0.10482519
0.11891801
-0.02669296
0.04127969
0.04220933
0.02401795
0.12577258
-0.01338837
0.33914408
0.11246827
0.09214997
-0.06950763
0.23046313
-0.12476522
-0.16436478
-0.37315494
0.07129323
0.11281349
-0.21027119
-0.12632117
-0.20292613
-0.08408063
-0.29084638
0.10983104
-0.02393668
-0.01264306
-0.21452656
0.21115603
0.08340921
0.06882099
0.13699640
-0.17487116
-0.08909410
0.04102558
-0.12017909
0.16293991
-0.15539312
0.08656270
-0.16445063
-0.18018067
0.03502889
0.04607086
-0.20253685
0.21408790
-0.25133383
0.02940137
0.20190144
-0.07148299
0.13439167
-0.15522119
0.03042473
-0.22853835
-0.04706703
-0.12541766
0.13141941
-0.10189851
0.08491824
-0.06265525
-0.23865955
-0.01593304
0.21820205
0.25987986
-0.04025224
0.22861415
0.02976372
-0.23600799
0.10438948
-0.04641262
0.09652439
0.21067606
0.13903539
0.22565970
-0.11958102
-0.09900863
-0.04519323
-0.08694524
-0.06492769
0.16746870
-0.12234028
-0.01235346
-0.06143296
-0.12090509
-0.15052015
-0.16489269
-0.16661662
-0.00341092
0.13408738
0.21210183
0.05012995
-0.01232893
0.28876281
-0.20284052
-0.03826256
0.12603176
-0.35568532
-0.38508013
0.21159223
-0.04609380
0.11369719
-0.07636585
-0.00672161
-0.01695416
0.17311497
0.19291183
-0.02432296
-0.10244015
-0.02716435
0.09702864
-0.24873123
-0.00596366
0.06017160
0.15724060
0.02132494
0.01945258
-0.05750242
-0.23000214
-0.25720605
0.04880475
-0.01163188
-0.32996926
-0.07411974
-0.23858358
-0.10582168
0.16525178
-0.04257151
0.00756524
0.21384794
-0.07520635
-0.28636965
-0.09365959
-0.13643017
-0.12244342
-0.27575159
-0.10286709
0.07083737
-0.14298612
0.02376276
-0.05496928
-0.09553432
-0.17509577
0.17999990
-0.06530471
-0.00443583
0.02892737
0.08164866
0.09798361
-0.10010085
0.13336684
-0.01416876
0.01471284
-0.16546649
-0.04749886
0.15291364
0.17451209
0.01515790
-0.16697627
0.03978628
-0.14292102
0.05443216
-0.07610825
-0.02895668
-0.08205963
-0.14712355
0.08029137
-0.08052439
0.16382806
0.06929193
-0.14765413
-0.04298479
0.22748348
0.32599995
0.02999442
-0.30906737
0.06710034
-0.08126251
-0.05101611
0.33476001
-0.26350820
-0.06176288
-0.20110974
0.24772145
0.08406097
-0.00520308
0.17399658
-0.23779400
-0.10797014
-0.16979878
-0.08600718
0.34566519
0.02513794
0.05692238
-0.00634517
0.25605139
0.12076595
0.10579785
-0.13631934
-0.03551050
-0.13837689
0.06355292
0.15369648
0.08974086
-0.04474078
0.13638841
-0.05616500
-0.30463743
0.04681376
-0.04909746
0.14919652
0.16365592
-0.07520935
0.14266539
0.24355400
0.05899712
-0.09404998
-0.52037793
-0.24232055
-0.17800894
0.11495817
-0.13298638
-0.09205496
-0.08603469
0.23298621
-0.34669048
0.37405995
-0.02265047
-0.37195861
-0.10287339
0.10879691
0.07273482
-0.00610248
-0.05525533
0.12636179
-0.17433122
0.16010891
0.08612380
0.25992602
0.05455878
-0.41241777
-0.34399965
0.35098252
0.18548545
-0.05856257
-0.25405961
0.13144149
0.11168943
0.00832614
0.02075815
0.10868972
0.11336636
0.27942619
-0.19172011
-0.07074659
0.21557602
0.11432767
0.43770432
0.12906393
0.11365357
-0.10063288
-0.30180979
0.02047394
-0.08974376
-0.01553300
0.30892476
-0.30138299
-0.04892145
-0.11283576
-0.03059887
-0.29958379
0.13567308
-0.15943243
0.30754167
0.28297833
0.16777959
-0.19012852
0.18627462
0.08236634
-0.20142527
-0.07658312
-0.05973103
0.42315301
-0.04207667
0.20228449
0.01225563
-0.13656811
-0.11112621
-0.24195056
0.05411693
0.19086400
0.21665217
0.21670437
0.12041595
-0.13446726
-0.34766352
-0.05181608
0.04589231
-0.17123042
-0.42132133
0.15600275
0.45320567
-0.00235552
-0.32647637
0.24880052
-0.47508183
-0.19731234
-0.07266051
-0.16601633
-0.27023530
0.15468027
0.24352732
-0.11766803
-0.01940130
-0.07818691
-0.36281407
-0.02874792
-0.07993244
-0.07637389
0.57333112
0.05715377
0.14309601
-0.38305908
-0.11659454
0.22274171
-0.02703442
0.23870617
-0.19243945
0.06939802
-0.23886077
0.24074908
-0.37217435
0.10581470
0.03317041
-0.09332719
-0.00341056
0.06744240
0.23641823
-0.04808393
0.14320953
0.20033920
-0.06252391
0.25094062
0.04924720
0.13841675
0.15034617
-0.07238320
0.06823158
-0.13657637
-0.06563679
0.12960602
0.52582955
0.12262184
-0.12441507
0.02506153
-0.16137736
-0.12295908
-0.19480857
0.14109762
-0.11964996
0.14191109
-0.09172057
-0.01255834
-0.08337643
0.02823291
0.11453217
-0.05410741
-0.09027209
-0.02752158
-0.18479921
-0.10213464
-0.60926437
-0.33940408
0.29715797
-0.00515748
-0.31861565
-0.13367224
-0.03650243
-0.12590964
0.03195755
0.09139740
-0.02620183
0.11322058
-0.53743595
-0.39463934
0.10763484
-0.17648771
-0.03648502
0.32539502
0.24983661
-0.16232616
0.23949885
-0.21121752
0.09757312
0.35425627
-0.10480836
0.22504543
0.13540700
-0.24688052
0.04076125
-0.26586115
-0.17553319
0.08269463
-0.27468875
0.55048448
0.10848986
-0.39991662
-0.19748656
-0.02419782
0.09937105
0.01223110
-0.14703950
-0.18577453
-0.17180859
-0.20665403
0.04764143
0.24565932
-0.10745499
-0.11903451
-0.54657042
-0.22585531
0.26955062
0.41246554
0.38729689
-0.23765714
0.19767568
-0.24743675
0.13453047
-0.01917273
0.15700363
-0.25691184
0.13910203
0.21726561
-0.35115424
0.05642442
-0.14999367
-0.07883760
0.09509493
0.28293580
-0.18808194
0.05014822
-0.04332253
-0.18655892
0.33054250
-0.05824080
0.04503493
-0.13095808
-0.21695276
-0.00641049
0.27719760
0.00064457
-0.09067462
0.11151842
-0.06082726
-0.06403554
-0.49375769
0.09345914
-0.25432184
0.16457677
-0.04145385
0.05603510
-0.07981074
0.14338870
0.20637845
0.19465511
-0.15918590
0.09308627
-0.01191226
-0.24286781
0.07861607
-0.03954888
0.14710592
0.00803135
-0.10124906
-0.17966385
0.22424366
0.07944573
-0.00128936
0.26409525
0.04029826
-0.09724271
0.06786371
-0.09011275
-0.03070063
-0.39896235
-0.20878853
0.20176844
0.10499656
-0.23195879
-0.01097493
0.12338153
0.13716651
0.10863847
-0.13798806
0.44884330
-0.09477762
0.02012156
-0.27470788
0.14001374
-0.12944064
0.21897215
0.13075191
-0.22405478
0.27592367
0.02837946
-0.27298045
-0.13966855
0.05885492
-0.14637478
-0.28814328
0.00450546
0.01812895
0.35156929
-0.08677571
0.03205090
-0.17749423
-0.10881107
-0.19320314
0.26068413
-0.17409186
0.08684943
-0.03154847
0.01941271
-0.35546356
0.01191818
0.10094218
-0.01103935
0.01689682
-0.13234177
0.18951778
0.41887012
-0.13091210
-0.00715037
0.01454022
0.15792872
0.28287607
0.03170916
-0.03200818
-0.16755690
0.02796267
-0.08776880
0.20680906
-0.30122340
-0.22730489
-0.17559505
0.05668192
0.11430987
0.08466098
-0.22301865
0.23977952
-0.07377167
0.07331599
-0.07507688
0.20255764
0.19133006
0.06339280
0.11676495
-0.04926265
-0.06969695
-0.01974277
-0.04017866
-0.06106157
-0.01994116
-0.21780080
-0.01980741
-0.10592125
0.09237392
0.01654216
-0.24443865
0.00625505
-0.07219391
-0.12511986
-0.24287710
0.19749455
-0.01921098
-0.20699094
-0.15242919
0.04740818
-0.15445256
0.01928537
0.16950150
0.03388552
0.09700087
-0.27871451
-0.12269182
-0.08751212
-0.06634422
-0.35789287
-0.02076326
0.24142969
0.31490052
0.03248493
-0.12151924
0.19011469
0.01294454
-0.01148395
-0.05323844
-0.26352388
-0.04283654
-0.24079572
-0.18003716
-0.07414056
0.09430708
0.02140023
0.03428444
0.12225375
-0.07135079
0.06147446
-0.02702577
-0.00997895
0.20039669
-0.41641590
-0.18616949
-0.36853585
0.17175095
-0.00314056
-0.25816214
-0.07317413
-0.12526879
-0.07193109
-0.28792846
0.01140230
0.14002781
0.03038027
-0.03264816
-0.47868231
-0.02817200
-0.32919648
-0.43481952
-0.01896861
0.17733081
-0.35051909
0.08378041
-0.23966743
0.31694910
0.27321875
0.16055964
-0.08000453
0.01374837
-0.44681770
-0.18894501
0.08901839
0.16847321
-0.04678630
-0.00714441
-0.10928284
-0.15921754
0.00084115
-0.04521506
-0.01546330
0.08555121
0.07091218
0.08970603
0.08127326
0.02366049
0.07565658
0.04836999
0.12027419
-0.01837734
-0.24131970
0.04198391
0.11373047
-0.48701066
-0.11062551
0.21673678
-0.13817787
-0.04977198
-0.13789849
0.09495714
-0.06933719
-0.18262352
-0.05964218
0.03457520
0.15225495
-0.25717056
0.09867024
-0.25450709
0.17253010
-0.08855008
0.18471847
-0.39152041
0.01508668
-0.12246772
0.08468921
0.09513334
-0.04614941
-0.14867319
0.01385743
-0.03554520
-0.12123743
0.26668018
-0.45387536
-0.02689378
0.07492844
0.12443618
0.21981001
-0.15480068
-0.10184322
0.15810215
-0.02834152
0.09047455
-0.11345961
0.04155426
0.09828807
-0.57704109
0.13477772
0.11121751
0.12027302
-0.15128057
-0.26755854
0.19784808
-0.09668365
-0.22442672
-0.49394393
-0.16231865
-0.14500421
-0.13861950
0.05237651
-0.14308912
-0.04918869
0.19890951
0.19516474
0.01820326
-0.04491608
0.12806174
0.00205780
-0.05374501
0.29430220
-0.02715654
0.05035605
0.03562953
-0.11955151
-0.09953754
-0.24830243
0.02622198
-0.13178556
0.07332712
-0.03515769
0.11503824
-0.02906528
-0.04254546
0.03541140
0.16968778
-0.12140190
0.18950011
-0.02981683
-0.10403625
-0.15828152
-0.06351793
0.07264310
0.02844118
0.02354776
-0.16321462
0.00671080
-0.09313261
0.26454562
-0.25587270
-0.29772666
0.14312592
0.27310923
-0.01996181
0.05159464
0.08590600
0.14252916
-0.02318275
0.02218008
-0.14952224
0.14503361
0.29168797
-0.17695197
0.06961261
0.21496570
0.08034462
0.06307194
-0.02195941
0.11119819
0.22255136
-0.08956091
-0.07503802
-0.11197406
-0.33776537
0.00892554
0.01890948
0.17256747
-0.09244195
0.14137717
0.05139091
-0.36178637
-0.14055254
0.14048657
0.13051437
0.16907306
0.16776524
-0.02686395
-0.07996615
-0.13420741
-0.06899843
0.21071158
0.01528255
-0.16831255
-0.21696122
0.04417891
0.14992136
-0.09056603
0.04628352
0.07480014
-0.05393674
-0.17405015
-0.31761682
-0.12833102
0.14409588
-0.27779689
-0.19008780
0.15422963
-0.16337158
-0.07735045
-0.19046582
-0.05603583
-0.05330631
0.07990373
0.01375196
0.01426340
0.06859397
0.00156587
-0.06128141
-0.12350184
-0.05983520
-0.28865063
-0.15859966
-0.16017775
-0.22397836
-0.03962983
0.18552880
-0.14916553
-0.03301127
0.04988940
-0.23807789
-0.14510483
0.21345660
-0.01814600
0.18159464
0.00290340
-0.05300959
-0.21076180
0.10259061
0.04867629
-0.16737977
-0.03457417
-0.05007134
0.06081426
0.06814241
-0.15779203
-0.01562372
-0.03225697
0.01423311
-0.07355665
-0.07090897
0.08064586
-0.31431791
-0.28388426
0.07816272
-0.13142589
-0.15315987
0.02698679
0.07826464
0.11770211
0.37501723
0.13260368
-0.26726559
0.21821430
0.07921786
0.24479201
0.14056322
-0.23113552
-0.00951957
-0.50598103
-0.44148517
-0.05867148
-0.06322739
0.19927628
-0.23897693
0.28216559
0.03310131
0.05852284
0.09992072
0.10810704
0.52421319
-0.37648293
0.13419493
0.08431402
0.54609352
0.10540548
0.30327290
-0.08632203
-0.29179341
-0.21807888
-0.15401970
0.26805979
0.25112623
0.08786987
-0.01580207
-0.07932034
-0.40535033
0.57736933
-0.18499523
0.00626822
-0.11651485
-0.20647714
-0.12927356
-0.06187119
-0.26165587
0.12626423
-0.08125258
0.01874626
0.01555617
0.02894304
0.00743052
-0.26207367
-0.17545997
-0.32101649
0.08737610
0.43092233
0.30656475
0.14241967
0.34312129
-0.22136867
-0.36814544
0.37073186
-0.25219253
0.16735683
-0.26361334
0.15083982
0.13321507
-0.19709222
-0.06330141
0.21321249
-0.05659176
0.22383775
-0.05399057
-0.36957738
-0.15066819
0.08761524
-0.27996778
0.02397255
0.27748498
-0.33236566
-0.20874768
0.37346682
0.01535674
0.11529361
0.11047163
-0.22011681
0.08276201
-0.06508992
0.04851722
-0.21404032
-0.05949405
-0.04422985
-0.04379706
-0.03951370
-0.14063981
0.09104736
-0.27669692
-0.35857290
0.43696928
0.15483151
0.03806169
-0.16822024
0.16137333
0.34944749
-0.10457378
0.09004321
-0.32279906
-0.30626330
-0.05130344
0.19563839
0.23202901
0.27464581
-0.13824783
0.31718415
0.31554031
0.11253335
-0.10478241
-0.05810660
0.36076927
0.13345401
0.21022487
0.25105029
0.06903934
0.16260810
0.09999648
0.00108391
0.08282088
0.09792590
-0.08636504
0.02521475
0.33009142
0.03859848
-0.02548112
-0.24227083
-0.11486693
0.14019448
0.13394894
0.09023786
-0.08135029
0.09194768
0.00052303
-0.00172785
0.19006735
0.14941494
0.01149761
0.29801282
0.17677847
-0.00871828
-0.08785424
0.24134350
0.49669498
-0.03075425
-0.03643442
-0.15409262
-0.02899126
0.11134675
0.26676372
0.29424024
0.23678379
-0.09408614
0.17652000
0.06119796
0.17640026
0.04952236
-0.06527953
0.04415745
-0.08785027
-0.01703008
0.10308558
0.04912130
-0.16850103
0.17756443
-0.13165556
0.01217669
0.10987151
0.10825424
-0.12743345
-0.05813211
-0.10804075
0.22925875
0.36220983
0.11483083
0.13341182
-0.14842969
0.14269635
0.36491770
0.03844707
0.19626415
-0.02522634
0.09351680
-0.12650737
0.09429447
0.14037569
0.17029856
-0.14075740
0.08670261
-0.07071979
0.08507474
0.08466605
-0.04546808
0.24604870
-0.10271022
0.12280067
-0.01293036
0.33284047
-0.10872494
0.01017106
0.26357144
0.11553098
0.24810715
-0.04895877
0.21828291
-0.03021348
0.21275267
-0.08113513
-0.04860421
0.02888081
0.06957456
0.30715707
-0.17739202
-0.11018106
-0.10882585
-0.07990308
-0.07710119
0.19805102
0.18465917
-0.20758274
0.28583500
0.07417587
-0.02901146
0.02899917
0.19876203
0.21148765
0.50135183
-0.05588492
-0.02414432
0.26875561
-0.10935720
-0.01275136
0.21213120
0.24758555
-0.05916457
-0.00839975
0.14581944
-0.04256224
0.00575271
-0.40537548
0.04873026
0.04572213
-0.14309785
0.25934663
-0.11665780
0.04142074
-0.07687479
-0.23177785
0.06286907
-0.20354621
0.33097699
0.08092046
0.09066743
0.19121613
0.18232420
0.00724139
-0.06391290
0.25471142
-0.24538961
0.08883618
0.14383955
-0.04002265
-0.10386687
0.16660413
-0.11294191
-0.09825165
0.44981021
0.20131505
-0.15500806
0.22932726
0.15230969
0.05541022
0.12090745
-0.00022917
-0.00240337
0.12272636
0.21617956
0.13070475
0.54446787
-0.17482787
0.16260870
-0.09419985
0.08469342
0.07230987
-0.20000601
0.38604432
0.04959311
0.15377672
0.27443987
-0.30941570
-0.17969653
0.03636625
-0.09193687
0.17088541
0.16540919
-0.05622811
0.27945229
-0.02138183
0.00932447
-0.13231486
-0.02355348
-0.05208867
0.01236482
-0.05480677
0.01338818
0.25818941
0.13168308
-0.21450327
0.10390905
-0.05775471
0.10708003
-0.22784823
0.25040570
-0.15317819
0.45193636
-0.12427149
-0.00030618
-0.27540559
-0.35114712
0.25261334
-0.18595773
0.01483380
0.04391218
0.12819110
-0.02045166
0.63589007
-0.18993393
0.07667551
0.34236053
-0.17185260
-0.01017751
-0.18466154
-0.16644156
0.16835037
0.06514888
-0.30821538
0.42637664
-0.05102727
-0.06861679
-0.08747748
0.08740713
0.26015180
-0.06226809
0.18688157
-0.22640862
0.10538518
-0.11537945
-0.14650385
0.09809896
-0.17858638
0.12662423
0.24137759
-0.04494051
-0.08254726
0.12321620
0.11047093
0.14065573
0.04994838
0.07617666
0.26863125
0.23466709
0.09873252
0.10838601
0.00456316
0.17530668
-0.16875584
-0.02145536
-0.22378166
-0.22577281
0.14217603
0.01016333
-0.20260406
0.25231913
0.21470797
0.25524217
0.03778239
-0.62377673
-0.10467803
-0.07813947
0.21952392
0.02189931
-0.15321270
0.00041993
0.00448764
0.03909179
-0.08797543
0.19652815
0.12748870
-0.18204206
0.32654756
-0.11458978
0.03887671
-0.04667467
0.03138630
-0.15621677
-0.11522869
-0.22020556
0.03228920
0.00004525
-0.02692558
0.07136098
-0.28570569
0.02512841
0.08919603
0.26850170
0.14330363
-0.00242683
0.15599374
-0.10280053
-0.34093726
0.00227444
0.33929592
-0.12349204
-0.02608695
-0.13522013
-0.30726179
-0.09530996
0.03942514
0.05520568
0.22249740
-0.31785834
0.06702021
-0.13333558
0.21838829
-0.12249278
0.14684613
0.00741206
-0.17307222
-0.43211704
-0.38617042
0.00999777
0.07482538
-0.08320509
0.08604100
0.09987701
0.04814845
0.14768519
0.02859673
0.31980592
-0.02924242
-0.13975726
-0.32605174
0.02499388
0.00637115
0.24688436
-0.35553899
0.06880678
0.06467611
0.04093004
-0.19503769
-0.05716739
0.21663927
-0.13639544
0.25302958
-0.35840344
-0.00558337
0.24451046
0.17513901
-0.04168879
-0.12034931
-0.18052971
0.24395829
-0.13857523
0.04039503
-0.00601095
0.18414403
-0.24519503
0.27973723
0.17208497
0.28680593
0.04418547
-0.10101587
-0.10070017
0.09133478
-0.04666131
0.18744458
-0.08600172
-0.19933975
0.13208666
-0.15539517
-0.00115595
-0.22676182
0.27299115
0.07488511
-0.04650107
-0.33671623
0.06021329
0.29604897
-0.20483497
0.15902945
-0.15333240
-0.20584524
0.29286581
0.04510416
0.08611028
-0.48199776
0.16149203
-0.28085956
-0.47800067
-0.10734252
-0.28748035
0.09464421
-0.02248142
-0.22031502
-0.35181728
0.24534942
-0.19109759
-0.13322383
0.03845106
-0.01456149
0.25775117
0.12264135
-0.24941511
-0.10034025
-0.06754722
0.12154749
-0.00883787
-0.11691029
0.20796266
-0.03659600
-0.04969343
-0.16861273
0.26663047
-0.29680836
-0.03307573
0.35534585
-0.46028292
-0.08778521
0.06426316
0.06799514
0.18437794
0.15222123
0.04867005
-0.20771660
0.10755961
-0.34313107
-0.14104892
-0.01279311
0.14686267
-0.08642492
0.13012983
0.13830251
0.42862090
0.04233555
0.14890629
-0.19412796
-0.32670128
-0.22322108
-0.39306119
0.25911352
-0.18106194
-0.02118573
-0.15300430
0.17388584
-0.32567221
-0.16948639
0.07165322
0.08516868
-0.18759868
-0.02239285
0.22452053
0.03706601
-0.03236303
-0.13090354
-0.02031776
-0.04739883
0.19797790
0.07525728
-0.14866017
-0.14137432
0.19943409
-0.03513861
-0.00602982
-0.27040285
-0.23101626
-0.18454048
-0.39148125
-0.05825032
0.02689425
-0.27864692
-0.21294564
-0.04535178
-0.32987601
0.03564041
0.04083667
-0.04488186
-0.00895242
-0.03005344
-0.08618912
0.29836425
-0.20674337
-0.19875786
-0.02339295
0.01109803
-0.10618952
0.21308739
0.06090004
0.02024087
-0.37096295
0.11517045
-0.44260287
-0.21578459
-0.26074275
0.11611114
-0.32760066
-0.03346007
0.27628541
-0.11469920
-0.06809895
-0.20226280
0.20910098
0.02408479
0.07450347
-0.56815904
0.20319059
0.04685118
-0.02508193
-0.24784285
-0.31421193
0.05503777
0.21257718
-0.26253071
0.08233243
0.17458805
0.04213580
0.04622952
-0.26190883
0.14915138
0.24904928
-0.24907389
-0.33318147
0.21592934
-0.35489365
0.03462032
-0.15073112
-0.27967060
0.19430014
-0.07414268
0.11959380
0.01658342
-0.36658278
-0.14645784
-0.00489615
-0.18692280
0.15593623
-0.28987756
0.10058129
-0.26167762
-0.03502457
0.06051766
-0.10242698
-0.33860770
0.06775016
-0.04570514
-0.21759167
0.16289689
0.04291883
-0.20100154
-0.14999059
0.06599712
-0.08320812
0.21246769
-0.35748991
-0.10581459
-0.01088760
0.00664374
-0.24942905
-0.33662742
-0.20270909
-0.04883369
-0.12029981
-0.19230452
0.12461318
-0.19212338
-0.05043034
0.06352412
0.08592587
-0.17718011
-0.04291372
-0.36554608
-0.12050254
-0.11239169
-0.20923729
0.12594980
0.29630733
0.08190256
-0.18283263
-0.09332966
-0.15698150
0.22905582
-0.03507176
0.01218799
-0.21752357
-0.26631483
0.20882829
0.16499865
-0.07788382
0.15451060
-0.02635425
-0.19410557
-0.08396717
0.03540571
0.02281871
-0.23332013
-0.01924762
-0.04417399
-0.02963596
0.00153888
0.14018998
0.07387408
-0.11830855
0.36177757
-0.27578363
0.00887493
0.06655226
-0.19750898
-0.27801311
0.02129919
0.24702303
0.06254596
0.28022838
-0.01976163
0.08067891
0.01687391
-0.30213836
0.16021660
-0.00092467
-0.19482064
-0.08974204
0.32087773
0.00727287
-0.06670460
-0.12899551
0.01303628
0.00281005
-0.24583137
0.01649323
0.13561429
0.13213654
-0.29174000
-0.07362767
0.14571649
-0.13890058
-0.03574611
0.04426774
-0.23427184
-0.00883811
-0.19966143
0.12721337
0.13987876
-0.23856550
