0.01526267
-0.08820456
0.07105310
0.06939048
-0.07443713
0.10136161
0.14996915
0.04822294
0.05356809
-0.04300438
-0.12640035
-0.02913712
-0.11634729
-0.04095821
-0.04008460
0.04212356
-0.11451236
-0.06216428
-0.12155481
0.04385816
-0.05234591
-0.23723163
0.17873201
-0.05751009
-0.03011790
-0.04025127
-0.05845252
-0.11883448
-0.05852958
0.10659251
-0.08492862
-0.23256169
0.04904449
-0.15771149
0.01426260
0.20748159
0.04073069
-0.03101184
0.09298377
-0.28555992
-0.11855219
0.00402499
-0.03713005
-0.11004271
-0.10330380
0.01615074
0.07561550
-0.06589790
-0.03261261
-0.08384904
0.07626701
0.03415105
-0.02777638
-0.03159000
0.01198018
-0.11229823
-0.04388095
-0.12721367
0.07306892
-0.00379428
0.08882008
-0.00085245
-0.00946278
0.06431871
0.03840355
0.10106280
-0.07526246
-0.11091348
0.18712881
0.02824594
0.00660167
-0.09672298
-0.15907712
0.01955473
-0.12034471
-0.35989368
-0.03095364
0.16832657
-0.04003669
0.16478975
-0.11168911
0.05024130
-0.07444255
-0.01468400
-0.00589259
0.00849515
-0.02516285
0.03354979
-0.09767421
-0.10265438
0.13474038
-0.02274075
0.07913601
0.11931053
0.00772310
0.08752935
0.03621249
0.04949090
-0.09778544
0.00458781
-0.15004899
0.04057297
0.08007447
-0.05264817
-0.46076187
0.14514507
0.08879530
0.09337416
-0.01959079
0.03027749
-0.08621190
-0.04128903
-0.02144815
-0.01613770
-0.10795600
-0.21483715
-0.03346295
-0.08255699
-0.10425426
0.02076577
0.04566794
-0.15361208
0.10038112
0.01767071
-0.01320134
0.00141759
0.01965049
-0.04270985
