0.16225713
-0.13232961
-0.11272634
0.05521180
0.21912055
-0.14372343
-0.15818968
-0.01538290
0.14691179
0.14570411
0.16570291
-0.09318178
0.14022584
0.00459965
0.07046785
-0.04093131
-0.05545341
-0.20190427
0.11327893
-0.10937034
0.16986470
-0.14053428
-0.03117193
0.16181603
-0.09865414
0.18353765
-0.18783632
0.01464069
0.13882093
-0.24757309
-0.22785746
-0.24654783
-0.27010164
0.13142380
0.13230367
0.08308200
0.11749207
-0.13331309
-0.05240652
-0.21894304
0.05831897
-0.21046415
-0.03056840
-0.06377233
-0.18330540
-0.14297332
0.20852764
-0.14472173
0.29246837
-0.18701997
0.11895694
-0.39554444
0.03936894
0.02874400
-0.04793120
0.01144344
-0.35704347
-0.09893446
0.15460707
-0.07540765
-0.39963689
-0.34005702
0.10736964
0.08801740
0.09508234
0.09474986
0.07191065
0.11061577
-0.37903023
-0.22315732
0.07563873
-0.26901057
0.11813397
0.13556951
0.11725768
0.14051385
0.16902059
-0.01377265
-0.24714929
-0.29001671
0.06855856
0.04757982
0.00618872
0.10930983
0.10038550
-0.35181013
-0.09677078
-0.31199199
0.03192362
-0.00389515
-0.00600254
-0.11641489
0.11581760
0.00173534
0.22856332
-0.01876396
0.20395294
-0.19768845
-0.09688213
-0.06423026
0.20897935
0.03035376
0.14789505
-0.00490199
0.18332745
-0.01235607
0.14548191
0.21407144
-0.34180439
0.01435946
-0.16371138
0.16909625
-0.26926658
-0.24413978
-0.25887299
-0.23869027
-0.16238156
-0.25719717
0.17765889
0.21858771
0.01830181
-0.07707796
-0.10257678
0.11444017
-0.19288169
0.16862223
-0.12758529
-0.15164217
-0.18855464
-0.02018242
0.19734472
0.26613748
-0.12656315
-0.17312716
-0.15224592
-0.23641093
-0.09628322
-0.21521522
0.22495395
0.25551000
-0.13557518
-0.24566229
0.09761330
-0.16514030
0.22324859
-0.07436582
0.28468859
0.10906396
-0.19628559
-0.17925657
-0.02633615
0.19679736
0.19459979
-0.20298727
-0.22265838
-0.21301404
0.05345158
-0.16029011
0.03042893
-0.06151115
0.14395112
0.26703814
-0.22502351
-0.12385977
-0.15551640
-0.19936341
-0.11504031
-0.24298461
0.11772292
0.23066705
-0.11380880
-0.11969822
-0.24250148
0.18147911
0.02149883
0.19988529
0.18915518
-0.02054971
-0.21714528
-0.16697198
-0.12805228
-0.06013295
-0.00607183
-0.11414279
-0.08340086
0.03835431
0.20311172
-0.09219071
0.31003651
-0.14437498
-0.20058149
-0.20596218
0.15456297
0.12120322
0.12826364
0.16712955
-0.24999322
0.11516130
-0.21105611
-0.21382375
-0.10255583
0.35876119
0.10649745
0.15667182
-0.00048029
0.24356055
0.11758377
0.03023642
-0.14460519
-0.10781547
0.12133324
0.13781501
-0.15883796
-0.07915815
-0.08690323
-0.16622442
-0.26314306
-0.20961404
-0.00830384
-0.13947277
-0.26158944
-0.43797970
0.10996842
0.09259943
0.12289794
0.14114924
0.12530023
0.12647887
-0.30008233
-0.30152684
0.09154437
-0.03759149
0.09208406
-0.14082743
0.10285626
0.02043820
-0.21697667
0.13751253
-0.28441715
-0.02544208
0.11131716
0.15813725
-0.02081515
-0.10856863
-0.03918667
0.41715336
0.00541175
0.03624937
0.24463281
0.19943404
0.15913811
0.19204314
-0.12421894
-0.17335211
-0.24363989
-0.24848840
-0.15937695
-0.30027407
0.18127465
0.19616029
-0.09047840
0.19981684
-0.13473806
0.25996041
0.02522133
-0.02236538
0.20462233
-0.06502689
0.17897905
-0.10971518
0.03414403
0.06689241
-0.18663816
-0.17445545
-0.35125920
-0.25828931
-0.29780850
0.01061967
-0.10665641
0.08732183
-0.06970663
0.02155287
-0.25486669
-0.06636184
-0.09070994
-0.04537717
-0.19556442
-0.08128618
0.29740378
0.33016726
0.11901525
-0.11213642
0.12468089
-0.15829812
0.15243930
-0.13387810
0.01206996
-0.21535674
0.24219319
-0.17999989
0.18546906
0.12921600
0.11237729
-0.03374465
-0.12633152
-0.07934347
0.24236007
-0.09604486
-0.06016272
0.06744987
-0.24376985
-0.09506040
-0.07441650
0.03795958
0.16174024
0.28319684
-0.03442322
0.08213348
-0.15183413
-0.09329611
0.17850667
-0.23221451
-0.07899462
-0.03916618
-0.02612642
-0.05026221
-0.06889455
0.05817160
0.22891980
0.14641266
0.23165545
0.30466419
-0.13482873
-0.11137425
-0.20132878
-0.20570397
-0.15571418
-0.22861660
-0.00560789
0.31643480
0.10220566
-0.19745481
0.05042314
-0.11837441
0.07004917
0.02172580
0.10137887
0.17887679
-0.40382710
0.14593251
0.01385337
-0.42712340
0.13817501
0.11151695
0.07441760
0.13237210
0.14239530
0.12184878
-0.25607431
-0.01879436
0.15159306
0.16719182
0.07631982
0.04477918
-0.26756683
-0.15238936
0.10215040
-0.17017515
0.09800664
0.04744235
0.00913306
0.08413468
-0.01026695
0.00155568
-0.25010327
-0.02524582
-0.27903858
-0.13089171
-0.37391797
-0.27352062
0.13738647
-0.30431476
0.12236052
0.14596410
-0.08137990
0.14664409
-0.16207147
0.05656434
0.19007502
-0.15933511
0.05387702
0.15453850
0.04434960
-0.14455394
-0.23089150
-0.20311233
-0.27667278
0.09941427
0.03573350
0.19234735
-0.22573961
-0.08517210
0.00983042
0.16296974
0.24199961
0.21989185
0.06622654
0.21263997
-0.07740849
-0.18976671
-0.12712125
-0.08103748
0.18561722
0.15075272
-0.02261289
-0.11242398
0.18101631
-0.12069172
0.26188979
-0.09778524
0.23044477
-0.15782590
0.05671522
-0.04599484
0.14295185
-0.01063750
-0.05538618
0.22885640
-0.00828089
-0.03481441
-0.17758402
0.09195716
-0.21422902
-0.08989519
-0.22159725
-0.20841458
0.14466856
-0.28431770
-0.18652225
0.19575405
0.05632691
-0.23574598
0.03604796
0.06411007
-0.08288319
0.07959634
0.04016475
-0.12490731
-0.23462820
-0.19275944
0.05732237
0.09017331
-0.22668819
0.05501140
0.01412416
0.11150294
-0.07731701
-0.29015008
-0.28557807
0.15497820
-0.36393285
-0.13835993
-0.02493465
-0.07366096
0.06455407
0.10424802
-0.21192589
0.10453265
0.09766427
-0.02567918
0.07464983
0.02974545
0.03298600
-0.09977590
-0.21539728
-0.22513118
0.06786404
-0.26480064
-0.27757394
-0.04865115
-0.21981584
0.14630036
-0.17291866
-0.18786775
-0.04543301
-0.15790549
0.12804478
-0.18951678
0.02341102
-0.20961064
0.14583190
0.22562663
0.14400661
-0.11170805
-0.21991943
-0.28102013
0.03484781
-0.09843680
0.17097703
-0.15172841
-0.06999917
-0.25945649
0.03564538
-0.00168084
0.15393302
0.13049391
0.06569092
-0.26997617
-0.24980824
-0.22634465
-0.01052303
0.05944127
-0.20595849
0.19363503
-0.23735482
0.12448448
-0.31402776
-0.16917640
0.08903069
0.04047695
0.07151290
-0.23438051
0.13016164
-0.12697783
0.07005568
-0.14958365
-0.02463824
-0.19006370
0.10370251
-0.14213209
0.05209017
-0.17594537
-0.12186755
-0.10357985
0.14744610
-0.12057123
0.13400495
-0.19628860
0.18786946
-0.23752716
-0.17987160
-0.13679413
0.01500494
-0.15135647
-0.01176754
0.15450680
-0.29151276
0.06982706
-0.23832290
0.24975848
0.15607566
0.07657742
-0.21808985
-0.23803672
-0.25891045
-0.23510572
0.14502110
-0.26601258
0.23460472
-0.06554803
-0.15562503
-0.06901207
-0.31315503
0.11057127
-0.19080858
0.12593843
0.04554339
-0.21700102
-0.21971209
0.00631665
-0.03135291
-0.14642018
-0.12115921
0.00516323
0.19211181
0.00213746
0.28422582
0.27885714
-0.18930070
-0.01957403
-0.37732574
-0.28872737
0.11787711
0.09652579
0.11293799
0.01624930
0.10644809
0.08895303
-0.34738222
-0.27875394
-0.09812473
-0.00547153
-0.05796269
0.14399675
-0.06775564
-0.03414291
-0.14404538
-0.09399694
0.26584128
0.29614034
0.13279586
-0.18296567
0.14471382
-0.13754258
0.21093714
-0.08289114
-0.02273979
-0.21939673
0.22493130
-0.24052082
0.09098214
-0.12156485
0.05673103
-0.05816177
0.18933374
0.03723340
-0.17049506
0.17854710
-0.11033834
0.00368292
0.08314359
0.05319218
0.01511789
-0.14279167
0.01671369
-0.22661485
-0.40738678
0.02643345
0.01549166
0.07467127
-0.29476488
-0.06266984
-0.23008713
0.10155951
0.13340974
0.15777014
-0.18031238
0.12444716
-0.08177807
-0.07335836
0.10622337
-0.34489602
-0.21146308
0.13198121
0.00744682
0.10086726
0.11220890
0.04197320
-0.30829298
-0.05482225
-0.25170285
-0.24731585
0.15064761
-0.00056736
0.10187784
0.01300065
0.08251876
-0.14305061
-0.33334261
0.18271765
0.13010941
-0.07839432
0.26579797
-0.15415820
-0.17354475
-0.20361461
0.16684337
0.01745941
0.19972782
-0.10138794
0.10180999
-0.10242839
-0.11941645
-0.12503628
-0.04055924
-0.07822347
-0.08819640
-0.03399773
0.30506849
0.35739806
0.11171679
-0.37100491
-0.00979180
0.13889790
-0.07023378
-0.05660602
0.18313164
-0.07663602
0.19320166
0.06170613
-0.29577434
-0.19024512
0.01606866
0.05621340
0.10568056
0.14476073
-0.09438632
0.17867918
-0.26017803
-0.28133830
-0.16740331
0.16019900
-0.14997873
0.14509876
-0.22469610
0.11921386
-0.20512421
-0.15127455
-0.20613663
0.15641226
0.19352724
0.02322110
0.19217125
-0.07229529
-0.10382929
-0.17280377
0.09428703
-0.11070916
0.15295784
0.01573382
0.05836305
-0.25209042
0.10133867
-0.11893015
0.02985386
-0.16368902
-0.03873596
-0.25375167
0.05105068
-0.16252369
0.15836988
-0.05796706
-0.10502132
-0.07411929
-0.12652634
-0.00179158
0.23772070
-0.10052919
0.27590725
-0.15256672
0.04901656
-0.08316053
-0.16808568
-0.13851364
0.13706020
-0.13505541
-0.24324298
0.15962227
0.00221411
-0.04729306
0.02927581
-0.05944446
-0.14177381
-0.06217614
-0.17370030
-0.01904296
-0.09811247
0.27909970
-0.18160343
0.10937137
-0.19188493
0.24724314
-0.14418444
0.22703876
-0.14531673
0.01503161
0.12049475
-0.21025106
-0.16822961
0.24299479
0.09352045
-0.35579255
0.14888166
0.12783888
0.15363179
0.16367812
0.16066363
0.10822394
-0.24484855
-0.28682575
0.02408709
-0.09347929
-0.03386046
-0.06809656
0.30504215
-0.06574824
0.13832812
-0.26179993
0.09691583
-0.08080869
0.19563302
-0.20468155
0.12919390
0.06579404
0.15692873
0.02042703
0.14402339
-0.35443470
0.05762893
-0.19865018
-0.02859453
0.12685440
-0.08203962
-0.10839953
-0.15903828
-0.10635613
-0.14936453
-0.12768684
0.35813904
0.38857102
-0.09371186
-0.12821828
0.17235762
0.18411541
0.17139502
-0.03940080
0.21324052
-0.20969033
0.06116446
-0.17626384
-0.08555080
-0.30070588
-0.14403903
0.02723207
0.01579638
0.07389947
-0.25725618
0.13259466
-0.04534593
0.12999316
0.06828023
-0.05728254
0.14029203
-0.23747014
0.08247608
0.23891643
-0.16170065
-0.01545982
-0.04933380
-0.15552367
-0.25594273
-0.24691945
0.03502492
0.10164598
-0.01085534
0.13106008
0.02408762
0.01144847
0.22298424
-0.21002895
-0.01934252
0.01792746
-0.01645240
0.12395423
-0.05781806
-0.30127311
0.12063905
-0.16448613
0.01807246
-0.41470739
0.02023916
-0.20329025
0.08242128
-0.01000954
-0.23231889
0.17616634
-0.11933395
0.19588187
0.05426259
-0.20802380
0.12220801
0.04298091
0.20399165
0.09181014
0.21322030
0.11715574
0.22679763
-0.17842431
-0.03161051
-0.03127431
0.05367669
-0.28152496
0.06488129
-0.26979497
0.03874473
-0.19448328
-0.31818914
0.03978886
0.03792349
-0.26604012
-0.03496908
-0.11667517
-0.07080093
0.03738152
-0.18474247
0.25013155
-0.16743337
0.05650723
-0.11026540
0.04966075
0.05492399
-0.26883525
0.08323092
0.11200152
-0.03193385
0.09509967
-0.28219804
0.07967414
-0.32064781
-0.28029045
0.24675436
0.28365317
-0.18419817
-0.16166984
-0.19528729
-0.16577348
-0.11435185
-0.18500866
0.22295856
0.28141496
-0.22550400
0.00851290
0.11259738
0.10459440
0.10311116
0.05011050
0.11680398
-0.32401723
-0.23395264
-0.04528981
0.08433772
-0.33919448
-0.08771703
0.02708322
0.02316000
0.12334145
0.17529055
-0.24734251
0.05448475
0.09023908
-0.01238891
-0.13844170
0.04530669
-0.23003671
-0.01779659
-0.14673239
-0.13413487
0.02026272
-0.37325758
-0.29143149
0.16974594
-0.30607909
0.02795540
0.05499750
0.15080784
-0.00142621
-0.16752996
0.19813374
0.21933101
-0.17561014
0.13605356
0.08690616
0.07088150
0.17622875
0.13002485
-0.23968711
-0.31395471
-0.24814136
0.00953462
0.01804844
0.10144762
0.20550072
0.15298133
-0.14282328
-0.23198220
0.00947651
-0.11799053
0.02362720
0.18056238
-0.15626985
0.04680855
-0.25599799
-0.14306511
0.00593301
-0.08806232
-0.08105631
-0.29154643
0.03933004
-0.12145191
0.01137432
0.12790397
-0.24487358
0.13031769
-0.13197196
0.12882608
-0.05056174
-0.09798367
-0.15446839
0.13024075
-0.18275481
0.14655139
-0.08956831
0.05304136
0.11494730
-0.14371018
0.13190050
0.07160683
-0.09929343
-0.12676102
-0.09127413
-0.26315838
-0.27860966
0.14257844
0.10781673
0.09657664
0.12657867
0.09099901
0.05738033
-0.30258596
-0.19929375
-0.26446167
-0.28533599
0.15258004
0.05811435
0.01887496
0.07125616
-0.16086125
0.08637533
0.09529367
0.01284011
-0.23659481
0.01029029
-0.13980752
0.22183143
-0.15487973
-0.06870232
0.02503636
-0.14024664
0.16174357
-0.04101913
-0.25611934
0.34838244
-0.13988781
-0.17242914
-0.09102508
-0.18398985
-0.19236469
-0.14792477
-0.11898860
0.31508878
0.14123973
-0.22818324
0.09762493
0.12463986
0.11478233
-0.10232796
0.21000473
-0.28827706
0.17062743
-0.32595012
0.14210975
-0.32162160
0.14148636
0.02086519
-0.15844727
0.11951035
-0.18820469
0.01697144
0.13497809
-0.11951271
0.13417318
-0.10884741
-0.19251238
0.14029711
0.04260988
0.12007388
-0.25351155
0.15271711
0.06135713
-0.29591525
-0.20706673
-0.14487384
0.20417134
0.07977763
0.11026334
-0.11448177
0.12644269
-0.13229498
-0.06480290
-0.12462664
-0.09829426
-0.07716577
-0.12387137
0.03598476
0.05270960
-0.09950228
-0.21544614
-0.11972375
0.26117361
0.24915817
0.15928890
-0.08339744
0.05686719
-0.03433204
0.23469488
0.04687058
-0.06125561
0.26183897
-0.21951582
-0.00629090
0.03618568
0.13968597
-0.10809917
0.06808183
-0.29314619
0.06190114
-0.26242375
0.09072296
-0.41412580
0.09097833
0.20276351
0.21956904
-0.24873151
-0.07048821
-0.22548743
-0.14268976
0.16465721
-0.20778027
0.21137014
0.14567901
0.14220251
0.18098280
-0.25765890
-0.24869791
-0.30412272
-0.23547634
-0.18506417
-0.31047297
0.12039014
0.15354839
0.20342784
0.25426897
-0.22609431
-0.13451855
-0.14153373
-0.17184092
-0.23386121
-0.15307932
0.21258664
0.18091530
0.20791247
-0.02128869
0.09646190
-0.00027880
-0.09575171
-0.21164392
0.13746166
-0.17501113
0.14029847
0.14475547
-0.23310079
0.25915253
-0.16764796
0.19625720
-0.07637107
0.18451944
0.18523265
0.05107424
-0.06016387
-0.14673403
-0.15266089
-0.13798104
0.09168204
-0.05590330
0.22676343
0.18759753
0.17733309
0.28801811
-0.05989086
-0.18366075
-0.03781938
0.02728441
-0.03789517
0.02867557
0.27295363
0.01329263
0.18793240
0.00342155
0.35213283
0.01634448
-0.12274341
-0.13416602
0.24710293
-0.11422224
0.21046185
-0.02331678
0.20678301
-0.13773201
-0.12796651
-0.05047966
0.16400120
-0.22455342
0.19056238
0.06121824
-0.04815806
-0.01724660
0.10262681
0.01237657
0.16382235
-0.17334807
0.24590738
-0.06172599
-0.03531988
-0.08759563
0.06266242
-0.13002302
0.27141294
0.14073588
-0.15126690
-0.09033641
-0.21365757
-0.27499822
-0.16740671
0.08342053
0.03373583
0.16127072
0.18227883
-0.00366647
0.09630208
-0.33678448
-0.13574962
-0.17111982
-0.03326654
0.16462125
0.03383613
-0.08038264
0.14754930
-0.19873780
0.23298343
0.23009205
-0.06672222
-0.23751913
0.03784924
0.21141545
0.16517025
0.16688289
0.31325066
0.09841002
-0.03688319
0.24343643
0.06115379
-0.08017658
0.05815512
-0.14293948
-0.17329854
-0.21245451
-0.02540022
-0.32027885
-0.00012186
-0.18062006
0.14750515
0.03981891
0.06050480
0.23387311
-0.04301529
-0.24895337
-0.24765047
-0.10633922
0.09472343
-0.08030652
0.16540545
-0.14479250
0.12290420
0.15917522
-0.05775736
0.17267200
0.17763357
-0.10236614
-0.07283151
-0.11641569
