0.05391419
-0.14757904
-0.01711156
-0.06249670
-0.01767475
0.04733142
0.09084765
0.21577923
0.12929673
0.03543391
-0.02384902
-0.10920729
0.02959344
-0.00463267
0.03808261
-0.01159008
-0.05065624
-0.09889481
0.02136785
-0.08882797
0.19203128
-0.05310808
0.02093465
0.01517251
-0.01405469
-0.05696410
0.01932697
-0.09984821
-0.02442920
-0.01522591
0.06025594
0.11266950
-0.06543083
0.09620976
-0.01323478
0.05512329
-0.08993065
-0.08276371
0.12154184
0.11542952
-0.04194108
0.00829677
-0.07322022
-0.00652552
0.00975570
0.23523724
-0.05289020
-0.00456269
0.25406048
-0.21089049
-0.03022194
0.02216813
-0.16910106
-0.12709573
0.20943004
0.11344743
-0.04832187
0.21848474
0.11272310
-0.13042371
0.20102231
0.01049613
-0.19657840
0.04566195
0.03394796
0.01416466
-0.09347814
-0.00380809
-0.18307951
-0.15103015
-0.00099667
0.07926010
0.15374038
0.25479788
0.14607763
-0.10252794
-0.04460697
-0.09801431
-0.10735777
-0.18275379
-0.23902112
-0.01181383
0.01705934
0.12844796
-0.12420356
0.00276055
0.18333685
0.09662051
0.11838564
0.27603835
-0.00384489
-0.36036390
-0.15835704
-0.06325793
-0.15863158
0.07358944
-0.00429659
-0.03906753
-0.12413558
-0.12251008
-0.00372307
-0.05057563
0.02011160
-0.01665753
-0.07931946
-0.18191715
-0.00065606
0.18269496
-0.10238343
0.18196146
0.17707802
0.00334889
0.12712240
0.12260699
0.00741195
0.12442917
0.10881164
0.10007681
-0.13756634
0.11093846
-0.02432259
-0.10301315
0.10621490
0.11203101
-0.26836053
0.06142953
0.11934908
0.06698579
0.04314882
-0.14145660
-0.23155706
-0.20270999
-0.19016190
-0.05265189
-0.09176020
0.10704829
0.08887411
-0.05859099
-0.12029492
-0.11865901
-0.11051183
0.06039968
-0.07954286
-0.07871771
-0.20378928
-0.22007412
-0.14729905
-0.14478493
0.07562065
-0.04590813
-0.06232864
0.03060497
0.10598022
0.21643546
-0.24684016
0.01578025
0.16134484
-0.15712711
0.20282592
0.01663439
-0.13110225
0.03727192
0.05214958
-0.03925599
-0.05050573
-0.01807200
0.04520673
-0.06233412
0.14257333
0.00193427
0.08576853
0.10569829
0.04425867
0.15735286
-0.04583137
-0.05354325
0.14883789
0.12458027
-0.04705008
0.14578687
-0.10992707
-0.02414927
-0.09230343
-0.21792874
-0.06946969
-0.11603419
-0.16751941
-0.14569920
-0.11398634
0.04582494
-0.08545475
0.11538342
0.11142983
-0.22535545
-0.10207341
0.10990462
-0.14871672
-0.06523427
0.09249859
-0.02827777
0.11867394
0.06006742
-0.04064035
-0.01899980
-0.08432434
0.07465191
-0.03495146
0.08169196
0.07826861
0.12123016
0.08154094
0.07701577
-0.11421237
-0.03852221
0.03633976
0.10406642
0.09829184
0.09901731
0.12321139
-0.11657313
-0.03995906
-0.15469180
-0.15646368
-0.01376175
-0.14627069
0.06942055
0.06956039
0.10406499
-0.02902911
-0.01618589
0.03045594
-0.08804885
-0.10961895
0.13399476
0.21850528
-0.05720240
0.11511245
0.12166449
-0.14456242
0.01539879
0.12544884
-0.15537463
0.17137319
-0.14861487
0.03547927
0.00772811
0.00453381
0.13145261
0.13994728
-0.00676747
0.08265708
0.00637853
-0.05273195
0.15656494
-0.00992867
-0.03887599
-0.03458716
-0.06956939
-0.00973454
-0.04196554
0.06884141
0.10197851
-0.19401534
-0.00939679
-0.07166582
-0.15474154
-0.07333203
-0.04230063
0.01960839
0.02648632
-0.01827861
-0.16915719
-0.13391744
0.16549252
-0.11318550
-0.01360920
0.01802870
0.06656419
0.14301337
0.13946469
0.15631521
0.11709521
0.11581013
0.15327924
0.11485067
-0.11011118
0.10303185
0.04826678
-0.17281426
-0.17269860
-0.09686044
0.00379510
0.09417532
-0.05562449
0.03226243
0.09301674
0.08472849
0.10277718
0.03874597
-0.10418274
-0.07936467
0.06028705
0.00918264
0.05118440
0.02596770
0.05009951
-0.06587524
-0.06938260
0.05244227
0.04558561
0.12570851
-0.04991957
0.06816773
-0.06362066
-0.02794546
0.05938697
-0.15797886
-0.04153948
0.02781620
0.06937316
0.11581417
-0.11635470
-0.04951611
0.05076944
0.06036640
0.11070005
0.07265329
-0.04524766
-0.11891745
-0.09859577
-0.03930412
0.03040154
0.03396091
0.24024950
-0.20796628
0.15908536
0.13959149
-0.20447838
-0.04516038
0.15089132
-0.05532773
0.07291901
0.11924107
-0.11525596
-0.20117883
0.21003889
0.00643079
-0.06882329
0.21501477
0.14951977
-0.14612260
0.14108285
0.00923813
-0.03735837
0.05170025
0.03356251
-0.01575276
0.08035491
-0.11942873
0.07454547
0.23583034
0.11512852
0.10905349
-0.12929152
0.06715158
0.02394919
0.05216772
-0.00343832
-0.03281754
-0.16102536
-0.12271492
0.11789477
-0.00040631
0.08981422
0.17544831
0.10083304
0.01486885
0.27172276
0.02241566
-0.26620781
-0.08781300
0.14788273
-0.02598385
0.09805141
0.24180423
0.00243426
0.07302353
0.10944810
0.08974859
-0.03363559
0.05959735
-0.10233377
-0.02941690
-0.02425618
0.10011340
0.03447796
-0.11931503
0.05766487
0.10492677
0.00249767
0.10680338
0.03941604
-0.01468617
-0.14154078
-0.19140194
0.13554949
-0.14207038
0.16100743
-0.00452727
-0.07168805
0.15282664
-0.01124995
-0.16111250
0.13652892
0.18594165
0.21008776
0.10628637
-0.01620767
0.01806716
-0.00352691
-0.02784855
-0.17493670
0.02838376
-0.07960808
-0.06747199
0.08825307
0.12292485
0.07253248
0.03155361
0.05310250
0.11074502
-0.08463418
0.00912157
-0.01993670
0.03715632
0.07521441
0.16273515
-0.04558436
0.11546429
0.13423853
0.12822741
0.10712251
-0.20510058
0.00262904
0.08583277
-0.10496510
0.14358100
0.06368710
-0.30666891
0.06090875
0.04654058
-0.13276212
-0.06264304
0.00591252
-0.08631314
-0.00526521
-0.08442500
0.16127020
0.09349917
-0.05772809
-0.14573914
0.08978621
-0.07902773
-0.21269864
0.12344521
-0.05469327
-0.14494237
-0.02635690
0.06918932
0.10304990
-0.09168913
-0.07857344
0.09819233
0.09859361
-0.15393612
0.07873126
-0.19326571
0.16016936
0.06549572
-0.02528149
-0.04621579
0.03576904
-0.01475704
0.00627135
-0.12334529
0.12552018
0.10617356
0.01715376
-0.00533940
-0.10550082
-0.19071901
0.09865784
0.04057602
-0.10841268
-0.02919612
-0.13376512
-0.13484144
0.09431145
-0.12475871
0.08349321
0.04795513
0.06919830
-0.08123319
-0.18456106
-0.06816428
0.13056065
0.15068564
-0.10127886
0.03773929
-0.07867036
-0.03037961
-0.07318058
0.06095811
0.19134092
0.23274995
-0.00099623
-0.16248888
-0.19625747
-0.06000336
-0.09595183
-0.19790696
0.07162532
0.18671866
0.05466602
0.03998707
0.20104857
0.02164612
-0.08665974
0.25453931
-0.17683919
-0.01932505
-0.01228551
-0.10969955
-0.10561543
0.01393463
-0.02443460
0.13170879
-0.00758504
0.01509531
-0.16553065
-0.02524204
0.03097695
0.05321891
-0.05597473
-0.08355618
0.00883294
-0.03841646
0.01169866
0.07292659
0.08584225
-0.22075081
-0.06213421
0.11865546
-0.15716213
-0.02546982
0.12904735
-0.19883893
-0.12930503
-0.09156083
-0.20802292
0.04914863
-0.02954441
0.10085118
0.04323451
-0.01018739
0.12644076
0.00653353
-0.01361740
-0.04996208
-0.02306144
-0.13278781
-0.19708346
-0.18581708
-0.14443800
-0.10494249
0.01149750
-0.11842259
-0.11371791
-0.13491921
0.08233929
0.13531797
-0.05699435
0.00612494
0.08516894
0.03536369
0.04686555
-0.05353671
0.05807724
-0.05806898
-0.07577001
0.03402051
-0.14781576
0.10658471
0.05336327
0.03325512
0.02667071
0.06031360
-0.03409515
0.01582898
-0.10233377
0.02561567
0.09206995
-0.10276519
-0.03721745
-0.12621504
0.04881466
0.06764837
0.06701233
0.07438244
0.03669597
0.09055315
-0.15437992
-0.08054366
-0.01828046
-0.07593897
-0.01216238
-0.06626909
-0.10699480
0.18440957
0.13211457
0.01348085
0.11465115
-0.06238687
0.16113825
-0.00736743
-0.15767106
0.01133273
0.06753334
-0.15583085
-0.01625630
0.05871123
-0.00406560
-0.14339927
0.11583265
0.04546711
-0.06425052
0.01986916
-0.07955496
0.05463132
0.07823420
0.09971081
-0.02737566
-0.10026421
-0.12507384
0.04430717
0.01338141
-0.09160183
0.10199711
0.00377156
0.13269186
0.22306825
-0.13459487
-0.05393014
0.06934893
-0.16463591
-0.15126963
-0.10690502
-0.15038493
-0.13145284
0.12809423
-0.14225161
-0.12906699
0.21634570
-0.09790129
-0.14341278
0.24368155
0.12900573
-0.08296859
0.01199322
0.16184713
0.04718616
0.14284779
0.07109974
-0.07273045
0.18918143
0.15525143
-0.04753024
0.01707499
-0.02888813
-0.09225354
-0.08408179
0.03302372
0.00229056
-0.03816165
-0.10787766
-0.03513206
-0.11289193
0.00687153
0.06898451
-0.08612212
0.00688972
-0.05768978
-0.14625655
0.11487802
-0.04790602
0.14922900
-0.08708031
-0.23654167
0.10038068
-0.12983346
-0.18059292
0.16931121
0.12645209
0.13824210
0.14486007
0.07560142
0.09449930
0.01252388
-0.07107215
-0.16674128
-0.06233174
-0.10209002
-0.02332380
0.03148709
-0.02749649
0.02066572
-0.09635900
0.13342914
0.15545623
-0.07024112
-0.10262425
-0.23367126
-0.15259515
0.05548217
-0.06345434
-0.09548046
0.25262627
0.21866366
0.13446173
0.06112669
-0.21349514
0.11087766
0.14744587
-0.25072104
0.11113076
0.01774850
-0.28517947
0.13196608
-0.12113817
-0.01861534
-0.05410833
-0.00614270
0.01629911
0.06326788
-0.02380995
0.16892329
-0.02681289
0.03395851
-0.14909989
0.14567482
-0.11319569
-0.09890033
0.13142739
0.10524124
-0.13052054
-0.04759945
0.15404110
0.26415253
0.11758337
0.01993582
0.14263128
0.09910870
0.10587087
-0.08468113
0.10158695
-0.00438124
-0.12709247
0.10364731
-0.07307573
0.03782419
0.09580106
0.10841633
-0.09821424
-0.00032847
0.01480715
-0.11812666
0.12850544
-0.02424272
0.02632044
0.03519394
0.07446016
0.00116967
-0.09653113
0.10982361
0.04557751
0.04796454
0.04809998
-0.10594442
-0.03272701
-0.05716994
-0.17137223
0.07278738
0.14100716
0.20838161
0.11761551
0.11468199
-0.00012110
-0.15960273
-0.13876350
-0.04417498
-0.09024995
0.06099673
0.20964031
0.05672213
0.02328075
-0.09347357
-0.20781614
0.10020971
-0.09772493
-0.03818595
0.16036038
-0.20397294
-0.06225606
0.08769894
-0.20715442
0.02510482
0.05909382
-0.21944667
-0.08445467
-0.01101592
0.05087547
-0.09907515
-0.03377651
-0.08219852
0.11188739
0.15419674
-0.01497759
-0.06219699
0.00266244
0.03669888
-0.01560908
0.09323654
0.06893405
-0.05131697
0.04777302
-0.14497422
-0.11732922
-0.11387093
-0.21523774
-0.18977222
0.03428297
-0.18937311
0.04050342
0.09459490
-0.20800500
-0.13718571
0.08393745
-0.26085064
0.01389567
0.17834170
0.02966854
-0.02258343
-0.04395485
0.09756993
0.05609678
0.13522400
0.14863302
0.10142472
-0.00099795
0.06103160
-0.03529724
-0.14408126
-0.08550408
-0.16470146
