-0.46010367
-0.23485839
1.56004179
-2.49825839
2.59985603
-0.43934446
-0.18633569
-0.00127470
1.77160784
0.42207516
-0.32295397
0.40135079
-0.26726556
2.12037328
0.27275333
0.47936390
1.61694173
-0.27994790
0.29239716
0.39116739
-0.25908207
-0.64945970
0.58603713
-1.09745487
-0.52249074
0.56657941
-0.15560316
1.06645089
-0.21815263
0.68760478
-1.59493350
-0.01856900
0.17890405
-0.02138905
0.91036213
-0.07365919
-0.00264963
-0.39232380
0.88042689
-1.26546111
0.16277183
0.19401149
-0.58455913
-0.48903999
0.94661631
0.07290084
0.07052185
1.07368053
1.46352776
0.19305157
0.00694251
-0.02977332
0.24295751
0.60197540
0.68175373
-0.17181305
-0.07188574
0.18042316
0.20038421
-0.31915602
-0.19281399
0.09240771
-0.69174308
-0.03516961
2.01537496
-0.28629525
-0.58320715
0.46285599
-0.89800157
-2.18753056
0.33928927
-1.34571447
-1.90540160
-0.25892303
-0.45941378
1.98320558
0.00171505
-0.34339548
-0.17636421
0.00008047
0.05000910
-1.85691077
-0.14024600
0.23149776
-0.23944466
1.40690019
-0.10688217
-1.14843313
0.18806425
-0.75582428
-1.37079773
-0.93881045
-0.19431271
0.83793082
1.06499680
-0.03653152
-0.51796736
-0.30750336
-0.15441798
-0.26464944
-1.64181435
3.57817067
0.36706588
1.08136334
0.79088042
1.67532806
-0.09177344
0.10489899
0.45251426
1.84510705
1.33986431
-1.15296604
