0.52993587
0.96918170
1.41045543
-0.39330462
0.07945137
-1.67897420
-0.68302921
0.00638405
-0.00475399
-1.78439641
-0.04892190
-1.46857556
0.62800772
1.56028214
2.28142191
-1.74883029
-1.64202017
-1.92470543
-0.44114042
-1.00660613
-1.03714438
-0.04877096
-1.11412181
1.13236113
-1.17573199
-0.13958474
-2.07762776
0.55840652
-0.68105953
1.03546840
-0.56184935
-0.17562260
1.51350782
-0.77838237
-1.33387630
1.33648467
2.32845013
1.64234539
-1.41045334
-0.06831601
-0.51696395
0.17561528
-0.84471539
-0.51209333
1.89678756
-0.01848722
1.89151189
0.68151643
-1.44847513
-1.80397095
0.03147748
0.46398320
0.22375403
0.52177887
0.26979762
-0.01727987
-0.70969306
0.50635874
0.20762869
1.15272318
-0.01786604
0.16088566
-0.38880705
-0.30547079
0.26638887
1.99846079
0.18313746
-1.58243462
-0.02729631
-3.90648651
-0.93839993
0.72319964
-1.36072901
0.74509973
-0.51397404
1.44220821
0.76947735
0.21891718
0.89666416
-0.02160871
-1.14042461
0.06193280
0.13549446
-0.18838382
2.10509360
-0.26194494
1.89598086
-0.94518773
0.71515856
-0.00521708
0.16844997
-1.78988824
1.86413704
-0.75909453
-0.77202050
-0.77456616
-1.10604489
1.11450908
0.15024863
-0.22071308
-0.10527767
-0.18785761
-0.76705288
-2.01872787
0.01351845
-4.29790376
0.03920170
0.63575855
-0.76329073
1.17493650
-3.25216307
-1.36040780
-0.41861596
-0.08043980
1.12208539
-1.41539188
-1.80610089
-0.17647600
0.60484042
-1.48635254
0.47576880
-0.41921891
-0.72214359
0.05030481
1.23829922
-0.80209646
-0.07861773
-0.92526508
1.17845646
0.87042683
1.16777378
-0.07028463
0.09606869
-0.45117963
1.66435779
-3.25109573
1.11625875
-0.57018210
-2.12657526
0.91727537
-0.96671361
0.24872178
-1.28659918
-0.50385380
-0.42429445
1.41500479
-0.48568208
-0.31538702
-1.28188619
0.62336553
-0.69980291
1.76258619
1.16326569
0.55115073
0.83247008
-1.30538441
2.17276300
0.89743196
-0.87798400
0.12965608
-1.38511387
-1.16245675
-3.51446590
2.18501563
-0.05411624
-0.69494652
-0.20056830
0.44944294
-0.25898139
0.15366987
0.60265667
0.00986585
0.40515213
-0.74385263
1.93861417
1.59062443
-0.02467735
-2.99227150
-0.78348318
-1.18364551
0.06075735
2.13366381
2.31123470
0.05225865
-0.77382113
-0.15892665
0.29447653
0.61745643
-1.76968265
0.05165059
-0.86666100
-0.77494625
0.89849300
0.26187461
-0.29558737
1.48731819
-0.55012902
-0.01267954
0.66347948
0.81569849
-1.00834254
0.94048280
-0.94777440
0.02623947
1.79813551
-0.12296523
-3.06868853
-0.39839796
0.20178791
0.20108980
1.55130806
0.04160678
-0.32893038
0.26224777
-0.03882036
0.11811548
0.02805811
2.35633287
-0.14780243
0.13979159
2.07778085
1.17354395
2.20370222
1.60293553
-0.23912276
-0.32774442
-1.43281050
-0.31509148
-1.57354575
0.45993609
-0.13447701
-1.40010681
0.45856078
0.79216145
1.33527872
-0.23952723
0.20797450
-0.22718721
-0.26782078
0.48560524
-1.22804503
0.23148796
-0.23476366
-0.28603723
-0.45029085
1.81487915
0.33097355
-0.42185347
-0.05620813
-0.30926325
0.17572978
0.54354615
0.62308506
-0.18743630
-1.10247740
-1.80706561
-0.42132754
-0.13067873
-0.78391356
0.81856776
-0.68045592
1.75304467
-0.61606140
-1.10228478
-1.02093960
-0.04810998
1.17715731
1.45542043
-0.63764860
-1.30543930
0.33656525
-1.67013130
0.44623196
1.62310224
-1.42810852
-2.72550717
-3.26686039
2.26217692
0.36853084
-0.16640239
-1.92676256
-0.18214896
-0.43354197
-1.22066305
-0.11475524
0.24434143
1.00459504
-3.75412498
0.13621928
-0.35425046
-0.46851906
1.25222094
-1.59043941
0.33804152
1.77020792
0.50727843
1.19516390
1.00695953
-4.06583935
-0.29387381
-1.30320637
-0.07929774
-1.60905587
-0.46310282
-1.55496371
0.54328961
-0.00512564
0.35131248
0.52299826
1.22831330
0.60238879
0.11278116
-2.16480048
1.51699106
0.97573844
-1.18078764
0.13778163
-1.02722871
0.71562885
-0.09791574
-0.00842628
-0.37513688
-0.35631515
0.28695254
-2.24278148
1.65961196
0.56115215
-0.74587728
1.93455083
-1.20142264
0.13954494
0.30151326
-1.13013664
0.15199685
-1.05750409
0.63021568
0.83191552
1.47603536
-1.92462376
0.43493214
0.30812011
-0.24359575
-2.47880552
0.27577262
0.01243306
0.55337209
0.77910195
2.39895006
1.31567720
1.49561841
0.14620418
-0.36469402
-1.89205904
-0.64156074
-1.18328256
-0.17718204
1.04245625
0.36068162
2.45717147
0.53175018
-0.01797059
0.70673727
0.72196986
1.23773345
-0.79530513
1.19252760
-2.55977573
0.99509819
0.28081908
2.50564927
0.71261084
-0.16605250
-0.15735529
0.47845604
0.74471291
-0.72489527
0.00223929
1.24968077
-0.02783113
0.53097954
-0.37600366
0.79956805
-0.51773175
1.32844993
