0.28836758
-1.50061136
0.37345541
-1.29883236
-0.17021417
-0.19467830
1.64693300
0.14257077
0.48060460
-0.53312723
-0.55155195
0.20470072
-1.31825246
0.01400505
-0.44590642
-3.18705707
0.61935351
0.63892767
1.44092336
0.99794573
-1.68221415
1.22235349
-0.24075805
0.92335719
1.85373306
1.69512524
0.18580581
-0.56212170
0.31859821
1.19646727
1.24702361
-0.45758054
-0.87488290
0.15657493
1.74707098
-1.68932792
-0.38078569
0.58116461
0.09094386
-0.50053366
-1.77623012
1.18804334
-0.86275254
0.29859095
-0.59186069
-0.00886785
1.81121762
0.54994058
0.95378662
0.61307123
-2.44795749
0.37827357
0.07262165
0.04489851
-1.48727854
-3.01624480
-0.17803708
0.36963397
-2.13697085
0.78143311
0.66930381
0.32162220
-1.45999426
0.37664831
0.69332819
0.28359173
-2.42961515
-0.58829121
0.21275379
-2.19927946
1.69667232
-1.02293866
0.69400599
-0.73420746
-1.13691974
0.13803597
0.83655060
0.09878575
0.84728037
-0.75395654
1.55677674
0.72358731
0.27029902
-0.58839628
-0.42400362
-1.92566205
0.58749682
-1.34093866
-0.07691102
1.55779210
0.72549741
-4.48872133
-3.30115185
0.60320784
-0.04263175
-0.76381994
-3.38613151
1.12076899
-0.47090377
-0.36805536
0.78176133
0.25969957
0.51858378
-0.91282858
1.41944872
-0.31829267
-0.28664986
11.61420210
0.17989113
-1.06276781
-0.15152776
-2.12527925
0.99474677
2.62480444
-0.19945367
-0.40472647
-2.19698746
0.22521373
0.05489596
1.47016397
1.33225368
-2.70439644
-1.22945608
1.21056592
0.45673493
-1.49576838
-0.27620324
3.09125098
0.77343419
-2.10547473
0.72588999
-0.20771056
0.80155858
-0.36745703
-0.68616089
-0.04500263
1.24570364
1.32917620
-0.21780815
1.66770445
-0.15130772
0.53651488
-0.08992821
1.05910189
-5.98287771
0.47622853
-2.15792474
-0.06069914
0.05499123
-0.10448283
0.15519812
-0.11003702
-0.36351894
0.09801269
-1.34451890
1.01072875
0.09607282
1.41892497
1.43443485
-0.75515814
-0.16875981
-0.34533970
-0.75823486
0.71661292
0.34187611
-0.28873177
0.88572963
-1.01232429
0.96891988
1.62106574
2.07570632
0.07511085
-0.23433293
-1.22144480
0.98870531
0.91921989
-0.31650515
-0.10933460
0.55698441
-0.10229801
-0.82371699
0.69772125
1.55965794
0.58579149
-1.23824808
0.01836081
0.69919831
-0.83148069
0.07683934
-1.24243903
-0.79561125
-0.63627446
-0.72255894
-2.75864130
-0.46262755
-0.28524856
-1.43497898
-0.50368739
1.28087534
-0.93556371
0.40593449
0.06048214
-1.16475177
-1.01372681
0.16569877
-0.87516462
-0.28405106
0.45640319
0.49377623
1.49078993
0.08208733
0.64788839
-0.37575628
0.14092186
-1.33814441
-1.48168971
0.03076526
-1.96273172
0.72197017
0.33806556
-0.34669637
1.94591829
3.52460024
0.19831545
0.23258989
-0.92654749
0.61627639
0.19842723
0.64632257
1.31925836
1.34361576
-1.53213082
-0.24551545
-1.34119275
1.06843088
0.80143083
0.56428105
-3.33542103
0.97695191
-1.33092840
-2.10264354
1.43958600
-0.55230266
-0.65028443
-0.46396070
0.17215025
-3.48258576
-0.72847754
1.87050178
-1.17251234
1.12701887
-1.60902006
1.55382761
0.31427011
1.05821462
0.06925823
0.27708626
-0.86282220
0.45084420
1.25731537
0.29378974
-0.06509813
0.16245642
0.21236521
-2.21869983
0.52260357
-2.41234971
-0.19290128
0.70761741
1.67466889
1.00720257
-0.81787870
-0.88617261
0.59454165
-0.30486869
0.81667598
-2.24321526
0.51417140
-0.42615266
0.16157218
1.13286116
1.19443315
1.44289975
1.01686312
0.74632122
-1.43343709
0.69729790
0.94945080
-0.13353799
-0.85723806
0.70489616
0.14270370
0.35414424
1.05099376
-1.47678588
0.52305372
0.60790024
0.65519612
1.44372146
-0.85024546
2.60478931
-1.60885280
1.43400099
0.20055093
2.64194827
0.81783070
0.72009712
-0.70534923
0.44636150
-2.36215245
-0.16894918
-0.93932263
0.18730477
-0.23498199
0.45616007
1.61404194
-0.92902991
0.63216975
-0.39679818
-1.69911037
0.22068249
0.28720505
-0.48667675
1.83887642
1.38701438
-3.14903572
1.15823030
0.07848981
0.21100065
2.04174153
0.47856491
0.56962836
-2.06922098
-0.30716647
-0.15799879
-0.63954879
-1.18686819
1.20338576
-0.18454345
0.39465269
-0.93554058
0.71375238
-1.26873078
0.04719714
0.88646077
0.44018539
1.50334844
-0.11394842
0.37041284
-0.45186877
1.20503293
0.73634635
0.43280747
-0.31736460
-0.14688194
-0.65974028
0.48763473
-3.23960275
-1.54725821
0.34030743
-1.56551203
-0.71699808
-0.72766507
0.68037146
-1.75162148
-0.15893132
0.15500909
-1.14187644
-1.56798961
-1.48091915
2.47096545
-0.57622707
-0.99543643
2.25568380
0.63221134
0.87140114
0.56362081
0.66982105
0.84668364
-0.38032617
-2.39750619
1.21384389
-1.43547404
-0.64600968
-0.22215439
-0.92874602
0.37612176
0.46685463
-0.23650425
-1.13622180
-1.01558020
-1.54729584
2.07636853
0.44484572
0.21647556
0.47921957
0.37997837
0.05768798
-0.79244558
-2.02165479
-1.11316370
0.66151245
0.05016455
0.38611524
0.10598869
0.65745525
-0.31022521
0.02077794
-0.57130860
1.65810177
2.77349629
0.47325572
-1.40586140
0.54475784
-1.66149727
-0.50894956
1.21461424
-0.47192610
-0.16238503
-0.85902747
-0.46184874
0.64277309
0.29841073
4.10865523
0.57641718
0.53607381
-1.00786522
0.42240623
0.60441665
0.11899711
3.22449564
1.45491160
0.08493556
0.21912963
0.42071072
-0.23522079
-1.90612384
-1.67288649
0.88687611
-1.80787275
-1.95601196
1.36121243
-0.11359477
-1.39004364
0.76882937
1.29311298
-2.40795912
-1.74644628
0.78495131
-1.32696143
-0.19550695
1.14950028
1.51065112
0.47914746
0.00129484
-0.35158732
0.69892638
0.85895128
0.54913841
-0.54111092
-0.47394800
-1.62711773
0.23822837
-0.22284225
0.67076668
-0.27669007
0.06834966
-1.44101144
1.57077309
0.08701196
1.62687071
0.57825936
-0.68807720
-2.56086203
0.28253101
0.54866703
1.08842009
-0.54893521
0.37196494
1.93095535
-0.28270840
-1.12196907
-0.80716700
1.33969054
0.50125622
-0.03173958
0.64209485
-3.19676074
2.40359567
0.71771520
1.50523913
0.17273094
0.33864552
-1.05111026
-0.43491916
0.24197307
0.45221768
-0.95100766
1.56044858
-1.35390133
-2.29821271
1.45124980
-1.71809878
-0.07373887
0.58719709
1.21502187
-0.12799707
0.44590745
-0.53728405
1.12398879
0.29663160
0.04590963
0.32364354
1.57440367
0.72220084
-0.30288859
-0.64221112
-0.45119883
0.79898780
0.12302807
0.59986840
0.42903033
-1.32747546
0.85523546
-1.48539149
-2.03511792
-0.42905760
0.25563881
1.41054863
-1.53582787
0.29671887
-1.82797403
0.79138451
-1.10709232
0.39094499
0.67182731
0.62175213
0.80219901
-0.73312757
-1.27763271
1.16831121
1.30345898
1.26049449
0.89152854
0.33735853
0.41786938
0.82118755
1.20866856
0.49756232
-1.62099015
0.49466577
-1.01825052
0.44924668
-1.50734740
-2.27240205
0.57422319
0.22875714
1.45202113
0.30682912
-3.35248006
1.14982030
2.31765145
-2.70844238
2.98964785
-0.71614791
0.28644232
2.79709865
-0.89777431
1.94432773
-0.30874647
-0.79664628
1.14472776
0.50161683
-1.72354451
0.06954472
0.64091203
-1.42233737
1.22646234
-0.97586312
0.57748511
-1.62064905
-0.75566857
-0.09304671
-0.80357916
0.22505767
0.41140654
-0.50967381
0.44156107
0.26258973
1.35632976
0.14079887
-0.03887782
0.89720059
-1.96227733
1.48091958
-1.51792570
0.56971424
-0.12596416
3.19662388
1.26582877
1.18300348
0.02544182
-0.76826445
2.31214993
0.57574262
0.47820184
-2.00831690
-1.00916788
0.04596421
1.09504366
-2.15035959
0.43979747
1.64124403
-0.18460469
-2.72756490
-0.35058790
-0.03656144
-0.17565548
-1.29306051
1.48176506
0.85661868
-2.04859483
0.45092155
-1.45323749
-1.12725331
-0.63749516
-1.26275727
0.78997499
-0.30582663
1.19169758
0.30711874
-0.00364716
-0.71291332
1.35463611
-2.82029160
-0.86486611
0.65676204
-2.31902048
-0.87479154
5.55129659
0.19489864
-0.64868495
-0.80106673
-0.85566693
0.32677614
1.12065214
0.27934971
0.01824094
-0.33745639
-0.40687507
-2.07527604
0.62983303
-0.34557971
-0.66457988
0.45071180
0.15612481
0.04514139
0.12240552
0.52857761
0.91905405
-2.13497916
2.41467940
1.26931320
0.80153113
2.05422804
-0.62825344
-0.61550713
0.51247312
0.55194593
2.10239833
-1.13003585
0.65509495
