-1.12163281
-0.45407075
-0.99870080
-0.81279892
-0.63359839
-0.43454084
-0.96698213
-0.86852998
0.11226254
-1.48263800
-0.63882333
-0.03962401
-0.57895291
-0.54041690
-1.21684968
-1.06189179
0.15116729
0.35767898
0.10875910
-0.99165785
-0.10088429
-0.31879210
-0.43233764
-0.01216759
-0.31352177
-1.58539319
-0.04391667
-0.02501798
0.05597449
-0.88658607
-1.42876577
-0.18439391
-0.42357111
-0.11214992
-1.01936674
-1.21547163
-0.14072211
-1.65919888
-0.32087359
-0.51929855
-0.07927104
-0.36783931
-0.16795383
-0.63966280
-0.00719764
0.41517815
0.26970717
-0.30856952
-0.54196215
-0.02797879
0.84557521
0.00379921
0.45463514
-0.13908413
0.06161761
-0.83574367
-0.86674577
-0.26551935
0.05218550
-0.80045235
-0.21927750
-0.26732218
-0.40140706
-0.04237746
0.02257816
-0.06444912
-0.24830200
-0.44557446
0.84243333
0.05210745
-0.60397661
-0.28945851
0.69700825
0.13405631
0.03698848
-0.03166288
0.05200836
0.02730728
-1.31370723
-0.56088954
-1.14285505
0.88556081
-0.34773645
-0.35220841
-1.42153871
0.20339583
-0.01300669
-0.20966074
-0.87570488
0.08424553
0.21032867
-0.69301587
0.24578543
-0.43292052
0.00109286
-0.20813757
0.67393064
-1.18694890
-0.42806283
-0.46633956
0.03733917
-0.28625178
0.26429042
-2.00413394
-0.23905498
-1.16911733
-0.56708241
-1.58304489
-0.23844664
-0.88393986
-0.28853631
0.11830387
-1.18201375
-1.40580773
-0.05151718
0.16510911
-0.05278146
-0.70371157
-1.34384918
0.17117594
-0.63969910
0.00311696
-0.17121010
-1.25428677
0.04087540
0.08958467
0.30678403
-0.77400845
0.99047178
-1.38716936
0.35333875
-0.45176783
0.95569819
-0.52899647
-0.42967683
0.02036631
-1.29348588
-0.91617483
0.08794107
-0.47475091
-0.30774367
0.48839226
0.08124337
-1.34597015
-1.88158274
0.19797571
0.09741998
-0.32991585
-0.17337950
-0.85116452
-0.74022621
-0.20576327
-0.36833981
0.00105075
-0.08748071
-0.96571702
-0.94761139
-0.15205309
-0.65559632
0.55698943
-0.77143425
-0.20615137
-0.66535908
-0.50018018
0.19426413
-1.36650956
-0.54443419
-0.43147373
-2.20659542
-0.46119353
-1.28158796
-1.28163064
-0.92165989
-0.53201389
0.04046477
-0.25677243
-0.93496829
-0.47841835
0.02410468
-0.87287813
-0.72745055
0.02730944
-1.37076843
0.00263600
0.00105453
-0.14044498
0.14759126
-0.98520994
-0.30519143
-0.25208971
-1.24947643
-1.19507432
-0.73872858
0.33078822
-0.68959457
0.11156721
-0.69870937
-0.22741272
-1.17798066
-0.49028477
0.03470897
-0.43260866
-0.08430304
0.04548289
-0.12767355
0.06445426
-0.68491256
0.12235700
-0.23635854
-0.29500034
-0.94309133
0.29819766
-0.47647348
-1.03936493
-0.14691412
0.29147595
-0.62260664
0.08233488
0.83924150
0.37805066
-1.26612914
-1.48191977
0.09391920
-0.24971439
-0.86033875
-1.03789520
0.37072879
-1.21256948
0.30991304
-0.01293241
-0.36026174
0.08544172
-0.56933439
0.08882679
-0.74910086
1.34777188
-0.11289918
0.43846652
-1.17868030
-0.11988448
-0.35384658
-0.32741949
-0.71082664
-1.07837355
-0.64378202
-0.60422873
0.14692511
-0.58154881
-0.59283406
-2.47401237
-0.50521845
0.07195495
-2.23233628
-0.49437112
-0.48213500
-0.84622973
-0.23458800
-0.01692509
-0.09122680
-0.86517417
-1.15438068
0.03073212
-0.00841379
-0.17605485
0.30705515
-0.04427109
-0.92312890
-1.14433265
0.38801426
-1.44313371
-0.00452236
0.02596879
0.14017367
-0.44765767
-0.71451420
-1.27824283
-0.14307868
0.14358300
-0.57866269
-2.73004723
-0.85257202
-0.68485516
-0.11537433
-1.05942929
0.99204165
-2.05481219
-1.05839062
-0.89783865
-0.50942516
0.16071168
-0.58404863
-0.90705520
-0.46664047
-0.94542158
0.21618710
0.48174280
-0.28995192
-1.41970849
-0.82052261
-2.17238355
-0.27950701
-0.43684873
-0.18624999
-0.64852232
-1.40296292
-0.85797322
-0.47370505
-0.49475321
0.36297226
-0.24155656
-0.41608968
-0.27154842
-0.05781359
-0.49211603
0.20868783
-0.31163174
-0.27190328
-0.41578454
-0.56776738
-0.50275517
-0.02267023
0.07019204
0.16349785
-1.92463064
-1.47052956
0.18774638
0.21245313
-0.54516482
-0.19725029
-1.30608499
-0.22313635
-0.34221157
-0.92660385
-1.46811986
-0.23879129
-1.07236016
-0.00614180
-1.01753569
-0.19384420
-0.86245388
0.34739619
0.41781813
0.06512560
-0.35065994
-1.97422159
-0.15063930
-1.12177169
-0.11338320
-1.49887717
-0.54889530
-0.69349390
-1.28465736
0.20211175
-0.81239098
0.20433775
-0.20165896
0.32420647
-0.34558657
0.25138304
0.20341483
0.38899523
-0.28045824
0.21206161
0.50312662
0.14380327
-0.69407523
0.02348558
-0.11770257
0.33000195
-0.13349219
-0.66154450
-1.71543050
-0.22771369
-1.16124749
0.66500968
-1.92211878
0.37997103
-2.51730990
-0.07417336
-0.45320815
-0.34510630
-0.57803398
-2.49165273
-0.73332727
0.00660214
-0.27076730
0.02660839
-0.44506133
-0.65576714
-0.76557684
-0.48464718
-0.13051671
-0.40351683
0.12238103
-0.25397408
-1.18359053
-1.63958383
-0.28270921
-0.19891648
-0.60692406
-0.33233470
0.13178578
-0.64126348
-0.12380095
0.10769743
-0.41979328
-0.10460623
0.02712216
0.22992340
-1.82883811
-1.52229333
-0.32600853
-0.25664848
0.43732965
0.52734792
-1.07496691
-0.25372657
-1.71619225
-0.27034286
-0.46364915
-2.04756737
-0.11488505
-0.18260834
-0.82700258
0.33337128
0.65090024
-0.13340363
-0.04251729
0.20131327
-0.87228984
-2.12045336
-0.72507644
0.13245068
-1.00726461
0.17287853
-0.84785295
0.21388562
0.06153671
-0.27888170
-0.04392295
-0.00215319
-0.16228914
-0.74942714
-0.39576334
-1.10312748
-0.92632324
0.06215664
0.49849364
0.34205341
0.39690998
0.22224718
-0.49326804
-0.36337960
0.06309015
-0.66494024
-0.68355197
-0.23156278
-2.59377098
-0.00059389
-0.37001473
-0.55372882
-0.66694850
-0.54110587
-0.39099535
0.84500188
-0.72052461
-0.09099814
-0.09251229
-1.90586257
0.17862548
-1.58140635
0.50370514
-0.86733580
0.15139413
0.28778145
0.37974763
-2.05573916
-1.12027705
0.40806267
-0.56453329
-0.31818384
-0.10784832
0.40011552
-1.54734409
-1.43368185
0.43657702
0.44876069
0.61773711
-0.48575833
0.26739541
-0.48482177
-0.56305778
-0.03607381
0.05182977
-0.91231602
0.33383420
0.36726633
-0.56331426
-0.07746807
-0.37073177
0.01369529
-1.26890445
-1.19119394
-1.44546843
-0.67333227
-0.18617895
-1.62411010
0.48270223
-0.37447590
-1.43628478
0.01983245
-0.38649210
-0.22642337
-0.91137296
-1.25481641
-1.15058815
-0.39295933
-0.16503449
-0.12207838
0.15734696
1.14072871
0.06823110
-0.55249208
-0.95178884
-0.57746673
-0.53133816
-0.65927225
0.05604574
-1.33347535
0.03387376
0.08724251
-0.00028367
0.35536602
-0.62588018
0.17140070
-0.19468868
-0.87883985
0.05045574
-0.31864193
0.06641988
-0.52575380
-1.55006468
-0.15574507
-0.14187223
-0.06206060
-0.35862762
0.38904479
-0.69076294
-0.92186046
-1.09313500
0.18934518
-1.35300040
-0.73497039
-1.45705867
-0.14664920
0.35445231
-0.82669103
-0.85788208
-0.25235698
-0.62641007
-0.16425282
-0.82795215
-0.12546672
-1.38338411
-0.41534758
-1.20744133
-1.31053436
-1.47660470
-1.00881255
-0.92099154
-0.41999394
-1.94486392
-0.34555349
-0.68826926
0.08620209
-2.56751180
-0.79668492
0.12119927
-1.59061813
0.23159336
0.00234437
-0.98624283
-1.10523415
-0.32783854
-0.66438991
0.32148495
-1.01799774
-0.07184096
-0.47555384
0.12307411
-0.26516145
-0.39009577
-0.08093463
-1.06474090
-0.47822815
-1.15874326
0.16486807
-0.40647504
-0.68390745
-0.95678008
-0.38724256
0.35080886
-0.75737935
-0.76445943
-0.20814735
0.03123317
-0.58600157
0.19257328
0.04954445
-1.06366181
-0.20597947
0.46934602
-1.61786628
-0.28703097
-0.43723676
-0.44778723
0.06433646
0.37208572
-0.63641435
0.42278790
0.43833479
-0.92849106
0.00509276
0.05485367
-1.20792580
-0.46355131
-0.93563330
0.64851546
-0.93949884
-0.80913657
-1.01777279
-0.23231384
-1.74863470
-0.61027664
-0.17268267
-0.61564499
0.66324526
-0.92091745
-0.30755547
0.21480466
-0.16209856
-0.47942525
0.54375553
-0.69491041
-0.21935549
-2.46359682
0.17349607
-0.52536726
-1.74332023
-0.20370021
0.36050433
-0.23200999
-0.12256522
-1.76103282
-0.17633983
-0.26423764
-0.42415217
-0.95106149
-0.26142859
-1.02024531
-0.66969079
0.03513961
-1.17282772
0.33662501
0.22398354
-0.79629880
-0.52738279
0.54609251
-0.53006011
-1.23395371
-0.63643104
-0.93601435
