-0.33493635
0.47236867
0.26202704
2.04596505
0.11621993
0.34547956
-0.32442480
-2.11757522
0.13688505
-0.06646506
-0.01988879
0.75972459
-0.02513336
0.53416099
-1.03817248
0.04636860
0.22313435
-1.83516465
-0.62349402
-3.27305239
1.12166170
0.29871723
-2.00877907
-0.48886752
0.44502906
1.12062919
0.08643253
-1.47925603
-0.34118680
-3.25773231
-1.12194337
0.20280614
-0.02896971
-0.11764964
-0.46372322
1.14216531
0.09504920
-0.30150781
0.13670325
1.65619691
0.85090002
1.69879653
-0.81203089
0.54610780
0.21485626
-1.34630886
0.27716270
-0.15146034
0.71589023
1.10416110
-2.49229373
-6.81740872
-0.00124625
-0.70100348
0.00728024
-0.82542418
1.00966822
0.21256020
-0.02764782
0.21719249
1.13869149
-0.78252603
-0.88796536
-0.76099431
0.22476054
1.70855967
0.20448643
-1.05765146
1.83153368
0.05569112
-0.85100480
0.18262398
-0.77717064
1.11456010
-0.80364171
-2.06687829
-0.41362854
-0.88979077
-0.28820172
-0.30413064
0.52380037
-1.91540520
-0.10792286
0.36510386
0.34541960
-0.50365086
1.18896553
1.08553265
-1.45912126
0.10548147
-0.24948438
1.23933401
-1.68019821
-0.08292299
-0.37350490
0.01403911
0.61348100
1.82191106
-1.84846262
-0.07506763
-2.07904751
1.52744571
0.78704190
0.48884980
0.07799393
0.26281954
0.82906544
-0.09851310
-0.86615030
-1.05864373
0.52624924
1.21385403
0.04221547
0.17297601
0.14421024
-1.36181795
-0.99030678
-1.01765901
-3.28613542
0.21855026
-0.80169442
0.35839170
0.70798239
0.15299072
-0.39037443
0.07062094
0.98847887
1.77364138
-0.79443757
0.12007628
-0.93517053
0.06436742
-2.16936164
1.44695803
-2.81524507
-1.30865378
0.41757272
-0.12933749
-0.93851542
-2.76980835
0.14826938
-0.21055501
-0.26412940
-0.29302225
-0.33410069
-0.88093543
-0.44371763
-1.78754522
0.55229021
2.06744393
1.46395514
-0.74753670
0.95064935
-0.11985926
2.20778958
0.12514994
1.39377841
-0.10682148
-0.06466330
-0.42277039
-1.98620214
-1.66130318
-0.79568295
0.59232157
0.20301273
-0.57494889
0.20095126
-0.03986867
-2.01221673
0.36086733
0.26597797
-0.34308119
-0.78145172
-2.39957984
-0.09287461
-0.91119370
0.43314208
-0.34780865
0.02096619
1.24266491
-2.55083019
-1.59417794
-0.23017249
3.35168720
-1.48195006
-1.19247229
-0.19076041
-0.74617089
0.34663773
-0.55088548
0.19331225
-0.07846476
0.44463224
-0.38062998
-2.47669666
-1.60459146
0.24312594
-0.06812330
0.21183511
0.46870495
-0.95670218
1.32302161
-0.39156334
-2.60353129
-0.10914241
-1.60363832
-1.20469369
0.74723746
-0.11970516
0.23153072
0.06621515
-0.04407398
1.03760794
-0.04135799
-1.96441614
-1.54536801
0.59646891
-1.40367001
2.03860899
0.98360974
-0.12191676
-0.67012437
0.01406887
1.54783052
-0.15296536
0.72877644
-1.64711379
-0.32587612
-0.65264976
-1.81215577
0.04572822
-1.47541334
-0.11125711
1.44479698
0.26241731
-0.05786358
0.03246587
1.29687163
-2.58475954
-0.25620562
1.01153742
-0.13543460
-0.80382601
-1.17271825
1.26171177
-0.34007341
0.08294898
1.00227757
-0.78015096
-0.64603159
0.16490482
-0.19956397
1.44312157
-0.45831951
-2.36591103
0.11137603
-0.67511733
-1.27685275
-1.48396245
-4.19732618
-0.52310415
-3.12169205
1.11935658
1.55200031
-0.20235753
0.15136107
1.51354392
-0.11208459
0.70740660
-0.21577747
-2.06290893
0.01622975
-2.36451460
-0.78159120
-0.11124797
-0.92830806
-2.49848536
-0.28997780
-1.48209505
-0.17275922
-1.75541831
0.34442303
0.01355029
0.38370616
0.05056104
0.04474060
-2.35340952
-3.43841309
0.00973539
0.21358669
1.45860339
0.78303050
-0.50670424
-1.48460433
-0.26874125
-0.59652610
1.59063494
0.12831474
-0.89749204
-1.81241415
0.99552421
-0.09180965
-0.97887734
0.40948199
0.95137499
-1.76150663
0.05393582
0.19808973
0.96504657
-1.67127442
-0.24324150
-0.59724649
0.17825991
-0.60073423
0.66224110
0.21548677
-0.65162837
-1.93101180
-2.02938982
1.45757002
-0.35586223
-0.43811761
0.30138667
-1.77769573
0.22673746
1.37241667
0.81243972
-0.11928102
1.58139942
0.07269930
1.56917851
-0.06720301
-1.97921152
-0.32238207
-0.37990177
1.35604403
-0.66064088
0.31737001
-2.46178072
0.61439171
-1.24088366
-0.67156646
1.29313572
-0.00765879
0.22881307
-1.62442626
0.79044256
0.27064760
1.05672660
-0.09854033
-1.55062765
-2.17842030
0.82602459
-1.09756512
1.36741919
0.43676157
0.77704412
-0.46658017
0.67629102
1.44192774
-1.21341132
0.33885046
-1.20488162
-2.81426545
0.09700130
-0.20481508
0.44769573
-0.49340646
-0.16120916
0.00143129
-0.57315907
2.22262939
-1.00826442
-0.49241761
-0.57849435
1.38730479
0.80282143
-0.16782997
-1.59644161
0.05926474
0.54614696
-1.99097237
0.40899937
-3.24577913
