-0.41727934
0.46265778
-1.08448134
-0.94168134
0.34343265
-0.13493469
-0.92686691
-0.45865730
-0.62539692
0.25019729
-0.15875937
-0.49938071
-0.70619850
0.00221387
-0.19726369
0.50976586
-0.56851730
-0.39711523
1.91182532
-0.76628129
-1.58631150
-0.26855845
-0.09407730
-1.10946751
-1.55325729
-1.06454934
-0.32613844
-0.18705607
-0.17398479
-1.32108419
-0.95617273
-0.05369460
0.03358586
-0.40505673
0.35574322
-0.50691473
-0.86889347
-0.58123113
-0.57473390
0.27792958
-0.17219699
0.17082668
-0.46098316
-0.65476736
-0.58252091
-0.65481570
0.43267117
-1.01817674
-0.79533629
-0.81633305
0.09913060
-0.32411149
-0.44694850
-0.42451107
0.37821221
0.01229301
-0.62766123
0.88779664
0.33266550
-0.35817894
0.21405683
-0.11022861
0.13196502
-0.43356501
-1.21219837
1.14783259
-0.15877189
0.01599014
-1.21643436
0.15015481
-0.74924894
0.06593031
-0.47285685
0.00690547
0.14258475
-0.39776518
-1.04465814
-1.21454086
-0.86619578
-1.03565397
-1.14441839
1.01486664
-1.03428098
-0.16447395
-0.64071487
0.48953095
1.16274103
-0.06771965
-0.58006106
0.64878320
-1.39488173
1.17037346
2.26667431
-0.90932166
0.36135665
0.64291138
0.27761175
-1.31167659
-0.49666206
-0.39336413
0.54929275
-0.61883496
-0.48464765
0.55894519
-1.16504564
-0.08693393
0.06264572
-0.92793577
-0.82756474
-0.47334971
-0.49817128
0.22720478
-1.12891263
-1.55765642
-0.24517733
1.56070262
0.55799543
-0.53650188
-1.42153462
0.14190047
-1.22823989
0.22464420
-0.16909136
-1.40278665
0.52599738
-0.07873804
1.26634981
-0.91386601
-0.83935311
0.16321482
-0.09729757
-0.99541007
-0.80749389
0.52137418
0.18141275
-0.45966814
-0.96049225
-1.18767099
1.46046559
-1.37516447
-0.03972501
-0.79146929
0.27554554
-1.24112054
1.46247975
-0.41579366
0.14069897
-0.25453011
-0.11883694
-0.35443231
-0.79855640
0.08944935
-0.63249255
-1.03220117
0.12299714
-0.92925069
1.49773877
-1.32620052
-1.13742276
-0.49437392
-0.28432514
-1.04747120
0.62088322
-1.14388558
-0.57431593
-0.25972379
-1.19207969
0.08221373
-0.30580325
-1.13082972
-1.48056928
-0.78179864
-0.81374494
0.33884130
0.59743706
-1.13158986
1.10218119
-0.83287982
-1.52398888
1.11490535
0.70017492
0.67117091
-0.39108182
-0.35726143
0.41409450
-0.30523073
0.69666349
-0.10596405
-0.14493930
-0.77741230
0.00013328
0.89010178
-0.72836141
0.36337194
0.22765400
-0.10723258
-0.26925486
0.27993428
-1.03883519
0.08058304
-0.98756254
-0.55864273
0.11339198
1.14843836
-1.28930648
-0.51731279
-0.56263995
-2.04651195
-0.18809649
-1.89632101
0.26559938
-0.76895878
0.25029506
0.11199658
0.03512552
0.27739303
-0.55095990
0.06073119
-0.63879667
0.31177479
-0.05658634
0.32920817
1.31856141
-0.56648658
-0.51128478
0.30291860
0.54413791
-0.73090852
-0.21335926
0.52900160
-0.91489609
0.19452765
0.17380576
0.10420989
-0.91629152
-0.49475756
-0.31433594
0.60124900
-1.04783934
-0.13923309
0.15761704
1.02343342
-0.42142751
-0.18726879
0.20795098
-0.70917102
0.96024057
-0.70229007
-0.99076197
-0.17809447
-0.62928789
-0.19227093
-1.03686874
-0.48887249
-0.74661007
-0.88542235
-0.22111360
0.19434939
-0.30912472
-0.98518336
-1.05601183
0.35266736
-0.09151492
0.18968925
0.21993702
-0.97518379
0.21940637
-0.27940961
0.37689755
-1.39797977
-1.10090780
0.17554970
2.15562722
-0.57806197
-0.13560861
-1.03827727
0.49433758
-0.70173849
-0.13865085
-0.58488477
-0.42634523
-0.91307012
0.40052916
-0.65153719
-0.78285484
0.11994424
-1.53080979
-1.86884819
-1.43094104
1.88745083
-0.77886845
-0.28963706
0.71896072
-1.13317485
-0.19912442
-0.37755186
0.30244787
-1.24693469
-1.22157132
0.90128778
0.95207439
1.49491128
-1.67734437
-0.86446805
-0.98752638
-0.56575685
-0.81748350
0.31556482
-0.44770805
0.42840519
-0.14865621
-0.42061647
-0.09563224
-0.34843824
-0.86485182
-1.09160312
0.00187987
-0.95151660
-0.34460305
-0.17424771
0.68157978
-0.21545386
0.64364972
-0.90829324
-0.94703153
0.25026416
-1.21450415
-0.95216871
-0.10117629
-1.35913212
-0.07502503
-1.27189490
0.00289034
0.20456351
-0.09794712
0.17977236
0.23912585
-0.83707079
0.07808482
-0.79625696
-0.77456534
-0.49641613
-0.37288627
0.15509010
-0.93787053
-1.70921219
-0.96994296
-0.64896977
-0.59550220
-0.59482611
-1.39130796
-1.23790028
1.35452909
0.72529535
-0.16931918
-0.06539549
0.03493895
-0.35279626
0.07298421
-0.61379261
-0.49033593
-0.13769064
-1.68064335
-0.28573038
0.17830339
-1.30259493
0.08085357
0.09612345
-0.87658633
-0.67929053
-1.48454399
-0.15808774
0.25511857
-1.64353389
-0.79786821
-1.84838099
-0.92611870
-0.62761709
-0.74140813
-0.45337592
-0.29873212
-0.76736522
0.68459796
0.62484315
-0.19905416
-0.53066358
1.09789039
-0.60401599
-0.11260105
0.27788309
-0.11686791
0.32961599
0.46295509
0.83677858
0.43086356
0.32764934
-0.78977256
-0.97324870
0.03826626
-0.22514989
-0.70601419
-1.29755972
0.00448490
-0.25284310
0.92745650
0.70171181
-0.91962792
0.21700260
0.42201255
-0.87639330
-1.61052115
-1.25397641
-0.37246929
-1.36641017
0.17012696
-0.24253232
1.04592231
-1.11870147
-0.96426796
-0.15997834
-0.32269500
-0.90675776
-1.61476166
1.20799315
-0.22206319
-0.20198697
0.86682675
-1.07576039
0.02710690
-0.67827111
-1.61689255
-0.92007007
-0.28692405
-0.80153854
0.17102412
0.02099331
-0.24056080
-0.40282920
-1.70709629
0.51010495
0.65828679
-1.10909301
-0.24251479
-0.27718109
-0.74157841
-1.14371248
-0.29924997
-0.30155626
1.41154386
0.33584813
-0.75553542
-1.19582672
0.81496967
0.01732589
-1.10751112
-0.05212573
1.03847014
-1.47327495
-0.67844395
-0.24302734
0.73800402
-0.21638830
-0.74016996
-0.60713756
-0.83524189
-0.42780757
-1.56432122
0.29948066
-1.94823740
-0.17619433
-0.70236677
-0.41831110
-0.08578843
0.71510828
-0.97251854
-0.99057676
-0.68175552
-0.58936546
0.12253144
-0.75332846
-0.50617129
0.05332068
2.25909292
-1.51910635
-0.58887760
-0.43266742
-0.67329658
0.30315650
-1.74865334
-1.10079822
-1.88328040
-0.47194938
-0.89499574
0.25751913
0.43582679
-1.54717302
-1.12478840
-0.53347819
0.21451163
0.00013658
0.22190273
-1.16816374
0.62335851
-1.13140944
-1.83448060
0.42974722
-1.04096708
-0.81711674
-0.22231223
-0.43210828
-0.69944295
-0.26292210
-0.51019565
0.28306003
-0.66905447
-0.04857382
0.11467497
0.27273513
-1.32145524
-1.44733331
-1.19101775
-0.65065727
0.05964443
-1.54712937
-0.86122788
0.62425878
-0.47966836
-0.84992055
-1.94004758
0.19745456
-0.73609521
-0.68900724
-0.93530542
0.48692024
-0.58336084
-1.45841693
-0.45377628
-1.03631572
1.02110334
0.02162462
-1.49989634
-1.31706017
0.67225297
-1.25893466
-1.29245266
-0.86189790
-0.15002637
-0.93205760
0.10047059
0.23003847
-0.99170054
-0.19372172
-1.12387652
-1.03532289
0.20804853
-0.27325330
-1.07313998
-0.82167879
-0.11241476
-0.39126350
-0.54076585
0.41044904
0.00486576
-1.01848365
-0.23735930
-0.50745664
-1.13994663
-0.36512670
-0.60206457
-0.32564897
-0.33261897
-0.92892673
-0.11769528
0.88304028
-0.13464615
-0.57430298
-0.20130060
-2.27561618
-0.09719142
-0.57231201
0.04149306
0.47225472
0.02268631
0.08300458
-0.68494762
-0.52745502
0.12883502
-0.65346919
-0.63968532
-1.03168835
-0.12270492
-0.13409775
-1.49973789
-0.42869645
-1.55047207
-0.08304582
-0.59357520
0.06278505
-1.40145420
-1.08444163
0.19362648
-0.39417471
-0.16384362
-1.10503188
-1.98112455
0.21464822
-0.54100922
0.40281308
-1.04488222
-0.85009307
-0.70600040
-0.43109591
-1.39405738
1.24627702
-0.33725950
-0.50084992
0.66723190
-1.25294437
-1.04318055
2.32111984
-1.06786313
-0.07174990
-0.93404285
-0.17571809
0.46446575
0.14772468
-0.06094025
-0.19780082
0.11087769
-1.08642927
-1.27093613
1.23870869
-0.63495899
0.98605887
-1.24835308
0.18396213
-0.98149454
0.02898387
-0.48269438
1.94045319
-0.28340968
-0.12819239
-1.11825079
1.16665289
-0.94576528
-0.80588337
-0.62170995
-0.64974183
-0.36371957
-0.23771765
0.24898135
-1.35133351
-0.07111573
0.23505323
-0.40948134
-0.82098684
-1.07753968
-0.22781993
-1.16467645
0.32736287
-0.46013941
0.49597004
-1.36321887
0.63036550
-0.95878414
-0.39297024
-0.11561616
-0.00675298
-0.56965097
-1.47983957
-0.27439112
-1.30936097
