-2.22993813
2.58770537
-1.62605153
-0.25573966
0.75871637
0.81629036
0.26861841
-0.79252534
0.68314173
-0.91355975
-0.61181721
1.06320007
-0.48580653
-0.85067090
0.04354033
0.00674757
0.68327057
0.56210010
0.75752829
-0.73558020
0.41510980
0.13802066
0.61750719
0.76242656
-0.57168680
1.15412473
0.56101126
-0.51837781
1.15257636
0.54567385
-0.40183730
-1.12483825
0.13960455
-0.63266745
0.49055789
-0.30137312
-0.63211304
-0.66527335
0.20088361
-1.43257837
0.14598363
1.32646425
0.67615172
0.23154625
-0.53845141
0.17498236
2.16328201
-0.77944609
1.47535564
0.12771307
-1.18337906
-1.04915791
-0.20361253
-1.30989392
0.26771740
0.44785744
0.78710937
-2.49905164
-1.07985186
-0.20792268
0.62277906
-0.88139102
-0.34078806
-0.77688598
-1.07678280
-2.92377035
-1.25008200
0.53890753
0.95657203
-0.53148544
-0.13330156
-0.52578507
-0.84997045
-0.69485691
0.13887795
-3.00488767
-1.50839028
-0.86404921
-0.58980069
-0.46098510
0.27415922
-1.25928905
1.32965418
-0.27261389
0.61253727
0.80556436
-0.69413657
0.64996984
0.45863228
-0.85851987
-0.72156543
0.42543871
-0.64033827
0.11700422
0.17147311
-0.46114805
0.39767169
-0.87278067
-0.85021669
0.98735008
-1.93783531
-1.38704898
0.52393534
-0.02460848
-0.10917468
-2.70756445
-1.31012520
2.07309126
0.33135224
-6.04449240
0.83468797
0.74109035
-1.23486019
-0.71708312
-0.56076493
0.24796116
0.22211940
0.99812294
-0.64765192
0.09796913
-2.61845249
1.15910569
0.70331113
-1.07869496
1.38345029
-1.15625188
0.21453926
0.28186282
-0.64408213
-0.99593187
-6.55495148
-0.45331434
-2.80240805
1.10641369
-2.99177443
-0.14043365
-0.86726409
0.44574837
1.56801374
-1.27161933
-1.33610212
0.11219929
1.21025568
-0.07343144
-1.48935757
-0.49409925
-1.51444018
0.41938807
-0.07596535
-3.54430946
0.06723364
-0.54907830
-0.59500445
-3.27147359
-0.90952626
0.15782869
0.12430282
-1.17553759
1.32826256
-1.18105764
1.08471450
0.85733738
-2.53933715
-0.81759140
-0.40541056
0.39125852
-1.61490703
-0.52832353
0.39349447
-0.96527646
-0.15972628
0.16222220
-1.80183114
0.14360410
0.60178770
-0.31687910
-1.52321134
0.47739150
0.80566286
-0.92972945
-1.30370474
-0.86759224
-0.94047209
-1.06114654
0.18485885
-1.26628304
-0.87119969
1.97422346
0.47943838
-2.04492211
-0.13582926
0.34394677
-3.40167490
0.87553432
-1.28830016
1.47343495
-0.97121430
0.38770234
0.18219291
-1.42156228
0.15848117
-0.48956967
0.04101726
-2.10854570
0.02924200
-0.97805363
-2.54610471
-1.39604016
0.47931441
1.27546508
0.71037037
-1.76899283
0.92109952
-2.11238736
-0.79084318
-1.02148553
-1.06793687
-0.43568087
0.25154545
0.47825919
0.67490013
-0.66481984
-0.75026732
2.39274511
0.72886597
-0.67368225
-0.43150269
-1.04140674
0.18856734
-4.13236315
-1.20997404
0.94709727
0.41141081
-0.58437369
-0.42794620
-0.61353389
3.31419274
-0.82613902
-0.15194848
-0.06822233
1.87216041
-1.43448299
0.49455318
-1.06797881
-0.05377777
0.03383578
-2.88950458
0.94578688
-2.48245165
0.58804122
0.17789012
0.74964996
-0.56654564
0.34425751
-0.35501754
0.27874070
-0.04558713
-0.43117469
-1.48082592
-0.72580481
-0.09201300
-0.88612055
-0.97976520
-0.04209730
-0.06061019
0.96898055
1.66483953
0.63867540
0.21996825
0.52665056
-1.87742205
1.18027315
-2.38058812
-0.32545994
0.44470059
0.03157865
0.60402328
-0.53043111
0.08380884
-1.20673611
0.39738308
0.34420032
0.20555450
0.74187660
1.08882440
0.10540788
-0.65944857
0.88784020
1.45467442
-0.75526103
-1.34413229
1.81479269
0.59098683
-1.18445379
-0.33624768
-2.54635957
1.23677291
-1.31511171
-1.14778796
0.70972719
-0.21132902
-1.03750918
0.45579489
0.84970100
0.63111485
-0.99439644
0.66194543
-1.38555425
-2.13147742
1.70776307
0.20158425
-1.67572329
-0.19345030
-0.79523096
-0.08410793
0.57281245
-1.09001371
0.32717949
1.63542144
-0.20117291
-0.80957357
-1.02263117
0.43775151
0.22629129
0.30225007
-0.38361930
0.72864263
-0.58829942
2.89990094
0.56100167
0.81943823
-1.11838221
0.79024582
1.60187298
0.41861196
1.36053511
-0.72763940
-0.20839561
-0.09836005
-0.24404552
-0.90516982
-0.84570832
0.38556972
-1.24394132
-0.98625320
-4.04874187
-0.22209086
0.66114691
-0.38485073
1.93917234
0.10280054
0.71073361
0.71019331
0.88767661
-0.17485177
-0.24232013
-0.70341259
0.89237036
-0.53732415
0.63936372
-1.67673579
1.59246746
-0.86442220
1.72602070
0.70766064
-0.47547635
0.70888516
-3.50944970
-0.56945429
0.43219679
-1.12192320
-1.30494531
-1.13223010
0.62279175
3.32393864
0.77706681
-1.09513936
0.19489074
-0.03787811
-0.49562936
-1.47551640
-0.07130295
-0.06627141
-2.28515372
