-1.44516449
1.01754116
0.33531683
-0.02098191
0.76976011
-0.82537195
-0.42235674
0.33181097
0.50637624
-0.55548763
0.98303771
-0.29893566
0.40306528
0.96430290
0.47181373
0.46420531
0.67045247
-0.47694872
-1.84601715
-0.99411229
-0.14362496
-1.84783572
-0.62398681
0.60914880
0.14813508
0.07969399
-3.73855544
0.58087843
-1.10725542
0.32345217
0.70311487
2.23911450
0.72054796
0.66124560
-2.88294001
1.42273397
1.48559819
0.66712960
-0.51877958
-0.18261937
0.23768246
1.14745917
-0.41075666
-0.60040216
0.84331026
-0.15647306
0.72247007
-0.26962452
0.15528360
0.57105005
-0.28368114
0.80630475
0.14525551
-3.06283581
0.80169952
0.96754452
-1.21084391
-2.79169224
0.63226556
0.88043647
0.57561468
-1.11377631
0.65667016
-3.54618554
0.83820966
-2.44170864
-1.97649506
-0.91862897
-0.93195649
1.69162335
-0.53976105
-0.06857988
-1.52146566
-1.06939924
-1.22037781
-0.30899059
0.22296035
-0.25615765
2.96282600
1.63968239
0.67070415
0.94436835
0.44257547
1.05465601
-3.04743427
0.17957491
0.27009079
-0.55424309
-1.15124081
0.19227110
1.38476547
-0.50604449
-1.10904580
-2.12319474
-1.17878164
1.21895856
-2.83787634
-1.02203446
0.10663005
0.54900506
0.63381569
3.18365711
1.06630075
-2.19974118
-1.95655737
-1.63215886
1.29449165
0.60263429
1.21301817
-1.39975190
1.60586597
-0.43787768
-2.07853483
1.67934698
-2.18915550
3.43492915
-2.12974233
0.37806573
-0.05833667
-0.34066243
-0.33304660
-1.15806819
2.20994232
-0.39008638
-2.15974145
0.23871411
-1.33695626
1.10319172
0.56888627
0.50783006
-0.11976703
1.23115864
-1.37094437
0.35854106
-0.23391701
-2.20802703
1.05450429
0.73667694
0.49933062
-0.34597258
1.94268489
-1.05674683
3.06957426
-2.37893656
0.66569446
0.47799180
-0.88479937
1.87951107
-0.47120002
-4.15184333
-0.70981699
1.06399589
-0.76915559
-1.04992693
-0.27699395
-0.79499993
-1.36368218
-0.82840646
-0.47742921
0.75903591
0.52214472
1.62526314
-0.20041008
0.46163695
0.53365398
0.16793743
1.18996309
-0.48283605
-0.73056256
0.49427624
0.76484393
-1.33214057
0.64560493
-1.76466005
-0.66483114
-1.13852044
0.80321350
-0.11882290
0.82294095
-0.19361306
-1.02813877
2.31192656
0.39680406
0.06962828
1.04725540
-1.45581137
-1.47203173
-1.22098349
-4.02805203
-0.46386132
-1.02989790
-0.66096427
-0.86540999
-0.79200182
1.63559449
-0.99087313
1.52760079
-1.09772916
-1.33175669
-2.43799985
0.25164466
-0.18463870
-2.42877838
0.79260894
-0.31316827
0.49039999
0.63476660
0.43523700
-1.34200921
2.11940077
0.92908681
-1.13418282
-0.77187530
0.84807101
-0.20367921
3.35458649
1.06249758
0.96176841
2.97797571
-2.89608023
-0.03995278
2.05738606
0.54251767
0.14470486
-0.28374925
-3.36184336
-0.47697286
-0.99996013
-0.70011431
-0.03569439
-1.05114038
-4.03966648
-0.98148827
0.08562610
0.70834169
1.80951543
-1.94074814
-1.30276937
0.61307383
-1.83731160
-0.72998764
1.44263833
-3.23835655
0.06586763
-1.07121362
0.95385808
-0.49787544
2.30371927
-0.86612197
-1.79568954
0.62152866
0.70141731
-0.42401592
1.15234036
1.69967907
1.96808348
2.09682302
-0.99908594
-2.36343038
0.45564894
-0.36480988
-2.50026064
-0.54147925
0.23902895
-0.97062684
0.47106142
-0.87194940
-1.03862701
-0.30294358
1.41284327
0.43670936
0.98303682
-0.47827636
-1.28349413
0.60928791
-2.03457140
-1.19659626
0.02760880
0.14573805
-0.07645059
-0.01522468
1.25641044
0.11346194
0.93935846
0.39141007
4.34076997
-3.80227918
-0.70947804
-0.57009371
-1.19044569
-2.75713854
-1.49853095
0.32473643
0.80733542
-2.86968406
0.18999331
1.23525625
0.50964832
-1.44811295
0.45956992
0.13812559
0.57763890
0.25895832
0.32890852
2.67143122
0.38838595
-1.21336509
1.98809298
0.28339703
-0.87114381
-0.63898358
-0.12457476
0.15854172
0.39191667
-0.55064260
-2.81117199
1.60720254
-0.78267675
0.53268383
0.45455333
-1.02365092
-1.15104732
-3.50796858
-0.37791319
-1.05513960
-2.82193459
-2.13781255
0.33498436
1.29874908
-1.06701149
0.96853370
1.95022497
-1.99229722
-0.37410962
-1.12247177
0.96216445
1.13774925
-0.55034318
1.61991512
0.41910746
-1.05159963
-4.32423348
1.47383503
1.37916882
-1.32233788
-1.33906923
0.58419468
-0.60259325
-1.18701764
-0.46490676
0.07262905
-0.85026474
0.41825118
-3.87048323
1.06662012
-1.27522831
2.09747505
-1.01831405
0.60180360
-1.14859777
-0.63256885
-0.48035840
-0.26226011
-0.47665862
-1.46134463
-1.80385268
-0.84170544
-0.98854254
0.42543982
0.94050563
-0.69975103
-0.79854651
3.06508293
-0.99539746
-1.81216890
-0.05289004
-0.56096150
0.79668090
-2.09555867
1.92685044
-1.20272852
-0.00356818
-0.02042316
-0.91785990
-0.46070209
3.92534054
0.03240652
-0.62256760
2.06384044
-0.85014346
0.15524622
0.36561566
-2.00482956
-0.87364289
-0.13125195
0.18941495
-0.54825678
0.83093797
-1.00362316
0.35827379
2.11630950
-1.56199831
-2.29224869
0.46373907
1.13625564
-3.13908096
0.45094107
0.30218552
-0.98146147
-1.12248158
1.10990110
3.25186798
1.62727174
-0.64424195
0.04464339
-1.71433313
0.32861645
-0.89264431
-1.49497263
-1.40582466
-0.37509506
-0.28187112
-0.37649689
-1.06090247
1.27021835
2.98359383
-0.63918918
-0.90062273
0.30629697
-0.60554578
-3.64842421
-0.42396934
-0.77329601
0.79388546
2.37091339
0.89795891
-0.24975668
1.19829839
-0.85655126
-1.58315712
-0.54869285
-0.74179330
-0.01146505
-0.95313329
0.38014373
0.91263005
-0.14011559
0.60478417
-1.13587341
-1.25939040
0.79272192
-0.82245732
-0.47798585
-0.13532054
-0.89710554
-1.40887903
0.72383574
-2.19535176
-0.32432892
0.32961896
-0.33275951
0.67421903
-1.08867472
5.90473514
-0.64050623
-0.27388238
-1.16779858
-0.40776976
1.43245876
0.45477464
0.54169801
0.77636307
0.39881403
-3.80999053
0.26000155
0.64512818
2.12972846
-0.99397317
2.66681951
-0.73447526
-2.81514120
-1.40430435
-0.25682764
-1.97911405
0.28681111
1.63581545
0.30270576
1.28992198
0.52708922
-0.18032010
0.30822209
-0.31829524
0.31931726
-0.50545743
0.84309828
0.53453264
0.81419509
-0.86661762
1.03787330
-2.77492919
-1.71116607
-1.48778013
1.81769022
-1.66082266
-0.27602315
0.54203516
1.53316745
-1.53979930
-0.84815380
-2.50039671
-0.13192062
0.45204810
-0.43729320
3.19416143
-1.67290561
0.21263271
-0.37249146
1.75058755
-0.12506467
1.21088291
0.17202963
0.05459219
0.50668869
0.00628020
1.01009339
-1.29054439
1.65071184
1.18084574
-0.48974013
0.45355731
0.48334895
-1.45250222
-0.79381349
0.70263198
1.09434367
1.47231203
-1.94808698
-0.76848175
0.24861080
1.11231541
-1.03498800
0.96580019
0.67745194
0.51330744
0.98060137
-0.80597996
-0.61083964
-0.28793666
-2.31752357
1.58081994
0.32230988
-0.94358426
0.49641332
-0.81860296
-0.82852640
1.28657679
-1.48228759
1.29419614
-0.73080428
0.55765289
0.68577420
-1.24281193
-1.12282834
-1.37086197
-0.72560432
0.92824193
1.02091832
-0.94319825
0.57992424
-0.79098861
1.71690800
0.69861490
-1.06416549
0.96076353
0.57969747
1.43244382
0.07877764
-2.81638770
-0.25782541
-3.09526814
-0.83814711
1.04471511
-1.04970752
1.09384712
1.72283660
-3.94820653
0.27998850
-0.12488175
0.16399953
0.55418289
-0.73111524
-0.42342587
0.18565890
2.02685851
1.36293049
2.47693016
0.61094689
-0.98470188
-0.65777705
-1.37654197
-0.48833190
-1.03689637
-1.32247742
-1.34954889
-2.29908792
0.43380660
-0.45609152
0.91396347
-0.18208743
-0.32864998
-3.57451991
-0.22376198
1.50399970
0.62662121
0.85117031
-1.18158428
-0.91862754
0.21152064
1.47026922
0.24135012
0.11617600
-1.18593499
0.19696027
-1.27297670
-1.24145883
0.24235530
0.14617387
0.39854908
-0.94827181
0.17971381
0.23427397
-0.25500074
-0.25938530
-0.86220217
0.92617221
0.35081532
0.96999907
0.53588257
-1.97048035
0.88383256
-0.36590615
-0.05496868
-2.08049004
2.90892697
0.85693651
0.17204165
0.15643358
0.95399795
-1.39503247
-0.65467493
0.38437461
-0.52289471
0.77447691
0.58850719
1.47529798
0.71487939
1.10830418
-0.45790975
0.37885127
0.53999130
-0.62402565
-3.50118521
-0.38220910
-1.02344452
-0.39367037
0.73362217
-1.03673168
-1.25073229
0.78713639
-0.56965349
0.72563560
-1.82776394
