0.11994259
0.55506191
0.00909667
1.52792352
1.38855849
1.03322043
2.11658481
1.97694878
1.17398291
1.45607946
0.18813058
3.04354305
0.63923215
1.85834737
1.41618512
1.49368537
1.26028193
0.74447277
1.51777732
-0.44293895
1.73740379
0.90295114
-1.15073165
1.40711314
-0.21790403
0.21321655
0.98167177
0.46885490
0.56298848
0.15105628
0.98888683
1.31429364
1.74950124
1.81209484
1.10712816
0.98566599
0.63944820
1.25105722
1.09525862
-1.00025237
0.91198500
1.53277481
0.36549405
2.18060628
0.92638753
0.40453776
0.24305141
1.62767036
1.92160052
0.95628481
0.71882431
2.72287416
1.61359293
1.39132710
0.32485919
1.84382616
-0.26396641
1.20020552
2.35526172
1.78869127
2.53371227
1.37314249
1.56186769
1.85008322
-0.36494232
1.99496339
0.33373216
-0.61064965
1.86479326
2.20248689
1.59175517
1.34834974
-0.61868316
1.45412284
0.07134498
1.90249954
1.68719567
0.60153843
1.48813979
0.10212473
-1.02596376
2.17478069
-0.53115895
0.70893537
1.73948104
-0.45128371
-1.06784316
1.10975453
0.78766758
0.62454053
0.82138613
2.47766423
-0.15221416
1.89062997
2.27569183
2.34616807
1.49950140
0.17814762
0.48662239
1.44081890
2.23646335
0.21073519
-1.08372267
1.10188858
0.24140648
-1.10443371
1.68408224
1.69628122
-0.56599425
1.25563752
-1.52839223
0.63752039
0.93008946
0.40236443
0.66402987
-0.33118878
1.85714463
1.93048016
1.19961711
1.34985033
-0.49496349
-1.83429978
-0.37902055
1.20094141
-0.33560957
-0.01555517
1.63991779
-1.00155861
1.62923764
1.51224052
0.61331445
0.62338127
0.69895298
2.12403984
2.23340486
0.94225711
1.37546906
1.38413559
0.44513133
0.16588625
1.13295695
1.73019152
1.06916353
1.62843582
0.19449824
1.69495913
1.15222043
-0.19676309
3.61341645
0.68514388
0.90624817
1.46546498
1.93123758
2.89776595
-0.06997795
1.03431519
1.75993250
1.05086849
0.14571154
1.72345360
0.92336343
4.94416487
0.61882318
0.06883131
2.69092391
1.69556496
2.16562616
0.49195135
1.47632624
1.09159924
-0.16400800
1.28699180
0.81996241
0.60344504
1.09475442
0.23577047
1.48972294
1.08390167
-0.20390543
1.80539164
-0.61323999
-1.62661166
2.05395197
-0.28936111
0.67474459
-0.46831930
0.03005170
0.80887393
1.05895779
0.21274823
1.67098061
1.74133767
-1.01613687
0.65373736
1.56657160
2.11469973
1.06763364
1.82181087
0.69413706
0.83546796
-0.59366439
1.53536458
-0.89693095
1.45476019
0.97863744
-1.18744691
1.64893269
1.60347442
1.44495521
0.91397102
1.78294016
2.62256484
1.51507495
1.33570849
2.03806928
2.00172106
1.08189802
5.06522590
0.52727343
0.67346412
0.33549704
2.31321011
1.13830487
0.98136586
2.92683785
-2.00887164
1.70160234
0.74058988
2.13061466
0.13390750
-0.10078531
1.21975183
0.18059486
1.51834096
0.66165842
-0.94084299
1.78994909
-0.67110732
-0.10155179
0.03617768
0.43674661
0.37714389
-0.13502748
-0.89860734
0.77112485
1.37798449
0.93779695
-0.25290699
1.21878845
2.55404099
1.52772795
-1.32694340
2.30409435
1.72954072
1.54858702
-0.40920465
0.69921812
1.04352890
0.35267705
1.53370790
2.05653966
0.51001316
-0.48421170
1.72741663
1.37329116
1.96621872
0.11200531
1.66578492
1.40889751
0.68483124
-0.54132980
0.80773184
0.57540593
1.98107151
1.19021815
-0.78990692
-0.09588551
1.98263606
2.24757306
1.00166436
-0.17231440
1.86828202
-0.15694314
1.28015625
0.49127622
1.00362716
1.50852120
1.64606782
-0.28702107
-0.54093667
0.23749693
0.38278430
-1.07636427
0.59740648
1.69964894
0.59162139
-0.54662444
1.52553547
1.26965898
1.64972649
0.04823416
1.39236360
2.23940308
0.66405886
1.57805284
-0.45913607
2.02881809
1.84229041
0.56904241
-0.51784537
1.66571178
1.18354126
1.17319057
2.16342127
-0.41049928
0.62640706
0.38522356
1.62487750
0.88969372
2.48470900
1.03225352
0.55816088
-0.76114307
-0.42897747
-0.10064446
0.71974484
1.17472481
1.62937790
1.47639070
-0.00704909
1.86989194
1.90299574
1.64304497
-0.18391615
1.35779298
0.78217097
1.85858148
0.61511949
1.38510036
0.04123035
2.03585114
0.96276727
0.73133170
-0.94389482
-0.46161106
2.09899835
2.52539660
1.23272663
1.29351772
-0.05663982
1.66859459
-0.56384424
1.37392064
0.46802146
1.85710583
0.50180641
2.23761742
-1.06145943
-0.32103994
0.25245348
0.59797494
2.23445423
1.53827895
2.19587871
0.08071739
1.28490147
1.87467894
0.82264674
1.18440633
0.56530213
1.61755352
-1.11754893
1.60676113
0.52271078
1.74589126
0.95043527
-1.14141169
0.67842894
1.25739296
1.92055300
0.34388792
1.22919642
-0.74389677
0.56429267
-0.71276350
0.90053234
1.44513092
1.43944429
-0.09379396
-1.75603235
0.81861775
0.29735524
0.61840927
-1.21781668
-2.53423600
2.32278297
1.63649336
2.80679196
0.80725560
-0.23329837
1.09420957
1.38066202
0.94142395
0.83926461
1.61497400
0.43310814
-0.37392775
1.31703851
-1.14430501
-0.25816599
1.50180287
0.70687976
1.08531351
1.37357352
1.14874709
0.22472017
1.69879652
1.59547007
2.37396629
0.12354592
-2.16090768
1.67294446
2.07357131
1.11983282
1.05115779
0.71505900
2.23176759
-0.30255975
1.74649084
0.29501056
1.35008744
2.17379054
0.48635971
-1.54570820
0.72242783
1.86720287
0.60556001
0.19053143
1.50444086
2.07201892
1.52868800
1.38397102
-1.02587795
1.25388525
-0.21798315
1.48044309
8.45703512
1.89780171
0.76757423
0.54377686
1.21062966
1.53044561
0.33834595
1.53472565
1.43186012
2.50205429
0.37903235
-0.13562066
1.65941348
0.21552289
0.94944857
0.07558928
-0.25983671
1.02317994
2.20800870
-1.18627461
1.17261653
0.26886562
1.60963788
1.61529495
0.70112057
-0.00281996
1.58694610
0.55750015
2.08961703
1.57779074
1.71838725
2.27823703
1.56795301
-0.15033671
0.29793100
1.43449575
0.69793065
1.78676318
-0.11143880
-1.83554105
1.70160373
1.56146042
0.91595868
1.67716690
0.91820160
1.93590241
0.18688614
1.76954903
1.63485449
0.50101905
0.31121189
1.58435762
0.12236721
-1.27827481
1.12485012
1.89352884
1.15193614
0.88071749
1.60945105
-0.04657939
1.97930441
-0.77895052
0.83291213
1.33419675
0.99193000
0.89247061
-0.14861398
0.83232806
1.52219826
0.94725629
1.16552619
0.41511398
1.80889662
-1.85952729
2.43647837
0.97776537
1.01212147
0.59771327
2.13187244
1.41182522
0.66885176
1.56143273
1.31889301
2.08818792
-1.79273309
1.01765060
0.88772741
0.35363335
-1.95211158
0.89973987
1.52690139
1.33760138
1.62316621
1.82240892
2.66057305
1.16395396
1.67423501
-0.95454326
-0.92695028
2.17988823
0.39780992
1.33902346
0.07350184
0.38254507
-0.15886805
1.74791860
1.70799534
1.78915282
1.35784229
0.00942837
2.42311147
1.57411630
1.58388176
0.48022105
0.26006188
1.01301030
1.14208936
1.13041913
1.57316385
1.83082226
0.71359213
-0.43763629
1.78132694
1.43039214
2.84621889
2.20531993
1.36100101
1.20814055
2.76650825
0.51693580
0.61854361
1.66233790
-1.35222389
1.56492703
2.06050554
1.66858742
1.75707403
0.49772848
-0.94845964
0.22437211
0.96784787
-0.40503808
1.42230578
0.80891814
0.65193338
-0.03882980
1.44142153
1.61156598
1.12477174
-0.20183277
1.66047971
-0.68757618
1.30116573
1.00254617
-0.34462016
-0.32076586
0.54845719
-0.20985847
1.34947856
-0.26768422
1.48991053
-1.27603003
2.15936305
1.63010881
0.73453692
0.53993084
0.84107845
0.19834525
0.79480782
2.68217530
0.13401109
-1.43172894
1.63437732
0.28086639
1.14418928
1.24244217
0.41182652
-0.61031909
0.16022698
0.29092687
-0.43586256
-0.34658520
0.78243494
1.41612278
0.94323829
3.23061759
2.17908654
1.30945117
1.77639275
-1.01408473
2.05358109
0.87314342
0.94610963
0.55118615
0.60915890
1.67099176
-0.10628933
-0.00890978
0.49284130
1.56820831
1.26585949
1.91286315
1.43436652
1.21012904
0.33505824
-1.16890704
1.01215893
-1.50811204
0.06834953
-1.91891246
1.71697107
0.51550080
3.95160598
-0.65099459
1.15183964
0.80928071
-0.60130816
0.97497820
1.03803459
1.43815592
-0.38354986
1.35920885
-0.81044430
2.65458820
-0.93774283
1.69362074
-1.61847227
-2.66509521
0.20359761
0.84912881
1.10248432
1.44849225
2.75122417
0.59442755
1.10607936
1.66481884
-1.98285931
2.14425275
-0.15184730
0.93503255
-0.40993916
-0.54684637
0.91746983
1.22793107
0.00243079
-1.85030460
0.67412182
1.47118900
0.41640798
1.33853069
-0.19249025
0.08423746
2.92481715
0.99039236
2.04607341
1.03255227
-1.09777745
2.16453324
1.50964787
1.70265510
2.90547881
-0.94283510
-1.06130144
1.92052958
-0.69508556
1.60691819
1.93647717
1.29371611
-1.21052922
1.99818808
0.15389786
0.65020318
2.59637768
0.97886467
1.09229859
1.52510067
1.14219017
0.65966708
1.70523571
0.73759844
1.96208096
0.83277098
1.51904527
1.97146515
-0.60777091
-1.18477351
1.56797356
0.36309089
1.60018367
0.84959091
0.94176001
1.45874569
0.95427795
0.96924808
2.12657526
0.15104859
1.70730590
1.47668672
1.65498484
1.61606966
1.98830329
0.66477519
1.85919093
-0.72517837
-0.45679511
2.13377485
1.73689075
0.36330330
0.12222537
0.30745777
0.97367931
1.11064409
0.69596563
0.11868698
-0.23458583
-1.81611995
2.06070999
-1.22676256
1.44894646
1.17403291
0.19285114
1.20136342
1.11806511
-0.05517629
0.98881221
1.73091981
1.91653663
-0.21282055
0.40163304
2.51952765
0.40743279
0.93021494
1.76894612
-0.00658455
-1.52653037
0.16901007
0.35169794
1.80536684
2.06924387
2.61857529
0.59499815
1.17679879
0.53751101
-0.15412985
-0.12814400
0.90376323
0.32645617
0.15490726
1.93483040
1.28897413
-1.10113726
0.64599127
0.91785570
1.70717249
0.97003079
-0.52851669
1.74351424
1.64374665
1.43119066
-0.19063385
1.84336187
1.14208490
1.56331618
1.25286460
-0.57930072
1.83742438
1.96645206
-1.41506224
-1.04499098
1.05797688
1.75262637
0.60208491
1.90151757
-0.45106603
1.98042485
2.01506407
1.36029165
1.70683535
2.03841709
-1.38381893
0.27691526
0.02093165
0.13228027
0.07475746
0.57666368
1.40809210
-0.76032938
0.10548674
0.20963154
0.84678091
1.44607664
1.24021366
1.63638069
1.80158307
0.46287248
2.27279046
-1.10871931
-1.48864123
1.84185244
2.61818801
0.89330875
0.46979319
2.18152525
0.44700100
2.00577263
0.77347429
1.28265743
1.30926190
-0.88368342
0.63358686
1.15225622
0.46356615
1.78438123
-0.10409384
1.50251764
0.43412986
1.67756292
0.57335264
0.51286542
1.95375433
1.13129809
0.87680789
0.74775632
1.30850980
0.44600816
0.20441532
1.98608808
-1.12642006
1.25895543
1.70066937
2.24291132
1.16421508
-0.05163071
1.20186967
1.39203759
-0.86283358
1.26606405
0.50356819
0.65527529
0.90257940
1.31308739
0.21193001
1.23570003
3.15544254
1.56435522
1.07045704
2.06591930
1.00491320
0.90268237
1.10759087
2.09413285
1.83490437
-1.62916168
1.20754619
1.06731490
0.25270224
0.55696899
0.76967958
0.73262621
-1.24596551
-0.17850333
0.21342222
-1.54188177
1.74041721
1.41881856
1.59314511
-0.71059882
0.83334453
0.96503356
-0.32903518
0.19263245
0.37992418
1.52403875
1.46544670
0.12486622
0.50040449
0.12913392
2.10091115
1.58345445
0.95989678
-0.59403826
1.77543915
1.34017737
1.40588156
-0.05068885
1.62272943
-1.73870583
0.00610896
0.72876547
1.12608335
-1.83370690
1.86030808
0.05877467
-0.63600671
1.11367743
2.24910874
5.39254004
2.99836037
1.44255215
-1.03024044
1.79544403
2.47831413
0.21018887
2.09288728
-0.80776687
1.87197249
1.39948730
0.84852714
-0.52308697
0.49098190
1.45805293
-2.61902572
2.20618596
-0.00151063
1.32744108
0.05967655
0.61798512
0.52385499
1.06256589
0.35496195
1.59483374
0.19884977
1.26528821
1.53046149
1.07283995
0.70564791
1.29455078
1.24187132
1.15189733
0.68310016
1.56385883
1.20973590
0.79102484
1.62909420
1.55517842
0.69630565
-0.49246812
1.80820805
-1.21855828
1.65140621
-0.47573420
1.65101984
0.94577823
-0.23198781
0.49242328
1.24496139
0.57075437
0.58184341
2.48165207
1.18136591
0.54897740
-0.58659020
2.13342286
-0.00548098
-0.05168840
2.53301063
-2.12392053
-0.79415486
1.41806297
-0.10457738
-1.13673000
1.82292389
1.95924034
2.48079571
1.71445521
-0.27901970
0.77451291
1.25158785
0.98786318
1.35250332
1.66578395
1.87875731
-0.60022810
0.27967056
-0.82294010
0.04791701
0.31107796
-0.03437582
1.57516732
1.10144248
2.82600923
-0.15128332
1.37204909
-1.23612179
0.09912491
1.01450849
-0.93934023
0.45483060
2.25250777
0.19184939
-0.15354312
1.53450950
0.64030743
0.25515960
0.46547383
1.89081022
0.46817380
0.77255257
1.03727204
3.95674870
2.29812113
-0.91236615
0.60726030
1.05368250
1.12462570
1.92205935
0.55181881
0.56707149
0.42688774
0.48568832
0.76224808
1.97483591
-0.62333405
0.86668533
0.23798678
0.94166302
1.12781304
1.74784569
-0.74656272
0.43916262
0.80692219
0.42967367
0.74946327
1.65241136
1.15277183
0.94223407
1.14867338
1.75614819
0.12275094
-1.33912596
-1.81931851
1.39783111
2.45422865
2.08787239
-0.64423308
-1.57686391
0.34458510
2.57632944
0.13442303
1.07172601
0.87840095
1.69368807
1.80119292
0.42935790
1.31570500
1.04571999
0.36945865
-0.32673332
0.35900257
1.61741797
0.78321760
0.17676226
2.15675134
1.56990762
1.65607589
1.37749173
0.25509862
-0.17469171
2.31064352
0.57508568
2.63236206
1.69881167
2.41812467
3.26585366
1.50094277
-0.68442552
0.25801079
1.08767722
0.14006424
-0.30562986
0.93600298
-0.66085835
0.43148137
1.96747471
1.38058929
-0.02899451
3.51518454
-0.09285451
1.09196326
1.34853230
-1.53857136
-0.30670849
0.82891178
-0.34799166
-1.02994494
1.54421032
1.33363552
1.33031641
0.86268398
1.33709250
1.10644984
1.92937076
1.06562681
-0.00343154
1.07917059
0.17110094
-0.98539449
2.13180631
0.37589790
1.17763425
-0.38444238
0.35548928
-0.17779463
-0.16690571
-0.72510367
1.80700901
