0.23074369
0.10231386
0.21284378
-0.69766450
0.13443640
-0.39584010
0.15687612
-0.46750512
-0.25051455
0.32736204
0.10470435
-0.43149041
-0.26590877
0.41343782
-0.49090721
0.10508802
-0.11626095
0.11515350
1.13104582
0.17223699
0.20391662
0.09195172
-0.12308077
0.67700244
0.84201658
-0.07913978
1.02152739
-0.25621967
0.21735637
-0.48313622
0.06010229
-0.57215006
0.05770047
-0.51653325
-0.60499070
0.46769714
0.10449874
-0.15953427
-0.72975555
-0.21967163
0.43665777
0.33818789
0.40738030
-2.21059375
-0.85563238
0.67987460
-0.15408215
-0.00919051
0.57433726
0.95008475
0.23514402
-0.58586319
0.28667543
-0.28579621
0.09701906
0.02908435
0.60164480
-0.02265511
0.69858542
-0.20844098
0.18021761
-0.38747983
-0.39965497
2.15815821
-0.83662086
-0.03860733
0.14696679
-0.81751004
-0.25791178
0.03838978
0.96823853
0.37927565
-1.06823273
0.37626436
-0.15995198
-0.53089761
-0.29698995
-0.74408021
0.35753487
0.37463772
-0.76682372
0.98258840
-0.34799725
0.12178030
0.05233026
0.13151881
-0.22377120
-0.71952346
-0.35194881
-0.75885991
-0.31192163
-0.35988100
0.06877971
-0.44513660
0.93449556
-0.52858988
0.02289374
-0.55491437
0.56999313
-0.06831119
0.23595518
-0.05746030
-0.04968510
0.19181852
-0.24785938
0.08176123
-0.22011292
0.36059091
-0.19087511
0.31233288
0.81131426
0.08498557
0.21202259
0.55405433
-0.79319961
-0.50062789
0.37259247
-0.46611399
-0.01420781
0.19398201
0.29463134
-2.00236830
0.06002006
-0.42366901
0.21425978
1.04264151
-0.30990162
0.58998314
0.66397838
-0.01331430
0.66456287
-2.39868731
-0.41039508
-0.11880806
0.78535674
-0.09320693
-0.41958258
0.65959733
-0.07495405
-0.02048292
-0.64449883
0.32345192
-0.26069775
0.58734025
-0.11331103
-0.03360648
-0.48435434
0.21091572
0.08293181
-0.22263604
-0.04650633
0.07452207
0.06242602
-0.88597215
-0.37314623
-0.41108166
-1.30403375
0.09776179
-0.18961241
-0.10793760
-0.87898873
-0.57604431
0.00720733
0.10656701
0.04106756
-0.04010331
-0.10720223
0.16365232
0.04224935
0.17633696
0.76308314
0.17510615
0.69317777
0.07806578
0.64796684
-0.70761311
0.43231615
-0.62423230
0.18466735
-2.65393622
0.25023556
0.23354942
-0.76795135
-0.50297088
-0.27484330
0.46150204
0.11666649
-1.77544018
0.45093528
0.56755118
0.10205463
0.06468805
