-1.48469073
1.07231302
-0.16310308
-0.86261566
-0.11760364
-0.24570815
-0.13260900
-2.13576756
0.63445398
0.04828300
-0.31147413
-1.41145648
0.44704117
0.41500864
-1.13401672
-0.46370861
-0.67276044
0.98922503
1.11034394
1.22985236
0.26123166
0.53165398
-1.24935108
-1.36690561
-1.15987221
-0.39786996
0.79619263
-0.07443809
-1.19515507
-1.50176734
2.17801542
-0.39921243
1.95673458
-1.12554489
-1.78824679
1.10208144
0.00902380
0.31333699
-1.01634398
0.21067770
0.78347560
0.48511871
-1.30490013
-0.32186568
-1.43307683
0.09542280
-0.36682413
-0.72456433
-0.70877071
0.03473609
-0.48939479
-0.04808960
-0.41248398
-0.56204870
0.58051899
0.94258445
-0.51213581
-2.44296160
0.11247025
0.46277610
-0.89850002
-0.02235141
-0.61801782
-2.30165241
1.15260665
0.46162109
0.61388565
0.88035117
-0.28595129
-0.34718546
0.66948527
-0.45529201
-1.54864435
0.78643735
0.38349089
2.41892461
-0.14801625
1.23114796
-0.35811247
0.37687853
-0.61230000
-0.61783505
0.49511793
-0.08313742
-1.44290834
0.92661748
0.34905264
-0.17539805
-2.55650312
1.12876019
0.15522634
-0.91405008
-1.28118918
-0.76329832
-0.90744865
0.09077125
0.61950134
-1.16005183
0.98799041
-1.90021265
-0.64594295
0.80422625
1.51759386
-1.89861439
-1.41008945
1.35263766
-0.48696614
-0.23848981
0.56900584
-0.22192099
0.81066573
-0.32564535
-0.97427880
0.82314026
-0.33405462
-0.04184947
-1.79265137
0.69532745
-1.47752729
1.17503534
0.22241286
-1.11189006
0.16146540
-0.62487629
-0.54142504
0.01868588
-0.18342617
-0.27265147
-1.50597420
-0.91145299
-0.23896502
-0.53371732
-0.63541364
-0.13948850
-0.99800177
-0.89971051
1.31050856
-0.16175155
1.04684431
0.01320727
-1.95983373
1.03517565
0.39580985
-0.35477281
0.51435810
0.06611574
-2.22668365
0.27098623
0.31464458
-0.14366916
0.59712903
1.85488061
-1.27681612
-0.27926606
-1.23764663
-0.04799334
-0.48220539
1.06285594
0.86154580
0.04541243
-0.30761684
0.24168714
-0.16950312
-0.32198464
1.02831458
0.79565241
-1.52481642
-1.58677149
0.82499613
-0.83270207
-0.37871765
-0.00033517
0.84959770
0.11805959
0.09325853
-0.55898000
0.28957401
-0.75637670
0.40002649
0.45662483
-0.20320358
-0.70051763
1.28636013
-1.45766041
-0.30775190
-1.38033996
-1.32774248
2.90011704
-1.70310193
-0.17116031
-1.52554778
1.67861305
-2.43414991
0.61492207
0.76619511
2.05621312
-0.50883096
0.38016633
-0.20430486
2.20116588
-1.24367907
-1.02488360
-0.57863146
-1.28844950
-0.59598062
0.04810242
-1.55818446
0.66028422
1.03401049
-0.71906361
-0.91275449
-0.18125367
1.27426468
-0.00338999
0.04547445
-0.51004934
1.41204493
-0.64996089
0.35279513
0.55142654
-1.25047325
1.34533685
-1.13106666
-0.24858300
-1.38091422
0.34333567
-0.46997489
2.64811102
-0.67870675
-1.52170263
-1.23876209
-0.20631399
3.38848335
-1.16294956
0.77336542
0.84977664
-1.41326797
0.53700464
-1.09596563
-0.29889881
0.59489045
0.65573265
-0.10480275
-0.20242277
-1.27844712
1.12881211
-0.14820985
-1.22708142
-0.24982966
-0.44819597
0.04421951
-1.32504402
0.71354835
-1.02376114
0.17758941
3.72969520
-0.12572645
0.95616148
0.37808457
0.19721064
-1.29806881
-0.84654302
-0.81980250
-0.85776896
-0.94459786
-1.84084769
-0.49653780
-0.02832063
0.27598462
2.21112268
0.04709736
-0.47627146
0.86708619
0.38355908
0.10103638
0.21944957
-0.65046686
0.66830724
-0.44134541
-0.20226853
1.20609126
-0.53146879
-0.98624363
0.54030594
-1.50045529
0.01874755
-0.88902449
0.38687691
-0.36069066
-0.15094599
1.10691952
-1.05559074
-0.77522388
-1.15614962
-0.23433403
1.70691053
-0.83022359
-0.40374769
0.28848500
-1.39024045
3.26271799
1.43899120
-0.23268564
1.90021618
-1.19506655
-0.93945394
1.03685334
-0.38796856
1.29248357
0.36359399
1.17065968
0.77745929
0.98242216
1.88002963
0.00343277
0.02774233
-0.63217911
-1.16824951
0.28541888
1.05100354
0.91410117
-0.52111256
0.70184302
2.48565228
-0.39392546
0.30802198
1.08741818
-1.08354565
-0.64540676
-0.12098763
-2.17591002
0.93099326
0.76243801
0.49140549
0.86554590
-2.24106192
1.04174641
-1.49037801
-0.60256167
-0.97236029
-1.34579575
-0.80278017
-0.46870051
-2.56732469
-1.09573018
-0.48807527
-0.10913339
-1.05134256
-0.45434327
-0.84400026
-1.18407468
-0.00074668
0.06141206
-1.01590915
-0.70735691
1.23852440
-1.36736386
0.74818522
-0.97278196
-2.24052696
-1.00816215
-0.91076588
0.66183333
-1.39746807
0.93341130
0.08304942
1.77014798
0.24375502
1.81087394
0.15010464
-1.66873032
-0.45626722
-0.35498846
0.11741968
0.51398357
1.50308909
-1.09562087
-0.04141118
-0.58000348
-0.47943110
0.19541303
2.91053580
-0.31823883
-0.47848729
1.30222961
-1.30179247
0.73059725
1.75702444
-0.78749758
-1.01546637
0.24147135
0.16218576
-0.04660980
-0.92661282
0.61474406
2.33346489
-0.20502274
0.03662393
0.39266691
-0.56338850
-1.10781229
2.20802534
0.47372137
0.66658737
0.91071281
1.17681793
-0.48792246
0.40922302
-1.18384826
-0.83721283
-0.76968466
0.47614875
0.87734850
-0.49974704
-1.34673871
-0.74505458
0.09031744
-0.29662673
2.49329803
-1.39625661
-0.16162286
-0.18097961
0.69998449
-1.78967360
0.75234742
-0.33325801
-0.58568809
-1.67312539
-1.07539182
-1.51401923
1.31440695
-0.45391720
2.80454820
-1.42725845
0.89904230
1.65744420
-1.14833948
-1.32547528
-1.45173316
-1.37760264
-0.13042434
-0.16005670
-0.17318585
0.33613081
1.12211177
0.46414127
1.81479791
-0.01610435
-0.30072888
1.48556825
0.10458221
-1.29535560
-2.33707736
-1.06931814
-1.50057980
1.13851732
-1.57873141
-1.50116967
-1.40334276
-0.63110432
-0.12863384
-1.39524411
-1.30982910
-0.38946676
-0.03327528
0.09841432
-0.75766957
-1.46857745
-0.39807589
1.74187139
1.64662282
-2.85858294
1.90343070
1.07504098
0.17293687
0.41185266
-0.38650151
-0.41047172
1.25123978
-0.66533964
-0.73075641
-0.93356467
0.28554650
-1.26951602
-1.44803177
-2.72152773
1.04435057
0.01898904
1.11795766
0.67689809
-3.08395048
0.15848774
-0.30786316
1.74549322
1.40012100
-1.88407688
-0.47985097
-0.37056097
1.23990662
-1.07930202
-0.09972277
-0.43991717
-0.26773033
-1.11687933
-0.94289397
0.28421597
-0.15527468
0.91974017
-0.06579596
1.37896555
-0.46227494
0.42714482
-0.51922574
-1.36353090
1.73014866
-2.30834240
0.96129244
-0.21125696
-0.04593840
0.30175931
0.31203245
0.19279439
0.81094653
-0.68402855
-0.96221551
-0.32709001
-0.29065845
-0.52266851
-0.53014587
1.07759231
-1.10550780
0.06330629
-1.79911768
-0.43133667
-1.41009666
1.35354928
-1.28950281
3.64113061
-1.32471442
0.64400543
0.81730319
-0.08957673
2.16589051
-0.28716482
-0.28579680
1.80845925
0.50107122
-0.26330352
-0.08708384
0.85138117
-0.45771744
-2.63747274
-1.23318249
-0.24901497
0.19754936
-1.05914261
1.13272083
-1.62140664
0.75603446
-0.48934442
0.12570568
1.45357301
-0.81099676
1.24346297
0.93682675
0.08914512
0.00308195
-2.19903068
0.35081385
-0.75698780
0.86194750
-0.48551168
-0.34648327
-2.15203618
-1.24229234
-0.48918233
-0.08103136
0.80101859
-1.10945791
-0.87398618
1.12713020
2.20614598
0.22003988
-1.42819330
-1.26191114
2.49110909
-1.00101438
-1.21676103
0.27744211
1.58655445
0.05942229
-1.29560861
-0.65491638
1.20595621
2.41924707
-1.59023095
0.84313420
-0.21406494
-0.15230732
0.71163847
1.21097727
-0.69422748
0.95593757
-1.22971935
-1.10442235
1.06128438
-0.47101404
-0.58442079
0.36758749
1.42880357
0.45264473
-1.01957087
-1.29540252
2.13712020
1.21740854
-0.57806330
0.46869934
-1.16543449
-0.92917634
1.62963860
0.47418645
-0.13922484
-1.13386337
1.46369243
-0.77913530
-0.44277679
-0.82771341
-0.69962296
0.95719787
-0.27247575
-1.34363960
-0.91689990
0.65565016
-1.27793396
-0.06076419
-0.14580339
-1.40828362
-1.05209969
0.28673555
4.01556771
-0.11196612
-0.95974760
-0.76422860
1.97785953
-1.48256771
1.11065706
-0.53634593
1.63868454
1.27560212
2.25182758
1.00550083
0.37406801
-0.21186642
1.20212663
1.00478865
1.01089287
0.70258101
-0.11696472
-3.50692208
-1.01088886
-0.01845974
1.34334238
-0.54813113
-0.79655769
-0.12221097
1.80947194
-0.98866087
-0.58038452
0.37537448
-0.30223303
0.64552040
-0.49406347
-0.94017009
-1.13092064
-0.50806106
-0.25121982
0.10546474
1.17992797
-0.31915867
-1.04795059
2.54311944
-0.14514682
-1.53682292
-0.46996083
-1.44818309
-0.12771455
1.13495753
-0.27330779
-0.10089554
0.75249494
-1.27345634
-1.06200581
1.05349838
-0.17371389
-0.46172161
-1.92348467
-2.31670959
0.98080361
-1.55390821
-1.21688438
-0.71827367
-0.58207432
-1.29018057
-1.32005271
-0.00925132
0.79876204
0.82981488
-0.37205128
-1.44921218
0.26787731
1.09480949
-1.17082312
-0.35367902
0.60629366
-0.86272105
1.21369401
-0.14918914
2.46208160
-0.59704453
-0.18641351
0.19175532
-0.12134621
-1.20797986
-0.70797188
-1.00986556
-0.08408785
-0.47873068
0.91818367
-1.01669402
-1.00144795
-0.54984565
-1.73534856
0.41814030
0.34075555
-0.22626010
-0.42588890
-1.28439578
1.46381776
-0.34547532
1.38687196
0.54358011
-2.89800122
-1.51710115
1.11997219
-1.03725339
0.89094442
2.84349622
-1.42161757
-1.03546173
-1.76851390
-0.77610734
-0.74952072
3.55599256
-0.32189675
-1.18314840
0.70639252
-1.17214296
-1.21178833
-0.58682221
-1.48868976
-1.75465675
-0.08457683
-0.03482302
-0.65354503
-2.50558456
2.35249341
0.63506735
0.17842754
-0.09896630
-1.19368294
-0.89202276
-1.28616679
-0.44321775
-1.33069103
-1.43566656
-0.39916425
0.05216657
-2.94488926
-0.00111884
-0.51184987
-0.52876814
-1.41483187
-0.65382679
-1.38607308
-0.10663653
1.02203069
-1.02003781
-0.36510686
0.02259940
-0.18389936
4.03119963
-1.02520227
1.49803185
-0.87457398
0.35395365
-0.42663496
0.65132642
-0.55819137
-0.24596749
-0.92746814
-0.94073499
0.19786311
0.42060338
-0.99588563
-1.09710020
-0.28828383
0.09695247
0.26345010
-0.32726287
-1.10979580
-0.81868864
0.53526801
-1.32353159
-3.25691092
-0.27543766
-0.42271493
1.10397288
-0.61827264
-1.58599464
-0.81297454
-0.77036442
0.38241440
1.33836663
-1.16588819
-0.28890758
-0.75589979
-0.11297043
-0.45271924
1.59327425
0.01163145
-0.93910132
-0.53832798
-0.40767482
-1.36859464
-0.56644158
-1.25177246
-0.13807573
-1.51467623
-1.29546789
0.31901321
-0.42287144
-1.15680652
0.14535821
0.55875913
0.29356417
1.14546786
0.01501858
0.75388402
-1.25835813
0.36355769
-1.30070078
-0.76509004
-1.43481124
1.04440720
0.34476881
1.54989089
-0.49123193
-2.92324095
0.83127542
-0.04756704
0.06355369
-0.37968548
-0.59057386
0.62368464
-0.86584341
-0.42359068
-1.17856797
-0.42056697
0.38487764
-0.23925443
1.14132662
-0.03809837
-0.96194557
-1.16567257
-0.77134659
-1.62798907
-1.27102307
-1.42661294
-0.31570913
2.08369953
0.59809363
-1.52071869
1.50185348
1.26681284
2.42056463
-2.21570411
1.67871888
-2.18442806
-1.23758102
-1.07634543
1.77644030
0.74500437
0.04356004
-1.65483906
-0.05702938
-1.08425746
0.44467464
0.74680001
0.97091515
0.16913325
2.27830452
0.49205992
-0.43083732
-0.59033712
-1.39183778
-1.40574630
-1.65576634
-1.15055350
0.47246845
-0.22452000
-3.06307478
0.35021095
0.57566754
-0.30624155
0.12366799
-1.18840334
1.22747646
0.31036903
-1.21290120
-0.26146113
-1.21318342
-1.07770564
-0.50512491
0.39020846
1.00028918
1.34200283
0.44616854
-0.97429190
1.51068538
1.48707212
-0.03879028
0.26871199
-0.26085645
-1.59714001
-0.17627788
0.92848285
-0.61173340
0.58662005
-1.28862138
-0.07939095
-0.77488361
-1.41735077
-0.59248176
-0.98337602
0.38564950
0.16142677
-0.56237406
-1.62092804
-0.00751136
-1.10761769
1.66809495
-0.66855319
1.55480471
0.26706858
1.40796023
0.46294021
0.59586173
1.27011018
-0.03386836
-0.50267381
0.98586822
1.27701682
-1.16011058
-0.54457802
1.31686274
0.37854478
-0.89097406
0.16941489
-0.61081931
-0.20367796
3.09777973
0.78295719
-0.33388967
-1.01831722
-0.34078012
-0.55154071
0.24855263
-1.64520626
-0.25791015
-1.79136661
-0.10812147
-0.51105272
-0.19080682
1.24387641
-0.43253278
-0.71176449
-0.01221057
0.45639174
1.09968090
1.51277223
0.26800974
0.51361499
1.13038145
-2.86371882
0.47991688
1.65413126
-0.48157720
-0.05874151
-0.68363602
-0.61644542
-0.85052720
2.01101539
-0.14460248
-2.06076146
-1.42536689
-3.16496209
-0.72688627
0.26000560
-1.18826474
0.60163007
-0.68678817
-1.29789103
-0.40339494
-1.27671353
-0.31427383
0.52903607
-1.19068100
0.32759073
-0.77372846
0.14618993
-0.89524987
-0.47661446
1.11278585
-0.83150724
-0.55251207
-2.38604645
-0.05969157
1.08985907
-1.39765079
-0.55339924
1.39113764
0.53684142
-0.46904570
1.08146745
1.32501288
-0.41104498
-0.14997490
1.42076662
-1.35060397
-0.62385987
-1.27013563
1.24673397
1.21865992
0.19070396
-0.04474406
-0.59404891
0.77372234
-0.63061829
-0.60686263
-0.81084270
0.15380351
1.63650159
-0.69957553
0.89553892
0.57409729
-1.30228011
-0.32734391
0.85190961
0.74090078
-0.35094400
-1.10256121
1.07052752
0.28464003
-3.33182127
-0.11550446
-1.25020815
0.00881077
-0.36446215
1.32863691
1.39016500
0.32639853
-1.32952235
1.39384814
-0.62562867
-1.16939013
-1.04401303
-1.19739267
-0.38881588
-1.40286714
0.43547049
-0.46734549
1.40505185
-0.01932486
0.43277698
-3.97224332
-0.38359418
-0.35859986
0.10126763
-0.26227947
-1.57624750
-1.13584333
1.33664473
-2.70989608
-1.88704896
0.96662652
-2.68108159
0.25082492
-0.50783006
-1.59393401
0.88363783
-0.40109271
-0.42344411
-1.07054343
-0.31645282
-0.20906043
-0.78177270
0.99005656
-0.05530068
-0.49948993
0.79303114
0.36608469
0.99042030
-1.61630999
-0.76652832
-0.48987557
-0.66457595
0.63126715
1.15109826
0.37751595
-0.71268981
0.68633220
0.28190908
-0.78075368
0.34904207
0.24511432
0.15355674
1.00058211
0.01345930
-0.03699846
0.64175689
-0.42239833
0.11935788
0.83886775
-0.78342599
-1.05673036
-1.74533228
0.18744151
0.23968801
0.80050980
0.57961903
-0.34138946
0.52309474
1.95701643
3.35713955
-0.27323064
0.18753313
-1.50915849
-1.23854973
-1.36771004
0.43777752
1.00133557
-0.95599800
