-0.13290834
0.01976102
0.05885487
-0.91755603
-0.29354287
-0.72339369
0.26304028
-0.45362600
0.21344372
0.34548755
0.33628221
-0.53804258
-0.58551066
1.17312213
0.14187678
-0.48080634
0.53759825
0.21256696
1.34614575
-0.55970062
0.84294139
-0.35717933
0.20055382
0.50774536
0.38643243
0.23833183
1.30185567
-0.57851569
-0.03983083
-0.29469362
-0.05781861
-0.50685396
0.12159061
-0.49588147
0.77822478
0.07079880
-0.67710574
-0.09170138
0.10376522
0.46011057
1.36274454
1.03495669
0.10882476
-2.17201928
-0.43364576
0.74806500
-0.05518383
-0.35253147
-0.24994109
1.15451465
0.28551547
-1.14560244
-0.47567632
0.02572120
-0.64578261
0.43384148
0.25650608
0.35126745
0.58271388
-0.97637035
0.54641324
0.03550699
0.20280106
2.47453732
-0.75868640
0.25056029
0.19186204
-0.29295698
-0.08164443
0.51248755
0.92140446
0.93209548
-0.74500374
-0.83708657
-1.74177143
-0.68929184
-1.50498958
-0.84392024
-0.25584718
0.38932380
-1.02234021
0.04346784
-0.18702521
0.40304442
0.43374203
0.09327499
-0.06715556
-0.57619237
0.11158058
-2.03876540
-0.32393437
-0.14079321
0.02249246
-0.76434289
1.57850450
0.08067344
-0.25835194
-0.41613403
-0.31548143
-0.05467978
-0.52404847
0.18861966
-0.32116988
-0.22693328
0.26147490
-0.12608411
-0.01854931
-0.14341939
-0.34806396
0.50875679
1.09667892
-0.15095364
0.20134527
1.04500403
-1.23604704
0.30159702
0.11766550
-0.42051567
0.20979123
-0.40319000
0.57700926
0.57901345
-0.35206436
0.36145893
0.08943757
1.06687464
-1.22882425
-0.31117844
1.09627052
-0.25707277
-0.22311868
-1.56919691
-0.33178277
0.15790652
1.26334749
-0.32905968
-0.05133459
-0.31894261
-0.17897536
-0.05945614
0.69189203
0.49964778
-0.17868781
0.46959355
-0.07200966
0.77419720
0.15382259
0.46694108
0.85012781
0.43960664
0.71198325
-0.05151906
-0.14332134
-0.76610258
-0.72408285
-0.28869320
-1.08469764
-0.42487622
-1.00506039
-0.20377760
-0.32479016
-0.37860245
-0.12249318
0.46105801
-0.08430346
0.11925399
-0.90560239
0.47276289
-0.19958402
-0.04707987
0.00599960
0.09408880
0.82204663
-0.44742589
0.62445186
-0.17576498
0.08146628
-0.62263646
0.05511522
-1.22500600
0.15067209
-0.23665312
0.35910190
-0.73197247
0.14191957
0.09310191
0.06905374
-1.69569880
0.58651372
1.64659282
-0.23736070
-0.19327154
