-1.11309212
2.61280505
0.51638805
1.14599350
1.67904997
-1.76058279
-0.18945364
-1.33695818
0.67036636
2.92876078
-2.11505318
-0.15954125
-3.36600585
0.17566178
-1.07857067
3.19663582
1.19458605
-3.02181588
-0.91206242
-1.13000287
-4.42751642
1.56028436
2.16701359
0.25330232
-0.38953354
-1.24366592
-0.41998352
0.62433672
1.37814083
-0.26896989
-3.86516845
0.37932260
1.02112187
0.02639061
-0.77181256
0.78253127
0.21140673
0.40340740
-1.71536841
1.26109419
-1.49183520
0.15358045
1.42234611
0.34038085
-2.07626281
0.01703016
-1.20524002
0.01162507
1.50894464
-0.32654538
0.48725793
0.72655871
1.10412039
0.52250594
0.58183503
-2.52076422
-1.54135122
1.75525879
-2.42659182
-0.25422329
0.62858638
-1.18514928
0.95415240
-0.45947577
3.62071746
0.54493541
0.27523696
-0.79073072
0.76519060
-1.32256512
-0.75980062
1.81632665
1.11408891
-1.84329132
2.00245069
-0.41367099
0.16918252
-0.45256934
-0.21982732
-0.61372977
1.34809657
-4.00836214
1.58134221
-0.35005514
0.17381359
0.57369724
0.66015615
-0.37161629
0.42508255
2.39215409
0.69329817
4.18141164
0.40993921
0.29843811
-0.09974886
-0.50751769
