-1.53475458
0.51024865
0.26967252
0.54575121
1.99817832
2.41503557
-0.57716456
-1.43584485
-0.59514178
-0.34213298
-0.05330481
1.39536989
0.09644240
0.03611799
-1.04710342
0.13596128
-1.64169404
-0.27143847
1.40395878
-1.00977004
-1.22813433
0.17547386
-1.44436104
0.73693899
-1.28057487
0.51246089
-1.03460208
-0.58261623
0.88110403
0.05131125
1.04495533
-1.83038024
-0.17534540
-1.64931919
0.03513281
-0.02037494
1.57687577
0.87333563
-0.62986079
-1.47885759
0.37717435
0.15577231
-0.91711456
-0.34705902
0.94985598
0.32660679
1.37951070
-1.33788032
-1.25824252
0.00728740
0.70638141
0.65786555
0.61426859
-0.98326473
-0.69273691
0.53556887
1.15900246
-0.10272078
-1.90053897
-0.73441026
-0.61411659
-0.31652193
-0.00019226
0.01230245
0.03149146
-0.34901352
0.05057494
1.27264250
0.25026959
-0.35608726
-0.37112487
-0.54648104
-1.09219683
1.45854328
-0.06940848
0.43440619
-0.85846402
0.25212355
0.45078875
-0.18045625
0.10716118
-1.24062874
-0.91689580
-0.02785144
-0.88834947
-0.14702717
-1.17580926
-0.67118628
-0.38503944
1.27667996
-0.39305707
1.16085506
-0.66324569
-0.37644728
-1.03994409
0.09731149
-0.79439468
-1.25257038
-0.74549921
-1.04821331
0.75977278
-0.82648339
-0.08905575
-1.61824249
1.78776887
-0.21172560
-0.32345304
-0.21178085
0.57747991
-0.13934124
0.00192475
0.55516518
0.79985365
-0.14431781
0.22030197
-0.35573983
1.06118168
-0.53778485
-0.45167358
-1.19640153
-0.02179396
-1.61088406
0.30606358
-2.40130987
-0.42848084
-0.28239459
-1.23015159
2.06238217
0.22920703
-0.25172457
-1.07236295
1.06995503
-0.37507117
0.77488269
-1.56669586
0.83321428
-1.15254236
0.11683312
-0.44487438
-0.82446595
0.96305387
0.17231553
-1.94868485
-0.10628969
-0.05083030
-0.50742756
-1.53078966
1.08647042
-0.38260171
0.02947139
0.90311620
0.02300949
1.09087168
0.01833469
-0.27635787
-0.06746807
1.48833139
0.08683608
-0.43574846
-0.80897294
0.27448328
-0.44737423
-1.52424306
-0.13073694
1.12640609
-0.35715841
-0.38932349
-1.29624886
0.87535047
-0.66525827
-0.26403705
0.16399537
-0.83012791
0.19926300
-1.39668846
0.00501693
-1.99553118
-0.27033472
-1.13734896
-1.17817120
0.74569723
-1.40559055
-0.04393994
1.51127074
0.00885715
-0.14033041
-0.56516097
-0.04591872
-1.06837120
0.29320515
1.14502105
-1.76111011
0.36188651
0.28780876
1.65335156
-0.64896619
0.14177587
-0.46897794
0.10332130
0.55697760
-3.37230864
0.34048684
-0.24842982
0.28135734
1.79557971
-0.60349618
0.18742456
-2.06837277
0.56454823
2.06958425
-1.14795165
-0.99106764
0.18349221
-0.01279231
0.05073111
0.09095916
-0.64075020
-0.37637332
0.36903829
0.37357741
0.40452744
0.93534127
0.05400486
0.77464578
-1.03914192
-1.71705864
-0.46805669
-0.15770744
-0.79347923
0.08403379
-0.91780107
-1.61330335
-0.23963960
0.34036763
-0.20301106
0.85739797
-0.14651277
0.38395198
-1.30187175
0.21387815
-0.53510152
-1.07638484
-0.13580732
-0.08854547
0.74716126
-0.07523523
-0.23638077
-0.82289145
0.62072396
-1.44289416
0.16644684
1.56085648
-0.06581892
0.92631135
0.04123724
-2.25517597
0.23735735
0.71895055
1.23061481
-0.10761604
-0.36481762
0.28533007
-0.17097460
0.16710470
1.64489406
-1.10497249
-1.42797635
-0.05300927
0.41767817
-0.78948898
0.29704823
-0.13105908
-0.00345571
0.67585855
0.05235258
-0.54234176
-1.64283483
-1.04674676
0.48454965
-0.56273280
0.63119253
1.30605354
-1.15658057
1.07620628
-1.65689005
0.08330662
-1.65136298
-0.27773089
-0.12466713
-0.52574568
0.08961227
0.66240544
0.31631475
-0.15236424
-0.43462440
-1.97651440
0.23473474
-2.11531485
-2.45384450
-0.62925034
-0.03433212
1.86114915
-0.03604732
-0.10496642
-1.01757066
0.43222616
-0.45027329
1.18071242
-3.19065888
-1.87277764
-0.72766290
-0.08771640
-0.59553106
1.31632597
-1.56946644
-0.54158072
-0.38549893
-1.42681135
-0.30533973
-1.33570806
1.23339152
1.91928320
-0.24556665
-0.01323267
-0.32679858
0.09208671
-0.47611598
0.16717211
-0.50636471
0.02752496
-1.49882821
0.06267339
0.08343883
-2.88520289
-1.65568154
-0.82664270
-0.75501976
-0.04566386
-0.34177914
-0.46632058
1.70724120
-2.04441414
0.09898458
0.60136797
-2.14231825
-0.03716332
-1.42630453
0.11040737
0.89092945
0.73828764
-0.67563433
1.20552609
-0.20290335
-1.02450894
0.62755433
-0.51114567
1.64035989
-0.42517283
-0.08858424
0.61470540
-1.62346081
-0.80728026
-1.05271210
0.25657943
0.78677587
0.23065904
-0.35039262
-0.01177948
-0.38846808
-1.00089926
-1.52537055
0.82933640
-0.34016461
0.32134174
0.65151258
-1.40969315
-0.21760067
0.34354740
-0.28562255
-0.05049803
-0.39113778
0.82434134
-1.40240654
-0.00507829
0.17844990
-0.14938971
0.75330498
-1.61010650
-0.00397222
0.06689755
-0.53487251
-2.05134756
-0.07435492
-1.57194993
1.79977185
-0.38901731
-1.37646766
-1.46396822
-0.09635882
1.44573359
-0.78155107
0.28257611
-0.11322311
0.00701941
0.57479817
-0.50323982
-1.99785367
-0.09864273
0.16823165
-0.68834824
0.89444641
0.14091750
0.05071908
-1.62635287
-0.54465715
0.16990568
0.96401932
-1.48174874
-0.16395988
0.03114292
0.37477531
-0.74926051
1.36280911
0.88215507
-0.01139113
-0.57802412
0.20704865
0.97837195
0.09004973
-1.53290204
-0.34437968
-0.83724513
-1.12684814
-0.05576322
-1.36290161
-0.04816238
0.14552023
-1.27226186
-0.16201284
-0.70124325
-0.19424254
-1.36477054
-0.54309243
-0.82309571
-1.25222994
0.15253621
1.01973559
0.09329739
-0.16454001
0.07251800
-0.08709923
1.01950768
-0.00642009
1.30960142
0.34135084
-0.03731468
-0.69680745
0.28935790
0.71415115
-1.05982547
-0.20947770
1.07954098
0.09644002
-0.59190283
-0.42875609
-0.64740939
0.92835746
-0.08406137
0.01705892
-0.13283434
0.96692467
-0.69692438
-0.60642227
-0.83632705
0.03534529
-2.03772970
0.69953048
0.03794549
0.21777356
-0.85168317
-0.16370698
1.08383816
-0.61705633
-1.17440125
-0.02447806
0.16273135
-0.07554017
-0.85392558
-1.36104799
-0.09376906
-1.42109745
-0.08283940
-0.08913699
0.69451686
1.43333569
-0.97527371
-0.19947144
0.27863422
0.03772602
-1.18981303
2.01408999
-0.28957396
-0.07610821
-0.79331337
-0.69646437
0.79506500
-0.49551041
-0.00345520
-0.50668680
0.54391965
0.39645131
0.60297194
-1.28269863
-1.35279357
0.44879673
1.67245369
0.04755775
0.58529978
-0.25362663
-0.08332284
0.60315398
0.20511429
-0.20416027
0.03039415
-0.12919908
0.26802574
-1.34128969
0.19585339
-0.74222116
0.08141103
-0.04992734
-1.35749959
-0.29997521
0.14395537
-1.15777666
0.08042659
-1.22172051
1.28707010
-1.11594403
0.18683637
0.38761111
0.66713104
0.21486415
-1.13362387
-1.43781749
-0.02623164
-1.85129634
-1.38073170
-1.26517888
-1.76301900
0.03222182
0.07476544
1.32598259
0.01642432
1.19553243
-0.52155776
0.32304913
-0.58541832
0.22147081
0.26945798
-0.36389512
-1.52515773
-0.38514458
0.47297499
0.09321582
-0.08304994
-0.21847431
0.13270420
-1.96810093
1.21480956
0.60655138
-0.80111156
-1.21279280
0.19505120
-0.04541834
-0.97280236
1.46816535
0.60955200
0.43508420
0.29918184
0.14339471
-0.66880645
0.08094466
0.14637437
-0.10280205
-0.31194004
-0.33635362
0.38154096
0.22737691
-0.03364419
-1.09348925
-1.49535610
1.40490929
1.04180067
-0.58745486
-0.84814838
-1.20402054
1.60501415
0.20492656
-0.76376165
0.06598232
-0.08672139
-0.14028360
-1.28024385
-1.38757091
0.12055186
0.01785420
-0.07574725
-1.33385544
-0.19627757
-1.46675151
-1.70134213
-0.57524947
-0.81369440
-0.65445234
-2.03463101
0.08619616
-2.03723010
-1.74356315
0.88926977
0.23882957
0.19765531
0.01083078
1.18661726
0.08173665
0.87046000
-0.03068983
1.30084742
-0.05661584
0.60036230
-0.17111326
0.15050745
-1.75313988
0.45584881
-0.49364650
-0.05228268
0.39386002
1.06722187
-0.53680664
0.49166189
0.06944600
0.75270586
-0.85151868
-1.16642395
-0.36216523
0.26195667
-0.43784098
-0.28420700
0.88127212
1.09675050
-0.02801164
-0.67540320
-1.70976654
-0.47935474
-0.01776163
0.41021969
-1.68011812
-0.20660205
-0.01555960
-0.20456599
-0.60120232
0.72020759
-1.34598902
1.00072505
0.25927675
0.95141627
-0.02472845
-0.02715891
-0.77597739
-0.85290579
-1.71179863
-0.83848524
