8.47631285
5.05277961
9.58447513
2.93301387
-0.34917152
-1.84778006
-1.19866458
-3.32410862
1.74597042
-1.72008690
-2.57156155
6.23381127
-4.20085190
5.96062831
10.10400607
-5.91616444
4.02298844
-11.90957663
5.31303564
0.93917208
-6.64470738
-16.69650600
4.01346929
-0.80725888
3.62722444
6.25598973
-1.56313429
0.81597435
0.46553534
3.41050583
4.09782552
-11.77160692
3.77999551
-10.58319151
-5.00942621
0.27188644
-3.64629067
2.46310711
-3.63851920
-2.01538187
-7.12680322
-1.76765167
1.54950490
12.07612928
8.96459689
-0.39212035
-2.20103919
8.57420973
9.50850810
-4.22986927
0.56765310
-6.88583376
-13.56406568
4.38567307
-3.20099766
5.19732398
0.34749300
-0.34454879
-3.31653658
-2.06872848
3.01813407
-2.06193736
-4.84046015
-2.13017883
8.12822096
7.08346081
4.34894170
-3.09149713
-4.92093564
12.30856880
-7.24186063
6.04168272
10.27445240
2.61717176
-2.17500681
0.00554050
-3.91660023
-1.65767415
-2.22859262
0.83824360
-3.23350812
11.53181364
3.77030625
8.00257542
-2.09491847
-13.19950799
-7.20218712
-2.17361211
8.14170375
4.24540884
3.48455902
-1.78588902
4.91535209
4.61199545
-10.57263637
-4.50389050
-2.18225107
1.46106336
-3.52626135
1.64311955
-0.23451270
8.30148983
-6.28935078
-7.18585972
-12.94139425
6.99669891
8.02904660
-3.61343889
-5.28090915
5.27223925
-8.22180789
-1.50709628
5.33696159
3.64792976
1.07273932
6.51570052
-3.38896458
-0.11810417
-7.29513539
-2.70071108
-0.23574294
8.03844705
8.28734152
7.37568356
-3.34777880
7.27365954
-9.33106385
4.69559159
7.46524275
-7.98715500
-6.91290612
8.64869584
2.26521766
3.01312873
-3.60789042
-11.42486026
-2.00462773
1.52006038
-14.88377642
-10.15775883
8.12660733
4.64055759
-8.60431338
4.90621418
-1.44304949
-2.73359133
2.38030872
16.71910486
-3.90097349
2.59222103
0.53553027
12.98101341
0.92968459
11.38116645
5.87000287
-4.86087993
-3.48056892
4.58487646
12.67119571
6.65832123
-2.68180103
-5.76160019
-0.00746560
0.11684034
-6.47448453
1.76487752
6.71538483
2.80715153
-0.49848414
7.74485803
-10.96632009
-6.16701045
-0.57175637
2.47868823
7.91952563
5.12850951
14.28571082
0.36527884
-0.05890718
-1.94796694
-6.30919089
-0.46603608
-5.07448423
-0.49373926
-1.06475042
3.66983103
2.28138210
0.96928468
-5.88881900
-6.24861227
6.70415158
-7.18796747
