-1.26225142
0.43317367
-0.01109302
-0.01180634
-0.21065905
2.08510804
2.89705830
0.15217928
-0.38091672
3.22459057
-0.58464533
-0.02112086
-0.02230409
0.01149731
1.63386439
-0.09310348
3.22200660
6.05719141
-0.93459469
0.04630921
0.10297470
-0.73027367
0.05540038
-0.05194235
0.03382846
5.17744314
0.05324255
-0.45992590
-1.45453775
-0.11823586
0.10926915
-0.46353248
-0.98886621
0.16445111
3.91786830
-0.39736819
0.26633870
-1.02118962
2.67687832
0.38943341
1.89261181
-1.26015506
0.75946065
0.01950958
-1.10795844
2.11809244
0.26935549
3.24086487
0.03975633
0.13495222
0.27421236
-1.61392800
-0.94508082
1.73888678
-1.53592082
-0.39544016
2.99561690
1.62033819
2.16504657
0.01493500
3.18766593
0.00703983
-1.01148182
-0.63518396
1.25847040
-0.77842191
2.39952282
-0.31119720
0.23622965
0.25012047
-0.82379175
0.03814637
3.41955383
0.12562887
-1.49558976
-0.35910067
0.96999931
-0.76114743
-0.04653666
-0.16836301
2.27831954
-2.36933318
1.15018792
-0.99270895
-0.31999606
0.55451123
-0.75063402
0.21384492
2.02946283
-0.00933293
-0.61393350
1.35001231
0.63808676
2.58102913
1.48068479
0.22966068
0.17542046
0.03658365
1.40559414
0.10369594
1.44702734
0.02619247
-1.15817156
0.22461548
1.85387105
-0.27119015
2.17281870
0.26838346
-0.00837976
-0.15953874
0.09013404
-0.08713823
0.27675767
-0.14280149
-0.91902661
0.15013758
0.66013189
0.09815885
1.14683508
2.37420558
1.24015243
2.26372956
0.03451624
-0.19479199
3.97071467
0.17895679
-0.25794670
3.47967812
1.44360994
-0.52101646
0.17166817
0.43058290
0.43636213
0.10373604
0.40542336
0.69494333
-0.36554594
-1.32587954
3.79290220
-1.49839566
0.09961311
0.07176854
2.42014122
-0.33159480
0.07603555
-1.01343846
0.04167995
0.20727263
-1.32072409
-0.84365222
2.46934486
-2.03906662
-0.23972193
3.06047755
-0.81552042
0.00415710
-0.33961777
0.51910757
2.66160402
-0.77665275
2.84492918
2.10739065
-0.02741005
0.00110649
0.03130447
-1.36398068
0.26284444
-1.28479135
-0.03392854
-0.69328295
2.74707023
-0.88403167
-0.39274275
-0.40537069
1.13458637
0.03867458
-0.48200056
-1.19536974
0.04659338
1.48903623
0.03112362
0.40201781
4.07074623
-1.54418866
2.75827823
0.03521567
-0.14832343
1.71638378
1.09154327
-1.20370294
0.08061326
-0.03834942
