2.50000000
8.50000000
3.00000000
10.50000000
-8.25000000
-3.75000000
-19.75000000
8.00000000
-11.25000000
5.00000000
-8.25000000
6.50000000
2.75000000
-11.50000000
-4.25000000
-3.00000000
-11.25000000
13.50000000
-9.25000000
7.50000000
-4.50000000
-3.75000000
12.75000000
-8.25000000
9.00000000
9.25000000
3.25000000
-23.75000000
-7.25000000
0.00000000
-5.00000000
-21.00000000
-24.75000000
-13.75000000
-0.50000000
1.75000000
-16.75000000
-3.25000000
4.25000000
-12.00000000
-3.00000000
-7.75000000
0.75000000
-11.50000000
21.75000000
-4.75000000
-15.50000000
-9.25000000
1.25000000
3.75000000
-6.25000000
2.00000000
-3.00000000
-14.25000000
6.75000000
-4.00000000
-0.50000000
-3.75000000
19.00000000
1.75000000
4.00000000
6.00000000
-17.50000000
8.50000000
-0.50000000
-1.75000000
2.50000000
3.00000000
-5.50000000
1.50000000
-2.25000000
1.25000000
6.00000000
-10.75000000
3.50000000
-11.00000000
-11.50000000
4.50000000
-6.00000000
5.75000000
3.25000000
7.25000000
13.75000000
0.00000000
9.75000000
14.25000000
-1.75000000
-1.50000000
28.75000000
-4.50000000
0.00000000
8.75000000
13.25000000
-8.75000000
-3.25000000
5.25000000
