2.38165673
8.37896895
3.11320174
10.51594452
-8.31815522
-3.76767521
-19.81561758
8.00974037
-11.30147097
5.04006484
-8.15252419
6.42456425
2.87169803
-11.47044423
-4.29751472
-2.88369077
-11.22543861
13.60022104
-9.16504388
7.41450922
-4.37797485
-3.87197677
12.74859213
-8.15819986
9.00796821
9.34527582
3.13683869
-23.67195059
-7.24094996
0.01706548
-4.88787682
-20.91147562
-24.77147749
-13.62723015
-0.42384734
1.63679844
-16.70904712
-3.13850216
4.31136211
-11.88501071
-3.09469267
-7.67445045
0.76288685
-11.46115637
21.68674685
-4.71337769
-15.54756999
-9.13815498
1.30383091
3.66436192
-6.16507511
2.07020866
-2.90341969
-14.28445494
6.64372500
-4.07976617
-0.41693154
-3.87297961
18.98179462
1.67066753
3.88011692
5.96291781
-17.46913172
8.52076066
-0.49220988
-1.73295342
2.44345603
3.04703457
-5.62216095
1.44073923
-2.26922678
1.28393120
6.09792884
-10.75317216
3.46626545
-11.06332880
-11.41521285
4.47247669
-5.99814419
5.67493446
3.21039920
7.25707965
13.69177429
0.10111873
9.77447310
14.18649463
-1.75313738
-1.49514239
28.65512680
-4.38127765
0.04949291
8.75803034
13.29921582
-8.67277391
-3.25267039
5.18253761
